SVM-light Version V6.02
2 # kernel type
3 # kernel parameter -d 
2 # kernel parameter -g 
1 # kernel parameter -s 
1 # kernel parameter -r 
empty# kernel parameter -u 
64 # highest feature index 
2823 # number of training documents 
2824 # number of support vectors plus 1 
0.94428902 # threshold b, each following line is a SV (starting with alpha*y)
-0.056080595481147410552580367948394 4:6 5:15 6:2 7:2 11:3 12:15 13:10 14:4 15:15 18:2 19:14 20:9 22:12 23:11 26:9 27:16 28:4 29:3 30:16 31:14 34:11 35:16 36:16 37:16 38:15 39:7 42:1 43:10 44:11 45:16 46:8 52:3 53:16 54:1 60:8 61:11 #
-0.056080595481147410552580367948394 2:2 3:15 4:16 5:10 10:8 11:16 12:10 13:16 14:2 18:4 19:7 21:16 22:6 28:2 29:16 30:4 36:8 37:14 43:2 44:16 45:7 50:2 51:15 52:16 53:9 54:8 55:8 58:3 59:16 60:16 61:16 62:16 63:12 #
-0.056319915745813409202469301817473 2:4 3:15 4:16 5:12 10:12 11:15 12:7 13:16 14:5 18:3 19:3 21:15 22:4 29:13 30:7 36:5 37:15 38:2 43:1 44:14 45:11 50:1 51:13 52:16 53:9 54:8 55:3 58:3 59:16 60:16 61:16 62:16 63:16 64:1 #
-0.056319915745813409202469301817473 3:7 4:15 5:13 6:3 11:11 12:6 13:8 14:14 20:3 21:8 22:12 28:16 29:14 30:2 36:10 37:15 38:7 45:2 46:11 47:10 50:1 51:15 52:3 53:1 54:11 55:10 59:4 60:15 61:16 62:13 63:2 #
-0.054947458002361670992286235559732 3:10 4:16 5:12 10:1 11:14 12:13 13:16 14:4 19:2 20:3 21:16 22:5 28:4 29:16 30:2 36:11 37:14 43:2 44:16 45:8 47:3 50:1 51:13 52:16 53:14 54:16 55:16 56:3 59:12 60:16 61:16 62:13 63:7 #
0.50000000000007061018436615995597 3:1 4:13 5:14 6:2 11:7 12:16 13:10 14:12 18:3 19:15 20:10 22:12 23:3 26:7 27:9 30:8 31:7 34:5 35:9 38:8 39:7 42:1 43:13 46:11 47:2 51:13 52:7 53:5 54:10 59:3 60:14 61:15 62:3 #
0.50000000000007061018436615995597 3:3 4:10 5:13 6:5 11:15 12:12 13:5 14:14 15:1 18:4 19:12 20:1 22:10 23:4 26:5 27:8 30:8 31:7 34:5 35:8 38:8 39:8 42:4 43:11 46:11 47:5 50:1 51:14 52:6 53:7 54:12 59:4 60:15 61:14 62:4 #
0.50000000000007061018436615995597 3:2 4:14 5:12 6:2 11:12 12:13 13:7 14:13 18:5 19:16 20:1 22:12 23:3 26:6 27:12 28:2 30:4 31:8 34:7 35:8 38:7 39:8 42:1 43:14 44:1 46:9 47:6 51:9 52:11 53:7 54:16 55:1 59:2 60:12 61:16 62:8 #
0.50000000000007061018436615995597 3:2 4:8 5:15 6:7 11:11 12:15 13:6 14:14 15:3 19:16 20:6 22:4 23:9 26:8 27:4 30:4 31:8 34:6 35:7 38:5 39:8 42:3 43:13 46:13 47:1 51:10 52:11 53:8 54:11 59:1 60:13 61:11 62:2 #
0.50000000000007061018436615995597 3:4 4:15 5:10 10:3 11:16 12:9 13:10 14:7 18:7 19:15 20:3 21:1 22:11 23:2 26:8 27:6 30:6 31:7 34:8 35:5 38:4 39:8 42:4 43:10 46:7 47:8 51:13 52:6 53:5 54:15 55:3 59:4 60:15 61:14 62:6 #
-0.05489540737466480635475818417035 3:5 4:16 5:16 6:15 7:1 11:10 12:9 13:10 14:16 15:2 20:1 21:12 22:10 28:9 29:16 30:8 36:2 37:14 38:16 39:5 44:4 46:16 47:5 51:3 52:14 53:8 54:13 59:4 60:16 61:13 62:3 #
-0.054947458002361670992286235559732 3:11 4:16 5:15 6:2 11:12 12:10 13:14 14:8 21:11 22:8 28:1 29:15 30:3 35:1 36:11 37:11 42:6 43:15 44:15 45:2 50:9 51:16 52:14 53:9 54:3 58:1 59:9 60:12 61:15 62:16 63:13 #
-0.054947458002361670992286235559732 3:1 4:9 5:15 6:12 11:13 12:8 13:5 14:14 15:4 19:14 20:1 21:5 22:14 23:1 27:7 28:13 29:16 30:4 35:11 36:12 37:14 38:12 39:1 42:4 43:13 46:11 47:7 50:1 51:13 52:7 53:2 54:8 55:8 59:1 60:9 61:16 62:13 63:2 #
0.50000000000007061018436615995597 3:2 4:13 5:14 6:2 10:1 11:15 12:16 13:16 14:9 18:7 19:16 20:8 21:5 22:16 23:1 26:6 27:16 28:3 30:11 31:7 34:5 35:16 36:4 38:8 39:8 43:16 44:9 46:10 47:11 51:10 52:15 53:10 54:16 55:8 59:2 60:13 61:16 62:14 63:2 #
0.50000000000007061018436615995597 3:4 4:16 5:7 6:1 11:10 12:13 13:15 14:11 18:2 19:15 20:3 21:4 22:15 23:3 26:4 27:16 30:12 31:8 34:5 35:16 36:1 38:9 39:8 42:4 43:16 44:2 45:1 46:13 47:7 51:14 52:9 53:9 54:14 55:1 59:5 60:14 61:15 62:6 #
0.50000000000007061018436615995597 3:4 4:14 5:15 6:4 10:1 11:16 12:14 13:15 14:13 18:4 19:16 20:7 21:4 22:16 23:3 26:5 27:16 28:3 30:12 31:4 34:4 35:16 36:2 38:11 39:8 42:2 43:16 44:6 45:1 46:15 47:4 51:12 52:13 53:13 54:14 55:1 59:3 60:16 61:15 62:4 #
-0.056080649563695184056655307358596 2:3 3:15 4:16 5:11 10:10 11:15 12:13 13:16 14:2 18:10 19:7 20:4 21:16 26:1 28:9 29:12 35:1 36:16 37:6 43:10 44:15 50:7 51:16 52:14 53:12 54:14 55:11 58:6 59:16 60:16 61:16 62:11 63:3 #
-0.056142146651314228655849092319841 3:9 4:13 5:15 6:10 7:1 11:7 12:4 13:4 14:12 15:13 22:7 23:11 27:2 28:12 29:13 30:12 31:2 36:10 37:15 38:1 44:1 45:11 46:9 51:12 52:3 53:3 54:15 59:8 60:16 61:16 62:3 #
-0.056142146651314228655849092319841 2:2 3:16 4:10 5:9 6:8 11:10 12:16 13:16 14:12 18:1 19:5 20:10 21:16 22:10 23:6 26:11 27:16 28:16 29:16 30:15 31:7 34:3 35:5 36:14 37:9 38:2 43:6 44:16 51:10 52:10 58:3 59:16 60:1 #
0.50000000000007061018436615995597 3:6 4:14 5:9 10:3 11:16 12:13 13:16 14:6 18:2 19:16 20:3 21:9 22:13 26:1 27:16 28:1 29:1 30:15 31:4 34:3 35:16 38:12 39:6 43:16 44:1 46:13 47:4 51:16 52:8 53:8 54:15 55:1 59:7 60:15 61:14 62:5 #
0.50000000000007061018436615995597 3:4 4:14 5:11 10:3 11:16 12:9 13:15 14:7 18:9 19:15 21:4 22:14 23:2 26:8 27:13 30:12 31:6 34:8 35:12 38:11 39:7 42:6 43:14 44:1 46:14 47:4 51:14 52:11 53:8 54:16 55:1 59:5 60:16 61:14 62:6 #
0.50000000000007061018436615995597 3:5 4:14 5:12 6:1 11:14 12:15 13:16 14:10 18:4 19:13 20:1 21:3 22:15 26:5 27:7 30:11 31:7 34:4 35:13 38:6 39:8 42:4 43:16 44:2 46:9 47:8 51:13 52:15 53:10 54:16 55:3 59:4 60:13 61:16 62:11 #
-0.05489013491807137601341537447297 3:3 4:14 5:16 6:12 7:1 10:3 11:16 12:14 13:3 14:11 15:4 18:2 19:13 20:1 21:3 22:15 23:4 27:10 28:16 29:16 30:8 34:2 35:15 36:10 37:14 38:4 42:5 43:14 45:3 46:14 47:1 51:14 52:4 53:1 54:14 55:2 59:2 60:13 61:16 62:10 #
-0.056188470416213887048684227920603 4:9 5:14 11:5 12:16 13:4 14:4 15:9 18:4 19:16 20:3 22:13 23:9 26:6 27:16 28:15 29:12 30:16 31:13 35:8 36:11 37:15 38:14 39:3 45:16 46:5 52:6 53:13 60:9 61:10 #
-0.056188470416213887048684227920603 5:8 6:13 7:1 11:1 12:9 13:15 14:14 15:1 18:6 19:14 20:16 21:16 22:10 26:5 27:11 28:4 29:16 30:9 36:3 37:16 38:5 44:3 45:16 46:7 53:16 54:10 61:11 62:13 #
0.50000000000007061018436615995597 3:2 4:12 5:5 10:1 11:13 12:16 13:13 14:2 18:3 19:16 20:10 21:14 22:11 26:7 27:16 28:8 29:5 30:16 31:4 34:7 35:16 36:8 37:1 38:14 39:5 42:2 43:15 44:9 45:1 46:15 47:5 51:11 52:14 53:11 54:15 55:2 59:3 60:16 61:15 62:3 #
0.50000000000007061018436615995597 3:1 4:14 5:13 6:1 11:12 12:16 13:16 14:12 18:1 19:11 20:14 21:11 22:16 23:5 26:3 27:8 28:16 29:2 30:8 31:10 35:5 36:14 38:8 39:7 43:7 44:12 46:15 47:3 51:7 52:14 53:11 54:11 59:2 60:16 61:13 62:2 #
0.50000000000007061018436615995597 4:8 5:12 6:1 11:8 12:16 13:14 14:8 18:6 19:16 20:2 21:2 22:16 26:8 27:16 28:2 30:10 31:6 34:4 35:16 36:3 38:8 39:8 43:10 44:9 46:8 47:8 51:4 52:16 53:12 54:16 55:2 60:7 61:13 62:8 #
-0.056188470416213887048684227920603 5:15 6:15 7:1 12:2 13:16 14:16 15:4 19:2 20:11 21:16 22:15 23:1 26:9 27:16 28:16 29:16 30:12 34:3 35:10 36:8 37:16 38:8 45:16 46:11 53:15 54:13 61:15 62:15 #
-0.056184205924123653552726409543538 3:2 4:14 5:15 6:8 11:8 12:10 13:3 14:15 15:1 19:5 20:11 21:1 22:15 23:4 28:12 29:15 30:16 31:5 37:2 38:8 39:6 42:1 43:3 46:7 47:5 50:1 51:12 52:4 54:10 55:7 59:4 60:14 61:14 62:13 63:1 #
-0.056130027389607484167299844557419 3:9 4:15 5:14 6:1 10:2 11:16 12:8 13:15 14:10 18:2 19:14 20:4 21:13 22:14 23:1 27:7 28:15 29:15 30:14 31:6 36:1 37:1 38:7 39:9 46:3 47:12 51:6 54:6 55:12 59:9 60:16 61:16 62:16 63:6 #
0.50000000000007061018436615995597 3:12 4:16 5:6 10:6 11:16 12:11 13:15 14:5 18:8 19:16 21:11 22:15 23:1 26:8 27:14 29:2 30:16 31:5 34:8 35:14 38:12 39:7 42:5 43:16 44:2 45:1 46:16 47:4 50:3 51:15 52:10 53:11 54:14 55:2 59:6 60:12 61:10 62:1 #
0.50000000000007061018436615995597 3:3 4:15 5:13 6:2 10:2 11:15 12:14 13:16 14:8 18:5 19:15 20:6 21:4 22:15 26:1 27:15 28:1 29:1 30:15 31:3 34:3 35:16 36:2 38:12 39:5 42:3 43:16 44:3 46:12 47:6 51:12 52:14 53:15 54:15 59:2 60:14 61:14 62:4 #
0.50000000000007061018436615995597 3:3 4:14 5:3 10:3 11:15 12:16 13:15 14:1 18:6 19:15 20:5 21:8 22:11 26:7 27:10 30:12 31:5 34:4 35:11 38:6 39:10 42:2 43:14 46:6 47:12 51:12 52:9 53:5 54:13 55:8 59:2 60:15 61:16 62:13 63:2 #
-0.056130027389607484167299844557419 3:7 4:10 5:13 6:5 10:6 11:16 12:12 13:16 14:12 18:6 19:15 20:6 21:16 22:14 23:1 26:1 27:13 28:16 29:12 30:16 31:2 38:13 39:4 46:11 47:7 51:11 52:6 53:4 54:13 55:8 59:9 60:16 61:16 62:12 63:3 #
-0.056187511750881546923608311772114 3:8 4:16 5:16 6:16 7:16 8:2 11:8 12:10 13:7 14:12 15:13 21:3 22:15 23:2 27:4 28:11 29:15 30:16 31:13 35:11 36:16 37:14 38:6 43:1 44:14 45:6 51:7 52:13 53:1 59:12 60:8 #
-0.054884253113130276879871871642536 3:10 4:12 5:13 6:11 7:2 11:14 12:9 13:8 14:8 15:2 19:15 26:6 27:16 28:6 34:3 35:12 36:13 37:15 38:5 45:6 46:13 47:1 51:9 52:5 53:4 54:14 59:8 60:15 61:15 62:7 #
0.50000000000007061018436615995597 3:4 4:11 5:4 11:12 12:15 13:16 14:14 18:4 19:15 21:5 22:12 23:6 26:6 27:10 30:7 31:8 34:7 35:8 38:8 39:8 42:6 43:13 45:1 46:13 47:3 50:2 51:16 52:10 53:12 54:13 59:6 60:13 61:12 62:1 #
0.50000000000007061018436615995597 3:3 4:14 5:7 6:1 11:11 12:15 13:16 14:12 19:14 20:8 22:13 23:4 26:1 27:16 28:2 30:12 31:6 34:1 35:16 36:2 38:13 39:7 42:2 43:16 45:4 46:16 47:1 51:13 52:10 53:15 54:13 59:6 60:15 61:12 62:6 #
0.50000000000007061018436615995597 3:4 4:14 5:15 6:8 7:1 11:14 12:14 13:12 14:15 15:7 18:3 19:15 20:1 22:9 23:7 26:6 27:12 30:8 31:8 34:8 35:11 38:9 39:8 42:8 43:12 46:14 47:5 50:3 51:16 52:9 53:14 54:11 59:6 60:14 61:11 #
-0.056129316724125466464556666323915 3:2 4:13 5:13 6:4 11:12 12:13 13:11 14:14 19:9 20:13 21:13 22:14 23:1 28:4 29:8 30:13 31:3 38:7 39:9 46:3 47:13 51:14 52:6 54:6 55:12 59:2 60:12 61:16 62:16 63:7 #
-0.056129255122450261161759499373147 4:5 5:12 6:15 7:7 11:3 12:14 13:4 14:13 15:6 19:4 20:13 22:14 23:7 28:13 29:14 30:16 31:8 37:3 38:8 39:8 42:1 43:3 46:10 47:8 50:5 51:16 52:7 54:12 55:4 59:2 60:6 61:13 62:15 63:1 #
-0.056189934480118663984171689662617 3:6 4:12 5:15 6:15 7:9 11:8 12:12 13:4 14:4 15:3 19:12 20:3 26:1 27:15 28:6 29:3 34:8 35:16 36:12 37:16 38:6 42:3 43:4 45:4 46:11 50:4 51:15 52:5 53:13 54:6 59:6 60:16 61:10 #
0.50000000000007061018436615995597 3:5 4:15 5:11 6:9 7:1 11:10 12:16 13:12 14:14 15:7 19:15 20:2 22:10 23:8 26:2 27:12 30:11 31:8 34:4 35:10 38:12 39:5 42:8 43:10 45:3 46:15 47:1 50:2 51:15 52:12 53:14 54:9 59:6 60:14 61:9 62:1 #
0.50000000000007061018436615995597 3:7 4:16 5:10 10:1 11:13 12:14 13:16 14:8 18:5 19:16 20:4 21:7 22:13 26:4 27:16 28:4 30:13 31:5 34:7 35:16 38:12 39:8 42:2 43:15 44:7 46:10 47:11 51:12 52:15 53:12 54:16 55:5 59:6 60:15 61:16 62:8 #
0.50000000000007061018436615995597 2:1 3:14 4:16 5:9 10:8 11:16 12:12 13:15 14:6 18:6 19:16 20:7 21:5 22:14 26:4 27:16 28:4 30:14 31:4 34:4 35:16 36:3 38:10 39:6 42:6 43:16 44:1 46:10 47:8 50:3 51:16 52:9 53:7 54:15 55:6 58:1 59:15 60:16 61:15 62:9 #
-0.056161685948212025643044853495667 4:2 5:15 6:7 12:11 13:12 14:1 19:6 20:15 21:1 22:14 23:2 26:5 27:15 28:5 29:3 30:16 31:1 34:7 35:16 36:14 37:13 38:16 39:8 42:1 43:6 44:12 45:15 46:14 47:3 52:1 53:13 54:7 60:3 61:16 62:1 #
-0.056126118803472180296409987931838 3:5 4:13 5:12 6:15 7:2 11:13 12:13 13:8 14:8 15:2 18:3 19:16 20:5 26:7 27:16 28:13 29:5 34:1 35:7 36:10 37:16 38:10 45:4 46:16 47:4 51:8 52:6 53:5 54:16 55:4 59:7 60:13 61:13 62:10 #
-0.054895609680736590085814441408729 4:2 5:14 6:5 7:1 11:1 12:12 13:13 14:1 15:15 16:4 19:9 20:15 21:2 22:6 23:16 24:2 26:7 27:16 28:13 29:8 30:14 31:12 34:9 35:16 36:16 37:16 38:16 39:10 44:3 45:11 46:15 47:1 53:14 54:10 60:2 61:16 62:4 #
0.50000000000007061018436615995597 3:8 4:16 5:11 10:1 11:15 12:15 13:14 14:9 18:1 19:15 20:12 22:12 23:6 27:16 28:7 30:10 31:4 35:16 36:6 38:10 39:8 42:3 43:16 44:3 46:15 47:3 50:1 51:14 52:14 53:12 54:16 59:7 60:13 61:16 62:8 #
0.50000000000007061018436615995597 3:3 4:15 5:12 6:2 10:1 11:16 12:14 13:13 14:11 18:5 19:16 20:12 22:11 23:5 26:4 27:11 28:11 30:3 31:8 34:6 35:8 38:4 39:8 42:4 43:11 46:9 47:7 51:15 52:13 53:9 54:13 55:5 59:3 60:12 61:14 62:12 #
0.50000000000007061018436615995597 3:9 4:16 5:14 6:1 10:4 11:16 12:14 13:15 14:8 18:8 19:16 20:5 21:3 22:15 23:2 26:7 27:13 30:15 31:4 34:8 35:12 38:12 39:5 42:5 43:14 44:1 45:2 46:14 47:4 51:16 52:16 53:16 54:13 55:1 59:8 60:14 61:11 62:3 #
-0.054890408645679400478911702521145 3:7 4:13 5:12 6:9 7:1 10:3 11:15 12:5 13:5 14:16 15:4 18:3 19:15 20:2 21:7 22:16 23:1 27:5 28:15 29:16 30:15 31:4 38:11 39:7 42:1 43:4 46:9 47:7 50:3 51:13 52:1 54:10 55:8 59:9 60:15 61:16 62:16 63:1 #
-0.056081072647801599728722976578865 2:3 3:16 4:16 5:10 10:2 11:12 12:11 13:16 14:3 20:2 21:16 22:5 28:3 29:16 30:2 35:1 36:15 37:10 43:13 44:16 45:1 50:7 51:16 52:13 53:10 54:12 55:13 58:2 59:15 60:16 61:16 62:12 63:6 #
-0.056081072647801599728722976578865 3:14 4:16 5:14 6:5 11:3 13:2 14:16 15:3 20:4 21:10 22:15 23:1 26:6 27:16 28:16 29:14 30:2 34:1 35:4 36:6 37:12 38:12 46:12 47:9 51:10 53:4 54:14 55:5 59:13 60:16 61:13 62:4 #
0.50000000000007061018436615995597 3:3 4:14 5:8 10:8 11:16 12:16 13:16 14:6 18:11 19:14 20:4 21:7 22:14 26:9 27:10 30:12 31:7 34:6 35:11 38:6 39:8 43:16 44:4 46:4 47:12 51:10 52:14 53:10 54:14 55:10 59:2 60:12 61:16 62:13 63:2 #
0.50000000000007061018436615995597 3:5 4:15 5:10 10:1 11:15 12:12 13:13 14:10 18:5 19:16 20:2 21:1 22:11 23:3 26:5 27:14 28:2 30:4 31:8 34:4 35:12 38:4 39:8 42:3 43:14 44:2 46:9 47:9 51:12 52:12 53:7 54:14 55:9 59:5 60:16 61:16 62:10 #
0.50000000000007061018436615995597 3:8 4:10 5:16 6:13 10:4 11:16 12:16 13:16 14:16 15:1 18:6 19:16 20:12 21:8 22:15 23:5 26:6 27:16 28:1 30:12 31:8 34:5 35:13 37:1 38:14 39:6 42:4 43:14 44:2 45:12 46:16 47:2 50:2 51:16 52:16 53:16 54:8 59:9 60:12 61:7 #
-0.05489632902963881289082337389118 4:13 5:16 6:16 7:16 8:1 12:7 13:8 14:13 15:11 22:14 23:10 24:1 26:6 27:12 28:13 29:16 30:14 31:9 34:6 35:14 36:10 37:16 38:6 44:7 45:13 46:1 52:13 53:10 60:15 61:3 #
-0.056083027587608524910933738283347 3:6 4:12 5:13 6:12 7:6 11:6 12:8 13:2 14:5 15:7 19:12 20:2 26:7 27:15 28:12 29:7 30:2 34:2 35:8 36:8 37:9 38:15 39:4 46:7 47:7 51:4 52:5 53:4 54:13 55:2 59:4 60:15 61:16 62:6 #
-0.054890863544216683678200752183329 3:1 4:8 5:15 6:8 11:14 12:11 13:14 14:16 18:3 19:12 21:6 22:9 26:1 27:15 28:10 29:14 30:1 35:1 36:15 37:16 38:5 43:5 44:12 45:3 46:15 47:3 51:6 52:11 53:1 54:13 55:4 60:8 61:16 62:13 63:1 #
0.50000000000007061018436615995597 3:4 4:6 5:14 6:14 7:1 11:16 12:16 13:16 14:16 15:5 18:3 19:16 20:7 21:3 22:12 23:8 26:4 27:16 30:9 31:8 34:4 35:16 38:8 39:8 42:1 43:15 44:1 45:1 46:13 47:7 51:14 52:13 53:15 54:12 59:6 60:14 61:14 62:4 #
0.50000000000007061018436615995597 3:3 4:14 5:13 6:2 11:16 12:14 13:14 14:11 18:7 19:15 20:2 21:1 22:16 23:1 26:5 27:12 30:12 31:8 34:8 35:10 38:11 39:8 42:1 43:15 46:8 47:11 51:11 52:10 53:7 54:15 55:6 59:3 60:12 61:16 62:11 63:1 #
0.50000000000007061018436615995597 3:9 4:16 5:4 11:14 12:14 13:13 14:7 18:4 19:15 20:12 21:16 22:16 23:5 26:4 27:12 28:7 29:8 30:14 31:8 34:7 35:12 38:12 39:8 42:5 43:13 46:13 47:8 50:2 51:16 52:12 53:15 54:16 55:5 59:9 60:14 61:12 62:8 #
-0.05489013491807137601341537447297 3:5 4:8 5:12 6:12 7:13 11:14 12:12 13:8 14:4 15:4 19:14 21:2 26:3 27:16 28:16 29:16 30:10 35:5 36:1 37:2 38:15 39:2 46:16 51:4 52:10 53:8 54:9 59:3 60:16 61:13 62:1 #
-0.054869014132690852036944306746591 4:3 5:15 6:4 12:13 13:9 19:8 20:12 22:7 23:4 26:4 27:14 28:3 30:15 31:5 34:11 35:16 36:16 37:16 38:16 39:10 42:5 43:9 44:9 45:13 46:12 53:12 54:7 60:2 61:16 62:3 #
-0.054869014132690852036944306746591 4:2 5:11 6:1 12:7 13:13 14:1 19:6 20:15 21:2 22:4 23:7 26:1 27:14 28:11 30:14 31:8 34:7 35:16 36:16 37:16 38:16 39:3 44:3 45:13 46:14 53:15 54:9 60:3 61:15 62:5 #
0.50000000000007061018436615995597 3:7 4:15 5:13 6:3 11:16 12:16 13:16 14:16 15:1 18:5 19:15 20:7 21:7 22:16 23:5 26:8 27:12 30:15 31:5 34:6 35:16 38:13 39:7 42:5 43:16 44:1 45:2 46:16 47:4 50:3 51:16 52:9 53:14 54:15 59:9 60:13 61:12 62:3 #
0.50000000000007061018436615995597 3:5 4:15 5:2 11:15 12:16 13:16 14:13 15:2 18:4 19:16 20:16 21:14 22:16 23:8 26:7 27:12 30:8 31:8 34:4 35:12 38:8 39:8 42:4 43:15 46:9 47:7 50:1 51:15 52:5 53:7 54:15 55:4 59:5 60:13 61:12 62:7 #
0.50000000000007061018436615995597 3:7 4:16 5:6 6:5 11:16 12:12 13:9 14:14 15:1 18:4 19:15 22:16 23:2 26:4 27:14 30:15 31:3 34:5 35:12 37:3 38:14 42:3 43:16 45:6 46:10 50:1 51:15 52:6 53:16 54:3 59:8 60:15 61:8 #
-0.054869014132690852036944306746591 3:4 4:14 5:5 11:12 12:15 13:14 19:12 20:8 21:15 22:9 27:5 28:16 29:15 30:16 31:4 37:6 38:12 39:10 46:5 47:15 51:3 52:8 53:4 54:9 55:16 56:4 59:5 60:12 61:15 62:12 63:11 #
-0.056111866744724792077647634869209 4:3 5:12 12:12 13:9 14:1 15:1 19:3 20:16 21:3 22:10 23:7 26:1 27:13 28:10 29:1 30:16 31:3 34:8 35:16 36:13 37:13 38:16 39:2 42:3 43:6 44:8 45:16 46:14 47:2 52:2 53:16 54:2 60:3 61:13 #
-0.054872163345101698794792355329264 3:3 4:15 5:8 11:8 12:16 13:16 14:7 19:7 20:11 21:9 22:12 27:2 28:5 29:9 30:11 37:13 38:7 43:7 44:10 45:16 46:4 51:14 52:16 53:16 54:16 55:15 59:1 60:4 61:4 62:7 63:11 64:1 #
0.50000000000007061018436615995597 3:8 4:16 5:15 6:5 11:14 12:16 13:11 14:15 19:16 20:2 22:8 23:4 26:2 27:12 30:8 31:6 34:3 35:11 38:11 39:5 42:3 43:12 45:2 46:15 47:1 50:1 51:15 52:2 53:14 54:8 59:7 60:15 61:12 #
0.50000000000007061018436615995597 3:6 4:15 5:8 10:2 11:15 12:7 13:16 14:5 18:6 19:11 20:1 21:10 22:14 23:2 26:7 27:7 30:10 31:6 34:7 35:5 38:8 39:8 42:4 43:10 46:10 47:7 51:12 52:8 53:4 54:15 55:2 59:2 60:12 61:12 62:8 #
0.50000000000007061018436615995597 3:6 4:13 5:6 11:10 12:16 13:14 14:6 19:14 20:9 21:3 22:16 23:1 27:15 28:2 30:15 31:5 35:14 36:2 38:15 39:1 43:12 44:4 45:5 46:15 51:10 52:9 53:15 54:8 59:5 60:14 61:10 #
-0.054947458002361670992286235559732 4:6 5:11 6:6 11:8 12:13 13:9 14:16 15:3 18:2 19:15 20:4 22:13 23:3 27:7 28:14 29:9 30:13 35:1 36:15 37:16 38:6 43:11 44:10 45:10 46:12 51:9 52:10 53:1 54:16 55:3 60:9 61:12 62:10 63:1 #
-0.055635709122435761386782360204961 3:5 4:12 5:6 11:11 12:16 13:15 14:6 19:10 20:11 21:11 22:15 23:2 27:4 28:15 29:15 30:16 31:6 36:4 37:8 38:13 39:9 46:8 47:13 51:9 52:8 53:8 54:12 55:13 59:5 60:10 61:13 62:12 63:5 #
-0.056161685948212025643044853495667 3:1 4:13 5:10 11:9 12:16 13:11 18:3 19:16 20:11 26:5 27:16 28:11 29:7 30:1 34:4 35:16 36:16 37:16 38:15 39:3 42:3 43:16 44:12 45:2 46:12 47:11 51:12 52:14 53:5 54:9 55:15 60:10 61:15 62:16 63:11 #
0.50000000000007061018436615995597 3:4 4:12 5:15 6:2 11:12 12:14 13:14 14:15 15:2 18:2 19:15 20:1 21:11 22:16 23:4 26:5 27:11 30:11 31:7 34:5 35:11 38:13 39:3 43:15 45:1 46:15 51:14 52:7 53:13 54:11 59:2 60:15 61:12 62:3 #
0.50000000000007061018436615995597 3:2 4:13 5:11 6:5 10:2 11:15 12:10 13:15 14:16 18:4 19:13 20:1 22:11 23:4 26:6 27:6 30:6 31:6 34:5 35:8 38:6 39:7 43:12 46:11 47:6 51:10 52:8 53:2 54:16 55:1 59:2 60:11 61:13 62:6 #
0.50000000000007061018436615995597 3:4 4:16 5:9 11:15 12:16 13:16 14:9 18:3 19:16 20:15 21:5 22:13 23:3 26:5 27:8 28:4 30:5 31:7 34:5 35:6 38:7 39:7 42:2 43:11 46:11 47:6 51:13 52:1 53:6 54:15 59:5 60:15 61:13 62:3 #
-0.055431573212321061383534015476471 3:2 4:9 5:3 10:5 11:14 12:9 13:13 14:9 18:7 19:14 21:10 22:10 27:9 28:14 29:15 30:6 35:7 36:16 37:16 43:12 44:6 45:7 46:12 47:1 51:15 52:5 54:14 55:6 59:2 60:8 61:12 62:11 63:3 #
-0.054890863544216683678200752183329 3:6 4:12 5:8 6:4 10:1 11:14 12:5 13:7 14:16 15:1 18:2 19:16 20:4 21:6 22:13 27:9 28:14 29:15 30:2 35:7 36:14 37:12 38:1 43:15 44:2 45:9 46:11 51:15 52:7 53:6 54:16 59:3 60:8 61:9 62:6 #
-0.054893474333582048529933672398329 2:1 3:8 4:15 5:10 10:6 11:15 12:13 13:16 14:8 20:3 21:14 22:12 27:4 28:15 29:16 30:10 35:7 36:12 37:13 38:16 39:6 46:14 47:8 51:8 52:10 53:13 54:16 55:3 59:10 60:16 61:12 62:5 #
0.50000000000007061018436615995597 3:10 4:11 5:9 6:1 11:14 12:16 13:16 14:6 19:14 20:12 21:6 22:15 26:1 27:16 28:6 30:14 31:3 34:3 35:16 36:6 38:12 39:6 42:3 43:16 45:6 46:15 47:4 50:1 51:16 52:12 53:16 54:15 55:2 59:7 60:16 61:14 62:5 #
0.50000000000007061018436615995597 3:3 4:13 5:10 11:11 12:11 13:11 14:5 18:2 19:16 20:6 22:10 23:1 26:2 27:14 28:1 30:6 31:5 34:3 35:11 38:2 39:9 42:2 43:14 46:4 47:9 51:12 52:9 53:7 54:12 55:9 59:2 60:11 61:15 62:12 63:4 #
0.50000000000007061018436615995597 3:4 4:13 5:10 6:1 11:11 12:16 13:14 14:7 18:1 19:15 20:9 22:12 23:1 26:2 27:16 28:6 30:7 31:5 34:2 35:16 36:10 38:8 39:8 42:1 43:16 44:5 45:2 46:15 47:5 51:11 52:16 53:16 54:13 59:4 60:15 61:11 62:2 #
-0.054882175379908915147098014131188 2:1 3:13 4:12 10:7 11:16 12:16 13:8 18:8 19:10 20:4 21:14 26:2 27:6 28:2 29:15 36:9 37:10 43:5 44:16 45:5 50:2 51:16 52:16 53:16 54:16 55:11 58:1 59:11 60:11 61:8 62:9 63:9 #
-0.056077853597862548085117850860115 3:8 4:12 5:9 6:1 10:3 11:16 12:16 13:16 14:10 18:3 19:16 20:16 21:16 22:10 27:8 28:16 29:16 30:4 35:12 36:16 37:16 38:8 42:1 43:15 44:16 45:16 46:9 51:13 52:16 53:16 54:9 59:6 60:9 61:11 62:3 #
-0.056066387837415021522247116081417 3:6 4:14 5:16 6:5 10:3 11:16 12:13 13:13 14:12 18:1 19:4 20:1 21:12 22:12 27:4 28:14 29:16 30:6 35:6 36:14 37:16 38:15 39:2 45:8 46:16 47:2 50:2 51:16 52:10 53:13 54:15 59:9 60:14 61:8 62:2 #
0.50000000000007061018436615995597 3:5 4:13 5:11 6:2 10:2 11:14 12:15 13:15 14:12 18:2 19:16 20:5 22:7 23:4 26:4 27:16 28:3 30:3 31:6 34:3 35:14 38:8 39:7 42:2 43:16 45:2 46:14 47:6 50:1 51:15 52:15 53:16 54:11 59:7 60:14 61:10 62:1 #
0.50000000000007061018436615995597 3:5 4:16 5:14 6:1 11:13 12:10 13:9 14:10 18:1 19:16 20:4 22:16 26:3 27:16 28:7 30:13 31:6 34:5 35:12 38:13 39:8 42:4 43:16 46:14 47:5 51:15 52:13 53:14 54:12 59:5 60:14 61:10 62:4 #
0.50000000000007061018436615995597 3:1 4:11 5:13 6:1 11:11 12:13 13:9 14:11 18:2 19:16 20:2 22:10 23:2 26:5 27:12 30:5 31:7 34:8 35:8 38:4 39:8 42:2 43:12 46:7 47:7 51:13 52:5 53:8 54:16 55:2 59:2 60:15 61:14 62:5 #
-0.05486590120869849762641479173908 3:6 4:12 5:12 6:8 11:11 12:16 13:16 14:16 19:9 20:16 21:16 22:16 23:1 27:12 28:16 29:16 30:15 31:2 35:12 36:16 37:16 38:16 39:4 43:12 44:16 45:16 46:11 47:1 51:8 52:16 53:16 54:1 58:1 59:11 60:12 61:5 #
-0.056184501138143660980972526886035 3:1 4:12 5:14 6:16 7:10 11:3 12:10 13:8 14:16 15:6 21:3 22:15 23:1 27:1 28:7 29:14 30:14 31:3 35:4 36:13 37:16 38:12 39:5 44:7 45:13 52:13 53:7 59:2 60:14 61:2 #
-0.054872163345101698794792355329264 3:10 4:16 5:6 11:15 12:14 13:16 19:14 20:4 21:16 28:2 29:15 36:6 37:10 43:1 44:14 45:6 50:1 51:14 52:16 53:13 54:12 55:6 59:8 60:8 61:8 62:11 63:11 #
0.50000000000007061018436615995597 3:3 4:15 5:10 6:1 11:11 12:14 13:10 14:7 18:2 19:16 20:3 22:11 23:1 26:4 27:15 30:7 31:5 34:3 35:12 38:3 39:9 42:2 43:11 46:7 47:9 51:11 52:8 53:9 54:16 55:4 59:2 60:10 61:16 62:9 #
0.50000000000007061018436615995597 3:2 4:14 5:14 6:4 11:15 12:16 13:16 14:15 15:1 18:6 19:14 20:16 21:5 22:12 23:6 26:2 27:11 28:12 30:6 31:8 35:12 36:4 38:9 39:6 43:11 44:5 46:12 47:3 51:8 52:12 53:11 54:15 55:2 59:1 60:12 61:10 62:2 #
0.50000000000007061018436615995597 3:2 4:15 5:15 6:6 11:9 12:13 13:4 14:15 15:3 19:14 20:7 22:8 23:4 27:15 28:4 30:5 31:8 34:4 35:13 38:7 39:6 42:2 43:12 46:12 47:5 51:15 52:9 53:12 54:14 59:3 60:13 61:13 #
-0.054890863544216683678200752183329 4:4 5:15 11:1 12:13 13:11 19:7 20:16 21:7 22:12 26:2 27:16 28:11 29:10 30:16 31:2 34:6 35:16 36:16 37:16 38:16 39:3 43:4 44:4 45:15 46:13 47:1 52:1 53:16 54:7 60:4 61:11 62:1 #
-0.055093229868178328345607042137999 3:2 4:16 5:15 6:6 10:7 11:11 12:15 13:12 14:16 18:9 19:16 20:10 21:10 22:16 23:1 27:11 28:16 29:16 30:6 35:15 36:16 37:15 38:2 43:14 44:5 45:10 46:13 47:1 51:11 52:11 53:6 54:16 55:7 59:3 60:11 61:16 62:12 63:3 #
-0.056042324681583766121661938086618 4:4 5:15 11:3 12:15 13:10 19:11 20:15 22:4 26:5 27:16 28:8 29:4 30:16 31:3 34:3 35:16 36:14 37:13 38:16 39:2 43:4 44:6 45:15 46:14 47:2 53:15 54:6 60:2 61:15 62:2 #
0.50000000000007061018436615995597 3:3 4:15 5:4 11:8 12:13 13:15 14:7 18:2 19:16 20:6 21:5 22:16 23:3 26:4 27:14 30:11 31:8 34:6 35:12 38:8 39:8 42:4 43:15 44:1 46:9 47:7 50:1 51:15 52:11 53:9 54:16 55:3 59:4 60:10 61:15 62:8 #
0.50000000000007061018436615995597 3:4 4:15 5:7 10:2 11:15 12:5 13:13 14:5 18:5 19:11 21:2 22:13 23:2 26:5 27:8 30:6 31:8 34:7 35:8 38:5 39:8 42:3 43:11 46:9 47:7 51:14 52:10 53:6 54:15 55:2 59:6 60:12 61:13 62:6 #
0.50000000000007061018436615995597 3:2 4:15 5:8 11:9 12:14 13:16 14:6 19:15 20:9 21:3 22:14 23:3 26:4 27:16 28:2 30:9 31:7 34:8 35:12 38:7 39:8 42:3 43:14 44:1 46:8 47:9 51:15 52:15 53:13 54:15 55:7 59:3 60:14 61:15 62:9 #
-0.054886474088784331648582792695379 2:1 3:9 4:13 5:12 6:6 10:5 11:16 12:13 13:8 14:10 15:2 18:4 19:14 20:1 26:2 27:16 28:14 29:4 34:5 35:16 36:15 37:16 38:4 44:1 45:11 46:16 47:3 51:6 52:6 53:15 54:15 55:1 59:7 60:13 61:10 62:3 #
-0.055812437009788773423224483849481 3:9 4:16 5:15 6:5 10:4 11:16 12:12 13:12 14:16 15:7 18:5 19:16 20:4 22:1 23:1 26:8 27:16 28:15 29:11 30:3 34:4 35:14 36:12 37:14 38:15 39:2 45:4 46:16 47:4 51:5 52:8 53:15 54:15 55:2 59:11 60:15 61:9 62:2 #
-0.054896189432317443746001117688138 5:9 6:6 12:9 13:14 14:2 19:3 20:15 21:4 22:3 23:6 26:1 27:13 28:11 30:13 31:7 34:7 35:16 36:13 37:13 38:16 39:3 43:4 44:4 45:13 46:13 47:1 52:1 53:16 54:7 60:1 61:14 62:1 #
0.50000000000007061018436615995597 3:5 4:15 5:8 6:1 10:1 11:15 12:13 13:15 14:9 18:8 19:15 20:1 21:3 22:14 23:1 26:4 27:14 30:11 31:8 34:5 35:12 38:12 39:8 42:5 43:15 44:1 46:12 47:10 50:1 51:16 52:10 53:9 54:15 55:3 59:5 60:15 61:15 62:4 #
0.50000000000007061018436615995597 3:8 4:15 5:15 6:1 10:4 11:16 12:16 13:16 14:10 18:7 19:12 21:1 22:16 26:6 27:11 30:9 31:7 34:8 35:12 38:9 39:4 42:4 43:16 44:1 45:2 46:15 47:8 51:15 52:16 53:16 54:16 55:1 59:7 60:16 61:16 62:8 #
0.50000000000007061018436615995597 3:4 4:12 5:15 6:3 10:3 11:16 12:14 13:14 14:13 18:5 19:16 20:1 21:2 22:15 23:5 26:8 27:16 30:9 31:11 34:5 35:16 38:8 39:12 43:15 44:2 46:11 47:13 51:10 52:12 53:12 54:16 55:9 59:4 60:16 61:16 62:9 #
-0.054889366393892302653512160759419 2:1 3:15 4:12 5:3 10:1 11:12 12:16 13:15 14:4 20:4 21:16 22:10 28:15 29:16 30:5 36:12 37:14 38:13 39:1 46:8 47:12 51:7 52:8 53:6 54:13 55:13 59:13 60:16 61:16 62:13 63:7 #
-0.054874326661051187059570111159701 2:3 3:14 4:14 5:4 10:8 11:15 12:11 13:16 14:6 18:1 19:4 20:4 21:16 22:7 27:5 28:16 29:16 30:4 35:2 36:9 37:15 38:16 39:3 45:4 46:16 47:8 51:7 52:4 53:11 54:16 55:5 58:2 59:14 60:16 61:14 62:7 #
-0.054874326661051187059570111159701 3:1 4:8 5:6 11:14 12:16 13:16 14:16 19:16 20:16 21:16 22:16 27:16 28:16 29:16 30:16 35:16 36:16 37:16 38:15 43:16 44:16 45:16 46:13 51:9 52:16 53:16 54:9 59:6 60:8 61:6 62:1 #
0.50000000000007061018436615995597 3:3 4:15 5:13 6:1 10:1 11:15 12:12 13:13 14:10 18:3 19:16 20:1 21:1 22:12 23:2 26:6 27:12 30:4 31:6 34:4 35:11 38:4 39:8 43:13 44:3 45:5 46:13 47:8 51:10 52:15 53:16 54:16 55:5 59:2 60:14 61:12 62:5 #
0.50000000000007061018436615995597 3:8 4:15 5:11 10:7 11:16 12:15 13:15 14:9 18:10 19:14 21:3 22:12 23:2 26:5 27:12 30:5 31:7 34:4 35:11 38:7 39:8 42:3 43:11 45:6 46:16 47:6 51:14 52:13 53:16 54:14 55:1 59:8 60:15 61:11 62:2 #
0.50000000000007061018436615995597 3:4 4:12 5:7 10:2 11:13 12:16 13:16 14:6 18:5 19:16 20:3 21:5 22:15 26:8 27:13 30:11 31:1 34:7 35:12 38:8 39:4 42:5 43:10 46:9 47:5 50:1 51:15 52:13 53:13 54:16 55:3 59:5 60:14 61:16 62:10 #
-0.054893474333582048529933672398329 2:2 3:10 4:15 5:8 10:6 11:16 12:15 13:16 14:8 18:8 19:16 20:5 21:13 22:16 26:4 27:16 28:12 29:16 30:16 31:5 35:5 36:11 37:13 38:16 39:7 45:1 46:16 47:8 51:2 52:4 53:10 54:16 55:8 59:12 60:16 61:14 62:11 #
-0.054893474333582048529933672398329 2:2 3:15 4:13 5:2 10:6 11:16 12:14 13:15 14:1 18:7 19:12 21:15 22:8 26:4 27:7 29:16 30:8 36:1 37:16 38:3 44:9 45:15 50:2 51:15 52:16 53:16 54:14 55:5 58:2 59:10 60:12 61:13 62:16 63:8 #
-0.054889452220979628727093313500518 3:13 4:14 5:4 10:4 11:16 12:13 13:14 14:2 19:16 20:4 21:16 22:14 23:2 27:11 28:14 29:16 30:14 36:8 37:11 38:15 45:4 46:16 47:2 51:6 52:6 53:7 54:16 55:2 59:12 60:16 61:16 62:10 #
0.50000000000007061018436615995597 3:7 4:13 5:10 11:16 12:16 13:16 14:9 18:3 19:12 20:2 21:9 22:16 23:4 26:6 27:9 30:13 31:7 34:8 35:12 38:8 39:8 42:7 43:15 44:4 45:2 46:12 47:8 50:2 51:16 52:16 53:16 54:16 55:5 59:7 60:14 61:12 62:7 #
0.50000000000007061018436615995597 3:7 4:16 5:13 6:2 10:2 11:15 12:16 13:16 14:11 18:7 19:14 20:4 21:6 22:16 26:4 27:12 30:7 31:7 34:6 35:12 37:1 38:11 39:8 42:2 43:15 44:8 45:13 46:16 47:9 51:15 52:16 53:16 54:15 55:2 59:5 60:14 61:11 62:1 #
0.50000000000007061018436615995597 3:5 4:14 5:12 6:2 10:1 11:16 12:11 13:5 14:11 18:4 19:14 22:9 23:4 26:8 27:10 30:5 31:8 34:8 35:8 38:8 39:8 42:4 43:11 46:10 47:5 50:2 51:16 52:11 53:12 54:14 59:5 60:14 61:14 62:3 #
-0.054874318101238217515458472917089 2:1 3:12 4:16 5:15 6:11 7:3 10:7 11:16 12:14 13:11 14:9 15:4 18:3 19:16 20:8 21:2 26:5 27:16 28:16 29:15 30:3 34:2 35:14 36:16 37:16 38:14 45:12 46:16 47:1 50:2 51:12 52:12 53:16 54:16 58:1 59:14 60:16 61:10 62:3 #
-0.054875655347517815485502978845034 3:8 4:16 5:15 6:5 11:7 12:8 13:15 14:10 21:14 22:10 27:5 28:12 29:16 30:14 31:2 35:16 36:16 37:15 38:10 39:6 43:1 44:14 45:7 51:4 52:16 59:4 60:12 #
-0.056185299260925747333317303855438 3:8 4:12 5:3 10:5 11:16 12:16 13:14 14:4 18:10 19:15 20:2 21:14 22:16 23:2 26:3 27:16 28:10 29:13 30:16 31:7 35:5 36:8 37:10 38:16 39:8 46:12 47:12 51:10 52:7 53:4 54:14 55:12 59:10 60:16 61:16 62:14 63:7 #
0.50000000000007061018436615995597 3:4 4:15 5:12 6:2 11:13 12:16 13:16 14:14 18:7 19:16 20:3 21:2 22:15 23:2 26:8 27:16 28:4 30:4 31:8 34:8 35:15 36:3 38:6 39:8 42:4 43:15 44:4 45:2 46:13 47:10 51:13 52:16 53:16 54:16 55:6 59:4 60:15 61:16 62:9 #
0.50000000000007061018436615995597 4:10 5:12 6:2 11:11 12:16 13:16 14:10 18:3 19:16 20:5 21:6 22:12 23:2 26:5 27:12 30:6 31:8 34:4 35:16 38:6 39:8 42:2 43:15 44:7 45:2 46:13 47:8 51:9 52:16 53:14 54:16 55:5 60:12 61:16 62:10 #
0.50000000000007061018436615995597 3:2 4:13 5:16 6:4 11:12 12:12 13:10 14:13 18:4 19:16 20:2 22:15 23:2 26:5 27:16 28:1 30:8 31:8 34:8 35:12 38:8 39:8 42:5 43:15 44:1 46:9 47:8 50:1 51:15 52:11 53:8 54:16 55:3 59:4 60:15 61:14 62:5 #
-0.056185299260925747333317303855438 3:3 4:8 5:6 6:1 10:2 11:15 12:16 13:16 14:12 19:13 20:16 21:16 22:13 27:10 28:16 29:16 30:16 35:12 36:16 37:16 38:16 43:14 44:16 45:16 46:16 47:2 51:12 52:16 53:16 54:15 55:2 59:1 60:6 61:6 #
-0.056185299260925747333317303855438 2:1 3:9 4:13 5:9 6:2 10:6 11:16 12:10 13:16 14:7 20:2 21:16 22:6 27:2 28:13 29:14 35:2 36:13 37:16 38:13 45:4 46:15 47:8 51:8 52:4 53:4 54:14 55:11 58:1 59:14 60:16 61:16 62:12 63:1 #
-0.054878634098024958731798506050836 3:8 4:13 5:16 6:10 7:3 10:5 11:16 12:10 13:8 14:10 15:6 18:6 19:12 26:6 27:15 28:12 29:3 34:4 35:12 36:14 37:16 38:1 45:16 46:8 51:4 52:7 53:16 54:7 59:11 60:14 61:10 #
0.50000000000007061018436615995597 4:9 5:13 6:1 11:3 12:15 13:6 14:12 18:1 19:10 20:9 22:10 23:3 26:4 27:16 28:5 30:5 31:7 34:5 35:16 36:3 38:6 39:8 43:16 44:5 46:6 47:9 51:8 52:14 53:7 54:15 55:3 60:10 61:16 62:9 #
0.50000000000007061018436615995597 3:2 4:14 5:7 10:1 11:9 12:12 13:13 14:6 18:5 19:16 20:8 21:2 22:14 26:6 27:16 28:2 30:12 31:6 34:5 35:15 36:1 38:9 39:9 43:16 44:1 46:12 47:8 51:11 52:12 53:8 54:15 55:1 59:3 60:13 61:15 62:7 #
0.50000000000007061018436615995597 3:4 4:16 5:13 6:2 11:11 12:7 13:2 14:13 18:3 19:16 20:4 22:9 23:1 26:5 27:13 28:2 30:5 31:7 34:4 35:8 38:4 39:8 42:4 43:14 46:6 47:8 51:13 52:10 53:1 54:14 55:3 59:4 60:12 61:16 62:10 #
-0.054878634098024958731798506050836 4:6 5:7 11:2 12:15 13:6 19:10 20:11 21:1 22:1 26:4 27:16 28:5 29:10 30:9 34:8 35:16 36:16 37:16 38:15 39:2 42:1 43:4 44:7 45:16 46:10 52:5 53:16 54:1 60:9 61:11 #
-0.054889452220979628727093313500518 3:1 4:8 5:12 6:7 10:2 11:15 12:8 13:5 14:14 19:11 20:5 21:3 22:15 27:1 28:14 29:16 30:12 35:5 36:15 37:15 38:9 42:1 43:15 44:6 45:1 46:12 47:1 51:12 52:11 53:1 54:12 55:5 59:1 60:8 61:8 62:9 63:3 #
-0.056135103699525679132875666255131 3:2 4:12 5:16 6:14 7:10 11:1 12:8 13:4 14:11 15:13 22:14 23:5 28:3 29:9 30:15 35:5 36:16 37:16 38:15 39:3 43:2 44:10 45:13 46:3 52:13 53:7 59:1 60:15 61:2 #
0.50000000000007061018436615995597 3:2 4:14 5:9 6:1 10:1 11:14 12:10 13:11 14:10 18:4 19:14 20:1 22:12 23:3 26:7 27:8 30:3 31:6 34:7 35:7 38:1 39:9 42:3 43:12 46:5 47:8 51:11 52:5 53:3 54:12 55:6 59:2 60:14 61:16 62:9 #
0.50000000000007061018436615995597 3:2 4:12 5:14 6:4 11:9 12:15 13:13 14:13 18:2 19:15 20:3 21:1 22:14 23:4 26:4 27:13 30:12 31:6 34:5 35:9 38:12 39:8 42:5 43:9 46:13 47:5 50:1 51:13 52:9 53:13 54:14 55:1 59:4 60:9 61:16 62:6 #
0.50000000000007061018436615995597 4:1 5:12 6:4 11:1 12:14 13:16 14:11 19:9 20:13 21:5 22:15 23:4 26:2 27:16 28:2 30:16 31:3 34:1 35:16 36:7 37:7 38:16 39:4 43:13 44:16 45:16 46:16 47:1 51:1 52:13 53:16 54:13 60:3 61:12 62:5 #
-0.054892301204997884234160210326081 4:12 5:7 11:7 12:16 13:3 18:2 19:15 20:6 26:4 27:16 28:10 29:7 34:5 35:16 36:16 37:16 38:12 42:6 43:16 44:9 45:5 46:16 47:3 50:1 51:14 52:15 53:11 54:16 55:3 59:1 60:10 61:16 62:7 #
-0.054870516984769857060655340319499 3:9 4:16 5:8 6:1 10:5 11:16 12:9 13:14 14:11 15:1 18:10 19:10 21:8 22:16 23:4 26:4 27:16 28:15 29:15 30:16 31:8 35:4 36:8 37:7 38:13 39:8 46:9 47:11 51:11 52:6 53:9 54:16 55:7 59:11 60:13 61:12 62:6 #
-0.054870516984769857060655340319499 4:11 5:12 11:7 12:16 13:11 14:1 18:2 19:16 20:12 26:2 27:16 28:7 34:8 35:16 36:16 37:8 38:1 42:4 43:16 44:13 45:13 46:14 47:3 51:13 52:14 53:7 54:16 55:12 60:10 61:16 62:12 63:6 #
0.50000000000007061018436615995597 3:2 4:11 5:16 6:10 11:10 12:15 13:2 14:14 15:4 18:3 19:15 20:1 22:10 23:8 26:7 27:10 30:12 31:5 34:8 35:8 38:14 39:4 42:3 43:12 45:9 46:14 47:1 51:13 52:10 53:16 54:5 59:2 60:10 61:12 62:2 #
0.50000000000007061018436615995597 3:1 4:11 5:15 6:2 11:11 12:14 13:10 14:13 18:2 19:15 20:4 22:15 23:3 26:3 27:13 30:9 31:7 34:6 35:9 38:10 39:8 42:2 43:12 46:11 47:8 51:13 52:5 53:6 54:16 55:3 59:2 60:14 61:16 62:11 63:1 #
0.50000000000007061018436615995597 3:3 4:14 5:13 6:1 11:12 12:15 13:11 14:9 18:1 19:16 20:4 22:15 26:5 27:13 30:13 31:6 34:7 35:9 38:13 39:8 42:4 43:12 46:13 47:9 50:3 51:13 52:4 53:10 54:16 55:5 59:3 60:8 61:13 62:15 63:2 #
-0.055431573212308293818750826176256 3:7 4:14 5:7 11:15 12:14 13:16 14:3 19:15 20:12 21:16 22:6 27:6 28:16 29:16 30:4 35:8 36:16 37:16 38:11 43:15 44:12 45:3 46:16 47:8 50:2 51:15 52:11 53:8 54:16 55:10 59:9 60:16 61:16 62:12 63:6 #
-0.056135181063803107903709133097436 2:3 3:12 4:16 5:15 6:4 10:4 11:11 12:8 13:14 14:11 20:6 21:16 22:3 27:3 28:15 29:15 30:1 35:1 36:11 37:15 38:14 39:1 45:4 46:12 47:6 50:1 51:8 52:12 53:15 54:16 55:6 58:2 59:12 60:12 61:11 62:7 #
-0.056145733045972590069538910029223 3:2 4:6 5:9 6:4 10:3 11:15 12:5 13:8 14:13 18:4 19:15 20:3 21:5 22:16 27:9 28:13 29:15 30:7 35:3 36:16 37:12 43:9 44:9 45:13 46:6 51:10 52:8 53:11 54:16 55:1 59:5 60:12 61:12 62:7 #
0.50000000000007061018436615995597 3:4 4:13 5:4 11:11 12:10 13:11 14:7 19:14 20:3 21:1 22:15 27:15 28:1 30:12 31:5 34:1 35:15 38:13 39:5 43:16 45:4 46:16 47:4 51:11 52:10 53:15 54:11 59:3 60:12 61:14 62:1 #
0.50000000000007061018436615995597 3:7 4:10 11:12 12:13 13:11 14:6 18:3 19:16 20:16 21:16 22:16 23:6 26:8 27:13 28:4 29:5 30:15 31:6 34:8 35:12 38:10 39:8 42:6 43:14 44:1 45:5 46:15 47:4 50:4 51:16 52:16 53:16 54:13 58:1 59:12 60:14 61:9 62:1 #
0.50000000000007061018436615995597 3:11 4:15 5:8 10:5 11:16 12:16 13:16 14:11 18:8 19:13 20:2 21:9 22:16 23:3 26:8 27:15 30:15 31:4 34:8 35:12 38:13 39:6 42:8 43:15 45:1 46:16 47:3 50:4 51:16 52:14 53:16 54:9 59:11 60:16 61:12 #
-0.054891136985663613323538356780773 3:7 4:15 5:14 6:3 11:8 12:11 13:10 14:12 21:5 22:13 28:5 29:15 30:9 36:5 37:12 38:15 39:6 46:8 47:12 51:8 52:1 53:1 54:12 55:12 59:9 60:15 61:16 62:13 63:1 #
-0.054878634098024958731798506050836 2:1 3:8 4:15 5:16 6:12 7:3 10:4 11:16 12:13 13:5 14:6 15:2 19:16 20:7 21:1 26:6 27:16 28:16 29:15 30:8 34:1 35:12 36:8 37:12 38:16 39:5 45:5 46:16 47:5 51:3 52:8 53:15 54:12 59:8 60:14 61:8 #
-0.054871285619775278519227867946029 3:4 4:15 5:6 11:13 12:13 13:16 18:4 19:15 20:1 21:16 22:2 28:2 29:16 36:8 37:12 42:1 43:12 44:16 45:6 46:4 50:7 51:16 52:16 53:16 54:16 55:6 59:2 61:4 62:8 63:3 #
0.50000000000007061018436615995597 3:7 4:7 5:4 6:4 11:16 12:16 13:16 14:16 15:4 18:1 19:16 20:16 21:8 22:12 23:8 26:6 27:15 28:7 30:12 31:5 34:6 35:12 38:13 39:4 42:5 43:12 45:8 46:14 47:1 50:4 51:16 52:11 53:15 54:7 59:8 60:15 61:7 #
0.50000000000007061018436615995597 3:4 4:8 5:16 6:13 10:3 11:16 12:16 13:14 14:16 15:2 18:4 19:16 20:6 22:12 23:4 26:4 27:12 30:12 31:6 34:5 35:12 38:12 39:3 42:4 43:16 44:6 45:6 46:14 51:12 52:16 53:16 54:7 59:4 60:12 61:8 #
0.50000000000007061018436615995597 3:3 4:11 5:12 6:4 10:2 11:15 12:10 13:16 14:12 18:5 19:11 21:11 22:14 23:4 26:8 27:8 30:5 31:8 34:6 35:8 38:4 39:8 42:4 43:10 46:10 47:5 50:1 51:14 52:5 53:7 54:14 59:7 60:15 61:10 62:1 #
-0.056185299260925747333317303855438 3:10 4:12 5:13 6:9 7:4 10:2 11:16 12:11 13:8 14:5 15:3 18:3 19:16 20:1 26:7 27:16 28:16 29:15 30:3 34:6 35:12 36:9 37:14 38:15 39:1 45:6 46:16 47:2 51:4 52:4 53:13 54:15 55:1 59:13 60:15 61:9 62:2 #
-0.056189967039506405477311545837438 3:13 4:15 5:3 10:2 11:16 12:11 13:15 14:4 18:4 19:16 20:2 21:16 22:16 26:2 27:13 28:16 29:16 30:16 31:2 36:4 37:5 38:15 39:2 46:12 47:7 51:2 52:4 53:4 54:11 55:12 59:11 60:16 61:16 62:15 63:10 #
-0.056174010066922575035164300061297 3:11 4:16 5:12 6:1 11:16 12:12 13:16 14:12 19:3 20:2 21:12 22:12 27:5 28:16 29:16 30:6 35:4 36:12 37:16 38:15 39:2 45:5 46:15 47:7 50:1 51:11 52:12 53:12 54:16 55:7 58:2 59:12 60:15 61:12 62:5 63:1 #
0.50000000000007061018436615995597 3:4 4:16 5:14 6:3 10:3 11:16 12:16 13:16 14:15 15:2 18:8 19:16 20:2 21:1 22:14 23:6 26:8 27:16 30:5 31:8 34:5 35:15 38:4 39:8 43:16 44:6 46:9 47:7 51:14 52:14 53:8 54:16 55:3 59:3 60:14 61:16 62:13 #
0.50000000000007061018436615995597 4:8 5:15 6:4 12:13 13:16 14:13 18:1 19:1 20:10 21:3 22:13 23:6 26:5 27:8 30:6 31:8 34:7 35:11 38:4 39:8 42:3 43:15 44:7 46:4 47:9 51:7 52:16 53:13 54:11 55:12 60:6 61:15 62:16 63:4 #
0.50000000000007061018436615995597 3:3 4:13 5:7 11:12 12:16 13:16 14:11 18:1 19:16 20:16 21:10 22:16 23:3 26:7 27:16 28:14 30:14 31:4 34:1 35:16 36:9 38:12 39:5 43:15 44:8 45:4 46:16 47:4 51:12 52:16 53:16 54:12 55:1 59:5 60:15 61:11 62:1 #
-0.054892532060558663076221819210332 3:3 4:11 5:7 10:4 11:16 12:16 13:16 18:4 19:16 20:16 21:16 26:4 27:16 28:16 29:10 34:1 35:14 36:16 37:16 43:12 44:16 45:16 46:6 51:11 52:16 53:16 54:11 59:2 60:11 61:12 62:6 #
-0.0548961874743728595049674368056 3:6 4:11 5:14 6:3 10:2 11:16 12:12 13:11 14:16 18:4 19:16 20:9 21:7 22:15 27:14 28:15 29:16 30:12 35:10 36:16 37:16 38:3 42:1 43:16 44:6 45:11 46:15 47:1 50:3 51:16 52:3 53:7 54:16 55:3 59:7 60:14 61:16 62:12 63:1 #
-0.055093229868178328345607042137999 2:2 3:12 4:16 5:16 6:10 7:2 10:7 11:16 12:8 13:6 14:8 15:2 18:6 19:15 26:6 27:16 28:13 29:8 34:6 35:15 36:12 37:16 38:6 45:11 46:13 51:4 52:6 53:16 54:12 58:2 59:15 60:14 61:9 #
0.50000000000007061018436615995597 3:6 4:14 5:14 6:2 11:15 12:11 13:9 14:10 18:3 19:14 22:7 23:5 26:4 27:12 30:4 31:8 34:4 35:13 38:11 39:8 42:5 43:13 45:4 46:16 47:3 51:16 52:14 53:16 54:7 59:10 60:15 61:7 #
0.50000000000007061018436615995597 3:3 4:15 5:12 6:1 11:11 12:14 13:8 14:11 19:15 20:1 22:13 23:1 26:5 27:14 30:9 31:5 34:5 35:12 38:11 39:2 43:16 44:1 45:2 46:15 47:2 51:14 52:13 53:14 54:12 59:2 60:14 61:8 62:1 #
0.50000000000007061018436615995597 4:13 5:9 6:1 11:9 12:16 13:16 14:11 19:8 20:14 21:5 22:16 23:3 26:1 27:7 28:10 30:12 31:6 34:6 35:14 36:14 37:2 38:10 39:9 42:4 43:16 44:16 45:12 46:16 47:10 51:11 52:16 53:16 54:15 55:4 59:2 60:13 61:16 62:7 #
-0.054896508481061645490228784183273 3:6 4:16 5:5 10:6 11:16 12:16 13:16 14:7 18:11 19:15 20:2 21:16 22:14 26:9 27:16 28:10 29:16 30:16 31:7 34:2 35:13 36:16 37:16 38:16 39:8 46:13 47:12 51:3 52:8 53:12 54:16 55:7 59:5 60:16 61:12 62:5 #
-0.055682765268431744232202618150041 3:2 4:14 5:1 11:11 12:13 18:2 19:16 20:1 26:4 27:16 28:1 29:3 34:8 35:12 36:12 37:16 38:13 42:4 43:16 44:9 45:4 46:13 47:6 51:13 52:12 53:8 54:12 55:11 59:2 60:10 61:13 62:14 63:4 #
-0.055431573212308293818750826176256 3:8 4:12 5:11 6:6 10:1 11:14 12:16 13:16 14:13 18:4 19:16 20:16 21:16 22:8 26:1 27:15 28:16 29:16 30:3 34:3 35:15 36:16 37:16 38:7 42:2 43:13 44:16 45:16 46:8 50:1 51:14 52:16 53:16 54:7 59:7 60:12 61:9 #
0.50000000000007061018436615995597 3:5 4:15 5:12 6:1 11:14 12:14 13:14 14:13 18:3 19:13 21:1 22:14 23:3 26:4 27:11 30:10 31:8 34:5 35:15 38:5 39:8 42:2 43:15 44:2 46:7 47:8 51:12 52:14 53:13 54:16 55:4 59:4 60:14 61:16 62:8 #
0.50000000000007061018436615995597 3:1 4:15 5:13 6:2 11:8 12:16 13:13 14:9 19:9 20:11 21:2 22:12 23:2 26:5 27:16 28:7 30:9 31:6 34:4 35:16 36:8 38:9 39:9 42:1 43:15 44:4 46:13 47:8 51:10 52:14 53:12 54:16 55:5 59:1 60:13 61:15 62:8 #
0.50000000000007061018436615995597 3:5 4:13 5:15 6:5 11:13 12:16 13:12 14:16 15:2 18:5 19:16 20:4 22:15 23:4 26:6 27:16 28:1 30:11 31:8 34:8 35:16 36:1 37:1 38:14 39:6 42:4 43:16 44:8 45:6 46:16 47:6 51:14 52:16 53:16 54:10 59:7 60:15 61:14 #
-0.055463285498868586387288814876229 3:1 4:12 5:14 6:1 11:8 12:15 13:7 18:1 19:14 20:7 26:1 27:16 28:16 29:16 30:10 31:2 34:1 35:16 36:15 37:5 38:11 39:10 42:1 43:16 44:4 46:8 47:13 51:11 52:11 53:9 54:16 55:8 59:2 60:11 61:15 62:5 #
-0.055093229868178328345607042137999 2:1 3:10 4:16 5:12 6:1 10:7 11:16 12:10 13:13 14:5 18:1 19:6 21:9 22:8 28:7 29:15 30:10 36:6 37:12 38:14 39:7 46:2 47:14 51:7 52:6 53:4 54:9 55:14 59:7 60:15 61:16 62:13 63:7 #
-0.054879433907100150236146873794496 3:8 4:15 5:10 6:1 11:15 12:13 13:15 14:10 19:16 20:2 22:14 23:1 27:14 28:5 29:7 30:16 31:2 35:7 36:12 37:11 38:15 39:3 46:13 47:4 51:6 52:6 53:9 54:16 55:2 59:7 60:13 61:14 62:3 #
0.50000000000007061018436615995597 3:3 4:14 5:10 11:13 12:14 13:15 14:10 18:2 19:16 20:5 21:8 22:16 23:3 26:4 27:14 29:4 30:16 31:1 34:4 35:16 37:3 38:15 39:1 42:4 43:16 44:1 46:12 47:4 50:1 51:14 52:11 53:9 54:16 55:3 59:3 60:12 61:12 62:4 #
0.50000000000007061018436615995597 3:6 4:15 5:8 10:4 11:16 12:13 13:16 14:2 18:6 19:15 21:13 22:13 26:8 27:10 29:7 30:16 31:5 34:8 35:8 37:6 38:16 39:3 42:7 43:11 45:7 46:15 51:14 52:10 53:13 54:11 59:6 60:14 61:12 62:2 #
0.50000000000007061018436615995597 3:3 4:12 5:7 11:14 12:11 13:11 14:6 18:4 19:12 21:2 22:16 26:5 27:9 30:10 31:7 34:6 35:8 38:8 39:8 42:3 43:12 46:3 47:10 50:1 51:13 52:5 53:3 54:13 55:5 59:3 60:13 61:16 62:9 63:1 #
-0.056190927267227408492544782347977 3:2 4:16 5:10 6:1 11:8 12:15 13:13 14:7 19:3 20:9 21:4 22:13 29:6 30:13 37:12 38:8 44:4 45:16 46:3 51:2 52:15 53:14 54:8 55:14 56:5 59:2 60:15 61:16 62:16 63:12 64:7 #
0.50000000000007061018436615995597 3:6 4:16 5:6 10:2 11:15 12:14 13:16 14:5 18:6 19:15 20:1 21:9 22:14 26:4 27:16 29:1 30:16 31:5 34:7 35:13 37:1 38:16 39:4 42:5 43:15 44:2 46:14 47:5 51:14 52:10 53:12 54:13 55:1 59:4 60:14 61:14 62:3 #
-0.056042366560095091543303169601131 2:4 3:16 4:16 5:16 6:16 7:13 10:5 11:12 12:12 13:13 14:16 15:14 21:10 22:15 23:4 28:3 29:16 30:9 36:7 37:16 38:2 43:3 44:15 45:9 51:13 52:16 53:2 58:2 59:16 60:12 #
-0.056190916296323889511654670059215 3:1 4:16 5:15 6:5 11:9 12:16 13:16 14:12 18:2 19:16 20:16 21:16 22:7 27:12 28:16 29:16 30:2 35:8 36:16 37:16 38:5 43:15 44:16 45:16 46:11 51:15 52:16 53:16 54:16 55:8 59:2 60:10 61:15 62:11 63:4 #
0.50000000000007061018436615995597 3:3 4:14 5:16 6:6 10:1 11:13 12:5 13:4 14:13 18:5 19:12 22:9 23:4 26:5 27:9 30:5 31:8 34:8 35:7 38:3 39:8 42:6 43:9 46:2 47:9 51:15 52:3 53:1 54:9 55:8 59:5 60:15 61:14 62:9 #
0.50000000000007061018436615995597 3:4 4:14 5:5 11:13 12:7 13:11 14:4 15:2 18:2 19:13 21:6 22:14 23:4 26:3 27:9 29:3 30:14 31:7 34:5 35:8 37:4 38:11 39:8 42:4 43:8 46:1 47:12 50:1 51:14 52:2 54:10 55:7 59:3 60:15 61:16 62:13 63:2 #
-0.054892524679576615298515207541641 3:1 4:12 5:13 6:2 11:12 12:16 13:10 14:2 18:2 19:16 20:7 26:1 27:16 28:12 29:8 30:2 34:2 35:16 36:13 37:13 38:14 39:2 43:13 44:7 46:12 47:12 51:9 52:13 53:6 54:15 55:13 59:1 60:11 61:15 62:14 63:6 #
-0.054890989698089476256370744522428 3:4 4:9 5:9 10:1 11:16 12:15 13:12 14:10 18:3 19:16 20:5 26:6 27:16 28:16 29:7 34:3 35:16 36:15 37:16 38:1 43:1 45:12 46:5 51:13 52:10 53:16 54:6 59:8 60:16 61:9 #
-0.056173883175214101015626511070877 3:12 4:14 5:8 6:3 10:3 11:16 12:15 13:16 14:16 15:3 19:14 20:12 21:14 22:13 23:1 27:7 28:16 29:16 30:3 35:12 36:16 37:16 38:2 42:1 43:15 44:4 45:9 46:14 50:3 51:15 52:4 53:5 54:16 55:1 58:1 59:12 60:16 61:16 62:12 #
0.50000000000007061018436615995597 3:4 4:14 5:10 10:3 11:16 12:9 13:8 14:7 18:8 19:16 21:2 22:11 26:6 27:14 30:6 31:6 34:5 35:14 38:3 39:9 43:15 44:1 46:5 47:13 51:12 52:9 53:2 54:13 55:10 59:2 60:14 61:15 62:10 63:1 #
0.50000000000007061018436615995597 3:5 4:13 5:12 6:3 11:14 12:9 13:8 14:13 18:3 19:16 20:4 22:13 23:6 26:4 27:14 28:1 30:8 31:9 34:1 35:15 38:4 39:8 42:2 43:13 44:1 45:2 46:13 47:4 51:15 52:13 53:16 54:11 59:8 60:11 61:5 #
0.50000000000007061018436615995597 3:7 4:11 5:4 11:15 12:16 13:15 14:5 18:3 19:16 20:5 21:3 22:10 23:2 26:4 27:16 28:2 30:7 31:7 34:8 35:10 38:6 39:8 42:5 43:9 46:10 47:6 51:15 52:4 53:10 54:14 55:2 59:7 60:16 61:10 62:2 #
-0.056175194598438005222362789936597 3:2 4:9 5:16 6:6 10:1 11:15 12:16 13:11 14:5 18:2 19:16 20:7 26:5 27:16 29:3 34:4 35:16 36:16 37:16 38:14 39:3 42:2 43:16 44:6 45:1 46:10 47:10 51:10 52:12 53:8 54:15 55:10 59:1 60:11 61:16 62:12 63:4 #
-0.056175194598438005222362789936597 2:1 3:11 4:9 5:14 6:11 7:1 10:8 11:16 12:14 13:14 14:16 15:2 18:7 19:16 21:11 22:12 26:1 27:1 28:1 29:15 30:5 36:10 37:14 43:2 44:15 45:5 51:12 52:16 53:4 59:15 60:11 61:1 #
-0.056175194598438005222362789936597 3:11 4:15 5:16 6:16 7:16 8:7 11:14 12:14 13:12 14:16 15:16 16:3 19:1 21:4 22:16 23:6 29:13 30:12 36:7 37:15 38:4 43:3 44:16 45:9 51:11 52:16 53:5 59:15 60:15 #
0.50000000000007061018436615995597 3:2 4:12 5:6 10:1 11:12 12:10 13:11 14:3 18:1 19:16 20:7 21:3 22:13 23:1 26:2 27:16 28:1 30:9 31:5 34:2 35:16 36:2 38:2 39:10 43:14 44:8 46:7 47:13 51:10 52:7 53:7 54:16 55:5 59:2 60:13 61:12 62:6 #
0.50000000000007061018436615995597 3:4 4:12 5:12 6:6 10:3 11:16 12:9 13:8 14:15 18:9 19:16 20:3 22:8 23:6 26:6 27:14 30:6 31:8 34:4 35:11 38:9 39:5 42:4 43:10 46:15 47:2 51:15 52:5 53:9 54:14 59:7 60:14 61:13 62:2 #
0.50000000000007061018436615995597 3:3 4:14 5:9 10:1 11:16 12:15 13:13 14:10 18:7 19:16 20:2 21:1 22:15 23:2 26:7 27:16 28:2 30:9 31:7 34:5 35:16 38:9 39:8 43:16 44:4 46:9 47:11 51:13 52:11 53:9 54:16 55:5 59:3 60:14 61:16 62:9 63:1 #
-0.054884253113130276879871871642536 3:11 4:12 5:2 10:3 11:16 12:12 13:7 18:2 19:14 20:3 21:10 28:5 29:8 36:11 37:5 43:3 44:16 45:1 51:11 52:14 53:9 54:15 55:15 59:8 60:13 61:12 62:8 63:10 64:2 #
-0.05489540737466480635475818417035 3:2 4:16 5:11 10:1 11:11 12:16 13:16 14:7 18:10 19:16 20:16 21:16 22:9 26:2 27:9 28:15 29:16 30:11 36:12 37:16 38:8 43:4 44:16 45:16 46:5 51:10 52:16 53:16 54:15 55:4 59:3 60:15 61:16 62:12 #
-0.054866241680153748916382028255612 2:4 3:8 4:8 5:12 6:16 7:5 10:8 11:16 12:16 13:16 14:15 15:3 18:2 19:3 20:7 21:16 22:7 28:12 29:14 30:1 35:9 36:16 37:7 43:14 44:16 50:6 51:16 52:12 58:6 59:14 60:7 #
0.50000000000007061018436615995597 3:2 4:11 5:11 6:2 11:13 12:13 13:11 14:12 18:7 19:13 20:1 22:12 23:1 26:7 27:9 30:7 31:5 34:6 35:10 38:7 39:8 42:2 43:13 46:10 47:7 51:10 52:10 53:6 54:16 55:3 59:2 60:11 61:15 62:9 #
0.50000000000007061018436615995597 3:6 4:15 5:12 11:13 12:16 13:16 14:13 18:2 19:15 20:16 21:7 22:13 23:4 26:5 27:11 28:7 30:5 31:7 34:8 35:7 38:7 39:8 42:4 43:12 45:1 46:11 47:9 50:2 51:13 52:8 53:12 54:15 55:1 59:5 60:15 61:12 62:3 #
0.50000000000007061018436615995597 3:5 4:15 5:3 11:12 12:16 13:14 14:8 18:1 19:16 20:16 21:12 22:16 23:3 26:3 27:14 28:1 30:6 31:7 34:6 35:8 38:4 39:8 42:4 43:12 46:10 47:12 50:1 51:14 52:10 53:13 54:16 55:5 59:6 60:16 61:14 62:8 #
-0.054866241680153748916382028255612 3:9 4:16 5:16 6:7 11:13 12:15 13:13 14:11 18:1 19:15 20:11 21:1 26:2 27:16 28:16 29:15 30:3 35:7 36:12 37:12 38:10 45:9 46:14 51:4 52:8 53:15 54:15 59:10 60:16 61:16 62:7 #
-0.05489540737466480635475818417035 3:5 4:7 5:13 6:7 10:7 11:16 12:16 13:10 14:15 18:5 19:15 20:5 21:6 22:11 26:1 27:9 28:15 29:15 30:4 35:5 36:16 37:16 38:3 43:14 44:7 45:13 46:8 51:15 52:11 53:13 54:11 59:5 60:12 61:12 62:4 #
-0.05489540737466480635475818417035 3:4 4:15 5:9 6:1 11:11 12:16 13:16 14:9 19:1 20:10 21:16 22:11 28:8 29:16 30:12 36:11 37:16 38:10 43:1 44:16 45:16 46:7 51:5 52:16 53:16 54:12 59:5 60:16 61:14 62:6 #
0.50000000000007061018436615995597 3:6 4:11 5:7 6:2 11:15 12:16 13:15 14:12 18:3 19:16 20:7 22:10 23:3 26:4 27:8 30:2 31:8 34:8 35:5 38:5 39:8 42:5 43:7 46:12 47:5 51:14 52:5 53:13 54:13 55:1 59:7 60:16 61:11 #
0.50000000000007061018436615995597 3:8 4:7 11:15 12:16 13:16 14:7 18:2 19:16 20:16 21:14 22:14 23:2 26:4 27:16 30:11 31:6 34:3 35:13 38:11 39:9 42:3 43:15 45:5 46:16 47:7 51:15 52:12 53:14 54:16 55:3 59:5 60:16 61:14 62:7 #
0.50000000000007061018436615995597 3:2 4:13 5:13 6:2 11:9 12:16 13:6 14:13 18:1 19:14 20:1 22:9 23:4 26:4 27:9 30:6 31:7 34:8 35:8 38:4 39:8 42:4 43:9 46:4 47:8 51:15 52:8 53:4 54:12 55:7 59:2 60:10 61:16 62:15 63:2 #
-0.056175162869526951148202442709589 2:4 3:15 4:9 5:8 6:8 7:1 10:4 11:16 12:16 13:16 14:16 15:8 18:9 19:15 20:2 21:15 22:14 23:1 26:5 27:5 28:5 29:16 30:4 36:12 37:12 43:7 44:15 45:2 50:3 51:16 52:7 58:6 59:16 60:4 #
-0.054872163345101698794792355329264 3:3 4:13 5:14 6:1 11:8 12:15 13:7 14:2 19:10 20:12 21:2 27:13 28:16 29:16 30:10 31:1 35:15 36:14 37:11 38:10 39:10 43:13 44:5 46:6 47:14 51:8 52:12 53:8 54:12 55:10 59:1 60:10 61:12 62:12 63:4 #
-0.054872163345101698794792355329264 4:10 5:13 6:3 11:7 12:16 13:12 14:6 19:12 20:13 21:1 27:16 28:16 29:16 30:10 34:2 35:16 36:15 37:1 38:12 39:8 43:16 44:4 46:6 47:15 51:11 52:14 53:8 54:15 55:14 56:1 59:2 60:11 61:16 62:11 63:2 #
0.50000000000007061018436615995597 4:10 5:15 6:3 10:2 11:11 12:15 13:12 14:12 18:5 19:16 20:4 22:10 23:4 26:7 27:14 30:6 31:6 34:7 35:11 38:9 39:5 43:16 44:1 46:11 47:5 51:9 52:13 53:8 54:15 55:2 59:1 60:11 61:16 62:8 #
0.50000000000007061018436615995597 3:3 4:14 5:13 6:1 11:13 12:16 13:15 14:9 18:6 19:16 20:3 22:13 26:6 27:13 30:7 31:6 34:8 35:8 38:4 39:8 43:14 46:2 47:12 51:12 52:11 53:8 54:15 55:8 59:2 60:14 61:16 62:13 63:3 #
0.50000000000007061018436615995597 3:1 4:13 5:13 6:2 11:5 12:15 13:13 14:13 18:1 19:13 20:5 22:14 23:1 26:3 27:16 28:7 30:8 31:8 34:4 35:9 38:8 39:8 42:2 43:13 44:1 46:7 47:11 51:14 52:14 53:9 54:16 55:7 59:3 60:12 61:16 62:9 #
-0.056081087615438063309625249530654 3:10 4:13 5:11 6:10 11:12 12:16 13:16 14:16 19:13 20:11 22:2 27:14 28:16 29:13 30:1 35:5 36:10 37:14 38:9 45:10 46:13 51:14 52:16 53:16 54:11 59:10 60:16 61:13 62:1 #
-0.054887655856317052460724426055094 3:8 4:12 5:13 6:2 10:7 11:16 12:10 13:10 14:15 15:2 18:10 19:11 21:1 22:16 23:4 26:6 27:15 28:12 29:16 30:16 31:7 35:5 36:8 37:4 38:12 39:8 46:12 47:12 51:11 52:10 53:12 54:16 55:8 59:9 60:12 61:15 62:9 63:1 #
-0.05608112277393872968644927823334 3:5 4:13 5:12 6:2 11:14 12:12 13:12 14:13 19:11 20:4 21:2 22:15 27:8 28:8 29:4 30:16 31:1 35:2 36:14 37:16 38:16 39:6 46:7 47:10 51:8 52:9 53:8 54:15 55:10 59:4 60:16 61:16 62:13 63:2 #
0.50000000000007061018436615995597 3:2 4:14 5:15 6:3 11:11 12:14 13:14 14:13 19:16 20:4 21:1 22:13 23:4 26:3 27:16 28:4 30:7 31:8 34:5 35:13 38:4 39:8 42:3 43:13 44:1 46:8 47:9 51:12 52:11 53:10 54:15 55:6 59:4 60:15 61:15 62:8 #
0.50000000000007061018436615995597 3:10 4:7 5:12 6:3 11:16 12:16 13:16 14:11 19:15 20:5 22:12 23:7 26:8 27:8 30:11 31:8 34:8 35:8 38:8 39:8 42:9 43:9 45:2 46:15 47:5 50:5 51:16 52:12 53:15 54:11 59:13 60:16 61:10 62:1 #
0.50000000000007061018436615995597 3:6 4:14 5:11 6:3 10:1 11:15 12:10 13:16 14:14 18:5 19:14 22:11 23:6 26:7 27:11 30:8 31:8 34:8 35:8 38:12 39:8 42:7 43:9 45:4 46:16 47:2 51:16 52:12 53:15 54:12 59:6 60:16 61:11 62:1 #
-0.055431573212321061383534015476471 4:15 5:12 6:3 12:16 13:16 14:8 19:9 20:16 21:16 22:9 28:10 29:16 30:13 36:4 37:16 38:16 39:2 43:1 44:8 45:16 46:16 47:10 51:8 52:16 53:16 54:16 55:16 56:5 59:1 60:9 61:12 62:14 63:12 64:4 #
-0.054895514490296948295622314617503 3:14 4:15 5:12 6:12 7:6 10:1 11:16 12:12 13:12 14:16 15:7 19:6 20:1 21:12 22:12 28:8 29:15 30:2 36:13 37:7 43:6 44:15 45:1 51:15 52:10 59:15 60:6 #
-0.054895514490296948295622314617503 2:1 3:12 4:13 5:9 6:5 10:5 11:16 12:11 13:15 14:16 18:4 19:16 20:5 21:8 22:16 23:4 26:2 27:13 28:16 29:16 30:16 31:5 36:3 37:4 38:15 39:6 45:1 46:15 47:6 51:11 52:9 53:12 54:16 55:2 59:11 60:16 61:14 62:8 #
0.50000000000007061018436615995597 4:10 5:10 10:1 11:8 12:2 13:12 14:4 18:7 19:14 20:1 21:2 22:12 26:7 27:10 30:12 31:3 34:3 35:12 38:11 39:8 42:1 43:15 44:1 45:1 46:15 47:8 51:6 52:14 53:13 54:16 55:4 60:9 61:14 62:7 #
0.50000000000007061018436615995597 3:3 4:15 5:9 6:1 11:11 12:14 13:16 14:14 15:1 18:4 19:14 20:1 21:3 22:11 23:8 26:8 27:9 30:8 31:8 34:8 35:8 37:1 38:15 39:4 42:7 43:9 45:7 46:13 50:3 51:14 52:10 53:15 54:3 59:5 60:13 61:4 #
0.50000000000007061018436615995597 4:11 5:8 11:4 12:16 13:15 14:5 19:6 20:11 21:4 22:15 27:6 28:4 30:14 31:4 35:16 36:2 38:14 39:6 43:14 44:3 45:4 46:16 47:5 51:9 52:14 53:15 54:16 55:1 59:1 60:11 61:14 62:4 #
-0.054895641905930103732202951505315 4:7 5:8 12:14 13:4 14:5 19:2 20:14 21:4 22:12 27:9 28:7 29:7 30:9 34:1 35:16 36:2 37:10 38:12 39:3 42:10 43:16 44:16 45:16 46:16 47:3 50:4 51:8 52:8 53:15 54:4 60:7 61:11 #
-0.054895973338989989542824332602322 3:4 4:16 5:14 6:2 11:16 12:11 13:11 14:10 18:1 19:4 20:1 21:11 22:10 27:1 28:11 29:16 30:6 35:6 36:16 37:14 38:13 39:2 43:1 44:2 45:1 46:10 47:11 51:7 52:11 53:6 54:13 55:14 59:3 60:12 61:16 62:15 63:7 #
-0.054900854290832468151961620606016 3:9 4:11 5:8 6:5 10:2 11:16 12:14 13:16 14:15 18:6 19:16 20:11 21:2 26:8 27:16 28:16 29:13 30:2 34:1 35:3 37:12 38:9 45:9 46:12 51:5 52:8 53:16 54:6 59:8 60:15 61:10 #
0.50000000000007061018436615995597 4:12 5:9 6:1 11:7 12:14 13:12 14:10 19:11 20:3 21:3 22:16 23:1 26:6 27:10 29:1 30:16 31:2 34:5 35:13 37:2 38:16 39:3 42:2 43:14 44:2 45:7 46:16 47:1 51:10 52:14 53:16 54:11 59:1 60:12 61:12 62:1 #
0.50000000000007061018436615995597 3:2 4:13 5:13 6:3 11:11 12:12 13:12 14:12 18:2 19:15 21:1 22:15 23:4 26:7 27:9 30:13 31:5 34:6 35:11 38:11 39:8 42:5 43:12 46:16 47:4 51:15 52:9 53:8 54:15 55:1 59:5 60:15 61:13 62:2 #
0.50000000000007061018436615995597 3:1 4:13 5:13 11:11 12:14 13:15 14:11 18:4 19:16 20:4 21:2 22:15 23:5 26:8 27:9 30:12 31:7 34:5 35:10 38:12 39:7 42:5 43:14 44:1 45:2 46:15 47:1 50:1 51:14 52:15 53:12 54:12 59:2 60:13 61:12 62:3 #
-0.056066387837415021522247116081417 3:4 4:14 5:10 11:14 12:15 13:15 14:6 18:1 19:16 20:5 21:5 22:11 27:5 28:4 29:6 30:13 37:14 38:6 44:3 45:16 46:2 51:3 52:15 53:16 54:12 55:16 56:3 59:4 60:16 61:12 62:12 63:12 64:5 #
-0.056043002253413520818980941839982 3:6 4:15 5:16 6:6 10:5 11:15 12:16 13:16 14:11 18:8 19:16 20:16 21:16 22:9 27:4 28:16 29:16 30:6 35:2 36:16 37:16 43:8 44:16 45:16 46:2 51:11 52:16 53:16 54:13 55:2 59:5 60:13 61:11 62:8 63:2 #
-0.056080962755144292408715500641847 3:5 4:3 5:10 6:10 10:4 11:16 12:13 13:14 14:13 18:4 19:14 21:8 22:8 26:1 27:13 28:13 29:15 36:14 37:16 38:1 43:13 44:13 45:8 46:5 50:1 51:13 52:10 53:8 54:10 59:2 60:13 61:16 62:6 #
0.50000000000007061018436615995597 3:2 4:13 5:15 6:5 11:8 12:13 13:12 14:14 15:1 18:1 19:14 20:5 22:11 23:6 26:6 27:16 28:1 30:9 31:7 34:6 35:16 36:2 38:13 39:4 42:3 43:16 44:8 45:4 46:14 51:8 52:16 53:16 54:8 60:11 61:10 #
0.50000000000007061018436615995597 3:7 4:10 5:13 6:10 11:14 12:11 13:4 14:11 15:3 18:2 19:15 20:1 22:5 23:8 26:7 27:9 30:3 31:8 34:5 35:12 38:4 39:8 42:5 43:11 46:8 47:4 51:12 52:2 53:2 54:12 59:6 60:15 61:14 62:2 #
0.50000000000007061018436615995597 3:4 4:16 5:16 6:6 10:3 11:11 12:11 13:5 14:15 15:2 18:8 19:16 20:8 22:13 23:7 26:11 27:16 28:3 30:10 31:11 34:9 35:16 38:4 39:12 42:6 43:16 44:2 46:7 47:11 50:1 51:16 52:10 53:5 54:15 55:5 59:4 60:15 61:16 62:10 #
-0.056042192698501525072174445085693 3:5 4:10 5:12 6:7 10:1 11:14 12:16 13:16 14:16 18:11 19:16 20:4 21:7 22:15 26:5 27:12 29:11 30:14 36:5 37:16 38:9 43:2 44:14 45:13 46:5 47:1 51:10 52:16 53:16 54:16 55:15 59:7 60:12 61:12 62:9 63:12 64:1 #
-0.056042193837819054280657837807667 3:9 4:14 5:9 6:2 10:2 11:16 12:10 13:14 14:8 18:2 19:16 20:2 21:6 22:16 23:1 27:14 28:9 29:11 30:16 31:5 35:2 36:11 37:11 38:14 39:9 46:13 47:11 51:5 52:9 53:11 54:16 55:6 59:7 60:13 61:12 62:8 #
-0.056042188141356086283906279277289 3:11 4:16 5:14 6:7 7:1 10:7 11:15 12:7 13:13 14:16 15:4 18:10 19:12 21:5 22:16 23:6 26:3 27:16 28:12 29:15 30:16 31:8 35:2 36:4 37:7 38:16 39:6 45:3 46:16 47:4 51:7 52:10 53:10 54:15 55:2 59:11 60:16 61:14 62:6 #
0.50000000000007061018436615995597 3:10 4:16 5:15 6:3 10:6 11:16 12:6 13:9 14:14 15:1 18:8 19:16 20:3 22:13 23:6 26:11 27:14 30:7 31:10 34:8 35:12 38:4 39:12 42:8 43:13 46:9 47:9 50:4 51:16 52:8 53:9 54:16 55:3 59:10 60:16 61:15 62:6 #
0.50000000000007061018436615995597 3:7 4:12 5:12 6:6 11:16 12:11 13:15 14:15 15:2 18:4 19:12 21:1 22:10 23:6 26:8 27:10 30:10 31:6 34:4 35:12 38:8 39:8 42:3 43:13 46:9 47:7 50:2 51:15 52:4 53:5 54:15 55:2 59:9 60:16 61:16 62:9 #
0.50000000000007061018436615995597 3:6 4:15 5:10 11:16 12:9 13:16 14:7 18:4 19:10 21:6 22:15 26:8 27:8 30:11 31:3 34:8 35:8 38:8 39:5 42:7 43:10 46:5 47:6 50:1 51:15 52:4 53:1 54:12 55:4 59:8 60:16 61:16 62:11 #
-0.056042188141356086283906279277289 3:5 4:15 5:12 6:3 11:9 12:12 13:10 14:3 19:14 20:6 27:15 28:16 29:16 30:3 35:7 36:8 37:10 38:10 45:5 46:13 51:4 52:12 53:16 54:11 59:6 60:16 61:11 62:2 #
-0.056042324681583766121661938086618 3:5 4:12 5:11 6:2 10:1 11:14 12:15 13:13 14:14 18:2 19:15 20:4 21:6 22:16 28:2 29:13 30:12 36:11 37:16 38:13 39:2 44:1 45:5 46:12 47:12 51:8 52:11 53:8 54:14 55:12 59:7 60:16 61:12 62:12 63:3 #
-0.054896189432317443746001117688138 4:11 5:15 6:5 11:8 12:16 13:13 14:6 19:11 20:14 27:15 28:15 29:12 30:8 35:16 36:14 37:12 38:15 39:9 43:16 44:6 46:11 47:14 51:10 52:14 53:9 54:16 55:11 59:1 60:11 61:13 62:12 63:1 #
0.50000000000007061018436615995597 3:7 4:14 5:10 6:2 10:1 11:16 12:12 13:15 14:8 18:7 19:13 21:5 22:13 23:2 26:8 27:12 30:10 31:6 34:8 35:12 38:8 39:8 42:6 43:13 46:10 47:8 51:14 52:10 53:6 54:14 55:6 59:5 60:16 61:16 62:9 #
0.50000000000007061018436615995597 3:1 4:13 5:14 6:11 11:10 12:12 13:12 14:16 15:4 19:15 21:2 22:9 23:6 26:5 27:13 30:6 31:9 34:5 35:12 38:5 39:7 42:1 43:13 44:2 46:9 47:4 51:12 52:11 53:7 54:11 59:2 60:15 61:12 62:3 #
0.50000000000007061018436615995597 3:6 4:15 5:9 10:1 11:15 12:14 13:16 14:7 18:4 19:13 21:7 22:16 23:1 26:6 27:12 30:13 31:8 34:7 35:12 38:12 39:8 42:6 43:13 46:12 47:8 50:2 51:15 52:10 53:8 54:15 55:4 59:5 60:12 61:13 62:6 #
-0.054886474088784331648582792695379 3:11 4:12 5:16 6:10 7:1 10:5 11:16 12:15 13:7 14:15 15:4 18:5 19:16 20:6 21:8 22:15 23:1 27:7 28:16 29:16 30:10 35:6 36:16 37:16 38:7 43:14 44:10 45:10 46:12 50:4 51:16 52:9 53:12 54:14 58:1 59:11 60:16 61:15 62:5 #
-0.054882175379908915147098014131188 3:2 4:13 5:16 6:6 11:11 12:16 13:11 14:5 19:15 20:6 26:4 27:16 28:4 29:10 30:2 34:3 35:14 36:15 37:16 38:14 39:1 42:3 43:16 44:8 46:14 47:9 51:13 52:8 53:5 54:16 55:5 59:4 60:13 61:16 62:10 #
-0.054884253113130276879871871642536 4:5 5:4 6:1 12:14 13:8 14:12 19:4 20:13 21:4 22:12 27:12 28:5 29:7 30:9 34:2 35:16 36:4 37:13 38:16 39:7 42:10 43:16 44:16 45:16 46:11 47:1 50:5 51:6 52:7 53:15 60:7 61:7 #
0.50000000000007061018436615995597 3:5 4:15 5:7 10:1 11:16 12:16 13:10 14:7 18:8 19:13 21:3 22:16 23:3 26:9 27:10 30:9 31:7 34:8 35:12 38:8 39:8 42:4 43:14 46:5 47:12 50:2 51:15 52:5 53:6 54:14 55:6 59:6 60:13 61:15 62:10 63:2 #
0.50000000000007061018436615995597 3:3 4:12 5:15 6:6 10:1 11:14 12:16 13:14 14:16 15:5 18:6 19:16 20:9 22:13 23:8 26:8 27:16 30:9 31:8 34:7 35:16 38:9 39:8 42:5 43:16 45:3 46:15 47:2 50:2 51:14 52:15 53:15 54:9 59:4 60:14 61:9 62:1 #
0.50000000000007061018436615995597 3:4 4:13 5:4 10:2 11:13 12:16 13:15 14:1 18:9 19:16 20:5 21:10 22:9 26:11 27:16 28:1 29:1 30:14 31:1 34:6 35:16 36:3 38:6 39:9 42:2 43:16 44:2 46:5 47:11 51:12 52:12 53:8 54:15 55:9 59:2 60:12 61:13 62:9 63:1 #
-0.056042534074118299791678055044031 4:11 5:8 12:13 13:7 19:3 20:16 21:6 22:15 27:9 28:11 29:7 30:14 34:1 35:15 36:6 37:12 38:13 39:1 42:7 43:16 44:16 45:16 46:16 47:11 50:5 51:12 52:13 53:16 54:8 55:3 60:12 61:12 #
-0.054900854290832468151961620606016 3:10 4:16 5:16 6:8 11:15 12:14 13:9 14:9 18:3 19:16 20:5 26:2 27:16 28:16 29:10 35:11 36:13 37:15 38:6 45:10 46:11 51:5 52:11 53:15 54:13 59:7 60:16 61:15 62:4 #
-0.056135145354896720526483022695174 3:5 4:12 5:8 6:2 11:12 12:6 13:8 14:13 18:2 19:10 22:12 23:2 27:14 28:12 29:12 30:10 35:1 36:15 37:16 38:7 43:14 44:8 46:9 47:1 51:14 52:2 53:1 54:12 55:2 59:8 60:12 61:12 62:6 #
0.50000000000007061018436615995597 3:6 4:13 5:15 6:6 10:1 11:15 12:16 13:16 14:14 18:4 19:16 20:8 21:4 22:14 23:4 26:4 27:16 28:2 30:9 31:7 34:4 35:15 38:13 39:5 42:2 43:16 45:5 46:15 47:5 50:1 51:15 52:13 53:16 54:11 59:6 60:15 61:12 62:3 #
0.50000000000007061018436615995597 3:3 4:12 5:15 6:3 11:15 12:16 13:6 14:11 18:7 19:16 20:5 22:12 23:1 26:5 27:14 30:9 31:7 34:8 35:10 38:13 39:8 42:4 43:12 45:2 46:15 47:6 50:1 51:14 52:8 53:13 54:12 59:3 60:15 61:10 62:3 #
0.50000000000007061018436615995597 3:2 4:12 5:11 6:1 10:1 11:16 12:13 13:9 14:8 18:4 19:14 20:1 22:11 23:1 26:6 27:9 30:7 31:5 34:4 35:9 38:6 39:7 42:2 43:12 46:10 47:6 51:10 52:9 53:13 54:16 55:2 59:2 60:12 61:14 62:3 #
-0.056135145354896720526483022695174 3:3 4:16 5:11 11:5 12:16 13:16 18:1 19:11 20:16 21:15 26:3 27:15 28:16 29:15 35:2 36:16 37:14 44:15 45:16 51:1 52:16 53:16 54:2 59:1 60:11 61:14 62:5 #
-0.055810628810865958726594726613257 3:9 4:13 5:4 10:1 11:16 12:9 13:11 18:2 19:11 21:13 27:2 28:3 29:13 36:11 37:5 43:3 44:14 45:1 51:11 52:14 53:10 54:8 55:11 59:11 60:13 61:12 62:12 63:14 64:2 #
-0.05509322986817122291824944113614 3:7 4:11 5:13 6:7 10:1 11:15 12:15 13:13 14:15 15:2 18:4 19:16 20:4 21:5 22:14 23:4 27:10 28:16 29:16 30:13 31:2 35:7 36:15 37:16 38:3 42:1 43:16 44:9 45:8 46:15 50:3 51:15 52:6 53:9 54:16 59:6 60:16 61:15 62:6 #
0.50000000000007061018436615995597 3:1 4:14 5:11 11:11 12:10 13:8 14:8 18:3 19:16 20:1 22:10 23:2 26:6 27:11 30:6 31:6 34:7 35:9 38:3 39:9 42:3 43:13 46:5 47:10 51:12 52:5 53:4 54:12 55:4 59:1 60:13 61:16 62:7 #
0.50000000000007061018436615995597 3:6 4:10 5:15 6:11 7:1 10:1 11:15 12:9 13:6 14:12 15:4 18:5 19:16 22:5 23:6 26:4 27:14 30:6 31:8 34:6 35:9 38:12 39:2 42:7 43:9 45:6 46:11 50:3 51:15 52:8 53:15 54:4 59:10 60:14 61:5 #
0.50000000000007061018436615995597 3:9 4:16 5:16 6:5 10:2 11:16 12:7 13:9 14:15 15:1 18:6 19:15 22:13 23:7 26:3 27:16 30:8 31:12 34:8 35:16 36:4 38:8 39:12 42:11 43:13 44:1 46:10 47:11 50:5 51:16 52:6 53:5 54:15 55:7 59:10 60:16 61:16 62:9 #
-0.056145733045972590069538910029223 2:2 3:12 4:16 5:16 6:16 7:14 10:9 11:16 12:16 13:15 14:16 15:6 18:11 19:13 21:11 22:14 28:2 29:16 30:6 36:12 37:14 38:1 43:4 44:16 45:6 51:11 52:16 53:1 58:2 59:15 60:13 #
-0.054895788227455666330456551804673 3:1 4:7 5:12 6:5 11:4 12:16 13:9 14:6 19:11 20:8 27:15 28:8 29:8 30:5 35:16 36:16 37:12 38:16 39:2 43:15 44:5 46:15 47:5 51:11 52:9 53:8 54:16 55:4 59:2 60:14 61:15 62:8 #
-0.054895609680736590085814441408729 3:5 4:10 5:12 6:2 10:2 11:16 12:13 13:11 14:11 18:7 19:14 21:4 22:15 26:1 27:6 29:10 30:12 36:2 37:16 38:6 44:9 45:12 51:4 52:16 53:16 54:16 55:16 56:2 59:7 60:15 61:11 62:8 63:8 64:1 #
0.50000000000007061018436615995597 3:6 4:14 5:9 10:2 11:16 12:8 13:13 14:8 18:6 19:12 21:2 22:12 23:2 26:4 27:9 30:7 31:7 34:6 35:12 38:4 39:8 42:6 43:15 46:3 47:9 51:15 52:6 53:4 54:8 55:11 59:6 60:14 61:16 62:12 63:1 #
0.50000000000007061018436615995597 3:8 4:16 5:15 6:4 10:2 11:15 12:16 13:13 14:15 18:9 19:15 20:4 22:15 23:5 26:8 27:13 30:6 31:12 34:10 35:12 38:4 39:12 42:7 43:15 46:4 47:14 50:3 51:16 52:8 53:3 54:12 55:11 59:8 60:16 61:16 62:15 63:1 #
0.50000000000007061018436615995597 3:5 4:15 5:14 6:1 11:15 12:5 13:8 14:9 18:4 19:14 22:11 23:2 26:8 27:16 30:6 31:7 34:8 35:12 36:2 38:4 39:8 42:4 43:10 46:4 47:9 51:14 52:2 53:1 54:10 55:5 59:6 60:14 61:13 62:8 #
-0.054892301204997884234160210326081 3:7 4:13 5:16 6:8 10:9 11:16 12:12 13:8 14:16 15:2 18:4 19:7 21:6 22:15 23:1 27:4 28:13 29:16 30:8 35:6 36:13 37:15 38:16 39:3 45:2 46:11 47:12 51:7 52:8 53:4 54:14 55:12 59:10 60:16 61:16 62:14 63:4 #
-0.055812437009788773423224483849481 3:10 4:15 5:10 10:10 11:15 12:10 13:16 14:6 18:2 19:2 20:13 21:15 22:1 27:4 28:16 29:16 30:5 36:3 37:7 38:15 39:5 46:9 47:13 51:13 52:7 53:5 54:11 55:14 59:7 60:16 61:16 62:14 63:3 #
-0.05487851496598439293705951058655 4:11 5:14 6:2 11:9 12:16 13:12 14:6 18:2 19:15 20:8 27:16 28:4 29:3 30:1 35:16 36:14 37:16 38:15 39:3 43:13 44:14 45:2 46:4 47:14 48:1 51:7 52:14 53:5 54:8 55:16 56:4 59:1 60:9 61:15 62:14 63:7 #
0.50000000000007061018436615995597 3:5 4:8 11:12 12:6 13:12 14:7 18:2 19:10 20:6 21:9 22:15 23:1 26:7 27:8 30:12 31:8 34:8 35:8 38:12 39:6 42:5 43:13 46:13 47:4 51:14 52:10 53:10 54:13 59:4 60:12 61:11 62:1 #
0.50000000000007061018436615995597 3:5 4:15 5:15 6:6 11:13 12:11 13:16 14:16 15:4 18:3 19:14 21:8 22:11 23:7 26:8 27:7 30:7 31:8 34:7 35:7 38:5 39:8 42:9 43:9 45:1 46:11 47:4 50:7 51:13 52:8 53:14 54:12 59:6 60:15 61:10 62:1 #
0.50000000000007061018436615995597 3:9 10:2 11:16 12:6 13:8 14:5 18:4 19:16 20:16 21:16 22:15 23:3 26:6 27:16 28:10 29:12 30:15 31:8 34:4 35:11 38:7 39:8 42:4 43:16 44:9 45:10 46:15 47:8 50:2 51:15 52:16 53:16 54:16 55:3 59:8 60:16 61:15 62:7 #
-0.056126573113206235099426066881279 3:10 4:14 5:11 6:9 11:9 12:12 13:8 14:9 19:11 20:9 21:1 27:15 28:16 29:14 30:2 35:12 36:2 37:10 38:6 46:13 51:7 52:5 53:8 54:12 59:10 60:16 61:15 62:4 #
-0.056114639641750008181020348274615 2:1 3:11 4:14 5:12 6:6 10:8 11:15 12:7 13:11 14:15 18:11 19:9 21:8 22:16 23:4 26:8 27:14 28:13 29:16 30:16 31:7 35:6 36:9 37:4 38:15 39:8 46:11 47:10 51:9 52:8 53:11 54:16 55:3 59:14 60:14 61:11 62:5 #
-0.054890408645679400478911702521145 3:8 4:11 5:15 6:4 11:14 12:14 13:12 14:6 19:11 20:9 27:10 28:16 29:14 30:2 35:4 36:8 37:9 38:14 39:2 46:15 47:2 51:4 52:11 53:13 54:16 55:1 59:4 60:15 61:12 62:9 #
0.50000000000007061018436615995597 2:1 4:6 5:16 6:8 10:11 11:7 12:13 13:3 14:13 15:2 18:11 19:14 20:4 22:8 23:4 26:9 27:7 30:5 31:7 34:6 35:9 38:5 39:8 43:13 44:4 46:11 47:9 51:6 52:14 53:11 54:16 55:7 60:5 61:16 62:10 #
0.50000000000007061018436615995597 3:4 4:15 5:15 6:14 7:1 10:1 11:15 12:16 13:10 14:15 15:6 18:5 19:16 20:11 22:6 23:11 26:8 27:12 30:4 31:12 34:10 35:12 38:5 39:12 42:6 43:16 44:1 46:9 47:9 51:14 52:14 53:8 54:15 55:6 59:4 60:15 61:16 62:11 63:1 #
0.50000000000007061018436615995597 3:3 4:13 5:8 6:1 11:11 12:16 13:14 14:9 18:4 19:16 20:5 21:4 22:14 26:4 27:15 30:12 31:8 34:5 35:12 38:12 39:8 42:2 43:15 46:12 47:6 51:14 52:10 53:8 54:15 55:2 59:4 60:13 61:16 62:6 #
-0.054880716685388186704130930593237 3:8 4:12 5:14 6:15 7:15 8:1 10:3 11:15 12:16 13:14 14:16 15:15 16:2 19:10 20:2 21:5 22:16 23:7 28:1 29:14 30:12 36:6 37:16 38:5 44:15 45:12 51:6 52:16 53:7 59:11 60:16 61:3 #
-0.054890863544216683678200752183329 3:7 4:8 5:8 6:8 11:12 12:16 13:14 14:12 19:15 20:5 21:2 27:14 28:16 29:13 30:2 35:7 36:4 37:12 38:9 45:6 46:12 51:11 52:12 53:16 54:10 59:8 60:13 61:8 62:1 #
-0.054883312561647246141660616558511 3:3 4:12 5:15 6:3 11:14 12:15 13:14 14:4 18:1 19:16 20:15 21:1 26:3 27:16 28:16 29:5 30:2 31:1 34:2 35:16 36:11 37:4 38:8 39:10 42:2 43:16 44:2 46:6 47:13 51:11 52:11 53:4 54:11 55:10 59:1 60:10 61:13 62:10 63:3 #
0.50000000000007061018436615995597 3:5 4:15 5:8 6:2 11:15 12:16 13:14 14:12 18:5 19:13 20:2 22:14 23:3 26:5 27:11 30:8 31:8 34:8 35:8 38:12 39:5 42:3 43:14 46:15 47:4 51:13 52:12 53:10 54:14 59:4 60:14 61:15 62:4 #
0.50000000000007061018436615995597 3:2 4:12 5:14 6:1 11:13 12:16 13:12 14:12 18:1 19:16 20:5 22:15 23:4 26:3 27:16 28:3 30:11 31:7 34:6 35:12 38:12 39:5 42:4 43:16 44:3 45:2 46:15 47:7 51:15 52:12 53:14 54:13 55:1 59:4 60:15 61:13 62:2 #
0.50000000000007061018436615995597 3:3 4:14 5:12 6:1 11:14 12:15 13:13 14:12 19:16 20:2 22:14 23:2 26:1 27:14 30:10 31:6 34:2 35:15 38:13 39:5 42:3 43:16 44:1 45:1 46:15 47:6 51:13 52:10 53:13 54:15 55:1 59:2 60:12 61:14 62:6 #
-0.054883312561647246141660616558511 4:10 5:14 11:4 12:16 13:7 19:8 20:16 21:6 22:8 27:14 28:9 29:8 30:15 34:4 35:16 36:3 37:11 38:15 39:6 42:10 43:16 44:16 45:16 46:16 47:9 50:6 51:12 52:13 53:16 54:7 60:12 61:16 62:2 #
-0.054883312561647246141660616558511 3:1 4:10 5:14 6:13 7:2 11:9 12:15 13:13 14:16 15:5 22:11 23:5 29:4 30:13 35:8 36:16 37:16 38:13 39:2 43:8 44:14 45:16 46:10 47:1 52:12 53:7 60:14 61:2 #
-0.054890134917666699720939504913986 3:7 4:15 5:8 6:2 11:12 12:16 13:14 14:5 19:12 20:16 21:16 22:4 27:12 28:16 29:16 30:2 35:13 36:16 37:16 38:2 43:14 44:16 45:16 50:1 51:14 52:16 53:16 54:14 55:1 58:1 59:8 60:16 61:11 62:8 #
0.50000000000007061018436615995597 3:9 4:16 5:10 11:16 12:13 13:16 14:5 18:3 19:16 20:4 21:7 22:14 26:4 27:15 28:3 30:12 31:7 34:7 35:12 38:10 39:8 42:5 43:13 45:4 46:15 47:3 50:2 51:16 52:13 53:16 54:9 59:8 60:13 61:9 62:1 #
0.50000000000007061018436615995597 3:7 4:16 5:12 6:1 11:16 12:11 13:13 14:11 18:3 19:16 20:2 21:4 22:14 26:7 27:13 30:13 31:1 34:4 35:15 38:12 39:6 42:2 43:16 44:4 46:10 47:7 50:1 51:15 52:10 53:8 54:14 55:2 59:5 60:16 61:15 62:5 #
0.50000000000007061018436615995597 3:5 4:13 5:9 6:7 11:14 12:16 13:16 14:16 15:6 18:2 19:14 20:7 21:6 22:10 23:10 26:5 27:11 30:8 31:8 34:4 35:12 38:8 39:8 42:4 43:15 44:1 46:9 47:7 51:14 52:9 53:6 54:16 55:2 59:5 60:15 61:16 62:7 #
-0.054890134916019461819303160154959 3:6 4:9 5:4 6:1 11:6 12:16 13:16 14:9 15:1 19:4 20:16 21:1 22:13 23:7 28:14 29:5 30:12 31:8 34:1 35:10 36:15 37:16 38:10 42:6 43:15 44:9 45:16 46:1 50:7 51:13 52:8 53:14 54:4 59:6 60:10 61:13 62:1 #
-0.054878559566454376827948635764187 3:5 4:12 5:8 6:1 11:15 12:16 13:16 14:8 19:15 20:16 21:16 22:6 26:1 27:14 28:16 29:16 30:4 34:2 35:15 36:16 37:16 38:9 43:6 44:16 45:16 46:14 47:1 51:8 52:16 53:16 54:15 59:4 60:12 61:10 62:4 #
-0.054890199004753226219577300071251 4:2 5:15 6:3 12:8 13:14 20:12 21:8 22:2 23:4 27:4 28:15 29:2 30:15 31:8 34:4 35:13 36:14 37:9 38:16 39:6 41:3 42:16 43:16 44:16 45:16 46:14 49:1 50:6 51:4 52:4 53:13 54:9 60:3 61:16 62:4 #
0.50000000000007061018436615995597 3:2 4:14 5:9 6:2 11:10 12:16 13:16 14:13 19:12 20:6 21:3 22:14 23:4 26:1 27:13 28:2 30:6 31:8 34:7 35:14 38:7 39:7 42:2 43:16 44:2 46:12 47:4 51:11 52:12 53:12 54:15 59:2 60:14 61:14 62:2 #
0.50000000000007061018436615995597 3:4 4:14 5:11 6:3 10:1 11:14 12:15 13:16 14:14 18:3 19:16 20:2 21:3 22:11 23:4 26:6 27:11 30:6 31:6 34:7 35:13 38:8 39:7 42:2 43:15 46:14 47:3 51:12 52:6 53:11 54:13 59:4 60:12 61:13 62:2 #
0.50000000000007061018436615995597 3:8 4:16 5:6 6:1 11:13 12:16 13:16 14:15 18:3 19:16 20:2 22:13 23:3 26:6 27:14 30:11 31:6 34:3 35:13 38:13 39:5 43:16 45:6 46:15 47:1 51:13 52:10 53:15 54:9 59:4 60:12 61:11 #
-0.054895988803838946523683262057602 3:4 4:14 5:16 6:11 11:12 12:12 13:16 14:15 20:1 21:16 22:11 27:2 28:9 29:16 30:9 35:13 36:16 37:16 38:16 39:9 43:2 44:15 45:12 46:8 47:1 51:4 52:16 53:9 59:5 60:15 61:7 #
-0.056184521245006946443822926084977 3:3 4:12 5:15 6:3 11:9 12:15 13:15 14:7 19:12 20:14 21:12 22:1 27:8 28:16 29:16 30:14 38:13 39:7 46:7 47:12 50:2 51:16 52:10 53:8 54:13 55:10 59:6 60:11 61:16 62:14 63:3 #
-0.056184521245006946443822926084977 4:3 5:15 6:5 12:6 13:16 14:2 20:6 21:16 22:3 27:2 28:13 29:5 30:12 31:2 34:5 35:13 36:13 37:9 38:16 39:1 41:4 42:16 43:16 44:16 45:16 46:15 49:2 50:9 51:7 52:4 53:13 54:9 60:5 61:16 62:5 #
0.50000000000007061018436615995597 3:6 4:14 5:6 6:1 11:14 12:16 13:14 14:9 18:3 19:16 20:3 21:1 22:15 23:1 26:4 27:13 30:11 31:5 34:2 35:14 38:11 39:8 42:2 43:16 44:2 45:2 46:16 47:4 51:12 52:9 53:12 54:12 59:4 60:13 61:11 62:1 #
0.50000000000007061018436615995597 3:6 4:15 5:13 6:1 10:1 11:16 12:10 13:5 14:12 18:8 19:16 20:5 22:9 23:1 26:7 27:15 30:7 31:5 34:5 35:14 38:5 39:9 42:2 43:14 45:1 46:12 47:6 51:10 52:11 53:15 54:16 55:3 59:2 60:11 61:11 62:4 #
0.50000000000007061018436615995597 3:3 4:14 5:10 11:10 12:13 13:11 14:9 19:15 20:9 22:9 23:1 27:16 28:6 30:6 31:5 35:15 36:4 38:10 39:6 43:14 45:2 46:16 47:3 51:12 52:11 53:15 54:12 59:2 60:13 61:10 62:1 #
-0.054890989698089476256370744522428 2:3 3:13 4:16 5:16 6:6 10:4 11:16 12:9 13:14 14:12 19:8 20:3 21:14 22:7 28:12 29:16 30:3 36:5 37:15 38:15 39:1 45:1 46:16 47:10 50:2 51:12 52:8 53:11 54:16 55:7 58:2 59:15 60:16 61:15 62:9 #
-0.054896158518797810721423502400285 3:8 4:14 5:12 6:2 10:3 11:16 12:12 13:15 14:6 18:3 19:7 20:7 21:13 22:9 27:5 28:15 29:16 30:3 36:7 37:14 38:14 39:1 45:3 46:16 47:5 51:7 52:5 53:10 54:16 55:5 59:13 60:10 61:8 62:3 #
-0.054890408645679400478911702521145 2:1 3:9 4:15 5:5 10:6 11:16 12:13 13:15 14:3 18:12 19:11 21:12 22:14 26:5 27:15 28:11 29:15 30:16 31:3 35:4 36:8 37:10 38:16 39:5 46:12 47:12 51:6 52:4 53:7 54:14 55:13 59:7 60:14 61:14 62:12 63:5 #
0.50000000000007061018436615995597 3:2 4:13 5:9 6:1 11:13 12:14 13:10 14:10 19:14 20:3 22:8 27:15 28:9 30:5 31:3 35:16 36:8 38:7 39:5 43:16 44:7 45:2 46:16 47:2 51:11 52:9 53:13 54:14 55:1 59:2 60:15 61:13 62:1 #
0.50000000000007061018436615995597 3:5 4:15 5:13 6:1 11:12 12:16 13:12 14:10 19:14 20:8 22:13 23:3 27:16 28:9 30:10 31:9 35:16 36:13 38:8 39:9 42:1 43:16 44:6 45:2 46:16 47:9 51:13 52:12 53:15 54:15 55:2 59:6 60:16 61:16 62:7 #
0.50000000000007061018436615995597 3:8 4:15 5:11 6:1 10:1 11:14 12:14 13:14 14:10 18:3 19:16 20:3 22:9 23:3 26:5 27:14 30:6 31:6 34:5 35:13 38:7 39:7 42:4 43:12 46:13 47:6 50:1 51:16 52:13 53:16 54:12 59:7 60:16 61:12 62:1 #
-0.054895788227455666330456551804673 2:2 3:14 4:16 5:11 10:8 11:15 12:7 13:16 18:1 19:2 21:15 22:1 27:2 28:12 29:14 35:1 36:11 37:14 38:11 45:2 46:14 47:5 50:2 51:8 52:3 53:4 54:10 55:12 58:1 59:13 60:16 61:16 62:14 63:4 #
-0.056101625904743657180517857341329 3:3 4:11 5:16 6:16 7:10 11:11 12:10 13:8 14:16 15:7 21:4 22:16 23:2 27:1 28:4 29:13 30:11 35:10 36:16 37:16 38:16 39:9 43:4 44:13 45:13 46:8 47:2 51:2 52:14 53:6 59:4 60:12 61:1 #
-0.054890863544216683678200752183329 3:1 4:13 5:12 6:14 7:7 11:5 12:12 13:9 14:16 15:2 21:3 22:13 29:10 30:7 35:7 36:16 37:16 38:10 39:1 43:9 44:14 45:16 46:11 47:1 52:15 53:5 59:1 60:15 61:2 #
0.50000000000007061018436615995597 3:3 4:12 5:10 11:10 12:11 13:5 14:10 18:1 19:16 20:7 22:10 23:2 26:2 27:16 28:2 30:6 31:6 34:3 35:15 36:10 38:7 39:7 43:12 44:7 46:10 47:5 51:13 52:2 53:6 54:15 55:1 59:3 60:15 61:14 62:7 #
0.50000000000007061018436615995597 3:3 4:13 5:12 6:2 11:14 12:16 13:13 14:12 18:2 19:16 20:12 22:12 23:4 26:6 27:15 30:10 31:6 34:3 35:13 38:7 39:9 42:3 43:12 45:1 46:12 47:6 50:1 51:13 52:9 53:13 54:16 55:2 59:5 60:14 61:13 62:4 #
0.50000000000007061018436615995597 3:2 4:13 5:12 6:1 11:15 12:12 13:9 14:10 18:2 19:16 20:2 22:9 23:1 26:4 27:16 28:1 30:4 31:5 34:2 35:16 36:4 38:2 39:9 43:14 46:6 47:8 51:12 52:7 53:5 54:15 55:4 59:2 60:13 61:15 62:6 #
-0.054890886081253142947389278560877 5:10 6:7 13:15 14:5 20:4 21:16 22:3 28:7 29:15 30:3 34:3 35:7 36:14 37:12 38:16 39:1 41:1 42:14 43:16 44:16 45:16 46:15 50:9 51:10 52:14 53:16 54:16 61:12 62:9 #
-0.054895514490296948295622314617503 3:4 4:16 5:16 6:8 10:2 11:16 12:10 13:12 14:16 15:4 18:4 19:16 20:4 21:10 22:16 23:4 26:3 27:16 28:16 29:16 30:16 31:1 37:4 38:16 39:4 45:2 46:16 47:1 52:6 53:11 54:16 59:4 60:13 61:9 62:3 #
-0.054871213743499902548705904337112 2:1 3:11 4:16 5:15 6:2 10:4 11:12 12:8 13:14 14:8 18:1 19:1 20:2 21:15 22:6 28:7 29:16 30:4 36:1 37:13 38:13 45:2 46:16 47:7 51:10 52:11 53:8 54:15 55:8 59:8 60:14 61:16 62:12 63:1 #
0.50000000000007061018436615995597 3:2 4:15 5:9 11:3 12:16 13:12 14:8 19:8 20:14 21:3 22:10 23:2 27:14 28:5 30:6 31:6 34:2 35:15 38:3 39:9 42:1 43:15 46:1 47:12 51:12 52:9 53:5 54:11 55:11 59:2 60:14 61:16 62:10 63:3 #
0.50000000000007061018436615995597 3:3 4:15 5:14 6:3 11:13 12:8 13:2 14:11 18:3 19:16 20:7 22:10 23:1 26:4 27:14 30:7 31:5 34:2 35:12 38:5 39:7 42:2 43:13 46:10 47:5 51:13 52:3 53:6 54:14 55:1 59:3 60:15 61:14 62:4 #
0.50000000000007061018436615995597 3:3 4:16 5:14 6:3 11:12 12:14 13:14 14:12 18:2 19:16 20:6 22:15 23:2 26:7 27:10 30:10 31:4 34:8 35:8 38:11 39:5 42:7 43:10 46:13 47:3 50:5 51:16 52:13 53:15 54:11 59:7 60:14 61:13 62:1 #
-0.054875655347517815485502978845034 4:8 5:14 6:5 12:9 13:16 14:14 15:2 20:11 21:16 22:13 23:1 27:6 28:16 29:16 30:7 34:3 35:13 36:16 37:16 38:4 42:3 43:11 44:15 45:16 46:12 52:10 53:16 54:15 55:3 60:8 61:16 62:15 63:6 #
-0.054896029450259176130089144862723 4:10 5:13 6:3 12:16 13:16 14:8 19:4 20:16 21:16 22:7 26:2 27:15 28:16 29:16 30:10 34:6 35:16 36:16 37:16 38:13 44:8 45:16 46:14 52:11 53:16 54:16 55:1 60:12 61:12 62:7 #
-0.054896029450259176130089144862723 4:9 5:14 6:14 7:12 8:6 11:3 12:8 13:8 14:11 15:16 16:7 21:1 22:12 23:12 27:3 28:4 29:11 30:14 35:13 36:16 37:16 38:15 39:4 44:10 45:11 52:14 53:9 60:15 61:4 #
0.50000000000007061018436615995597 3:6 4:16 5:11 6:1 11:16 12:13 13:16 14:11 18:5 19:10 21:3 22:13 23:2 26:7 27:8 30:4 31:7 34:8 35:8 38:6 39:8 42:4 43:11 44:2 45:4 46:15 47:5 51:14 52:16 53:16 54:15 55:1 59:5 60:12 61:10 62:2 #
0.50000000000007061018436615995597 3:8 4:16 5:8 10:2 11:15 12:16 13:16 14:6 18:4 19:13 20:1 21:6 22:15 23:1 26:7 27:13 30:13 31:5 34:8 35:12 38:8 39:8 42:7 43:14 44:1 45:4 46:12 47:8 50:2 51:15 52:16 53:16 54:16 55:4 59:7 60:16 61:16 62:10 #
0.50000000000007061018436615995597 3:9 4:16 5:7 6:2 10:1 11:16 12:10 13:15 14:11 18:4 19:16 20:4 21:1 22:15 23:3 26:6 27:16 28:2 30:10 31:6 34:4 35:14 38:9 39:8 42:4 43:14 46:14 47:6 50:2 51:16 52:12 53:15 54:12 59:6 60:15 61:13 62:1 #
-0.054890989698089476256370744522428 3:2 4:14 5:16 6:13 11:15 12:9 13:7 14:9 19:14 20:6 21:5 22:4 27:11 28:16 29:16 30:16 31:3 35:1 36:5 37:4 38:11 39:8 43:3 46:7 47:9 50:2 51:16 52:11 53:4 54:8 55:10 59:1 60:10 61:14 62:15 63:3 #
-0.054890506788462523068972132023191 3:4 4:13 5:16 6:15 7:4 10:3 11:16 12:10 13:8 14:16 15:4 18:3 19:10 21:3 22:16 23:4 28:11 29:16 30:15 36:3 37:14 38:16 39:6 45:2 46:16 47:9 51:2 52:12 53:8 54:16 55:8 59:3 60:16 61:16 62:13 63:1 #
-0.054889452220979628727093313500518 3:8 4:14 5:13 6:1 10:3 11:16 12:16 13:16 14:7 18:4 19:16 20:3 21:11 22:8 27:4 29:15 30:4 36:3 37:15 38:1 43:7 44:14 45:15 46:5 47:2 50:1 51:16 52:16 53:16 54:16 55:15 59:6 60:4 61:6 62:9 63:11 #
0.50000000000007061018436615995597 3:5 4:15 5:14 6:2 10:2 11:15 12:14 13:13 14:15 18:7 19:16 20:2 21:1 22:16 23:5 26:8 27:14 30:12 31:10 34:8 35:13 38:8 39:12 42:8 43:15 46:14 47:10 50:2 51:16 52:11 53:10 54:16 55:2 59:8 60:16 61:16 62:6 #
0.50000000000007061018436615995597 3:3 4:16 5:15 6:4 11:11 12:13 13:10 14:16 15:2 18:6 19:16 20:6 22:12 23:8 26:10 27:16 28:3 30:11 31:10 34:10 35:16 36:1 38:13 39:8 42:4 43:16 44:4 45:3 46:15 47:4 51:12 52:11 53:14 54:15 59:3 60:15 61:16 62:4 #
0.50000000000007061018436615995597 3:8 4:13 5:4 10:1 11:14 12:10 13:15 14:3 18:2 19:16 20:1 21:4 22:14 26:4 27:16 30:12 31:5 34:4 35:13 38:7 39:9 42:4 43:16 44:1 46:10 47:8 50:1 51:15 52:8 53:9 54:15 55:3 59:7 60:15 61:14 62:4 #
-0.056082761077402620841780844784807 3:6 4:11 5:4 11:12 12:16 13:14 19:12 20:16 21:6 22:1 27:5 28:16 29:16 30:5 35:12 36:16 37:16 38:4 43:12 44:16 45:16 46:9 51:13 52:16 53:16 54:12 59:8 60:12 61:11 62:6 #
-0.054887655856317052460724426055094 4:16 5:11 6:4 11:2 12:16 13:16 14:12 19:10 20:16 21:16 22:8 26:2 27:16 28:16 29:16 30:4 34:2 35:11 36:16 37:16 38:4 43:1 44:16 45:16 46:6 52:14 53:16 54:16 55:6 60:12 61:16 62:15 63:6 #
-0.054887506647565920125941829610383 4:9 5:15 6:10 11:2 12:16 13:16 14:16 20:15 21:16 22:16 27:2 28:16 29:16 30:12 35:14 36:16 37:16 38:12 42:4 43:16 44:16 45:16 46:11 52:12 53:16 54:16 55:4 60:14 61:15 62:10 63:2 #
0.50000000000007061018436615995597 3:2 4:13 5:12 6:1 11:10 12:14 13:9 14:12 18:1 19:15 20:1 22:11 23:1 26:4 27:13 30:10 31:5 34:3 35:10 38:11 39:8 42:2 43:10 45:3 46:16 47:5 51:11 52:13 53:16 54:8 59:3 60:13 61:8 #
0.50000000000007061018436615995597 3:8 4:15 5:16 6:8 11:16 12:13 13:14 14:16 15:4 18:5 19:14 20:1 21:2 22:16 23:6 26:7 27:12 30:12 31:5 34:4 35:16 36:1 38:11 39:8 42:1 43:16 44:9 45:4 46:13 47:6 50:1 51:16 52:16 53:16 54:11 59:7 60:15 61:16 62:2 #
0.50000000000007061018436615995597 3:7 4:16 5:16 6:16 7:2 11:14 12:14 13:9 14:16 15:2 18:2 19:16 20:6 22:9 23:7 26:4 27:16 28:1 30:8 31:8 34:6 35:16 38:12 39:8 42:5 43:16 44:4 45:2 46:16 47:5 51:15 52:16 53:16 54:13 59:8 60:13 61:10 62:2 #
-0.054887506647565920125941829610383 3:13 4:14 5:5 10:3 11:16 12:15 13:16 14:3 18:7 19:11 20:1 21:13 22:4 26:1 27:2 28:2 29:15 30:2 36:9 37:12 43:8 44:16 45:4 46:1 47:1 51:16 52:16 53:16 54:16 55:8 59:11 60:12 61:10 62:11 63:7 #
-0.054887506647565920125941829610383 3:7 4:13 5:14 6:6 10:2 11:16 12:16 13:16 14:14 18:3 19:16 20:9 21:4 22:2 26:2 27:16 28:16 29:14 30:5 35:6 36:8 37:9 38:15 39:7 46:8 47:12 51:11 52:4 53:5 54:14 55:11 59:8 60:16 61:16 62:13 63:1 #
-0.05489540737466480635475818417035 4:7 5:8 6:2 11:2 12:15 13:16 14:8 19:4 20:16 21:16 22:8 27:8 28:16 29:16 30:9 34:3 35:16 36:16 37:16 38:16 42:1 43:6 44:9 45:16 46:16 52:7 53:16 54:16 55:2 60:7 61:11 62:3 #
0.50000000000007061018436615995597 3:7 4:15 5:13 6:3 11:16 12:8 13:9 14:13 18:3 19:13 21:1 22:13 23:3 26:7 27:14 28:4 30:5 31:8 34:8 35:16 36:8 38:10 39:8 42:7 43:16 44:9 46:15 47:3 50:2 51:16 52:16 53:11 54:14 55:1 59:5 60:15 61:15 62:3 #
0.50000000000007061018436615995597 3:1 4:12 5:15 6:2 11:11 12:13 13:8 14:10 18:4 19:16 20:13 21:1 22:10 26:8 27:15 28:3 30:6 31:3 34:8 35:12 38:8 39:5 42:2 43:16 44:8 46:8 47:8 51:10 52:11 53:7 54:15 55:4 60:13 61:15 62:6 #
0.50000000000007061018436615995597 3:7 4:15 5:14 6:3 10:4 11:16 12:13 13:14 14:13 18:8 19:16 20:5 22:12 23:4 26:8 27:16 28:8 30:8 31:8 34:8 35:16 36:5 38:9 39:8 42:5 43:16 44:10 45:7 46:16 47:3 51:13 52:16 53:16 54:7 59:6 60:15 61:11 62:1 #
-0.054890886081253142947389278560877 3:12 4:13 5:9 6:2 10:3 11:16 12:16 13:16 14:7 18:2 19:16 20:5 27:14 28:16 29:14 30:3 35:1 36:4 37:10 38:15 39:3 46:9 47:12 51:13 52:12 53:12 54:13 55:13 59:6 60:12 61:14 62:14 63:5 #
-0.056081090089372787055310709547484 3:2 4:11 5:15 6:8 11:14 12:13 13:13 14:8 19:14 20:8 21:8 22:4 27:7 28:16 29:16 30:14 31:2 35:1 36:4 37:1 38:13 39:6 46:7 47:13 51:10 52:7 53:2 54:7 55:12 59:2 60:10 61:14 62:16 63:7 #
-0.054895514490296948295622314617503 3:12 4:10 5:2 10:2 11:16 12:8 13:10 14:2 19:16 21:10 22:10 27:5 28:10 29:12 30:15 36:6 37:8 38:14 39:3 46:5 47:12 52:1 53:4 54:9 55:13 59:10 60:15 61:16 62:15 63:5 #
0.50000000000007061018436615995597 4:12 5:13 11:4 12:16 13:16 14:9 19:2 20:16 21:6 22:14 26:4 27:3 28:13 29:7 30:9 31:5 34:8 35:12 36:3 37:16 38:12 39:8 43:14 44:5 45:1 46:12 47:8 51:10 52:14 53:13 54:16 55:2 60:13 61:16 62:6 #
0.50000000000007061018436615995597 3:2 4:13 5:15 6:1 10:2 11:13 12:15 13:5 14:9 18:7 19:15 20:2 22:8 26:8 27:15 30:5 31:4 34:7 35:16 38:9 39:6 43:14 44:7 46:13 47:7 51:10 52:15 53:14 54:14 60:14 61:14 62:5 #
0.50000000000007061018436615995597 3:5 4:15 5:8 11:13 12:8 13:12 14:5 18:1 19:16 20:1 21:6 22:15 23:2 26:1 27:16 28:1 29:2 30:16 31:6 34:3 35:14 38:11 39:9 42:3 43:16 44:1 46:7 47:10 51:15 52:4 53:2 54:15 55:6 59:5 60:14 61:15 62:10 63:1 #
-0.055431573212321061383534015476471 3:1 4:12 5:7 11:14 12:16 13:6 18:2 19:16 20:5 26:1 27:16 28:2 34:3 35:16 36:11 37:5 38:3 42:1 43:16 44:15 45:14 46:16 47:8 51:11 52:16 53:5 54:7 55:16 56:5 59:1 60:10 61:16 62:16 63:13 64:1 #
-0.05486590120869849762641479173908 2:1 3:11 4:14 5:14 6:3 10:9 11:14 12:10 13:11 14:14 18:8 19:8 21:9 22:12 26:3 27:3 28:8 29:16 30:6 36:8 37:14 38:16 39:2 46:10 47:12 51:5 52:6 53:4 54:12 55:13 59:11 60:12 61:15 62:14 63:6 #
-0.056184205924123653552726409543538 4:1 5:16 6:8 12:3 13:16 14:6 20:7 21:15 22:9 23:3 27:3 28:14 29:8 30:16 31:4 34:7 35:15 36:14 37:12 38:16 39:3 41:3 42:15 43:16 44:16 45:16 46:16 47:1 49:1 50:4 51:4 52:4 53:14 54:13 60:1 61:16 62:7 #
0.50000000000007061018436615995597 3:4 4:14 5:15 6:2 10:4 11:16 12:7 13:8 14:9 18:6 19:14 22:12 23:2 26:3 27:16 30:7 31:7 35:14 38:4 39:8 43:11 44:4 46:5 47:9 51:6 52:15 53:8 54:14 55:7 59:1 60:13 61:15 62:10 #
0.50000000000007061018436615995597 3:3 4:12 5:15 6:2 10:5 11:16 12:12 13:9 14:13 18:7 19:15 20:2 22:12 23:4 26:6 27:12 30:7 31:6 34:6 35:13 38:7 39:7 43:16 46:10 47:7 51:10 52:10 53:8 54:16 55:1 59:2 60:10 61:16 62:6 #
0.50000000000007061018436615995597 3:4 4:12 5:10 6:1 11:13 12:12 13:11 14:10 18:2 19:16 20:3 22:12 23:3 26:4 27:13 30:10 31:6 34:6 35:11 38:10 39:7 42:4 43:12 45:1 46:14 47:4 51:11 52:9 53:12 54:13 59:4 60:12 61:11 62:3 #
-0.054870589046195683557982647471363 3:10 4:16 5:14 6:6 11:14 12:16 13:9 14:15 15:3 19:10 20:16 21:5 22:15 23:4 27:3 28:16 29:16 30:13 31:1 35:12 36:16 37:16 38:10 42:2 43:16 44:5 45:10 46:14 50:7 51:16 52:8 53:7 54:16 55:3 59:9 60:14 61:16 62:11 63:1 #
0.50000000000007061018436615995597 3:3 4:13 5:13 6:2 10:4 11:16 12:15 13:14 14:10 18:3 19:16 20:2 22:16 23:4 26:6 27:13 30:13 31:6 34:4 35:13 38:11 39:9 43:16 46:11 47:7 51:9 52:12 53:9 54:15 55:2 59:2 60:11 61:15 62:7 #
-0.054871006292283253102937123912852 3:3 4:15 5:16 6:16 7:6 11:11 12:15 13:12 14:16 15:2 21:11 22:13 27:4 28:8 29:16 30:8 31:2 35:14 36:16 37:16 38:16 39:10 43:3 44:13 45:12 46:6 47:1 51:1 52:16 53:6 59:7 60:15 61:2 #
-0.054871006292283253102937123912852 4:4 5:16 6:1 12:6 13:14 20:11 21:10 22:9 23:2 27:4 28:16 29:8 30:16 31:4 34:5 35:14 36:11 37:11 38:16 39:2 41:3 42:15 43:16 44:16 45:16 46:14 49:3 50:12 51:11 52:14 53:16 54:13 60:7 61:16 62:7 #
0.50000000000007061018436615995597 3:8 4:13 5:11 6:2 10:7 11:15 12:9 13:13 14:11 18:12 19:15 22:15 23:4 26:4 27:16 30:13 31:6 34:5 35:13 38:11 39:7 42:4 43:16 46:14 47:7 50:1 51:15 52:8 53:10 54:16 55:4 59:6 60:15 61:16 62:10 #
0.50000000000007061018436615995597 3:4 4:12 5:1 11:11 12:16 13:16 14:7 19:15 20:15 21:10 22:16 23:4 26:3 27:16 28:2 30:10 31:6 34:3 35:16 36:1 38:7 39:9 42:2 43:16 44:2 45:2 46:12 47:12 51:13 52:11 53:14 54:16 55:7 59:3 60:12 61:13 62:5 #
-0.056189934480118663984171689662617 2:1 3:12 4:8 10:9 11:16 12:14 13:9 18:9 19:8 21:16 26:1 28:4 29:13 36:9 37:7 43:1 44:13 45:3 50:1 51:15 52:15 53:11 54:10 55:7 59:11 60:12 61:12 62:12 63:11 #
-0.056189934480118663984171689662617 4:1 5:16 6:5 12:4 13:16 14:6 20:7 21:15 22:3 23:2 27:1 28:14 29:8 30:16 31:7 34:3 35:12 36:15 37:9 38:16 39:2 41:2 42:15 43:16 44:16 45:16 46:15 50:3 51:7 52:8 53:15 54:12 60:1 61:16 62:9 #
-0.054892524679576615298515207541641 3:6 4:8 11:11 12:14 19:13 20:7 27:16 28:7 35:16 36:9 37:6 42:4 43:16 44:16 45:16 46:14 47:2 50:2 51:14 52:14 53:8 54:16 55:9 59:6 60:15 61:16 62:16 63:6 #
0.50000000000007061018436615995597 3:4 4:15 5:5 11:12 12:16 13:14 14:1 18:1 19:15 20:12 21:13 22:14 26:4 27:13 30:9 31:4 34:3 35:10 38:3 39:9 42:4 43:12 46:2 47:12 51:13 52:10 53:10 54:16 55:14 59:4 60:13 61:16 62:14 63:3 #
0.50000000000007061018436615995597 3:3 4:13 5:9 6:2 11:14 12:16 13:16 14:11 18:5 19:16 20:7 21:4 22:16 23:3 26:4 27:14 28:1 30:12 31:8 34:5 35:12 38:8 39:8 42:1 43:16 44:4 46:9 47:11 51:11 52:16 53:12 54:16 55:7 59:3 60:11 61:15 62:10 #
0.50000000000007061018436615995597 3:3 4:14 5:11 6:1 11:14 12:15 13:13 14:10 18:1 19:16 20:5 21:1 22:14 23:2 26:3 27:16 28:2 30:7 31:6 34:4 35:13 36:1 38:7 39:8 42:3 43:13 46:11 47:7 51:14 52:6 53:7 54:14 55:1 59:4 60:16 61:14 62:4 #
-0.054892524679576615298515207541641 4:9 5:9 6:1 11:10 12:16 13:10 14:12 15:1 19:5 20:14 21:1 22:12 23:4 28:11 29:15 30:16 31:2 35:3 36:12 37:16 38:9 42:1 43:12 44:10 45:4 46:16 47:7 50:2 51:15 52:5 54:11 55:12 59:1 60:10 61:13 62:13 63:6 #
-0.054895514490296948295622314617503 3:13 4:16 5:5 10:4 11:15 12:13 13:13 18:7 19:8 20:3 21:16 22:1 26:9 27:3 28:4 29:16 36:8 37:10 43:2 44:15 45:5 51:12 52:16 53:16 54:16 55:7 59:13 60:12 61:9 62:15 63:7 #
-0.05488445585026402451234162072069 3:10 4:16 5:14 6:3 10:2 11:16 12:10 13:14 14:12 19:7 20:4 21:14 22:8 28:8 29:16 30:9 37:7 38:16 39:4 46:13 47:7 50:8 51:11 52:5 53:4 54:16 55:4 58:1 59:11 60:15 61:16 62:8 63:1 #
0.50000000000007061018436615995597 3:3 4:10 5:14 6:2 11:15 12:16 13:14 14:10 18:6 19:16 20:5 22:14 23:2 26:8 27:15 28:1 30:8 31:6 34:8 35:8 38:6 39:8 42:5 43:13 46:6 47:8 51:15 52:12 53:8 54:14 55:5 59:3 60:15 61:16 62:11 #
0.50000000000007061018436615995597 3:4 4:15 5:13 6:1 11:11 12:12 13:13 14:9 18:2 19:15 20:4 21:1 22:16 23:1 26:4 27:16 28:3 30:10 31:6 34:3 35:15 36:2 38:8 39:8 42:3 43:16 44:1 46:12 47:6 51:13 52:11 53:9 54:15 55:1 59:4 60:13 61:13 62:2 #
0.50000000000007061018436615995597 3:3 4:15 5:10 6:1 10:2 11:14 12:9 13:13 14:11 18:7 19:15 21:2 22:16 23:2 26:4 27:16 28:2 30:6 31:8 34:6 35:9 38:6 39:8 42:5 43:11 46:10 47:8 51:15 52:6 53:7 54:16 55:3 59:3 60:12 61:16 62:5 #
-0.054871006292283253102937123912852 4:9 5:14 12:13 13:11 15:4 19:2 20:16 21:6 22:6 23:15 27:9 28:14 30:14 31:10 34:12 35:16 36:14 37:13 38:15 39:1 42:11 43:14 44:14 45:16 46:12 52:7 53:16 54:5 60:14 61:13 #
-0.054895788227455666330456551804673 3:11 4:15 5:6 11:10 12:16 13:8 19:8 20:16 21:16 26:2 27:12 28:16 29:14 30:2 35:6 36:16 37:16 38:7 43:8 44:16 45:16 46:9 51:12 52:16 53:16 54:15 55:3 59:8 60:15 61:12 62:5 63:1 #
-0.055431573212321061383534015476471 3:6 4:9 5:13 6:11 7:2 10:7 11:16 12:16 13:16 14:16 15:3 18:8 19:16 20:10 21:6 26:5 27:16 28:16 29:16 30:13 31:1 36:3 37:6 38:16 39:4 42:3 46:12 47:5 50:5 51:16 52:9 53:8 54:14 55:6 59:5 60:10 61:12 62:10 #
0.50000000000007061018436615995597 3:3 4:13 5:11 6:1 10:10 11:15 12:10 13:11 14:10 18:6 19:16 20:1 21:1 22:13 23:2 26:4 27:8 30:8 31:8 34:4 35:8 38:8 39:8 42:3 43:12 46:14 47:8 51:13 52:10 53:12 54:16 55:3 59:4 60:15 61:10 62:3 #
0.50000000000007061018436615995597 3:6 4:16 5:15 6:3 10:2 11:16 12:11 13:13 14:13 18:7 19:14 20:1 21:1 22:14 23:4 26:8 27:12 30:8 31:12 34:9 35:11 38:8 39:12 42:8 43:13 44:1 46:14 47:11 50:1 51:16 52:13 53:14 54:16 55:6 59:6 60:16 61:15 62:7 #
0.50000000000007061018436615995597 3:5 4:13 5:2 10:1 11:15 12:16 13:15 14:3 18:4 19:14 20:1 21:5 22:14 23:2 26:4 27:9 30:6 31:8 34:5 35:8 38:4 39:8 42:3 43:10 46:9 47:9 51:15 52:10 53:10 54:16 55:6 59:7 60:15 61:14 62:5 #
-0.056081090089372787055310709547484 2:1 3:10 4:10 5:6 10:4 11:15 12:11 13:15 14:7 18:2 19:14 20:1 21:11 22:14 27:11 28:16 29:16 30:16 38:16 39:3 46:11 47:8 50:2 51:8 52:8 53:8 54:12 55:12 58:2 59:12 60:12 61:16 62:13 63:5 #
-0.054896189432317443746001117688138 3:8 4:16 5:15 6:4 11:8 12:16 13:16 14:10 19:8 20:16 21:16 22:7 27:8 28:16 29:16 30:4 34:2 35:16 36:16 37:16 38:4 43:12 44:16 45:16 46:4 51:7 52:16 53:16 54:11 59:7 60:16 61:16 62:13 63:4 #
-0.054896397233488158917680266313255 3:7 4:11 5:15 6:6 10:3 11:16 12:15 13:12 14:4 18:5 19:16 20:13 21:14 22:8 26:6 27:15 28:11 29:8 30:15 31:6 38:8 39:8 46:4 47:8 51:13 52:9 53:8 54:13 55:5 59:6 60:11 61:14 62:9 #
0.50000000000007061018436615995597 3:1 4:15 5:10 11:9 12:10 13:10 14:7 18:2 19:15 20:1 21:2 22:14 26:2 27:16 28:1 30:11 31:4 34:2 35:15 38:9 39:7 43:13 44:4 45:1 46:15 47:7 51:8 52:12 53:11 54:16 55:3 59:1 60:12 61:16 62:7 #
0.50000000000007061018436615995597 3:5 4:13 5:8 6:3 11:14 12:16 13:16 14:12 18:3 19:15 20:1 21:3 22:12 23:5 26:4 27:10 30:7 31:8 34:4 35:8 38:9 39:8 42:4 43:11 44:1 45:1 46:15 47:6 51:15 52:12 53:11 54:13 59:3 60:13 61:13 62:3 #
0.50000000000007061018436615995597 4:11 5:13 6:1 10:1 11:2 12:15 13:13 14:8 18:5 19:13 21:3 22:13 26:9 27:11 30:15 31:1 34:6 35:11 38:14 39:5 42:2 43:15 44:2 45:3 46:16 47:4 51:8 52:14 53:14 54:16 55:2 60:7 61:14 62:6 #
-0.054896397233488158917680266313255 2:1 3:12 4:16 5:16 6:8 10:4 11:10 12:8 13:8 14:4 18:9 19:11 20:6 21:7 26:4 27:16 28:16 29:16 30:11 37:1 38:16 39:4 46:16 47:6 51:5 52:8 53:11 54:14 55:2 59:15 60:13 61:10 62:1 #
-0.054890863544216683678200752183329 3:7 4:13 5:16 6:8 11:16 12:14 13:10 14:16 15:2 19:9 20:14 21:4 22:16 23:1 27:1 28:16 29:16 30:14 35:8 36:16 37:16 38:3 42:2 43:16 44:13 45:14 46:15 47:1 50:4 51:16 52:7 53:5 54:16 55:6 59:10 60:15 61:16 62:15 63:2 #
-0.056132064061351072403738271532347 3:6 4:16 5:8 11:14 12:10 13:11 14:7 19:16 20:1 21:3 22:16 23:1 27:11 28:10 29:13 30:16 31:5 35:2 36:8 37:8 38:9 39:10 46:2 47:14 53:1 54:5 55:15 56:1 59:6 60:15 61:16 62:14 63:5 #
0.50000000000007061018436615995597 3:2 4:13 5:15 6:6 11:8 12:14 13:10 14:16 15:3 19:15 20:6 22:10 23:8 26:6 27:15 28:1 30:11 31:7 34:8 35:13 38:10 39:8 42:7 43:14 44:1 46:16 47:2 50:1 51:15 52:14 53:11 54:14 59:3 60:15 61:12 62:1 #
0.50000000000007061018436615995597 3:2 4:15 5:15 6:7 11:10 12:12 13:6 14:16 15:5 18:2 19:16 20:3 22:8 23:10 26:7 27:16 30:8 31:8 34:3 35:16 36:4 38:12 39:5 43:16 44:7 45:1 46:15 47:3 51:12 52:13 53:13 54:10 59:2 60:12 61:13 62:1 #
0.50000000000007061018436615995597 3:2 4:12 5:12 6:2 10:3 11:14 12:13 13:11 14:11 18:5 19:16 20:2 21:2 22:14 23:4 26:7 27:14 28:2 30:12 31:7 34:4 35:12 38:12 39:5 42:2 43:14 44:1 45:2 46:15 47:2 51:11 52:10 53:13 54:8 59:3 60:13 61:12 62:2 #
-0.056184205924123653552726409543538 2:1 3:9 4:15 5:2 10:10 11:14 12:14 13:7 18:5 19:3 20:10 21:8 28:14 29:4 35:2 36:16 43:10 44:12 45:1 50:2 51:16 52:16 53:16 54:14 55:8 59:7 60:9 61:14 62:16 63:7 #
-0.054870516984769857060655340319499 4:8 5:11 11:5 12:14 13:7 19:12 20:10 26:4 27:16 28:3 34:5 35:15 36:12 37:10 38:3 42:4 43:16 44:12 45:8 46:15 47:5 51:10 52:15 53:6 54:10 55:15 60:7 61:12 62:12 63:8 #
-0.054870589046195683557982647471363 3:2 4:14 5:11 6:4 10:1 11:14 12:16 13:13 14:16 15:2 18:4 19:16 20:10 21:3 22:15 23:3 27:9 28:16 29:14 30:14 31:2 34:1 35:12 36:16 37:16 38:4 42:5 43:16 44:9 45:11 46:13 50:1 51:14 52:13 53:10 54:16 55:7 59:4 60:9 61:13 62:11 63:1 #
0.50000000000007061018436615995597 3:1 4:14 5:7 10:1 11:13 12:16 13:14 14:11 18:4 19:16 20:12 22:14 23:3 26:6 27:14 28:14 30:8 31:8 34:4 35:16 36:14 38:8 39:8 42:1 43:15 44:3 46:10 47:8 51:7 52:15 53:10 54:16 55:1 59:1 60:9 61:16 62:8 #
0.50000000000007061018436615995597 3:5 4:15 5:15 6:9 11:15 12:8 13:5 14:13 15:5 18:6 19:16 20:9 22:6 23:10 26:8 27:16 28:4 30:6 31:12 35:16 36:4 38:4 39:12 43:16 44:3 46:9 47:9 51:15 52:8 53:7 54:15 55:1 59:6 60:16 61:16 62:6 #
0.50000000000007061018436615995597 3:6 4:15 5:16 6:13 10:5 11:16 12:8 13:6 14:15 15:3 18:10 19:16 20:4 22:9 23:8 26:5 27:16 28:4 30:7 31:11 34:4 35:16 36:3 38:6 39:12 42:3 43:16 44:3 46:9 47:9 51:15 52:11 53:8 54:16 55:3 59:11 60:16 61:14 62:5 #
-0.054878689880589748284478446294088 3:9 4:14 5:10 6:1 10:3 11:13 12:2 13:8 14:9 18:4 19:12 21:4 22:16 23:1 26:1 27:14 28:8 29:11 30:16 31:6 35:1 36:6 37:3 38:10 39:7 46:8 47:8 50:3 51:8 52:3 53:1 54:10 55:8 58:1 59:9 60:11 61:16 62:12 63:1 #
-0.056175162869526951148202442709589 3:11 4:12 5:4 10:4 11:16 12:8 13:14 14:7 18:5 19:16 20:7 21:6 22:15 23:1 27:12 28:16 29:16 30:16 31:2 36:1 38:7 39:9 46:4 47:12 51:4 52:8 53:10 54:14 55:12 59:10 60:12 61:9 62:7 #
-0.056132064061351072403738271532347 3:10 4:16 5:16 6:16 7:5 11:2 12:4 13:10 14:16 15:5 21:9 22:12 27:4 28:14 29:16 30:13 31:6 35:6 36:15 37:16 38:15 39:7 44:14 45:10 51:6 52:16 53:7 59:11 60:15 #
0.50000000000007061018436615995597 3:7 4:13 5:16 6:13 7:2 10:2 11:16 12:15 13:5 14:13 15:10 18:6 19:16 20:3 22:7 23:11 26:11 27:14 30:5 31:12 34:8 35:16 38:4 39:12 42:8 43:15 46:7 47:11 50:7 51:16 52:8 53:8 54:15 55:2 59:12 60:16 61:16 62:5 #
0.50000000000007061018436615995597 2:1 3:10 4:16 5:15 6:4 10:9 11:16 12:7 13:7 14:15 15:2 18:12 19:13 22:12 23:8 26:12 27:12 30:6 31:11 34:10 35:12 38:4 39:12 42:7 43:14 46:6 47:11 50:2 51:16 52:5 53:3 54:14 55:4 59:10 60:16 61:16 62:12 #
0.50000000000007061018436615995597 3:6 4:13 5:6 11:14 12:11 13:16 14:10 18:2 19:14 21:9 22:15 26:5 27:9 30:12 31:3 34:8 35:8 38:8 39:5 42:7 43:11 46:8 47:8 50:1 51:15 52:7 53:5 54:14 55:4 59:6 60:16 61:16 62:9 #
-0.054892524679576615298515207541641 2:1 3:12 4:12 5:11 6:5 10:5 11:15 12:8 13:12 14:15 15:2 18:7 19:12 21:9 22:16 23:3 26:3 27:15 28:9 29:10 30:16 31:7 35:5 36:11 37:16 38:16 39:8 45:1 46:14 47:10 51:7 52:8 53:11 54:16 55:2 59:12 60:16 61:13 62:6 #
-0.054892532060558663076221819210332 2:1 3:10 4:16 5:13 6:4 10:9 11:13 12:4 13:11 14:15 21:4 22:16 23:1 28:3 29:13 30:11 36:7 37:16 38:14 39:2 45:4 46:15 47:8 51:5 52:4 53:5 54:14 55:9 59:15 60:16 61:14 62:9 #
-0.055869329268874223792806787969312 3:8 4:16 5:8 11:10 12:16 13:16 19:6 20:10 21:16 22:4 29:16 30:2 36:7 37:13 43:1 44:14 45:8 51:13 52:16 53:16 54:16 55:14 59:8 60:12 61:11 62:8 63:14 #
0.50000000000007061018436615995597 3:5 4:14 5:9 6:3 11:14 12:11 13:16 14:15 15:2 18:5 19:11 21:11 22:15 23:4 26:7 27:8 30:9 31:7 34:4 35:9 38:8 39:8 42:4 43:13 46:9 47:5 50:2 51:16 52:5 53:7 54:15 59:7 60:15 61:15 62:6 #
0.50000000000007061018436615995597 3:7 4:16 5:8 11:13 12:16 13:16 14:7 18:4 19:16 20:7 21:11 22:15 26:6 27:12 30:14 31:6 34:8 35:12 38:14 39:8 42:7 43:13 45:6 46:15 47:7 50:4 51:16 52:16 53:16 54:16 55:1 59:7 60:14 61:7 #
0.50000000000007061018436615995597 3:3 4:14 5:14 6:2 10:4 11:16 12:16 13:16 14:7 18:4 19:16 20:8 21:3 22:15 23:1 26:3 27:16 28:6 30:14 31:5 34:1 35:16 36:5 38:13 39:7 43:15 44:4 45:1 46:16 47:9 51:11 52:13 53:13 54:16 55:4 59:2 60:15 61:15 62:8 #
-0.055869329268874223792806787969312 3:3 4:12 5:6 11:16 12:16 13:16 14:8 19:14 20:14 21:7 22:15 27:5 28:16 29:15 30:8 36:13 37:16 42:2 43:14 44:10 45:13 46:7 50:3 51:15 52:7 53:9 54:15 59:5 60:12 61:11 62:5 #
-0.054870589046195683557982647471363 2:1 3:11 4:13 5:5 10:7 11:12 12:7 13:15 14:4 18:8 19:4 21:8 22:12 26:2 27:6 30:13 36:1 37:8 38:3 44:11 45:8 50:1 51:12 52:16 53:13 54:8 55:2 58:2 59:12 60:12 61:12 62:12 63:12 #
-0.055431573212321061383534015476471 2:3 3:13 4:16 5:13 6:1 10:11 11:11 12:8 13:14 14:8 18:5 19:1 21:5 22:14 29:5 30:11 36:1 37:14 38:3 44:9 45:11 51:11 52:16 53:15 54:12 55:7 58:1 59:8 60:8 61:9 62:13 63:7 #
0.50000000000007061018436615995597 3:4 4:13 5:13 11:12 12:14 13:12 14:7 19:12 20:12 21:5 22:14 27:12 28:10 30:12 31:3 34:4 35:16 36:5 38:8 39:8 42:4 43:16 44:2 46:9 47:8 50:3 51:14 52:9 53:4 54:15 55:5 59:4 60:13 61:14 62:10 #
0.50000000000007061018436615995597 3:3 4:16 5:14 6:4 11:10 12:16 13:16 14:15 18:2 19:16 20:12 21:5 22:14 23:2 26:5 27:16 28:4 30:10 31:6 34:6 35:16 36:1 38:7 39:9 42:3 43:16 44:3 46:9 47:12 51:13 52:14 53:13 54:16 55:9 59:3 60:13 61:16 62:12 63:2 #
0.50000000000007061018436615995597 3:6 4:13 5:13 6:3 10:2 11:16 12:16 13:16 14:11 18:3 19:16 20:15 21:6 22:16 23:4 26:3 27:16 28:9 30:16 31:8 34:8 35:16 36:3 37:1 38:16 39:6 42:7 43:16 44:2 45:8 46:16 47:3 50:1 51:14 52:16 53:16 54:13 59:4 60:13 61:12 62:2 #
-0.055431573212321061383534015476471 2:3 3:14 4:16 5:12 6:2 10:11 11:12 12:4 13:12 14:8 18:1 19:1 21:12 22:7 28:9 29:16 30:6 36:4 37:11 38:16 39:2 46:8 47:11 50:1 51:8 52:6 53:7 54:14 55:6 58:2 59:11 60:16 61:12 62:8 #
-0.054891018351483800152834646723932 3:6 4:15 5:8 11:13 12:15 13:16 14:4 19:15 20:6 21:15 22:13 27:15 28:12 29:16 30:16 31:1 35:3 36:11 37:7 38:12 39:6 46:6 47:11 51:1 52:4 53:2 54:7 55:14 59:7 60:14 61:16 62:15 63:9 #
-0.054896158518797810721423502400285 2:2 3:16 4:14 5:2 10:6 11:14 12:12 13:14 18:7 19:12 20:8 21:15 26:2 27:5 28:8 29:12 36:15 37:1 43:5 44:13 50:1 51:13 52:14 53:9 54:8 55:2 58:2 59:14 60:15 61:12 62:16 63:10 #
0.50000000000007061018436615995597 3:3 4:13 5:14 6:3 11:15 12:16 13:16 14:12 18:4 19:16 20:8 21:6 22:16 26:5 27:16 28:7 29:1 30:15 31:3 34:8 35:16 36:6 38:16 39:5 42:4 43:16 44:7 46:15 47:6 50:3 51:15 52:14 53:12 54:16 55:4 59:3 60:15 61:15 62:8 #
0.50000000000007061018436615995597 4:11 5:14 6:2 11:5 12:16 13:16 14:11 18:2 19:16 20:10 21:6 22:14 26:2 27:16 28:10 29:2 30:14 31:2 34:3 35:16 36:10 38:9 39:8 42:3 43:16 44:4 46:11 47:11 51:12 52:13 53:9 54:16 55:8 59:1 60:11 61:15 62:9 63:2 #
0.50000000000007061018436615995597 4:11 5:12 6:2 11:6 12:16 13:16 14:10 19:12 20:14 21:6 22:16 23:1 26:2 27:16 28:12 30:14 31:4 34:3 35:16 36:9 38:14 39:6 43:16 44:8 45:1 46:16 47:5 51:9 52:14 53:12 54:16 55:2 59:1 60:11 61:16 62:6 #
-0.054896189432317443746001117688138 2:1 3:5 4:11 5:13 6:5 10:10 11:16 12:16 13:15 14:3 18:10 19:13 26:10 27:14 28:8 29:8 30:3 34:2 35:12 36:13 37:13 38:16 39:5 46:11 47:14 51:2 52:11 53:8 54:14 55:15 59:2 60:11 61:16 62:14 63:6 #
-0.056175162869526951148202442709589 2:1 3:10 4:12 5:12 6:2 10:7 11:15 12:8 13:12 14:8 19:2 21:13 22:7 28:7 29:16 30:4 36:5 37:13 38:13 39:1 45:1 46:11 47:9 51:8 52:4 53:6 54:14 55:8 58:2 59:12 60:16 61:14 62:9 63:1 #
-0.056084792235218450251466038025683 3:14 4:14 5:13 6:15 7:5 11:16 12:14 13:12 14:6 18:4 19:16 20:11 21:8 22:1 26:3 27:16 28:16 29:16 30:9 37:5 38:16 39:2 45:3 46:16 47:4 51:6 52:9 53:15 54:14 59:12 60:16 61:10 62:2 #
0.50000000000007061018436615995597 4:8 5:11 11:7 12:16 13:11 14:9 19:14 20:15 21:4 22:10 23:2 26:1 27:16 28:5 30:6 31:6 34:3 35:12 37:3 38:8 39:9 42:3 43:13 46:13 47:8 51:11 52:5 53:6 54:15 55:3 59:1 60:11 61:13 62:9 #
0.50000000000007061018436615995597 3:3 4:14 5:15 6:5 11:11 12:14 13:5 14:11 15:2 19:14 20:7 22:7 23:4 26:1 27:16 28:2 30:3 31:7 34:4 35:13 38:5 39:8 42:2 43:12 46:11 47:7 51:14 52:8 53:13 54:14 59:3 60:12 61:10 62:3 #
0.50000000000007061018436615995597 3:3 4:14 5:4 11:12 12:15 13:12 14:4 18:3 19:15 20:5 21:2 22:12 26:5 27:9 30:8 31:5 34:8 35:8 38:4 39:8 42:4 43:12 46:2 47:12 51:14 52:5 54:9 55:8 59:3 60:15 61:16 62:13 63:1 #
-0.056023658808988741064638361422112 4:1 5:16 6:14 7:1 12:10 13:16 14:14 18:3 19:9 20:16 21:16 22:3 26:5 27:16 28:16 29:16 30:4 36:14 37:16 38:4 44:9 45:16 46:8 52:5 53:16 54:12 60:2 61:15 62:14 63:2 #
-0.054870197144949228729160495277029 2:1 3:9 4:12 5:12 6:2 10:7 11:12 12:4 13:11 14:10 19:1 21:11 22:8 27:2 28:15 29:16 30:2 35:2 36:8 37:12 38:12 45:1 46:16 47:6 50:1 51:16 52:3 53:6 54:16 55:6 58:1 59:11 60:15 61:12 62:4 #
