SVM-light Version V6.02
0 # kernel type
3 # kernel parameter -d 
1 # kernel parameter -g 
1 # kernel parameter -s 
1 # kernel parameter -r 
empty# kernel parameter -u 
64 # highest feature index 
2823 # number of training documents 
125 # number of support vectors plus 1 
2.2123524 # threshold b, each following line is a SV (starting with alpha*y)
-0.00025891163206971532168357286174398 3:4 4:15 5:15 6:5 10:1 11:16 12:12 13:11 14:15 15:3 18:7 19:16 20:2 21:4 22:16 23:4 26:5 27:16 28:16 29:16 30:16 31:5 36:1 38:16 39:8 46:14 47:8 51:10 52:13 53:8 54:16 55:5 59:7 60:13 61:14 62:9 63:1 #
-0.00025891163206971532168357286174398 3:14 4:9 11:8 12:16 19:8 20:12 22:2 23:1 27:12 28:8 30:13 31:9 34:1 35:16 36:4 38:16 39:8 42:5 43:16 46:15 47:6 50:8 51:16 52:16 53:16 54:16 55:12 58:1 59:8 60:8 61:8 62:13 63:7 #
-0.00025891163206971532168357286174398 3:1 4:11 5:11 6:1 11:9 12:16 13:15 14:3 18:1 19:15 20:6 26:5 27:14 34:7 35:11 37:1 38:2 42:4 43:14 44:5 45:15 46:16 47:7 50:1 51:12 52:16 53:16 54:12 55:15 59:2 60:11 61:16 62:14 63:9 #
0.00025891163206971532168357286174398 3:4 4:16 5:12 6:1 11:10 12:16 13:14 14:9 19:15 20:14 21:2 22:16 23:2 26:1 27:16 28:15 29:1 30:12 31:7 34:1 35:16 36:8 37:3 38:10 39:10 43:15 44:4 46:12 47:10 51:11 52:8 53:4 54:16 55:6 59:2 60:13 61:16 62:14 63:1 #
-0.00025891163206971532168357286174398 4:10 5:16 6:10 11:9 12:16 13:12 14:8 18:1 19:15 20:13 21:1 26:2 27:16 28:5 34:2 35:16 36:8 42:2 43:16 44:16 45:9 50:1 51:12 52:16 53:16 54:3 60:12 61:16 62:7 #
-0.00025891163206971532168357286174398 3:7 4:13 10:2 11:15 12:11 18:9 19:16 20:2 26:7 27:16 34:9 35:16 36:2 37:4 38:4 42:5 43:16 44:16 45:16 46:16 47:12 50:3 51:16 52:16 53:9 54:13 55:16 59:5 60:13 61:16 62:16 63:7 #
9.5868094074100761170509343855883e-05 3:4 4:13 5:14 6:3 11:14 12:7 13:4 14:14 18:3 19:10 22:8 23:3 26:8 27:4 30:4 31:8 34:5 35:12 38:2 39:8 43:15 44:1 46:4 47:7 51:10 52:8 53:1 54:12 55:6 59:2 60:12 61:16 62:15 #
0.00025891163206971532168357286174398 3:4 4:14 5:15 6:2 10:4 11:16 12:7 13:8 14:9 18:6 19:14 22:12 23:2 26:3 27:16 30:7 31:7 35:14 38:4 39:8 43:11 44:4 46:5 47:9 51:6 52:15 53:8 54:14 55:7 59:1 60:13 61:15 62:10 #
0.00025891163206971532168357286174398 3:2 4:8 5:15 6:7 11:11 12:15 13:6 14:14 15:3 19:16 20:6 22:4 23:9 26:8 27:4 30:4 31:8 34:6 35:7 38:5 39:8 42:3 43:13 46:13 47:1 51:10 52:11 53:8 54:11 59:1 60:13 61:11 62:2 #
0.00020517087123843801791528429490086 3:4 4:15 5:10 10:3 11:16 12:9 13:10 14:7 18:7 19:15 20:3 21:1 22:11 23:2 26:8 27:6 30:6 31:7 34:8 35:5 38:4 39:8 42:4 43:10 46:7 47:8 51:13 52:6 53:5 54:15 55:3 59:4 60:15 61:14 62:6 #
-0.00025891163206971532168357286174398 4:12 5:8 11:6 12:15 13:1 18:2 19:15 20:6 23:6 26:8 27:14 28:1 30:7 31:15 32:1 34:13 35:10 37:6 38:16 39:6 42:15 43:14 44:14 45:16 46:12 50:7 51:12 52:12 53:16 54:2 60:14 61:6 #
-0.00025891163206971532168357286174398 4:5 5:15 6:5 11:3 12:15 13:11 14:1 18:1 19:13 20:14 21:1 22:2 23:6 26:6 27:16 28:6 30:12 31:15 34:13 35:15 37:4 38:16 39:6 42:13 43:16 44:16 45:16 46:16 47:1 51:8 52:11 53:16 54:8 60:7 61:16 62:3 #
-0.00025891163206971532168357286174398 4:6 5:15 6:1 11:4 12:16 13:3 19:12 20:8 26:7 27:15 28:1 30:5 31:9 34:9 35:16 37:6 38:15 39:10 42:10 43:16 44:16 45:16 46:14 50:2 51:5 52:7 53:16 54:7 60:6 61:15 62:1 #
-0.00025891163206971532168357286174398 3:2 4:15 5:12 6:1 11:6 12:16 13:15 14:1 19:14 20:16 21:8 26:2 27:16 28:16 29:2 34:3 35:16 36:15 42:2 43:16 44:13 51:9 52:16 53:2 59:2 60:13 61:12 #
-0.00025891163206971532168357286174398 3:3 4:9 5:8 11:15 12:9 13:1 18:4 19:16 20:8 21:2 26:5 27:16 28:12 29:12 30:11 31:1 34:4 35:12 38:5 39:10 42:1 43:14 44:3 46:1 47:14 48:1 51:10 52:6 53:5 54:14 55:13 59:4 60:13 61:14 62:8 #
0.00025891163206971532168357286174398 4:12 5:13 11:4 12:16 13:16 14:9 19:2 20:16 21:6 22:14 26:4 27:3 28:13 29:7 30:9 31:5 34:8 35:12 36:3 37:16 38:12 39:8 43:14 44:5 45:1 46:12 47:8 51:10 52:14 53:13 54:16 55:2 60:13 61:16 62:6 #
0.00025891163206971532168357286174398 4:1 5:12 6:4 11:1 12:14 13:16 14:11 19:9 20:13 21:5 22:15 23:4 26:2 27:16 28:2 30:16 31:3 34:1 35:16 36:7 37:7 38:16 39:4 43:13 44:16 45:16 46:16 47:1 51:1 52:13 53:16 54:13 60:3 61:12 62:5 #
0.00025891163206971532168357286174398 4:13 5:9 6:1 11:9 12:16 13:16 14:11 19:8 20:14 21:5 22:16 23:3 26:1 27:7 28:10 30:12 31:6 34:6 35:14 36:14 37:2 38:10 39:9 42:4 43:16 44:16 45:12 46:16 47:10 51:11 52:16 53:16 54:15 55:4 59:2 60:13 61:16 62:7 #
0.00025891163206971532168357286174398 3:1 4:14 5:13 6:1 11:12 12:16 13:16 14:12 18:1 19:11 20:14 21:11 22:16 23:5 26:3 27:8 28:16 29:2 30:8 31:10 35:5 36:14 38:8 39:7 43:7 44:12 46:15 47:3 51:7 52:14 53:11 54:11 59:2 60:16 61:13 62:2 #
0.00025891163206971532168357286174398 3:9 10:2 11:16 12:6 13:8 14:5 18:4 19:16 20:16 21:16 22:15 23:3 26:6 27:16 28:10 29:12 30:15 31:8 34:4 35:11 38:7 39:8 42:4 43:16 44:9 45:10 46:15 47:8 50:2 51:15 52:16 53:16 54:16 55:3 59:8 60:16 61:15 62:7 #
-0.00025891163206971532168357286174398 3:6 4:14 5:13 6:2 10:10 11:16 12:9 13:16 14:12 18:5 19:16 20:16 21:16 22:16 23:3 27:5 28:9 29:5 30:8 31:8 38:8 39:8 45:1 46:12 47:8 51:5 52:16 53:16 54:15 55:3 59:4 60:15 61:9 62:2 #
-0.00025891163206971532168357286174398 3:2 4:15 5:11 6:1 11:6 12:16 13:16 14:14 19:3 20:15 21:16 22:16 23:5 28:5 29:7 30:11 31:9 38:13 39:13 45:1 46:16 47:8 52:2 53:13 54:16 55:5 59:5 60:15 61:16 62:6 #
-0.00025891163206971532168357286174398 3:4 4:16 5:16 6:4 11:10 12:16 13:16 14:13 19:3 20:13 21:11 22:16 23:2 30:13 31:8 38:11 39:9 46:13 47:9 53:8 54:16 55:5 59:3 60:16 61:16 62:11 #
-0.00025891163206971532168357286174398 3:3 4:14 5:8 6:4 11:15 12:14 13:14 14:16 18:4 19:16 20:13 21:16 22:16 26:3 27:11 28:11 29:10 30:16 31:3 37:3 38:15 39:5 43:1 44:5 45:1 46:13 47:6 51:6 52:15 53:16 54:11 59:2 60:14 61:9 62:1 #
-0.00025891163206971532168357286174398 3:9 4:16 5:11 10:5 11:16 12:16 13:16 14:7 18:3 19:16 20:16 21:16 22:15 27:2 28:6 29:3 30:11 31:5 38:11 39:7 46:13 47:11 51:4 52:5 53:11 54:16 55:5 59:5 60:12 61:12 62:6 #
0.00025891163206971532168357286174398 3:6 4:10 5:15 6:11 7:1 10:1 11:15 12:9 13:6 14:12 15:4 18:5 19:16 22:5 23:6 26:4 27:14 30:6 31:8 34:6 35:9 38:12 39:2 42:7 43:9 45:6 46:11 50:3 51:15 52:8 53:15 54:4 59:10 60:14 61:5 #
0.00025891163206971532168357286174398 3:4 4:14 5:5 11:13 12:7 13:11 14:4 15:2 18:2 19:13 21:6 22:14 23:4 26:3 27:9 29:3 30:14 31:7 34:5 35:8 37:4 38:11 39:8 42:4 43:8 46:1 47:12 50:1 51:14 52:2 54:10 55:7 59:3 60:15 61:16 62:13 63:2 #
0.00025891163206971532168357286174398 3:3 4:14 5:16 6:6 10:1 11:13 12:5 13:4 14:13 18:5 19:12 22:9 23:4 26:5 27:9 30:5 31:8 34:8 35:7 38:3 39:8 42:6 43:9 46:2 47:9 51:15 52:3 53:1 54:9 55:8 59:5 60:15 61:14 62:9 #
0.00025891163206971532168357286174398 3:6 4:15 5:8 10:4 11:16 12:13 13:16 14:2 18:6 19:15 21:13 22:13 26:8 27:10 29:7 30:16 31:5 34:8 35:8 37:6 38:16 39:3 42:7 43:11 45:7 46:15 51:14 52:10 53:13 54:11 59:6 60:14 61:12 62:2 #
0.00025891163206971532168357286174398 3:7 4:10 5:13 6:10 11:14 12:11 13:4 14:11 15:3 18:2 19:15 20:1 22:5 23:8 26:7 27:9 30:3 31:8 34:5 35:12 38:4 39:8 42:5 43:11 46:8 47:4 51:12 52:2 53:2 54:12 59:6 60:15 61:14 62:2 #
-0.00025891163206971532168357286174398 2:2 3:10 4:16 5:16 6:16 7:7 10:14 11:16 12:15 13:11 14:13 15:5 18:12 19:15 20:1 26:4 27:16 28:7 35:16 36:8 43:15 44:9 51:12 52:14 59:15 60:7 #
-0.00025891163206971532168357286174398 3:6 4:16 5:12 6:3 10:3 11:15 12:7 13:6 14:14 15:1 18:7 19:13 21:1 22:14 23:1 26:4 27:13 28:8 29:13 30:13 34:2 35:15 36:15 37:7 38:13 39:5 43:12 44:5 46:9 47:8 51:12 52:5 53:6 54:14 55:2 59:5 60:16 61:12 62:3 #
-0.00011031040832360341011342264039286 4:6 5:13 11:1 12:15 13:5 14:1 15:2 19:12 20:8 22:13 23:7 26:6 27:14 29:1 30:15 31:4 34:13 35:13 36:8 37:11 38:16 39:9 42:8 43:16 44:16 45:16 46:8 52:7 53:13 60:8 61:8 #
-3.8575458605911630951060264926866e-05 3:4 4:15 11:13 12:5 19:16 26:4 27:13 34:7 35:15 36:8 37:9 38:3 42:6 43:16 44:12 45:13 46:16 47:4 51:15 52:8 53:2 54:14 55:7 59:4 60:15 61:13 62:6 #
-0.00021159029128098782654432419292334 4:7 5:14 6:7 11:3 12:13 13:4 14:12 15:1 19:13 20:3 22:12 23:4 26:1 27:13 29:6 30:16 31:6 35:15 36:15 37:9 38:12 39:3 43:1 44:1 46:9 47:2 51:2 52:9 53:2 54:12 59:1 60:9 61:15 62:7 #
0.00025891163206971532168357286174398 4:6 5:10 6:14 11:10 12:16 13:16 14:16 15:6 18:1 19:16 20:10 21:4 22:15 23:11 26:1 27:12 28:5 30:9 31:9 35:8 36:9 38:8 39:8 43:9 44:16 45:16 46:16 47:4 51:2 52:16 53:16 54:14 55:2 60:6 61:10 62:3 #
0.00025891163206971532168357286174398 3:4 4:15 5:5 11:12 12:16 13:14 14:1 18:1 19:15 20:12 21:13 22:14 26:4 27:13 30:9 31:4 34:3 35:10 38:3 39:9 42:4 43:12 46:2 47:12 51:13 52:10 53:10 54:16 55:14 59:4 60:13 61:16 62:14 63:3 #
0.00025891163206971532168357286174398 3:9 4:16 5:4 11:14 12:14 13:13 14:7 18:4 19:15 20:12 21:16 22:16 23:5 26:4 27:12 28:7 29:8 30:14 31:8 34:7 35:12 38:12 39:8 42:5 43:13 46:13 47:8 50:2 51:16 52:12 53:15 54:16 55:5 59:9 60:14 61:12 62:8 #
0.00010386010915542498575167562613331 4:8 5:15 6:4 12:13 13:16 14:13 18:1 19:1 20:10 21:3 22:13 23:6 26:5 27:8 30:6 31:8 34:7 35:11 38:4 39:8 42:3 43:15 44:7 46:4 47:9 51:7 52:16 53:13 54:11 55:12 60:6 61:15 62:16 63:4 #
0.00025891163206971532168357286174398 3:6 4:15 5:5 11:15 12:16 13:13 14:3 18:1 19:16 20:11 21:15 22:15 23:3 26:8 27:9 28:3 29:5 30:16 31:4 34:8 35:9 38:10 39:8 42:8 43:10 46:12 47:5 50:3 51:15 52:12 53:13 54:16 55:1 59:8 60:16 61:13 62:6 #
-0.00025891163206971532168357286174398 3:5 4:11 5:12 11:16 12:16 13:16 14:13 15:7 19:12 20:16 21:16 22:15 23:4 27:4 28:15 29:14 30:8 35:12 36:4 37:1 38:4 42:1 43:14 45:3 46:7 50:1 51:16 52:12 53:16 54:4 59:3 60:9 61:5 #
-3.8389027129542754174229557406761e-05 5:14 6:4 12:5 13:15 14:1 20:14 21:8 23:2 27:8 28:14 29:2 30:7 31:13 34:3 35:15 36:5 38:13 39:7 42:12 43:15 44:8 45:10 46:16 47:2 49:1 50:9 51:12 52:12 53:15 54:15 55:1 61:15 62:4 #
-7.7321257857672050575748023959477e-05 4:7 5:15 11:7 12:16 13:10 18:1 19:16 20:9 22:12 23:8 26:9 27:14 28:1 29:5 30:16 31:7 34:8 35:15 36:8 37:12 38:16 39:9 42:3 43:15 44:16 45:16 46:11 47:1 52:7 53:16 54:1 60:7 61:13 #
-0.00025891163206971532168357286174398 2:1 3:6 4:8 5:13 6:8 10:5 11:16 12:10 13:5 14:15 18:8 19:15 20:6 21:13 22:13 26:5 27:16 28:16 29:14 30:15 31:1 35:14 36:9 38:6 39:6 43:16 44:1 46:6 47:8 51:16 52:5 53:9 54:15 55:2 59:11 60:16 61:10 62:2 #
-0.00025891163206971532168357286174398 3:2 4:15 5:12 11:3 12:16 13:14 14:10 20:5 21:13 22:16 23:2 30:12 31:8 38:7 39:11 46:7 47:13 51:2 53:2 54:11 55:11 59:3 60:13 61:15 62:16 63:6 #
0.00025891163206971532168357286174398 3:2 4:13 5:9 6:1 11:13 12:14 13:10 14:10 19:14 20:3 22:8 27:15 28:9 30:5 31:3 35:16 36:8 38:7 39:5 43:16 44:7 45:2 46:16 47:2 51:11 52:9 53:13 54:14 55:1 59:2 60:15 61:13 62:1 #
0.00025891163206971532168357286174398 3:3 4:12 5:10 11:10 12:11 13:5 14:10 18:1 19:16 20:7 22:10 23:2 26:2 27:16 28:2 30:6 31:6 34:3 35:15 36:10 38:7 39:7 43:12 44:7 46:10 47:5 51:13 52:2 53:6 54:15 55:1 59:3 60:15 61:14 62:7 #
0.00025891163206971532168357286174398 3:2 4:13 5:12 6:4 10:1 11:15 12:12 13:3 14:13 15:2 18:8 19:13 20:8 22:6 23:4 26:8 27:4 28:3 30:3 31:8 34:5 35:5 38:6 39:6 42:1 43:14 44:1 46:8 47:3 51:8 52:8 53:5 54:13 55:1 60:11 61:15 62:6 #
0.00025891163206971532168357286174398 3:2 4:12 5:5 10:1 11:13 12:16 13:13 14:2 18:3 19:16 20:10 21:14 22:11 26:7 27:16 28:8 29:5 30:16 31:4 34:7 35:16 36:8 37:1 38:14 39:5 42:2 43:15 44:9 45:1 46:15 47:5 51:11 52:14 53:11 54:15 55:2 59:3 60:16 61:15 62:3 #
0.00025891163206971532168357286174398 3:3 4:12 5:14 6:3 11:11 12:11 13:8 14:13 18:5 19:15 20:1 22:7 23:2 26:3 27:15 28:3 30:3 31:6 34:3 35:11 36:2 38:4 39:7 42:1 43:9 46:5 47:7 51:11 52:4 53:4 54:14 55:2 59:2 60:13 61:15 62:9 #
-0.00025891163206971532168357286174398 4:9 5:15 11:5 12:16 13:12 19:13 20:15 21:2 26:5 27:16 28:8 34:11 35:16 36:2 37:2 38:8 39:3 42:13 43:16 44:14 45:15 46:16 47:6 50:3 51:15 52:16 53:16 54:12 59:2 60:12 61:16 62:5 #
-0.00025891163206971532168357286174398 4:1 5:14 6:10 12:9 13:15 14:2 19:1 20:14 21:5 23:2 27:11 28:9 30:8 31:14 34:7 35:14 38:14 39:10 41:4 42:16 43:15 44:11 45:9 46:16 47:4 49:1 50:12 51:14 52:16 53:16 54:12 61:14 62:6 #
0.00025891163206971532168357286174398 3:6 4:15 5:10 11:16 12:9 13:16 14:7 18:4 19:10 21:6 22:15 26:8 27:8 30:11 31:3 34:8 35:8 38:8 39:5 42:7 43:10 46:5 47:6 50:1 51:15 52:4 53:1 54:12 55:4 59:8 60:16 61:16 62:11 #
-0.00025891163206971532168357286174398 3:6 4:15 5:12 6:1 11:16 12:9 13:15 14:14 15:2 18:6 19:14 21:2 22:16 23:6 26:5 27:15 28:5 29:6 30:16 31:4 35:6 36:12 37:12 38:15 39:8 46:13 47:7 50:2 51:14 52:4 53:7 54:16 55:2 59:7 60:15 61:15 62:5 #
-0.00025891163206971532168357286174398 3:6 4:15 5:11 6:1 11:15 12:7 13:13 14:15 15:2 18:5 19:14 21:2 22:16 23:4 26:3 27:15 28:8 29:10 30:16 31:4 35:6 36:12 37:10 38:14 39:8 42:2 43:3 46:12 47:7 50:9 51:15 52:8 53:8 54:16 55:3 59:7 60:15 61:15 62:4 #
-0.00025891163206971532168357286174398 3:9 4:13 5:7 10:2 11:16 12:12 13:15 14:12 15:2 18:8 19:11 21:4 22:16 23:4 26:8 27:13 28:1 29:8 30:16 31:7 34:1 35:15 36:16 37:13 38:15 39:8 44:2 46:9 47:12 51:6 52:9 53:9 54:15 55:9 59:6 60:16 61:14 62:8 63:1 #
-0.00025891163206971532168357286174398 3:6 4:13 5:15 6:9 10:4 11:15 12:8 13:4 14:16 15:4 18:8 19:9 22:15 23:8 26:7 27:15 28:9 29:10 30:16 31:8 35:5 36:8 37:5 38:12 39:8 46:12 47:8 51:11 52:9 53:3 54:14 55:3 59:4 60:15 61:16 62:7 #
-0.00025891163206971532168357286174398 2:1 3:10 4:13 5:10 6:1 10:6 11:14 12:4 13:10 14:15 15:2 18:8 19:12 21:2 22:16 23:3 26:2 27:14 28:8 29:10 30:16 31:4 35:2 36:4 37:4 38:13 39:6 46:12 47:8 50:6 51:12 52:2 53:6 54:16 55:4 58:1 59:10 60:16 61:13 62:5 #
0.00025891163206971532168357286174398 4:8 5:11 11:7 12:16 13:11 14:9 19:14 20:15 21:4 22:10 23:2 26:1 27:16 28:5 30:6 31:6 34:3 35:12 37:3 38:8 39:9 42:3 43:13 46:13 47:8 51:11 52:5 53:6 54:15 55:3 59:1 60:11 61:13 62:9 #
0.00025891163206971532168357286174398 3:2 4:11 5:16 6:10 11:10 12:15 13:2 14:14 15:4 18:3 19:15 20:1 22:10 23:8 26:7 27:10 30:12 31:5 34:8 35:8 38:14 39:4 42:3 43:12 45:9 46:14 47:1 51:13 52:10 53:16 54:5 59:2 60:10 61:12 62:2 #
0.00025891163206971532168357286174398 4:9 5:16 6:12 7:2 11:3 12:15 13:10 14:16 15:4 18:1 19:14 20:8 22:13 23:7 26:7 27:15 28:1 30:14 31:6 34:4 35:15 38:15 39:5 42:1 43:12 44:4 45:9 46:15 51:5 52:16 53:16 54:9 60:9 61:14 62:2 #
0.00025891163206971532168357286174398 3:1 4:14 5:7 11:6 12:14 13:12 14:6 19:11 20:11 22:12 27:13 28:8 30:7 31:5 35:15 36:6 38:5 39:8 43:12 44:3 46:10 47:9 51:10 52:10 53:9 54:15 55:4 59:2 60:11 61:14 62:7 #
0.00025891163206971532168357286174398 3:3 4:14 5:10 11:10 12:13 13:11 14:9 19:15 20:9 22:9 23:1 27:16 28:6 30:6 31:5 35:15 36:4 38:10 39:6 43:14 45:2 46:16 47:3 51:12 52:11 53:15 54:12 59:2 60:13 61:10 62:1 #
-0.00025891163206971532168357286174398 3:8 4:13 5:6 10:2 11:16 12:12 13:11 14:10 19:16 20:16 21:14 22:8 23:1 27:13 28:11 34:2 35:15 36:4 43:16 44:13 50:2 51:15 52:16 53:2 59:11 60:16 61:4 #
-0.00025891163206971532168357286174398 3:5 4:13 11:12 12:11 18:3 19:16 20:2 26:5 27:15 34:7 35:14 37:4 38:1 42:5 43:16 44:16 45:16 46:13 50:3 51:16 52:16 53:10 54:16 55:5 59:6 60:13 61:16 62:12 #
-0.00020023902547650334476925237936484 4:10 5:15 6:4 11:5 12:16 13:14 14:3 19:12 20:15 21:1 26:1 27:15 28:8 34:4 35:16 36:12 37:2 42:3 43:16 44:16 45:15 46:4 51:12 52:14 53:16 54:10 59:1 60:9 61:15 62:10 #
-0.00011219070945722129121688293018622 3:8 4:15 5:15 6:12 7:4 11:15 12:4 13:3 14:10 15:16 19:8 20:14 21:12 22:16 23:12 28:2 29:4 30:9 31:8 38:9 39:7 42:1 43:1 46:12 47:4 50:7 51:11 52:1 53:4 54:12 55:1 59:10 60:16 61:13 62:3 #
0.00025891163206971532168357286174398 3:6 4:13 5:6 11:10 12:16 13:14 14:6 19:14 20:9 21:3 22:16 23:1 27:15 28:2 30:15 31:5 35:14 36:2 38:15 39:1 43:12 44:4 45:5 46:15 51:10 52:9 53:15 54:8 59:5 60:14 61:10 #
0.00025891163206971532168357286174398 3:2 4:14 5:14 6:4 11:15 12:16 13:16 14:15 15:1 18:6 19:14 20:16 21:5 22:12 23:6 26:2 27:11 28:12 30:6 31:8 35:12 36:4 38:9 39:6 43:11 44:5 46:12 47:3 51:8 52:12 53:11 54:15 55:2 59:1 60:12 61:10 62:2 #
-0.00025891163206971532168357286174398 4:5 5:14 6:16 7:16 8:5 11:10 12:16 13:15 14:16 15:16 16:7 18:4 19:15 20:6 21:1 22:16 23:12 27:2 29:5 30:16 31:7 37:4 38:16 39:2 45:6 46:16 47:1 52:2 53:15 54:14 60:3 61:15 62:7 #
-0.00022359117205125186118516711353266 3:7 4:16 5:15 6:3 11:14 12:16 13:16 14:13 19:9 20:16 21:16 22:16 23:3 28:6 29:9 30:16 31:9 38:16 39:11 45:6 46:16 47:8 52:4 53:14 54:16 55:2 59:8 60:16 61:15 62:7 #
-0.00025891163206971532168357286174398 3:7 4:16 5:14 6:2 11:13 12:13 13:9 14:13 19:11 20:10 22:14 23:5 27:5 28:14 30:12 31:9 38:12 39:8 45:4 46:16 47:5 51:2 52:8 53:14 54:15 59:8 60:16 61:16 62:16 63:16 64:4 #
-0.00025891163206971532168357286174398 3:12 4:16 5:13 6:11 7:3 10:4 11:16 12:6 13:12 14:16 15:5 19:15 20:11 21:14 22:16 23:6 27:6 28:8 29:8 30:13 31:8 38:8 39:8 46:9 47:8 50:6 51:13 52:5 53:6 54:16 55:3 59:9 60:13 61:12 62:6 #
-0.00025891163206971532168357286174398 3:9 4:14 5:6 11:16 12:14 13:16 14:6 19:13 20:12 21:13 22:16 23:1 27:6 28:13 29:10 30:16 31:2 38:12 39:7 43:5 44:1 46:12 47:8 50:1 51:16 52:10 53:8 54:15 55:7 59:8 60:15 61:16 62:11 63:1 #
0.00025891163206971532168357286174398 2:1 4:6 5:16 6:8 10:11 11:7 12:13 13:3 14:13 15:2 18:11 19:14 20:4 22:8 23:4 26:9 27:7 30:5 31:7 34:6 35:9 38:5 39:8 43:13 44:4 46:11 47:9 51:6 52:14 53:11 54:16 55:7 60:5 61:16 62:10 #
0.00025891163206971532168357286174398 4:14 5:10 6:1 11:8 12:16 13:16 14:11 19:10 20:10 21:2 22:15 23:1 26:4 27:12 28:6 30:11 31:4 34:6 35:16 36:10 38:9 39:8 43:14 44:16 45:5 46:16 47:9 51:8 52:16 53:16 54:16 55:4 60:12 61:16 62:9 #
0.00025891163206971532168357286174398 3:4 4:14 5:16 6:11 11:13 12:12 13:9 14:15 15:4 19:11 22:8 23:6 26:4 27:12 30:6 31:8 34:6 35:8 38:10 39:7 42:3 43:13 44:4 45:10 46:16 47:2 51:13 52:16 53:16 54:15 59:5 60:14 61:12 62:3 #
0.00025891163206971532168357286174398 3:6 4:12 5:4 11:12 12:16 13:15 14:1 18:2 19:16 20:6 21:5 22:14 26:9 27:16 28:4 30:14 31:3 34:7 35:16 36:6 38:14 39:6 42:4 43:16 44:15 45:2 46:16 47:6 51:12 52:16 53:16 54:11 59:5 60:14 61:14 62:5 #
0.00025891163206971532168357286174398 3:3 4:15 5:9 6:1 11:11 12:14 13:16 14:14 15:1 18:4 19:14 20:1 21:3 22:11 23:8 26:8 27:9 30:8 31:8 34:8 35:8 37:1 38:15 39:4 42:7 43:9 45:7 46:13 50:3 51:14 52:10 53:15 54:3 59:5 60:13 61:4 #
-0.00025891163206971532168357286174398 3:1 4:12 5:16 6:5 11:9 12:16 13:9 14:2 18:3 19:16 20:6 26:6 27:16 28:8 29:1 34:10 35:16 36:11 37:13 38:3 42:4 43:16 44:1 45:9 46:13 47:1 51:9 52:11 53:9 54:16 55:1 59:1 60:12 61:16 62:12 #
-0.00025891163206971532168357286174398 3:1 4:13 5:15 6:5 11:10 12:15 13:8 14:6 18:2 19:16 20:6 26:4 27:15 28:1 29:4 34:5 35:13 36:3 37:16 38:11 39:1 43:15 44:1 45:5 46:15 47:5 51:11 52:12 53:8 54:16 55:6 60:10 61:16 62:10 #
-0.00025891163206971532168357286174398 4:15 5:2 11:9 12:13 19:16 20:6 26:4 27:14 28:2 34:4 35:16 36:6 37:6 38:7 39:1 42:4 43:16 44:15 45:8 46:14 47:6 51:9 52:15 53:8 54:15 55:7 59:2 60:14 61:15 62:8 #
-0.00025891163206971532168357286174398 4:4 5:16 6:2 12:14 13:11 14:8 15:5 19:10 20:13 21:1 22:12 23:8 26:6 27:16 28:1 30:14 31:6 34:10 35:14 36:8 37:13 38:16 39:11 42:3 43:11 44:12 45:13 46:14 47:2 52:1 53:14 54:6 60:8 61:13 62:1 #
-0.00025891163206971532168357286174398 3:3 4:15 5:1 11:13 12:13 18:2 19:16 20:1 26:7 27:10 29:1 30:3 34:8 35:9 36:4 37:15 38:15 39:2 42:3 43:16 44:6 46:9 47:8 51:16 52:14 53:9 54:15 55:7 59:3 60:13 61:16 62:9 #
0.00025891163206971532168357286174398 3:7 4:7 5:4 6:4 11:16 12:16 13:16 14:16 15:4 18:1 19:16 20:16 21:8 22:12 23:8 26:6 27:15 28:7 30:12 31:5 34:6 35:12 38:13 39:4 42:5 43:12 45:8 46:14 47:1 50:4 51:16 52:11 53:15 54:7 59:8 60:15 61:7 #
0.00025891163206971532168357286174398 3:6 4:15 5:8 10:2 11:15 12:7 13:16 14:5 18:6 19:11 20:1 21:10 22:14 23:2 26:7 27:7 30:10 31:6 34:7 35:5 38:8 39:8 42:4 43:10 46:10 47:7 51:12 52:8 53:4 54:15 55:2 59:2 60:12 61:12 62:8 #
0.00025891163206971532168357286174398 3:4 4:13 5:13 11:12 12:14 13:12 14:7 19:12 20:12 21:5 22:14 27:12 28:10 30:12 31:3 34:4 35:16 36:5 38:8 39:8 42:4 43:16 44:2 46:9 47:8 50:3 51:14 52:9 53:4 54:15 55:5 59:4 60:13 61:14 62:10 #
0.00025891163206971532168357286174398 3:7 4:10 11:12 12:13 13:11 14:6 18:3 19:16 20:16 21:16 22:16 23:6 26:8 27:13 28:4 29:5 30:15 31:6 34:8 35:12 38:10 39:8 42:6 43:14 44:1 45:5 46:15 47:4 50:4 51:16 52:16 53:16 54:13 58:1 59:12 60:14 61:9 62:1 #
6.5728354053225056643008916701376e-05 3:3 4:14 5:4 11:12 12:15 13:12 14:4 18:3 19:15 20:5 21:2 22:12 26:5 27:9 30:8 31:5 34:8 35:8 38:4 39:8 42:4 43:12 46:2 47:12 51:14 52:5 54:9 55:8 59:3 60:15 61:16 62:13 63:1 #
-0.00025891163206971532168357286174398 3:5 4:15 5:8 10:2 11:15 12:9 13:10 14:3 15:1 18:6 19:9 20:7 21:11 22:14 23:1 26:2 27:15 28:13 29:8 30:2 34:1 35:15 36:6 42:1 43:16 44:12 50:1 51:16 52:13 53:1 59:8 60:15 61:3 #
-0.00025891163206971532168357286174398 3:6 4:15 5:14 6:4 11:16 12:6 13:4 14:15 18:5 19:16 20:6 21:13 22:11 26:1 27:16 28:16 29:16 30:13 31:1 34:6 35:15 36:7 38:11 39:8 42:4 43:12 46:9 47:11 51:16 52:4 53:9 54:15 55:2 59:8 60:14 61:9 62:2 #
-0.00025891163206971532168357286174398 3:11 4:16 5:13 6:2 11:10 12:15 13:11 14:13 19:3 20:15 21:7 22:15 23:5 28:1 29:1 30:13 31:6 38:16 39:5 45:9 46:16 47:2 51:15 52:16 53:16 54:11 59:9 60:15 61:13 62:16 63:16 64:5 #
-0.00025891163206971532168357286174398 4:8 5:11 11:1 12:15 13:4 19:12 20:9 23:3 26:2 27:16 28:2 30:9 31:14 34:11 35:13 37:7 38:15 39:3 42:13 43:16 44:12 45:16 46:8 50:6 51:12 52:12 53:14 54:1 60:7 61:12 #
0.00025891163206971532168357286174398 3:2 4:15 5:9 11:3 12:16 13:12 14:8 19:8 20:14 21:3 22:10 23:2 27:14 28:5 30:6 31:6 34:2 35:15 38:3 39:9 42:1 43:15 46:1 47:12 51:12 52:9 53:5 54:11 55:11 59:2 60:14 61:16 62:10 63:3 #
-0.00025891163206971532168357286174398 3:3 4:12 5:15 6:3 11:14 12:15 13:14 14:4 18:1 19:16 20:15 21:1 26:3 27:16 28:16 29:5 30:2 31:1 34:2 35:16 36:11 37:4 38:8 39:10 42:2 43:16 44:2 46:6 47:13 51:11 52:11 53:4 54:11 55:10 59:1 60:10 61:13 62:10 63:3 #
-0.00018125199523640387168701981757124 4:1 5:7 6:15 7:5 11:5 12:13 13:16 14:16 15:8 18:4 19:15 20:11 21:5 22:16 23:7 26:1 27:4 29:3 30:16 31:4 37:4 38:16 45:8 46:16 53:12 54:16 61:12 62:12 #
0.00025891163206971532168357286174398 3:3 4:13 5:7 11:12 12:16 13:16 14:11 18:1 19:16 20:16 21:10 22:16 23:3 26:7 27:16 28:14 30:14 31:4 34:1 35:16 36:9 38:12 39:5 43:15 44:8 45:4 46:16 47:4 51:12 52:16 53:16 54:12 55:1 59:5 60:15 61:11 62:1 #
0.00025891163206971532168357286174398 4:11 5:12 6:2 11:6 12:16 13:16 14:10 19:12 20:14 21:6 22:16 23:1 26:2 27:16 28:12 30:14 31:4 34:3 35:16 36:9 38:14 39:6 43:16 44:8 45:1 46:16 47:5 51:9 52:14 53:12 54:16 55:2 59:1 60:11 61:16 62:6 #
0.00025891163206971532168357286174398 3:3 4:16 5:13 6:2 11:11 12:7 13:7 14:12 18:2 19:16 20:1 22:9 23:3 26:5 27:13 28:1 30:6 31:6 34:7 35:6 38:5 39:8 42:4 43:8 46:10 47:5 50:1 51:13 52:5 53:8 54:15 55:1 59:4 60:15 61:15 62:4 #
0.00025891163206971532168357286174398 4:11 5:14 6:2 11:5 12:16 13:16 14:11 18:2 19:16 20:10 21:6 22:14 26:2 27:16 28:10 29:2 30:14 31:2 34:3 35:16 36:10 38:9 39:8 42:3 43:16 44:4 46:11 47:11 51:12 52:13 53:9 54:16 55:8 59:1 60:11 61:15 62:9 63:2 #
0.00025891163206971532168357286174398 3:4 4:16 5:13 6:2 11:11 12:7 13:2 14:13 18:3 19:16 20:4 22:9 23:1 26:5 27:13 28:2 30:5 31:7 34:4 35:8 38:4 39:8 42:4 43:14 46:6 47:8 51:13 52:10 53:1 54:14 55:3 59:4 60:12 61:16 62:10 #
7.0296647569493761475989401787956e-05 4:11 5:15 6:10 7:1 11:9 12:10 13:8 14:16 15:5 19:15 20:2 22:11 23:10 26:7 27:10 30:9 31:9 34:8 35:8 38:9 39:8 42:8 43:6 44:1 45:5 46:16 47:2 50:3 51:14 52:13 53:16 54:14 59:1 60:9 61:14 62:3 #
-0.0001159926059000657258719890752019 4:10 5:14 6:9 11:10 12:14 13:6 14:4 18:1 19:16 20:5 26:6 27:12 34:7 35:10 36:1 37:4 38:1 42:2 43:15 44:16 45:14 46:14 47:1 51:12 52:12 53:4 54:14 55:11 59:1 60:10 61:13 62:12 63:4 #
-0.00025891163206971532168357286174398 3:2 4:10 5:15 6:5 11:10 12:15 13:5 14:1 18:1 19:16 20:2 26:4 27:14 34:5 35:12 36:2 37:7 38:9 39:2 42:1 43:16 44:15 45:13 46:12 47:12 51:15 52:11 53:7 54:15 55:6 59:4 60:13 61:15 62:7 #
0.00025891163206971532168357286174398 3:2 4:13 5:13 6:2 11:9 12:16 13:6 14:13 18:1 19:14 20:1 22:9 23:4 26:4 27:9 30:6 31:7 34:8 35:8 38:4 39:8 42:4 43:9 46:4 47:8 51:15 52:8 53:4 54:12 55:7 59:2 60:10 61:16 62:15 63:2 #
-0.00025891163206971532168357286174398 3:3 4:13 5:13 6:4 10:1 11:14 12:13 13:10 14:16 15:1 18:6 19:12 20:1 21:3 22:16 23:6 26:7 27:15 28:4 29:10 30:16 31:8 34:2 35:11 36:15 37:12 38:16 39:8 46:15 47:8 51:5 52:10 53:4 54:16 55:8 59:2 60:12 61:16 62:11 63:1 #
-0.00025344562519073461463736673948688 3:7 4:16 5:10 6:1 10:4 11:16 12:11 13:14 14:13 18:6 19:16 20:4 21:10 22:16 23:5 26:2 27:15 28:16 29:12 30:14 31:8 38:12 39:8 46:10 47:8 51:4 52:8 53:8 54:14 55:8 59:8 60:15 61:14 62:11 #
-0.00025891163206971532168357286174398 3:4 4:12 5:16 6:7 11:15 12:5 13:4 14:14 19:15 21:3 22:15 23:4 26:5 27:16 28:4 29:5 30:16 31:4 35:10 36:12 37:11 38:11 39:8 46:11 47:5 51:2 52:8 54:15 55:1 59:2 60:13 61:15 62:5 #
-0.00025891163206971532168357286174398 3:7 4:13 5:5 10:4 11:14 12:4 13:14 14:13 19:13 20:8 21:12 22:16 23:4 27:5 28:12 29:11 30:6 31:6 38:5 39:9 46:9 47:7 51:2 52:2 53:8 54:16 55:2 59:10 60:16 61:12 62:3 #
-0.00011066117283971173008549210292628 3:5 4:15 5:13 6:2 11:14 12:13 13:9 14:13 19:10 22:10 23:2 30:11 31:3 37:2 38:15 44:1 45:12 46:9 51:10 52:12 53:16 54:14 55:2 59:5 60:14 61:12 62:11 63:4 #
0.00025891163206971532168357286174398 4:11 5:8 11:4 12:16 13:15 14:5 19:6 20:11 21:4 22:15 27:6 28:4 30:14 31:4 35:16 36:2 38:14 39:6 43:14 44:3 45:4 46:16 47:5 51:9 52:14 53:15 54:16 55:1 59:1 60:11 61:14 62:4 #
0.00025891163206971532168357286174398 3:8 4:16 5:15 6:5 11:14 12:16 13:11 14:15 19:16 20:2 22:8 23:4 26:2 27:12 30:8 31:6 34:3 35:11 38:11 39:5 42:3 43:12 45:2 46:15 47:1 50:1 51:15 52:2 53:14 54:8 59:7 60:15 61:12 #
0.00025891163206971532168357286174398 4:5 5:15 6:7 11:6 12:15 13:10 14:16 15:2 18:4 19:16 20:5 22:10 23:8 26:1 27:15 28:4 30:8 31:8 35:14 36:4 38:8 39:8 43:12 44:7 46:14 47:6 51:7 52:16 53:13 54:15 55:1 60:6 61:13 62:5 #
-0.00025891163206971532168357286174398 4:6 5:8 11:2 12:14 13:3 19:9 20:8 26:4 27:15 28:1 30:10 31:5 34:7 35:13 37:2 38:16 39:3 42:11 43:14 44:8 45:15 46:9 50:12 51:16 52:14 53:15 58:1 59:4 60:9 61:8 #
-0.00025891163206971532168357286174398 3:2 4:13 5:1 11:5 12:15 19:13 20:6 26:5 27:14 34:8 35:12 36:3 37:7 38:6 39:1 42:7 43:16 44:14 45:8 46:14 47:7 50:2 51:15 52:9 53:5 54:12 55:7 59:4 60:9 61:13 62:13 63:1 #
0.00025891163206971532168357286174398 3:5 4:15 5:14 6:1 11:15 12:5 13:8 14:9 18:4 19:14 22:11 23:2 26:8 27:16 30:6 31:7 34:8 35:12 36:2 38:4 39:8 42:4 43:10 46:4 47:9 51:14 52:2 53:1 54:10 55:5 59:6 60:14 61:13 62:8 #
0.00024888663957462153720687214608631 3:3 4:15 5:12 6:2 10:1 11:16 12:14 13:13 14:11 18:5 19:16 20:12 22:11 23:5 26:4 27:11 28:11 30:3 31:8 34:6 35:8 38:4 39:8 42:4 43:11 46:9 47:7 51:15 52:13 53:9 54:13 55:5 59:3 60:12 61:14 62:12 #
0.00025891163206971532168357286174398 3:3 4:13 5:10 11:11 12:11 13:11 14:5 18:2 19:16 20:6 22:10 23:1 26:2 27:14 28:1 30:6 31:5 34:3 35:11 38:2 39:9 42:2 43:14 46:4 47:9 51:12 52:9 53:7 54:12 55:9 59:2 60:11 61:15 62:12 63:4 #
0.00025891163206971532168357286174398 3:7 4:12 11:15 12:15 13:10 14:13 18:5 19:14 20:3 21:3 22:14 23:2 26:4 27:10 30:10 31:5 34:3 35:9 38:15 39:3 42:2 43:9 45:3 46:16 47:1 51:14 52:4 53:13 54:8 59:5 60:16 61:12 62:1 #
0.00014476836323437617813809918931867 3:1 4:12 5:15 6:2 11:11 12:13 13:8 14:10 18:4 19:16 20:13 21:1 22:10 26:8 27:15 28:3 30:6 31:3 34:8 35:12 38:8 39:5 42:2 43:16 44:8 46:8 47:8 51:10 52:11 53:7 54:15 55:4 60:13 61:15 62:6 #
-5.8890963163350860780365092495003e-05 3:2 4:13 5:13 6:4 11:12 12:13 13:11 14:14 19:9 20:13 21:13 22:14 23:1 28:4 29:8 30:13 31:3 38:7 39:9 46:3 47:13 51:14 52:6 54:6 55:12 59:2 60:12 61:16 62:16 63:7 #
7.9885826057834682413505422715616e-05 3:2 4:12 5:16 6:7 10:5 11:13 12:13 13:14 14:14 18:6 19:15 22:10 23:3 26:6 27:12 30:5 31:8 34:6 35:10 38:11 39:5 42:3 43:13 44:2 45:13 46:16 47:5 51:11 52:16 53:16 54:15 55:2 59:3 60:16 61:15 62:4 #
-6.0121274491535623557547651785171e-05 4:9 5:13 6:3 11:9 12:14 13:14 14:4 18:1 19:14 20:13 26:4 27:16 28:6 34:4 35:16 36:6 37:4 38:2 42:2 43:16 44:16 45:16 46:15 47:2 51:7 52:16 53:13 54:16 55:10 60:7 61:13 62:10 63:5 #
1.3711858378355284114602508083181e-06 3:6 4:16 5:7 11:16 12:11 13:14 14:6 18:2 19:15 21:3 22:16 23:1 26:7 27:8 30:13 31:2 34:5 35:8 38:11 39:4 42:7 43:7 46:12 47:4 50:5 51:16 52:7 53:7 54:16 59:7 60:16 61:12 62:4 #
