SVM-light Version V6.02
1 # kernel type
5 # kernel parameter -d 
1 # kernel parameter -g 
1 # kernel parameter -s 
1 # kernel parameter -r 
empty# kernel parameter -u 
64 # highest feature index 
2823 # number of training documents 
63 # number of support vectors plus 1 
0.79170083 # threshold b, each following line is a SV (starting with alpha*y)
-1.4928443468251550031506970845936e-18 4:6 5:15 6:2 7:2 11:3 12:15 13:10 14:4 15:15 18:2 19:14 20:9 22:12 23:11 26:9 27:16 28:4 29:3 30:16 31:14 34:11 35:16 36:16 37:16 38:15 39:7 42:1 43:10 44:11 45:16 46:8 52:3 53:16 54:1 60:8 61:11 #
-7.2869992746033823667137534842826e-19 2:4 3:15 4:16 5:12 10:12 11:15 12:7 13:16 14:5 18:3 19:3 21:15 22:4 29:13 30:7 36:5 37:15 38:2 43:1 44:14 45:11 50:1 51:13 52:16 53:9 54:8 55:3 58:3 59:16 60:16 61:16 62:16 63:16 64:1 #
-4.2952535574081607577365167877353e-18 3:7 4:15 5:13 6:3 11:11 12:6 13:8 14:14 20:3 21:8 22:12 28:16 29:14 30:2 36:10 37:15 38:7 45:2 46:11 47:10 50:1 51:15 52:3 53:1 54:11 55:10 59:4 60:15 61:16 62:13 63:2 #
1.1220441333062957928969086939822e-18 3:3 4:10 5:13 6:5 11:15 12:12 13:5 14:14 15:1 18:4 19:12 20:1 22:10 23:4 26:5 27:8 30:8 31:7 34:5 35:8 38:8 39:8 42:4 43:11 46:11 47:5 50:1 51:14 52:6 53:7 54:12 59:4 60:15 61:14 62:4 #
4.7374752096925247428482316513071e-19 3:2 4:8 5:15 6:7 11:11 12:15 13:6 14:14 15:3 19:16 20:6 22:4 23:9 26:8 27:4 30:4 31:8 34:6 35:7 38:5 39:8 42:3 43:13 46:13 47:1 51:10 52:11 53:8 54:11 59:1 60:13 61:11 62:2 #
4.5484770571393537226189135969322e-18 3:4 4:15 5:10 10:3 11:16 12:9 13:10 14:7 18:7 19:15 20:3 21:1 22:11 23:2 26:8 27:6 30:6 31:7 34:8 35:5 38:4 39:8 42:4 43:10 46:7 47:8 51:13 52:6 53:5 54:15 55:3 59:4 60:15 61:14 62:6 #
-9.3019487202829054473177058359861e-19 3:1 4:11 5:11 6:1 11:9 12:16 13:15 14:3 18:1 19:15 20:6 26:5 27:14 34:7 35:11 37:1 38:2 42:4 43:14 44:5 45:15 46:16 47:7 50:1 51:12 52:16 53:16 54:12 55:15 59:2 60:11 61:16 62:14 63:9 #
-1.8474887745734999267944672491042e-18 3:5 4:13 11:12 12:11 18:3 19:16 20:2 26:5 27:15 34:7 35:14 37:4 38:1 42:5 43:16 44:16 45:16 46:13 50:3 51:16 52:16 53:10 54:16 55:5 59:6 60:13 61:16 62:12 #
3.2232949869973568421980942598914e-18 4:12 5:13 11:4 12:16 13:16 14:9 19:2 20:16 21:6 22:14 26:4 27:3 28:13 29:7 30:9 31:5 34:8 35:12 36:3 37:16 38:12 39:8 43:14 44:5 45:1 46:12 47:8 51:10 52:14 53:13 54:16 55:2 60:13 61:16 62:6 #
-1.4850463582253671247955594008636e-19 3:7 4:15 5:15 6:8 7:3 10:3 11:14 12:3 14:13 15:8 18:6 19:10 20:1 21:6 22:14 23:8 27:8 28:12 29:6 30:8 31:8 38:8 39:6 46:12 47:3 53:7 54:13 59:7 60:15 61:14 62:2 #
-1.3142892936800391958363802010708e-18 3:3 4:14 5:8 6:4 11:15 12:14 13:14 14:16 18:4 19:16 20:13 21:16 22:16 26:3 27:11 28:11 29:10 30:16 31:3 37:3 38:15 39:5 43:1 44:5 45:1 46:13 47:6 51:6 52:15 53:16 54:11 59:2 60:14 61:9 62:1 #
-2.4337962293009150083453351661472e-18 3:6 4:14 5:13 6:2 10:10 11:16 12:9 13:16 14:12 18:5 19:16 20:16 21:16 22:16 23:3 27:5 28:9 29:5 30:8 31:8 38:8 39:8 45:1 46:12 47:8 51:5 52:16 53:16 54:15 55:3 59:4 60:15 61:9 62:2 #
1.431895043892056868480889208892e-18 3:3 4:13 5:10 11:11 12:11 13:11 14:5 18:2 19:16 20:6 22:10 23:1 26:2 27:14 28:1 30:6 31:5 34:3 35:11 38:2 39:9 42:2 43:14 46:4 47:9 51:12 52:9 53:7 54:12 55:9 59:2 60:11 61:15 62:12 63:4 #
-5.8710192592788292946448926961372e-18 5:7 6:7 12:4 13:15 14:1 20:13 21:6 22:9 23:1 27:8 28:12 30:14 31:3 34:3 35:16 36:3 37:2 38:16 42:5 43:16 44:16 45:13 46:16 47:4 51:1 52:7 53:12 54:14 55:2 61:9 62:10 #
-1.6799918402029878600892683127726e-18 4:1 5:14 6:10 12:9 13:15 14:2 19:1 20:14 21:5 23:2 27:11 28:9 30:8 31:14 34:7 35:14 38:14 39:10 41:4 42:16 43:15 44:11 45:9 46:16 47:4 49:1 50:12 51:14 52:16 53:16 54:12 61:14 62:6 #
8.5109050655941006728779987699796e-19 3:9 10:2 11:16 12:6 13:8 14:5 18:4 19:16 20:16 21:16 22:15 23:3 26:6 27:16 28:10 29:12 30:15 31:8 34:4 35:11 38:7 39:8 42:4 43:16 44:9 45:10 46:15 47:8 50:2 51:15 52:16 53:16 54:16 55:3 59:8 60:16 61:15 62:7 #
2.5711280235089142695042774778805e-18 3:1 4:14 5:13 6:1 11:12 12:16 13:16 14:12 18:1 19:11 20:14 21:11 22:16 23:5 26:3 27:8 28:16 29:2 30:8 31:10 35:5 36:14 38:8 39:7 43:7 44:12 46:15 47:3 51:7 52:14 53:11 54:11 59:2 60:16 61:13 62:2 #
1.1363424204637285548022839787729e-19 4:6 5:10 6:14 11:10 12:16 13:16 14:16 15:6 18:1 19:16 20:10 21:4 22:15 23:11 26:1 27:12 28:5 30:9 31:9 35:8 36:9 38:8 39:8 43:9 44:16 45:16 46:16 47:4 51:2 52:16 53:16 54:14 55:2 60:6 61:10 62:3 #
-2.7557234535746685653847857698551e-19 3:7 4:16 5:15 6:3 11:14 12:16 13:16 14:13 19:9 20:16 21:16 22:16 23:3 28:6 29:9 30:16 31:9 38:16 39:11 45:6 46:16 47:8 52:4 53:14 54:16 55:2 59:8 60:16 61:15 62:7 #
1.5151842693412314120121358416247e-18 3:6 4:15 5:8 10:4 11:16 12:13 13:16 14:2 18:6 19:15 21:13 22:13 26:8 27:10 29:7 30:16 31:5 34:8 35:8 37:6 38:16 39:3 42:7 43:11 45:7 46:15 51:14 52:10 53:13 54:11 59:6 60:14 61:12 62:2 #
-1.7432348977995795119536766585955e-18 2:1 3:6 4:8 5:13 6:8 10:5 11:16 12:10 13:5 14:15 18:8 19:15 20:6 21:13 22:13 26:5 27:16 28:16 29:14 30:15 31:1 35:14 36:9 38:6 39:6 43:16 44:1 46:6 47:8 51:16 52:5 53:9 54:15 55:2 59:11 60:16 61:10 62:2 #
8.0577039490690424822236904610506e-18 3:6 4:10 5:15 6:11 7:1 10:1 11:15 12:9 13:6 14:12 15:4 18:5 19:16 22:5 23:6 26:4 27:14 30:6 31:8 34:6 35:9 38:12 39:2 42:7 43:9 45:6 46:11 50:3 51:15 52:8 53:15 54:4 59:10 60:14 61:5 #
9.9392959547987381108309188395288e-18 3:4 4:14 5:5 11:13 12:7 13:11 14:4 15:2 18:2 19:13 21:6 22:14 23:4 26:3 27:9 29:3 30:14 31:7 34:5 35:8 37:4 38:11 39:8 42:4 43:8 46:1 47:12 50:1 51:14 52:2 54:10 55:7 59:3 60:15 61:16 62:13 63:2 #
-9.7622702718798128744080287011991e-19 3:3 4:15 5:1 11:13 12:13 18:2 19:16 20:1 26:7 27:10 29:1 30:3 34:8 35:9 36:4 37:15 38:15 39:2 42:3 43:16 44:6 46:9 47:8 51:16 52:14 53:9 54:15 55:7 59:3 60:13 61:16 62:9 #
-5.2732899672511025817510055306775e-18 3:1 4:11 5:15 6:1 11:11 12:15 13:5 18:3 19:16 20:6 26:6 27:7 29:5 30:3 34:8 35:10 36:4 37:13 38:15 39:2 42:4 43:16 44:4 46:8 47:10 51:13 52:10 53:5 54:14 55:9 59:1 60:10 61:13 62:13 63:4 #
-9.8539938421780259162974484314493e-19 4:10 5:11 12:15 13:11 14:9 19:5 20:15 21:10 22:16 23:2 27:13 28:9 29:12 30:13 34:3 35:16 36:7 37:13 38:14 39:5 42:12 43:16 44:16 45:16 46:16 47:8 50:5 51:8 52:13 53:16 54:4 60:11 61:15 #
-2.1877538659511795556248808914575e-18 3:6 4:15 5:12 6:1 11:16 12:9 13:15 14:14 15:2 18:6 19:14 21:2 22:16 23:6 26:5 27:15 28:5 29:6 30:16 31:4 35:6 36:12 37:12 38:15 39:8 46:13 47:7 50:2 51:14 52:4 53:7 54:16 55:2 59:7 60:15 61:15 62:5 #
-1.5809642523604445630328354197545e-19 3:3 4:9 5:14 6:4 10:1 11:16 12:15 13:13 14:10 15:2 18:1 19:15 20:5 21:1 22:13 23:12 27:15 28:12 29:11 30:16 31:3 35:4 36:16 37:16 38:9 43:11 44:16 45:16 46:7 51:15 52:16 53:16 54:8 59:3 60:13 61:15 62:4 #
1.4323300607469022161863828741649e-17 3:2 4:13 5:12 6:4 10:1 11:15 12:12 13:3 14:13 15:2 18:8 19:13 20:8 22:6 23:4 26:8 27:4 28:3 30:3 31:8 34:5 35:5 38:6 39:6 42:1 43:14 44:1 46:8 47:3 51:8 52:8 53:5 54:13 55:1 60:11 61:15 62:6 #
6.7159264739249484896392150018197e-18 3:3 4:12 5:14 6:3 11:11 12:11 13:8 14:13 18:5 19:15 20:1 22:7 23:2 26:3 27:15 28:3 30:3 31:6 34:3 35:11 36:2 38:4 39:7 42:1 43:9 46:5 47:7 51:11 52:4 53:4 54:14 55:2 59:2 60:13 61:15 62:9 #
-1.2601686479739963840209972960496e-19 3:13 4:16 5:16 6:16 7:2 10:1 11:16 12:16 13:12 14:9 18:8 19:16 20:8 26:10 27:16 28:1 34:7 35:16 36:13 43:9 44:16 45:10 51:11 52:16 53:12 59:15 60:14 61:6 #
-2.0380417902936047695544190799774e-18 3:6 4:8 5:10 6:12 7:11 10:1 11:16 12:16 13:16 14:12 15:3 18:4 19:16 20:8 21:1 26:6 27:14 34:1 35:14 36:12 37:3 43:5 44:15 45:16 46:6 52:4 53:16 54:10 59:6 60:14 61:7 62:1 #
-1.364106145580269198293867780658e-18 3:2 4:6 5:12 6:16 7:16 8:2 10:2 11:15 12:16 13:9 14:5 15:16 16:5 19:5 20:1 22:2 23:16 24:2 30:8 31:10 37:4 38:16 39:7 43:10 44:13 45:16 46:13 47:1 51:9 52:13 53:16 54:1 60:7 61:12 #
6.8803729829100049568361842111702e-18 3:1 4:14 5:7 11:6 12:14 13:12 14:6 19:11 20:11 22:12 27:13 28:8 30:7 31:5 35:15 36:6 38:5 39:8 43:12 44:3 46:10 47:9 51:10 52:10 53:9 54:15 55:4 59:2 60:11 61:14 62:7 #
-5.0114366790683794923736066139856e-18 3:2 4:15 5:12 11:3 12:16 13:14 14:10 20:5 21:13 22:16 23:2 30:12 31:8 38:7 39:11 46:7 47:13 51:2 53:2 54:11 55:11 59:3 60:13 61:15 62:16 63:6 #
1.397878924631018415813164588371e-18 3:3 4:14 5:16 6:6 10:1 11:13 12:5 13:4 14:13 18:5 19:12 22:9 23:4 26:5 27:9 30:5 31:8 34:8 35:7 38:3 39:8 42:6 43:9 46:2 47:9 51:15 52:3 53:1 54:9 55:8 59:5 60:15 61:14 62:9 #
-2.4740859591834120193266764512167e-18 3:8 4:13 5:6 10:2 11:16 12:12 13:11 14:10 19:16 20:16 21:14 22:8 23:1 27:13 28:11 34:2 35:15 36:4 43:16 44:13 50:2 51:15 52:16 53:2 59:11 60:16 61:4 #
-2.440496122559659559113279373099e-18 4:4 5:16 6:2 12:14 13:11 14:8 15:5 19:10 20:13 21:1 22:12 23:8 26:6 27:16 28:1 30:14 31:6 34:10 35:14 36:8 37:13 38:16 39:11 42:3 43:11 44:12 45:13 46:14 47:2 52:1 53:14 54:6 60:8 61:13 62:1 #
-4.0677633699227926084500796372238e-18 3:3 4:9 5:8 11:15 12:9 13:1 18:4 19:16 20:8 21:2 26:5 27:16 28:12 29:12 30:11 31:1 34:4 35:12 38:5 39:10 42:1 43:14 44:3 46:1 47:14 48:1 51:10 52:6 53:5 54:14 55:13 59:4 60:13 61:14 62:8 #
-9.178107770099529695827022902403e-19 3:14 4:9 11:8 12:16 19:8 20:12 22:2 23:1 27:12 28:8 30:13 31:9 34:1 35:16 36:4 38:16 39:8 42:5 43:16 46:15 47:6 50:8 51:16 52:16 53:16 54:16 55:12 58:1 59:8 60:8 61:8 62:13 63:7 #
1.1836793271346057526451283711597e-18 4:8 5:15 6:4 12:13 13:16 14:13 18:1 19:1 20:10 21:3 22:13 23:6 26:5 27:8 30:6 31:8 34:7 35:11 38:4 39:8 42:3 43:15 44:7 46:4 47:9 51:7 52:16 53:13 54:11 55:12 60:6 61:15 62:16 63:4 #
-3.8017782376391430817079464037996e-18 3:5 4:15 5:13 6:2 11:14 12:13 13:9 14:13 19:10 22:10 23:2 30:11 31:3 37:2 38:15 44:1 45:12 46:9 51:10 52:12 53:16 54:14 55:2 59:5 60:14 61:12 62:11 63:4 #
-5.1790422589416593234760322030873e-19 3:7 4:16 5:14 6:2 11:13 12:13 13:9 14:13 19:11 20:10 22:14 23:5 27:5 28:14 30:12 31:9 38:12 39:8 45:4 46:16 47:5 51:2 52:8 53:14 54:15 59:8 60:16 61:16 62:16 63:16 64:4 #
-3.7159547153982690779034861449542e-18 4:7 5:14 6:7 11:3 12:13 13:4 14:12 15:1 19:13 20:3 22:12 23:4 26:1 27:13 29:6 30:16 31:6 35:15 36:15 37:9 38:12 39:3 43:1 44:1 46:9 47:2 51:2 52:9 53:2 54:12 59:1 60:9 61:15 62:7 #
4.2565471845871492279648649785559e-19 3:2 4:13 5:9 6:1 11:13 12:14 13:10 14:10 19:14 20:3 22:8 27:15 28:9 30:5 31:3 35:16 36:8 38:7 39:5 43:16 44:7 45:2 46:16 47:2 51:11 52:9 53:13 54:14 55:1 59:2 60:15 61:13 62:1 #
-4.1267461790465558022054916104201e-19 3:3 4:12 5:15 6:3 11:14 12:15 13:14 14:4 18:1 19:16 20:15 21:1 26:3 27:16 28:16 29:5 30:2 31:1 34:2 35:16 36:11 37:4 38:8 39:10 42:2 43:16 44:2 46:6 47:13 51:11 52:11 53:4 54:11 55:10 59:1 60:10 61:13 62:10 63:3 #
-2.3067852454112775840960107562977e-18 4:8 5:14 6:3 11:1 12:16 13:15 14:7 19:7 20:15 21:5 26:3 27:14 28:14 29:5 34:3 35:16 36:10 37:12 38:10 43:11 44:5 46:14 47:2 51:3 52:11 53:6 54:14 55:1 60:7 61:15 62:6 #
-7.2710750063736433225085492328258e-19 4:10 5:16 6:10 11:9 12:16 13:12 14:8 18:1 19:15 20:13 21:1 26:2 27:16 28:5 34:2 35:16 36:8 42:2 43:16 44:16 45:9 50:1 51:12 52:16 53:16 54:3 60:12 61:16 62:7 #
-1.0745841530989023635947246240477e-18 3:6 4:13 5:15 6:9 10:4 11:15 12:8 13:4 14:16 15:4 18:8 19:9 22:15 23:8 26:7 27:15 28:9 29:10 30:16 31:8 35:5 36:8 37:5 38:12 39:8 46:12 47:8 51:11 52:9 53:3 54:14 55:3 59:4 60:15 61:16 62:7 #
-1.0504034857847207461606947457163e-18 3:8 4:15 5:15 6:12 7:4 11:15 12:4 13:3 14:10 15:16 19:8 20:14 21:12 22:16 23:12 28:2 29:4 30:9 31:8 38:9 39:7 42:1 43:1 46:12 47:4 50:7 51:11 52:1 53:4 54:12 55:1 59:10 60:16 61:13 62:3 #
-9.3743070924596568142951871182833e-19 4:1 5:7 6:15 7:5 11:5 12:13 13:16 14:16 15:8 18:4 19:15 20:11 21:5 22:16 23:7 26:1 27:4 29:3 30:16 31:4 37:4 38:16 45:8 46:16 53:12 54:16 61:12 62:12 #
-2.3108257179657532133562565776587e-18 3:9 4:16 5:16 6:14 10:3 11:15 12:10 13:2 14:5 18:11 19:9 26:8 27:14 28:1 34:1 35:15 36:5 43:11 44:9 51:9 52:12 59:14 60:9 #
-1.0121341302970687550273425336566e-18 3:4 4:14 5:16 6:7 10:1 11:16 12:14 13:8 14:5 18:8 19:10 26:3 27:13 35:12 36:6 43:4 44:13 52:16 53:5 59:7 60:16 61:4 #
-5.2944090836365877417497082521023e-19 4:12 5:8 11:6 12:15 13:1 18:2 19:15 20:6 23:6 26:8 27:14 28:1 30:7 31:15 32:1 34:13 35:10 37:6 38:16 39:6 42:15 43:14 44:14 45:16 46:12 50:7 51:12 52:12 53:16 54:2 60:14 61:6 #
-2.7371091595711510836650744915607e-19 3:5 4:11 5:12 11:16 12:16 13:16 14:13 15:7 19:12 20:16 21:16 22:15 23:4 27:4 28:15 29:14 30:8 35:12 36:4 37:1 38:4 42:1 43:14 45:3 46:7 50:1 51:16 52:12 53:16 54:4 59:3 60:9 61:5 #
-2.2557354007844052057098673449212e-19 3:6 4:16 5:12 6:3 10:3 11:15 12:7 13:6 14:14 15:1 18:7 19:13 21:1 22:14 23:1 26:4 27:13 28:8 29:13 30:13 34:2 35:15 36:15 37:7 38:13 39:5 43:12 44:5 46:9 47:8 51:12 52:5 53:6 54:14 55:2 59:5 60:16 61:12 62:3 #
-1.1668941222015322190726675390892e-18 4:6 5:8 12:15 13:3 19:2 20:14 21:2 22:11 27:9 28:8 29:5 30:10 35:14 36:2 37:8 38:7 39:2 42:4 43:16 44:9 45:14 46:16 47:8 50:2 51:8 52:12 53:16 54:5 55:2 60:6 61:13 62:2 #
-1.7734391161542223522775357147986e-19 3:1 4:13 5:15 6:5 11:10 12:15 13:8 14:6 18:2 19:16 20:6 26:4 27:15 28:1 29:4 34:5 35:13 36:3 37:16 38:11 39:1 43:15 44:1 45:5 46:15 47:5 51:11 52:12 53:8 54:16 55:6 60:10 61:16 62:10 #
3.8286132889164542899346816903762e-19 3:5 4:8 11:12 12:6 13:12 14:7 18:2 19:10 20:6 21:9 22:15 23:1 26:7 27:8 30:12 31:8 34:8 35:8 38:12 39:6 42:5 43:13 46:13 47:4 51:14 52:10 53:10 54:13 59:4 60:12 61:11 62:1 #
-4.512221695421884557285776432178e-19 3:5 4:13 5:12 6:1 10:2 11:15 12:5 13:6 14:7 18:6 19:9 22:16 23:4 26:6 27:10 30:14 31:6 35:9 36:13 37:14 38:12 39:9 47:12 51:3 54:3 55:14 59:5 60:12 61:13 62:14 63:5 #
6.4426497297744097750067643402905e-18 4:1 5:12 6:4 11:1 12:14 13:16 14:11 19:9 20:13 21:5 22:15 23:4 26:2 27:16 28:2 30:16 31:3 34:1 35:16 36:7 37:7 38:16 39:4 43:13 44:16 45:16 46:16 47:1 51:1 52:13 53:16 54:13 60:3 61:12 62:5 #
-1.2663711578937518669862357785604e-19 4:4 5:13 6:2 12:14 13:8 19:5 20:14 22:9 23:7 26:2 27:16 28:3 29:5 30:16 31:5 34:7 35:14 37:12 38:13 42:7 43:16 44:13 45:15 46:11 51:5 52:13 53:16 54:16 55:2 60:3 61:14 62:2 #
