SVM-light Version V6.02
2 # kernel type
3 # kernel parameter -d 
0.005 # kernel parameter -g 
1 # kernel parameter -s 
1 # kernel parameter -r 
empty# kernel parameter -u 
64 # highest feature index 
2823 # number of training documents 
2039 # number of support vectors plus 1 
0.87480605 # threshold b, each following line is a SV (starting with alpha*y)
-0.037497129142977571325534569268711 4:6 5:15 6:2 7:2 11:3 12:15 13:10 14:4 15:15 18:2 19:14 20:9 22:12 23:11 26:9 27:16 28:4 29:3 30:16 31:14 34:11 35:16 36:16 37:16 38:15 39:7 42:1 43:10 44:11 45:16 46:8 52:3 53:16 54:1 60:8 61:11 #
-0.069336986592654276106983957106422 3:6 4:15 5:14 6:4 11:16 12:6 13:4 14:15 18:5 19:16 20:6 21:13 22:11 26:1 27:16 28:16 29:16 30:13 31:1 34:6 35:15 36:7 38:11 39:8 42:4 43:12 46:9 47:11 51:16 52:4 53:9 54:15 55:2 59:8 60:14 61:9 62:2 #
-0.02223328352324643181203711606031 2:4 3:15 4:16 5:12 10:12 11:15 12:7 13:16 14:5 18:3 19:3 21:15 22:4 29:13 30:7 36:5 37:15 38:2 43:1 44:14 45:11 50:1 51:13 52:16 53:9 54:8 55:3 58:3 59:16 60:16 61:16 62:16 63:16 64:1 #
-0.020797545093979439428943933876326 3:7 4:15 5:13 6:3 11:11 12:6 13:8 14:14 20:3 21:8 22:12 28:16 29:14 30:2 36:10 37:15 38:7 45:2 46:11 47:10 50:1 51:15 52:3 53:1 54:11 55:10 59:4 60:15 61:16 62:13 63:2 #
-0.02458335784951819896759772632322 3:10 4:16 5:12 10:1 11:14 12:13 13:16 14:4 19:2 20:3 21:16 22:5 28:4 29:16 30:2 36:11 37:14 43:2 44:16 45:8 47:3 50:1 51:13 52:16 53:14 54:16 55:16 56:3 59:12 60:16 61:16 62:13 63:7 #
0.50000003576649798553432901826454 5:8 6:13 7:1 11:1 12:9 13:15 14:14 15:1 18:6 19:14 20:16 21:16 22:10 26:5 27:11 28:4 29:16 30:9 36:3 37:16 38:5 44:3 45:16 46:7 53:16 54:10 61:11 62:13 #
0.25722557811124940885250111932692 5:15 6:15 7:1 12:2 13:16 14:16 15:4 19:2 20:11 21:16 22:15 23:1 26:9 27:16 28:16 29:16 30:12 34:3 35:10 36:8 37:16 38:8 45:16 46:11 53:15 54:13 61:15 62:15 #
0.39681469992359702514406194495677 3:8 4:12 5:9 6:1 10:3 11:16 12:16 13:16 14:10 18:3 19:16 20:16 21:16 22:10 27:8 28:16 29:16 30:4 35:12 36:16 37:16 38:8 42:1 43:15 44:16 45:16 46:9 51:13 52:16 53:16 54:9 59:6 60:9 61:11 62:3 #
0.50000003576649798553432901826454 3:6 4:12 5:12 6:8 11:11 12:16 13:16 14:16 19:9 20:16 21:16 22:16 23:1 27:12 28:16 29:16 30:15 31:2 35:12 36:16 37:16 38:16 39:4 43:12 44:16 45:16 46:11 47:1 51:8 52:16 53:16 54:1 58:1 59:11 60:12 61:5 #
0.50000003576649798553432901826454 3:1 4:8 5:6 11:14 12:16 13:16 14:16 19:16 20:16 21:16 22:16 27:16 28:16 29:16 30:16 35:16 36:16 37:16 38:15 43:16 44:16 45:16 46:13 51:9 52:16 53:16 54:9 59:6 60:8 61:6 62:1 #
-0.50000003576649798553432901826454 2:1 3:8 4:12 5:3 10:1 11:16 12:16 13:14 14:2 18:2 19:16 20:16 21:16 22:16 23:1 27:12 28:16 29:16 30:4 35:12 36:16 37:16 38:7 42:2 43:16 44:16 45:16 46:14 50:4 51:16 52:16 53:15 54:4 58:1 59:12 60:10 61:5 #
-0.50000003576649798553432901826454 3:7 4:14 5:4 10:1 11:16 12:16 13:16 14:7 18:4 19:16 20:16 21:16 22:14 27:13 28:16 29:16 30:11 35:8 36:16 37:16 38:1 43:10 44:16 45:16 46:6 51:11 52:16 53:16 54:13 59:6 60:12 61:13 62:10 #
-0.23812305856338550347217619673756 2:1 3:9 4:15 5:12 6:5 10:10 11:16 12:14 13:16 14:16 15:1 18:2 19:14 20:12 21:15 22:14 27:7 28:16 29:15 30:5 35:7 36:16 37:12 43:14 44:16 45:13 51:16 52:15 53:16 54:4 59:12 60:16 61:13 62:2 #
0.50000003576649798553432901826454 3:9 4:9 5:1 11:10 12:16 13:3 19:13 20:16 21:7 27:6 28:16 29:13 36:14 37:16 44:13 45:16 46:13 47:4 51:10 52:16 53:16 54:16 55:15 56:2 59:8 60:16 61:13 62:8 63:5 #
0.50000003576649798553432901826454 3:7 4:15 5:3 11:1 12:16 13:9 19:7 20:15 21:15 27:10 28:16 29:13 36:6 37:16 38:2 44:4 45:16 46:6 51:9 52:13 53:16 54:13 55:8 56:3 59:6 60:15 61:16 62:16 63:16 64:12 #
0.50000003576649798553432901826454 3:12 4:10 10:3 11:13 12:16 13:4 18:6 19:16 20:16 21:7 27:8 28:15 29:9 36:10 37:14 44:6 45:16 46:6 51:9 52:13 53:16 54:13 55:8 56:3 59:9 60:16 61:16 62:16 63:16 64:9 #
-0.22909732393607279421487987747241 3:16 4:10 10:3 11:16 12:16 13:6 19:16 20:12 21:12 27:13 28:11 29:14 35:1 36:6 37:16 44:10 45:12 51:13 52:16 53:16 54:14 55:8 58:1 59:13 60:16 61:16 62:15 63:16 64:5 #
-0.15857025692824708307249181871157 3:8 4:10 11:14 12:16 13:5 19:15 20:11 21:11 27:10 28:6 29:12 35:1 36:4 37:14 44:6 45:10 51:5 52:15 53:14 54:9 55:9 56:2 59:10 60:16 61:15 62:15 63:12 64:1 #
-0.091650125922808065026536894492892 2:2 3:15 4:12 10:5 11:16 12:16 13:4 18:8 19:14 20:13 21:8 26:1 27:8 28:6 29:12 36:9 37:12 43:4 44:14 45:13 46:4 47:3 50:7 51:16 52:16 53:16 54:16 55:15 58:3 59:11 60:15 61:11 62:8 63:2 #
0.31400353794352175995641118788626 3:7 4:14 5:12 6:5 11:10 12:16 13:16 14:12 19:10 20:16 21:16 22:8 27:10 28:16 29:16 30:6 35:9 36:16 37:16 38:3 43:12 44:16 45:16 46:2 51:12 52:16 53:16 54:11 59:14 60:16 61:13 62:8 #
0.50000003576649798553432901826454 3:6 4:15 5:16 6:6 10:5 11:15 12:16 13:16 14:11 18:8 19:16 20:16 21:16 22:9 27:4 28:16 29:16 30:6 35:2 36:16 37:16 43:8 44:16 45:16 46:2 51:11 52:16 53:16 54:13 55:2 59:5 60:13 61:11 62:8 63:2 #
0.50000003576649798553432901826454 3:2 4:16 5:11 10:1 11:11 12:16 13:16 14:7 18:10 19:16 20:16 21:16 22:9 26:2 27:9 28:15 29:16 30:11 36:12 37:16 38:8 43:4 44:16 45:16 46:5 51:10 52:16 53:16 54:15 55:4 59:3 60:15 61:16 62:12 #
-0.50000003576649798553432901826454 3:2 4:13 5:15 6:2 11:11 12:16 13:13 14:10 19:14 20:9 21:8 22:12 27:8 28:14 29:16 30:10 35:5 36:16 37:13 38:1 43:9 44:15 45:14 46:2 51:7 52:14 53:14 54:6 59:1 60:13 61:16 62:2 #
-0.39972746343984588701658822174068 3:2 4:10 5:14 6:3 10:3 11:16 12:16 13:16 14:15 15:1 18:12 19:12 20:5 21:16 22:4 26:2 27:15 28:16 29:12 35:5 36:16 37:13 43:4 44:14 45:14 46:9 51:7 52:15 53:15 54:12 60:12 61:16 62:6 #
-0.50000003576649798553432901826454 3:5 4:14 5:16 6:9 11:8 12:16 13:14 14:16 15:5 19:7 20:16 21:13 22:16 23:4 26:8 27:13 28:16 29:16 30:12 34:3 35:15 36:16 37:12 38:2 43:14 44:16 45:12 46:1 51:15 52:16 53:16 54:4 59:7 60:16 61:11 62:1 #
0.50000003576649798553432901826454 5:1 6:14 7:4 13:2 14:16 15:8 21:8 22:16 23:6 29:15 30:16 31:5 36:8 37:16 38:16 39:3 43:6 44:16 45:9 46:16 50:2 51:16 52:8 53:4 54:16 58:2 59:4 61:2 62:15 63:3 #
0.50000003576649798553432901826454 3:2 4:15 5:12 6:1 11:6 12:16 13:15 14:1 19:14 20:16 21:8 26:2 27:16 28:16 29:2 34:3 35:16 36:15 42:2 43:16 44:13 51:9 52:16 53:2 59:2 60:13 61:12 #
0.50000003576649798553432901826454 3:2 4:16 5:9 11:8 12:16 13:15 18:6 19:16 20:16 21:15 22:1 28:5 29:16 30:8 37:14 38:14 45:2 46:16 47:6 51:1 52:4 53:7 54:16 55:13 60:11 61:16 62:16 63:15 64:1 #
-0.32812938751085801714069134504825 2:2 4:13 5:12 6:3 9:5 10:14 11:1 12:13 13:16 14:5 18:8 19:16 20:14 21:16 22:4 27:8 28:16 29:16 30:2 36:16 37:16 38:9 43:3 44:16 45:16 46:16 47:4 51:11 52:16 53:16 54:16 55:6 59:1 60:15 61:16 62:10 #
-0.38575080757939222975139159643732 3:5 4:12 5:16 6:4 10:2 11:16 12:15 13:10 14:4 18:4 19:16 20:14 21:16 22:5 26:4 27:15 28:16 29:16 30:9 35:7 36:16 37:16 38:13 39:2 43:10 44:15 45:6 46:16 47:8 51:14 52:14 53:13 54:14 55:1 59:7 60:16 61:11 62:5 #
-0.37303243660545359894342709594639 3:1 4:15 5:16 6:8 11:6 12:16 13:15 14:13 19:5 20:16 21:16 22:11 28:15 29:16 30:7 35:6 36:16 37:15 43:13 44:11 45:11 46:7 51:13 52:10 53:5 54:16 59:3 60:13 61:16 62:12 #
0.50000003576649798553432901826454 3:5 4:14 5:12 6:8 7:2 11:1 12:10 13:16 14:16 15:12 19:5 20:14 21:16 22:16 23:2 27:10 28:16 29:16 30:12 34:6 35:16 36:16 37:14 38:4 42:9 43:16 44:16 45:11 50:10 51:16 52:16 53:6 58:1 59:10 60:14 61:12 62:4 #
0.50000003576649798553432901826454 3:1 4:12 5:16 6:14 7:1 11:4 12:16 13:16 14:16 15:4 18:2 19:14 20:16 21:16 22:16 23:6 26:2 27:12 28:16 29:16 30:10 35:8 36:16 37:16 38:8 43:11 44:16 45:16 46:5 51:8 52:16 53:16 54:4 59:1 60:15 61:16 62:8 #
0.2677764000197847549245011578023 3:1 4:16 5:14 6:1 11:3 12:16 13:16 14:4 19:1 20:16 21:16 22:5 28:16 29:16 30:7 35:7 36:16 37:16 43:8 44:16 45:14 51:7 52:16 53:15 59:2 60:13 61:16 #
-0.15837055386699924741655820525921 3:3 4:14 5:13 6:2 10:1 11:15 12:16 13:16 14:3 18:2 19:14 20:15 21:5 27:5 28:15 29:6 36:5 37:16 38:7 45:4 46:15 47:7 51:3 52:8 53:12 54:16 55:13 59:3 60:12 61:15 62:14 63:4 #
-0.15132454687701446527370308103855 3:8 4:13 5:6 10:2 11:16 12:12 13:11 14:10 19:16 20:16 21:14 22:8 23:1 27:13 28:11 34:2 35:15 36:4 43:16 44:13 50:2 51:15 52:16 53:2 59:11 60:16 61:4 #
-0.25794513530139023815834775632538 4:5 5:12 6:16 7:8 10:1 11:10 12:16 13:15 14:16 15:5 18:10 19:16 20:13 21:13 22:16 23:2 26:3 27:12 28:13 29:14 30:16 31:2 37:8 38:15 45:12 46:15 52:1 53:16 54:8 60:6 61:16 62:7 #
0.50000003576649798553432901826454 4:5 5:16 6:5 11:6 12:15 13:16 14:9 17:3 18:16 19:16 20:16 21:16 22:3 26:9 27:11 28:13 29:16 30:3 36:14 37:14 44:14 45:13 52:11 53:14 60:4 61:15 62:4 #
0.50000003576649798553432901826454 4:8 5:14 6:5 12:9 13:16 14:14 15:2 20:11 21:16 22:13 23:1 27:6 28:16 29:16 30:7 34:3 35:13 36:16 37:16 38:4 42:3 43:11 44:15 45:16 46:12 52:10 53:16 54:15 55:3 60:8 61:16 62:15 63:6 #
0.50000003576649798553432901826454 4:7 5:16 6:5 11:3 12:15 13:16 14:11 18:2 19:15 20:16 21:16 22:1 26:13 27:16 28:16 29:12 34:1 35:11 36:16 37:11 43:6 44:16 45:11 52:14 53:15 54:3 60:4 61:15 62:12 #
-0.50000003576649798553432901826454 4:8 5:15 6:2 12:13 13:16 14:3 19:4 20:16 21:14 27:7 28:16 29:7 35:9 36:16 37:2 43:12 44:16 45:4 51:8 52:16 53:16 54:8 60:6 61:15 62:15 #
-0.11269193985625262921512756975062 4:6 5:9 12:12 13:12 14:8 20:16 21:7 22:12 27:6 28:11 29:7 30:10 34:1 35:14 36:4 37:13 38:13 39:5 42:5 43:16 44:16 45:16 46:13 47:5 51:4 52:6 53:16 54:9 60:8 61:16 62:7 #
-0.17076136217545154205588175955199 4:10 5:16 6:10 11:9 12:16 13:12 14:8 18:1 19:15 20:13 21:1 26:2 27:16 28:5 34:2 35:16 36:8 42:2 43:16 44:16 45:9 50:1 51:12 52:16 53:16 54:3 60:12 61:16 62:7 #
0.50000003576649798553432901826454 4:1 5:7 6:15 7:5 11:5 12:13 13:16 14:16 15:8 18:4 19:15 20:11 21:5 22:16 23:7 26:1 27:4 29:3 30:16 31:4 37:4 38:16 45:8 46:16 53:12 54:16 61:12 62:12 #
0.50000003576649798553432901826454 4:2 5:11 6:16 7:8 10:1 11:9 12:15 13:16 14:16 15:12 18:3 19:15 20:16 21:13 22:16 23:10 28:3 29:16 30:16 31:6 37:16 38:16 39:4 44:4 45:16 46:16 47:3 52:4 53:16 54:16 55:1 60:1 61:13 62:16 63:1 #
0.50000003576649798553432901826454 4:4 5:16 6:9 7:2 11:1 12:14 13:16 14:16 15:7 18:5 19:14 20:16 21:16 22:16 23:6 26:5 27:12 28:13 29:16 30:16 31:5 36:4 37:16 38:16 39:1 44:7 45:16 46:16 47:1 52:8 53:16 54:16 55:3 60:5 61:14 62:16 63:6 #
-0.15912379244562968594323137949686 4:5 5:14 6:16 7:16 8:5 11:10 12:16 13:15 14:16 15:16 16:7 18:4 19:15 20:6 21:1 22:16 23:12 27:2 29:5 30:16 31:7 37:4 38:16 39:2 45:6 46:16 47:1 52:2 53:15 54:14 60:3 61:15 62:7 #
-0.35258750733242055774852019567334 3:1 4:7 5:14 6:15 7:2 10:2 11:12 12:14 13:8 14:14 15:7 18:3 19:14 20:13 21:5 22:14 23:5 27:5 28:15 29:16 30:15 31:2 36:10 37:16 38:10 43:2 44:14 45:14 46:12 51:4 52:16 53:14 54:12 60:12 61:13 62:6 #
-0.079313481708633559730259321440826 3:4 4:14 5:16 6:11 11:12 12:12 13:16 14:15 20:1 21:16 22:11 27:2 28:9 29:16 30:9 35:13 36:16 37:16 38:16 39:9 43:2 44:15 45:12 46:8 47:1 51:4 52:16 53:9 59:5 60:15 61:7 #
0.50000003576649798553432901826454 4:11 5:12 6:1 11:2 12:14 13:16 14:3 19:5 20:16 21:11 27:7 28:16 29:8 35:6 36:16 37:8 43:10 44:16 45:7 51:7 52:16 53:9 54:4 60:10 61:16 62:12 63:1 #
0.50000003576649798553432901826454 4:10 5:6 11:5 12:16 13:9 19:10 20:16 21:10 26:4 27:15 28:12 29:12 34:2 35:4 36:3 37:16 38:2 45:11 46:9 52:7 53:12 54:15 55:4 60:12 61:16 62:16 63:8 #
0.50000003576649798553432901826454 3:4 4:13 5:11 6:2 11:2 12:13 13:16 14:7 20:7 21:16 22:15 28:3 29:16 30:15 31:4 36:7 37:16 38:16 39:1 44:10 45:16 46:14 51:1 52:13 53:15 54:4 59:8 60:16 61:14 #
-0.21832411458217837463280375231989 3:5 4:12 5:13 6:1 11:7 12:16 13:16 14:10 19:1 20:13 21:16 22:13 29:10 30:15 37:9 38:15 43:2 44:5 45:15 46:12 51:11 52:16 53:16 54:7 59:4 60:13 61:9 #
-0.070738129198969962319054616273206 3:7 4:16 5:10 10:1 11:16 12:14 13:16 14:9 19:11 20:16 21:16 22:15 28:7 29:13 30:14 37:11 38:14 45:13 46:12 51:1 52:11 53:15 54:3 59:6 60:16 61:6 #
-0.16560067147620316507783400084008 5:15 6:7 12:2 13:16 14:8 20:10 21:16 22:3 26:7 27:16 28:16 29:4 30:12 31:12 34:1 35:13 36:16 37:16 38:16 39:9 43:1 44:7 45:14 46:16 53:13 54:15 61:16 62:11 #
0.50000003576649798553432901826454 3:2 4:7 5:12 6:16 7:11 11:10 12:15 13:16 14:16 15:16 20:10 21:16 22:16 23:12 28:4 29:16 30:16 31:4 36:5 37:16 38:15 39:4 44:10 45:16 46:12 51:2 52:15 53:16 54:3 59:1 60:13 61:14 62:1 #
0.50000003576649798553432901826454 4:15 5:10 11:4 12:16 13:16 14:7 19:3 20:16 21:16 22:10 27:3 28:16 29:16 30:14 35:4 36:16 37:16 38:16 39:2 43:10 44:16 45:16 46:16 47:5 51:9 52:16 53:16 54:16 55:9 59:1 60:8 61:3 62:7 63:16 64:2 #
0.50000003576649798553432901826454 5:3 6:16 7:6 12:5 13:15 14:16 15:9 18:1 19:10 20:16 21:15 22:16 23:8 26:10 27:16 28:12 29:2 30:16 31:5 34:1 35:6 37:4 38:16 39:4 45:5 46:16 47:1 53:6 54:16 55:3 61:3 62:16 63:9 #
-0.076448325267568451035771204260527 3:3 4:10 5:13 6:16 7:12 10:3 11:15 12:13 13:8 14:10 15:12 18:1 19:12 20:13 21:16 22:16 23:10 29:4 30:16 31:5 37:10 38:16 44:1 45:15 46:12 52:9 53:15 60:14 61:9 #
-0.02836840099268235146356964548886 3:3 4:11 5:14 6:16 7:14 11:13 12:15 13:12 14:15 15:13 19:3 21:1 22:16 23:5 28:4 29:16 30:16 31:10 36:7 37:16 38:16 39:7 44:6 45:15 46:2 52:15 53:9 59:3 60:15 61:2 #
-0.063747355918838288779681988671655 3:2 4:11 5:16 6:16 7:8 11:10 12:16 13:16 14:16 15:8 19:2 21:8 22:16 23:2 28:6 29:14 30:16 31:5 36:14 37:16 38:16 39:10 44:10 45:16 46:7 52:13 53:13 59:1 60:16 61:7 #
0.50000003576649798553432901826454 5:12 6:13 7:1 12:2 13:16 14:16 15:3 20:5 21:16 22:16 23:4 28:12 29:16 30:16 31:5 35:5 36:16 37:16 38:16 39:4 42:3 43:15 44:14 45:15 46:16 47:3 50:3 51:8 52:2 53:13 54:16 61:12 62:11 63:1 #
0.50000003576649798553432901826454 3:2 4:16 5:14 6:1 11:6 12:16 13:16 14:5 18:2 19:16 20:16 21:16 22:3 27:3 28:9 29:16 30:4 36:2 37:16 38:10 45:15 46:16 51:2 52:9 53:16 54:16 55:3 59:2 60:14 61:16 62:10 63:1 #
0.50000003576649798553432901826454 5:5 6:16 7:8 13:13 14:16 15:12 20:9 21:16 22:16 23:9 27:10 28:16 29:14 30:16 31:8 34:4 35:15 36:11 37:8 38:16 39:5 43:7 44:1 45:9 46:16 47:3 53:12 54:16 61:8 62:15 63:2 #
-0.24509533671021382916777042737522 3:2 4:11 5:11 6:2 11:11 12:16 13:16 14:5 19:10 20:16 21:16 22:5 27:2 28:11 29:14 30:9 37:8 38:12 45:8 46:16 52:8 53:15 54:10 59:1 60:14 61:14 62:3 #
-0.2229902138499823549544487377716 3:1 4:12 5:15 6:1 11:10 12:16 13:16 18:3 19:16 20:15 21:10 26:6 27:16 28:15 29:15 30:2 35:4 36:2 37:14 38:15 39:1 45:3 46:15 47:5 51:2 52:14 53:14 54:16 55:5 60:15 61:16 62:13 63:1 #
-0.082861486584014973355571953561594 4:1 5:16 6:8 12:3 13:16 14:6 20:7 21:15 22:9 23:3 27:3 28:14 29:8 30:16 31:4 34:7 35:15 36:14 37:12 38:16 39:3 41:3 42:15 43:16 44:16 45:16 46:16 47:1 49:1 50:4 51:4 52:4 53:14 54:13 60:1 61:16 62:7 #
0.50000003576649798553432901826454 3:3 4:11 5:7 10:4 11:16 12:16 13:16 18:4 19:16 20:16 21:16 26:4 27:16 28:16 29:10 34:1 35:14 36:16 37:16 43:12 44:16 45:16 46:6 51:11 52:16 53:16 54:11 59:2 60:11 61:12 62:6 #
0.50000003576649798553432901826454 3:7 4:15 5:15 6:5 10:4 11:16 12:16 13:16 14:13 15:1 18:2 19:16 20:16 21:16 22:6 27:16 28:16 29:16 30:6 35:16 36:16 37:16 42:1 43:16 44:16 45:16 46:1 50:4 51:16 52:16 53:15 54:3 58:1 59:8 60:15 61:12 62:2 #
0.50000003576649798553432901826454 3:3 4:4 5:4 6:2 10:1 11:14 12:16 13:15 14:2 18:4 19:16 20:16 21:14 26:4 27:16 28:16 29:15 34:2 35:15 36:16 37:15 38:1 43:11 44:16 45:16 46:5 51:5 52:16 53:16 54:12 59:6 60:12 61:8 62:5 #
-0.24860384756326742161647302964411 3:9 4:16 5:16 6:9 11:13 12:13 13:15 14:16 19:9 20:16 21:16 22:7 27:4 28:16 29:12 35:10 36:15 37:14 38:1 43:14 44:7 45:12 46:5 51:15 52:9 53:16 54:5 59:9 60:16 61:14 62:1 #
-0.50000003576649798553432901826454 3:4 4:14 5:8 11:14 12:12 13:15 14:9 19:14 20:10 21:15 22:9 23:1 27:4 28:16 29:11 35:9 36:16 37:12 43:12 44:12 45:16 46:1 50:1 51:15 52:14 53:16 54:1 59:7 60:16 61:8 #
-0.46417006460135584733350810893171 3:3 4:15 5:15 6:1 11:9 12:16 13:12 14:2 18:4 19:16 20:9 21:6 22:9 23:2 26:8 27:16 28:16 29:16 30:10 31:3 34:2 35:16 36:16 37:14 38:1 42:4 43:16 44:16 45:16 46:4 50:1 51:14 52:16 53:16 54:12 59:3 60:14 61:12 62:5 #
0.50000003576649798553432901826454 5:7 6:16 7:11 12:1 13:16 14:16 15:7 19:4 20:15 21:16 22:5 26:4 27:16 28:16 29:15 34:1 35:8 36:16 37:16 38:3 44:10 45:16 46:9 52:4 53:16 54:12 61:7 62:12 #
0.50000003576649798553432901826454 4:7 5:8 6:2 11:2 12:15 13:16 14:8 19:4 20:16 21:16 22:8 27:8 28:16 29:16 30:9 34:3 35:16 36:16 37:16 38:16 42:1 43:6 44:9 45:16 46:16 52:7 53:16 54:16 55:2 60:7 61:11 62:3 #
0.34342178108154802762541635274829 3:1 4:7 5:10 6:7 11:8 12:16 13:16 14:16 19:15 20:16 21:16 22:16 26:1 27:7 28:16 29:16 30:16 31:3 35:1 36:16 37:16 38:16 39:4 43:3 44:16 45:16 46:16 47:1 51:4 52:16 53:16 54:16 59:1 60:9 61:12 62:6 #
-0.089249740864451393429490622111189 4:4 5:15 11:1 12:13 13:11 19:7 20:16 21:7 22:12 26:2 27:16 28:11 29:10 30:16 31:2 34:6 35:16 36:16 37:16 38:16 39:3 43:4 44:4 45:15 46:13 47:1 52:1 53:16 54:7 60:4 61:11 62:1 #
-0.18658277779878987279182922520704 4:1 5:8 6:15 7:10 11:3 12:15 13:15 14:16 15:12 19:16 20:9 21:6 22:16 23:2 26:4 27:16 28:9 29:13 30:16 31:1 35:10 36:12 37:15 38:16 45:10 46:12 53:10 54:11 61:6 62:6 #
-0.25825580739500791915830291145539 4:9 5:16 6:5 10:1 11:12 12:15 13:15 14:8 18:7 19:13 20:5 21:15 22:4 27:1 28:6 29:16 36:8 37:16 44:9 45:13 52:12 53:8 54:4 55:3 60:11 61:16 62:15 63:5 #
0.50000003576649798553432901826454 3:7 4:16 5:16 6:10 7:1 11:8 12:16 13:16 14:13 15:1 19:6 20:16 21:16 22:12 27:4 28:16 29:16 30:8 35:7 36:16 37:16 38:5 42:1 43:14 44:16 45:16 46:3 50:4 51:16 52:16 53:8 58:2 59:14 60:16 61:14 62:2 #
0.50000003576649798553432901826454 4:16 5:14 6:1 11:7 12:16 13:15 14:2 18:9 19:16 20:16 21:11 25:1 26:15 27:15 28:16 29:10 34:2 35:3 36:16 37:9 44:16 45:9 51:2 52:16 53:6 60:16 61:8 #
0.50000003576649798553432901826454 4:10 5:16 6:6 11:4 12:16 13:16 14:4 19:14 20:16 21:16 22:4 27:16 28:16 29:16 30:8 35:16 36:16 37:16 38:8 43:15 44:16 45:16 46:14 47:3 51:10 52:16 53:16 54:16 55:8 59:1 60:12 61:12 62:15 63:7 #
-0.14755289737409374439813802837307 4:6 5:16 6:10 11:3 12:15 13:15 14:4 19:5 20:16 21:8 27:10 28:16 29:4 35:10 36:16 37:8 38:1 42:1 43:15 44:16 45:16 46:15 47:2 50:1 51:13 52:16 53:15 54:16 55:7 60:5 61:15 62:15 63:5 #
-0.016678796980919910475371636948694 4:9 5:16 6:4 11:6 12:16 13:16 14:4 19:11 20:15 21:1 27:14 28:13 35:16 36:16 37:16 38:9 42:1 43:16 44:12 45:8 46:14 47:5 51:11 52:15 53:9 54:15 55:9 60:10 61:13 62:15 63:3 #
-0.03076086111977423612207083181147 4:10 5:16 6:5 11:2 12:16 13:13 14:2 19:7 20:16 21:4 27:8 28:16 29:1 35:11 36:16 37:10 38:1 43:13 44:16 45:16 46:13 47:4 51:7 52:16 53:7 54:15 55:14 60:9 61:16 62:16 63:12 #
0.50000003576649798553432901826454 5:12 6:15 7:1 10:3 11:8 12:8 13:14 14:16 18:11 19:16 20:16 21:16 22:16 26:1 27:4 28:4 29:15 30:16 37:12 38:16 39:4 45:12 46:16 47:3 53:12 54:16 55:10 61:9 62:16 63:11 #
0.50000003576649798553432901826454 4:15 5:12 6:3 12:16 13:16 14:8 19:9 20:16 21:16 22:9 28:10 29:16 30:13 36:4 37:16 38:16 39:2 43:1 44:8 45:16 46:16 47:10 51:8 52:16 53:16 54:16 55:16 56:5 59:1 60:9 61:12 62:14 63:12 64:4 #
0.50000003576649798553432901826454 3:2 4:15 5:11 11:8 12:16 13:11 18:1 19:13 20:16 21:7 26:8 27:16 28:16 29:7 34:11 35:9 36:16 37:12 44:7 45:16 46:6 52:5 53:16 54:15 55:3 59:3 60:16 61:16 62:16 63:15 64:1 #
-0.18391450691132180117470795721601 2:5 3:14 4:10 5:4 10:3 11:12 12:16 13:16 14:6 19:1 20:13 21:16 22:5 27:8 28:16 29:13 30:2 35:5 36:16 37:13 38:2 44:6 45:16 46:15 47:4 50:1 51:8 52:9 53:15 54:16 55:5 58:4 59:15 60:14 61:8 62:4 #
-0.10533886998520304578708106646445 3:3 4:15 5:8 11:8 12:16 13:16 14:7 19:7 20:11 21:9 22:12 27:2 28:5 29:9 30:11 37:13 38:7 43:7 44:10 45:16 46:4 51:14 52:16 53:16 54:16 55:15 59:1 60:4 61:4 62:7 63:11 64:1 #
-0.14153475589079603236264404131362 5:11 6:8 12:2 13:16 14:8 20:6 21:16 22:2 28:7 29:15 36:10 37:14 43:13 44:16 45:16 46:11 51:7 52:7 53:16 54:16 55:10 61:8 62:16 63:15 #
0.50000003576649798553432901826454 4:9 5:14 6:4 10:10 11:14 12:16 13:16 14:6 18:3 19:9 20:16 21:16 22:2 28:16 29:10 36:14 37:9 43:2 44:16 45:9 51:1 52:16 53:12 60:7 61:15 62:1 #
0.50000003576649798553432901826454 4:1 5:16 6:9 12:6 13:16 14:11 20:11 21:16 22:6 26:1 27:7 28:15 29:14 30:1 34:6 35:14 36:16 37:15 43:1 44:13 45:15 52:14 53:16 54:4 61:12 62:15 63:6 #
0.50000003576649798553432901826454 3:6 4:16 5:13 6:2 10:1 11:11 12:16 13:15 14:3 18:11 19:16 20:16 21:16 22:2 26:6 27:11 28:11 29:16 30:12 31:1 36:1 37:14 38:16 39:7 45:6 46:16 47:13 53:7 54:16 55:16 56:3 59:2 60:12 61:16 62:15 63:8 64:1 #
-0.028305090958981815596473552432144 3:6 4:16 5:8 10:2 11:16 12:14 13:15 18:2 19:16 20:13 21:16 22:9 27:8 28:15 29:16 30:14 31:1 38:13 39:7 46:3 47:13 51:3 52:4 53:4 54:7 55:15 59:7 60:13 61:16 62:13 63:9 #
-0.045971855541198432260063810872452 3:4 4:14 5:5 11:12 12:15 13:14 19:12 20:8 21:15 22:9 27:5 28:16 29:15 30:16 31:4 37:6 38:12 39:10 46:5 47:15 51:3 52:8 53:4 54:9 55:16 56:4 59:5 60:12 61:15 62:12 63:11 #
-0.066416533805781122201672417304508 3:4 4:13 5:8 11:14 12:16 13:16 14:5 18:4 19:16 20:7 21:8 22:15 27:15 28:12 29:15 30:16 31:4 35:5 36:14 37:14 38:16 39:6 46:13 47:8 54:10 55:13 59:5 60:14 61:16 62:15 63:8 #
0.50000003576649798553432901826454 5:7 6:15 7:2 13:8 14:16 15:5 20:1 21:13 22:14 26:8 27:16 28:16 29:16 30:12 35:3 37:16 38:12 45:12 46:15 53:9 54:16 55:2 61:6 62:16 63:8 #
0.50000003576649798553432901826454 3:4 4:10 11:2 12:15 13:2 19:2 20:16 21:4 27:7 28:16 29:9 35:14 36:14 37:14 43:3 44:3 45:16 46:3 51:1 52:7 53:14 54:11 55:4 59:4 60:14 61:16 62:13 63:14 64:8 #
0.50000003576649798553432901826454 3:3 4:15 5:13 6:2 10:1 11:13 12:16 13:16 18:9 19:16 20:16 21:16 22:1 27:3 28:15 29:16 30:1 36:14 37:16 38:6 44:9 45:16 46:11 51:5 52:12 53:16 54:9 59:4 60:15 61:10 62:1 #
-0.14080355348528014736153579633537 3:3 4:9 5:15 6:8 10:1 11:15 12:16 13:16 14:7 19:5 20:16 21:16 22:10 23:4 27:3 28:16 29:16 30:16 31:9 36:15 37:14 38:4 44:13 45:5 51:1 52:15 53:3 59:4 60:13 #
-0.095632939573974909408526912102388 3:2 4:10 5:13 6:4 11:11 12:16 13:15 14:5 18:5 19:16 20:11 21:2 26:10 27:15 28:2 34:3 35:13 36:15 37:5 44:8 45:16 46:6 51:2 52:10 53:16 54:7 59:3 60:15 61:10 #
-0.1162577884365376262865154899373 2:3 3:12 4:12 5:3 10:8 11:10 12:11 13:9 19:2 20:14 21:4 27:12 28:13 29:1 35:3 36:13 37:15 38:3 45:7 46:14 47:1 50:2 51:4 52:4 53:3 54:11 55:7 58:5 59:12 60:12 61:14 62:16 63:8 #
0.50000003576649798553432901826454 3:2 4:16 5:16 6:4 11:8 12:16 13:16 14:12 19:14 20:16 21:16 26:2 27:16 28:16 29:14 30:4 34:8 35:16 36:16 37:10 38:2 42:8 43:16 44:16 45:14 46:2 51:16 52:16 53:16 54:14 55:2 59:2 60:8 61:16 62:10 #
0.50000003576649798553432901826454 4:12 5:14 6:5 11:3 12:16 13:16 14:12 19:14 20:16 21:16 22:2 26:1 27:15 28:16 29:8 34:4 35:16 36:15 37:4 42:3 43:16 44:16 45:1 51:10 52:16 53:13 60:11 61:16 62:5 #
0.50000003576649798553432901826454 3:6 4:12 5:16 6:10 12:12 13:16 14:16 15:1 20:9 21:16 22:16 23:4 28:13 29:16 30:16 31:3 36:14 37:16 38:14 44:14 45:16 46:10 51:2 52:16 53:16 54:13 59:7 60:16 61:15 62:2 #
-0.039917942064357794795803613396856 3:5 4:14 5:11 11:13 12:16 13:14 19:6 20:9 21:12 28:10 29:8 35:1 36:15 37:3 43:8 44:14 51:11 52:16 53:12 54:15 55:1 59:6 60:16 61:16 62:7 #
-0.12120297180238100154259228702358 4:13 5:6 6:2 11:2 12:16 13:8 14:16 15:3 18:1 19:14 20:13 21:12 22:16 26:9 27:16 28:16 29:16 30:16 31:10 34:3 35:12 36:14 37:16 38:13 39:6 44:8 45:16 46:1 52:11 53:10 60:13 61:7 #
-0.14150333176603205331822721291246 3:7 4:16 5:14 11:11 12:16 13:16 19:1 20:10 21:15 28:13 29:11 35:2 36:16 37:3 43:6 44:15 46:2 51:10 52:16 53:16 54:14 59:6 60:16 61:16 62:9 #
0.50000003576649798553432901826454 4:6 5:16 6:4 12:16 13:16 14:5 19:5 20:16 21:16 22:4 26:5 27:15 28:16 29:16 30:4 34:8 35:16 36:16 37:16 38:7 44:7 45:16 46:16 52:6 53:16 54:16 55:5 60:3 61:16 62:16 63:3 #
0.50000003576649798553432901826454 4:3 5:13 6:2 12:9 13:16 14:2 19:2 20:15 21:16 22:4 26:2 27:13 28:16 29:16 30:2 34:4 35:12 36:8 37:16 38:7 44:4 45:16 46:9 52:5 53:16 54:16 60:2 61:15 62:9 #
0.50000003576649798553432901826454 3:5 4:16 5:5 11:2 12:16 13:13 19:11 20:16 21:16 22:2 27:3 28:12 29:16 30:9 37:14 38:14 45:9 46:16 47:3 51:9 52:12 53:14 54:16 55:8 56:5 59:4 60:12 61:13 62:16 63:16 64:15 #
-0.14003130302286542763212651152571 2:2 5:9 6:7 10:15 11:16 12:16 13:16 14:9 18:1 19:5 20:4 21:16 22:7 26:1 27:4 28:4 29:16 30:7 34:5 35:16 36:16 37:16 38:15 39:2 43:3 44:1 45:14 46:6 53:13 54:7 61:10 62:11 #
-0.13199799274750986799453755793365 4:7 5:12 6:14 7:2 11:3 12:14 13:7 14:13 15:8 19:6 20:14 21:11 22:16 23:5 26:2 27:13 28:16 29:15 30:8 31:1 34:5 35:12 36:6 37:15 42:7 43:10 45:8 46:10 50:2 51:12 52:7 53:5 54:16 55:3 60:9 61:13 62:14 63:2 #
-0.10220722358116578198927726361944 3:2 4:11 5:15 6:13 10:5 11:15 12:15 13:13 14:15 18:9 19:13 20:3 21:16 22:7 26:3 27:3 28:4 29:16 30:4 36:2 37:16 38:11 45:7 46:16 47:6 52:9 53:8 54:15 55:12 60:13 61:16 62:13 63:3 #
0.50000003576649798553432901826454 5:11 6:12 13:11 14:16 15:2 21:15 22:13 27:6 28:16 29:16 30:12 34:7 35:16 36:16 37:16 38:8 42:1 43:4 44:7 45:16 46:11 52:2 53:15 54:13 61:8 62:16 63:4 #
0.50000003576649798553432901826454 5:14 6:12 7:1 13:16 14:16 15:2 20:1 21:15 22:16 23:2 26:1 27:8 28:11 29:16 30:11 34:10 35:16 36:16 37:16 38:8 42:1 43:8 44:9 45:16 46:8 52:1 53:16 54:14 61:12 62:16 63:2 #
0.50000003576649798553432901826454 4:2 5:11 6:13 7:2 11:2 12:13 13:16 14:16 15:2 18:3 19:15 20:14 21:13 22:16 27:6 29:15 30:9 37:16 38:6 44:4 45:16 52:5 53:16 54:3 60:3 61:16 62:6 #
-0.28940773611803188858360158519645 5:6 6:11 12:3 13:15 14:12 19:5 20:14 21:10 22:12 26:2 27:15 28:6 29:5 30:9 34:6 35:15 36:12 37:15 38:16 39:8 42:1 43:8 44:8 45:12 46:12 47:2 53:8 54:8 61:5 62:11 #
-0.10433044092539613123538089212161 4:3 5:11 6:15 7:1 11:6 12:16 13:16 14:16 15:9 18:2 19:16 20:16 21:16 22:13 23:14 27:11 28:8 29:1 30:9 31:9 37:1 38:15 45:6 46:10 53:12 54:3 61:13 #
-0.091414413745193393023846795131249 2:2 3:16 4:16 5:12 6:12 7:11 11:3 12:9 13:13 14:16 15:14 16:2 20:1 21:13 22:16 23:4 28:14 29:15 30:3 36:9 37:16 38:6 44:1 45:16 46:12 51:3 52:9 53:16 54:10 58:4 59:16 60:16 61:7 #
0.50000003576649798553432901826454 4:4 5:11 6:12 7:5 11:1 12:16 13:16 14:16 15:1 19:8 20:16 21:16 22:13 26:1 27:14 28:16 29:16 30:4 34:4 35:16 36:16 37:16 38:4 42:7 43:16 44:16 45:16 46:1 50:1 51:12 52:16 53:16 54:3 60:7 61:12 62:8 #
0.50000003576649798553432901826454 3:4 4:16 5:7 6:2 11:8 12:16 13:16 14:4 19:11 20:16 21:16 22:3 27:9 28:16 29:16 35:11 36:16 37:16 38:2 43:9 44:16 45:15 51:9 52:16 53:15 59:6 60:12 61:3 #
0.50000003576649798553432901826454 3:9 4:14 5:2 11:5 12:16 13:7 19:6 20:16 21:10 26:2 27:15 28:16 29:10 34:6 35:16 36:15 37:14 44:10 45:16 46:2 51:9 52:15 53:16 54:14 55:12 56:3 59:6 60:15 61:16 62:16 63:12 64:3 #
-0.18682036357045728180992227862589 3:1 4:9 5:16 6:15 7:4 11:4 12:16 13:10 14:14 15:10 19:3 20:16 21:7 22:14 23:11 27:9 28:16 29:16 30:13 34:5 35:16 36:16 37:16 38:2 42:6 43:14 44:9 45:16 46:2 51:12 52:16 53:16 54:4 60:12 61:11 62:3 #
-0.41530672567776055759125597433012 3:6 4:14 5:16 6:10 11:13 12:13 13:10 14:15 19:5 20:15 21:11 22:14 28:10 29:16 30:7 36:14 37:16 38:1 43:8 44:15 45:15 46:2 51:12 52:14 53:16 54:1 59:10 60:16 61:11 #
-0.070411579987961908644322761574585 2:8 3:16 4:16 5:16 6:16 7:9 10:5 11:12 12:12 13:14 14:16 15:9 20:2 21:15 22:13 28:9 29:16 30:5 35:2 36:16 37:13 43:11 44:16 45:4 50:7 51:16 52:15 58:6 59:16 60:11 #
0.50000003576649798553432901826454 5:4 6:16 7:5 12:2 13:15 14:16 15:4 19:1 20:13 21:16 22:16 26:1 27:14 28:12 29:14 30:12 34:6 35:14 36:1 37:10 38:13 42:4 43:2 45:9 46:13 53:8 54:12 61:4 62:14 #
0.50000003576649798553432901826454 5:7 6:11 7:1 13:12 14:16 15:3 20:4 21:16 22:16 28:2 29:16 30:16 35:1 36:13 37:16 38:12 43:7 44:16 45:15 46:14 50:2 51:15 52:5 53:12 54:11 59:2 61:7 62:11 #
0.50000003576649798553432901826454 3:11 4:12 5:7 11:5 12:16 13:16 14:9 19:4 20:16 21:16 22:12 27:4 28:16 29:16 30:13 35:3 36:15 37:16 38:12 43:2 44:13 45:16 46:12 51:11 52:16 53:16 54:5 59:8 60:10 61:8 #
-0.10797844846296537901775280943184 2:4 3:16 4:13 5:6 10:1 11:9 12:15 13:16 14:8 20:1 21:12 22:16 23:3 28:1 29:15 30:13 31:1 35:11 36:13 37:16 38:14 39:5 42:3 43:16 44:16 45:16 46:14 47:5 50:1 51:14 52:13 53:1 58:3 59:16 60:7 #
-0.12282585619666684662032452024505 3:12 4:8 5:2 11:16 12:6 13:14 14:6 18:2 19:16 20:10 21:16 26:10 27:13 28:14 29:10 30:4 31:1 34:8 35:16 36:16 37:16 38:16 39:10 43:13 44:15 45:4 46:4 47:1 51:12 52:12 58:1 59:14 60:5 #
-0.10442160357734878162183633776294 2:8 3:12 4:16 5:13 10:2 11:10 12:10 13:16 14:8 21:10 22:16 23:4 29:10 30:16 31:4 36:4 37:16 38:14 45:12 46:16 47:8 51:4 52:8 53:15 54:16 55:8 58:10 59:16 60:16 61:11 62:3 #
0.50000003576649798553432901826454 4:10 5:16 6:7 12:9 13:16 14:16 15:2 20:11 21:16 22:14 28:14 29:16 30:12 35:7 36:16 37:16 38:8 42:2 43:15 44:16 45:16 46:7 50:3 51:10 52:16 53:16 54:8 60:11 61:16 62:15 63:3 #
0.50000003576649798553432901826454 4:6 5:14 6:15 7:3 10:1 11:9 12:16 13:16 14:14 15:2 18:6 19:16 20:16 21:16 22:14 27:6 28:16 29:16 30:8 35:6 36:16 37:16 38:8 43:4 44:16 45:16 46:9 51:1 52:16 53:16 54:15 55:3 60:10 61:16 62:16 63:4 #
0.50000003576649798553432901826454 3:5 4:16 5:14 6:3 11:2 12:14 13:16 14:10 20:12 21:16 22:8 28:14 29:16 30:6 35:1 36:16 37:16 38:3 43:3 44:15 45:16 52:15 53:16 54:9 60:13 61:16 62:11 #
-0.16039018595256249177793961280258 3:2 4:9 5:5 11:8 12:16 13:16 14:13 18:2 19:11 20:16 21:16 22:4 26:1 27:11 28:16 29:12 35:10 36:12 37:16 38:6 43:13 44:1 45:7 46:15 47:1 51:14 52:6 53:7 54:13 55:2 59:2 60:11 61:11 62:4 #
-0.097815757105775447133311217839946 2:1 3:6 4:9 5:15 6:16 7:14 10:4 11:16 12:16 13:10 14:7 15:2 18:8 19:16 20:13 21:3 26:10 27:14 28:14 29:14 34:1 35:1 36:1 37:16 44:1 45:16 51:3 52:10 53:14 59:15 60:14 61:3 #
-0.053172958097887045025853325341814 2:1 3:10 4:16 5:15 6:4 10:9 11:16 12:7 13:7 14:15 15:2 18:12 19:13 22:12 23:8 26:12 27:12 30:6 31:11 34:10 35:12 38:4 39:12 42:7 43:14 46:6 47:11 50:2 51:16 52:5 53:3 54:14 55:4 59:10 60:16 61:16 62:12 #
0.50000003576649798553432901826454 4:1 5:15 6:9 12:9 13:16 14:11 18:4 19:8 20:16 21:16 22:6 26:15 27:16 28:16 29:16 30:4 34:5 35:9 36:4 37:16 38:4 44:5 45:16 46:2 52:4 53:16 54:5 60:2 61:14 62:9 #
0.50000003576649798553432901826454 4:1 5:13 6:15 7:6 12:7 13:16 14:16 15:8 19:3 20:14 21:16 22:16 23:6 26:5 27:15 28:16 29:16 30:16 31:4 34:5 35:12 36:13 37:16 38:16 39:4 44:4 45:16 46:16 47:8 52:4 53:16 54:16 55:8 60:1 61:12 62:16 63:5 #
0.50000003576649798553432901826454 3:8 4:12 5:12 6:6 11:15 12:16 13:16 14:16 19:8 20:16 21:16 22:16 27:6 28:16 29:16 30:16 31:4 35:5 36:16 37:16 38:16 39:4 43:4 44:16 45:16 46:16 47:7 51:15 52:16 53:16 54:16 55:8 59:4 60:9 61:11 62:8 63:4 #
-0.094520279252612887654905193812738 3:8 4:14 5:13 6:3 11:16 12:16 13:16 14:15 19:13 20:12 21:4 22:16 23:2 27:2 28:15 29:14 30:15 31:2 35:4 36:15 37:16 38:7 43:15 44:14 45:8 46:15 47:4 50:4 51:16 52:12 53:6 54:16 55:7 59:6 60:13 61:12 62:8 #
-0.11130765428162614494311810631189 3:13 4:13 10:6 11:16 12:7 18:10 19:13 26:8 27:16 28:13 29:16 30:10 34:8 35:16 36:14 37:9 38:15 39:6 42:5 43:16 44:6 46:2 47:15 50:7 51:16 52:12 54:3 55:15 58:1 59:6 60:13 61:16 62:16 63:8 #
-0.12252212960939511121605249854838 3:14 4:9 11:8 12:16 19:8 20:12 22:2 23:1 27:12 28:8 30:13 31:9 34:1 35:16 36:4 38:16 39:8 42:5 43:16 46:15 47:6 50:8 51:16 52:16 53:16 54:16 55:12 58:1 59:8 60:8 61:8 62:13 63:7 #
0.50000003576649798553432901826454 3:1 4:16 5:13 11:6 12:16 13:15 18:7 19:16 20:16 21:12 25:1 26:12 27:16 28:16 29:12 35:2 36:10 37:14 44:8 45:16 46:1 52:10 53:16 60:12 61:16 #
0.50000003576649798553432901826454 3:11 4:15 5:6 11:10 12:16 13:8 19:8 20:16 21:16 26:2 27:12 28:16 29:14 30:2 35:6 36:16 37:16 38:7 43:8 44:16 45:16 46:9 51:12 52:16 53:16 54:15 55:3 59:8 60:15 61:12 62:5 63:1 #
0.50000003576649798553432901826454 5:8 6:16 7:7 12:6 13:16 14:16 15:12 19:8 20:16 21:16 22:16 23:12 26:5 27:12 28:8 29:12 30:16 31:8 37:12 38:16 39:5 45:15 46:16 47:1 53:16 54:16 61:11 62:16 63:2 #
-0.090739181180774772239594483380642 3:10 4:13 5:2 11:14 12:16 13:4 18:2 19:16 20:14 26:6 27:16 28:14 29:2 34:7 35:16 36:16 37:16 38:13 39:1 42:2 43:16 44:16 45:16 46:16 47:7 50:2 51:16 52:16 53:16 54:16 55:4 59:8 60:15 61:16 62:13 #
-0.083984563016653177025538923317072 4:12 5:8 12:16 13:8 19:10 20:16 21:3 26:7 27:16 28:12 29:12 30:4 34:8 35:16 36:16 37:16 38:16 39:9 42:1 43:9 44:15 45:16 46:10 47:6 52:12 53:13 60:14 61:12 #
-0.096856602218682669169780297124817 3:8 4:16 5:16 6:16 7:12 8:3 11:2 12:2 14:5 15:16 16:8 22:5 23:15 24:1 29:1 30:13 31:8 34:1 35:8 36:8 37:10 38:16 39:1 42:3 43:12 44:15 45:16 46:11 47:3 51:2 52:15 53:7 59:11 60:11 #
0.50000003576649798553432901826454 2:1 3:8 4:10 5:3 10:2 11:15 12:16 13:16 14:12 18:1 19:14 20:16 21:16 22:12 26:4 27:16 28:16 29:16 30:8 34:4 35:16 36:16 37:16 38:6 42:4 43:16 44:16 45:15 46:3 50:4 51:16 52:16 53:13 54:2 58:1 59:7 60:10 61:8 62:2 #
0.50000003576649798553432901826454 4:13 5:7 11:9 12:16 13:15 18:8 19:16 20:16 21:14 26:7 27:8 28:11 29:16 30:4 36:2 37:16 38:10 45:10 46:16 47:4 51:1 52:7 53:11 54:16 55:12 60:11 61:16 62:14 63:8 #
0.50000003576649798553432901826454 3:1 4:15 5:11 6:1 11:5 12:16 13:16 14:7 20:14 21:16 22:14 28:14 29:16 30:16 31:2 35:2 36:16 37:16 38:16 39:2 44:14 45:16 46:15 47:1 51:1 52:16 53:16 54:16 55:3 59:2 60:12 61:16 62:15 63:5 #
-0.086580978186806656360374745418085 2:1 3:14 4:7 10:8 11:16 12:2 14:3 15:5 18:10 19:12 21:1 22:14 23:11 26:9 27:15 28:1 29:9 30:16 31:3 34:1 35:15 36:16 37:16 38:8 43:5 44:16 45:13 46:5 51:12 52:13 58:2 59:16 60:6 #
-0.12026047143183674070776589815068 4:3 5:15 6:16 7:3 12:12 13:10 14:15 15:3 20:2 21:6 22:14 28:1 29:15 30:5 35:1 36:13 37:9 42:1 43:12 44:12 45:1 50:9 51:16 52:16 53:16 54:13 55:5 58:2 59:4 60:5 61:10 62:13 63:12 #
-0.084572393198519169033033904270269 3:8 4:11 7:13 8:9 10:3 11:15 12:6 14:12 15:13 16:1 18:3 19:16 20:5 21:7 22:16 23:5 27:12 28:16 29:16 30:16 31:8 35:1 36:11 37:13 38:4 43:1 44:15 45:4 51:7 52:13 59:11 60:5 #
0.50000003576649798553432901826454 3:1 4:15 5:12 11:6 12:16 13:15 19:5 20:16 21:9 27:5 28:16 29:6 35:3 36:16 37:8 43:2 44:16 45:8 51:1 52:16 53:9 59:1 60:13 61:6 #
0.50000003576649798553432901826454 4:16 5:6 12:16 13:14 20:14 21:16 28:15 29:15 36:14 37:15 44:15 45:14 52:13 53:14 60:10 61:13 #
0.50000003576649798553432901826454 4:2 5:15 6:15 7:2 11:1 12:13 13:16 14:14 19:8 20:16 21:16 22:10 26:7 27:16 28:16 29:16 30:6 34:1 36:14 37:15 38:1 44:14 45:15 52:10 53:16 54:4 60:6 61:16 62:9 #
-0.10760554942833927549727945915947 3:9 4:16 5:16 6:5 11:13 12:16 13:9 14:6 19:9 20:12 27:3 28:16 29:3 36:12 37:10 44:5 45:15 51:3 52:5 53:16 54:5 59:7 60:16 61:15 62:1 #
-0.082034622286262168233683667040168 3:11 4:16 5:16 6:8 11:11 12:12 13:8 14:13 19:7 20:10 27:3 28:13 36:14 37:2 44:13 45:6 51:6 52:12 53:10 59:11 60:16 61:9 #
-0.11678359428334900149692998638784 3:9 4:16 5:7 11:16 12:16 13:14 19:3 20:13 21:16 27:7 28:16 29:16 30:12 31:8 35:8 36:16 37:16 38:16 39:9 44:14 45:11 51:4 52:16 53:5 59:7 60:12 #
0.50000003576649798553432901826454 4:4 5:13 6:4 12:9 13:16 14:11 18:5 19:16 20:16 21:16 22:8 27:4 28:11 29:16 30:9 36:4 37:16 38:12 44:4 45:16 46:14 52:12 53:16 54:16 55:5 60:3 61:16 62:16 63:4 #
0.50000003576649798553432901826454 5:7 6:15 13:10 14:16 15:1 19:2 20:11 21:16 22:16 26:7 27:16 28:14 29:11 30:16 31:3 34:1 35:2 37:8 38:16 39:3 45:4 46:16 47:4 53:4 54:16 55:3 61:6 62:15 63:2 #
0.50000003576649798553432901826454 3:3 4:16 5:14 6:3 11:6 12:16 13:16 14:5 19:12 20:16 21:9 27:16 28:16 29:5 34:2 35:16 36:16 37:1 42:1 43:16 44:16 45:1 51:13 52:16 53:1 59:4 60:15 #
-0.083131373971990121796160622125171 2:2 3:10 4:16 5:16 6:16 7:7 10:14 11:16 12:15 13:11 14:13 15:5 18:12 19:15 20:1 26:4 27:16 28:7 35:16 36:8 43:15 44:9 51:12 52:14 59:15 60:7 #
-0.10084677750430377785040292337726 3:6 4:9 5:12 6:16 7:10 11:11 12:13 13:5 14:4 15:4 19:12 20:4 26:3 27:15 28:3 29:4 30:2 34:2 35:16 36:14 37:12 38:14 39:7 43:1 46:10 47:4 50:12 51:13 53:1 54:13 55:2 59:6 60:16 61:16 62:7 #
-0.033662426990755014988287996402505 2:4 3:12 4:13 5:16 6:16 7:4 10:12 11:16 12:16 13:11 14:8 15:5 18:16 19:13 20:5 26:8 27:14 34:1 35:15 36:6 43:7 44:15 51:8 52:16 58:3 59:16 60:12 #
0.50000003576649798553432901826454 5:6 6:11 12:4 13:16 14:12 19:1 20:12 21:16 22:11 26:1 27:12 28:13 29:16 30:7 34:9 35:16 36:13 37:16 38:3 42:2 43:3 44:6 45:16 46:3 52:6 53:16 54:3 61:9 62:8 #
0.50000003576649798553432901826454 3:12 4:7 11:9 12:15 19:11 20:16 21:5 27:10 28:16 29:7 36:11 37:14 44:6 45:16 46:2 51:14 52:16 53:16 54:13 55:12 56:3 59:8 60:15 61:15 62:14 63:16 64:11 #
0.50000003576649798553432901826454 4:16 5:11 6:4 11:2 12:16 13:16 14:12 19:10 20:16 21:16 22:8 26:2 27:16 28:16 29:16 30:4 34:2 35:11 36:16 37:16 38:4 43:1 44:16 45:16 46:6 52:14 53:16 54:16 55:6 60:12 61:16 62:15 63:6 #
-0.12399873312011622239481312135467 3:1 4:12 5:15 6:12 7:1 11:2 12:12 13:10 14:16 15:4 18:6 19:10 20:6 21:14 22:9 26:5 27:13 28:16 29:16 30:7 35:5 36:15 37:10 38:15 43:5 44:12 46:11 47:7 51:4 52:14 53:4 54:13 55:7 59:2 60:12 61:15 62:10 63:1 #
-0.14284470475202479256005005936458 3:5 4:14 5:11 6:2 10:3 11:16 12:10 13:15 14:13 18:8 19:13 21:14 22:16 23:1 26:3 27:16 28:13 29:16 30:15 31:3 35:3 36:16 37:16 38:3 43:1 44:16 45:16 46:14 51:6 52:16 53:13 54:16 55:4 59:5 60:15 61:12 62:12 63:1 #
-0.093799994312888865244381975116994 4:12 5:8 11:6 12:15 13:1 18:2 19:15 20:6 23:6 26:8 27:14 28:1 30:7 31:15 32:1 34:13 35:10 37:6 38:16 39:6 42:15 43:14 44:14 45:16 46:12 50:7 51:12 52:12 53:16 54:2 60:14 61:6 #
0.50000003576649798553432901826454 5:10 6:7 12:2 13:16 14:13 19:3 20:16 21:16 22:9 26:8 27:16 28:16 29:16 30:10 34:1 35:3 36:3 37:16 38:11 44:1 45:16 46:13 53:16 54:16 55:3 61:8 62:16 63:10 #
0.50000003576649798553432901826454 3:1 4:13 5:16 6:6 10:6 11:14 12:16 13:16 14:7 17:2 18:14 19:16 20:16 21:16 22:2 27:5 28:16 29:16 30:2 35:2 36:16 37:16 38:2 44:16 45:16 46:1 52:14 53:16 54:2 60:13 61:16 62:1 #
0.50000003576649798553432901826454 3:8 4:14 5:14 6:4 11:6 12:14 13:16 14:11 15:1 19:3 20:15 21:16 22:15 23:3 27:1 28:16 29:16 30:13 35:2 36:16 37:16 38:8 43:10 44:16 45:16 46:6 50:1 51:14 52:16 53:15 54:2 59:12 60:16 61:8 #
-0.14704861681913947157873678861506 3:6 4:9 5:4 6:1 11:6 12:16 13:16 14:9 15:1 19:4 20:16 21:1 22:13 23:7 28:14 29:5 30:12 31:8 34:1 35:10 36:15 37:16 38:10 42:6 43:15 44:9 45:16 46:1 50:7 51:13 52:8 53:14 54:4 59:6 60:10 61:13 62:1 #
-0.14167959520352640945262123750581 4:1 5:14 6:12 10:4 11:6 12:15 13:14 14:12 18:5 19:16 20:16 21:13 22:13 23:1 27:11 28:16 29:16 30:16 31:4 36:3 37:2 38:9 39:8 46:9 47:8 53:11 54:16 55:4 61:11 62:5 63:1 #
-0.1146151813104900329953750315326 4:8 5:15 6:16 7:7 10:1 11:14 12:9 13:1 15:8 18:6 19:12 22:10 23:8 26:4 27:14 28:12 29:13 30:14 31:8 37:1 38:4 39:8 46:4 47:8 54:7 55:8 60:8 61:12 62:15 63:6 #
0.50000003576649798553432901826454 4:1 5:11 6:10 12:5 13:16 14:16 15:2 20:6 21:16 22:16 23:2 28:12 29:16 30:16 35:7 36:16 37:16 38:8 42:6 43:16 44:16 45:16 46:9 50:2 51:12 52:12 53:16 54:11 61:12 62:11 #
0.50000003576649798553432901826454 4:9 5:15 6:10 11:2 12:16 13:16 14:16 20:15 21:16 22:16 27:2 28:16 29:16 30:12 35:14 36:16 37:16 38:12 42:4 43:16 44:16 45:16 46:11 52:12 53:16 54:16 55:4 60:14 61:15 62:10 63:2 #
0.50000003576649798553432901826454 4:3 5:14 6:5 12:6 13:16 14:13 15:1 20:8 21:16 22:13 23:1 28:9 29:16 30:11 34:5 35:14 36:16 37:16 38:12 43:2 44:9 45:16 46:16 47:4 52:5 53:16 54:16 55:8 60:3 61:13 62:14 63:5 #
-0.11435914069485425548222679026367 5:10 6:7 13:15 14:5 20:4 21:16 22:3 28:7 29:15 30:3 34:3 35:7 36:14 37:12 38:16 39:1 41:1 42:14 43:16 44:16 45:16 46:15 50:9 51:10 52:14 53:16 54:16 61:12 62:9 #
0.50000003576649798553432901826454 3:2 4:13 5:9 11:8 12:16 13:16 18:14 19:16 20:16 21:8 26:6 27:12 28:16 29:6 35:8 36:16 37:6 43:6 44:16 45:7 51:4 52:16 53:11 59:1 60:14 61:14 #
-0.09908310387464372426258307768876 2:1 3:15 4:6 10:7 11:16 12:16 18:11 19:14 20:16 26:2 27:8 28:15 35:14 36:10 42:5 43:16 44:3 50:10 51:16 52:16 53:16 54:12 55:5 58:3 59:15 60:16 61:12 62:14 63:14 #
-0.11439242906356647533350212597725 3:9 10:2 11:16 12:6 13:8 14:5 18:4 19:16 20:16 21:16 22:15 23:3 26:6 27:16 28:10 29:12 30:15 31:8 34:4 35:11 38:7 39:8 42:4 43:16 44:9 45:10 46:15 47:8 50:2 51:15 52:16 53:16 54:16 55:3 59:8 60:16 61:15 62:7 #
0.50000003576649798553432901826454 3:1 4:15 5:14 11:6 12:16 13:8 19:14 20:16 21:13 26:9 27:15 28:14 29:16 30:1 34:5 35:3 36:6 37:16 38:5 44:3 45:16 46:11 52:5 53:14 54:15 59:3 60:15 61:16 62:16 63:6 #
0.50000003576649798553432901826454 5:5 6:13 7:3 12:1 13:11 14:16 15:4 18:2 19:8 20:14 21:16 22:16 23:5 26:2 27:7 28:4 29:12 30:16 31:3 37:8 38:16 39:4 45:8 46:16 47:5 53:8 54:16 55:8 61:8 62:16 63:6 #
-0.11991805126549721915996116194947 3:7 4:14 5:3 10:3 11:16 12:16 13:12 18:10 19:15 20:10 21:16 22:16 23:2 26:8 27:16 28:16 29:16 30:10 31:2 34:4 35:16 36:15 37:2 42:4 43:16 44:16 45:4 50:3 51:16 52:16 53:15 59:9 60:16 61:15 #
-0.067348794816400839313708104327816 3:8 4:10 5:16 6:13 10:4 11:16 12:16 13:16 14:16 15:1 18:6 19:16 20:12 21:8 22:15 23:5 26:6 27:16 28:1 30:12 31:8 34:5 35:13 37:1 38:14 39:6 42:4 43:14 44:2 45:12 46:16 47:2 50:2 51:16 52:16 53:16 54:8 59:9 60:12 61:7 #
-0.066815133481400390547122469797614 3:7 4:16 5:6 6:5 11:16 12:12 13:9 14:14 15:1 18:4 19:15 22:16 23:2 26:4 27:14 30:15 31:3 34:5 35:12 37:3 38:14 42:3 43:16 45:6 46:10 50:1 51:15 52:6 53:16 54:3 59:8 60:15 61:8 #
0.50000003576649798553432901826454 3:6 4:11 5:4 11:12 12:16 13:14 19:12 20:16 21:6 22:1 27:5 28:16 29:16 30:5 35:12 36:16 37:16 38:4 43:12 44:16 45:16 46:9 51:13 52:16 53:16 54:12 59:8 60:12 61:11 62:6 #
0.50000003576649798553432901826454 4:3 5:13 6:14 7:1 11:3 12:15 13:16 14:16 18:5 19:16 20:16 21:16 22:14 28:4 29:16 30:14 36:4 37:16 38:14 44:4 45:16 46:10 52:4 53:16 54:8 60:2 61:12 62:16 63:5 #
0.50000003576649798553432901826454 4:13 5:9 11:8 12:16 13:13 18:4 19:16 20:16 21:15 22:1 27:3 28:10 29:16 30:4 36:14 37:16 38:3 44:15 45:16 46:3 51:5 52:16 53:16 54:10 60:10 61:12 62:11 63:1 #
-0.14310889245660701751816645810322 3:2 4:12 5:13 10:3 11:15 12:13 13:16 18:10 19:13 20:1 21:16 27:1 28:4 29:16 36:6 37:13 44:9 45:10 46:7 47:8 52:14 53:15 54:15 55:3 60:15 61:12 62:3 #
-0.12603730267930324249192608476733 2:2 3:4 4:7 5:13 6:15 7:2 10:14 11:16 12:16 13:15 14:16 15:5 18:1 19:4 21:14 22:14 29:16 30:12 36:3 37:16 38:7 44:5 45:16 46:7 52:5 53:16 54:6 60:7 61:16 62:9 #
-0.09939503047125540502459983827066 4:9 5:12 6:5 12:16 13:9 14:15 15:2 20:16 21:6 22:16 23:4 28:4 29:16 30:16 31:8 37:2 38:15 39:4 46:10 47:7 51:16 52:11 53:3 54:13 55:4 59:3 60:6 61:13 62:15 63:2 #
0.50000003576649798553432901826454 4:2 5:15 6:4 12:7 13:16 14:5 19:8 20:16 21:14 22:1 26:7 27:16 28:16 29:12 34:2 35:8 36:14 37:12 44:9 45:13 52:6 53:16 54:13 55:2 60:2 61:12 62:13 63:2 #
0.50000003576649798553432901826454 4:7 5:12 6:5 11:5 12:16 13:16 14:12 19:12 20:16 21:16 22:15 27:8 28:16 29:16 30:15 35:10 36:16 37:16 38:10 43:6 44:16 45:16 46:10 52:13 53:16 54:6 60:8 61:6 #
0.50000003576649798553432901826454 3:9 4:16 5:12 6:3 11:9 12:16 13:16 14:7 19:8 20:16 21:14 22:2 27:14 28:16 29:14 35:15 36:16 37:16 38:1 42:2 43:15 44:16 45:14 46:1 51:14 52:16 53:8 59:12 60:16 61:10 #
-0.11857264995852007105625602889631 2:2 3:11 4:16 5:10 6:1 10:7 11:14 12:7 13:16 14:14 15:2 18:6 19:9 20:7 21:15 22:1 26:1 27:13 28:16 29:7 35:9 36:16 37:9 43:12 44:16 45:11 50:3 51:16 52:16 53:3 59:14 60:9 #
-0.13612763418507245472000022346037 3:6 4:13 5:16 6:3 10:1 11:15 12:16 13:16 14:9 19:3 20:4 21:16 22:7 28:5 29:16 30:6 35:9 36:16 37:16 38:4 39:1 43:14 44:16 45:16 46:16 47:6 51:9 52:16 53:9 54:5 59:9 60:13 61:2 #
-0.087647137553693882372485290943587 3:7 4:13 5:6 10:3 11:16 12:8 13:13 18:2 19:14 20:8 27:6 28:16 29:16 30:14 31:6 34:1 35:14 36:14 37:13 39:1 42:4 43:16 44:2 45:13 46:6 50:1 51:15 52:4 53:4 54:13 59:5 60:14 61:16 62:10 #
0.50000003576649798553432901826454 5:11 6:15 7:2 12:9 13:16 14:16 15:3 18:1 19:10 20:16 21:16 22:12 26:9 27:16 28:16 29:16 30:13 34:11 35:14 36:8 37:16 38:9 45:16 46:12 53:15 54:13 61:12 62:10 #
0.50000003576649798553432901826454 3:4 4:15 5:9 6:1 11:11 12:16 13:16 14:9 19:1 20:10 21:16 22:11 28:8 29:16 30:12 36:11 37:16 38:10 43:1 44:16 45:16 46:7 51:5 52:16 53:16 54:12 59:5 60:16 61:14 62:6 #
0.50000003576649798553432901826454 5:6 6:16 7:4 13:9 14:16 15:8 19:1 20:5 21:16 22:16 23:8 26:8 27:16 28:16 29:16 30:16 31:6 34:5 35:12 36:12 37:12 38:16 39:4 45:9 46:16 47:5 53:8 54:16 55:4 61:5 62:16 63:2 #
-0.17208464555534605522346680572809 4:1 5:13 6:13 11:5 12:15 13:15 14:16 18:3 19:15 20:8 21:7 22:14 26:11 27:15 28:9 29:15 30:16 31:9 34:8 35:16 36:14 37:15 38:15 39:5 45:12 46:8 53:12 54:6 61:12 62:4 #
-0.066686607413095899676847011505743 3:10 4:1 11:16 18:3 19:13 26:5 27:12 28:1 29:4 30:2 34:8 35:14 36:15 37:16 38:15 39:4 42:8 43:15 44:5 45:5 46:14 47:8 50:8 51:14 52:4 53:10 54:16 55:4 58:1 59:12 60:15 61:10 62:2 #
-0.11041392851544054587442644788098 3:8 4:15 5:15 6:12 7:4 11:15 12:4 13:3 14:10 15:16 19:8 20:14 21:12 22:16 23:12 28:2 29:4 30:9 31:8 38:9 39:7 42:1 43:1 46:12 47:4 50:7 51:11 52:1 53:4 54:12 55:1 59:10 60:16 61:13 62:3 #
0.50000003576649798553432901826454 3:1 4:16 5:15 6:5 11:9 12:16 13:16 14:12 18:2 19:16 20:16 21:16 22:7 27:12 28:16 29:16 30:2 35:8 36:16 37:16 38:5 43:15 44:16 45:16 46:11 51:15 52:16 53:16 54:16 55:8 59:2 60:10 61:15 62:11 63:4 #
0.50000003576649798553432901826454 3:5 4:16 5:10 11:8 12:16 13:12 19:8 20:16 21:9 26:5 27:15 28:16 29:8 34:3 35:12 36:16 37:9 44:13 45:16 46:2 52:9 53:16 54:11 55:2 59:4 60:16 61:16 62:16 63:11 #
0.50000003576649798553432901826454 4:3 5:16 6:7 11:2 12:12 13:16 14:12 18:6 19:15 20:16 21:16 22:8 26:12 27:15 28:6 29:16 30:7 35:2 37:15 38:9 45:16 46:7 52:2 53:16 54:9 60:2 61:15 62:10 #
-0.09427581966169618077344694029307 3:2 4:10 5:12 6:14 7:16 8:12 11:8 12:16 13:16 14:16 15:14 16:4 19:2 20:16 21:12 22:4 27:1 28:16 29:15 30:2 36:8 37:16 38:11 45:13 46:16 52:7 53:16 54:11 59:1 60:16 61:11 62:1 #
-0.073045439175597526304528628315893 3:6 4:16 5:3 11:13 12:13 18:1 19:16 20:8 26:6 27:16 28:1 34:8 35:14 36:6 37:9 38:6 42:7 43:16 44:15 45:12 46:14 47:12 50:2 51:16 52:9 54:1 55:16 56:3 59:5 60:15 61:16 62:16 63:14 64:1 #
-0.110506700035906041401645438782 3:7 4:16 5:14 6:2 11:13 12:13 13:9 14:13 19:11 20:10 22:14 23:5 27:5 28:14 30:12 31:9 38:12 39:8 45:4 46:16 47:5 51:2 52:8 53:14 54:15 59:8 60:16 61:16 62:16 63:16 64:4 #
0.50000003576649798553432901826454 5:5 6:14 7:3 13:11 14:16 15:8 20:6 21:16 22:16 23:2 27:7 28:16 29:16 30:16 34:3 35:16 36:14 37:14 38:16 42:4 43:12 44:4 45:13 46:15 53:14 54:16 61:6 62:16 63:1 #
0.50000003576649798553432901826454 4:11 5:15 6:4 10:3 11:7 12:16 13:16 14:8 18:12 19:16 20:16 21:16 22:5 26:3 27:8 28:13 29:16 30:5 36:8 37:16 38:10 44:8 45:16 46:14 47:1 52:10 53:16 54:16 55:2 60:6 61:14 62:12 63:5 #
0.50000003576649798553432901826454 4:4 5:16 6:9 12:11 13:16 14:9 19:6 20:16 21:16 22:3 26:7 27:15 28:16 29:16 30:2 34:9 35:16 36:13 37:15 44:10 45:13 52:10 53:15 60:6 61:16 62:6 #
-0.12098052023431539458986350155101 3:15 4:2 10:5 11:16 12:15 13:11 14:5 18:7 19:16 20:15 21:12 22:13 23:4 26:1 27:15 28:7 35:5 36:16 37:5 44:10 45:14 51:1 52:12 53:15 59:11 60:16 61:6 #
-0.11139829467906203763760686342721 4:8 5:15 6:4 12:13 13:16 14:13 18:1 19:1 20:10 21:3 22:13 23:6 26:5 27:8 30:6 31:8 34:7 35:11 38:4 39:8 42:3 43:15 44:7 46:4 47:9 51:7 52:16 53:13 54:11 55:12 60:6 61:15 62:16 63:4 #
-0.11295253705925732690129592583617 4:1 5:12 6:4 12:9 13:14 19:2 20:16 21:5 27:5 28:16 29:9 30:2 34:2 35:16 36:16 37:13 38:16 39:8 43:9 44:15 46:2 47:15 52:15 53:8 54:8 55:16 56:3 60:3 61:11 62:13 63:10 #
0.50000003576649798553432901826454 3:9 4:12 5:10 6:5 10:5 11:16 12:16 13:16 14:13 18:1 19:16 20:16 21:16 22:16 27:8 28:16 29:16 30:16 31:3 35:4 36:16 37:16 38:16 39:4 43:2 44:16 45:16 46:16 47:1 51:9 52:16 53:16 54:16 55:1 59:5 60:12 61:12 62:5 #
0.50000003576649798553432901826454 3:7 4:16 5:4 11:9 12:16 13:6 18:1 19:13 20:16 21:6 26:9 27:16 28:16 29:11 34:8 35:6 36:10 37:16 38:1 44:2 45:16 46:11 51:1 52:7 53:16 54:16 55:7 59:4 60:15 61:16 62:15 63:15 64:3 #
0.50000003576649798553432901826454 3:1 4:8 5:12 6:7 11:7 12:16 13:16 14:16 15:10 19:5 20:16 21:16 22:16 23:5 27:5 28:16 29:16 30:15 31:1 35:4 36:16 37:16 38:16 39:4 43:9 44:16 45:16 46:16 51:9 52:16 53:16 54:14 59:2 60:10 61:12 62:9 #
-0.10358486902755929814912150277451 3:4 4:14 5:10 6:6 11:12 12:16 13:16 14:16 15:4 18:7 19:16 20:4 21:15 22:16 23:4 26:7 27:16 28:16 29:16 30:16 31:4 35:5 36:8 37:14 38:16 39:5 45:12 46:16 47:2 51:6 52:16 53:16 54:9 59:5 60:16 61:11 #
-0.093966275133957694043473907186126 3:8 4:13 5:16 6:14 10:3 11:16 12:10 13:16 14:13 19:2 20:11 21:16 22:6 27:2 28:16 29:15 30:8 35:1 36:13 37:16 38:16 39:7 44:1 45:8 46:16 47:7 51:5 52:16 53:16 54:11 59:9 60:14 61:5 #
-0.11426988334373246181119299080819 4:9 5:14 6:14 7:1 10:2 11:15 12:16 13:16 14:11 15:1 18:6 19:16 20:15 21:5 26:12 27:16 28:9 29:1 34:3 35:13 36:16 37:13 38:2 44:3 45:13 46:15 52:11 53:10 54:16 55:7 60:10 61:16 62:15 63:1 #
0.50000003576649798553432901826454 3:1 4:15 5:13 6:1 11:8 12:16 13:16 14:8 17:3 18:13 19:16 20:16 21:16 22:6 26:9 27:8 28:9 29:16 30:6 36:10 37:16 38:1 44:12 45:16 52:16 53:14 54:1 60:12 61:16 62:1 #
0.48287463701422222994708022270061 3:2 4:14 5:12 11:4 12:16 13:12 19:5 20:16 21:6 27:6 28:16 29:6 35:9 36:16 37:5 43:10 44:16 45:4 51:8 52:16 53:7 59:2 60:14 61:16 62:3 #
0.50000003576649798553432901826454 4:5 5:8 6:3 11:15 12:16 13:16 14:16 19:16 20:16 21:16 22:13 27:16 28:16 29:16 30:5 35:16 36:16 37:16 38:9 43:16 44:16 45:16 46:4 51:15 52:16 53:16 54:10 59:2 60:8 61:8 62:7 #
-0.082923801260656598843823417155363 2:1 3:13 4:16 5:16 6:11 10:6 11:16 12:7 13:8 14:6 18:4 19:16 20:3 21:4 22:3 26:5 27:16 28:16 29:16 30:16 31:3 34:8 35:13 36:5 38:11 39:12 46:10 47:11 50:2 51:11 52:4 53:6 54:16 55:4 58:1 59:15 60:16 61:16 62:8 #
-0.092446220151053581925992830292671 4:1 5:14 6:10 12:9 13:15 14:2 19:1 20:14 21:5 23:2 27:11 28:9 30:8 31:14 34:7 35:14 38:14 39:10 41:4 42:16 43:15 44:11 45:9 46:16 47:4 49:1 50:12 51:14 52:16 53:16 54:12 61:14 62:6 #
-0.099929150052917234403615509563679 3:4 4:14 5:15 6:5 10:7 11:14 12:7 13:6 14:16 18:10 19:6 22:11 23:3 26:4 27:2 29:1 30:14 37:10 38:7 44:5 45:13 46:1 51:6 52:16 53:8 59:5 60:9 61:12 62:12 63:16 64:2 #
0.50000003576649798553432901826454 3:11 4:16 5:10 11:3 12:16 13:16 14:9 20:14 21:16 22:9 27:2 28:16 29:16 30:4 35:7 36:16 37:16 38:3 43:8 44:16 45:13 46:1 51:12 52:16 53:12 59:9 60:14 61:16 #
0.50000003576649798553432901826454 4:3 5:14 6:12 11:1 12:11 13:16 14:14 19:8 20:16 21:16 22:14 26:6 27:16 28:16 29:16 30:10 34:1 35:5 36:16 37:16 38:8 44:15 45:16 46:9 52:10 53:16 54:14 55:5 60:2 61:15 62:15 63:7 #
0.50000003576649798553432901826454 5:3 6:14 7:1 12:1 13:14 14:15 20:9 21:16 22:10 27:9 28:16 29:16 30:8 34:4 35:16 36:7 37:16 38:8 42:1 43:4 45:15 46:10 53:11 54:12 61:3 62:15 63:3 #
-0.09890986348634951685898641926542 3:5 4:16 5:1 11:11 12:11 15:6 16:5 19:14 20:7 22:2 23:15 24:6 26:3 27:16 28:10 29:1 30:12 31:12 35:14 36:16 37:16 38:16 39:4 43:1 44:11 45:16 46:7 52:13 53:10 59:7 60:15 61:1 #
-0.11922877473520188118527585174888 3:2 4:6 5:12 6:16 7:16 8:2 10:2 11:15 12:16 13:9 14:5 15:16 16:5 19:5 20:1 22:2 23:16 24:2 30:8 31:10 37:4 38:16 39:7 43:10 44:13 45:16 46:13 47:1 51:9 52:13 53:16 54:1 60:7 61:12 #
-0.10516800375690694979713413204081 3:2 4:12 5:16 6:7 12:10 13:16 14:3 20:3 21:15 22:5 29:6 30:15 31:3 38:8 39:14 46:11 47:16 52:3 53:13 54:16 55:9 59:6 60:16 61:12 62:8 63:1 #
0.50000003576649798553432901826454 4:15 5:12 6:5 11:4 12:16 13:16 14:8 19:9 20:16 21:15 22:3 26:1 27:16 28:16 29:9 34:6 35:16 36:16 37:9 43:11 44:16 45:11 51:4 52:16 53:14 54:1 60:13 61:16 #
0.50000003576649798553432901826454 3:3 4:13 5:9 6:2 11:5 12:16 13:16 14:7 19:10 20:16 21:16 26:1 27:15 28:16 29:14 30:1 34:6 35:16 36:16 37:14 43:12 44:16 45:10 51:7 52:16 53:14 59:3 60:15 61:16 62:12 #
0.50000003576649798553432901826454 4:10 5:13 6:3 12:16 13:16 14:8 19:4 20:16 21:16 22:7 26:2 27:15 28:16 29:16 30:10 34:6 35:16 36:16 37:16 38:13 44:8 45:16 46:14 52:11 53:16 54:16 55:1 60:12 61:12 62:7 #
-0.37806202196680177562981839400891 3:2 4:16 5:15 6:4 11:10 12:15 13:11 14:11 19:10 20:12 21:15 22:10 27:7 28:16 29:14 30:2 35:12 36:16 37:7 43:14 44:7 45:15 46:1 51:11 52:7 53:13 54:7 59:2 60:14 61:15 62:7 #
-0.16189114778393587368299222362111 4:12 5:15 6:5 11:3 12:13 13:9 14:16 18:12 19:14 20:10 21:1 22:14 23:4 26:3 27:12 28:13 29:11 30:13 35:2 36:10 37:16 38:9 44:5 45:16 46:8 52:13 53:16 54:9 60:12 61:12 62:2 #
-0.064182627386809437686210344509163 2:4 3:16 4:16 5:16 6:8 11:4 12:2 13:11 14:12 20:3 21:15 22:6 26:2 27:4 28:11 29:15 30:1 34:10 35:16 36:16 37:16 38:16 39:9 42:1 43:12 44:12 45:4 46:4 47:2 50:2 51:16 52:2 58:7 59:14 #
0.50000003576649798553432901826454 3:2 4:11 5:14 6:5 12:10 13:16 14:16 20:10 21:16 22:16 23:4 28:12 29:16 30:15 31:1 35:1 36:14 37:16 38:13 43:1 44:16 45:16 46:9 51:11 52:16 53:16 54:5 59:6 60:13 61:14 #
0.50000003576649798553432901826454 4:6 5:16 6:6 12:12 13:16 14:13 19:9 20:16 21:16 22:16 26:8 27:16 28:16 29:16 30:13 35:4 36:3 37:16 38:14 44:3 45:16 46:13 52:4 53:16 54:16 55:2 60:4 61:16 62:11 63:2 #
0.50000003576649798553432901826454 2:2 3:8 4:9 5:6 11:6 12:16 13:16 14:14 15:1 19:4 20:16 21:16 22:16 23:4 27:4 28:16 29:16 30:16 31:4 35:4 36:16 37:16 38:16 39:3 43:7 44:16 45:16 46:12 50:1 51:14 52:16 53:16 54:11 58:2 59:10 60:9 61:5 62:1 #
-0.081497048404163843771108588498464 3:5 4:16 5:14 6:3 11:9 12:15 13:10 14:11 20:4 21:8 22:13 29:14 30:10 36:4 37:16 38:5 44:13 45:16 46:5 51:4 52:16 53:16 54:16 55:14 56:8 59:4 60:16 61:12 62:8 63:9 64:13 #
-0.088841014243559293661611775405618 2:3 3:16 4:16 5:16 6:16 7:14 10:9 11:15 12:9 13:7 14:3 15:2 18:10 19:12 26:10 27:16 28:15 29:9 34:1 35:8 36:9 37:16 38:7 45:10 46:12 50:5 51:7 53:8 54:14 58:4 59:16 60:16 61:16 62:8 #
-0.071442917360484789468522137667605 4:9 5:10 11:2 12:15 13:9 19:6 20:16 21:6 27:13 28:13 29:5 30:1 34:3 35:16 36:7 37:16 38:8 41:1 42:13 43:16 44:10 45:16 46:12 50:13 51:16 52:16 53:16 54:16 55:3 58:2 59:4 60:10 61:16 62:2 #
0.50000003576649798553432901826454 3:12 4:16 5:14 6:4 10:2 11:16 12:16 13:16 14:6 19:12 20:16 21:16 22:4 27:15 28:16 29:16 30:5 35:16 36:16 37:16 38:4 42:4 43:16 44:16 45:15 46:3 50:1 51:14 52:16 53:16 54:5 59:10 60:16 61:16 62:10 #
0.50000003576649798553432901826454 3:1 4:10 5:9 11:7 12:16 13:14 18:4 19:14 20:16 21:15 26:12 27:14 28:16 29:16 36:15 37:16 38:2 44:14 45:16 46:2 52:12 53:15 60:6 61:16 62:2 #
0.50000003576649798553432901826454 4:4 5:12 6:13 7:2 11:2 12:13 13:16 14:15 18:4 19:16 20:16 21:16 22:9 26:3 27:10 28:15 29:16 30:6 36:13 37:16 44:14 45:16 46:1 52:9 53:16 54:10 60:2 61:15 62:13 63:1 #
-0.10404929044387291325879374426222 3:9 4:14 5:12 6:8 10:8 11:13 13:2 14:16 15:2 18:11 19:14 20:14 21:14 22:6 26:1 27:14 28:16 29:13 30:1 34:3 35:15 36:4 37:6 38:12 42:1 43:15 46:8 47:9 50:3 51:16 52:1 53:3 54:13 55:6 59:8 60:16 61:13 62:6 #
-0.076580974921949263034548494033515 3:15 4:15 5:2 10:4 11:16 12:11 13:13 14:1 18:3 19:15 20:5 21:15 22:6 27:3 28:1 29:8 30:12 37:6 38:15 45:9 46:12 51:5 52:9 53:16 54:10 55:1 59:13 60:16 61:16 62:16 63:16 64:6 #
-0.086568215193290984355023454099864 3:5 4:13 5:12 6:1 10:2 11:15 12:5 13:6 14:7 18:6 19:9 22:16 23:4 26:6 27:10 30:14 31:6 35:9 36:13 37:14 38:12 39:9 47:12 51:3 54:3 55:14 59:5 60:12 61:13 62:14 63:5 #
0.50000003576649798553432901826454 3:3 4:8 5:6 6:1 10:2 11:15 12:16 13:16 14:12 19:13 20:16 21:16 22:13 27:10 28:16 29:16 30:16 35:12 36:16 37:16 38:16 43:14 44:16 45:16 46:16 47:2 51:12 52:16 53:16 54:15 55:2 59:1 60:6 61:6 #
0.4275988474652876458748096411 3:10 4:16 5:14 6:5 11:7 12:16 13:16 14:5 19:3 20:16 21:16 22:9 27:3 28:16 29:16 30:13 35:2 36:16 37:16 38:16 43:2 44:16 45:16 46:16 47:2 51:6 52:16 53:16 54:14 55:2 59:4 60:15 61:16 62:6 #
0.50000003576649798553432901826454 5:14 6:15 7:2 12:6 13:16 14:16 15:4 19:3 20:13 21:16 22:16 26:1 27:13 28:16 29:16 30:16 31:3 34:9 35:16 36:6 37:14 38:16 42:2 43:4 45:14 46:15 53:16 54:12 61:14 62:13 #
-0.16713874416574878156716010835225 5:11 6:12 12:8 13:16 14:4 19:2 20:16 21:12 22:1 26:4 27:15 28:16 29:13 30:14 31:11 34:13 35:16 36:16 37:16 38:16 39:10 45:10 46:16 47:6 53:11 54:16 55:2 61:14 62:13 #
-0.14902906157837908507346469377808 4:5 5:15 11:1 12:15 13:11 19:3 20:16 21:16 22:7 27:10 28:15 29:13 30:12 34:1 35:15 36:14 37:15 38:16 39:9 42:8 43:16 44:16 45:16 46:14 47:6 50:2 51:10 52:10 53:16 54:7 60:6 61:15 62:2 #
-0.096394668613344641761031539317628 3:1 4:14 5:13 11:6 12:16 13:8 19:12 20:9 27:14 28:10 29:16 30:12 31:1 34:1 35:16 36:10 37:14 38:8 39:13 43:13 44:9 45:10 47:12 48:4 51:8 52:10 54:5 55:16 56:5 59:1 60:11 61:16 62:16 63:11 #
0.50000003576649798553432901826454 4:10 5:14 6:6 12:8 13:16 14:10 15:1 20:11 21:16 22:6 27:6 28:16 29:16 30:4 34:4 35:12 36:14 37:16 38:4 44:8 45:16 46:4 52:11 53:16 54:5 60:6 61:16 62:16 63:7 #
0.50000003576649798553432901826454 3:4 4:15 5:11 6:1 10:2 11:13 12:16 13:16 18:2 19:12 20:16 21:12 28:14 29:14 36:15 37:14 44:16 45:13 51:3 52:16 53:15 59:2 60:15 61:16 62:1 #
0.50000003576649798553432901826454 4:11 5:13 11:5 12:15 13:13 18:3 19:16 20:16 21:10 27:7 28:16 29:10 36:15 37:10 44:15 45:8 52:16 53:6 60:12 61:11 #
-0.086122909588843499228971722914139 3:10 4:16 5:16 6:16 7:15 8:4 11:10 12:12 13:8 14:11 15:16 16:7 21:1 22:12 23:14 24:1 28:1 29:13 30:13 31:1 36:13 37:12 38:1 43:6 44:14 45:3 51:10 52:10 59:14 60:2 #
-0.11214642642648936510241242103803 3:1 4:12 5:15 6:6 11:5 12:13 13:1 14:12 19:2 20:11 21:1 22:15 28:10 29:11 30:9 36:6 37:16 38:6 43:10 44:15 45:4 46:13 47:3 51:12 52:2 54:1 55:14 59:1 60:10 61:10 62:8 63:15 64:1 #
-0.079909428300596233030184123435902 2:1 3:10 4:16 5:16 6:15 7:2 10:9 11:16 12:11 13:4 14:16 15:11 18:6 19:16 20:15 21:12 22:16 23:7 27:4 28:9 29:16 30:14 31:1 36:1 37:15 38:8 44:13 45:15 46:2 51:9 52:16 53:5 58:3 59:16 60:7 #
0.50000003576649798553432901826454 4:1 5:13 6:12 7:1 12:6 13:16 14:14 15:1 18:8 19:12 20:16 21:16 22:11 26:4 27:8 28:9 29:16 30:15 37:16 38:15 45:13 46:16 47:3 53:12 54:16 55:4 61:11 62:16 63:5 #
0.50000003576649798553432901826454 4:7 5:13 6:3 11:1 12:15 13:16 14:15 18:9 19:16 20:16 21:16 22:16 23:2 26:4 27:8 28:12 29:16 30:10 36:11 37:16 38:13 44:7 45:16 46:15 52:6 53:16 54:16 55:2 60:6 61:16 62:16 63:7 #
0.50000003576649798553432901826454 4:2 5:13 6:11 11:4 12:11 13:16 14:16 15:6 18:2 19:15 20:16 21:16 22:14 27:3 28:10 29:16 30:12 36:12 37:16 38:10 44:6 45:16 46:8 52:4 53:16 54:13 60:3 61:14 62:15 #
-0.11699151737445441512353028201687 3:5 4:9 5:13 6:8 11:4 12:16 13:15 14:3 19:13 20:14 21:2 22:6 23:3 26:5 27:16 28:5 29:11 30:16 31:8 34:7 35:16 36:16 37:16 38:14 39:1 42:3 43:8 44:16 45:16 46:4 51:5 52:16 53:10 59:10 60:12 61:3 #
-0.11519816657989286057262035001258 4:6 5:10 6:14 11:10 12:16 13:16 14:16 15:6 18:1 19:16 20:10 21:4 22:15 23:11 26:1 27:12 28:5 30:9 31:9 35:8 36:9 38:8 39:8 43:9 44:16 45:16 46:16 47:4 51:2 52:16 53:16 54:14 55:2 60:6 61:10 62:3 #
-0.089527971786956608846175242888421 3:3 4:16 11:10 12:10 13:3 14:5 19:16 20:5 21:12 22:10 26:4 27:15 28:2 29:15 30:4 34:10 35:13 36:9 37:15 38:10 39:11 42:3 43:14 44:16 45:14 46:8 47:2 52:15 53:6 59:3 60:15 #
0.50000003576649798553432901826454 3:3 4:16 5:9 6:1 11:12 12:16 13:16 14:1 19:15 20:16 21:10 27:14 28:16 29:5 35:13 36:16 37:4 43:13 44:16 45:4 51:9 52:16 53:5 59:2 60:16 61:6 #
0.50000003576649798553432901826454 3:2 4:11 5:16 6:7 11:8 12:16 13:16 14:2 18:2 19:16 20:16 21:16 27:5 28:16 29:16 35:2 36:16 37:16 38:1 43:8 44:16 45:16 46:3 51:9 52:16 53:16 54:13 59:2 60:12 61:13 62:9 #
0.33166602250641258331498306688445 3:1 4:12 5:12 6:11 11:12 12:16 13:16 14:7 19:12 20:16 21:16 22:4 27:12 28:16 29:16 35:12 36:16 37:16 38:4 43:7 44:16 45:16 46:7 51:4 52:16 53:16 54:15 55:1 59:3 60:10 61:10 62:4 #
-0.15901003985570599796872670594894 3:1 4:8 5:14 6:13 7:2 10:2 11:13 12:12 13:8 14:15 15:2 18:6 19:15 20:2 21:11 22:6 27:5 28:14 29:15 30:1 36:12 37:13 44:15 45:15 46:5 52:16 53:9 54:15 60:9 61:16 62:10 #
-0.14120153733471402235366554123175 3:9 4:16 5:6 10:2 11:14 12:16 13:16 14:8 15:3 19:14 20:16 21:16 22:16 23:11 27:14 28:16 29:12 30:5 31:1 35:9 36:16 37:5 43:15 44:16 45:5 51:16 52:16 53:8 59:10 60:13 61:1 #
-0.11938543919183461361477327500324 3:9 4:12 5:2 10:3 11:16 12:16 13:16 14:16 15:3 18:4 19:15 20:13 21:14 22:16 23:6 26:2 27:15 28:11 29:16 30:11 31:1 34:1 35:14 36:16 37:11 42:5 43:14 44:6 45:16 46:5 50:7 51:15 52:8 53:13 54:16 58:1 59:7 60:11 61:16 62:13 #
0.50000003576649798553432901826454 3:6 4:12 5:12 6:9 11:11 12:16 13:16 14:13 19:9 20:16 21:16 22:12 27:14 28:16 29:16 30:12 35:12 36:16 37:16 38:12 42:2 43:16 44:16 45:16 46:9 50:1 51:15 52:16 53:15 54:2 59:7 60:11 61:3 #
0.50000003576649798553432901826454 3:1 4:10 5:12 6:11 7:5 11:8 12:16 13:16 14:16 15:3 19:13 20:16 21:16 22:11 26:1 27:16 28:16 29:16 30:12 34:2 35:16 36:16 37:16 38:10 42:2 43:16 44:16 45:16 46:6 51:7 52:16 53:16 54:8 59:2 60:11 61:12 62:4 #
0.50000003576649798553432901826454 5:2 6:14 7:4 12:1 13:11 14:16 15:5 19:6 20:14 21:16 22:16 23:1 26:5 27:16 28:12 29:16 30:13 34:3 35:10 37:14 38:13 45:15 46:14 53:8 54:16 55:1 61:4 62:15 #
-0.088108494256242939068890507314791 3:4 4:15 5:15 6:16 7:16 8:15 11:5 12:12 13:12 14:11 15:16 16:11 22:7 23:16 24:3 27:2 28:11 29:16 30:16 31:14 35:14 36:12 37:16 38:13 43:6 44:4 45:15 46:1 51:1 52:12 53:10 59:8 60:14 61:1 #
-0.093873004489075706491263417774462 5:8 6:16 7:11 12:13 13:9 14:8 15:14 16:1 19:10 20:8 22:5 23:16 24:4 26:2 27:15 28:8 29:14 30:14 31:12 34:2 35:12 36:9 37:2 38:10 39:6 45:2 46:14 53:9 54:7 61:13 62:1 #
-0.10705901288228661383250539529399 3:11 4:16 5:8 10:5 11:16 12:12 13:15 18:10 19:12 20:9 21:11 26:7 27:15 28:15 29:6 35:14 36:16 37:11 38:1 42:1 43:14 44:11 45:12 46:15 47:3 50:7 51:16 52:2 54:11 55:12 58:1 59:10 60:15 61:16 62:16 63:6 #
0.50000003576649798553432901826454 3:1 4:16 5:12 6:1 12:16 13:16 14:5 19:2 20:16 21:16 22:7 27:4 28:16 29:16 35:9 36:16 37:12 43:13 44:16 45:8 51:10 52:16 53:10 59:2 60:15 61:16 62:5 #
0.50000003576649798553432901826454 4:2 5:16 6:12 12:6 13:16 14:15 20:11 21:16 22:11 26:1 27:8 28:16 29:16 30:11 34:9 35:16 36:16 37:16 38:10 42:1 43:8 44:8 45:16 46:8 52:4 53:16 54:9 60:1 61:16 62:10 #
0.42060427477465589518601518648211 4:6 5:13 6:6 12:12 13:16 14:13 19:10 20:16 21:16 22:10 26:5 27:16 28:16 29:16 30:7 34:2 35:5 36:13 37:16 38:4 44:9 45:16 46:4 52:12 53:16 54:1 60:8 61:14 62:2 #
-0.11839185552187993233363982881201 4:12 5:16 6:10 11:10 12:15 13:15 14:13 19:9 20:6 21:16 22:7 28:8 29:15 30:3 35:5 36:16 37:6 42:8 43:15 44:16 45:3 49:5 50:16 51:16 52:16 53:16 54:6 57:1 58:4 59:4 60:9 61:16 62:11 #
-0.12448756827273614600226636639491 2:1 3:6 4:11 5:16 6:6 11:5 12:13 13:11 14:16 15:6 19:4 20:16 21:8 27:5 28:15 34:1 35:13 36:10 37:4 42:6 43:10 44:4 45:8 50:8 51:7 52:12 53:7 58:2 59:13 60:14 #
-0.053389936180182784308811960727326 3:4 4:13 5:4 10:2 11:13 12:16 13:15 14:1 18:9 19:16 20:5 21:10 22:9 26:11 27:16 28:1 29:1 30:14 31:1 34:6 35:16 36:3 38:6 39:9 42:2 43:16 44:2 46:5 47:11 51:12 52:12 53:8 54:15 55:9 59:2 60:12 61:13 62:9 63:1 #
0.37128763759094091101431445167691 2:1 3:8 4:15 5:10 10:4 11:16 12:16 13:16 14:9 19:12 20:16 21:16 22:12 27:10 28:16 29:16 30:8 35:8 36:16 37:16 38:10 43:9 44:16 45:16 46:13 51:8 52:16 53:16 54:12 59:5 60:15 61:16 62:9 63:1 #
0.50000003576649798553432901826454 5:8 6:11 7:1 13:10 14:16 15:4 20:8 21:16 22:16 27:6 28:15 29:16 30:16 34:5 35:15 36:8 37:16 38:14 45:13 46:15 53:12 54:16 55:1 61:7 62:15 63:9 #
0.50000003576649798553432901826454 4:1 5:12 6:12 12:2 13:16 14:16 15:2 20:4 21:16 22:16 26:6 27:16 28:16 29:16 30:13 34:1 35:12 36:14 37:16 38:12 45:16 46:15 53:15 54:16 55:2 61:8 62:13 63:5 #
-0.059361916560609621906774435728948 2:1 3:9 4:15 5:16 6:13 10:5 11:11 12:4 13:2 14:13 15:3 18:1 19:3 21:1 22:15 23:3 29:11 30:11 36:11 37:11 43:7 44:14 45:1 51:15 52:6 59:11 60:16 61:16 62:15 63:6 #
-0.10734612813604763048580537088128 4:13 5:13 6:1 11:11 12:14 13:15 14:8 18:6 19:16 20:3 21:10 22:7 26:8 27:16 28:4 29:12 30:8 34:1 35:3 36:4 37:15 38:1 43:2 44:13 45:12 51:11 52:16 53:16 54:12 55:7 59:3 60:9 61:8 62:11 63:13 #
-0.090774445615692977984423350790166 3:11 4:12 5:12 6:13 7:16 8:8 11:9 12:12 13:12 14:13 15:16 16:4 21:2 22:16 23:11 29:13 30:14 31:1 37:14 38:14 45:6 46:16 47:6 51:1 52:4 53:9 54:16 55:4 59:14 60:16 61:15 62:6 #
0.50000003576649798553432901826454 4:11 5:12 6:6 11:4 12:16 13:16 14:16 19:9 20:16 21:16 22:16 27:13 28:16 29:16 30:16 31:4 35:5 36:16 37:16 38:16 39:4 43:1 44:16 45:16 46:16 47:2 51:2 52:16 53:16 54:16 55:5 60:5 61:11 62:9 63:2 #
0.50000003576649798553432901826454 3:1 4:15 5:11 11:9 12:16 13:16 14:1 18:8 19:16 20:16 21:15 25:1 26:16 27:16 28:16 29:14 34:4 35:6 36:15 37:15 43:2 44:16 45:12 51:1 52:16 53:13 60:14 61:12 #
0.50000003576649798553432901826454 4:1 5:16 6:14 7:1 12:10 13:16 14:14 18:3 19:9 20:16 21:16 22:3 26:5 27:16 28:16 29:16 30:4 36:14 37:16 38:4 44:9 45:16 46:8 52:5 53:16 54:12 60:2 61:15 62:14 63:2 #
-0.059609656206293520908090499688115 3:8 4:15 5:14 6:6 10:4 11:16 12:5 13:6 14:16 15:3 18:7 19:16 20:2 21:3 22:16 23:8 26:2 27:14 28:16 29:16 30:16 31:8 36:2 38:9 39:8 45:5 46:16 47:2 52:8 53:14 54:5 59:9 60:8 61:1 #
-0.1323869606598624681925713275632 3:7 4:14 5:7 11:15 12:14 13:16 14:3 19:15 20:12 21:16 22:6 27:6 28:16 29:16 30:4 35:8 36:16 37:16 38:11 43:15 44:12 45:3 46:16 47:8 50:2 51:15 52:11 53:8 54:16 55:10 59:9 60:16 61:16 62:12 63:6 #
-0.10404659475520355860211907383928 2:1 3:12 4:16 5:14 6:5 10:3 11:13 12:9 13:16 14:12 19:1 20:11 21:16 22:6 27:8 28:16 29:9 35:3 36:15 37:13 44:2 45:15 46:9 51:3 52:8 53:12 54:16 55:3 59:14 60:16 61:16 62:16 63:7 #
0.30579301290746008223919716328965 3:2 4:16 5:11 6:1 12:16 13:16 14:2 19:1 20:16 21:16 22:6 28:15 29:16 30:3 35:1 36:15 37:16 38:2 43:2 44:16 45:15 46:1 51:1 52:16 53:14 59:2 60:16 61:8 #
0.50000003576649798553432901826454 5:15 6:5 12:5 13:16 14:9 19:1 20:15 21:16 22:5 26:6 27:13 28:16 29:16 30:7 34:7 35:16 36:10 37:16 38:6 44:2 45:16 46:6 52:2 53:16 54:6 60:1 61:15 62:12 #
0.50000003576649798553432901826454 3:9 4:11 5:4 6:1 10:1 11:16 12:16 13:16 14:1 19:16 20:16 21:16 26:1 27:15 28:16 29:16 30:4 35:14 36:16 37:16 38:4 42:1 43:16 44:16 45:16 46:7 51:16 52:16 53:16 54:8 59:6 60:12 61:12 62:7 63:2 #
-0.18338609938907496355042781033262 3:4 4:9 5:16 6:8 10:3 11:16 12:16 13:16 14:13 18:3 19:16 20:8 21:16 22:8 27:11 28:16 29:12 35:10 36:16 37:4 43:14 44:16 45:10 51:14 52:14 53:13 59:6 60:16 61:9 #
-0.095895761491612607763102005264955 3:6 4:14 5:16 6:13 10:6 11:14 12:3 14:13 15:4 18:5 19:12 21:4 22:16 23:3 27:14 28:14 29:15 30:5 34:1 35:14 36:12 37:1 42:5 43:16 44:13 45:2 50:2 51:16 52:16 53:13 59:2 60:12 61:12 #
-0.079613753977469350897600008920563 2:1 3:13 4:16 5:8 6:1 10:8 11:14 12:10 13:16 14:8 18:11 19:14 20:15 21:16 22:9 27:8 28:7 29:6 30:16 31:4 38:16 39:4 43:1 46:14 47:8 50:3 51:16 52:2 53:10 54:15 55:1 58:2 59:13 60:16 61:12 62:1 #
0.50000003576649798553432901826454 4:1 5:13 6:10 12:3 13:16 14:15 19:3 20:9 21:16 22:15 26:7 27:16 28:15 29:16 30:12 36:1 37:16 38:15 44:4 45:16 46:16 52:4 53:16 54:16 55:3 61:12 62:16 63:4 #
0.49028036617703829591619069105946 3:7 4:15 5:14 6:2 11:9 12:16 13:16 14:11 19:3 20:16 21:16 22:11 27:5 28:16 29:16 30:13 35:6 36:16 37:16 38:14 43:6 44:16 45:16 46:12 51:7 52:16 53:16 54:15 55:6 59:4 60:16 61:16 62:15 63:7 #
0.50000003576649798553432901826454 4:14 5:14 11:5 12:16 13:12 19:7 20:16 21:6 27:12 28:16 29:4 35:12 36:16 37:1 43:12 44:16 51:9 52:16 53:4 59:1 60:13 61:15 62:2 #
-0.10790835400832519963554290143293 2:2 3:16 4:10 5:9 6:8 11:10 12:16 13:16 14:12 18:1 19:5 20:10 21:16 22:10 23:6 26:11 27:16 28:16 29:16 30:15 31:7 34:3 35:5 36:14 37:9 38:2 43:6 44:16 51:10 52:10 58:3 59:16 60:1 #
-0.10681849971528933895825730360229 3:3 4:15 5:16 6:6 11:6 12:11 13:11 14:16 15:5 21:7 22:16 23:7 29:13 30:16 31:2 34:9 35:13 36:13 37:16 38:12 39:2 42:2 43:12 44:14 45:16 46:16 47:15 52:15 53:13 59:3 60:16 61:8 #
-0.11974352423638454090415450536966 2:1 3:13 4:5 10:4 11:14 18:4 19:8 21:1 22:6 23:1 26:5 27:8 28:1 29:11 30:16 31:5 34:4 35:10 36:7 37:16 38:16 39:7 42:4 43:14 44:10 45:16 46:16 47:3 50:1 51:16 52:16 53:16 54:10 59:10 60:14 61:9 62:2 #
0.50000003576649798553432901826454 3:3 4:10 5:8 6:1 11:11 12:16 13:16 14:9 18:3 19:16 20:16 21:16 22:3 26:4 27:16 28:16 29:16 30:3 34:4 35:16 36:16 37:12 42:1 43:16 44:16 45:15 51:9 52:16 53:16 59:2 60:10 61:12 62:1 #
0.39144189165421505727238127292367 3:7 4:16 5:14 6:8 11:5 12:14 13:13 14:12 19:8 20:16 21:16 22:10 27:9 28:16 29:16 30:6 35:11 36:16 37:16 38:5 42:2 43:14 44:16 45:16 46:4 50:1 51:16 52:16 53:16 54:3 59:7 60:14 61:16 62:10 63:1 #
0.50000003576649798553432901826454 4:9 5:12 6:2 11:2 12:13 13:16 14:3 19:9 20:16 21:16 22:1 26:5 27:15 28:14 29:16 30:5 34:2 35:1 36:12 37:16 38:5 44:10 45:16 46:4 52:12 53:15 54:3 60:7 61:15 62:13 63:1 #
-0.088792378290415446828731660389167 3:5 4:14 5:16 6:10 10:3 11:15 12:13 13:8 14:15 15:6 19:14 20:13 21:7 22:16 23:9 27:10 28:16 29:16 30:12 31:3 35:6 36:16 37:16 38:3 43:14 44:13 45:16 46:7 51:14 52:12 53:14 54:9 59:6 60:14 61:11 62:2 #
-0.086439536899610064368815187663131 3:9 4:16 5:16 6:16 7:7 10:5 11:16 12:13 13:6 14:2 15:1 18:11 19:15 20:14 21:8 26:6 27:15 28:12 29:16 30:8 37:10 38:15 42:1 43:13 44:3 45:5 46:15 50:3 51:16 52:9 53:15 54:9 59:8 60:16 61:14 62:1 #
-0.12232007757538157499688225016143 2:1 3:14 4:13 5:9 6:2 10:2 11:16 12:16 13:16 14:14 15:2 19:14 20:10 21:3 22:16 23:3 27:5 28:15 29:14 30:13 35:1 36:15 37:15 38:3 43:8 44:16 45:16 46:2 51:16 52:13 53:16 54:8 59:12 60:12 61:9 62:2 #
0.50000003576649798553432901826454 4:3 5:11 6:16 7:5 12:11 13:16 14:16 15:5 18:3 19:13 20:16 21:16 22:14 26:3 27:11 28:12 29:16 30:12 36:9 37:16 38:9 44:12 45:16 46:10 52:9 53:16 54:11 60:5 61:13 62:8 #
0.50000003576649798553432901826454 5:7 6:13 7:2 13:8 14:16 15:4 18:3 19:8 20:9 21:15 22:15 23:1 26:4 27:12 28:11 29:14 30:12 37:12 38:12 45:11 46:13 53:8 54:16 55:5 61:6 62:16 63:5 #
0.50000003576649798553432901826454 3:2 4:11 5:11 6:3 11:2 12:16 13:16 14:16 15:4 19:1 20:16 21:16 22:16 23:4 27:3 28:16 29:16 30:16 31:3 35:7 36:16 37:16 38:15 39:2 43:10 44:16 45:16 46:14 47:1 51:8 52:16 53:16 54:12 59:1 60:5 61:8 62:9 63:2 #
-0.09466077839001391103224136713834 2:3 3:13 4:16 5:4 10:7 11:14 12:16 13:8 19:1 20:16 21:7 27:9 28:15 29:1 34:1 35:16 36:8 42:7 43:16 44:1 50:9 51:16 52:4 53:4 54:4 55:4 58:4 59:16 60:16 61:16 62:16 63:8 #
-0.11213497147714719670563709996713 3:14 4:5 11:13 12:8 19:16 20:7 27:15 28:8 34:2 35:16 36:5 37:15 38:3 42:2 43:16 44:9 45:14 46:11 47:1 50:6 51:16 52:16 53:16 54:16 55:15 58:1 59:8 60:5 61:7 62:16 63:8 #
-0.094861300463067052546328739026649 3:1 4:7 5:11 6:13 7:11 8:5 11:7 12:16 13:16 14:13 15:16 16:4 19:14 20:8 26:4 27:16 28:9 29:8 30:5 34:8 35:16 36:16 37:16 38:16 39:2 42:2 43:4 44:4 45:12 46:15 52:7 53:16 54:5 60:12 61:5 #
0.50000003576649798553432901826454 3:4 4:15 5:10 6:2 11:3 12:16 13:15 14:4 19:6 20:16 21:16 22:2 27:7 28:16 29:11 35:9 36:16 37:7 43:12 44:16 45:4 51:9 52:16 53:4 59:4 60:15 61:8 #
0.39442405391491353050525958678918 3:8 4:16 5:14 6:1 11:6 12:16 13:16 14:8 19:4 20:16 21:16 22:8 27:2 28:16 29:16 30:14 35:1 36:16 37:16 38:11 43:5 44:16 45:16 46:10 51:9 52:16 53:16 54:9 59:13 60:16 61:16 62:9 #
0.50000003576649798553432901826454 4:1 5:11 6:10 12:8 13:16 14:13 19:7 20:16 21:16 22:7 26:5 27:16 28:16 29:16 34:4 35:10 36:16 37:16 44:15 45:16 52:11 53:16 54:4 61:11 62:13 63:1 #
-0.10755972027838124616128112620572 3:1 4:14 5:13 6:1 11:12 12:16 13:16 14:12 18:1 19:11 20:14 21:11 22:16 23:5 26:3 27:8 28:16 29:2 30:8 31:10 35:5 36:14 38:8 39:7 43:7 44:12 46:15 47:3 51:7 52:14 53:11 54:11 59:2 60:16 61:13 62:2 #
-0.080128230227504981808550610367092 3:7 4:12 5:8 6:10 7:15 8:2 11:4 12:8 13:10 14:16 15:8 21:9 22:10 28:5 29:14 30:2 34:6 35:16 36:16 37:16 38:13 39:1 42:3 43:6 44:16 51:7 52:13 59:10 60:10 #
-0.089942730179649724164825386196753 3:9 4:15 5:8 10:6 11:14 12:2 13:7 14:10 18:9 19:10 21:2 22:16 23:3 26:5 27:16 28:16 29:16 30:14 31:2 34:6 35:16 36:16 37:16 38:14 39:1 42:5 43:16 46:9 47:11 50:1 51:16 52:9 53:7 54:14 55:6 59:9 60:12 61:13 62:8 #
0.43788520096389710323236954536696 4:10 5:6 11:7 12:16 13:16 14:4 19:12 20:16 21:16 22:3 27:13 28:16 29:16 30:3 34:2 35:15 36:16 37:16 38:2 43:12 44:16 45:16 46:5 51:4 52:16 53:16 54:14 55:1 60:6 61:12 62:9 63:1 #
0.50000003576649798553432901826454 3:5 4:12 5:8 6:1 11:15 12:16 13:16 14:8 19:15 20:16 21:16 22:6 26:1 27:14 28:16 29:16 30:4 34:2 35:15 36:16 37:16 38:9 43:6 44:16 45:16 46:14 47:1 51:8 52:16 53:16 54:15 59:4 60:12 61:10 62:4 #
0.38168981871375728953665884546353 3:1 4:15 5:8 6:1 11:5 12:16 13:16 14:1 19:2 20:16 21:16 22:3 27:5 28:16 29:16 30:3 35:4 36:16 37:16 38:4 43:3 44:16 45:16 46:5 51:2 52:15 53:16 54:9 59:2 60:11 61:16 62:13 #
-0.10368198975912963633039254318646 3:10 4:16 5:16 6:12 11:6 12:16 13:9 14:7 19:7 20:16 21:4 27:11 28:16 29:16 30:10 31:1 35:3 36:8 37:6 38:13 39:11 46:7 47:16 53:3 54:15 55:15 59:10 60:16 61:16 62:13 63:2 #
-0.063819511549580612563836723438726 2:1 3:11 4:16 5:16 6:15 7:1 10:3 11:15 12:7 13:10 14:16 15:3 20:4 21:16 22:8 28:5 29:15 30:10 37:3 38:16 39:8 46:11 47:13 50:4 51:11 52:1 53:1 54:11 55:14 58:1 59:13 60:16 61:16 62:15 63:6 #
-0.086354739207247455112792522413656 3:3 4:10 5:11 6:5 10:8 11:16 12:10 13:8 14:5 18:11 19:11 26:8 27:14 28:11 29:8 30:4 35:3 36:7 37:9 38:14 39:9 46:5 47:13 51:1 52:4 53:10 54:16 55:5 59:2 60:13 61:10 62:2 #
0.49624934566571149430203035990417 4:15 5:14 6:6 11:3 12:16 13:16 14:6 18:2 19:13 20:16 21:12 26:8 27:16 28:16 29:7 34:1 35:10 36:16 37:5 43:7 44:16 45:6 51:5 52:16 53:9 60:13 61:15 #
0.48445381182481905835146562822047 4:5 5:16 6:12 11:1 12:15 13:16 14:16 18:2 19:10 20:16 21:16 22:11 26:7 27:16 28:16 29:16 30:7 34:6 35:12 36:16 37:16 38:8 44:12 45:16 46:12 52:11 53:16 54:13 60:2 61:15 62:12 #
0.41315235230129315757707786360697 4:10 5:7 6:1 11:7 12:16 13:16 14:9 18:2 19:15 20:16 21:16 22:13 26:1 27:9 28:16 29:16 30:12 36:16 37:16 38:12 43:1 44:16 45:16 46:12 51:3 52:16 53:16 54:16 60:9 61:12 62:11 #
-0.12923297305122330436155664301623 3:2 4:13 5:9 6:1 10:1 11:13 12:7 13:15 14:5 17:1 18:15 19:9 21:15 22:2 26:6 27:13 28:7 29:13 35:5 36:16 37:8 43:1 44:15 45:14 46:2 51:4 52:12 53:6 54:11 60:11 61:16 62:8 #
-0.095267212737091558349966646801477 3:12 4:16 5:6 10:3 11:15 12:12 13:12 18:6 19:12 20:8 21:12 26:3 27:14 28:11 29:10 35:5 36:16 37:3 43:13 44:12 50:8 51:16 52:12 53:7 54:5 55:2 59:12 60:13 61:10 62:10 63:4 #
-0.076847585673676013784394456251903 4:5 5:14 6:16 7:16 8:1 11:8 12:14 13:8 14:13 15:16 16:1 19:1 22:11 23:12 28:2 29:4 30:14 31:8 34:2 35:11 36:16 37:16 38:16 39:8 42:7 43:10 44:5 45:11 46:10 52:1 53:15 54:3 60:8 61:12 #
0.50000003576649798553432901826454 3:9 4:16 5:14 6:2 11:10 12:16 13:16 14:4 18:4 19:16 20:16 21:16 27:14 28:16 29:16 30:2 34:1 35:16 36:16 37:16 38:3 42:1 43:16 44:16 45:16 50:3 51:16 52:16 53:16 54:7 58:1 59:9 60:15 61:16 62:8 #
0.50000003576649798553432901826454 4:1 5:13 6:8 12:6 13:16 14:9 19:2 20:15 21:16 22:8 26:3 27:16 28:16 29:16 30:10 35:3 36:3 37:16 38:12 45:16 46:12 52:2 53:16 54:16 55:4 60:1 61:16 62:14 63:3 #
0.44286626618607743965938539076888 5:13 6:15 7:3 12:9 13:16 14:16 15:7 18:1 19:7 20:16 21:16 22:16 23:1 26:6 27:16 28:15 29:14 30:16 31:2 34:5 35:11 36:2 37:16 38:15 45:14 46:14 53:16 54:12 61:11 62:13 #
-0.10431067743275246328948924201541 3:4 4:6 5:14 6:6 10:8 11:16 12:15 13:13 14:10 18:3 19:12 20:3 21:2 22:13 27:11 28:11 29:13 30:11 35:6 36:16 37:16 38:3 43:16 44:9 45:6 46:13 47:2 51:9 52:8 54:3 55:14 60:6 61:15 62:16 63:16 64:4 #
-0.088884712535298948665740681462921 3:9 4:13 5:15 6:10 7:1 11:7 12:4 13:4 14:12 15:13 22:7 23:11 27:2 28:12 29:13 30:12 31:2 36:10 37:15 38:1 44:1 45:11 46:9 51:12 52:3 53:3 54:15 59:8 60:16 61:16 62:3 #
-0.11139545696954823716939841915519 3:2 4:11 5:16 6:16 7:16 8:12 11:7 12:15 13:9 14:8 15:12 16:13 22:1 23:14 24:5 30:11 31:9 37:6 38:13 44:1 45:14 46:3 52:10 53:9 59:1 60:16 61:5 #
0.48030018214780967333865646651248 3:12 4:12 5:12 6:5 11:4 12:16 13:16 14:8 19:2 20:16 21:16 22:9 27:4 28:16 29:16 30:9 35:4 36:16 37:16 38:4 43:5 44:16 45:16 46:3 51:9 52:16 53:16 59:11 60:12 61:12 62:4 #
0.30540790939303152917716488445876 3:3 4:15 5:12 6:3 11:9 12:16 13:16 14:5 18:3 19:14 20:16 21:16 22:5 26:7 27:16 28:16 29:16 30:3 35:3 36:16 37:16 38:3 44:16 45:16 46:4 51:7 52:15 53:16 54:6 59:6 60:16 61:14 62:3 #
0.50000003576649798553432901826454 5:6 6:14 7:2 13:10 14:16 15:4 20:6 21:16 22:16 23:2 27:8 28:15 29:16 30:15 34:4 35:16 36:11 37:12 38:16 42:1 43:4 44:1 45:8 46:15 53:8 54:12 61:6 62:16 63:2 #
-0.11840540533430783665114205405189 2:5 3:16 4:16 5:16 6:3 10:8 11:7 12:5 13:16 14:2 18:3 19:5 20:10 21:14 26:7 27:16 28:16 29:15 30:12 31:6 35:9 36:14 37:11 38:14 39:6 43:16 44:6 50:3 51:15 52:2 58:7 59:12 #
-0.0498572877418699128559964606211 3:2 4:8 5:15 6:7 11:11 12:15 13:6 14:14 15:3 19:16 20:6 22:4 23:9 26:8 27:4 30:4 31:8 34:6 35:7 38:5 39:8 42:3 43:13 46:13 47:1 51:10 52:11 53:8 54:11 59:1 60:13 61:11 62:2 #
-0.10101973168298720995306183567664 3:8 4:16 5:16 6:11 10:5 11:15 12:7 13:2 14:16 15:3 18:12 19:10 21:4 22:16 23:1 26:11 27:14 28:2 29:12 30:12 35:11 36:14 37:16 38:2 43:1 44:16 45:13 46:1 51:7 52:13 53:16 54:8 59:13 60:9 61:12 62:12 #
0.44945522229491657872912924176489 4:2 5:12 6:11 12:13 13:16 14:10 19:9 20:16 21:16 22:9 26:4 27:16 28:14 29:16 30:6 34:1 35:6 36:7 37:16 38:6 44:5 45:16 46:6 52:3 53:16 54:4 61:12 62:4 #
0.4520262377686506960472456739808 3:10 4:14 5:14 6:6 11:8 12:16 13:16 14:11 15:1 19:4 20:16 21:16 22:14 23:2 27:1 28:16 29:16 30:16 31:7 36:16 37:16 38:16 39:2 43:2 44:14 45:16 46:15 47:3 51:5 52:16 53:16 54:11 59:8 60:12 61:14 62:6 #
0.4980220833422560611225549109804 5:15 6:12 12:5 13:16 14:15 19:3 20:14 21:16 22:10 26:3 27:15 28:16 29:16 30:9 34:11 35:15 36:9 37:16 38:10 44:6 45:16 46:7 52:7 53:16 54:8 60:1 61:13 62:16 63:6 #
-0.093508453820507375642279157546 2:3 3:9 4:12 5:12 6:16 7:10 10:7 11:16 12:16 13:16 14:14 15:6 18:7 19:16 20:11 21:2 26:10 27:16 28:10 29:2 34:1 35:11 36:16 37:16 38:4 43:1 44:12 45:16 46:5 51:13 52:16 53:6 58:2 59:15 60:9 #
-0.074396375117222662831650836778863 3:12 4:16 5:16 6:16 7:3 11:6 12:9 13:12 14:16 15:7 21:8 22:15 23:3 26:3 27:15 28:16 29:16 30:7 34:1 35:8 36:16 37:16 38:15 39:2 43:3 44:16 45:10 46:14 47:6 51:11 52:16 59:12 60:11 #
-0.089194939992328942102162159244472 2:3 3:14 4:16 5:16 6:13 10:8 11:15 12:8 13:13 14:16 19:1 20:2 21:16 22:10 28:12 29:15 30:1 35:9 36:15 37:3 42:2 43:16 44:8 50:6 51:16 52:4 53:4 54:7 55:7 58:3 59:15 60:16 61:16 62:13 63:7 #
0.34088281504472078831113890373672 4:8 5:16 6:10 11:1 12:14 13:16 14:14 18:1 19:10 20:16 21:16 22:5 26:6 27:16 28:16 29:16 30:3 34:1 35:12 36:16 37:16 43:4 44:16 45:15 51:4 52:16 53:16 54:4 60:11 61:12 62:11 #
0.41968925656671646207129811045888 5:12 6:15 7:2 13:12 14:16 15:4 18:2 19:4 20:6 21:16 22:16 23:2 26:9 27:16 28:16 29:16 30:16 34:1 35:8 36:5 37:15 38:16 45:16 46:16 47:4 53:15 54:16 55:5 61:9 62:16 63:8 #
0.47504814992764377024059285758995 3:1 4:14 5:15 6:3 12:15 13:16 14:9 20:15 21:16 22:7 27:2 28:15 29:16 30:5 35:4 36:16 37:15 38:1 43:7 44:16 45:10 51:8 52:16 53:8 59:2 60:12 61:16 62:5 #
-0.079539293932425911282102504173963 3:1 4:11 5:11 6:1 11:9 12:16 13:15 14:3 18:1 19:15 20:6 26:5 27:14 34:7 35:11 37:1 38:2 42:4 43:14 44:5 45:15 46:16 47:7 50:1 51:12 52:16 53:16 54:12 55:15 59:2 60:11 61:16 62:14 63:9 #
0.28612692623276086978378884850827 3:9 4:13 5:10 6:5 11:4 12:15 13:16 14:13 19:1 20:14 21:16 22:15 27:8 28:16 29:16 30:14 31:1 35:6 36:16 37:16 38:14 43:12 44:16 45:16 46:14 51:6 52:16 53:16 54:6 59:4 60:14 61:15 62:3 #
-0.094532077568416639223869424313307 4:6 5:10 6:1 7:15 8:6 11:5 12:16 13:4 14:8 15:15 16:1 18:1 19:15 20:8 21:2 22:15 23:8 26:4 27:16 28:14 29:13 30:15 34:1 35:15 36:16 37:16 38:13 43:3 44:10 45:15 52:11 53:14 54:1 60:10 61:15 #
-0.1068480176323963609652523132354 3:4 4:15 5:6 11:13 12:13 13:16 18:4 19:15 20:1 21:16 22:2 28:2 29:16 36:8 37:12 42:1 43:12 44:16 45:6 46:4 50:7 51:16 52:16 53:16 54:16 55:6 59:2 61:4 62:8 63:3 #
0.38680113738745969254040346640977 4:6 5:12 6:6 11:5 12:16 13:16 14:13 18:2 19:15 20:16 21:16 22:12 26:4 27:16 28:16 29:16 30:14 31:1 35:8 36:16 37:16 38:13 43:4 44:16 45:16 46:14 51:6 52:16 53:16 54:16 55:4 59:1 60:12 61:12 62:6 #
0.50000003576649798553432901826454 5:15 6:16 7:3 13:15 14:16 15:2 20:4 21:16 22:16 23:2 27:8 28:16 29:16 30:13 34:8 35:16 36:16 37:16 38:9 42:1 43:8 44:6 45:16 46:12 52:3 53:16 54:13 61:13 62:13 #
-0.056474723613340306604957419267521 4:1 5:13 6:10 12:10 13:15 14:3 19:7 20:16 21:6 22:1 23:14 24:1 26:3 27:16 28:8 30:9 31:15 34:14 35:16 36:16 37:12 38:16 39:10 42:6 43:13 44:16 45:16 46:16 47:6 53:14 54:12 60:2 61:15 62:3 #
-0.14145625501797520762181648024125 3:2 4:15 5:16 6:14 7:5 11:5 12:15 13:8 14:13 15:11 18:2 19:11 20:12 21:7 22:15 23:8 26:7 27:16 28:16 29:16 30:8 31:1 34:2 35:15 36:16 37:8 43:7 44:16 45:12 51:4 52:16 53:16 59:2 60:14 61:14 #
-0.050184520863426555770114845245189 3:1 4:12 5:6 11:10 12:13 13:1 19:16 20:1 26:2 27:12 34:4 35:15 36:14 37:16 38:15 39:4 42:3 43:16 44:4 46:2 47:13 51:11 52:7 54:4 55:15 60:10 61:16 62:14 63:5 #
0.36423662387388089367590282563469 4:12 5:14 6:2 11:6 12:15 13:16 14:4 19:13 20:16 21:12 26:1 27:14 28:16 29:8 34:1 35:15 36:16 37:2 42:1 43:15 44:16 45:4 51:10 52:16 53:11 54:4 60:11 61:13 62:5 #
0.36911532920241107991188300729846 3:8 4:16 5:15 6:4 11:8 12:16 13:16 14:10 19:8 20:16 21:16 22:7 27:8 28:16 29:16 30:4 34:2 35:16 36:16 37:16 38:4 43:12 44:16 45:16 46:4 51:7 52:16 53:16 54:11 59:7 60:16 61:16 62:13 63:4 #
0.40637308309665809424870985822054 4:9 5:15 6:5 11:8 12:16 13:16 14:6 18:2 19:16 20:16 21:16 22:4 26:1 27:14 28:16 29:16 30:3 36:12 37:16 38:4 44:16 45:16 46:1 52:13 53:16 54:7 60:7 61:12 62:12 #
-0.10567757146263913325956451672027 4:8 5:14 6:3 11:1 12:16 13:15 14:7 19:7 20:15 21:5 26:3 27:14 28:14 29:5 34:3 35:16 36:10 37:12 38:10 43:11 44:5 46:14 47:2 51:3 52:11 53:6 54:14 55:1 60:7 61:15 62:6 #
-0.069606094897361511786293419845606 2:1 3:10 4:16 5:12 6:1 10:8 11:15 12:5 13:12 14:11 18:11 19:12 20:3 21:13 22:16 23:3 26:4 27:14 28:16 29:13 30:14 31:9 36:4 38:8 39:13 43:1 46:3 47:16 48:1 50:2 51:15 52:1 54:8 55:15 56:1 59:9 60:16 61:16 62:16 63:6 #
-0.069402444436499427515840920932533 3:7 4:16 5:16 6:12 7:2 11:12 12:16 13:13 14:14 15:7 18:2 19:16 20:11 26:5 27:16 28:16 29:11 34:11 35:16 36:11 37:16 38:3 42:1 43:2 45:13 46:8 51:2 52:4 53:13 54:8 59:8 60:16 61:16 62:4 #
0.44533651006516161707793344248785 5:14 6:10 11:1 12:11 13:16 14:12 18:2 19:12 20:16 21:16 22:12 26:4 27:11 28:5 29:15 30:11 36:1 37:16 38:7 44:3 45:16 46:7 52:1 53:16 54:11 61:11 62:9 #
0.36920693475884364120886971250002 3:2 4:16 5:10 11:6 12:16 13:16 14:4 19:2 20:15 21:16 22:7 28:11 29:16 30:4 36:15 37:16 38:3 44:13 45:15 51:1 52:16 53:13 59:2 60:15 61:11 #
0.32756593145637791231195024010958 3:6 4:12 5:11 6:6 11:8 12:16 13:16 14:16 15:3 19:8 20:16 21:16 22:13 27:8 28:16 29:16 30:12 35:10 36:16 37:16 38:12 42:3 43:15 44:16 45:16 46:7 50:3 51:15 52:16 53:16 54:2 59:3 60:8 61:9 62:5 #
-0.092519570145210991429784996853414 3:4 4:13 5:11 11:1 12:13 13:16 14:7 21:14 22:9 27:1 28:6 29:16 30:14 31:5 34:1 35:13 36:16 37:16 38:10 39:3 42:2 43:8 44:13 45:10 51:1 52:16 53:2 59:4 60:13 61:1 #
-0.10927765282447816919120242573626 2:1 3:10 4:5 10:2 11:16 12:16 13:12 14:1 19:10 20:5 21:11 22:6 28:1 29:12 30:7 35:6 36:16 37:16 38:6 43:3 44:8 45:10 46:15 47:8 51:3 52:4 53:7 54:14 55:15 59:6 60:15 61:15 62:11 63:4 #
-0.093153034434941092700732667708508 3:2 4:13 5:16 6:14 7:2 11:12 12:13 13:8 14:15 15:8 18:8 19:14 22:11 23:12 26:7 27:16 28:13 29:11 30:16 31:13 35:6 36:8 37:8 38:14 39:10 46:15 47:8 51:3 52:12 53:5 54:15 55:5 59:1 60:12 61:16 62:14 63:2 #
0.45098161839408246187588247266831 4:2 5:15 6:10 12:10 13:16 14:16 19:4 20:16 21:16 22:3 26:4 27:15 28:16 29:16 30:1 34:4 35:12 36:16 37:16 44:12 45:16 46:4 52:9 53:16 54:4 60:4 61:15 62:4 #
0.43568844630273101392603507520107 5:8 6:15 7:1 13:14 14:16 15:5 19:2 20:10 21:16 22:16 23:4 26:9 27:16 28:16 29:16 30:16 31:5 34:5 35:7 36:4 37:12 38:16 39:4 45:8 46:16 47:5 53:9 54:16 55:4 61:7 62:16 63:5 #
0.38788975397554975588221282123413 4:4 5:13 6:7 12:5 13:15 14:16 15:2 19:1 20:14 21:16 22:16 26:2 27:14 28:16 29:16 30:16 34:5 35:12 36:10 37:16 38:16 44:4 45:16 46:16 52:5 53:16 54:16 55:4 60:4 61:14 62:15 63:4 #
-0.062441711939190513991349007483223 3:1 4:14 5:12 6:1 11:8 12:16 13:9 19:15 20:16 27:16 28:12 34:1 35:16 36:11 43:16 44:16 45:15 46:4 51:11 52:13 53:13 54:16 55:1 59:2 60:12 61:16 62:14 63:2 #
-0.078845005279340019122003013762878 3:11 4:15 5:2 10:1 11:16 12:16 13:1 18:6 19:16 20:13 21:6 22:8 23:2 26:10 27:16 28:16 29:16 30:16 31:8 34:1 35:5 36:10 37:16 38:15 44:8 45:15 46:3 51:2 52:16 53:9 59:10 60:16 61:3 #
-0.092270273109484643447864016252424 4:5 5:8 11:4 12:16 13:2 15:14 19:9 20:8 22:8 23:8 26:2 27:15 29:1 30:15 34:10 35:9 36:4 37:9 38:15 39:1 42:11 43:16 44:16 45:16 46:11 47:1 50:3 51:4 52:7 53:9 60:8 61:5 #
0.2948969306418969260619178385241 3:3 4:12 5:11 6:7 11:8 12:16 13:16 14:6 18:3 19:16 20:16 21:16 22:6 26:4 27:16 28:16 29:15 30:1 34:1 35:8 36:9 37:16 38:4 42:1 43:15 44:16 45:16 46:9 51:8 52:16 53:16 54:12 59:4 60:11 61:11 62:6 #
0.29049069423331813633026854404307 3:1 4:12 5:10 6:2 12:9 13:16 14:9 20:14 21:16 22:12 27:1 28:16 29:16 30:12 35:4 36:16 37:16 38:10 43:6 44:16 45:16 46:10 51:1 52:16 53:16 54:12 59:3 60:11 61:13 62:12 63:3 #
0.17675684916004766322750185736368 3:1 4:8 5:12 6:1 11:4 12:15 13:16 14:12 20:10 21:16 22:15 27:5 28:16 29:16 30:11 35:7 36:16 37:16 38:13 43:4 44:16 45:16 46:11 52:16 53:16 54:9 59:1 60:11 61:12 62:10 63:5 #
-0.13264377956945813674671796889015 3:8 4:16 5:12 10:6 11:16 12:15 13:10 18:4 19:16 20:14 21:14 22:16 23:6 27:12 28:16 29:15 30:5 35:12 36:16 37:11 43:16 44:10 45:16 46:6 51:16 52:5 53:13 54:12 59:10 60:15 61:11 62:1 #
-0.10612276735830473983757116229754 2:4 3:15 4:15 5:8 6:1 10:4 11:16 12:11 13:16 14:15 18:1 19:5 21:11 22:16 23:4 28:6 29:16 30:13 31:1 36:12 37:16 38:1 44:6 45:16 46:5 52:4 53:16 54:8 58:4 59:16 60:16 61:16 62:6 #
-0.10244915781025977496998535798411 3:9 4:11 5:12 6:12 7:1 11:11 12:12 13:13 14:16 15:4 21:12 22:10 27:2 28:11 29:14 30:2 35:9 36:16 37:5 43:6 44:15 45:16 46:14 47:2 51:3 52:6 53:14 54:16 55:1 59:11 60:16 61:13 62:5 #
0.30721696713257251598605535036768 4:9 5:13 6:5 11:7 12:16 13:15 14:1 19:7 20:16 21:8 27:11 28:16 29:9 35:9 36:16 37:6 43:10 44:16 45:5 51:11 52:16 53:11 59:1 60:12 61:10 #
0.32201333724771463717928554615355 3:3 4:16 5:10 10:1 11:10 12:16 13:16 14:1 18:10 19:16 20:16 21:15 26:3 27:11 28:16 29:16 36:14 37:16 38:3 44:14 45:16 46:3 51:1 52:16 53:16 54:5 59:1 60:14 61:13 #
0.25603662420168377122919878274843 3:2 4:16 5:10 11:5 12:16 13:15 14:1 19:4 20:16 21:12 27:4 28:16 29:11 35:1 36:16 37:12 43:1 44:16 45:12 51:1 52:16 53:10 60:15 61:5 #
-0.096061230258487104172182569072902 3:14 4:16 5:14 6:5 11:3 13:2 14:16 15:3 20:4 21:10 22:15 23:1 26:6 27:16 28:16 29:14 30:2 34:1 35:4 36:6 37:12 38:12 46:12 47:9 51:10 53:4 54:14 55:5 59:13 60:16 61:13 62:4 #
-0.11374304981559284211112270668309 4:5 5:9 6:13 7:14 8:6 11:4 12:16 13:8 14:4 15:10 16:9 19:6 20:16 21:16 22:16 23:15 24:4 27:1 28:11 29:12 30:16 31:6 37:2 38:16 39:2 45:10 46:6 52:2 53:15 60:5 61:14 #
-0.092457145021044892518879976250901 3:12 4:16 5:16 6:10 11:13 12:13 13:8 14:16 15:5 22:16 23:8 27:1 28:8 29:13 30:15 31:2 35:7 36:16 37:16 38:15 39:3 44:3 45:4 46:11 47:15 50:1 51:11 53:2 54:13 55:15 58:1 59:13 60:16 61:16 62:14 63:6 #
0.22035618065288289924019693444279 3:3 4:12 5:10 6:1 11:12 12:16 13:16 14:10 19:7 20:16 21:16 22:8 27:3 28:16 29:16 30:12 35:2 36:15 37:16 38:14 44:16 45:16 46:15 51:2 52:16 53:16 54:14 59:4 60:8 61:12 62:3 #
0.29786690343662453051010174931434 4:8 5:11 6:3 11:6 12:16 13:16 14:15 15:1 19:5 20:16 21:16 22:16 23:1 27:5 28:16 29:16 30:16 31:1 35:1 36:16 37:16 38:16 39:3 43:3 44:16 45:16 46:16 52:16 53:16 54:12 60:11 61:11 62:2 #
0.21911393215863278483013232289522 3:4 4:15 5:15 6:4 11:9 12:16 13:16 14:9 19:7 20:16 21:16 22:9 27:7 28:16 29:16 30:13 35:10 36:16 37:16 38:10 42:1 43:15 44:16 45:16 46:4 51:13 52:16 53:16 54:3 59:4 60:10 61:16 62:4 #
-0.11362233393353245169965504146603 3:2 4:14 5:15 6:2 11:13 12:15 13:14 14:8 19:16 20:6 21:11 22:10 26:1 27:9 28:8 29:15 30:9 34:10 35:16 36:16 37:16 38:16 39:9 42:1 43:4 44:8 45:16 46:5 47:5 52:14 53:13 59:2 60:16 61:6 #
-0.073368171421669126086584356016829 3:3 4:12 5:16 6:10 10:3 11:14 12:5 14:12 18:9 19:8 20:1 21:9 22:16 23:4 26:5 27:15 28:15 29:15 30:14 31:2 37:15 38:3 44:8 45:10 52:11 53:6 59:3 60:15 61:2 #
-0.049617988298385852508065596566666 3:5 4:8 5:12 6:12 7:13 11:14 12:12 13:8 14:4 15:4 19:14 21:2 26:3 27:16 28:16 29:16 30:10 35:5 36:1 37:2 38:15 39:2 46:16 51:4 52:10 53:8 54:9 59:3 60:16 61:13 62:1 #
-0.088676654085228692747655543371366 3:3 4:10 5:14 6:14 10:10 11:16 12:14 13:10 14:15 19:8 26:6 27:16 28:8 29:1 34:2 35:11 36:15 37:15 38:5 45:15 46:15 52:12 53:13 54:1 60:11 61:4 #
-0.077921493595120974728907015105506 3:10 4:13 5:16 6:15 7:4 12:6 13:9 14:15 15:12 22:16 23:8 29:8 30:16 31:2 34:1 35:4 36:9 37:15 38:12 42:10 43:16 44:16 45:15 46:1 50:3 51:9 52:16 53:6 59:10 60:13 #
-0.086218473369433459851940426688088 3:12 4:16 5:14 6:2 10:7 11:11 12:2 13:7 14:12 18:11 19:15 20:12 21:14 22:11 26:2 27:8 28:8 29:13 30:12 37:7 38:14 45:1 46:14 47:5 51:12 52:12 53:5 54:10 55:12 59:8 60:8 61:12 62:16 63:6 #
-0.090395156826214240197714389069006 3:3 4:10 5:7 6:15 7:13 11:12 12:9 13:16 14:16 15:13 18:1 19:16 20:12 21:14 22:8 23:4 26:1 27:14 28:16 29:16 30:16 31:10 36:1 38:11 39:6 45:4 46:15 47:2 51:2 52:13 53:15 54:3 59:4 60:13 61:3 #
-0.098935000206594653215930179612769 3:3 4:16 5:15 6:3 11:6 12:16 13:15 14:3 19:10 20:16 21:6 22:2 27:4 28:14 29:16 30:3 34:4 35:13 36:2 37:12 38:6 42:5 43:11 45:1 46:12 47:3 51:13 52:3 54:7 55:11 59:3 60:11 61:11 62:14 63:10 #
-0.077513263548804167690775557275629 3:6 4:15 5:12 6:1 10:8 11:13 12:4 13:10 14:8 18:2 21:15 22:6 28:6 29:16 30:5 36:16 37:16 38:16 39:5 43:4 44:5 45:1 46:16 47:7 50:2 51:16 52:10 53:14 54:15 59:6 60:13 61:9 62:1 #
-0.098875359420384043018792397106154 3:2 4:12 5:13 6:4 10:5 11:16 12:6 13:1 14:14 18:13 19:11 20:5 21:12 22:15 26:9 27:16 28:16 29:16 30:12 34:1 35:12 36:14 37:3 38:7 39:7 43:8 44:7 47:13 51:8 52:9 53:1 54:12 55:13 60:14 61:14 62:12 63:3 #
-0.11184840540973579881001143121466 2:2 3:15 4:16 5:6 10:3 11:14 12:14 13:16 14:2 20:6 21:16 22:2 28:11 29:16 30:1 34:8 35:14 36:16 37:16 38:16 39:5 42:10 43:16 44:15 45:11 46:12 47:5 50:5 51:16 52:7 58:5 59:14 60:1 #
-0.08974853128937285151600633525959 2:1 3:14 4:16 5:5 10:2 11:13 12:13 13:16 14:4 19:4 20:13 21:16 22:3 27:9 28:16 29:16 30:13 35:4 36:8 37:8 38:16 39:8 44:1 45:5 46:14 47:11 50:1 51:13 52:16 53:16 54:15 55:3 59:15 60:11 61:5 62:1 #
0.22805761218933681688803005727095 3:6 4:16 5:14 10:1 11:11 12:16 13:16 14:4 19:12 20:16 21:16 22:4 27:15 28:16 29:16 30:1 35:16 36:16 37:16 42:4 43:16 44:16 45:15 46:3 51:9 52:16 53:16 54:13 59:4 60:14 61:16 62:6 #
-0.058539917098194976796676769481564 4:14 5:2 11:2 12:16 13:2 19:7 20:13 27:8 28:12 35:9 36:11 37:4 38:2 43:11 44:16 45:16 46:15 47:8 51:13 52:15 53:2 54:2 55:16 56:3 60:11 61:13 62:12 63:10 #
-0.091884720335715444616830893664883 2:4 3:15 4:9 5:8 6:8 7:1 10:4 11:16 12:16 13:16 14:16 15:8 18:9 19:15 20:2 21:15 22:14 23:1 26:5 27:5 28:5 29:16 30:4 36:12 37:12 43:7 44:15 45:2 50:3 51:16 52:7 58:6 59:16 60:4 #
-0.042251392094871963178714935338576 3:2 4:12 11:11 12:11 18:5 19:12 20:1 26:4 27:10 34:5 35:9 36:2 37:11 38:12 39:3 42:1 43:15 44:16 45:16 46:14 47:11 51:11 52:13 53:6 54:15 55:8 59:3 60:15 61:14 62:8 #
-0.042836997451886828225386949497988 2:1 3:14 4:13 10:9 11:16 12:16 13:2 18:7 19:11 20:16 21:8 27:1 28:13 29:8 35:2 36:16 37:5 43:6 44:16 45:4 50:1 51:15 52:16 53:16 54:12 55:6 59:16 60:16 61:16 62:16 63:16 64:3 #
-0.080395949587679010894802900111245 2:4 3:16 4:16 5:6 10:7 11:13 12:8 13:15 14:1 20:6 21:16 22:2 27:3 28:16 29:14 30:1 35:1 36:11 37:15 38:13 39:1 45:3 46:14 47:8 50:5 51:6 54:7 55:16 58:3 59:14 60:16 61:16 62:16 63:10 #
-0.10387331962362272852473665807338 3:6 4:13 5:16 6:16 7:13 10:6 11:16 12:10 13:7 14:15 15:14 18:1 19:4 21:10 22:16 23:6 28:10 29:16 30:4 35:3 36:16 37:9 43:15 44:11 51:16 52:10 59:9 60:16 61:16 62:12 63:1 #
-0.082714375564989409128635600154666 4:13 5:16 6:16 7:16 8:1 12:7 13:8 14:13 15:11 22:14 23:10 24:1 26:6 27:12 28:13 29:16 30:14 31:9 34:6 35:14 36:10 37:16 38:6 44:7 45:13 46:1 52:13 53:10 60:15 61:3 #
-0.057345427339447321846144234314124 4:10 5:13 6:3 11:7 12:16 13:12 14:6 19:12 20:13 21:1 27:16 28:16 29:16 30:10 34:2 35:16 36:15 37:1 38:12 39:8 43:16 44:4 46:6 47:15 51:11 52:14 53:8 54:15 55:14 56:1 59:2 60:11 61:16 62:11 63:2 #
-0.10675182139475057618849263008087 4:13 5:7 10:5 11:14 12:16 13:16 14:8 18:12 19:10 21:6 22:16 26:2 27:14 28:12 29:5 30:16 31:3 36:11 37:16 38:11 43:2 44:15 45:9 46:16 47:5 51:10 52:14 53:4 54:13 55:12 59:1 60:9 61:14 62:16 63:11 #
0.1571426551356150391747235062212 2:1 3:6 4:16 5:13 6:6 7:1 10:1 11:12 12:16 13:16 14:16 15:1 19:10 20:16 21:16 22:12 26:2 27:14 28:16 29:16 30:12 34:2 35:9 36:16 37:16 38:12 43:1 44:14 45:16 46:14 51:6 52:16 53:16 54:14 55:2 59:4 60:12 61:13 62:8 63:2 #
-0.1191384309553750048271680839207 2:5 3:16 4:5 10:9 11:16 12:14 18:12 19:14 20:14 26:7 27:13 28:12 35:11 36:8 38:3 39:1 43:16 44:8 45:7 46:14 47:11 50:8 51:16 52:16 53:16 54:16 55:11 58:6 59:16 60:16 61:11 62:6 63:1 #
-0.092984747915929866213247123596375 3:3 4:14 5:3 7:1 8:8 11:9 12:15 14:1 15:13 16:11 19:14 20:14 22:9 23:14 24:2 27:14 28:16 29:16 30:16 31:7 35:3 36:13 37:16 38:11 39:1 44:7 45:15 46:1 52:14 53:10 59:2 60:15 61:4 #
-0.083515335646920263457104738336056 2:2 3:15 4:9 5:10 6:8 7:6 10:10 11:16 12:16 13:16 14:12 15:8 18:8 19:16 20:6 26:1 27:12 28:16 29:12 30:1 35:1 36:6 37:15 38:12 45:5 46:16 47:2 50:10 51:12 52:6 53:10 54:16 55:1 58:1 59:13 60:16 61:14 62:5 #
-0.091296464426320389495828067083494 4:7 5:14 6:7 11:3 12:13 13:4 14:12 15:1 19:13 20:3 22:12 23:4 26:1 27:13 29:6 30:16 31:6 35:15 36:15 37:9 38:12 39:3 43:1 44:1 46:9 47:2 51:2 52:9 53:2 54:12 59:1 60:9 61:15 62:7 #
-0.11293562512017880916648238098787 5:13 6:5 12:9 13:13 14:1 19:8 20:14 21:1 22:5 23:7 26:4 27:16 28:14 29:13 30:16 31:8 34:2 35:8 36:8 37:12 38:16 39:2 45:10 46:13 53:14 54:9 61:13 62:3 #
-0.087039488660775224393439941650286 3:9 4:15 5:16 6:12 7:1 11:9 12:10 13:14 14:16 15:9 21:2 22:16 23:10 29:8 30:15 31:2 36:10 37:15 38:4 43:6 44:16 45:6 51:15 52:16 53:12 54:12 59:14 60:16 61:13 62:5 #
-0.078445906702977907798413070850074 3:4 4:13 5:16 6:16 7:9 10:2 11:12 12:6 13:1 14:12 15:12 18:1 19:3 20:2 21:15 22:10 28:11 29:9 36:4 37:14 38:2 45:13 46:10 53:10 54:11 58:6 59:9 60:13 61:12 62:1 #
-0.10831448802398907504951353075739 3:10 4:16 5:9 10:2 11:16 12:16 13:16 14:2 19:8 20:1 21:15 22:8 29:14 30:9 36:1 37:16 38:10 44:9 45:16 46:16 47:7 51:8 52:16 53:15 54:12 55:15 56:5 59:13 60:15 61:1 63:5 64:6 #
-0.067409182225865324489255669959675 3:10 4:14 5:15 6:10 7:2 10:2 11:15 12:5 13:4 14:16 15:8 19:13 21:8 22:13 23:1 26:3 27:15 28:12 29:14 30:2 34:1 35:12 36:14 37:13 38:1 42:6 43:11 45:9 46:12 50:7 51:11 53:1 54:16 55:3 58:1 59:10 60:13 61:14 62:12 #
-0.087489458949172566049057309101045 3:2 4:15 5:12 6:1 11:7 12:15 13:15 14:9 19:5 20:15 21:7 22:16 23:2 27:1 28:13 29:14 30:16 31:7 36:4 37:13 38:15 39:10 46:14 47:11 52:1 53:8 54:16 55:10 59:2 60:13 61:16 62:15 63:3 #
-0.075171355143167820078708984965488 5:6 6:13 7:1 12:3 13:16 14:7 20:15 21:13 22:1 27:12 28:15 29:1 34:5 35:16 36:7 37:7 38:14 39:5 42:6 43:16 44:16 45:16 46:15 47:3 52:1 53:14 54:12 61:9 62:11 #
-0.082023094702647139642159856975923 3:6 4:16 5:5 10:6 11:16 12:16 13:16 14:7 18:11 19:15 20:2 21:16 22:14 26:9 27:16 28:10 29:16 30:16 31:7 34:2 35:13 36:16 37:16 38:16 39:8 46:13 47:12 51:3 52:8 53:12 54:16 55:7 59:5 60:16 61:12 62:5 #
-0.083164046723124676607774574677023 3:8 4:15 5:8 10:4 11:16 12:16 13:16 14:5 18:8 19:16 20:2 21:6 22:15 26:3 27:15 28:4 29:4 30:16 35:1 37:7 38:15 44:3 45:15 46:7 50:2 51:11 52:16 53:15 54:7 55:4 58:1 59:13 60:16 61:15 62:12 63:4 #
-0.091501656342088732998263367335312 4:8 5:8 6:8 7:13 8:8 11:6 12:15 13:13 14:14 15:15 16:1 19:13 20:6 22:12 23:5 27:14 28:5 29:5 30:10 35:1 36:10 37:16 38:14 39:2 44:12 45:12 46:6 47:1 52:14 53:4 60:12 61:1 #
-0.089182086397806295541279553162894 3:12 4:16 5:6 10:7 11:12 12:4 13:14 18:11 19:14 21:6 22:4 26:6 27:8 29:7 30:4 37:10 38:3 44:5 45:13 51:3 52:14 53:10 59:14 60:13 61:12 62:15 63:13 64:1 #
-0.10205197099019917839068938292257 5:11 6:12 12:2 13:15 14:8 20:9 21:15 22:3 27:5 28:15 29:4 30:15 31:5 35:13 36:10 38:16 39:4 42:10 43:15 44:4 45:10 46:16 47:3 50:15 51:16 52:16 53:16 54:15 55:3 59:1 61:11 62:12 #
-0.094499681823305065053730800173071 3:10 4:13 5:16 6:10 11:15 12:9 13:2 14:2 18:4 19:16 20:16 21:14 22:4 27:3 28:1 29:4 30:16 31:3 38:12 39:7 46:12 47:7 50:5 51:8 53:4 54:15 55:1 58:1 59:11 60:14 61:15 62:2 #
-0.1050104173360200260356478452195 3:11 4:16 5:13 6:2 11:10 12:15 13:11 14:13 19:3 20:15 21:7 22:15 23:5 28:1 29:1 30:13 31:6 38:16 39:5 45:9 46:16 47:2 51:15 52:16 53:16 54:11 59:9 60:15 61:13 62:16 63:16 64:5 #
-0.098055906904552889158388495616236 3:12 4:12 5:16 6:16 7:9 11:8 12:6 13:4 14:13 15:8 20:4 21:8 22:16 23:6 26:3 27:16 28:16 29:16 30:11 31:4 35:3 36:9 37:9 43:3 44:14 51:11 52:7 59:14 60:3 #
-0.083264607015467562156629810488084 3:2 4:10 5:16 6:16 7:2 10:1 11:16 12:15 13:5 14:1 18:8 19:13 26:12 27:11 34:5 35:16 36:7 43:3 44:13 45:12 52:4 53:16 60:14 61:12 #
-0.081994308267732463058052871929249 3:6 4:15 5:15 6:4 11:11 12:10 13:4 14:2 19:13 20:11 21:2 27:12 28:14 29:12 30:5 37:3 38:15 39:3 46:4 47:11 51:15 52:8 53:3 54:2 55:15 59:5 60:12 61:16 62:16 63:12 #
0.21593363116230879228396588587202 4:14 5:12 11:1 12:16 13:16 14:2 20:16 21:15 27:1 28:16 29:15 36:15 37:16 43:1 44:16 45:15 51:1 52:16 53:14 60:11 61:16 62:3 #
-0.10189221385193859836792995565702 3:7 4:16 5:2 7:4 11:15 12:12 14:4 15:16 16:3 18:6 19:16 20:2 21:2 22:15 23:10 26:10 27:14 29:12 30:12 31:1 34:9 35:16 36:16 37:16 38:10 42:1 43:8 44:16 45:9 46:1 51:7 52:14 53:1 59:10 60:8 #
-0.07555086134406953368713999452666 3:7 4:16 5:15 6:3 10:1 11:15 12:10 13:12 14:4 18:7 19:16 20:1 26:8 27:13 29:4 30:3 34:9 35:14 36:13 37:16 38:16 39:5 42:7 43:16 44:13 45:2 46:9 47:12 50:2 51:16 52:10 53:1 54:11 55:12 59:8 60:15 61:16 62:15 63:3 #
-0.15096999138599268008853471201292 2:2 3:7 4:16 5:15 6:8 10:5 11:16 12:11 13:15 14:12 19:11 20:15 21:13 27:3 28:16 29:1 35:9 36:16 37:1 43:13 44:10 45:5 51:14 52:9 53:8 59:6 60:16 61:5 #
-0.089625439919723201565027181914047 2:1 3:8 4:14 5:13 6:2 10:4 11:16 12:6 13:12 14:8 18:3 19:16 20:4 21:3 22:4 27:9 28:15 29:4 30:11 31:6 35:5 36:16 37:16 38:13 39:6 42:4 43:15 44:12 45:16 46:7 50:7 51:14 52:2 53:12 54:11 58:1 59:10 60:16 61:14 62:5 #
-0.061537736634238345001524095323475 2:2 3:10 4:15 5:16 6:15 10:4 11:16 12:9 13:4 14:6 18:8 19:15 26:6 27:14 28:5 34:1 35:12 36:16 37:13 38:5 44:2 45:9 46:16 47:9 51:9 52:8 53:10 54:16 55:9 59:7 60:16 61:12 62:8 63:1 #
-0.051140226993784052011982055319095 4:11 5:13 6:1 10:1 11:2 12:15 13:13 14:8 18:5 19:13 21:3 22:13 26:9 27:11 30:15 31:1 34:6 35:11 38:14 39:5 42:2 43:15 44:2 45:3 46:16 47:4 51:8 52:14 53:14 54:16 55:2 60:7 61:14 62:6 #
-0.1057386949870020576014439939172 3:4 4:15 5:7 10:3 11:16 12:11 13:2 18:11 19:11 21:8 22:11 23:1 26:7 27:14 28:11 29:15 30:2 34:1 35:13 36:16 37:4 43:8 44:16 45:8 51:8 52:16 53:16 54:2 59:2 60:12 61:15 62:5 #
-0.053000876504580532455612740250217 2:3 3:15 4:12 5:11 6:12 7:2 10:12 11:16 12:16 13:16 14:16 15:6 18:12 19:13 21:3 22:4 26:3 27:15 28:13 29:2 35:5 36:15 37:11 44:6 45:16 46:3 51:5 52:12 53:16 54:3 58:4 59:16 60:16 61:12 #
-0.049648204150112111576742535135054 2:6 3:16 4:16 5:13 6:3 10:12 11:16 12:12 13:15 14:16 15:5 18:10 19:14 20:1 22:4 23:1 26:2 27:15 28:8 35:7 36:16 37:2 43:2 44:15 45:9 50:1 51:5 52:15 53:10 58:7 59:16 60:15 61:1 #
-0.095917626771425429366146886422939 4:13 5:9 6:1 11:9 12:16 13:16 14:11 19:8 20:14 21:5 22:16 23:3 26:1 27:7 28:10 30:12 31:6 34:6 35:14 36:14 37:2 38:10 39:9 42:4 43:16 44:16 45:12 46:16 47:10 51:11 52:16 53:16 54:15 55:4 59:2 60:13 61:16 62:7 #
-0.055254650186635029252002482280659 3:5 4:15 5:2 11:15 12:16 13:16 14:13 15:2 18:4 19:16 20:16 21:14 22:16 23:8 26:7 27:12 30:8 31:8 34:4 35:12 38:8 39:8 42:4 43:15 46:9 47:7 50:1 51:15 52:5 53:7 54:15 55:4 59:5 60:13 61:12 62:7 #
-0.091522696775072381880633543005388 4:11 5:7 6:5 7:8 11:5 12:16 13:1 14:15 15:8 18:1 19:14 20:9 21:5 22:16 23:2 26:6 27:14 28:1 29:12 30:11 31:2 34:12 35:14 36:8 37:16 38:16 39:10 42:9 43:16 44:16 45:15 46:5 51:1 52:10 53:12 60:11 61:9 #
-0.12353838622527293922281899085647 3:7 4:13 5:3 10:2 11:16 12:16 13:10 18:6 19:14 20:8 21:14 26:7 27:9 28:4 29:16 30:1 36:7 37:12 43:4 44:15 45:10 46:6 47:1 51:8 52:16 53:16 54:16 55:6 59:5 60:11 61:12 62:15 63:3 #
-0.072481087965738183465091992729867 2:7 3:16 4:16 5:16 6:9 10:3 11:8 12:4 13:13 14:16 20:8 21:16 22:6 28:4 29:16 30:4 37:11 38:15 39:5 45:1 46:13 47:15 51:5 52:9 53:15 54:16 55:10 58:4 59:16 60:16 61:10 62:3 #
-0.089872020873162178355997298240254 3:3 4:15 5:15 6:5 11:13 12:13 13:10 14:15 19:12 20:14 21:13 22:16 23:5 27:1 28:8 29:8 30:14 31:6 38:8 39:12 43:1 46:3 47:16 48:1 50:1 51:14 52:2 54:3 55:16 56:2 59:3 60:15 61:16 62:16 63:13 64:1 #
-0.12822290237893346764863622411212 3:5 4:15 5:16 6:7 11:8 12:12 13:16 14:16 15:1 19:2 20:7 21:13 22:15 27:10 28:16 29:16 30:15 31:8 35:2 36:15 37:16 38:16 39:9 44:8 45:16 46:2 52:15 53:9 59:4 60:16 61:1 #
