SVM-light Version V6.02
2 # kernel type
3 # kernel parameter -d 
0.005 # kernel parameter -g 
1 # kernel parameter -s 
1 # kernel parameter -r 
empty# kernel parameter -u 
64 # highest feature index 
2823 # number of training documents 
2088 # number of support vectors plus 1 
0.8729212 # threshold b, each following line is a SV (starting with alpha*y)
-0.037667786401152723863017257599495 4:6 5:15 6:2 7:2 11:3 12:15 13:10 14:4 15:15 18:2 19:14 20:9 22:12 23:11 26:9 27:16 28:4 29:3 30:16 31:14 34:11 35:16 36:16 37:16 38:15 39:7 42:1 43:10 44:11 45:16 46:8 52:3 53:16 54:1 60:8 61:11 #
-0.06758125542899522109063781272198 4:3 5:16 6:7 11:2 12:12 13:16 14:12 18:6 19:15 20:16 21:16 22:8 26:12 27:15 28:6 29:16 30:7 35:2 37:15 38:9 45:16 46:7 52:2 53:16 54:9 60:2 61:15 62:10 #
-0.023036428886995620468614021092435 2:4 3:15 4:16 5:12 10:12 11:15 12:7 13:16 14:5 18:3 19:3 21:15 22:4 29:13 30:7 36:5 37:15 38:2 43:1 44:14 45:11 50:1 51:13 52:16 53:9 54:8 55:3 58:3 59:16 60:16 61:16 62:16 63:16 64:1 #
-0.036745125210573326146601402797387 3:10 4:16 5:12 10:1 11:14 12:13 13:16 14:4 19:2 20:3 21:16 22:5 28:4 29:16 30:2 36:11 37:14 43:2 44:16 45:8 47:3 50:1 51:13 52:16 53:14 54:16 55:16 56:3 59:12 60:16 61:16 62:13 63:7 #
-0.050742124997480403392202674695 3:11 4:16 5:15 6:2 11:12 12:10 13:14 14:8 21:11 22:8 28:1 29:15 30:3 35:1 36:11 37:11 42:6 43:15 44:15 45:2 50:9 51:16 52:14 53:9 54:3 58:1 59:9 60:12 61:15 62:16 63:13 #
0.50000003576649798553432901826454 3:7 4:15 5:13 6:3 11:11 12:6 13:8 14:14 20:3 21:8 22:12 28:16 29:14 30:2 36:10 37:15 38:7 45:2 46:11 47:10 50:1 51:15 52:3 53:1 54:11 55:10 59:4 60:15 61:16 62:13 63:2 #
0.50000003576649798553432901826454 3:5 4:16 5:16 6:15 7:1 11:10 12:9 13:10 14:16 15:2 20:1 21:12 22:10 28:9 29:16 30:8 36:2 37:14 38:16 39:5 44:4 46:16 47:5 51:3 52:14 53:8 54:13 59:4 60:16 61:13 62:3 #
0.50000003576649798553432901826454 3:9 4:13 5:15 6:10 7:1 11:7 12:4 13:4 14:12 15:13 22:7 23:11 27:2 28:12 29:13 30:12 31:2 36:10 37:15 38:1 44:1 45:11 46:9 51:12 52:3 53:3 54:15 59:8 60:16 61:16 62:3 #
0.50000003576649798553432901826454 3:14 4:16 5:14 6:5 11:3 13:2 14:16 15:3 20:4 21:10 22:15 23:1 26:6 27:16 28:16 29:14 30:2 34:1 35:4 36:6 37:12 38:12 46:12 47:9 51:10 53:4 54:14 55:5 59:13 60:16 61:13 62:4 #
0.50000003576649798553432901826454 3:4 4:11 5:14 6:6 10:4 11:14 12:7 13:6 14:15 18:4 19:5 21:5 22:11 28:7 29:15 30:11 36:11 37:10 38:15 39:4 46:10 47:8 51:1 52:4 53:7 54:15 55:1 59:3 60:16 61:11 62:2 #
-0.50000003576649798553432901826454 3:4 4:14 5:10 6:2 11:12 12:13 13:14 14:13 19:11 20:5 21:3 22:13 27:7 28:12 29:11 30:16 31:1 35:1 36:10 37:9 38:14 39:3 46:13 47:5 51:4 52:8 53:8 54:16 55:5 59:7 60:16 61:16 62:11 #
-0.33238409207346558682516501903592 3:5 4:13 5:14 6:5 11:9 12:8 13:9 14:12 18:3 19:12 20:2 21:11 22:9 26:3 27:13 28:15 29:14 30:1 36:11 37:12 38:12 39:2 43:4 44:10 46:9 47:9 51:10 52:5 53:2 54:8 55:13 59:5 60:14 61:15 62:11 63:2 #
-0.50000003576649798553432901826454 3:7 4:15 5:13 6:1 11:15 12:9 13:13 14:10 19:16 20:5 21:12 22:12 27:4 28:15 29:16 30:12 36:2 37:7 38:15 39:1 46:15 47:4 50:4 51:12 52:7 53:5 54:14 55:4 59:7 60:13 61:13 62:9 63:1 #
0.50000003576649798553432901826454 2:1 3:10 4:5 10:2 11:16 12:16 13:12 14:1 19:10 20:5 21:11 22:6 28:1 29:12 30:7 35:6 36:16 37:16 38:6 43:3 44:8 45:10 46:15 47:8 51:3 52:4 53:7 54:14 55:15 59:6 60:15 61:15 62:11 63:4 #
0.50000003576649798553432901826454 2:4 3:15 4:15 5:8 6:1 10:4 11:16 12:11 13:16 14:15 18:1 19:5 21:11 22:16 23:4 28:6 29:16 30:13 31:1 36:12 37:16 38:1 44:6 45:16 46:5 52:4 53:16 54:8 58:4 59:16 60:16 61:16 62:6 #
0.50000003576649798553432901826454 4:5 5:14 6:16 7:16 8:5 11:10 12:16 13:15 14:16 15:16 16:7 18:4 19:15 20:6 21:1 22:16 23:12 27:2 29:5 30:16 31:7 37:4 38:16 39:2 45:6 46:16 47:1 52:2 53:15 54:14 60:3 61:15 62:7 #
-0.14896405271243434720318532527017 4:1 5:7 6:15 7:5 11:5 12:13 13:16 14:16 15:8 18:4 19:15 20:11 21:5 22:16 23:7 26:1 27:4 29:3 30:16 31:4 37:4 38:16 45:8 46:16 53:12 54:16 61:12 62:12 #
-0.16151100786692298982849536059803 3:5 4:11 5:14 6:5 10:7 11:13 12:5 13:4 14:14 15:2 19:4 20:8 21:2 22:14 23:2 27:1 28:13 29:14 30:3 35:1 36:14 37:8 43:9 44:9 45:10 46:2 51:13 52:1 53:8 54:8 59:6 60:13 61:14 62:7 #
-0.077317496119630221840246520059736 4:2 5:9 6:15 7:9 11:8 12:14 13:7 14:9 15:12 18:3 19:16 20:5 21:4 22:13 23:6 26:2 27:10 28:12 29:15 30:14 37:1 38:13 39:3 45:2 46:16 53:7 54:12 61:12 62:6 #
-0.023033857380018851052083661556935 3:2 4:11 5:16 6:7 11:8 12:16 13:16 14:2 18:2 19:16 20:16 21:16 27:5 28:16 29:16 35:2 36:16 37:16 38:1 43:8 44:16 45:16 46:3 51:9 52:16 53:16 54:13 59:2 60:12 61:13 62:9 #
0.50000003576649798553432901826454 3:5 4:12 5:11 6:2 10:1 11:14 12:15 13:13 14:14 18:2 19:15 20:4 21:6 22:16 28:2 29:13 30:12 36:11 37:16 38:13 39:2 44:1 45:5 46:12 47:12 51:8 52:11 53:8 54:14 55:12 59:7 60:16 61:12 62:12 63:3 #
0.50000003576649798553432901826454 3:4 4:14 5:12 6:1 11:11 12:11 13:10 14:5 21:12 22:9 28:7 29:16 30:12 31:2 37:4 38:10 39:10 43:1 44:1 46:3 47:14 51:11 52:6 53:3 54:12 55:13 59:6 60:14 61:16 62:11 63:1 #
-0.28110349880012996948153158882633 3:10 4:15 5:9 6:1 10:5 11:16 12:10 13:16 14:9 18:7 19:10 21:14 22:10 26:3 27:15 28:7 29:12 30:15 31:1 35:4 36:11 37:14 38:16 39:4 46:12 47:11 51:11 52:9 53:5 54:12 55:13 59:10 60:12 61:12 62:15 63:11 #
-0.19339012919250217481526021856553 3:4 4:14 5:13 6:4 11:13 12:14 13:6 14:15 19:4 20:15 21:8 22:16 28:3 29:14 30:14 36:9 37:16 38:12 43:8 44:15 45:4 46:15 47:3 51:15 52:8 53:4 54:14 55:7 59:4 60:13 61:13 62:12 63:2 #
-0.50000003576649798553432901826454 2:1 3:14 4:16 5:14 6:4 10:3 11:16 12:8 13:8 14:14 19:15 20:14 21:13 22:9 27:3 28:11 29:16 30:4 37:12 38:12 45:4 46:16 47:3 51:3 52:4 53:3 54:16 55:1 59:12 60:14 61:16 62:14 63:1 #
0.50000003576649798553432901826454 3:5 4:12 5:14 10:2 11:14 12:10 13:15 18:3 19:15 20:11 21:11 26:2 27:12 28:15 29:11 30:2 37:8 38:15 39:1 45:1 46:14 47:4 51:2 52:7 53:4 54:14 55:3 59:3 60:13 61:14 62:10 #
0.50000003576649798553432901826454 3:8 4:13 5:8 10:4 11:13 12:6 13:14 14:3 18:7 19:8 21:12 22:5 26:3 27:10 28:8 29:16 30:1 36:5 37:14 38:12 46:13 47:8 51:10 52:10 54:6 55:12 59:4 60:15 61:16 62:16 63:6 #
0.50000003576649798553432901826454 3:5 4:12 5:12 10:3 11:16 12:12 13:15 14:4 18:4 19:14 21:14 22:6 26:1 27:12 28:11 29:12 35:7 36:16 37:8 38:1 43:1 44:5 45:12 46:13 47:1 51:8 52:4 54:16 55:4 59:8 60:15 61:15 62:11 63:1 #
-0.11639413138447558815347093741366 3:9 4:15 5:12 6:6 10:3 11:16 12:15 13:13 14:8 18:2 19:16 20:4 21:12 22:5 27:13 28:16 29:10 35:8 36:14 37:11 38:1 42:1 43:12 45:14 46:6 51:13 52:5 53:2 54:16 55:2 59:7 60:14 61:16 62:16 63:2 #
-0.049062124836967709040624896488225 3:12 4:16 5:6 10:3 11:15 12:12 13:12 18:6 19:12 20:8 21:12 26:3 27:14 28:11 29:10 35:5 36:16 37:3 43:13 44:12 50:8 51:16 52:12 53:7 54:5 55:2 59:12 60:13 61:10 62:10 63:4 #
-0.17713208269693689334012276503927 3:4 4:14 5:11 6:1 11:9 12:8 13:10 14:9 19:7 21:14 22:4 27:9 28:11 29:14 30:1 35:1 36:15 37:8 43:3 44:13 45:12 46:5 51:8 52:8 53:4 54:14 59:3 60:15 61:16 62:13 #
0.50000003576649798553432901826454 3:8 4:16 5:16 6:10 10:1 11:16 12:14 13:11 14:16 15:1 19:12 20:8 21:13 22:15 23:1 27:1 28:7 29:16 30:7 36:4 37:16 38:6 45:11 46:14 52:4 53:13 54:16 55:2 59:10 60:16 61:16 62:12 #
0.50000003576649798553432901826454 3:12 4:16 5:16 6:10 11:15 12:13 13:13 14:16 15:1 19:3 20:14 21:16 22:14 23:1 28:15 29:14 30:2 36:7 37:16 38:5 45:9 46:16 47:2 51:6 52:5 53:11 54:16 55:8 59:10 60:16 61:16 62:15 63:3 #
0.50000003576649798553432901826454 2:1 3:9 4:12 5:15 6:14 7:4 10:6 11:14 12:4 13:4 14:14 15:8 18:3 19:8 21:7 22:15 23:2 28:6 29:14 30:2 36:8 37:11 44:1 45:15 46:2 51:5 53:12 54:9 59:11 60:16 61:14 62:3 #
-0.24800367972660836146658880352334 2:1 3:14 4:13 5:4 10:6 11:15 12:11 13:15 18:8 19:14 20:9 21:16 22:4 26:2 27:8 28:11 29:15 30:6 37:7 38:13 39:1 46:11 47:10 51:10 52:4 54:3 55:15 59:10 60:14 61:16 62:16 63:15 #
-0.33159516068557848278430810751161 3:3 4:14 5:13 6:2 10:1 11:15 12:16 13:16 14:3 18:2 19:14 20:15 21:5 27:5 28:15 29:6 36:5 37:16 38:7 45:4 46:15 47:7 51:3 52:8 53:12 54:16 55:13 59:3 60:12 61:15 62:14 63:4 #
-0.28117830122853665342219642298005 3:6 4:14 5:14 6:4 11:14 12:15 13:6 14:13 15:2 19:7 20:16 21:16 22:15 23:1 28:10 29:10 37:14 38:1 45:4 46:11 50:3 51:10 52:4 54:13 59:9 60:12 61:16 62:12 #
0.50000003576649798553432901826454 3:9 4:11 5:12 6:12 7:1 11:11 12:12 13:13 14:16 15:4 21:12 22:10 27:2 28:11 29:14 30:2 35:9 36:16 37:5 43:6 44:15 45:16 46:14 47:2 51:3 52:6 53:14 54:16 55:1 59:11 60:16 61:13 62:5 #
0.50000003576649798553432901826454 3:2 4:12 5:16 6:7 12:10 13:16 14:3 20:3 21:15 22:5 29:6 30:15 31:3 38:8 39:14 46:11 47:16 52:3 53:13 54:16 55:9 59:6 60:16 61:12 62:8 63:1 #
0.50000003576649798553432901826454 2:3 3:12 4:12 5:3 10:8 11:10 12:11 13:9 19:2 20:14 21:4 27:12 28:13 29:1 35:3 36:13 37:15 38:3 45:7 46:14 47:1 50:2 51:4 52:4 53:3 54:11 55:7 58:5 59:12 60:12 61:14 62:16 63:8 #
-0.14856280076284730795599386965478 3:2 4:15 5:12 11:3 12:16 13:14 14:10 20:5 21:13 22:16 23:2 30:12 31:8 38:7 39:11 46:7 47:13 51:2 53:2 54:11 55:11 59:3 60:13 61:15 62:16 63:6 #
-0.10138995025883601464045113971224 3:4 4:16 5:16 6:4 11:10 12:16 13:16 14:13 19:3 20:13 21:11 22:16 23:2 30:13 31:8 38:11 39:9 46:13 47:9 53:8 54:16 55:5 59:3 60:16 61:16 62:11 #
-0.090843887848104099003165856629494 3:2 4:15 5:11 6:1 11:6 12:16 13:16 14:14 19:3 20:15 21:16 22:16 23:5 28:5 29:7 30:11 31:9 38:13 39:13 45:1 46:16 47:8 52:2 53:13 54:16 55:5 59:5 60:15 61:16 62:6 #
0.50000003576649798553432901826454 3:6 4:16 5:9 10:2 11:15 12:16 13:14 18:2 19:10 20:16 21:6 26:2 27:16 28:16 29:9 30:2 35:3 36:10 37:16 38:14 39:1 45:10 46:16 47:5 51:4 52:8 53:8 54:16 55:7 59:8 60:16 61:16 62:13 #
0.50000003576649798553432901826454 3:13 4:16 5:13 6:1 10:3 11:16 12:13 13:16 14:8 19:9 20:11 21:16 22:7 28:14 29:14 36:11 37:15 38:12 39:1 45:1 46:14 47:10 50:1 51:11 52:6 53:4 54:8 55:16 56:3 59:13 60:16 61:16 62:16 63:16 64:2 #
0.50000003576649798553432901826454 3:1 4:12 5:15 6:1 11:10 12:16 13:16 18:3 19:16 20:15 21:10 26:6 27:16 28:15 29:15 30:2 35:4 36:2 37:14 38:15 39:1 45:3 46:15 47:5 51:2 52:14 53:14 54:16 55:5 60:15 61:16 62:13 63:1 #
-0.13784665825238859304668892491463 4:13 5:7 11:9 12:16 13:15 18:8 19:16 20:16 21:14 26:7 27:8 28:11 29:16 30:4 36:2 37:16 38:10 45:10 46:16 47:4 51:1 52:7 53:11 54:16 55:12 60:11 61:16 62:14 63:8 #
-0.13582332348277864619845445304236 3:2 4:16 5:14 6:1 11:6 12:16 13:16 14:5 18:2 19:16 20:16 21:16 22:3 27:3 28:9 29:16 30:4 36:2 37:16 38:10 45:15 46:16 51:2 52:9 53:16 54:16 55:3 59:2 60:14 61:16 62:10 63:1 #
-0.094938394595671299347472427143657 3:1 4:15 5:14 11:6 12:16 13:8 19:14 20:16 21:13 26:9 27:15 28:14 29:16 30:1 34:5 35:3 36:6 37:16 38:5 44:3 45:16 46:11 52:5 53:14 54:15 59:3 60:15 61:16 62:16 63:6 #
0.50000003576649798553432901826454 3:11 4:12 5:12 6:13 7:16 8:8 11:9 12:12 13:12 14:13 15:16 16:4 21:2 22:16 23:11 29:13 30:14 31:1 37:14 38:14 45:6 46:16 47:6 51:1 52:4 53:9 54:16 55:4 59:14 60:16 61:15 62:6 #
0.50000003576649798553432901826454 3:9 4:12 5:14 6:16 7:16 8:2 11:4 12:12 13:9 14:12 15:16 16:1 21:1 22:14 23:8 29:8 30:14 31:1 36:2 37:16 38:12 45:13 46:16 47:5 52:1 53:13 54:14 55:1 59:10 60:16 61:13 62:1 #
0.50000003576649798553432901826454 3:1 4:9 5:16 6:16 7:12 8:1 11:10 12:13 13:8 14:12 15:16 16:3 19:2 21:1 22:13 23:10 28:9 29:16 30:11 36:14 37:16 38:15 44:7 45:10 46:16 47:2 51:2 52:16 53:14 54:13 60:14 61:14 62:2 #
-0.059215522256315308857743673343066 3:6 4:16 5:16 6:16 7:12 11:6 12:12 13:11 14:15 15:16 16:1 22:15 23:12 27:1 28:11 29:12 30:16 31:3 35:3 36:16 37:16 38:16 39:4 44:9 45:16 46:13 47:3 51:1 52:16 53:9 59:7 60:15 61:4 #
-0.02955870166410404231704944777448 4:10 5:14 11:4 12:16 13:7 19:8 20:16 21:6 22:8 27:14 28:9 29:8 30:15 34:4 35:16 36:3 37:11 38:15 39:6 42:10 43:16 44:16 45:16 46:16 47:9 50:6 51:12 52:13 53:16 54:7 60:12 61:16 62:2 #
-0.088846535460412684459541310388886 3:1 4:8 5:12 6:12 7:2 11:13 12:12 13:12 14:15 15:9 22:14 23:10 28:2 29:8 30:16 31:8 35:2 36:16 37:16 38:15 39:5 44:1 45:16 46:8 52:8 53:16 54:4 60:9 61:12 #
0.50000003576649798553432901826454 2:3 3:13 4:16 5:14 6:2 10:14 11:11 12:3 13:16 14:8 18:7 19:3 20:7 21:16 22:8 27:5 28:16 29:16 30:16 31:5 35:2 36:10 37:6 38:11 39:12 46:11 47:13 50:1 51:10 52:1 53:4 54:15 55:9 58:2 59:15 60:16 61:16 62:11 #
0.50000003576649798553432901826454 2:2 3:11 4:15 5:16 6:10 10:5 11:12 12:9 13:16 14:15 20:11 21:15 22:5 27:11 28:16 29:3 35:8 36:15 37:16 38:8 44:2 45:9 46:16 47:5 51:7 52:11 53:15 54:14 55:3 59:15 60:13 61:7 #
0.50000003576649798553432901826454 2:5 3:14 4:12 5:15 6:15 7:3 11:2 12:4 13:11 14:16 15:5 20:1 21:15 22:9 28:7 29:16 30:1 36:3 37:16 38:11 45:15 46:16 50:1 51:7 52:10 53:16 54:7 58:2 59:12 60:13 61:4 #
-0.20263044606100366618051111800014 3:11 4:16 5:9 10:9 11:12 12:6 13:14 14:10 18:11 19:5 21:13 22:13 26:1 27:11 28:14 29:12 30:15 31:6 38:12 39:8 46:10 47:10 51:1 53:4 54:13 55:6 59:9 60:14 61:16 62:10 #
-0.21679463581693850238174547939707 3:12 4:16 5:12 6:16 7:3 11:14 12:14 13:8 14:8 15:1 19:7 20:15 21:1 27:1 28:14 29:11 36:6 37:16 38:1 45:12 46:11 50:2 51:7 52:6 53:14 54:13 59:12 60:16 61:16 62:6 #
-0.17023089685767289758189235726604 2:1 3:13 4:16 5:16 6:12 7:1 10:2 11:16 12:16 13:16 14:15 15:2 19:5 20:12 21:16 22:14 29:10 30:15 37:12 38:12 44:3 45:16 46:9 50:1 51:8 52:13 53:15 54:2 58:2 59:13 60:16 61:6 #
0.50000003576649798553432901826454 3:1 4:11 5:16 6:6 11:12 12:14 13:11 14:16 15:3 19:11 20:5 21:2 22:16 23:5 29:7 30:14 31:2 36:7 37:16 38:7 44:3 45:16 46:10 52:12 53:16 54:15 59:1 60:12 61:16 62:7 #
0.50000003576649798553432901826454 3:2 4:8 5:15 6:11 10:2 11:15 12:14 13:12 14:16 15:4 18:2 19:7 21:10 22:15 28:3 29:15 30:3 36:13 37:9 44:4 45:14 46:5 50:2 51:10 52:8 53:7 54:16 55:6 59:4 60:9 61:13 62:15 63:7 #
0.50000003576649798553432901826454 3:12 4:16 5:16 6:10 11:13 12:13 13:8 14:16 15:5 22:16 23:8 27:1 28:8 29:13 30:15 31:2 35:7 36:16 37:16 38:15 39:3 44:3 45:4 46:11 47:15 50:1 51:11 53:2 54:13 55:15 58:1 59:13 60:16 61:16 62:14 63:6 #
-0.12373789165176272974999704956645 3:6 4:13 5:15 6:5 10:7 11:16 12:11 13:11 14:16 18:10 19:12 21:3 22:16 23:2 26:4 27:3 29:5 30:13 37:14 38:6 44:6 45:14 46:1 51:2 52:16 53:14 54:16 55:13 59:8 60:16 61:12 62:8 #
-0.13577537481473397895648247413192 3:6 4:15 5:16 6:12 7:1 10:3 11:16 12:9 13:8 14:15 15:7 18:3 19:3 22:15 23:6 29:6 30:15 31:2 36:1 37:15 38:6 43:1 44:12 45:10 51:8 52:16 53:13 54:13 55:6 59:6 60:14 61:12 62:4 #
-0.23942500734692262476244195568142 2:2 3:4 4:7 5:13 6:15 7:2 10:14 11:16 12:16 13:15 14:16 15:5 18:1 19:4 21:14 22:14 29:16 30:12 36:3 37:16 38:7 44:5 45:16 46:7 52:5 53:16 54:6 60:7 61:16 62:9 #
0.50000003576649798553432901826454 3:8 4:14 5:12 6:2 10:10 11:14 12:12 13:14 18:6 19:2 20:11 21:7 28:12 29:5 36:8 37:15 38:2 45:9 46:14 47:3 51:6 52:2 53:7 54:14 55:8 59:14 60:15 61:11 62:4 #
0.50000003576649798553432901826454 3:8 4:16 5:16 6:12 10:4 11:16 12:16 13:16 14:15 15:2 18:2 19:11 20:16 21:16 22:11 28:15 29:16 30:7 37:11 38:16 39:2 43:7 46:15 47:5 50:2 51:16 52:7 53:7 54:15 55:7 59:8 60:14 61:12 62:5 #
0.50000003576649798553432901826454 2:2 3:5 4:10 5:16 6:6 10:4 11:12 12:13 13:16 14:5 20:5 21:16 28:11 29:11 36:11 37:13 38:2 44:1 45:12 46:15 47:4 53:7 54:16 55:8 59:1 60:13 61:16 62:11 63:2 #
-0.10608206696160700499564910614936 3:1 4:7 5:14 6:15 7:2 10:2 11:12 12:14 13:8 14:14 15:7 18:3 19:14 20:13 21:5 22:14 23:5 27:5 28:15 29:16 30:15 31:2 36:10 37:16 38:10 43:2 44:14 45:14 46:12 51:4 52:16 53:14 54:12 60:12 61:13 62:6 #
-0.17067261152111490307703434154973 2:1 3:7 4:15 5:10 10:6 11:14 12:7 13:16 14:2 18:6 19:14 20:12 21:16 22:13 26:1 27:12 28:16 29:11 36:13 37:16 38:3 43:4 44:12 45:3 46:14 47:2 51:8 52:9 54:11 55:8 59:6 60:16 61:16 62:11 63:2 #
-0.13023657251427775416452448098426 3:5 4:16 5:16 6:5 10:5 11:16 12:11 13:7 14:1 18:11 19:16 20:14 21:5 26:4 27:8 28:11 29:16 30:13 31:1 37:4 38:16 39:7 43:2 46:9 47:11 51:8 52:11 53:8 54:15 55:7 59:3 60:12 61:16 62:9 #
0.50000003576649798553432901826454 2:8 3:12 4:16 5:13 10:2 11:10 12:10 13:16 14:8 21:10 22:16 23:4 29:10 30:16 31:4 36:4 37:16 38:14 45:12 46:16 47:8 51:4 52:8 53:15 54:16 55:8 58:10 59:16 60:16 61:11 62:3 #
0.50000003576649798553432901826454 3:15 4:16 5:16 6:11 7:3 11:11 12:7 13:7 14:13 15:13 21:5 22:15 23:6 27:2 28:11 29:16 30:7 35:3 36:16 37:16 38:13 39:1 45:8 46:16 47:2 51:14 52:12 53:15 54:11 59:11 60:9 61:6 #
0.50000003576649798553432901826454 2:1 3:14 4:16 5:5 10:2 11:13 12:13 13:16 14:4 19:4 20:13 21:16 22:3 27:9 28:16 29:16 30:13 35:4 36:8 37:8 38:16 39:8 44:1 45:5 46:14 47:11 50:1 51:13 52:16 53:16 54:15 55:3 59:15 60:11 61:5 62:1 #
-0.13106779547597779966849884658586 3:3 4:12 5:16 6:8 11:12 12:12 13:15 14:12 21:7 22:12 29:13 30:7 35:4 36:15 37:16 38:9 39:1 43:5 44:15 45:16 46:16 47:3 52:14 53:14 54:5 59:4 60:15 61:3 #
-0.20039620427078511100127400368365 2:1 3:11 4:16 5:16 6:13 7:2 10:6 11:16 12:16 13:8 14:13 15:8 19:10 20:16 21:14 22:15 23:8 28:7 29:12 30:14 31:5 38:8 39:4 46:11 47:4 51:8 52:8 53:9 54:15 55:4 58:2 59:13 60:16 61:16 62:9 63:1 #
-0.20600891638059840027530356110219 3:2 4:16 5:15 6:7 11:3 12:12 13:13 14:13 20:6 21:16 22:10 28:6 29:16 30:3 35:3 36:15 37:10 38:12 42:1 43:13 44:5 46:13 47:6 51:16 52:5 54:7 55:15 59:3 60:11 61:16 62:16 63:12 64:2 #
0.50000003576649798553432901826454 3:1 4:9 5:15 6:7 7:1 10:4 11:13 12:15 13:13 14:16 15:4 18:11 19:13 20:1 21:11 22:14 29:16 30:12 37:14 38:12 45:9 46:14 47:1 52:3 53:13 54:15 60:12 61:13 62:3 #
0.50000003576649798553432901826454 3:5 4:12 5:12 6:1 10:11 11:16 12:12 13:14 14:9 18:14 19:7 21:10 22:11 27:3 28:15 29:16 30:8 35:2 36:12 37:12 38:14 39:3 46:10 47:14 51:9 52:10 53:8 54:13 55:16 59:6 60:12 61:16 62:12 63:4 #
0.50000003576649798553432901826454 3:2 4:9 5:15 6:12 10:1 11:13 12:13 13:10 14:16 15:1 19:10 20:2 21:8 22:16 28:4 29:16 30:14 31:1 37:4 38:15 39:4 46:15 47:5 52:12 53:15 54:16 55:1 60:9 61:13 62:7 #
-0.15432455095232028297047577325429 3:1 4:7 5:14 6:12 11:13 12:11 13:12 14:14 18:9 19:16 20:12 21:14 22:14 26:2 27:4 28:2 29:5 30:15 37:3 38:15 45:3 46:16 53:14 54:7 59:2 60:11 61:11 62:1 #
-0.10095793881442433059802965544804 3:2 4:7 5:14 6:14 7:2 10:2 11:15 12:9 13:5 14:15 15:3 18:2 19:16 20:8 21:8 22:15 27:4 28:7 29:11 30:15 31:2 38:16 39:6 45:10 46:13 47:1 52:6 53:14 54:2 60:10 61:4 #
-0.16965773054443150646974913797749 3:5 4:15 5:13 6:2 11:14 12:13 13:9 14:13 19:10 22:10 23:2 30:11 31:3 37:2 38:15 44:1 45:12 46:9 51:10 52:12 53:16 54:14 55:2 59:5 60:14 61:12 62:11 63:4 #
0.50000003576649798553432901826454 2:1 3:10 4:15 5:15 6:6 10:8 11:16 12:15 13:14 14:15 15:3 18:3 19:6 20:3 21:15 22:15 28:12 29:16 30:5 36:8 37:16 38:2 44:4 45:16 46:8 51:4 52:15 53:16 54:4 59:14 60:16 61:7 #
0.50000003576649798553432901826454 2:2 3:14 4:16 5:13 6:7 10:3 11:12 12:8 13:13 14:16 20:5 21:14 22:11 26:2 27:12 28:16 29:10 30:1 34:3 35:16 36:15 37:9 38:1 43:3 44:11 45:15 46:15 47:1 50:3 51:6 52:4 53:5 54:16 55:8 58:3 59:13 60:16 61:14 62:12 63:2 #
0.50000003576649798553432901826454 3:10 4:16 5:15 6:6 12:4 13:16 14:15 21:14 22:13 29:14 30:16 31:3 37:3 38:15 39:12 45:1 46:15 47:15 52:2 53:12 54:16 55:8 59:7 60:15 61:15 62:7 #
-0.17864813078487465358712427132559 3:4 4:16 5:13 11:14 12:9 13:15 18:5 19:14 20:2 21:16 22:6 26:9 27:12 28:7 29:15 30:10 34:3 35:16 36:15 37:9 38:16 39:1 43:4 45:1 46:14 47:5 52:6 53:6 54:12 55:7 59:2 60:16 61:16 62:13 63:1 #
-0.08264070582519744689875551557634 2:1 3:10 4:16 5:16 6:14 7:6 10:11 11:16 12:7 13:4 14:16 15:10 18:9 19:16 20:10 21:10 22:16 23:4 27:5 28:12 29:16 30:3 36:7 37:16 44:13 45:15 51:6 52:16 53:7 58:2 59:15 60:10 #
-0.15409138820743531472778897750686 3:10 4:16 5:9 10:2 11:16 12:16 13:16 14:2 19:8 20:1 21:15 22:8 29:14 30:9 36:1 37:16 38:10 44:9 45:16 46:16 47:7 51:8 52:16 53:15 54:12 55:15 56:5 59:13 60:15 61:1 63:5 64:6 #
0.50000003576649798553432901826454 3:3 4:10 5:14 6:14 7:3 11:15 12:6 13:9 14:16 15:4 19:1 20:5 21:14 22:6 27:7 28:16 29:9 30:1 35:2 36:9 37:13 38:15 39:1 45:4 46:16 47:2 52:7 53:15 54:6 60:14 61:7 #
0.50000003576649798553432901826454 3:7 4:15 5:16 6:12 11:9 12:6 13:3 14:15 15:2 20:4 21:13 22:9 27:9 28:16 29:16 30:6 35:5 36:5 37:6 38:15 39:4 43:8 46:4 47:12 50:1 51:13 52:1 53:3 54:12 55:8 59:8 60:16 61:15 62:10 #
0.50000003576649798553432901826454 3:9 4:16 5:8 10:9 11:13 12:4 13:13 18:7 19:6 20:1 21:14 28:9 29:16 30:9 36:8 37:6 38:13 39:6 46:4 47:11 51:6 53:3 54:12 55:5 59:9 60:16 61:16 62:7 #
-0.12535291510753787669329994969303 3:2 4:10 5:12 6:14 7:16 8:12 11:8 12:16 13:16 14:16 15:14 16:4 19:2 20:16 21:12 22:4 27:1 28:16 29:15 30:2 36:8 37:16 38:11 45:13 46:16 52:7 53:16 54:11 59:1 60:16 61:11 62:1 #
-0.067665613239796612576881784661964 3:2 4:7 5:12 6:8 11:11 12:16 13:16 14:6 19:6 20:12 27:13 28:8 29:4 35:14 36:16 37:16 38:14 39:1 43:3 44:8 45:9 46:16 47:2 52:9 53:10 54:14 60:13 61:13 62:4 #
-0.1210039846759446841018004192847 3:9 4:14 5:12 6:8 10:8 11:13 13:2 14:16 15:2 18:11 19:14 20:14 21:14 22:6 26:1 27:14 28:16 29:13 30:1 34:3 35:15 36:4 37:6 38:12 42:1 43:15 46:8 47:9 50:3 51:16 52:1 53:3 54:13 55:6 59:8 60:16 61:13 62:6 #
0.50000003576649798553432901826454 2:4 3:15 4:16 5:16 6:12 7:1 10:15 11:13 12:5 13:5 14:16 15:8 18:7 19:3 21:10 22:16 23:4 27:1 28:11 29:16 30:10 35:7 36:16 37:10 43:1 44:7 45:16 46:6 50:3 51:8 52:6 53:16 54:10 58:5 59:16 60:16 61:12 62:1 #
0.50000003576649798553432901826454 3:3 4:12 5:16 6:15 7:4 11:14 12:16 13:14 14:16 15:6 18:1 19:11 20:3 21:13 22:13 23:1 27:1 28:14 29:12 30:1 35:3 36:16 37:14 38:3 43:1 44:6 45:16 46:14 47:1 51:14 52:13 53:14 54:15 59:4 60:16 61:15 62:5 #
0.50000003576649798553432901826454 2:5 3:14 4:10 5:4 10:3 11:12 12:16 13:16 14:6 19:1 20:13 21:16 22:5 27:8 28:16 29:13 30:2 35:5 36:16 37:13 38:2 44:6 45:16 46:15 47:4 50:1 51:8 52:9 53:15 54:16 55:5 58:4 59:15 60:14 61:8 62:4 #
-0.076480564746026574729498292981589 3:11 4:15 5:6 11:10 12:16 13:8 19:8 20:16 21:16 26:2 27:12 28:16 29:14 30:2 35:6 36:16 37:16 38:7 43:8 44:16 45:16 46:9 51:12 52:16 53:16 54:15 55:3 59:8 60:15 61:12 62:5 63:1 #
-0.053060187713539257170491936221879 3:11 4:12 5:7 11:5 12:16 13:16 14:9 19:4 20:16 21:16 22:12 27:4 28:16 29:16 30:13 35:3 36:15 37:16 38:12 43:2 44:13 45:16 46:12 51:11 52:16 53:16 54:5 59:8 60:10 61:8 #
-0.026430180783858944065789486899121 3:9 4:15 5:16 6:7 11:16 12:9 13:7 14:15 19:5 20:14 21:13 22:8 28:14 29:14 35:4 36:16 37:13 43:10 44:8 45:12 51:13 52:8 53:15 54:1 59:11 60:16 61:5 #
0.50000003576649798553432901826454 3:6 4:15 5:16 6:16 7:7 11:8 12:13 13:15 14:16 15:7 19:1 20:15 21:14 22:8 27:2 28:16 29:16 30:13 31:2 36:3 37:11 38:16 39:5 45:7 46:16 47:4 51:1 52:10 53:15 54:11 59:6 60:16 61:9 #
0.50000003576649798553432901826454 2:7 3:16 4:16 5:16 6:9 10:3 11:8 12:4 13:13 14:16 20:8 21:16 22:6 28:4 29:16 30:4 37:11 38:15 39:5 45:1 46:13 47:15 51:5 52:9 53:15 54:16 55:10 58:4 59:16 60:16 61:10 62:3 #
0.50000003576649798553432901826454 2:2 3:15 4:16 5:16 6:12 7:2 11:2 12:10 13:16 14:16 15:5 20:11 21:16 22:5 28:11 29:16 30:10 36:1 37:10 38:16 39:7 45:8 46:16 47:9 51:5 52:11 53:16 54:15 55:2 58:3 59:16 60:14 61:10 62:2 #
-0.20794875748986899055559263160831 3:3 4:13 5:15 6:16 7:16 8:3 11:10 12:16 13:13 14:13 15:11 16:1 19:11 20:16 21:11 22:4 27:4 28:13 29:16 30:15 31:1 36:2 37:13 38:16 39:1 45:6 46:16 52:5 53:15 54:7 59:3 60:16 61:9 #
-0.11418689421311271903203277133798 3:6 4:15 5:12 6:10 7:8 11:11 12:16 13:16 14:16 15:7 18:1 19:14 20:11 21:12 22:6 26:4 27:16 28:16 29:16 30:13 34:2 35:11 36:8 37:10 38:16 39:2 45:1 46:16 47:1 52:11 53:13 54:15 59:4 60:16 61:12 62:1 #
-0.26482874524300104024376878442126 3:11 4:15 5:10 10:2 11:13 13:9 14:3 18:3 19:12 21:10 27:11 28:12 29:12 36:11 37:14 38:6 42:1 43:9 44:5 46:10 47:5 50:4 51:10 54:8 55:4 58:1 59:14 60:11 61:14 62:10 #
0.50000003576649798553432901826454 2:1 3:7 4:11 5:15 6:11 7:1 10:4 11:9 12:4 14:13 15:5 21:9 22:15 23:1 27:4 28:15 29:11 30:3 35:3 36:16 37:8 38:2 44:2 45:7 46:16 47:6 52:6 53:9 54:16 55:5 59:13 60:12 61:7 62:3 #
0.50000003576649798553432901826454 2:2 3:12 4:15 5:16 6:10 7:1 10:3 11:16 12:5 13:10 14:16 15:3 20:5 21:15 22:7 28:14 29:8 36:15 37:4 44:4 45:14 46:2 50:1 51:2 52:2 53:15 54:6 58:2 59:12 60:15 61:12 62:1 #
0.50000003576649798553432901826454 2:1 3:11 4:12 10:7 11:14 12:15 13:6 18:7 19:3 20:12 21:10 28:15 29:14 30:5 36:8 37:10 38:16 39:2 46:12 47:8 51:9 52:8 53:8 54:15 55:10 59:13 60:16 61:14 62:8 63:1 #
-0.19574676078202579709852670930559 3:6 4:12 5:14 6:6 10:12 11:14 12:6 13:4 14:15 18:11 19:1 21:5 22:12 26:6 27:11 28:5 29:15 30:3 35:7 36:15 37:12 38:2 43:5 44:13 45:8 46:13 47:1 51:11 52:5 53:6 54:14 55:7 59:5 60:16 61:12 62:7 63:1 #
-0.013161294652853624057020631710202 3:8 4:16 5:15 6:11 11:5 12:7 13:11 14:16 15:3 21:9 22:13 27:7 28:15 29:15 30:5 35:8 36:14 37:16 38:14 39:4 44:10 45:9 46:4 47:1 51:4 52:14 53:1 59:10 60:7 #
-0.12106568063643122212802438752988 3:6 4:12 5:14 6:14 7:2 10:12 11:16 12:11 13:4 14:5 15:2 18:4 19:14 20:5 27:9 28:13 29:1 35:2 36:13 37:15 38:6 44:2 45:11 46:15 47:6 51:8 52:6 53:6 54:15 55:8 59:6 60:16 61:16 62:9 #
0.50000003576649798553432901826454 3:1 4:8 5:14 6:16 7:12 11:10 12:15 13:13 14:16 15:12 18:1 19:12 20:3 21:9 22:15 23:1 28:8 29:16 30:8 36:8 37:16 38:16 39:4 44:1 45:8 46:16 47:6 52:5 53:15 54:12 55:1 60:13 61:10 62:1 #
0.50000003576649798553432901826454 3:6 4:15 5:12 6:1 10:8 11:13 12:4 13:10 14:8 18:2 21:15 22:6 28:6 29:16 30:5 36:16 37:16 38:16 39:5 43:4 44:5 45:1 46:16 47:7 50:2 51:16 52:10 53:14 54:15 59:6 60:13 61:9 62:1 #
0.50000003576649798553432901826454 3:5 4:15 5:9 10:2 11:13 12:8 13:15 14:5 18:2 19:2 21:8 22:5 27:5 28:9 29:15 30:2 35:11 36:15 37:15 38:11 45:1 46:14 47:1 51:4 52:9 53:4 54:11 55:3 59:5 60:12 61:13 62:9 #
-0.060408794779940044872290627608891 2:3 3:15 4:12 5:11 6:12 7:2 10:12 11:16 12:16 13:16 14:16 15:6 18:12 19:13 21:3 22:4 26:3 27:15 28:13 29:2 35:5 36:15 37:11 44:6 45:16 46:3 51:5 52:12 53:16 54:3 58:4 59:16 60:16 61:12 #
-0.099281267654373020481450851093541 3:2 4:9 5:15 6:16 7:7 11:15 12:9 13:8 14:15 15:9 18:2 19:15 20:3 21:4 22:16 23:2 26:4 27:15 28:15 29:16 30:2 35:1 36:16 37:16 38:9 43:10 44:10 45:10 46:16 47:3 51:10 52:12 53:10 54:16 55:4 59:2 60:13 61:12 62:8 63:1 #
-0.1747544913581800252178055643526 3:10 4:16 5:16 6:12 11:6 12:16 13:9 14:7 19:7 20:16 21:4 27:11 28:16 29:16 30:10 31:1 35:3 36:8 37:6 38:13 39:11 46:7 47:16 53:3 54:15 55:15 59:10 60:16 61:16 62:13 63:2 #
0.50000003576649798553432901826454 2:6 3:15 4:16 5:16 6:15 7:6 10:9 11:16 12:6 13:5 14:15 15:12 19:1 20:1 21:13 22:15 23:3 28:5 29:16 30:5 37:14 38:10 45:12 46:14 50:3 51:7 52:5 53:14 54:13 58:9 59:16 60:16 61:13 62:2 #
0.50000003576649798553432901826454 3:9 4:16 5:15 6:5 11:4 12:7 13:12 14:15 20:1 21:9 22:16 23:3 28:10 29:16 30:13 36:3 37:8 38:15 39:9 46:7 47:14 51:10 52:7 53:4 54:10 55:16 56:1 59:7 60:16 61:16 62:16 63:10 #
0.50000003576649798553432901826454 2:4 3:16 4:16 5:6 10:7 11:13 12:8 13:15 14:1 20:6 21:16 22:2 27:3 28:16 29:14 30:1 35:1 36:11 37:15 38:13 39:1 45:3 46:14 47:8 50:5 51:6 54:7 55:16 58:3 59:14 60:16 61:16 62:16 63:10 #
-0.20089328650866081216186387337075 3:2 4:14 5:15 6:8 11:8 12:10 13:3 14:15 15:1 19:5 20:11 21:1 22:15 23:4 28:12 29:15 30:16 31:5 37:2 38:8 39:6 42:1 43:3 46:7 47:5 50:1 51:12 52:4 54:10 55:7 59:4 60:14 61:14 62:13 63:1 #
-0.24354317944166645193426745663601 3:5 4:12 5:6 11:11 12:16 13:15 14:6 19:10 20:11 21:11 22:15 23:2 27:4 28:15 29:15 30:16 31:6 36:4 37:8 38:13 39:9 46:8 47:13 51:9 52:8 53:8 54:12 55:13 59:5 60:10 61:13 62:12 63:5 #
-0.094562886913963306589891999465181 3:8 4:16 5:16 6:9 11:15 12:9 13:6 14:14 15:2 19:16 20:5 21:1 22:16 23:8 27:9 28:16 29:16 30:16 31:11 36:6 37:7 38:10 39:12 42:1 43:3 46:8 47:14 50:4 51:13 52:5 54:11 55:12 59:9 60:16 61:16 62:16 63:6 #
0.50000003576649798553432901826454 3:2 4:11 5:15 6:13 10:5 11:15 12:15 13:13 14:15 18:9 19:13 20:3 21:16 22:7 26:3 27:3 28:4 29:16 30:4 36:2 37:16 38:11 45:7 46:16 47:6 52:9 53:8 54:15 55:12 60:13 61:16 62:13 63:3 #
0.50000003576649798553432901826454 2:1 3:8 4:13 5:16 6:8 10:11 11:13 12:6 13:8 14:15 15:1 18:2 19:1 20:9 21:14 22:5 27:14 28:16 29:14 30:3 35:8 36:4 37:10 38:15 39:1 46:13 47:7 50:2 51:15 52:8 53:9 54:15 55:1 58:1 59:10 60:13 61:13 62:4 #
0.50000003576649798553432901826454 2:3 3:11 4:16 5:7 10:5 11:12 12:8 13:16 20:10 21:14 27:10 28:14 29:3 35:10 36:16 37:16 38:15 39:3 45:3 46:10 47:8 51:4 52:7 53:10 54:15 55:5 58:5 59:13 60:12 61:10 62:3 #
-0.17499715106620294946537796931807 3:2 4:12 5:13 10:3 11:15 12:13 13:16 18:10 19:13 20:1 21:16 27:1 28:4 29:16 36:6 37:13 44:9 45:10 46:7 47:8 52:14 53:15 54:15 55:3 60:15 61:12 62:3 #
-0.08816391539459160486824629288094 4:3 5:14 6:5 12:6 13:16 14:13 15:1 20:8 21:16 22:13 23:1 28:9 29:16 30:11 34:5 35:14 36:16 37:16 38:12 43:2 44:9 45:16 46:16 47:4 52:5 53:16 54:16 55:8 60:3 61:13 62:14 63:5 #
-0.040822495087587173934196016489295 3:11 4:13 5:1 10:5 11:16 12:14 13:10 18:9 19:10 20:8 21:12 26:5 27:3 28:10 29:7 35:2 36:15 37:2 43:11 44:10 45:1 46:5 47:3 51:16 52:12 53:14 54:16 55:9 59:13 60:16 61:11 62:3 #
0.50000003576649798553432901826454 3:2 4:11 5:12 6:4 11:11 12:15 13:14 14:11 19:3 20:9 21:12 22:11 28:10 29:16 30:14 31:2 36:2 37:5 38:13 39:7 43:6 46:9 47:11 51:14 52:13 53:8 54:14 55:9 59:5 60:15 61:14 62:11 63:1 #
0.50000003576649798553432901826454 3:9 4:16 5:15 6:4 11:12 12:14 13:12 14:16 15:1 20:10 21:16 22:14 27:2 28:16 29:16 30:10 31:1 36:4 37:8 38:13 39:13 46:4 47:16 48:2 51:9 52:6 53:9 54:15 55:15 59:10 60:16 61:16 62:14 63:3 #
0.50000003576649798553432901826454 3:5 4:12 5:10 10:2 11:15 12:14 13:16 14:1 19:11 20:3 21:16 22:1 29:11 30:5 37:7 38:14 46:9 47:10 51:10 52:7 53:5 54:12 55:12 59:6 60:14 61:16 62:13 63:4 #
-0.50000003576649798553432901826454 3:5 4:16 5:13 6:1 11:12 12:14 13:15 14:5 19:12 20:10 21:16 22:7 27:3 28:15 29:16 30:12 37:2 38:15 39:2 46:8 47:9 50:2 51:12 52:8 53:8 54:13 55:12 58:1 59:6 60:10 61:12 62:12 63:2 #
-0.12386583836843181871678609695664 3:5 4:16 5:15 6:6 11:9 12:15 13:13 14:10 19:11 20:15 21:11 22:4 27:2 28:12 29:13 30:16 31:2 38:7 39:10 46:4 47:13 51:13 52:11 53:8 54:14 55:11 59:4 60:11 61:15 62:15 63:4 #
-0.11960781567800030100734431925957 4:12 5:13 11:4 12:16 13:16 14:9 19:2 20:16 21:6 22:14 26:4 27:3 28:13 29:7 30:9 31:5 34:8 35:12 36:3 37:16 38:12 39:8 43:14 44:5 45:1 46:12 47:8 51:10 52:14 53:13 54:16 55:2 60:13 61:16 62:6 #
0.50000003576649798553432901826454 3:4 4:11 5:16 6:12 7:5 11:6 12:7 13:3 14:11 15:9 22:12 23:4 28:3 29:10 30:10 35:4 36:16 37:15 38:2 43:1 44:7 45:12 46:15 47:1 51:8 52:7 53:5 54:15 59:7 60:12 61:15 62:6 #
0.50000003576649798553432901826454 3:5 4:14 5:15 6:5 10:2 11:16 12:9 13:9 14:15 15:2 18:2 19:10 21:6 22:16 23:3 27:2 28:14 29:16 30:7 36:11 37:16 38:14 39:1 43:6 44:3 45:6 46:16 47:1 51:13 52:11 53:10 54:15 59:9 60:16 61:16 62:7 #
0.50000003576649798553432901826454 3:5 4:15 5:13 6:7 10:4 11:15 12:8 13:7 14:16 15:4 18:6 19:12 20:1 21:10 22:14 23:1 28:12 29:12 30:2 36:14 37:11 38:3 44:1 45:10 46:14 53:4 54:14 55:8 59:4 60:16 61:16 62:14 63:4 #
-0.12317012007969205256152633864986 3:4 4:15 5:15 6:8 7:1 10:2 11:12 12:3 13:10 14:14 15:11 18:3 19:14 20:5 21:3 22:11 23:11 27:7 28:15 29:16 30:14 31:2 35:5 36:16 37:11 38:15 39:2 43:13 44:1 45:2 46:16 47:1 51:10 52:11 53:8 54:15 59:3 60:13 61:14 62:3 #
-0.047642083093882375832706088658597 3:6 4:9 5:14 6:10 7:1 10:4 11:16 12:15 13:5 14:13 15:4 18:7 19:13 20:4 21:6 22:15 23:2 27:9 28:16 29:16 30:9 35:11 36:13 37:15 38:10 43:15 44:4 45:5 46:15 50:1 51:16 52:9 53:10 54:14 59:7 60:13 61:14 62:5 #
-0.097033212072493643662873807897995 3:8 4:14 5:14 6:9 10:1 11:16 12:9 13:14 14:15 15:9 18:2 19:16 20:6 21:9 22:15 23:6 27:8 28:16 29:16 30:4 35:10 36:12 37:13 38:12 42:1 43:15 44:2 45:1 46:16 47:6 50:2 51:14 52:4 53:6 54:16 55:4 59:10 60:16 61:16 62:10 63:1 #
0.50000003576649798553432901826454 2:1 3:8 4:16 5:15 6:1 10:8 11:12 12:14 13:16 19:1 20:16 21:11 27:4 28:16 29:12 30:2 35:1 36:9 37:15 38:16 39:2 43:2 46:15 47:8 50:1 51:16 52:14 53:5 54:15 55:7 59:7 60:13 61:14 62:10 63:1 #
0.50000003576649798553432901826454 3:7 4:15 5:16 6:16 7:13 10:2 11:16 12:9 13:8 14:14 15:16 18:1 19:2 21:4 22:16 23:8 29:10 30:15 31:2 37:7 38:16 39:8 45:3 46:16 47:8 52:5 53:15 54:13 55:1 59:9 60:16 61:11 62:2 #
0.50000003576649798553432901826454 2:2 3:16 4:16 5:12 6:12 7:11 11:3 12:9 13:13 14:16 15:14 16:2 20:1 21:13 22:16 23:4 28:14 29:15 30:3 36:9 37:16 38:6 44:1 45:16 46:12 51:3 52:9 53:16 54:10 58:4 59:16 60:16 61:7 #
-0.070647634003312545503128205837129 3:11 4:16 5:16 6:8 11:11 12:12 13:8 14:13 19:7 20:10 27:3 28:13 36:14 37:2 44:13 45:6 51:6 52:12 53:10 59:11 60:16 61:9 #
-0.10906005808698533698919419521189 3:4 4:10 11:2 12:15 13:2 19:2 20:16 21:4 27:7 28:16 29:9 35:14 36:14 37:14 43:3 44:3 45:16 46:3 51:1 52:7 53:14 54:11 55:4 59:4 60:14 61:16 62:13 63:14 64:8 #
-0.130820838068423428435238520251 2:1 3:5 4:11 5:13 6:5 10:10 11:16 12:16 13:15 14:3 18:10 19:13 26:10 27:14 28:8 29:8 30:3 34:2 35:12 36:13 37:13 38:16 39:5 46:11 47:14 51:2 52:11 53:8 54:14 55:15 59:2 60:11 61:16 62:14 63:6 #
0.50000003576649798553432901826454 3:9 4:12 5:16 6:7 10:10 11:11 12:2 14:16 18:3 19:2 21:10 22:8 28:7 29:15 30:5 36:7 37:9 38:14 39:2 46:8 47:10 51:2 52:2 53:4 54:14 55:5 59:14 60:16 61:14 62:2 #
0.50000003576649798553432901826454 3:8 4:14 5:13 6:3 10:6 11:13 12:3 13:6 14:11 18:1 19:2 21:4 22:13 28:11 29:16 30:11 36:3 37:4 38:11 39:7 46:5 47:9 50:2 51:13 52:1 54:7 55:10 59:9 60:16 61:13 62:12 63:1 #
0.50000003576649798553432901826454 2:2 3:12 4:16 5:16 6:8 10:8 11:10 12:9 13:16 14:6 19:1 20:13 21:13 27:8 28:16 29:5 35:2 36:14 37:15 38:3 45:9 46:15 47:3 52:3 53:4 54:14 55:11 58:3 59:15 60:16 61:16 62:16 63:9 #
-0.15799084260758666786728099395987 2:1 3:9 4:15 5:12 6:2 10:8 11:10 13:7 14:14 18:8 19:4 22:16 23:4 26:2 27:12 28:9 29:9 30:16 31:7 35:1 36:5 37:5 38:9 39:8 46:4 47:11 51:6 52:1 54:10 55:8 59:9 60:13 61:14 62:11 63:2 #
-0.13520612904082199290378696332482 3:7 4:15 5:15 6:8 7:3 10:3 11:14 12:3 14:13 15:8 18:6 19:10 20:1 21:6 22:14 23:8 27:8 28:12 29:6 30:8 31:8 38:8 39:6 46:12 47:3 53:7 54:13 59:7 60:15 61:14 62:2 #
-0.20608141079131184203454552061885 3:12 4:10 5:2 10:2 11:16 12:8 13:10 14:2 19:16 21:10 22:10 27:5 28:10 29:12 30:15 36:6 37:8 38:14 39:3 46:5 47:12 52:1 53:4 54:9 55:13 59:10 60:15 61:16 62:15 63:5 #
0.50000003576649798553432901826454 3:10 4:13 5:7 6:1 10:6 11:16 12:15 13:16 14:5 18:9 19:9 20:8 21:16 22:2 27:2 28:1 29:16 30:8 37:9 38:16 39:1 45:2 46:16 47:10 51:7 52:11 53:14 54:15 55:7 59:11 60:13 61:12 62:3 #
0.50000003576649798553432901826454 2:2 3:9 4:12 5:13 6:4 10:14 11:16 12:13 13:16 14:11 18:5 19:4 20:7 21:16 22:4 28:10 29:16 30:2 36:6 37:16 38:6 45:14 46:16 47:1 51:7 52:11 53:16 54:13 55:1 59:8 60:12 61:7 62:2 #
0.50000003576649798553432901826454 3:4 4:13 5:16 6:16 7:9 10:2 11:12 12:6 13:1 14:12 15:12 18:1 19:3 20:2 21:15 22:10 28:11 29:9 36:4 37:14 38:2 45:13 46:10 53:10 54:11 58:6 59:9 60:13 61:12 62:1 #
-0.15169135218693596822703284487943 2:1 3:13 4:16 5:8 6:1 10:8 11:14 12:10 13:16 14:8 18:11 19:14 20:15 21:16 22:9 27:8 28:7 29:6 30:16 31:4 38:16 39:4 43:1 46:14 47:8 50:3 51:16 52:2 53:10 54:15 55:1 58:2 59:13 60:16 61:12 62:1 #
-0.096171765248583854224229128249135 2:3 3:13 4:16 5:4 10:7 11:14 12:16 13:8 19:1 20:16 21:7 27:9 28:15 29:1 34:1 35:16 36:8 42:7 43:16 44:1 50:9 51:16 52:4 53:4 54:4 55:4 58:4 59:16 60:16 61:16 62:16 63:8 #
-0.12133192657292489469167406923589 5:1 6:14 7:4 13:2 14:16 15:8 21:8 22:16 23:6 29:15 30:16 31:5 36:8 37:16 38:16 39:3 43:6 44:16 45:9 46:16 50:2 51:16 52:8 53:4 54:16 58:2 59:4 61:2 62:15 63:3 #
0.50000003576649798553432901826454 3:4 4:12 5:15 6:5 10:2 11:15 12:13 13:11 14:11 18:2 19:10 20:2 21:5 22:16 28:4 29:14 30:14 36:5 37:12 38:14 39:7 46:3 47:14 51:9 52:10 53:3 54:8 55:15 56:2 59:2 60:9 61:16 62:16 63:7 #
0.50000003576649798553432901826454 3:15 4:15 5:8 6:1 11:4 12:6 13:11 14:15 15:2 22:16 23:4 27:4 28:9 29:15 30:13 31:1 35:4 36:12 37:16 38:13 39:1 43:1 45:2 46:10 47:8 50:4 51:11 52:3 53:5 54:12 55:8 58:1 59:9 60:15 61:15 62:10 #
0.50000003576649798553432901826454 3:4 4:15 5:16 6:5 10:4 11:16 12:10 13:10 14:15 18:10 19:16 20:7 21:4 22:15 26:1 27:4 28:3 29:13 30:9 36:9 37:16 38:16 39:4 44:1 46:11 47:11 51:2 52:12 53:4 54:13 55:9 59:4 60:16 61:16 62:12 63:1 #
-0.41912634091155481774748636780714 3:5 4:13 5:12 6:2 11:14 12:12 13:12 14:13 19:11 20:4 21:2 22:15 27:8 28:8 29:4 30:16 31:1 35:2 36:14 37:16 38:16 39:6 46:7 47:10 51:8 52:9 53:8 54:15 55:10 59:4 60:16 61:16 62:13 63:2 #
-0.19367530301099167289180513762403 2:1 3:12 4:12 5:11 6:5 10:5 11:15 12:8 13:12 14:15 15:2 18:7 19:12 21:9 22:16 23:3 26:3 27:15 28:9 29:10 30:16 31:7 35:5 36:11 37:16 38:16 39:8 45:1 46:14 47:10 51:7 52:8 53:11 54:16 55:2 59:12 60:16 61:13 62:6 #
-0.12202875880268711228371358856748 2:1 3:13 4:5 10:4 11:14 18:4 19:8 21:1 22:6 23:1 26:5 27:8 28:1 29:11 30:16 31:5 34:4 35:10 36:7 37:16 38:16 39:7 42:4 43:14 44:10 45:16 46:16 47:3 50:1 51:16 52:16 53:16 54:10 59:10 60:14 61:9 62:2 #
0.50000003576649798553432901826454 2:1 3:9 4:13 5:7 10:7 11:12 12:6 13:15 14:6 19:1 20:4 21:13 22:10 27:4 28:16 29:16 30:13 37:2 38:13 39:6 46:10 47:8 51:9 52:7 53:9 54:15 55:1 59:13 60:15 61:9 62:1 #
0.50000003576649798553432901826454 2:1 3:11 4:16 5:16 6:15 7:1 10:3 11:15 12:7 13:10 14:16 15:3 20:4 21:16 22:8 28:5 29:15 30:10 37:3 38:16 39:8 46:11 47:13 50:4 51:11 52:1 53:1 54:11 55:14 58:1 59:13 60:16 61:16 62:15 63:6 #
0.50000003576649798553432901826454 2:3 3:8 4:12 5:13 6:3 10:5 11:11 12:8 13:12 14:10 21:13 22:7 27:5 28:14 29:16 30:13 35:7 36:13 37:7 38:14 39:8 45:2 46:16 47:7 50:1 51:6 52:11 53:16 54:7 58:3 59:13 60:11 61:3 #
-0.094036612448658796203915244404925 3:8 4:16 5:8 10:6 11:14 12:5 13:13 14:6 18:7 19:12 20:2 21:7 22:16 23:2 27:12 28:16 29:16 30:16 31:6 36:3 37:3 38:9 39:8 45:5 46:16 47:3 51:3 52:9 53:16 54:8 59:10 60:11 61:4 #
-0.12380303699056817434698274382754 2:3 3:12 4:11 5:6 10:11 11:15 12:8 13:16 14:8 18:10 19:11 20:1 21:13 22:15 23:1 26:2 27:14 28:16 29:15 30:15 31:8 35:1 36:4 38:14 39:2 45:3 46:16 47:1 50:1 51:11 52:9 53:14 54:8 58:2 59:15 60:13 61:10 #
-0.11355730010000814056425610942824 2:2 3:15 4:16 5:6 10:3 11:14 12:14 13:16 14:2 20:6 21:16 22:2 28:11 29:16 30:1 34:8 35:14 36:16 37:16 38:16 39:5 42:10 43:16 44:15 45:11 46:12 47:5 50:5 51:16 52:7 58:5 59:14 60:1 #
0.50000003576649798553432901826454 2:2 3:8 4:15 5:15 6:3 10:11 11:16 12:12 13:15 14:12 18:4 19:7 21:10 22:14 29:8 30:16 37:7 38:16 39:2 45:1 46:15 47:8 51:1 52:6 53:11 54:16 55:7 59:8 60:16 61:10 62:5 #
0.50000003576649798553432901826454 2:1 3:10 4:16 5:16 6:12 7:2 10:8 11:11 12:8 13:5 14:12 15:8 18:1 21:5 22:15 23:7 27:10 28:15 29:16 30:9 35:5 36:9 37:16 38:9 45:3 46:16 50:1 51:8 52:2 53:5 54:16 58:2 59:14 60:16 61:12 62:5 #
0.50000003576649798553432901826454 3:5 4:11 5:15 6:16 7:5 10:6 11:16 12:10 13:5 14:16 15:8 19:2 20:1 21:12 22:16 23:1 27:1 28:14 29:15 30:2 35:2 36:9 37:16 38:10 43:2 45:7 46:16 47:3 51:13 52:10 53:5 54:16 55:7 59:7 60:13 61:14 62:15 63:2 #
-0.073685394536812276466974935829057 3:6 4:16 5:3 11:13 12:13 18:1 19:16 20:8 26:6 27:16 28:1 34:8 35:14 36:6 37:9 38:6 42:7 43:16 44:15 45:12 46:14 47:12 50:2 51:16 52:9 54:1 55:16 56:3 59:5 60:15 61:16 62:16 63:14 64:1 #
-0.1217593948614765775317891893792 4:3 5:15 6:16 7:3 12:12 13:10 14:15 15:3 20:2 21:6 22:14 28:1 29:15 30:5 35:1 36:13 37:9 42:1 43:12 44:12 45:1 50:9 51:16 52:16 53:16 54:13 55:5 58:2 59:4 60:5 61:10 62:13 63:12 #
-0.070173024836805694692820623004081 3:7 4:13 10:2 11:15 12:11 18:9 19:16 20:2 26:7 27:16 34:9 35:16 36:2 37:4 38:4 42:5 43:16 44:16 45:16 46:16 47:12 50:3 51:16 52:16 53:9 54:13 55:16 59:5 60:13 61:16 62:16 63:7 #
0.50000003576649798553432901826454 2:2 3:13 4:16 5:14 6:3 10:2 11:8 12:11 13:16 14:8 19:3 20:16 21:12 22:1 27:1 28:11 29:14 30:2 37:7 38:13 46:11 47:7 50:7 51:11 52:4 53:4 54:13 55:7 58:2 59:11 60:16 61:12 62:10 #
0.50000003576649798553432901826454 3:2 4:13 5:13 6:2 10:1 11:15 12:13 13:15 14:4 18:5 19:13 20:1 21:14 22:2 27:2 28:12 29:14 36:8 37:14 38:14 39:1 46:13 47:7 51:3 52:8 53:8 54:15 55:2 59:2 60:14 61:11 62:4 #
0.50000003576649798553432901826454 2:2 3:15 4:16 5:15 6:3 10:4 11:16 12:7 13:13 14:13 19:7 20:12 21:16 22:8 27:7 28:16 29:15 30:6 36:4 37:11 38:16 39:4 42:1 46:14 47:11 50:9 51:9 53:6 54:14 55:9 58:3 59:14 60:16 61:16 62:13 63:1 #
-0.50000003576649798553432901826454 2:3 3:12 4:15 5:9 6:1 10:3 11:16 12:8 13:13 14:10 19:11 20:12 21:12 22:12 27:3 28:15 29:16 30:12 37:6 38:14 39:1 46:15 47:6 50:7 51:14 52:7 53:4 54:15 55:7 58:3 59:9 60:12 61:15 62:9 #
0.50000003576649798553432901826454 2:1 3:12 4:16 5:14 6:5 10:3 11:13 12:9 13:16 14:12 19:1 20:11 21:16 22:6 27:8 28:16 29:9 35:3 36:15 37:13 44:2 45:15 46:9 51:3 52:8 53:12 54:16 55:3 59:14 60:16 61:16 62:16 63:7 #
-0.11674775817120865151199637921309 3:3 4:12 5:15 6:11 11:14 12:15 13:15 14:16 15:1 19:3 20:2 21:14 22:16 23:12 24:1 28:13 29:16 30:14 31:9 36:2 37:14 38:8 44:2 45:16 46:5 52:13 53:13 59:3 60:16 61:3 #
-0.08735990846785421370945812213904 3:15 4:15 5:2 10:4 11:16 12:11 13:13 14:1 18:3 19:15 20:5 21:15 22:6 27:3 28:1 29:8 30:12 37:6 38:15 45:9 46:12 51:5 52:9 53:16 54:10 55:1 59:13 60:16 61:16 62:16 63:16 64:6 #
0.50000003576649798553432901826454 3:11 4:16 5:13 6:2 10:7 11:16 12:11 13:12 14:14 18:9 19:13 21:11 22:14 28:11 29:16 30:14 31:2 36:10 37:9 38:15 39:10 46:9 47:12 51:14 52:8 53:9 54:16 55:6 59:11 60:16 61:16 62:10 #
0.50000003576649798553432901826454 2:1 3:11 4:16 5:13 6:1 10:9 11:16 12:10 13:15 14:8 18:7 19:13 20:1 21:12 22:11 28:5 29:15 30:9 36:16 37:16 38:16 39:7 44:7 45:3 46:13 47:12 51:7 52:8 53:10 54:16 55:5 59:13 60:16 61:16 62:6 #
-0.067858652078481199176884786083974 5:13 6:12 12:4 13:16 14:6 19:1 20:13 21:10 22:1 23:8 27:7 28:15 29:2 30:9 31:15 34:6 35:16 36:4 37:4 38:14 39:9 41:2 42:15 43:16 44:16 45:16 46:16 47:6 49:2 50:8 51:8 52:4 53:13 54:13 61:15 62:8 #
-0.093929118731684718701657743622491 4:1 5:14 6:10 12:9 13:15 14:2 19:1 20:14 21:5 23:2 27:11 28:9 30:8 31:14 34:7 35:14 38:14 39:10 41:4 42:16 43:15 44:11 45:9 46:16 47:4 49:1 50:12 51:14 52:16 53:16 54:12 61:14 62:6 #
-0.067776602276418240755617716786219 5:12 6:3 12:2 13:15 20:9 21:9 27:3 28:15 30:3 31:10 34:1 35:14 36:3 38:14 39:6 42:10 43:16 44:15 45:13 46:16 47:1 50:9 51:10 52:8 53:14 54:11 61:12 62:2 #
0.50000003576649798553432901826454 3:4 4:13 5:11 6:1 10:9 11:15 12:10 13:12 14:8 18:8 19:10 21:6 22:9 28:1 29:16 30:3 36:14 37:16 38:13 39:3 43:6 44:2 45:4 46:8 47:12 50:1 51:15 52:4 53:5 54:12 55:12 59:7 60:13 61:16 62:13 63:1 #
0.50000003576649798553432901826454 3:5 4:15 5:16 6:7 11:15 12:15 13:12 14:15 19:8 20:1 21:5 22:16 23:2 29:8 30:16 36:2 37:15 38:16 39:8 45:3 46:12 47:13 51:14 52:12 53:13 54:16 55:8 59:5 60:12 61:13 62:10 63:1 #
0.50000003576649798553432901826454 3:4 4:13 5:16 6:15 7:4 10:3 11:16 12:10 13:8 14:16 15:4 18:3 19:10 21:3 22:16 23:4 28:11 29:16 30:15 36:3 37:14 38:16 39:6 45:2 46:16 47:9 51:2 52:12 53:8 54:16 55:8 59:3 60:16 61:16 62:13 63:1 #
-0.34883587764834972366756460360193 3:5 4:13 5:16 6:7 10:2 11:16 12:7 13:8 14:11 18:8 19:15 20:5 21:10 22:8 26:2 27:6 28:15 29:16 30:7 35:1 36:13 37:10 38:16 39:4 43:4 44:13 45:1 46:9 47:12 51:7 52:10 53:5 54:15 55:7 59:2 60:13 61:15 62:8 63:1 #
-0.12134197064000903920621965426108 3:2 4:6 5:12 6:16 7:16 8:2 10:2 11:15 12:16 13:9 14:5 15:16 16:5 19:5 20:1 22:2 23:16 24:2 30:8 31:10 37:4 38:16 39:7 43:10 44:13 45:16 46:13 47:1 51:9 52:13 53:16 54:1 60:7 61:12 #
-0.10255521759822737448697438367162 3:7 4:16 5:2 7:4 11:15 12:12 14:4 15:16 16:3 18:6 19:16 20:2 21:2 22:15 23:10 26:10 27:14 29:12 30:12 31:1 34:9 35:16 36:16 37:16 38:10 42:1 43:8 44:16 45:9 46:1 51:7 52:14 53:1 59:10 60:8 #
0.50000003576649798553432901826454 2:4 3:12 4:14 5:12 6:6 10:2 11:4 12:4 13:5 14:16 15:6 21:6 22:16 23:4 28:5 29:16 30:6 36:5 37:16 38:3 45:11 46:13 52:5 53:13 54:16 58:5 59:16 60:12 61:11 62:1 #
0.50000003576649798553432901826454 3:9 4:12 5:9 10:3 11:15 12:10 13:16 14:1 19:1 20:1 21:16 22:4 27:3 28:13 29:16 30:2 35:7 36:12 37:13 38:14 39:1 42:3 43:1 45:4 46:16 47:5 50:12 51:12 52:4 53:11 54:15 55:2 58:4 59:13 60:15 61:11 62:3 #
0.50000003576649798553432901826454 2:2 3:12 4:15 5:11 6:3 10:10 11:13 12:5 13:13 14:13 18:2 19:2 21:12 22:14 28:7 29:15 30:3 36:5 37:15 38:3 45:8 46:15 47:1 51:8 52:5 53:4 54:12 55:10 59:14 60:16 61:16 62:16 63:5 #
-0.065673312540221864819223185349983 3:9 4:12 5:15 6:10 10:6 11:16 12:14 13:12 14:10 18:5 19:12 20:1 21:6 26:7 27:15 28:15 29:16 30:4 34:6 35:13 36:11 37:13 38:9 45:12 46:9 51:6 52:8 53:16 54:10 59:13 60:15 61:11 62:2 #
-0.07838167432133663625748454251152 3:7 4:13 5:16 6:13 7:2 10:2 11:16 12:15 13:5 14:13 15:10 18:6 19:16 20:3 22:7 23:11 26:11 27:14 30:5 31:12 34:8 35:16 38:4 39:12 42:8 43:15 46:7 47:11 50:7 51:16 52:8 53:8 54:15 55:2 59:12 60:16 61:16 62:5 #
-0.1246492289763445060479796211439 3:14 4:9 11:8 12:16 19:8 20:12 22:2 23:1 27:12 28:8 30:13 31:9 34:1 35:16 36:4 38:16 39:8 42:5 43:16 46:15 47:6 50:8 51:16 52:16 53:16 54:16 55:12 58:1 59:8 60:8 61:8 62:13 63:7 #
0.50000003576649798553432901826454 3:4 4:12 5:10 6:1 10:1 11:15 12:9 13:14 14:4 19:7 20:3 21:13 22:4 28:16 29:16 30:6 36:2 37:5 38:14 39:4 43:3 46:8 47:12 51:15 52:8 53:5 54:15 55:9 59:3 60:13 61:16 62:10 #
0.50000003576649798553432901826454 2:1 3:15 4:12 5:3 10:1 11:12 12:16 13:15 14:4 20:4 21:16 22:10 28:15 29:16 30:5 36:12 37:14 38:13 39:1 46:8 47:12 51:7 52:8 53:6 54:13 55:13 59:13 60:16 61:16 62:13 63:7 #
0.50000003576649798553432901826454 3:10 4:16 5:16 6:13 11:13 12:6 13:11 14:16 15:3 20:6 21:16 22:8 27:11 28:16 29:12 35:6 36:16 37:16 38:13 45:7 46:16 47:7 50:3 51:15 52:5 53:10 54:16 55:3 59:14 60:16 61:15 62:5 #
-0.072606285494433611682474349890981 4:6 5:11 11:1 12:16 13:14 14:1 19:5 20:16 21:2 27:8 28:14 35:8 36:12 37:2 43:11 44:16 45:16 46:16 47:11 48:2 51:2 52:16 53:4 54:3 55:12 56:10 60:4 61:14 62:16 63:13 64:8 #
-0.082396715402064682476357404539158 2:2 3:10 4:16 5:16 6:16 7:7 10:14 11:16 12:15 13:11 14:13 15:5 18:12 19:15 20:1 26:4 27:16 28:7 35:16 36:8 43:15 44:9 51:12 52:14 59:15 60:7 #
-0.11390142803661169879081427325218 4:1 5:12 6:4 12:9 13:14 19:2 20:16 21:5 27:5 28:16 29:9 30:2 34:2 35:16 36:16 37:13 38:16 39:8 43:9 44:15 46:2 47:15 52:15 53:8 54:8 55:16 56:3 60:3 61:11 62:13 63:10 #
0.50000003576649798553432901826454 3:8 4:13 5:16 6:14 10:3 11:16 12:10 13:16 14:13 19:2 20:11 21:16 22:6 27:2 28:16 29:15 30:8 35:1 36:13 37:16 38:16 39:7 44:1 45:8 46:16 47:7 51:5 52:16 53:16 54:11 59:9 60:14 61:5 #
0.50000003576649798553432901826454 3:10 4:15 5:16 6:16 7:9 10:1 11:10 12:2 14:10 15:14 21:7 22:15 23:3 28:13 29:11 30:1 36:13 37:11 44:5 45:15 46:5 51:5 52:4 53:12 54:11 59:9 60:16 61:10 62:2 #
0.50000003576649798553432901826454 2:2 3:15 4:16 5:15 6:1 10:3 11:9 12:5 13:14 14:7 20:3 21:15 22:5 27:6 28:16 29:8 35:6 36:13 37:16 38:10 45:6 46:16 47:1 53:2 54:14 55:7 59:14 60:13 61:16 62:11 63:1 #
-0.11187907648772955904181714004153 3:9 4:16 5:14 6:12 7:3 10:3 11:13 12:4 13:11 14:8 15:11 18:1 19:15 20:5 22:12 23:4 27:3 28:14 29:13 30:7 36:10 37:13 43:5 44:12 45:15 51:12 52:2 53:12 59:10 60:16 61:6 #
-0.011467719407949349130770855254013 2:1 3:15 4:16 5:16 6:16 7:15 8:2 11:12 12:10 13:9 14:16 15:14 16:2 21:9 22:16 23:4 28:5 29:15 30:6 36:13 37:12 43:9 44:15 45:2 50:1 51:16 52:10 58:3 59:16 60:7 #
-0.12111506772939517606602066734922 2:5 3:16 4:16 5:16 6:3 10:8 11:7 12:5 13:16 14:2 18:3 19:5 20:10 21:14 26:7 27:16 28:16 29:15 30:12 31:6 35:9 36:14 37:11 38:14 39:6 43:16 44:6 50:3 51:15 52:2 58:7 59:12 #
0.50000003576649798553432901826454 2:5 3:16 4:16 5:15 6:2 10:11 11:13 12:8 13:11 14:15 18:1 19:1 21:7 22:16 28:11 29:16 30:14 31:1 36:12 37:12 38:15 39:11 46:8 47:12 50:5 51:11 52:4 53:3 54:12 55:11 58:4 59:14 60:16 61:16 62:16 63:4 #
0.50000003576649798553432901826454 2:2 3:9 4:13 5:16 6:12 7:2 10:5 11:16 12:10 13:7 14:16 15:5 21:11 22:15 23:1 28:9 29:16 30:11 31:1 36:1 37:10 38:15 39:8 45:3 46:15 47:8 51:2 52:9 53:16 54:11 55:1 58:1 59:12 60:11 61:3 #
0.50000003576649798553432901826454 3:3 4:10 5:14 6:15 7:2 10:1 11:15 12:11 13:8 14:16 15:4 19:5 21:8 22:12 29:15 30:2 37:16 38:7 45:9 46:16 47:5 51:1 52:4 53:6 54:16 55:2 59:2 60:16 61:15 62:7 #
-0.07721636656636689244326277048458 5:7 6:15 7:2 13:8 14:16 15:5 20:1 21:13 22:14 26:8 27:16 28:16 29:16 30:12 35:3 37:16 38:12 45:12 46:15 53:9 54:16 55:2 61:6 62:16 63:8 #
-0.095827742753500033678903946565697 4:12 5:8 11:6 12:15 13:1 18:2 19:15 20:6 23:6 26:8 27:14 28:1 30:7 31:15 32:1 34:13 35:10 37:6 38:16 39:6 42:15 43:14 44:14 45:16 46:12 50:7 51:12 52:12 53:16 54:2 60:14 61:6 #
-0.084417664299970232577585704802914 3:2 4:10 5:16 6:16 7:2 10:1 11:16 12:15 13:5 14:1 18:8 19:13 26:12 27:11 34:5 35:16 36:7 43:3 44:13 45:12 52:4 53:16 60:14 61:12 #
0.50000003576649798553432901826454 2:1 3:10 4:14 5:5 10:9 11:16 12:14 13:16 18:3 19:5 20:9 21:16 27:5 28:16 29:16 30:14 35:8 36:14 37:13 38:16 39:6 46:16 47:11 51:11 52:5 53:11 54:16 55:7 58:1 59:12 60:16 61:14 62:5 #
0.50000003576649798553432901826454 2:3 3:15 4:16 5:16 6:15 7:1 10:14 11:13 12:7 13:8 14:16 15:8 18:2 19:1 21:8 22:16 23:7 28:7 29:16 30:10 36:14 37:13 44:10 45:14 46:2 50:2 51:8 52:5 53:16 54:8 58:2 59:16 60:16 61:13 62:3 #
0.50000003576649798553432901826454 2:2 3:11 4:14 5:7 6:1 10:10 11:15 12:13 13:16 14:4 18:11 19:12 20:5 21:16 22:3 26:1 27:2 28:15 29:14 35:5 36:12 37:15 38:11 39:1 45:2 46:14 47:10 51:8 52:12 53:12 54:16 55:11 59:9 60:15 61:11 62:8 63:1 #
-0.25414400223237859632874346971221 3:11 4:12 5:7 10:3 11:16 12:14 13:16 14:3 18:6 19:16 20:6 21:16 22:6 26:2 27:15 28:16 29:16 30:14 35:4 36:9 37:8 38:15 39:6 46:11 47:11 51:2 52:4 53:9 54:16 55:7 59:10 60:16 61:13 62:8 63:1 #
-0.14952754756759489840334254040499 3:12 4:13 5:9 6:2 10:3 11:16 12:16 13:16 14:7 18:2 19:16 20:5 27:14 28:16 29:14 30:3 35:1 36:4 37:10 38:15 39:3 46:9 47:12 51:13 52:12 53:12 54:13 55:13 59:6 60:12 61:14 62:14 63:5 #
-0.16651226401732815984857438706968 3:3 4:11 5:15 6:8 11:9 12:14 13:8 14:9 19:6 20:14 21:5 28:12 29:16 30:7 35:4 36:14 37:11 38:11 43:12 44:8 46:16 47:1 51:14 52:11 53:11 54:15 55:1 59:3 60:13 61:13 62:6 #
0.50000003576649798553432901826454 3:8 4:14 5:10 6:2 11:15 12:14 13:11 14:13 21:5 22:16 23:1 29:11 30:14 37:3 38:15 39:3 46:9 47:13 51:3 52:9 53:8 54:15 55:11 59:6 60:16 61:14 62:7 63:1 #
0.50000003576649798553432901826454 3:13 4:16 5:16 6:10 10:1 11:11 12:6 13:9 14:16 15:6 20:5 21:10 22:16 23:5 27:2 28:15 29:16 30:15 37:5 38:15 39:7 46:13 47:8 50:1 51:13 52:10 53:6 54:14 55:7 58:1 59:11 60:16 61:16 62:12 #
0.50000003576649798553432901826454 2:2 3:12 4:16 5:15 6:9 10:1 11:4 12:7 13:15 14:14 19:3 20:15 21:14 22:3 27:6 28:14 29:5 35:1 36:11 37:16 38:7 45:6 46:16 47:7 51:3 52:9 53:14 54:15 55:5 58:1 59:14 60:12 61:8 62:1 #
-0.11392172437131302398238830164701 3:13 4:13 10:6 11:16 12:7 18:10 19:13 26:8 27:16 28:13 29:16 30:10 34:8 35:16 36:14 37:9 38:15 39:6 42:5 43:16 44:6 46:2 47:15 50:7 51:16 52:12 54:3 55:15 58:1 59:6 60:13 61:16 62:16 63:8 #
-0.099352308871542546753197200359864 3:7 4:14 5:3 10:3 11:16 12:16 13:12 18:10 19:15 20:10 21:16 22:16 23:2 26:8 27:16 28:16 29:16 30:10 31:2 34:4 35:16 36:15 37:2 42:4 43:16 44:16 45:4 50:3 51:16 52:16 53:15 59:9 60:16 61:15 #
-0.086055806736482942653765348950401 2:2 3:16 4:15 5:4 10:4 11:16 12:14 13:9 14:3 15:5 18:4 19:15 20:7 21:16 22:16 23:8 26:1 27:15 28:16 29:15 30:6 35:10 36:16 37:4 42:1 43:14 44:16 45:2 50:7 51:10 52:16 58:2 59:14 60:11 #
0.50000003576649798553432901826454 2:1 3:9 4:13 5:15 6:3 10:8 11:14 12:8 13:12 14:16 18:1 19:1 21:10 22:14 28:6 29:15 30:7 35:10 36:16 37:16 38:10 39:2 43:5 44:8 45:8 46:14 47:8 50:1 51:6 52:4 53:7 54:15 55:6 58:1 59:11 60:15 61:12 62:4 #
0.50000003576649798553432901826454 3:7 4:16 5:15 6:5 11:5 12:8 13:11 14:15 15:4 20:1 21:14 22:13 23:1 28:10 29:16 30:3 36:5 37:16 38:5 43:2 45:11 46:12 50:3 51:15 52:11 53:12 54:15 59:8 60:13 61:11 62:3 #
0.50000003576649798553432901826454 2:2 3:13 4:11 5:5 10:1 11:8 12:13 13:16 14:8 21:12 22:16 28:7 29:16 30:11 36:9 37:16 38:7 44:1 45:9 46:16 47:5 50:2 51:8 52:5 53:7 54:16 55:6 58:3 59:14 60:16 61:13 62:8 #
-0.10850647200086924182294012553029 3:6 4:12 5:16 6:10 12:12 13:16 14:16 15:1 20:9 21:16 22:16 23:4 28:13 29:16 30:16 31:3 36:14 37:16 38:14 44:14 45:16 46:10 51:2 52:16 53:16 54:13 59:7 60:16 61:15 62:2 #
-0.1147872226027979308815574199798 3:5 4:13 5:6 6:1 11:8 12:16 13:16 14:15 15:2 19:3 20:13 21:1 22:13 23:8 27:2 28:14 29:15 30:14 31:2 34:2 35:14 36:15 37:15 38:3 42:7 43:11 45:6 46:10 50:5 51:11 52:1 53:1 54:16 59:8 60:13 61:16 62:13 63:1 #
-0.094589848474027626856752704043174 3:3 4:14 5:3 7:1 8:8 11:9 12:15 14:1 15:13 16:11 19:14 20:14 22:9 23:14 24:2 27:14 28:16 29:16 30:16 31:7 35:3 36:13 37:16 38:11 39:1 44:7 45:15 46:1 52:14 53:10 59:2 60:15 61:4 #
0.50000003576649798553432901826454 2:1 3:7 4:13 5:16 6:16 7:8 10:5 11:16 12:12 13:16 14:16 15:5 19:1 20:4 21:16 22:8 28:11 29:16 30:9 31:1 37:9 38:15 39:10 46:13 47:9 52:5 53:11 54:16 55:5 59:6 60:16 61:14 62:7 #
0.50000003576649798553432901826454 3:4 4:14 5:11 6:1 10:4 11:16 12:12 13:10 14:8 18:9 19:14 20:1 21:7 22:7 26:1 27:2 29:15 30:9 37:7 38:15 39:2 46:5 47:11 51:12 52:3 53:4 54:10 55:11 59:6 60:15 61:15 62:11 63:1 #
0.50000003576649798553432901826454 2:3 3:16 4:14 5:10 6:5 10:1 11:8 12:8 13:11 14:16 15:2 19:2 20:6 21:12 22:11 23:1 27:12 28:16 29:16 30:6 36:3 37:11 38:16 39:2 46:14 47:7 50:1 51:8 52:9 53:14 54:13 58:3 59:16 60:12 61:9 62:1 #
-0.082983261301940294818457743986073 3:4 4:14 5:5 11:13 12:7 13:11 14:4 15:2 18:2 19:13 21:6 22:14 23:4 26:3 27:9 29:3 30:14 31:7 34:5 35:8 37:4 38:11 39:8 42:4 43:8 46:1 47:12 50:1 51:14 52:2 54:10 55:7 59:3 60:15 61:16 62:13 63:2 #
-0.042609440673713611102968457089446 3:6 4:15 5:10 11:16 12:9 13:16 14:7 18:4 19:10 21:6 22:15 26:8 27:8 30:11 31:3 34:8 35:8 38:8 39:5 42:7 43:10 46:5 47:6 50:1 51:15 52:4 53:1 54:12 55:4 59:8 60:16 61:16 62:11 #
-0.11973085963506217843654866328507 3:1 4:8 5:15 6:16 7:7 10:1 11:13 12:14 13:9 14:16 15:8 18:8 19:16 20:5 21:11 22:15 23:2 26:5 27:16 28:16 29:16 30:10 31:1 35:1 36:4 37:10 38:16 39:9 45:3 46:16 47:7 52:3 53:14 54:14 55:1 60:11 61:15 62:3 #
0.50000003576649798553432901826454 3:6 4:12 5:16 6:16 7:9 11:12 12:5 13:1 14:14 15:10 20:2 21:12 22:12 27:4 28:15 29:14 30:1 35:4 36:13 37:16 38:8 45:2 46:16 47:1 51:4 52:8 53:12 54:13 59:7 60:14 61:7 62:1 #
0.50000003576649798553432901826454 2:2 3:12 4:16 5:16 6:6 10:11 11:15 12:8 13:15 14:12 18:10 19:2 20:7 21:16 22:10 28:12 29:15 30:2 36:3 37:16 38:11 45:6 46:15 47:10 51:7 52:5 53:10 54:16 55:15 58:3 59:16 60:16 61:16 62:10 63:2 #
0.50000003576649798553432901826454 2:1 3:8 4:14 5:13 6:3 10:10 11:13 12:5 13:10 14:12 18:3 20:2 21:14 22:9 28:15 29:8 36:13 37:13 38:1 45:7 46:14 47:4 50:1 51:6 52:1 54:11 55:10 59:10 60:12 61:16 62:16 63:7 #
-0.099392903809819854732410249198438 2:3 3:14 4:16 5:16 6:13 10:8 11:15 12:8 13:13 14:16 19:1 20:2 21:16 22:10 28:12 29:15 30:1 35:9 36:15 37:3 42:2 43:16 44:8 50:6 51:16 52:4 53:4 54:7 55:7 58:3 59:15 60:16 61:16 62:13 63:7 #
-0.01349415366778791355861777390146 4:1 5:11 6:10 12:8 13:16 14:13 19:7 20:16 21:16 22:7 26:5 27:16 28:16 29:16 34:4 35:10 36:16 37:16 44:15 45:16 52:11 53:16 54:4 61:11 62:13 63:1 #
-0.11555641043719086513696936435736 3:9 10:2 11:16 12:6 13:8 14:5 18:4 19:16 20:16 21:16 22:15 23:3 26:6 27:16 28:10 29:12 30:15 31:8 34:4 35:11 38:7 39:8 42:4 43:16 44:9 45:10 46:15 47:8 50:2 51:15 52:16 53:16 54:16 55:3 59:8 60:16 61:15 62:7 #
0.50000003576649798553432901826454 2:1 3:13 4:16 5:16 6:4 10:2 11:15 12:9 13:12 14:12 20:5 21:15 22:9 28:16 29:16 30:14 31:3 36:4 37:4 38:11 39:12 42:3 43:6 46:5 47:16 50:7 51:14 52:4 53:8 54:15 55:10 59:13 60:16 61:16 62:11 63:1 #
0.50000003576649798553432901826454 3:10 4:15 5:10 10:10 11:15 12:10 13:16 14:6 18:2 19:2 20:13 21:15 22:1 27:4 28:16 29:16 30:5 36:3 37:7 38:15 39:5 46:9 47:13 51:13 52:7 53:5 54:11 55:14 59:7 60:16 61:16 62:14 63:3 #
0.50000003576649798553432901826454 3:5 4:13 5:13 6:2 11:12 12:14 13:16 14:8 20:3 21:16 22:5 28:4 29:16 30:5 37:10 38:14 39:2 45:3 46:16 47:6 51:1 53:5 54:16 55:4 59:6 60:13 61:16 62:12 63:3 #
-0.13472660887060874945753141673777 4:6 5:15 6:6 12:12 13:10 14:13 20:11 21:15 22:14 27:9 28:11 29:14 34:4 35:11 37:10 38:6 42:3 43:9 45:1 46:14 47:1 51:11 52:8 53:2 54:9 55:7 60:6 61:12 62:13 63:7 #
-0.099942112106636504798018449946539 5:11 6:12 12:8 13:16 14:4 19:2 20:16 21:12 22:1 26:4 27:15 28:16 29:13 30:14 31:11 34:13 35:16 36:16 37:16 38:16 39:10 45:10 46:16 47:6 53:11 54:16 55:2 61:14 62:13 #
-0.074994485042056496792994835232093 3:14 4:3 10:6 11:16 12:2 18:8 19:16 26:8 27:16 28:4 29:3 34:8 35:16 36:16 37:16 38:14 39:1 42:8 43:16 44:5 45:5 46:16 47:8 50:4 51:16 52:2 53:7 54:16 55:2 59:12 60:16 61:15 62:7 #
0.50000003576649798553432901826454 3:6 4:13 5:13 6:6 10:1 11:14 12:5 13:7 14:13 21:2 22:15 28:10 29:14 30:9 36:8 37:9 38:16 39:3 42:1 43:5 46:16 47:4 50:1 51:16 52:4 53:5 54:15 55:3 59:6 60:16 61:14 62:5 #
0.50000003576649798553432901826454 3:9 4:14 5:16 6:9 7:1 10:4 11:15 12:7 13:2 14:14 15:4 19:1 20:1 21:8 22:14 28:2 29:16 30:6 37:2 38:14 46:6 47:10 50:3 51:9 52:4 53:4 54:10 55:10 58:1 59:10 60:13 61:12 62:9 #
0.50000003576649798553432901826454 3:7 4:11 5:15 6:10 10:4 11:16 12:15 13:13 14:12 15:4 19:7 20:1 21:5 22:16 23:4 28:6 29:15 30:14 36:15 37:16 38:16 39:4 42:1 43:2 44:3 45:5 46:16 47:8 50:3 51:14 52:5 53:7 54:16 55:6 59:8 60:15 61:16 62:12 63:1 #
-0.15976257815077626878164096524415 3:11 4:12 5:7 10:6 11:14 12:8 13:15 14:16 15:3 18:3 19:15 20:9 21:4 22:16 23:3 27:3 28:14 29:16 30:12 35:3 36:12 37:15 38:15 39:2 43:15 44:10 46:13 47:8 50:1 51:16 52:5 53:5 54:12 55:11 59:14 60:16 61:16 62:9 63:2 #
-0.095530799246079087239102989315143 3:8 4:16 5:13 10:1 11:13 12:9 13:16 14:4 21:14 22:7 23:5 27:3 28:8 29:15 30:16 31:12 34:11 35:16 36:16 37:14 38:7 39:1 42:7 43:2 44:15 45:4 51:5 52:15 53:2 59:12 60:11 #
-0.11767951232753684487342127340526 3:15 4:2 10:5 11:16 12:15 13:11 14:5 18:7 19:16 20:15 21:12 22:13 23:4 26:1 27:15 28:7 35:5 36:16 37:5 44:10 45:14 51:1 52:12 53:15 59:11 60:16 61:6 #
0.50000003576649798553432901826454 4:7 5:12 6:7 11:13 12:13 13:13 14:12 18:3 19:12 21:9 22:9 28:7 29:16 30:9 36:2 37:8 38:16 45:1 46:15 47:3 52:12 53:9 54:15 59:1 60:12 61:15 62:5 #
0.50000003576649798553432901826454 2:1 3:11 4:14 5:6 10:7 11:12 12:5 13:15 18:6 19:6 20:1 21:16 28:5 29:16 36:13 37:16 38:12 45:3 46:14 47:6 51:5 52:7 53:6 54:14 55:8 59:14 60:16 61:16 62:11 63:1 #
0.50000003576649798553432901826454 3:4 4:16 5:14 6:2 11:16 12:11 13:11 14:10 18:1 19:4 20:1 21:11 22:10 27:1 28:11 29:16 30:6 35:6 36:16 37:14 38:13 39:2 43:1 44:2 45:1 46:10 47:11 51:7 52:11 53:6 54:13 55:14 59:3 60:12 61:16 62:15 63:7 #
-0.28609393922582004865518001679447 3:2 4:11 5:11 6:2 11:11 12:16 13:16 14:5 19:10 20:16 21:16 22:5 27:2 28:11 29:14 30:9 37:8 38:12 45:8 46:16 52:8 53:15 54:10 59:1 60:14 61:14 62:3 #
-0.14069611190304520675908861448988 2:1 3:14 4:16 5:16 6:12 7:1 11:13 12:8 13:4 14:4 19:12 20:4 27:8 28:16 29:16 30:9 35:4 36:7 37:5 38:14 46:13 51:5 53:3 54:15 58:2 59:14 60:16 61:14 62:7 #
-0.083163672250628373205927346134558 3:2 4:16 5:10 6:1 11:8 12:15 13:13 14:7 19:3 20:9 21:4 22:13 29:6 30:13 37:12 38:8 44:4 45:16 46:3 51:2 52:15 53:14 54:8 55:14 56:5 59:2 60:15 61:16 62:16 63:12 64:7 #
0.50000003576649798553432901826454 2:2 3:9 4:15 5:12 6:1 10:6 11:16 12:10 13:14 14:6 18:1 19:1 20:6 21:16 22:4 26:3 27:13 28:16 29:16 30:8 34:3 35:12 36:7 37:7 38:16 39:4 46:13 47:9 50:3 51:15 52:6 53:12 54:16 55:4 59:10 60:16 61:14 62:7 63:1 #
0.50000003576649798553432901826454 3:16 4:16 5:16 6:10 11:6 12:9 13:15 14:16 15:1 20:8 21:16 22:7 28:4 29:16 30:6 37:8 38:15 39:1 46:15 47:10 51:1 52:4 53:9 54:15 55:12 59:15 60:16 61:16 62:11 63:2 #
0.50000003576649798553432901826454 2:1 3:9 4:15 5:9 10:4 11:13 12:7 13:15 14:4 20:2 21:15 22:3 27:12 28:16 29:16 30:11 31:1 35:5 36:5 37:5 38:13 39:8 45:1 46:12 47:6 51:9 52:8 53:14 54:12 55:1 59:15 60:12 61:6 #
-0.12500392722413919410762161987805 3:4 4:13 5:13 6:2 10:2 11:15 12:7 13:4 14:7 18:6 19:12 21:5 22:9 26:3 27:11 28:3 29:7 30:14 31:1 35:6 36:15 37:16 38:14 39:4 46:4 47:11 54:4 55:15 59:3 60:13 61:16 62:16 63:8 #
-0.044583245313783659291573258087737 3:2 4:15 5:12 6:1 11:6 12:16 13:15 14:1 19:14 20:16 21:8 26:2 27:16 28:16 29:2 34:3 35:16 36:15 42:2 43:16 44:13 51:9 52:16 53:2 59:2 60:13 61:12 #
-0.10983389651658614916129863559036 3:9 4:14 5:16 6:16 7:5 11:6 12:16 13:7 14:11 15:10 20:15 21:7 22:9 23:9 28:12 29:15 30:15 31:3 35:7 36:16 37:16 38:6 42:3 43:14 44:2 45:16 46:2 50:5 51:15 52:5 53:16 54:4 58:1 59:11 60:16 61:12 #
0.50000003576649798553432901826454 2:2 3:12 4:16 5:16 6:9 10:2 11:15 12:10 13:7 14:16 15:4 21:5 22:16 23:6 28:6 29:16 30:13 36:5 37:13 38:16 39:6 46:9 47:16 51:6 52:4 53:5 54:12 55:16 56:2 58:2 59:13 60:16 61:16 62:16 63:10 #
0.50000003576649798553432901826454 2:4 3:16 4:16 5:16 6:15 7:2 10:3 11:11 12:8 13:9 14:16 15:8 20:1 21:14 22:15 23:1 27:2 28:15 29:16 30:6 35:2 36:12 37:14 38:14 45:3 46:16 47:1 50:5 51:10 52:4 53:7 54:16 55:2 58:2 59:16 60:16 61:16 62:8 #
0.50000003576649798553432901826454 3:5 4:9 5:13 6:12 10:10 11:16 12:15 13:12 14:16 15:2 18:8 19:7 21:11 22:14 28:2 29:16 30:14 31:1 36:1 37:11 38:16 39:7 46:8 47:12 51:14 52:10 53:10 54:16 55:8 59:6 60:15 61:16 62:10 63:1 #
-0.2437441008887928639570219502275 3:11 4:16 5:10 6:1 11:16 12:8 13:11 14:13 15:1 19:13 20:7 21:7 22:16 23:1 27:4 28:13 29:14 30:16 31:1 38:15 39:4 46:8 47:11 50:1 51:7 52:4 53:5 54:14 55:12 59:8 60:15 61:14 62:11 63:3 #
-0.15383270561597756076466225749755 3:7 4:13 5:12 6:9 7:1 10:3 11:15 12:5 13:5 14:16 15:4 18:3 19:15 20:2 21:7 22:16 23:1 27:5 28:15 29:16 30:15 31:4 38:11 39:7 42:1 43:4 46:9 47:7 50:3 51:13 52:1 54:10 55:8 59:9 60:15 61:16 62:16 63:1 #
-0.074577443169212623286234986608179 4:12 5:16 6:1 11:2 12:16 13:8 14:2 19:8 20:16 21:5 22:15 27:15 28:7 29:8 30:9 34:7 35:16 36:12 37:15 38:16 39:11 42:9 43:15 44:10 45:15 46:7 47:5 52:10 53:7 60:16 61:4 #
0.50000003576649798553432901826454 2:1 3:8 4:12 5:11 6:4 10:12 11:16 12:11 13:15 14:14 18:3 19:3 20:3 21:16 22:11 27:1 28:13 29:16 30:1 36:5 37:16 38:7 45:12 46:14 52:7 53:16 54:9 59:10 60:13 61:7 #
0.50000003576649798553432901826454 2:2 3:8 4:9 5:14 6:10 10:3 11:11 12:9 13:13 14:16 21:15 22:14 29:16 30:8 37:15 38:13 39:1 45:6 46:16 47:8 51:1 52:6 53:15 54:14 55:3 59:14 60:11 61:7 62:1 #
0.50000003576649798553432901826454 3:7 4:15 5:4 11:14 12:16 13:12 19:12 20:6 21:16 28:10 29:16 30:2 36:8 37:14 38:15 39:3 46:9 47:11 51:5 52:9 53:9 54:15 55:11 59:9 60:14 61:12 62:9 63:1 #
-0.16556452827741244271386733544205 2:3 3:6 4:15 5:13 6:1 10:10 11:16 12:5 13:11 14:10 18:1 19:11 20:10 21:11 22:11 28:10 29:16 30:3 35:1 36:13 37:13 38:3 43:7 44:15 45:6 46:11 51:10 52:12 53:7 54:14 59:4 60:16 61:15 62:3 #
-0.12851707948339410880755906418926 2:2 5:9 6:7 10:15 11:16 12:16 13:16 14:9 18:1 19:5 20:4 21:16 22:7 26:1 27:4 28:4 29:16 30:7 34:5 35:16 36:16 37:16 38:15 39:2 43:3 44:1 45:14 46:6 53:13 54:7 61:10 62:11 #
-0.067183096272926776104661428234976 3:8 4:10 5:16 6:13 10:4 11:16 12:16 13:16 14:16 15:1 18:6 19:16 20:12 21:8 22:15 23:5 26:6 27:16 28:1 30:12 31:8 34:5 35:13 37:1 38:14 39:6 42:4 43:14 44:2 45:12 46:16 47:2 50:2 51:16 52:16 53:16 54:8 59:9 60:12 61:7 #
0.50000003576649798553432901826454 2:1 3:10 4:16 5:10 6:1 10:8 11:14 12:5 13:10 14:13 15:2 18:1 19:4 21:11 22:15 23:2 29:16 30:7 37:14 38:11 46:14 47:11 51:10 52:5 53:4 54:10 55:13 59:10 60:14 61:16 62:14 63:9 #
0.50000003576649798553432901826454 2:3 3:12 4:16 5:16 6:16 7:4 10:8 11:11 12:6 13:4 14:12 15:15 18:1 21:6 22:15 23:10 28:7 29:16 30:7 36:10 37:14 38:1 44:1 45:15 46:9 51:6 52:2 53:13 54:12 58:2 59:16 60:16 61:14 62:3 #
-0.1141348177686022646870611652048 4:5 5:9 6:13 7:14 8:6 11:4 12:16 13:8 14:4 15:10 16:9 19:6 20:16 21:16 22:16 23:15 24:4 27:1 28:11 29:12 30:16 31:6 37:2 38:16 39:2 45:10 46:6 52:2 53:15 60:5 61:14 #
-0.09744255832062090338929749577801 2:1 4:6 5:16 6:8 10:11 11:7 12:13 13:3 14:13 15:2 18:11 19:14 20:4 22:8 23:4 26:9 27:7 30:5 31:7 34:6 35:9 38:5 39:8 43:13 44:4 46:11 47:9 51:6 52:14 53:11 54:16 55:7 60:5 61:16 62:10 #
-0.098132232118524648223356621201674 3:8 4:16 5:16 6:16 7:12 8:3 11:2 12:2 14:5 15:16 16:8 22:5 23:15 24:1 29:1 30:13 31:8 34:1 35:8 36:8 37:10 38:16 39:1 42:3 43:12 44:15 45:16 46:11 47:3 51:2 52:15 53:7 59:11 60:11 #
0.50000003576649798553432901826454 3:5 4:14 5:16 6:10 11:15 12:15 13:14 14:13 19:4 20:3 21:15 22:8 27:1 28:16 29:16 30:15 31:2 35:1 36:7 37:6 38:16 39:6 44:1 46:14 47:6 51:2 52:15 53:12 54:14 55:1 59:7 60:16 61:12 62:1 #
0.50000003576649798553432901826454 2:1 3:8 4:14 5:16 6:12 10:1 11:12 12:9 13:11 14:16 20:9 21:15 22:5 26:2 27:14 28:16 29:7 34:1 35:11 36:13 37:16 38:9 45:2 46:16 47:4 51:11 52:8 53:14 54:13 59:11 60:14 61:11 62:1 #
0.50000003576649798553432901826454 3:2 4:7 5:14 6:12 7:1 10:2 11:14 12:15 13:10 14:16 15:7 18:4 19:9 21:5 22:16 23:3 28:2 29:16 30:13 36:2 37:15 38:11 45:6 46:16 47:4 52:5 53:16 54:13 60:9 61:11 62:2 #
-0.13013133121275985426557042501372 2:1 3:12 4:16 5:16 6:8 10:4 11:10 12:8 13:8 14:4 18:9 19:11 20:6 21:7 26:4 27:16 28:16 29:16 30:11 37:1 38:16 39:4 46:16 47:6 51:5 52:8 53:11 54:14 55:2 59:15 60:13 61:10 62:1 #
-0.12464067575496272366475380977136 5:11 6:8 12:2 13:16 14:8 20:6 21:16 22:2 28:7 29:15 36:10 37:14 43:13 44:16 45:16 46:11 51:7 52:7 53:16 54:16 55:10 61:8 62:16 63:15 #
-0.097273531495158799264899585068633 3:1 4:14 5:13 11:6 12:16 13:8 19:12 20:9 27:14 28:10 29:16 30:12 31:1 34:1 35:16 36:10 37:14 38:8 39:13 43:13 44:9 45:10 47:12 48:4 51:8 52:10 54:5 55:16 56:5 59:1 60:11 61:16 62:16 63:11 #
0.50000003576649798553432901826454 3:9 4:13 5:16 6:9 11:4 12:5 13:11 14:15 20:6 21:15 22:8 28:13 29:10 36:8 37:12 38:1 45:9 46:14 47:2 52:3 53:12 54:16 55:4 59:11 60:16 61:11 62:3 #
0.50000003576649798553432901826454 2:1 3:8 4:16 5:14 10:4 11:15 12:9 13:16 14:3 18:1 19:4 20:7 21:16 28:11 29:16 30:9 37:5 38:15 39:5 46:15 47:5 51:15 52:9 53:9 54:15 55:2 59:6 60:13 61:10 62:4 #
0.50000003576649798553432901826454 2:3 3:11 4:13 5:8 6:1 10:3 11:11 12:8 13:15 14:7 20:2 21:14 22:6 27:7 28:16 29:16 30:11 35:5 36:12 37:11 38:16 39:8 45:6 46:16 47:7 50:2 51:12 52:16 53:16 54:7 58:4 59:13 60:11 61:2 #
-0.085904039583092894893923130439362 3:8 4:11 7:13 8:9 10:3 11:15 12:6 14:12 15:13 16:1 18:3 19:16 20:5 21:7 22:16 23:5 27:12 28:16 29:16 30:16 31:8 35:1 36:11 37:13 38:4 43:1 44:15 45:4 51:7 52:13 59:11 60:5 #
-0.084544342782926620860628474929399 2:1 3:16 4:16 5:15 6:3 11:7 12:6 13:16 14:10 20:1 21:16 22:8 27:6 28:15 29:15 30:2 35:7 36:16 37:16 38:11 39:3 43:5 44:16 45:14 46:16 47:7 51:10 52:12 53:1 54:4 55:1 59:16 60:6 #
-0.11165922446934839484811163856648 3:11 4:13 5:1 6:1 10:3 11:16 12:10 13:16 14:16 15:2 18:8 19:14 20:14 21:12 22:2 26:1 27:15 28:16 29:11 35:9 36:15 37:16 38:9 43:12 44:7 45:1 46:14 47:7 51:12 52:11 53:9 54:15 55:3 59:4 60:12 61:10 62:1 #
0.50000003576649798553432901826454 2:1 3:10 4:16 5:16 6:15 7:6 10:5 11:15 12:8 13:6 14:16 15:11 19:2 20:5 21:15 22:13 23:3 28:16 29:14 36:6 37:16 38:11 39:1 45:6 46:16 47:8 51:3 52:5 53:12 54:16 55:5 59:16 60:16 61:13 62:7 #
0.45195734589657621249614294356434 2:1 3:12 4:16 5:14 6:4 10:8 11:11 13:10 14:8 18:1 19:1 20:4 21:14 22:4 27:2 28:16 29:11 36:3 37:13 38:11 45:1 46:11 47:7 51:10 53:1 54:10 55:8 59:13 60:15 61:15 62:10 63:2 #
0.50000003576649798553432901826454 3:7 4:11 5:14 6:4 10:12 11:16 12:12 13:15 14:8 18:6 19:9 21:12 22:7 27:1 28:9 29:16 30:2 35:8 36:16 37:16 38:15 39:1 45:2 46:15 47:9 50:2 51:10 52:4 53:2 54:13 55:10 59:7 60:12 61:15 62:12 63:1 #
-0.19688840519636974235595516802277 3:7 4:12 5:11 6:9 10:7 11:16 12:15 13:11 14:13 19:12 20:7 27:12 28:10 29:6 35:8 36:12 37:13 38:14 46:8 47:8 51:10 52:6 53:4 54:12 55:9 59:10 60:13 61:12 62:10 63:2 #
-0.10165618674911823526851861743125 4:2 5:11 6:13 7:2 11:2 12:13 13:16 14:16 15:2 18:3 19:15 20:14 21:13 22:16 27:6 29:15 30:9 37:16 38:6 44:4 45:16 52:5 53:16 54:3 60:3 61:16 62:6 #
-0.10169215286525710995046978268874 3:6 4:9 5:12 6:16 7:10 11:11 12:13 13:5 14:4 15:4 19:12 20:4 26:3 27:15 28:3 29:4 30:2 34:2 35:16 36:14 37:12 38:14 39:7 43:1 46:10 47:4 50:12 51:13 53:1 54:13 55:2 59:6 60:16 61:16 62:7 #
0.50000003576649798553432901826454 2:2 3:4 4:9 5:13 6:13 10:5 11:15 12:11 13:12 14:16 21:8 22:13 29:12 30:12 37:9 38:16 39:1 46:15 47:8 51:9 52:14 53:11 54:16 55:6 59:1 60:10 61:15 62:9 #
0.49163020901058923639581621500838 3:9 4:14 5:10 6:4 10:1 11:15 12:12 13:14 14:16 15:2 19:1 22:15 23:4 28:14 29:16 30:8 36:6 37:13 38:14 39:1 45:1 46:16 47:5 51:5 52:4 53:6 54:15 55:4 59:12 60:15 61:12 62:6 #
0.50000003576649798553432901826454 2:1 3:12 4:15 5:3 10:8 11:15 12:14 13:13 18:3 19:5 20:9 21:14 27:2 28:16 29:14 30:2 35:3 36:16 37:16 38:15 39:2 43:1 45:2 46:14 47:5 51:14 52:11 53:9 54:16 55:6 58:3 59:16 60:16 61:14 62:7 63:1 #
-0.10425491445025100722965305521939 3:4 4:6 5:14 6:6 10:8 11:16 12:15 13:13 14:10 18:3 19:12 20:3 21:2 22:13 27:11 28:11 29:13 30:11 35:6 36:16 37:16 38:3 43:16 44:9 45:6 46:13 47:2 51:9 52:8 54:3 55:14 60:6 61:15 62:16 63:16 64:4 #
-0.1098021052378666956306219049111 3:5 4:14 5:12 6:8 7:2 11:1 12:10 13:16 14:16 15:12 19:5 20:14 21:16 22:16 23:2 27:10 28:16 29:16 30:12 34:6 35:16 36:16 37:14 38:4 42:9 43:16 44:16 45:11 50:10 51:16 52:16 53:6 58:1 59:10 60:14 61:12 62:4 #
-0.044260441545582646094558754157333 4:9 5:15 6:2 11:8 12:16 13:9 14:1 18:1 19:15 20:12 26:3 27:16 28:4 34:1 35:16 36:2 37:5 43:14 44:16 45:16 46:11 47:1 51:5 52:16 53:16 54:16 55:7 60:8 61:12 62:13 63:1 #
0.50000003576649798553432901826454 3:12 4:16 5:16 6:10 7:1 11:13 12:7 13:4 14:16 15:7 20:5 21:12 22:15 23:2 28:7 29:16 30:12 37:7 38:16 39:5 42:1 43:3 46:9 47:15 50:6 51:12 52:4 53:2 54:11 55:16 58:1 59:10 60:16 61:16 62:16 63:7 #
0.50000003576649798553432901826454 2:1 3:9 4:14 5:14 6:3 10:2 11:12 12:10 13:12 14:11 20:3 21:14 22:11 27:11 28:16 29:16 30:7 35:10 36:7 37:11 38:16 39:5 46:5 47:12 51:8 52:5 53:6 54:12 55:12 59:12 60:16 61:15 62:10 63:3 #
0.50000003576649798553432901826454 3:6 4:16 5:9 6:1 10:3 11:15 12:8 13:13 14:3 18:8 19:8 21:11 22:4 26:1 28:7 29:16 30:6 35:2 36:16 37:14 38:16 39:5 44:5 46:11 47:8 51:4 52:6 53:9 54:15 55:2 59:4 60:15 61:11 62:3 #
-0.057720558627310840360546961846921 3:8 4:16 5:6 10:3 11:15 12:13 13:1 18:8 19:16 20:4 22:2 23:1 26:9 27:16 28:8 29:10 30:16 31:11 34:1 35:13 36:16 37:16 38:15 39:5 43:4 44:16 45:16 46:3 51:8 52:16 53:10 59:7 60:16 61:10 #
-0.096723927402909956607679475837358 3:2 4:15 5:11 6:10 7:16 8:2 11:10 12:16 13:16 14:16 15:9 18:2 19:16 20:11 21:5 22:2 26:12 27:15 28:4 29:2 34:5 35:16 36:16 37:15 38:5 43:2 44:7 45:16 46:11 52:3 53:16 54:10 59:4 60:15 61:12 62:2 #
-0.083491849456860431355487150995032 4:1 5:10 6:16 7:6 11:3 12:14 13:8 14:6 15:16 16:6 19:11 20:4 22:6 23:16 24:2 26:4 27:12 28:2 29:5 30:16 31:11 34:6 35:16 36:15 37:8 38:15 39:4 45:4 46:9 53:10 54:4 60:1 61:13 62:1 #
0.50000003576649798553432901826454 3:8 4:16 5:16 6:8 10:5 11:15 12:8 13:16 14:14 18:1 19:2 20:2 21:15 22:11 27:3 28:13 29:16 30:9 31:1 35:8 36:16 37:15 38:15 39:10 43:2 44:2 45:3 46:16 47:6 51:7 52:14 53:16 54:12 55:1 59:14 60:16 61:7 #
0.50000003576649798553432901826454 2:3 3:13 4:15 5:16 6:9 7:1 10:6 11:12 12:2 13:3 14:16 15:6 20:2 21:13 22:11 28:9 29:13 36:8 37:12 44:3 45:15 46:5 51:4 52:3 53:14 54:11 58:3 59:15 60:15 61:9 62:1 #
0.50000003576649798553432901826454 3:7 4:15 5:15 6:3 11:10 12:14 13:12 14:14 19:1 20:6 21:16 22:12 27:1 28:15 29:14 30:3 36:9 37:15 38:5 45:5 46:15 47:6 51:7 52:6 53:7 54:13 55:16 56:1 59:7 60:16 61:16 62:15 63:8 #
-0.22652794064613429592114357546961 2:2 3:10 4:14 5:13 6:6 10:4 11:16 12:8 13:13 14:15 15:3 18:2 19:16 20:4 21:9 22:16 23:4 27:12 28:10 29:12 30:16 31:4 35:2 36:9 37:12 38:16 45:4 46:16 47:1 51:2 52:4 53:11 54:16 55:4 58:3 59:16 60:13 61:11 62:4 #
-0.039269859944918827920901094330475 3:9 4:13 5:15 6:10 10:2 11:15 12:5 13:6 14:16 15:6 19:3 21:2 22:16 23:6 29:11 30:13 36:8 37:14 38:1 43:5 44:15 45:3 51:12 52:6 59:8 60:16 61:16 62:12 #
-0.12118070951979369176410017416856 2:5 3:16 4:5 10:9 11:16 12:14 18:12 19:14 20:14 26:7 27:13 28:12 35:11 36:8 38:3 39:1 43:16 44:8 45:7 46:14 47:11 50:8 51:16 52:16 53:16 54:16 55:11 58:6 59:16 60:16 61:11 62:6 63:1 #
0.50000003576649798553432901826454 3:10 4:16 5:16 6:6 10:3 11:13 12:6 13:16 14:4 20:10 21:12 27:6 28:16 29:5 35:1 36:12 37:15 38:5 45:10 46:15 47:3 52:2 53:7 54:16 55:5 58:1 59:13 60:16 61:14 62:10 #
0.50000003576649798553432901826454 3:5 4:14 5:16 6:9 10:6 11:16 12:9 13:13 14:12 18:3 19:7 20:1 21:14 22:12 27:1 28:15 29:16 30:15 31:2 35:1 36:11 37:9 38:14 39:11 43:1 44:3 46:13 47:9 51:10 52:13 53:9 54:16 55:6 59:3 60:16 61:16 62:10 #
0.50000003576649798553432901826454 2:1 3:10 4:16 5:16 6:8 10:8 11:13 12:6 13:14 14:8 18:1 19:1 20:10 21:15 22:2 27:3 28:16 29:15 30:8 36:2 37:7 38:15 39:6 46:8 47:12 51:2 52:1 53:2 54:13 55:10 59:11 60:16 61:16 62:11 63:1 #
-0.19528045517684317067264032630192 3:5 4:11 5:15 6:8 10:4 11:14 12:8 13:10 14:16 18:8 19:13 20:1 21:15 22:12 26:4 27:16 28:15 29:16 30:13 35:4 36:12 37:13 38:16 39:4 43:4 44:1 46:14 47:8 51:13 52:13 53:6 54:14 55:7 59:2 60:14 61:14 62:9 63:2 #
-0.10954733515139412902694715512553 3:3 4:11 5:16 6:16 7:14 8:1 11:12 12:10 13:4 14:7 15:15 19:7 20:14 21:15 22:16 23:4 29:7 30:12 36:1 37:14 38:4 44:5 45:13 52:12 53:7 59:2 60:14 #
-0.088631727289687378679161611216841 4:1 5:12 6:4 11:1 12:14 13:16 14:11 19:9 20:13 21:5 22:15 23:4 26:2 27:16 28:2 30:16 31:3 34:1 35:16 36:7 37:7 38:16 39:4 43:13 44:16 45:16 46:16 47:1 51:1 52:13 53:16 54:13 60:3 61:12 62:5 #
0.50000003576649798553432901826454 2:2 3:10 4:13 5:10 6:1 10:11 11:12 12:10 13:15 14:9 21:12 22:9 27:3 28:11 29:16 30:6 35:12 36:16 37:16 38:16 39:4 46:13 47:9 51:1 52:7 53:9 54:16 55:5 59:13 60:15 61:11 62:3 #
0.50000003576649798553432901826454 3:5 4:15 5:13 6:2 11:10 12:13 13:12 14:11 19:3 20:2 21:4 22:15 28:9 29:16 30:10 36:3 37:13 38:16 39:6 46:7 47:14 51:5 52:8 53:8 54:10 55:16 56:1 59:4 60:9 61:14 62:13 63:7 #
-0.16038832378763862029913411788584 3:2 4:13 5:13 6:4 11:12 12:13 13:11 14:14 19:9 20:13 21:13 22:14 23:1 28:4 29:8 30:13 31:3 38:7 39:9 46:3 47:13 51:14 52:6 54:6 55:12 59:2 60:12 61:16 62:16 63:7 #
-0.10743639480203553970838470377203 4:9 5:12 6:5 12:16 13:9 14:15 15:2 20:16 21:6 22:16 23:4 28:4 29:16 30:16 31:8 37:2 38:15 39:4 46:10 47:7 51:16 52:11 53:3 54:13 55:4 59:3 60:6 61:13 62:15 63:2 #
-0.19108487196556864229357586282276 3:3 4:10 5:13 6:4 11:9 12:13 13:14 14:10 19:9 20:11 21:16 22:15 27:1 28:11 29:12 30:16 38:15 39:3 45:1 46:16 47:3 53:6 54:16 55:1 59:4 60:16 61:16 62:10 #
0.50000003576649798553432901826454 3:9 4:14 5:15 6:4 10:7 11:16 12:16 13:16 14:10 18:5 19:10 20:4 21:16 22:4 28:16 29:16 30:7 36:3 37:9 38:16 39:3 43:2 45:1 46:15 47:7 51:15 52:13 53:13 54:16 55:4 59:9 60:15 61:15 62:8 #
0.50000003576649798553432901826454 2:1 3:10 4:16 5:14 6:3 10:4 11:16 12:13 13:15 14:14 18:1 19:1 21:9 22:16 23:2 27:5 28:14 29:16 30:13 35:7 36:16 37:16 38:15 39:2 45:4 46:15 47:9 50:1 51:13 52:8 53:13 54:16 55:5 58:1 59:14 60:16 61:14 62:7 #
0.38651048883341349027276123706542 3:5 4:10 5:14 6:8 10:8 11:16 12:13 13:16 14:15 20:1 21:16 22:8 28:6 29:16 30:2 36:5 37:16 38:14 39:2 45:6 46:16 47:8 51:1 52:10 53:14 54:15 55:1 59:2 60:13 61:10 62:2 #
-0.12739328103036692829697074103024 3:7 4:14 5:7 11:15 12:14 13:16 14:3 19:15 20:12 21:16 22:6 27:6 28:16 29:16 30:4 35:8 36:16 37:16 38:11 43:15 44:12 45:3 46:16 47:8 50:2 51:15 52:11 53:8 54:16 55:10 59:9 60:16 61:16 62:12 63:6 #
-0.10827284945697247808826801929172 3:1 4:8 5:14 6:13 7:2 10:2 11:13 12:12 13:8 14:15 15:2 18:6 19:15 20:2 21:11 22:6 27:5 28:14 29:15 30:1 36:12 37:13 44:15 45:15 46:5 52:16 53:9 54:15 60:9 61:16 62:10 #
-0.12014529350512563599107096479202 3:12 4:8 5:2 11:16 12:6 13:14 14:6 18:2 19:16 20:10 21:16 26:10 27:13 28:14 29:10 30:4 31:1 34:8 35:16 36:16 37:16 38:16 39:10 43:13 44:15 45:4 46:4 47:1 51:12 52:12 58:1 59:14 60:5 #
0.50000003576649798553432901826454 2:5 3:14 4:16 5:8 6:1 10:4 11:11 12:4 13:12 14:11 18:1 19:2 20:1 21:11 22:11 27:1 28:15 29:13 30:1 35:1 36:10 37:16 38:9 45:1 46:13 47:8 50:5 51:5 53:2 54:12 55:8 58:5 59:16 60:16 61:16 62:13 63:1 #
0.50000003576649798553432901826454 3:8 4:16 5:13 6:4 11:5 12:6 13:12 14:14 20:3 21:15 22:14 28:13 29:15 30:4 36:9 37:12 38:1 44:1 45:11 46:12 51:3 52:4 53:9 54:16 55:4 59:8 60:15 61:14 62:12 63:3 #
0.50000003576649798553432901826454 2:1 3:7 4:12 5:12 6:2 10:10 11:16 12:16 13:16 14:10 19:2 20:1 21:16 22:8 28:1 29:16 30:9 36:2 37:16 38:14 45:4 46:15 47:5 51:3 52:7 53:7 54:16 55:10 59:7 60:16 61:16 62:12 #
-0.096239567487374944043665436765878 3:6 4:14 5:16 6:13 10:6 11:14 12:3 14:13 15:4 18:5 19:12 21:4 22:16 23:3 27:14 28:14 29:15 30:5 34:1 35:14 36:12 37:1 42:5 43:16 44:13 45:2 50:2 51:16 52:16 53:13 59:2 60:12 61:12 #
-0.073689481366567832765213097445667 4:16 5:6 12:16 13:14 20:14 21:16 28:15 29:15 36:14 37:15 44:15 45:14 52:13 53:14 60:10 61:13 #
-0.098163351387392405733578470972134 2:1 3:6 4:9 5:15 6:16 7:14 10:4 11:16 12:16 13:10 14:7 15:2 18:8 19:16 20:13 21:3 26:10 27:14 28:14 29:14 34:1 35:1 36:1 37:16 44:1 45:16 51:3 52:10 53:14 59:15 60:14 61:3 #
0.50000003576649798553432901826454 3:8 4:12 5:14 6:3 10:10 11:16 12:14 13:15 14:13 18:7 19:5 21:9 22:15 29:12 30:11 37:9 38:16 39:2 46:14 47:9 51:11 52:12 53:14 54:16 55:5 59:8 60:14 61:9 62:4 #
0.50000003576649798553432901826454 3:9 4:13 5:13 6:9 7:1 11:16 12:9 13:4 14:14 15:6 19:2 21:8 22:13 28:10 29:16 30:7 36:2 37:6 38:15 39:4 46:8 47:8 50:6 51:4 53:2 54:15 55:4 58:2 59:10 60:15 61:15 62:7 #
0.50000003576649798553432901826454 3:5 4:14 5:16 6:14 7:1 10:2 11:15 12:4 13:7 14:16 15:1 19:5 21:12 22:12 28:6 29:16 30:3 37:7 38:15 39:1 45:2 46:16 47:2 51:1 52:4 53:8 54:16 55:4 59:8 60:15 61:13 62:8 #
-0.10962109295668613639929134251361 2:2 3:15 4:9 5:10 6:8 7:6 10:10 11:16 12:16 13:16 14:12 15:8 18:8 19:16 20:6 26:1 27:12 28:16 29:12 30:1 35:1 36:6 37:15 38:12 45:5 46:16 47:2 50:10 51:12 52:6 53:10 54:16 55:1 58:1 59:13 60:16 61:14 62:5 #
-0.039983841590724718273452964467651 4:4 5:16 6:2 12:9 13:13 19:2 20:16 21:5 27:9 28:13 29:4 34:3 35:16 36:6 37:15 38:5 42:10 43:15 44:9 45:16 46:10 47:1 49:1 50:16 51:16 52:16 53:16 54:16 55:5 58:3 59:4 60:9 61:16 62:4 #
-0.077712237763812738733371077159973 4:4 5:15 6:7 12:15 13:15 14:1 19:8 20:16 21:2 26:4 27:16 28:7 29:6 30:9 34:10 35:16 36:13 37:16 38:16 41:2 42:16 43:16 44:12 45:15 46:11 49:4 50:9 51:4 52:3 53:16 54:7 60:5 61:16 62:5 #
0.50000003576649798553432901826454 3:10 4:15 5:6 10:7 11:15 12:11 13:14 18:3 19:9 20:2 21:16 28:6 29:16 36:14 37:16 38:14 39:1 44:1 45:5 46:16 47:5 50:3 51:11 52:2 53:7 54:16 55:5 58:1 59:13 60:16 61:13 62:7 #
0.50000003576649798553432901826454 2:1 3:10 4:16 5:16 6:4 10:8 11:13 12:12 13:16 14:10 18:2 20:14 21:15 22:3 28:11 29:16 30:8 37:7 38:16 39:3 42:2 43:1 46:13 47:8 50:8 51:12 52:4 53:10 54:16 55:5 58:2 59:13 60:16 61:12 62:5 #
0.50000003576649798553432901826454 2:1 3:7 4:12 5:14 6:5 10:3 11:13 12:8 13:14 14:10 20:3 21:16 22:2 28:13 29:12 30:3 36:8 37:13 38:16 39:4 45:4 46:14 47:3 51:1 52:12 53:16 54:9 59:9 60:13 61:5 #
-0.1017362292018919450731218034889 5:12 6:15 7:1 10:3 11:8 12:8 13:14 14:16 18:11 19:16 20:16 21:16 22:16 26:1 27:4 28:4 29:15 30:16 37:12 38:16 39:4 45:12 46:16 47:3 53:12 54:16 55:10 61:9 62:16 63:11 #
-0.068864923070322311970947737336246 2:4 3:16 4:16 5:16 6:14 7:3 10:1 11:8 12:8 13:8 14:15 15:10 21:5 22:16 23:6 29:13 30:12 34:8 35:16 36:16 37:16 38:15 39:8 42:3 43:11 44:16 45:9 46:8 47:3 51:14 52:12 58:5 59:16 60:2 #
-0.10929026382204519440843881739056 2:2 3:11 4:3 6:2 10:2 11:13 12:12 13:5 14:15 15:6 19:11 20:14 21:14 22:1 27:7 28:15 29:1 35:15 36:12 37:5 42:4 43:10 44:4 45:8 50:7 51:9 52:7 53:8 58:2 59:14 60:15 61:5 #
0.50000003576649798553432901826454 3:13 4:16 5:16 6:6 10:6 11:16 12:6 13:10 14:16 18:1 19:7 20:5 21:14 22:8 27:1 28:15 29:16 30:13 31:1 36:3 37:4 38:13 39:10 46:9 47:11 50:2 51:14 52:5 53:6 54:16 55:4 58:1 59:15 60:16 61:16 62:10 #
0.50000003576649798553432901826454 3:9 4:16 5:16 6:7 11:8 12:9 13:11 14:16 15:1 20:2 21:13 22:16 23:1 28:13 29:16 30:6 36:3 37:13 38:13 39:2 45:1 46:13 47:9 51:4 52:2 53:1 54:12 55:13 59:11 60:16 61:16 62:16 63:11 #
0.47279853357546680614476031223603 3:6 4:13 5:12 6:2 10:7 11:14 12:4 13:9 14:10 18:8 19:3 21:10 22:7 27:2 28:9 29:16 30:2 35:10 36:12 37:12 38:14 39:1 46:6 47:12 51:11 52:5 53:4 54:12 55:10 59:6 60:13 61:13 62:10 63:1 #
-0.14720771588066719481879829345417 3:12 4:16 5:14 6:2 10:7 11:11 12:2 13:7 14:12 18:11 19:15 20:12 21:14 22:11 26:2 27:8 28:8 29:13 30:12 37:7 38:14 45:1 46:14 47:5 51:12 52:12 53:5 54:10 55:12 59:8 60:8 61:12 62:16 63:6 #
0.50000003576649798553432901826454 3:7 4:9 5:13 6:14 7:4 11:9 12:7 13:6 14:16 15:8 20:1 21:13 22:10 28:14 29:14 30:1 36:10 37:16 38:4 44:2 45:11 46:14 50:1 51:10 52:9 53:8 54:16 55:3 58:1 59:9 60:13 61:12 62:8 #
-0.099716168118732503855561333239166 3:4 4:13 5:15 6:2 10:1 11:13 12:3 13:7 14:10 18:6 19:8 22:12 26:4 27:10 28:3 29:11 30:11 35:14 36:16 37:15 38:15 39:1 43:8 44:16 45:1 46:5 47:8 51:8 52:10 53:5 54:13 55:7 59:4 60:15 61:11 62:6 #
-0.10541010635916307769388566839552 3:8 4:16 5:16 6:11 10:5 11:15 12:7 13:2 14:16 15:3 18:12 19:10 21:4 22:16 23:1 26:11 27:14 28:2 29:12 30:12 35:11 36:14 37:16 38:2 43:1 44:16 45:13 46:1 51:7 52:13 53:16 54:8 59:13 60:9 61:12 62:12 #
0.49218378467336737491777398645354 2:2 3:14 4:16 5:7 10:2 11:11 12:11 13:16 14:4 21:13 22:8 27:4 28:9 29:15 30:7 35:7 36:16 37:16 38:12 39:1 45:3 46:16 47:8 50:1 51:6 52:11 53:15 54:16 55:7 58:2 59:13 60:14 61:11 62:5 #
0.41395897269218606684404448969872 3:6 4:14 5:16 6:5 10:3 11:16 12:13 13:13 14:12 18:1 19:4 20:1 21:12 22:12 27:4 28:14 29:16 30:6 35:6 36:14 37:16 38:15 39:2 45:8 46:16 47:2 50:2 51:16 52:10 53:13 54:15 59:9 60:14 61:8 62:2 #
-0.13424854589816542782543251632887 3:8 4:13 5:12 6:2 11:10 12:12 13:13 14:10 19:1 21:8 22:12 29:9 30:12 36:3 37:16 38:5 43:1 44:13 45:12 46:2 47:3 51:12 52:16 53:16 54:16 55:9 59:10 60:12 61:9 62:2 #
-0.10598129500590466878229278790968 3:10 4:14 5:15 6:10 7:2 10:2 11:15 12:5 13:4 14:16 15:8 19:13 21:8 22:13 23:1 26:3 27:15 28:12 29:14 30:2 34:1 35:12 36:14 37:13 38:1 42:6 43:11 45:9 46:12 50:7 51:11 53:1 54:16 55:3 58:1 59:10 60:13 61:14 62:12 #
-0.073732511510342033100862124683772 4:13 5:6 6:2 11:2 12:16 13:8 14:16 15:3 18:1 19:14 20:13 21:12 22:16 26:9 27:16 28:16 29:16 30:16 31:10 34:3 35:12 36:14 37:16 38:13 39:6 44:8 45:16 46:1 52:11 53:10 60:13 61:7 #
0.43789995874022880073539454315323 3:9 4:15 5:16 6:3 10:5 11:15 12:10 13:16 14:4 19:2 20:7 21:13 27:4 28:16 29:5 35:2 36:15 37:16 38:11 39:1 45:6 46:15 47:6 51:5 52:5 53:4 54:13 55:8 59:14 60:16 61:16 62:15 63:3 #
0.42502234790787457585636843759858 3:9 4:15 5:16 6:9 10:11 11:16 12:9 13:11 14:16 15:2 18:5 19:3 20:1 21:14 22:14 23:1 28:7 29:16 30:5 36:4 37:16 38:5 45:10 46:16 51:1 52:6 53:15 54:13 59:14 60:15 61:9 62:1 #
0.45860758200495987946254672351643 2:3 3:15 4:16 5:13 6:4 10:4 11:6 12:4 13:10 14:16 20:5 21:14 22:11 27:10 28:16 29:12 35:6 36:9 37:15 38:12 46:12 47:8 50:1 51:6 52:4 53:6 54:15 55:8 58:4 59:13 60:13 61:11 62:7 #
-0.13417366446906878185707512329827 3:3 4:10 5:11 6:5 10:8 11:16 12:10 13:8 14:5 18:11 19:11 26:8 27:14 28:11 29:8 30:4 35:3 36:7 37:9 38:14 39:9 46:5 47:13 51:1 52:4 53:10 54:16 55:5 59:2 60:13 61:10 62:2 #
-0.050764753050823327451546163047169 3:16 4:10 10:3 11:16 12:16 13:6 19:16 20:12 21:12 27:13 28:11 29:14 35:1 36:6 37:16 44:10 45:12 51:13 52:16 53:16 54:14 55:8 58:1 59:13 60:16 61:16 62:15 63:16 64:5 #
-0.11336290097229627382713346150922 3:2 4:11 5:16 6:16 7:16 8:12 11:7 12:15 13:9 14:8 15:12 16:13 22:1 23:14 24:5 30:11 31:9 37:6 38:13 44:1 45:14 46:3 52:10 53:9 59:1 60:16 61:5 #
0.50000003576649798553432901826454 2:1 3:10 4:16 5:12 6:1 10:7 11:16 12:10 13:13 14:5 18:1 19:6 21:9 22:8 28:7 29:15 30:10 36:6 37:12 38:14 39:7 46:2 47:14 51:7 52:6 53:4 54:9 55:14 59:7 60:15 61:16 62:13 63:7 #
0.40521720040999825718230908933037 3:7 4:13 5:16 6:8 10:9 11:16 12:12 13:8 14:16 15:2 18:4 19:7 21:6 22:15 23:1 27:4 28:13 29:16 30:8 35:6 36:13 37:15 38:16 39:3 45:2 46:11 47:12 51:7 52:8 53:4 54:14 55:12 59:10 60:16 61:16 62:14 63:4 #
0.50000003576649798553432901826454 3:3 4:9 5:16 6:13 10:4 11:15 12:12 13:12 14:16 18:8 19:4 20:4 21:14 22:9 28:8 29:16 30:7 36:1 37:16 38:15 46:16 47:4 52:7 53:14 54:15 55:2 59:1 60:15 61:12 62:2 #
-0.23727887767138006180900333674799 2:1 3:10 4:15 5:9 10:5 11:16 12:8 13:16 14:7 18:5 19:14 21:12 22:9 26:1 27:12 28:13 29:16 30:16 31:2 35:1 36:9 37:12 38:14 39:7 46:4 47:13 51:14 52:12 53:8 54:11 55:16 59:7 60:16 61:16 62:16 63:9 #
-0.10872847607905232469871492639868 2:2 3:16 4:10 5:9 6:8 11:10 12:16 13:16 14:12 18:1 19:5 20:10 21:16 22:10 23:6 26:11 27:16 28:16 29:16 30:15 31:7 34:3 35:5 36:14 37:9 38:2 43:6 44:16 51:10 52:10 58:3 59:16 60:1 #
-0.10415925003013119798378482983026 3:4 4:15 5:6 11:13 12:13 13:16 18:4 19:15 20:1 21:16 22:2 28:2 29:16 36:8 37:12 42:1 43:12 44:16 45:6 46:4 50:7 51:16 52:16 53:16 54:16 55:6 59:2 61:4 62:8 63:3 #
0.42628160206258775000165428537002 3:8 4:15 5:16 6:14 7:2 10:1 11:16 12:14 13:12 14:16 15:7 19:8 20:1 21:3 22:16 23:5 28:8 29:16 30:11 36:6 37:14 38:13 45:3 46:16 47:6 51:10 52:8 53:12 54:16 55:2 59:9 60:16 61:15 62:5 #
0.40715791764321462853359889777494 2:3 3:15 4:16 5:11 6:1 10:12 11:13 12:10 13:16 14:4 18:5 19:1 20:8 21:16 22:1 28:16 29:16 30:6 36:7 37:13 38:16 39:5 45:1 46:15 47:13 50:4 51:11 52:8 53:8 54:15 55:13 58:2 59:14 60:16 61:16 62:10 63:1 #
0.50000003576649798553432901826454 3:14 4:16 5:16 6:8 11:6 12:5 13:8 14:16 15:3 21:7 22:16 23:2 28:7 29:16 30:13 36:8 37:12 38:16 39:7 46:8 47:14 48:1 51:10 52:4 53:4 54:10 55:16 56:1 59:12 60:16 61:16 62:16 63:9 #
-0.10680399408932358951140884073538 3:6 4:14 5:13 6:2 10:10 11:16 12:9 13:16 14:12 18:5 19:16 20:16 21:16 22:16 23:3 27:5 28:9 29:5 30:8 31:8 38:8 39:8 45:1 46:12 47:8 51:5 52:16 53:16 54:15 55:3 59:4 60:15 61:9 62:2 #
-0.076207020947329145998949684326362 5:5 6:16 7:8 13:13 14:16 15:12 20:9 21:16 22:16 23:9 27:10 28:16 29:14 30:16 31:8 34:4 35:15 36:11 37:8 38:16 39:5 43:7 44:1 45:9 46:16 47:3 53:12 54:16 61:8 62:15 63:2 #
-0.066696572210851637341200159880827 4:16 5:14 6:1 11:7 12:16 13:15 14:2 18:9 19:16 20:16 21:11 25:1 26:15 27:15 28:16 29:10 34:2 35:3 36:16 37:9 44:16 45:9 51:2 52:16 53:6 60:16 61:8 #
0.36469203154027890478872109270014 3:4 4:14 5:15 6:6 11:13 12:5 13:9 14:11 21:5 22:11 27:1 28:9 29:16 30:4 35:3 36:9 37:9 38:15 39:1 46:15 47:4 50:8 51:14 52:8 53:5 54:16 55:4 59:6 60:14 61:15 62:8 #
0.42592724750324439941806531351176 2:1 3:10 4:13 5:13 6:12 7:1 10:6 11:13 12:4 13:4 14:13 15:8 19:1 20:1 21:7 22:16 23:3 28:15 29:13 30:4 36:8 37:15 38:3 45:10 46:13 47:1 52:1 53:9 54:16 55:2 58:1 59:13 60:16 61:12 62:7 #
0.25824457762331909371766869298881 3:8 4:16 5:9 10:4 11:15 12:10 13:16 18:5 19:5 20:7 21:12 28:16 29:14 30:9 36:8 37:8 38:15 39:7 46:11 47:8 51:15 52:5 53:7 54:15 55:3 59:6 60:13 61:13 62:6 #
-0.1573532079382244375231891808653 3:5 4:16 5:16 6:6 11:16 12:9 13:11 14:13 19:11 20:11 21:14 22:8 27:1 28:15 29:12 30:1 35:3 36:16 37:15 38:4 43:12 44:10 45:7 46:13 47:1 51:15 52:4 53:3 54:16 55:6 59:8 60:16 61:16 62:13 63:1 #
-0.11297775441922064398880820590421 3:14 4:5 11:13 12:8 19:16 20:7 27:15 28:8 34:2 35:16 36:5 37:15 38:3 42:2 43:16 44:9 45:14 46:11 47:1 50:6 51:16 52:16 53:16 54:16 55:15 58:1 59:8 60:5 61:7 62:16 63:8 #
-0.060662288339120254421210631790018 3:6 4:8 11:10 12:15 19:10 20:15 27:12 28:14 34:2 35:16 36:16 37:16 38:15 39:4 43:13 44:13 45:9 46:16 47:12 51:13 52:12 53:12 54:16 55:7 59:8 60:16 61:15 62:8 #
0.33465418063546203963909420053824 3:6 4:15 5:16 6:7 10:1 11:16 12:12 13:15 14:13 20:3 21:16 22:11 27:5 28:16 29:11 35:5 36:13 37:16 38:12 45:9 46:15 47:1 51:5 52:9 53:14 54:15 59:5 60:16 61:11 62:4 #
0.35825262609661656654225225793198 2:3 3:9 4:14 5:15 6:6 10:7 11:13 12:7 13:8 14:16 21:7 22:12 27:1 28:9 29:16 30:10 35:5 36:15 37:12 38:15 39:7 46:13 47:9 51:8 52:8 53:14 54:16 55:4 58:3 59:16 60:14 61:9 62:1 #
0.40906316399458220178786405085702 3:9 4:13 5:7 10:7 11:14 12:4 13:14 14:4 18:2 19:2 20:3 21:15 22:2 28:16 29:11 36:8 37:15 38:11 46:12 47:7 51:10 52:4 53:2 54:10 55:8 59:7 60:13 61:16 62:16 63:4 #
-0.17586367093108434822568142408272 3:2 4:15 5:12 6:1 11:7 12:15 13:15 14:9 19:5 20:15 21:7 22:16 23:2 27:1 28:13 29:14 30:16 31:7 36:4 37:13 38:15 39:10 46:14 47:11 52:1 53:8 54:16 55:10 59:2 60:13 61:16 62:15 63:3 #
-0.095154820773219350726890297664795 5:10 6:7 13:15 14:5 20:4 21:16 22:3 28:7 29:15 30:3 34:3 35:7 36:14 37:12 38:16 39:1 41:1 42:14 43:16 44:16 45:16 46:15 50:9 51:10 52:14 53:16 54:16 61:12 62:9 #
-0.11359830681298339893903204256276 4:15 5:12 6:3 12:16 13:16 14:8 19:9 20:16 21:16 22:9 28:10 29:16 30:13 36:4 37:16 38:16 39:2 43:1 44:8 45:16 46:16 47:10 51:8 52:16 53:16 54:16 55:16 56:5 59:1 60:9 61:12 62:14 63:12 64:4 #
0.38264694849634556250705941238266 3:8 4:12 5:16 6:9 7:1 11:14 12:11 13:7 14:16 15:4 21:4 22:16 23:2 28:4 29:14 30:16 31:3 36:8 37:14 38:15 39:8 46:9 47:11 50:3 51:12 52:4 53:6 54:14 55:7 58:1 59:9 60:16 61:16 62:11 #
0.36933734778632054673863649441046 2:1 3:13 4:16 5:10 6:3 10:2 11:13 12:8 13:13 14:15 19:1 20:8 21:11 22:14 23:2 28:16 29:16 30:7 37:9 38:16 39:1 43:1 46:14 47:7 50:5 51:12 52:4 53:7 54:16 55:3 58:1 59:11 60:14 61:12 62:5 #
0.34133993200921086685895033951965 2:1 3:10 4:16 5:13 6:4 10:9 11:13 12:4 13:11 14:15 21:4 22:16 23:1 28:3 29:13 30:11 36:7 37:16 38:14 39:2 45:4 46:15 47:8 51:5 52:4 53:5 54:14 55:9 59:15 60:16 61:14 62:9 #
-0.12895090033968861775726111318363 3:2 4:7 5:12 6:16 7:11 11:10 12:15 13:16 14:16 15:16 20:10 21:16 22:16 23:12 28:4 29:16 30:16 31:4 36:5 37:16 38:15 39:4 44:10 45:16 46:12 51:2 52:15 53:16 54:3 59:1 60:13 61:14 62:1 #
-0.11313151173346562561317085737755 3:5 4:11 5:12 11:16 12:16 13:16 14:13 15:7 19:12 20:16 21:16 22:15 23:4 27:4 28:15 29:14 30:8 35:12 36:4 37:1 38:4 42:1 43:14 45:3 46:7 50:1 51:16 52:12 53:16 54:4 59:3 60:9 61:5 #
-0.087743156390250640064287779296137 3:3 4:16 11:10 12:10 13:3 14:5 19:16 20:5 21:12 22:10 26:4 27:15 28:2 29:15 30:4 34:10 35:13 36:9 37:15 38:10 39:11 42:3 43:14 44:16 45:14 46:8 47:2 52:15 53:6 59:3 60:15 #
0.41669974081998245596381025279697 3:4 4:10 5:16 6:12 7:1 10:3 11:15 12:14 13:8 14:16 15:5 18:4 19:7 21:5 22:15 23:2 29:13 30:8 36:3 37:16 38:10 45:10 46:16 47:4 51:4 52:9 53:11 54:15 55:2 59:5 60:13 61:11 62:1 #
0.32621961250694325729071465502784 3:6 4:14 5:15 10:1 11:16 12:9 13:16 14:3 19:1 20:3 21:16 22:2 27:4 28:16 29:15 30:4 35:4 36:8 37:14 38:16 39:3 46:16 47:4 51:3 52:7 53:10 54:15 55:2 59:7 60:15 61:9 62:1 #
0.38713367965288558725234224766609 2:2 3:12 4:15 5:6 10:6 11:13 12:12 13:16 14:5 19:3 20:9 21:16 22:5 27:7 28:16 29:16 30:12 36:4 37:8 38:16 39:5 46:13 47:8 50:2 51:13 52:8 53:14 54:15 55:3 58:2 59:15 60:15 61:10 62:1 #
-0.12688457286464102646839080534846 4:8 5:14 6:15 7:2 11:9 12:12 13:4 14:13 15:7 19:14 20:13 21:8 22:14 23:3 27:3 28:16 29:16 30:16 31:2 38:15 43:3 45:1 46:16 47:1 51:14 52:13 53:9 54:14 59:2 60:10 61:12 62:4 #
-0.073221571936399026947484003358113 3:4 4:13 5:16 6:8 10:5 11:16 12:8 13:10 14:12 18:8 19:9 21:8 22:12 28:2 29:11 30:10 31:2 35:3 36:16 37:16 38:16 39:9 44:9 45:14 52:13 53:7 59:5 60:15 61:2 #
-0.11551845103986130292028633448354 4:8 5:15 6:16 7:7 10:1 11:14 12:9 13:1 15:8 18:6 19:12 22:10 23:8 26:4 27:14 28:12 29:13 30:14 31:8 37:1 38:4 39:8 46:4 47:8 54:7 55:8 60:8 61:12 62:15 63:6 #
0.26582927736204847724010846832243 2:2 3:10 4:13 5:7 10:8 11:12 12:9 13:16 14:3 18:1 21:16 22:5 28:6 29:16 30:2 36:4 37:14 38:13 45:3 46:16 47:7 51:3 52:5 53:10 54:16 55:5 58:3 59:16 60:14 61:12 62:5 #
0.30567737673738198944661803579947 3:7 4:14 5:15 6:2 11:8 12:4 13:4 14:15 21:8 22:11 27:2 28:16 29:16 30:4 35:1 36:8 37:13 38:13 46:7 47:10 50:2 51:14 52:2 53:3 54:12 55:9 58:1 59:12 60:16 61:16 62:10 63:1 #
0.32157034260376560208527507711551 2:1 3:13 4:16 5:14 6:1 10:14 11:15 12:8 13:14 14:10 18:5 19:5 21:13 22:10 28:12 29:16 30:8 35:4 36:16 37:16 38:16 39:5 44:3 46:16 47:10 51:3 52:4 53:10 54:16 55:8 59:11 60:16 61:16 62:8 #
-0.06563551464615018093962106604522 3:6 4:12 5:4 11:12 12:16 13:15 14:1 18:2 19:16 20:6 21:5 22:14 26:9 27:16 28:4 30:14 31:3 34:7 35:16 36:6 38:14 39:6 42:4 43:16 44:15 45:2 46:16 47:6 51:12 52:16 53:16 54:11 59:5 60:14 61:14 62:5 #
-0.11385120107885779439094164899871 3:3 4:16 5:15 6:3 11:6 12:16 13:15 14:3 19:10 20:16 21:6 22:2 27:4 28:14 29:16 30:3 34:4 35:13 36:2 37:12 38:6 42:5 43:11 45:1 46:12 47:3 51:13 52:3 54:7 55:11 59:3 60:11 61:11 62:14 63:10 #
-0.10405284894104425974514782637925 3:4 4:11 5:14 6:7 11:15 12:12 13:16 14:3 19:8 20:16 21:10 27:9 28:16 29:7 34:3 35:15 36:4 37:14 38:4 42:2 43:13 45:3 46:15 47:6 51:8 52:9 53:4 54:8 55:14 60:7 61:12 62:12 63:8 #
0.36577374285144115262369268748444 2:2 3:12 4:16 5:15 6:8 10:2 11:7 12:4 13:10 14:16 15:2 20:3 21:16 22:13 28:15 29:15 30:1 36:10 37:13 45:14 46:10 47:1 51:1 52:5 53:10 54:16 55:4 58:1 59:13 60:13 61:12 62:8 #
0.41803923103018369999972492223606 3:13 4:16 5:16 6:5 10:1 11:10 12:8 13:16 14:6 20:10 21:14 27:7 28:16 29:6 35:3 36:13 37:16 38:6 45:10 46:15 47:1 51:2 52:5 53:7 54:16 55:7 59:15 60:16 61:16 62:14 63:2 #
0.27081549135484045409683062644035 2:2 3:16 4:16 5:16 6:7 11:7 12:8 13:11 14:16 15:3 20:2 21:12 22:16 23:4 27:1 28:16 29:16 30:6 35:2 36:12 37:16 38:10 45:4 46:16 47:4 51:10 52:8 53:11 54:16 55:7 58:1 59:14 60:16 61:16 62:12 63:1 #
-0.097877887366674229396856787843717 3:7 4:13 5:16 6:5 10:6 11:8 12:8 13:14 14:9 21:15 22:5 28:12 29:11 35:6 36:15 37:1 43:12 44:4 51:11 52:10 53:8 54:8 55:4 59:6 60:15 61:16 62:12 63:4 #
-0.060219495390686862690277081355816 3:1 4:8 5:6 11:14 12:16 13:16 14:16 19:16 20:16 21:16 22:16 27:16 28:16 29:16 30:16 35:16 36:16 37:16 38:15 43:16 44:16 45:16 46:13 51:9 52:16 53:16 54:9 59:6 60:8 61:6 62:1 #
-0.047165068734905189751227538863532 4:5 5:14 6:1 11:1 12:14 13:7 15:3 19:9 20:14 21:1 22:6 23:15 26:3 27:16 28:12 29:4 30:12 31:8 35:7 36:10 37:14 38:16 39:4 45:10 46:13 52:1 53:16 54:3 60:6 61:12 #
0.18483332004153973926463550014887 2:1 3:10 4:16 5:6 10:4 11:12 12:8 13:12 18:1 20:2 21:11 28:9 29:16 30:9 36:5 37:8 38:16 39:5 46:8 47:9 50:2 51:8 52:8 53:7 54:11 55:9 58:1 59:13 60:16 61:16 62:10 63:1 #
0.30784970949314194310630909967585 2:1 3:9 4:12 5:14 6:10 7:1 10:7 11:15 12:7 13:6 14:15 15:8 18:1 19:1 21:3 22:16 23:5 27:2 28:11 29:16 30:9 35:2 36:14 37:16 38:8 44:1 45:7 46:15 47:7 51:12 52:6 53:6 54:15 55:7 59:8 60:15 61:14 62:9 #
0.26986560956871075145357963265269 3:9 4:16 5:16 6:9 10:1 11:16 12:12 13:16 14:16 19:2 20:7 21:16 22:9 27:7 28:16 29:15 30:8 31:1 35:5 36:9 37:9 38:15 39:8 46:13 47:12 51:6 52:8 53:12 54:16 55:10 59:9 60:15 61:12 62:4 #
-0.099669244209115201438287101609603 3:6 4:13 5:16 6:11 7:1 10:4 11:15 12:6 13:9 14:16 15:5 18:6 19:9 21:7 22:16 23:6 26:3 27:15 28:12 29:15 30:15 31:8 35:2 36:5 37:2 38:10 39:8 46:13 47:7 50:2 51:9 52:4 53:8 54:15 55:2 59:10 60:13 61:12 62:2 #
-0.1882032628811859953366081299464 3:13 4:14 5:4 10:4 11:16 12:13 13:14 14:2 19:16 20:4 21:16 22:14 23:2 27:11 28:14 29:16 30:14 36:8 37:11 38:15 45:4 46:16 47:2 51:6 52:6 53:7 54:16 55:2 59:12 60:16 61:16 62:10 #
-0.042053536254461544585669940943262 4:8 5:16 6:5 11:5 12:15 13:10 14:2 18:2 19:15 20:6 26:5 27:12 34:4 35:15 36:14 37:16 38:14 39:5 43:16 44:15 45:1 46:5 47:12 51:7 52:15 53:1 54:7 55:14 60:8 61:16 62:15 63:4 #
0.29033823626952515173371693890658 3:8 4:15 5:16 6:12 10:5 11:16 12:12 13:15 14:14 18:1 19:5 20:1 21:15 22:8 27:4 28:14 29:16 30:4 35:3 36:16 37:16 38:14 39:1 45:7 46:16 47:4 51:4 52:15 53:16 54:14 55:1 59:9 60:16 61:12 62:3 #
0.21604091874018824248615544547647 2:2 3:10 4:15 5:11 6:4 10:2 11:10 12:6 13:13 14:12 20:2 21:13 22:9 28:15 29:16 36:11 37:16 38:9 45:2 46:15 47:11 51:1 52:3 53:11 54:14 55:2 58:2 59:15 60:16 61:11 62:1 #
0.22278547297316392272747975766833 3:6 4:13 5:12 6:4 10:2 11:16 12:9 13:12 14:13 19:9 21:13 22:10 28:6 29:16 30:4 37:8 38:14 39:1 46:14 47:9 51:4 52:9 53:5 54:10 55:13 59:7 60:12 61:13 62:12 63:5 #
-0.10075963703323986830895364619209 2:4 3:8 4:8 5:12 6:16 7:5 10:8 11:16 12:16 13:16 14:15 15:3 18:2 19:3 20:7 21:16 22:7 28:12 29:14 30:1 35:9 36:16 37:7 43:14 44:16 50:6 51:16 52:12 58:6 59:14 60:7 #
-0.050276983701419933336929091183265 2:4 3:16 4:9 10:9 11:16 12:16 13:3 18:12 19:8 20:16 21:4 26:5 27:2 28:16 29:5 36:16 37:4 43:3 44:16 45:4 50:5 51:15 52:16 53:13 54:12 55:8 58:4 59:16 60:16 61:16 62:16 63:12 #
-0.092854828330291197535650837835419 3:9 4:16 5:7 11:16 12:16 13:14 19:3 20:13 21:16 27:7 28:16 29:16 30:12 31:8 35:8 36:16 37:16 38:16 39:9 44:14 45:11 51:4 52:16 53:5 59:7 60:12 #
-0.094596273874191172392755788678187 3:3 4:10 5:14 6:14 10:10 11:16 12:14 13:10 14:15 19:8 26:6 27:16 28:8 29:1 34:2 35:11 36:15 37:15 38:5 45:15 46:15 52:12 53:13 54:1 60:11 61:4 #
-0.066833821945655735863311974753742 2:2 3:14 4:16 5:14 6:2 10:9 11:16 12:5 13:12 14:11 18:2 19:11 21:8 22:16 29:7 30:16 36:1 37:13 38:10 44:5 45:16 46:5 51:7 52:16 53:13 54:8 55:8 56:1 58:2 59:16 60:16 61:16 62:13 63:11 64:1 #
-0.1116426650051441649136307887602 2:2 3:8 4:16 5:11 6:1 10:10 11:15 12:5 13:11 14:5 18:11 19:10 20:13 21:16 22:6 26:9 27:16 28:16 29:12 30:13 31:2 34:1 35:15 36:8 38:6 39:9 43:12 44:5 46:5 47:11 51:9 52:9 53:7 54:16 55:8 59:4 60:14 61:15 62:6 #
0.24014327883566852217533948987693 3:10 4:16 5:15 6:1 10:5 11:15 12:8 13:15 14:6 18:3 19:6 20:1 21:14 22:4 28:10 29:16 30:13 36:1 37:7 38:16 39:7 43:1 44:2 46:15 47:7 51:12 52:13 53:6 54:16 55:5 59:9 60:16 61:16 62:9 #
-0.091974715090924710758635285401397 4:5 5:8 11:4 12:16 13:2 15:14 19:9 20:8 22:8 23:8 26:2 27:15 29:1 30:15 34:10 35:9 36:4 37:9 38:15 39:1 42:11 43:16 44:16 45:16 46:11 47:1 50:3 51:4 52:7 53:9 60:8 61:5 #
-0.095253441752575607193165296848747 4:6 5:10 6:1 7:15 8:6 11:5 12:16 13:4 14:8 15:15 16:1 18:1 19:15 20:8 21:2 22:15 23:8 26:4 27:16 28:14 29:13 30:15 34:1 35:15 36:16 37:16 38:13 43:3 44:10 45:15 52:11 53:14 54:1 60:10 61:15 #
-0.11103079879967032994603215456664 2:2 4:13 5:12 6:3 9:5 10:14 11:1 12:13 13:16 14:5 18:8 19:16 20:14 21:16 22:4 27:8 28:16 29:16 30:2 36:16 37:16 38:9 43:3 44:16 45:16 46:16 47:4 51:11 52:16 53:16 54:16 55:6 59:1 60:15 61:16 62:10 #
-0.087168659529870073932045215769904 3:12 4:16 5:6 10:7 11:12 12:4 13:14 18:11 19:14 21:6 22:4 26:6 27:8 29:7 30:4 37:10 38:3 44:5 45:13 51:3 52:14 53:10 59:14 60:13 61:12 62:15 63:13 64:1 #
-0.06818765238190986621713562954028 4:9 5:10 11:2 12:16 13:16 14:3 19:13 20:16 21:9 26:1 27:15 28:13 34:2 35:16 36:13 37:11 38:12 39:4 42:1 43:15 44:16 45:16 46:16 47:15 48:1 51:8 52:16 53:16 54:16 55:16 56:4 60:7 61:12 62:13 63:14 64:3 #
-0.075726818797679160133462517023872 3:3 4:12 5:16 6:10 10:3 11:14 12:5 14:12 18:9 19:8 20:1 21:9 22:16 23:4 26:5 27:15 28:15 29:15 30:14 31:2 37:15 38:3 44:8 45:10 52:11 53:6 59:3 60:15 61:2 #
-0.11326992525234851061366470048597 4:8 5:15 6:4 12:13 13:16 14:13 18:1 19:1 20:10 21:3 22:13 23:6 26:5 27:8 30:6 31:8 34:7 35:11 38:4 39:8 42:3 43:15 44:7 46:4 47:9 51:7 52:16 53:13 54:11 55:12 60:6 61:15 62:16 63:4 #
-0.10312901590810966134803550176002 3:6 4:16 5:13 6:11 7:5 11:1 12:8 13:10 14:16 15:15 21:1 22:14 23:13 29:7 30:16 31:5 34:3 35:4 36:1 37:12 38:16 42:12 43:16 44:16 45:16 46:13 47:2 51:3 52:14 53:15 59:6 60:16 61:7 #
-0.11381596675835076171168225300789 3:11 4:16 5:8 10:5 11:16 12:12 13:15 18:10 19:12 20:9 21:11 26:7 27:15 28:15 29:6 35:14 36:16 37:11 38:1 42:1 43:14 44:11 45:12 46:15 47:3 50:7 51:16 52:2 54:11 55:12 58:1 59:10 60:15 61:16 62:16 63:6 #
-0.051494543218378679982905055112496 3:9 4:16 5:12 6:4 10:3 11:16 12:16 13:16 14:16 15:3 18:5 19:16 20:1 21:1 22:13 23:8 26:1 27:14 28:10 29:10 30:16 31:6 35:6 36:16 37:16 38:8 42:1 43:14 44:16 45:12 50:4 51:16 52:10 53:16 54:4 58:1 59:11 60:16 61:13 62:1 #
-0.089462449628802759304946334850683 3:3 4:11 5:14 6:16 7:4 10:9 11:16 12:16 13:16 14:9 15:3 18:15 19:14 20:6 21:2 26:10 27:16 28:5 34:3 35:13 36:15 37:5 43:1 44:10 45:15 46:6 52:7 53:15 54:15 59:2 60:15 61:16 62:15 #
-0.066710758274282924706888309174246 3:5 4:14 5:11 6:2 10:3 11:16 12:10 13:15 14:13 18:8 19:13 21:14 22:16 23:1 26:3 27:16 28:13 29:16 30:15 31:3 35:3 36:16 37:16 38:3 43:1 44:16 45:16 46:14 51:6 52:16 53:13 54:16 55:4 59:5 60:15 61:12 62:12 63:1 #
-0.094231247892252387177158823305945 2:3 3:9 4:12 5:12 6:16 7:10 10:7 11:16 12:16 13:16 14:14 15:6 18:7 19:16 20:11 21:2 26:10 27:16 28:10 29:2 34:1 35:11 36:16 37:16 38:4 43:1 44:12 45:16 46:5 51:13 52:16 53:6 58:2 59:15 60:9 #
-0.094590109250025769527248087342741 4:1 5:13 6:13 11:5 12:15 13:15 14:16 18:3 19:15 20:8 21:7 22:14 26:11 27:15 28:9 29:15 30:16 31:9 34:8 35:16 36:14 37:15 38:15 39:5 45:12 46:8 53:12 54:6 61:12 62:4 #
-0.075155921811357995210300941835158 4:9 5:14 12:13 13:11 15:4 19:2 20:16 21:6 22:6 23:15 27:9 28:14 30:14 31:10 34:12 35:16 36:14 37:13 38:15 39:1 42:11 43:14 44:14 45:16 46:12 52:7 53:16 54:5 60:14 61:13 #
-0.11740468370197285064016057276604 3:5 4:15 5:15 6:11 11:16 12:5 14:11 15:5 19:15 20:3 22:12 23:10 27:5 28:13 30:12 31:6 36:10 37:16 38:9 44:10 45:16 46:4 51:6 52:12 53:8 54:9 59:6 60:16 61:12 62:4 #
-0.077863162123444393247773120947386 3:2 4:16 5:16 6:4 11:8 12:16 13:16 14:12 19:14 20:16 21:16 26:2 27:16 28:16 29:14 30:4 34:8 35:16 36:16 37:10 38:2 42:8 43:16 44:16 45:14 46:2 51:16 52:16 53:16 54:14 55:2 59:2 60:8 61:16 62:10 #
-0.089199491091603910764007423495059 4:8 5:15 6:2 12:13 13:16 14:3 19:4 20:16 21:14 27:7 28:16 29:7 35:9 36:16 37:2 43:12 44:16 45:4 51:8 52:16 53:16 54:8 60:6 61:15 62:15 #
