SVM-light Version V6.02
0 # kernel type
3 # kernel parameter -d 
1 # kernel parameter -g 
1 # kernel parameter -s 
1 # kernel parameter -r 
empty# kernel parameter -u 
64 # highest feature index 
2823 # number of training documents 
252 # number of support vectors plus 1 
1.6850808 # threshold b, each following line is a SV (starting with alpha*y)
-0.00025891163206971532168357286174398 3:10 4:16 5:16 6:12 11:6 12:16 13:9 14:7 19:7 20:16 21:4 27:11 28:16 29:16 30:10 31:1 35:3 36:8 37:6 38:13 39:11 46:7 47:16 53:3 54:15 55:15 59:10 60:16 61:16 62:13 63:2 #
-0.00022545786667635934769765571061839 2:2 3:10 4:14 5:13 6:6 10:4 11:16 12:8 13:13 14:15 15:3 18:2 19:16 20:4 21:9 22:16 23:4 27:12 28:10 29:12 30:16 31:4 35:2 36:9 37:12 38:16 45:4 46:16 47:1 51:2 52:4 53:11 54:16 55:4 58:3 59:16 60:13 61:11 62:4 #
-0.00025891163206971532168357286174398 3:3 4:8 5:12 6:4 10:5 11:16 12:13 13:9 14:13 18:8 19:13 20:9 21:16 22:13 27:13 28:16 29:12 34:3 35:15 36:9 37:16 38:10 42:3 43:11 45:2 46:13 47:11 50:2 51:14 52:2 53:4 54:12 55:12 59:6 60:13 61:13 62:11 63:3 #
-0.00025891163206971532168357286174398 3:10 4:16 5:12 10:1 11:14 12:13 13:16 14:4 19:2 20:3 21:16 22:5 28:4 29:16 30:2 36:11 37:14 43:2 44:16 45:8 47:3 50:1 51:13 52:16 53:14 54:16 55:16 56:3 59:12 60:16 61:16 62:13 63:7 #
0.00010067020575513875363035665166933 3:9 4:16 5:15 6:5 11:4 12:7 13:12 14:15 20:1 21:9 22:16 23:3 28:10 29:16 30:13 36:3 37:8 38:15 39:9 46:7 47:14 51:10 52:7 53:4 54:10 55:16 56:1 59:7 60:16 61:16 62:16 63:10 #
-0.00025891163206971532168357286174398 3:7 4:14 5:14 6:13 7:3 11:14 12:7 13:4 14:9 15:6 18:4 19:13 26:6 27:16 28:14 29:8 30:1 36:3 37:9 38:13 46:13 51:9 53:3 54:14 59:11 60:16 61:14 62:3 #
0.00025891163206971532168357286174398 3:10 4:16 5:15 6:1 10:5 11:15 12:8 13:15 14:6 18:3 19:6 20:1 21:14 22:4 28:10 29:16 30:13 36:1 37:7 38:16 39:7 43:1 44:2 46:15 47:7 51:12 52:13 53:6 54:16 55:5 59:9 60:16 61:16 62:9 #
0.00025891163206971532168357286174398 3:9 4:13 5:15 6:10 7:1 11:7 12:4 13:4 14:12 15:13 22:7 23:11 27:2 28:12 29:13 30:12 31:2 36:10 37:15 38:1 44:1 45:11 46:9 51:12 52:3 53:3 54:15 59:8 60:16 61:16 62:3 #
0.00025891163206971532168357286174398 3:14 4:16 5:14 6:5 11:3 13:2 14:16 15:3 20:4 21:10 22:15 23:1 26:6 27:16 28:16 29:14 30:2 34:1 35:4 36:6 37:12 38:12 46:12 47:9 51:10 53:4 54:14 55:5 59:13 60:16 61:13 62:4 #
-0.00025891163206971532168357286174398 3:2 4:15 5:16 6:13 7:1 11:3 12:7 13:10 14:16 15:10 22:11 23:11 28:2 29:8 30:15 31:5 36:9 37:16 38:16 39:8 44:2 45:16 46:5 52:12 53:7 59:4 60:14 61:1 #
-0.00025891163206971532168357286174398 3:7 4:16 5:15 6:3 11:14 12:13 13:13 14:13 15:1 19:12 20:11 21:8 22:16 23:6 27:2 28:14 29:16 30:16 31:8 36:2 37:4 38:13 39:9 46:12 47:10 50:1 51:13 52:4 53:4 54:14 55:10 59:5 60:15 61:16 62:16 63:8 #
-0.00025891163206971532168357286174398 3:7 4:12 5:11 6:9 10:7 11:16 12:15 13:11 14:13 19:12 20:7 27:12 28:10 29:6 35:8 36:12 37:13 38:14 46:8 47:8 51:10 52:6 53:4 54:12 55:9 59:10 60:13 61:12 62:10 63:2 #
-8.8877558068231854145405113065692e-06 2:2 3:11 4:15 5:8 6:6 10:10 11:14 12:8 13:15 14:16 18:9 19:14 21:10 22:16 23:2 26:2 27:16 28:10 29:16 30:16 31:3 35:4 36:8 37:8 38:16 39:4 46:15 47:7 50:2 51:11 52:12 53:15 54:16 55:8 58:2 59:12 60:9 61:8 62:4 #
-0.00025891163206971532168357286174398 3:7 4:15 5:15 6:8 7:3 10:3 11:14 12:3 14:13 15:8 18:6 19:10 20:1 21:6 22:14 23:8 27:8 28:12 29:6 30:8 31:8 38:8 39:6 46:12 47:3 53:7 54:13 59:7 60:15 61:14 62:2 #
-9.9430270389858359421364486507855e-05 5:7 6:15 7:2 13:8 14:16 15:5 20:1 21:13 22:14 26:8 27:16 28:16 29:16 30:12 35:3 37:16 38:12 45:12 46:15 53:9 54:16 55:2 61:6 62:16 63:8 #
0.00025891163206971532168357286174398 2:1 3:10 4:5 10:2 11:16 12:16 13:12 14:1 19:10 20:5 21:11 22:6 28:1 29:12 30:7 35:6 36:16 37:16 38:6 43:3 44:8 45:10 46:15 47:8 51:3 52:4 53:7 54:14 55:15 59:6 60:15 61:15 62:11 63:4 #
0.00025891163206971532168357286174398 2:4 3:15 4:15 5:8 6:1 10:4 11:16 12:11 13:16 14:15 18:1 19:5 21:11 22:16 23:4 28:6 29:16 30:13 31:1 36:12 37:16 38:1 44:6 45:16 46:5 52:4 53:16 54:8 58:4 59:16 60:16 61:16 62:6 #
0.00025891163206971532168357286174398 3:2 4:8 5:15 6:11 10:2 11:15 12:14 13:12 14:16 15:4 18:2 19:7 21:10 22:15 28:3 29:15 30:3 36:13 37:9 44:4 45:14 46:5 50:2 51:10 52:8 53:7 54:16 55:6 59:4 60:9 61:13 62:15 63:7 #
0.00025891163206971532168357286174398 3:5 4:12 5:10 10:2 11:15 12:14 13:16 14:1 19:11 20:3 21:16 22:1 29:11 30:5 37:7 38:14 46:9 47:10 51:10 52:7 53:5 54:12 55:12 59:6 60:14 61:16 62:13 63:4 #
0.00025891163206971532168357286174398 2:1 3:10 4:15 5:15 6:6 10:8 11:16 12:15 13:14 14:15 15:3 18:3 19:6 20:3 21:15 22:15 28:12 29:16 30:5 36:8 37:16 38:2 44:4 45:16 46:8 51:4 52:15 53:16 54:4 59:14 60:16 61:7 #
-0.00025891163206971532168357286174398 2:3 3:15 4:16 5:3 10:11 11:16 12:15 13:12 18:1 19:1 20:6 21:16 28:5 29:16 36:14 37:12 43:9 44:16 45:9 46:8 47:5 50:3 51:16 52:16 53:16 54:16 55:11 58:5 59:16 60:16 61:13 62:8 63:1 #
-0.00025891163206971532168357286174398 3:13 4:16 5:16 6:16 7:6 10:6 11:16 12:8 13:5 14:5 15:5 18:11 19:16 26:5 27:16 28:14 29:9 30:1 35:1 36:6 37:14 38:10 45:5 46:16 51:4 52:2 53:13 54:12 58:1 59:13 60:16 61:14 62:1 #
-0.00025891163206971532168357286174398 3:12 4:16 5:12 6:16 7:3 11:14 12:14 13:8 14:8 15:1 19:7 20:15 21:1 27:1 28:14 29:11 36:6 37:16 38:1 45:12 46:11 50:2 51:7 52:6 53:14 54:13 59:12 60:16 61:16 62:6 #
-0.00025891163206971532168357286174398 3:10 4:16 5:9 10:2 11:16 12:16 13:16 14:2 19:8 20:1 21:15 22:8 29:14 30:9 36:1 37:16 38:10 44:9 45:16 46:16 47:7 51:8 52:16 53:15 54:12 55:15 56:5 59:13 60:15 61:1 63:5 64:6 #
-0.00025891163206971532168357286174398 2:1 3:13 4:16 5:10 10:2 11:14 12:15 13:16 14:2 20:8 21:16 22:4 28:13 29:16 30:1 35:1 36:16 37:11 43:11 44:16 45:3 46:5 47:1 50:1 51:15 52:16 53:14 54:16 55:4 58:1 59:13 60:16 61:15 62:5 #
0.00025891163206971532168357286174398 4:5 5:14 6:16 7:16 8:5 11:10 12:16 13:15 14:16 15:16 16:7 18:4 19:15 20:6 21:1 22:16 23:12 27:2 29:5 30:16 31:7 37:4 38:16 39:2 45:6 46:16 47:1 52:2 53:15 54:14 60:3 61:15 62:7 #
0.00025891163206971532168357286174398 3:1 4:12 5:15 6:1 11:10 12:16 13:16 18:3 19:16 20:15 21:10 26:6 27:16 28:15 29:15 30:2 35:4 36:2 37:14 38:15 39:1 45:3 46:15 47:5 51:2 52:14 53:14 54:16 55:5 60:15 61:16 62:13 63:1 #
0.00025891163206971532168357286174398 3:2 4:9 5:15 6:12 10:1 11:13 12:13 13:10 14:16 15:1 19:10 20:2 21:8 22:16 28:4 29:16 30:14 31:1 37:4 38:15 39:4 46:15 47:5 52:12 53:15 54:16 55:1 60:9 61:13 62:7 #
0.00025891163206971532168357286174398 3:5 4:12 5:14 10:2 11:14 12:10 13:15 18:3 19:15 20:11 21:11 26:2 27:12 28:15 29:11 30:2 37:8 38:15 39:1 45:1 46:14 47:4 51:2 52:7 53:4 54:14 55:3 59:3 60:13 61:14 62:10 #
0.00025891163206971532168357286174398 3:2 4:12 5:16 6:7 12:10 13:16 14:3 20:3 21:15 22:5 29:6 30:15 31:3 38:8 39:14 46:11 47:16 52:3 53:13 54:16 55:9 59:6 60:16 61:12 62:8 63:1 #
-0.00025891163206971532168357286174398 3:4 4:16 5:16 6:4 11:10 12:16 13:16 14:13 19:3 20:13 21:11 22:16 23:2 30:13 31:8 38:11 39:9 46:13 47:9 53:8 54:16 55:5 59:3 60:16 61:16 62:11 #
-0.00025891163206971532168357286174398 3:3 4:10 5:13 6:4 11:9 12:13 13:14 14:10 19:9 20:11 21:16 22:15 27:1 28:11 29:12 30:16 38:15 39:3 45:1 46:16 47:3 53:6 54:16 55:1 59:4 60:16 61:16 62:10 #
-0.00025891163206971532168357286174398 3:2 4:15 5:11 6:1 11:6 12:16 13:16 14:14 19:3 20:15 21:16 22:16 23:5 28:5 29:7 30:11 31:9 38:13 39:13 45:1 46:16 47:8 52:2 53:13 54:16 55:5 59:5 60:15 61:16 62:6 #
-0.00025891163206971532168357286174398 3:2 4:16 5:14 6:2 11:7 12:15 13:15 14:11 19:5 20:16 21:15 22:16 23:2 28:6 29:15 30:16 31:8 37:2 38:12 39:11 46:9 47:14 53:7 54:15 55:13 59:1 60:12 61:16 62:14 63:7 #
-0.00025891163206971532168357286174398 3:7 4:16 5:15 6:3 11:14 12:16 13:16 14:13 19:9 20:16 21:16 22:16 23:3 28:6 29:9 30:16 31:9 38:16 39:11 45:6 46:16 47:8 52:4 53:14 54:16 55:2 59:8 60:16 61:15 62:7 #
0.00025891163206971532168357286174398 2:5 3:14 4:10 5:4 10:3 11:12 12:16 13:16 14:6 19:1 20:13 21:16 22:5 27:8 28:16 29:13 30:2 35:5 36:16 37:13 38:2 44:6 45:16 46:15 47:4 50:1 51:8 52:9 53:15 54:16 55:5 58:4 59:15 60:14 61:8 62:4 #
0.00025891163206971532168357286174398 2:2 3:14 4:16 5:13 6:7 10:3 11:12 12:8 13:13 14:16 20:5 21:14 22:11 26:2 27:12 28:16 29:10 30:1 34:3 35:16 36:15 37:9 38:1 43:3 44:11 45:15 46:15 47:1 50:3 51:6 52:4 53:5 54:16 55:8 58:3 59:13 60:16 61:14 62:12 63:2 #
0.00025891163206971532168357286174398 2:3 3:15 4:16 5:16 6:15 7:1 10:14 11:13 12:7 13:8 14:16 15:8 18:2 19:1 21:8 22:16 23:7 28:7 29:16 30:10 36:14 37:13 44:10 45:14 46:2 50:2 51:8 52:5 53:16 54:8 58:2 59:16 60:16 61:13 62:3 #
0.00025891163206971532168357286174398 2:4 3:15 4:16 5:16 6:12 7:1 10:15 11:13 12:5 13:5 14:16 15:8 18:7 19:3 21:10 22:16 23:4 27:1 28:11 29:16 30:10 35:7 36:16 37:10 43:1 44:7 45:16 46:6 50:3 51:8 52:6 53:16 54:10 58:5 59:16 60:16 61:12 62:1 #
0.00025891163206971532168357286174398 2:1 3:12 4:16 5:14 6:5 10:3 11:13 12:9 13:16 14:12 19:1 20:11 21:16 22:6 27:8 28:16 29:9 35:3 36:15 37:13 44:2 45:15 46:9 51:3 52:8 53:12 54:16 55:3 59:14 60:16 61:16 62:16 63:7 #
-0.00013155476773343724276876809398118 3:6 4:13 5:16 6:11 7:1 10:4 11:15 12:6 13:9 14:16 15:5 18:6 19:9 21:7 22:16 23:6 26:3 27:15 28:12 29:15 30:15 31:8 35:2 36:5 37:2 38:10 39:8 46:13 47:7 50:2 51:9 52:4 53:8 54:15 55:2 59:10 60:13 61:12 62:2 #
0.00025891163206971532168357286174398 2:1 3:10 4:16 5:16 6:12 7:2 10:8 11:11 12:8 13:5 14:12 15:8 18:1 21:5 22:15 23:7 27:10 28:15 29:16 30:9 35:5 36:9 37:16 38:9 45:3 46:16 50:1 51:8 52:2 53:5 54:16 58:2 59:14 60:16 61:12 62:5 #
-1.0051533459484230693947726109627e-05 4:15 5:12 6:3 12:16 13:16 14:8 19:9 20:16 21:16 22:9 28:10 29:16 30:13 36:4 37:16 38:16 39:2 43:1 44:8 45:16 46:16 47:10 51:8 52:16 53:16 54:16 55:16 56:5 59:1 60:9 61:12 62:14 63:12 64:4 #
-0.00025891163206971532168357286174398 3:6 4:14 5:9 10:3 11:16 12:9 13:15 14:12 15:3 18:1 19:16 20:6 21:16 22:10 27:6 28:16 29:16 30:6 34:1 35:13 36:10 37:10 38:15 39:1 42:3 43:16 44:1 46:11 47:11 50:1 51:15 52:2 53:3 54:14 55:5 59:5 60:15 61:15 62:6 #
0.00025891163206971532168357286174398 3:2 4:13 5:13 6:2 10:1 11:15 12:13 13:15 14:4 18:5 19:13 20:1 21:14 22:2 27:2 28:12 29:14 36:8 37:14 38:14 39:1 46:13 47:7 51:3 52:8 53:8 54:15 55:2 59:2 60:14 61:11 62:4 #
0.00025891163206971532168357286174398 3:2 4:11 5:12 6:4 11:11 12:15 13:14 14:11 19:3 20:9 21:12 22:11 28:10 29:16 30:14 31:2 36:2 37:5 38:13 39:7 43:6 46:9 47:11 51:14 52:13 53:8 54:14 55:9 59:5 60:15 61:14 62:11 63:1 #
0.00025891163206971532168357286174398 3:4 4:14 5:12 6:1 11:11 12:11 13:10 14:5 21:12 22:9 28:7 29:16 30:12 31:2 37:4 38:10 39:10 43:1 44:1 46:3 47:14 51:11 52:6 53:3 54:12 55:13 59:6 60:14 61:16 62:11 63:1 #
0.00025891163206971532168357286174398 3:4 4:12 5:15 6:5 10:2 11:15 12:13 13:11 14:11 18:2 19:10 20:2 21:5 22:16 28:4 29:14 30:14 36:5 37:12 38:14 39:7 46:3 47:14 51:9 52:10 53:3 54:8 55:15 56:2 59:2 60:9 61:16 62:16 63:7 #
-0.00025891163206971532168357286174398 2:1 3:11 4:14 5:12 6:6 10:8 11:15 12:7 13:11 14:15 18:11 19:9 21:8 22:16 23:4 26:8 27:14 28:13 29:16 30:16 31:7 35:6 36:9 37:4 38:15 39:8 46:11 47:10 51:9 52:8 53:11 54:16 55:3 59:14 60:14 61:11 62:5 #
0.00025891163206971532168357286174398 3:5 4:14 5:16 6:7 10:3 11:14 12:2 13:5 14:12 18:5 19:9 21:7 22:11 28:5 29:15 30:5 36:7 37:12 38:14 39:1 46:11 47:7 51:3 52:8 53:3 54:12 55:6 59:7 60:16 61:13 62:8 #
-0.00025891163206971532168357286174398 3:2 4:16 5:15 6:7 11:3 12:12 13:13 14:13 20:6 21:16 22:10 28:6 29:16 30:3 35:3 36:15 37:10 38:12 42:1 43:13 44:5 46:13 47:6 51:16 52:5 54:7 55:15 59:3 60:11 61:16 62:16 63:12 64:2 #
-0.00025891163206971532168357286174398 3:11 4:16 5:10 6:1 11:16 12:8 13:11 14:13 15:1 19:13 20:7 21:7 22:16 23:1 27:4 28:13 29:14 30:16 31:1 38:15 39:4 46:8 47:11 50:1 51:7 52:4 53:5 54:14 55:12 59:8 60:15 61:14 62:11 63:3 #
-0.00025891163206971532168357286174398 3:2 4:15 5:12 11:3 12:16 13:14 14:10 20:5 21:13 22:16 23:2 30:12 31:8 38:7 39:11 46:7 47:13 51:2 53:2 54:11 55:11 59:3 60:13 61:15 62:16 63:6 #
-0.00025891163206971532168357286174398 4:9 5:12 6:5 12:16 13:9 14:15 15:2 20:16 21:6 22:16 23:4 28:4 29:16 30:16 31:8 37:2 38:15 39:4 46:10 47:7 51:16 52:11 53:3 54:13 55:4 59:3 60:6 61:13 62:15 63:2 #
0.00025891163206971532168357286174398 3:8 4:16 5:13 6:4 11:5 12:6 13:12 14:14 20:3 21:15 22:14 28:13 29:15 30:4 36:9 37:12 38:1 44:1 45:11 46:12 51:3 52:4 53:9 54:16 55:4 59:8 60:15 61:14 62:12 63:3 #
0.00025891163206971532168357286174398 2:3 3:12 4:12 5:3 10:8 11:10 12:11 13:9 19:2 20:14 21:4 27:12 28:13 29:1 35:3 36:13 37:15 38:3 45:7 46:14 47:1 50:2 51:4 52:4 53:3 54:11 55:7 58:5 59:12 60:12 61:14 62:16 63:8 #
0.00025891163206971532168357286174398 3:6 4:16 5:9 10:2 11:15 12:16 13:14 18:2 19:10 20:16 21:6 26:2 27:16 28:16 29:9 30:2 35:3 36:10 37:16 38:14 39:1 45:10 46:16 47:5 51:4 52:8 53:8 54:16 55:7 59:8 60:16 61:16 62:13 #
0.00025891163206971532168357286174398 2:2 3:11 4:15 5:16 6:10 10:5 11:12 12:9 13:16 14:15 20:11 21:15 22:5 27:11 28:16 29:3 35:8 36:15 37:16 38:8 44:2 45:9 46:16 47:5 51:7 52:11 53:15 54:14 55:3 59:15 60:13 61:7 #
0.00025891163206971532168357286174398 2:3 3:11 4:16 5:7 10:5 11:12 12:8 13:16 20:10 21:14 27:10 28:14 29:3 35:10 36:16 37:16 38:15 39:3 45:3 46:10 47:8 51:4 52:7 53:10 54:15 55:5 58:5 59:13 60:12 61:10 62:3 #
0.00025891163206971532168357286174398 2:1 3:8 4:14 5:16 6:12 10:1 11:12 12:9 13:11 14:16 20:9 21:15 22:5 26:2 27:14 28:16 29:7 34:1 35:11 36:13 37:16 38:9 45:2 46:16 47:4 51:11 52:8 53:14 54:13 59:11 60:14 61:11 62:1 #
-0.00025891163206971532168357286174398 2:1 3:16 4:16 5:15 6:3 11:7 12:6 13:16 14:10 20:1 21:16 22:8 27:6 28:15 29:15 30:2 35:7 36:16 37:16 38:11 39:3 43:5 44:16 45:14 46:16 47:7 51:10 52:12 53:1 54:4 55:1 59:16 60:6 #
-0.00025891163206971532168357286174398 2:1 3:15 4:16 5:14 6:2 10:1 11:11 12:12 13:16 14:8 20:5 21:16 22:4 27:2 28:15 29:16 30:3 35:4 36:16 37:16 38:14 39:4 43:5 44:16 45:12 46:16 47:7 51:11 52:11 59:16 60:6 #
5.5476254731472943865222546833138e-05 3:10 4:16 5:14 6:3 10:2 11:16 12:10 13:14 14:12 19:7 20:4 21:14 22:8 28:8 29:16 30:9 37:7 38:16 39:4 46:13 47:7 50:8 51:11 52:5 53:4 54:16 55:4 58:1 59:11 60:15 61:16 62:8 63:1 #
-0.00025891163206971532168357286174398 3:5 4:16 5:16 6:6 11:16 12:9 13:11 14:13 19:11 20:11 21:14 22:8 27:1 28:15 29:12 30:1 35:3 36:16 37:15 38:4 43:12 44:10 45:7 46:13 47:1 51:15 52:4 53:3 54:16 55:6 59:8 60:16 61:16 62:13 63:1 #
-0.00025891163206971532168357286174398 3:2 4:10 5:12 6:14 7:16 8:12 11:8 12:16 13:16 14:16 15:14 16:4 19:2 20:16 21:12 22:4 27:1 28:16 29:15 30:2 36:8 37:16 38:11 45:13 46:16 52:7 53:16 54:11 59:1 60:16 61:11 62:1 #
0.00025891163206971532168357286174398 3:1 4:11 5:16 6:6 11:12 12:14 13:11 14:16 15:3 19:11 20:5 21:2 22:16 23:5 29:7 30:14 31:2 36:7 37:16 38:7 44:3 45:16 46:10 52:12 53:16 54:15 59:1 60:12 61:16 62:7 #
0.00025891163206971532168357286174398 3:4 4:14 5:11 6:1 10:4 11:16 12:12 13:10 14:8 18:9 19:14 20:1 21:7 22:7 26:1 27:2 29:15 30:9 37:7 38:15 39:2 46:5 47:11 51:12 52:3 53:4 54:10 55:11 59:6 60:15 61:15 62:11 63:1 #
0.00025891163206971532168357286174398 3:1 4:9 5:15 6:7 7:1 10:4 11:13 12:15 13:13 14:16 15:4 18:11 19:13 20:1 21:11 22:14 29:16 30:12 37:14 38:12 45:9 46:14 47:1 52:3 53:13 54:15 60:12 61:13 62:3 #
0.00025891163206971532168357286174398 3:7 4:15 5:16 6:16 7:13 10:2 11:16 12:9 13:8 14:14 15:16 18:1 19:2 21:4 22:16 23:8 29:10 30:15 31:2 37:7 38:16 39:8 45:3 46:16 47:8 52:5 53:15 54:13 55:1 59:9 60:16 61:11 62:2 #
0.00025891163206971532168357286174398 3:2 4:7 5:14 6:12 7:1 10:2 11:14 12:15 13:10 14:16 15:7 18:4 19:9 21:5 22:16 23:3 28:2 29:16 30:13 36:2 37:15 38:11 45:6 46:16 47:4 52:5 53:16 54:13 60:9 61:11 62:2 #
-0.00025891163206971532168357286174398 3:5 4:13 5:12 6:2 11:14 12:12 13:12 14:13 19:11 20:4 21:2 22:15 27:8 28:8 29:4 30:16 31:1 35:2 36:14 37:16 38:16 39:6 46:7 47:10 51:8 52:9 53:8 54:15 55:10 59:4 60:16 61:16 62:13 63:2 #
-0.00025891163206971532168357286174398 3:4 4:14 5:10 6:2 11:12 12:13 13:14 14:13 19:11 20:5 21:3 22:13 27:7 28:12 29:11 30:16 31:1 35:1 36:10 37:9 38:14 39:3 46:13 47:5 51:4 52:8 53:8 54:16 55:5 59:7 60:16 61:16 62:11 #
-0.00025891163206971532168357286174398 2:2 3:4 4:7 5:13 6:15 7:2 10:14 11:16 12:16 13:15 14:16 15:5 18:1 19:4 21:14 22:14 29:16 30:12 36:3 37:16 38:7 44:5 45:16 46:7 52:5 53:16 54:6 60:7 61:16 62:9 #
-0.00025891163206971532168357286174398 5:8 6:11 7:1 13:10 14:16 15:4 20:8 21:16 22:16 27:6 28:15 29:16 30:16 34:5 35:15 36:8 37:16 38:14 45:13 46:15 53:12 54:16 55:1 61:7 62:15 63:9 #
-0.00025891163206971532168357286174398 3:9 4:16 5:16 6:10 10:2 11:16 12:11 13:6 14:6 18:3 19:16 20:2 21:9 22:15 23:1 27:12 28:13 29:15 30:16 31:2 36:8 37:9 38:16 39:4 46:16 47:4 53:6 54:16 55:3 59:8 60:16 61:16 62:13 63:1 #
0.00025891163206971532168357286174398 2:1 3:14 4:16 5:5 10:2 11:13 12:13 13:16 14:4 19:4 20:13 21:16 22:3 27:9 28:16 29:16 30:13 35:4 36:8 37:8 38:16 39:8 44:1 45:5 46:14 47:11 50:1 51:13 52:16 53:16 54:15 55:3 59:15 60:11 61:5 62:1 #
0.00025891163206971532168357286174398 3:5 4:12 5:12 10:3 11:16 12:12 13:15 14:4 18:4 19:14 21:14 22:6 26:1 27:12 28:11 29:12 35:7 36:16 37:8 38:1 43:1 44:5 45:12 46:13 47:1 51:8 52:4 54:16 55:4 59:8 60:15 61:15 62:11 63:1 #
0.00025891163206971532168357286174398 3:9 4:11 5:12 6:12 7:1 11:11 12:12 13:13 14:16 15:4 21:12 22:10 27:2 28:11 29:14 30:2 35:9 36:16 37:5 43:6 44:15 45:16 46:14 47:2 51:3 52:6 53:14 54:16 55:1 59:11 60:16 61:13 62:5 #
0.00025891163206971532168357286174398 2:3 3:11 4:13 5:8 6:1 10:3 11:11 12:8 13:15 14:7 20:2 21:14 22:6 27:7 28:16 29:16 30:11 35:5 36:12 37:11 38:16 39:8 45:6 46:16 47:7 50:2 51:12 52:16 53:16 54:7 58:4 59:13 60:11 61:2 #
0.00025891163206971532168357286174398 2:1 3:9 4:15 5:9 10:4 11:13 12:7 13:15 14:4 20:2 21:15 22:3 27:12 28:16 29:16 30:11 31:1 35:5 36:5 37:5 38:13 39:8 45:1 46:12 47:6 51:9 52:8 53:14 54:12 55:1 59:15 60:12 61:6 #
-0.00025891163206971532168357286174398 3:2 4:12 5:13 10:3 11:15 12:13 13:16 18:10 19:13 20:1 21:16 27:1 28:4 29:16 36:6 37:13 44:9 45:10 46:7 47:8 52:14 53:15 54:15 55:3 60:15 61:12 62:3 #
-0.00025891163206971532168357286174398 3:13 4:14 5:4 10:4 11:16 12:13 13:14 14:2 19:16 20:4 21:16 22:14 23:2 27:11 28:14 29:16 30:14 36:8 37:11 38:15 45:4 46:16 47:2 51:6 52:6 53:7 54:16 55:2 59:12 60:16 61:16 62:10 #
-0.00025891163206971532168357286174398 2:3 3:12 4:15 5:9 6:1 10:3 11:16 12:8 13:13 14:10 19:11 20:12 21:12 22:12 27:3 28:15 29:16 30:12 37:6 38:14 39:1 46:15 47:6 50:7 51:14 52:7 53:4 54:15 55:7 58:3 59:9 60:12 61:15 62:9 #
-0.00025891163206971532168357286174398 3:9 4:13 5:10 6:1 10:7 11:14 12:4 13:15 14:8 18:10 19:8 21:10 22:14 26:4 27:14 28:12 29:14 30:15 31:4 35:2 36:4 37:2 38:12 39:6 45:1 46:15 47:5 52:4 53:10 54:15 55:1 59:9 60:12 61:9 62:2 #
-0.00025891163206971532168357286174398 2:1 3:8 4:12 5:12 6:6 10:9 11:16 12:11 13:8 14:10 15:1 18:6 19:14 26:1 27:12 28:15 29:8 36:7 37:15 38:5 45:4 46:14 53:11 54:11 59:12 60:16 61:12 62:4 #
0.00025891163206971532168357286174398 3:4 4:15 5:16 6:5 10:4 11:16 12:10 13:10 14:15 18:10 19:16 20:7 21:4 22:15 26:1 27:4 28:3 29:13 30:9 36:9 37:16 38:16 39:4 44:1 46:11 47:11 51:2 52:12 53:4 54:13 55:9 59:4 60:16 61:16 62:12 63:1 #
0.00025891163206971532168357286174398 3:4 4:11 5:16 6:12 7:5 11:6 12:7 13:3 14:11 15:9 22:12 23:4 28:3 29:10 30:10 35:4 36:16 37:15 38:2 43:1 44:7 45:12 46:15 47:1 51:8 52:7 53:5 54:15 59:7 60:12 61:15 62:6 #
0.00025891163206971532168357286174398 3:8 4:16 5:16 6:12 10:4 11:16 12:16 13:16 14:15 15:2 18:2 19:11 20:16 21:16 22:11 28:15 29:16 30:7 37:11 38:16 39:2 43:7 46:15 47:5 50:2 51:16 52:7 53:7 54:15 55:7 59:8 60:14 61:12 62:5 #
0.00025891163206971532168357286174398 3:3 4:12 5:16 6:15 7:4 11:14 12:16 13:14 14:16 15:6 18:1 19:11 20:3 21:13 22:13 23:1 27:1 28:14 29:12 30:1 35:3 36:16 37:14 38:3 43:1 44:6 45:16 46:14 47:1 51:14 52:13 53:14 54:15 59:4 60:16 61:15 62:5 #
0.00025891163206971532168357286174398 3:5 4:12 5:11 6:2 10:1 11:14 12:15 13:13 14:14 18:2 19:15 20:4 21:6 22:16 28:2 29:13 30:12 36:11 37:16 38:13 39:2 44:1 45:5 46:12 47:12 51:8 52:11 53:8 54:14 55:12 59:7 60:16 61:12 62:12 63:3 #
-0.00025891163206971532168357286174398 3:9 4:16 5:16 6:10 11:15 12:13 13:11 14:16 15:1 19:3 20:1 21:13 22:13 28:5 29:16 30:5 35:1 36:15 37:11 43:8 44:16 45:2 46:2 47:2 51:15 52:13 53:14 54:16 55:15 56:3 59:9 60:16 61:15 62:10 63:8 64:1 #
-0.00025891163206971532168357286174398 3:3 4:12 5:16 6:8 11:12 12:12 13:15 14:12 21:7 22:12 29:13 30:7 35:4 36:15 37:16 38:9 39:1 43:5 44:15 45:16 46:16 47:3 52:14 53:14 54:5 59:4 60:15 61:3 #
-0.00025891163206971532168357286174398 3:1 4:8 5:12 6:12 7:2 11:13 12:12 13:12 14:15 15:9 22:14 23:10 28:2 29:8 30:16 31:8 35:2 36:16 37:16 38:15 39:5 44:1 45:16 46:8 52:8 53:16 54:4 60:9 61:12 #
-0.00025891163206971532168357286174398 3:6 4:12 5:16 6:10 12:12 13:16 14:16 15:1 20:9 21:16 22:16 23:4 28:13 29:16 30:16 31:3 36:14 37:16 38:14 44:14 45:16 46:10 51:2 52:16 53:16 54:13 59:7 60:16 61:15 62:2 #
-0.00025891163206971532168357286174398 3:6 4:15 5:16 6:16 7:16 8:11 11:10 12:15 13:16 14:14 15:10 16:2 19:3 20:16 21:8 27:3 28:16 29:13 30:1 36:9 37:16 38:9 45:15 46:15 47:1 52:10 53:15 54:7 59:5 60:15 61:3 #
0.00025891163206971532168357286174398 3:8 4:13 5:8 10:4 11:13 12:6 13:14 14:3 18:7 19:8 21:12 22:5 26:3 27:10 28:8 29:16 30:1 36:5 37:14 38:12 46:13 47:8 51:10 52:10 54:6 55:12 59:4 60:15 61:16 62:16 63:6 #
0.00025891163206971532168357286174398 2:2 3:12 4:16 5:16 6:8 10:8 11:10 12:9 13:16 14:6 19:1 20:13 21:13 27:8 28:16 29:5 35:2 36:14 37:15 38:3 45:9 46:15 47:3 52:3 53:4 54:14 55:11 58:3 59:15 60:16 61:16 62:16 63:9 #
0.00025891163206971532168357286174398 2:2 3:13 4:16 5:14 6:3 10:2 11:8 12:11 13:16 14:8 19:3 20:16 21:12 22:1 27:1 28:11 29:14 30:2 37:7 38:13 46:11 47:7 50:7 51:11 52:4 53:4 54:13 55:7 58:2 59:11 60:16 61:12 62:10 #
0.00025891163206971532168357286174398 3:9 4:16 5:8 10:9 11:13 12:4 13:13 18:7 19:6 20:1 21:14 28:9 29:16 30:9 36:8 37:6 38:13 39:6 46:4 47:11 51:6 53:3 54:12 55:5 59:9 60:16 61:16 62:7 #
0.00025891163206971532168357286174398 2:3 3:13 4:16 5:14 6:2 10:14 11:11 12:3 13:16 14:8 18:7 19:3 20:7 21:16 22:8 27:5 28:16 29:16 30:16 31:5 35:2 36:10 37:6 38:11 39:12 46:11 47:13 50:1 51:10 52:1 53:4 54:15 55:9 58:2 59:15 60:16 61:16 62:11 #
-0.00025891163206971532168357286174398 2:3 3:14 4:16 5:7 6:1 10:12 11:16 12:9 13:16 14:11 18:12 19:16 20:11 21:16 22:12 26:1 27:10 28:12 29:15 30:16 37:4 38:16 39:4 46:13 47:11 50:1 51:6 52:4 53:8 54:16 55:11 58:2 59:9 60:16 61:16 62:10 63:1 #
-0.00025891163206971532168357286174398 2:1 3:14 4:16 5:14 6:4 10:3 11:16 12:8 13:8 14:14 19:15 20:14 21:13 22:9 27:3 28:11 29:16 30:4 37:12 38:12 45:4 46:16 47:3 51:3 52:4 53:3 54:16 55:1 59:12 60:14 61:16 62:14 63:1 #
-0.00025891163206971532168357286174398 2:1 3:10 4:15 5:9 10:5 11:16 12:8 13:16 14:7 18:5 19:14 21:12 22:9 26:1 27:12 28:13 29:16 30:16 31:2 35:1 36:9 37:12 38:14 39:7 46:4 47:13 51:14 52:12 53:8 54:11 55:16 59:7 60:16 61:16 62:16 63:9 #
-0.00025891163206971532168357286174398 3:10 4:16 5:16 6:16 7:14 10:4 11:16 12:11 13:7 14:3 15:2 18:10 19:11 26:7 27:15 28:9 29:8 30:2 34:1 35:11 36:12 37:15 38:14 39:1 45:1 46:15 47:6 50:2 51:12 52:6 54:15 55:6 59:9 60:14 61:16 62:15 63:2 #
0.00025891163206971532168357286174398 3:1 4:9 5:16 6:16 7:12 8:1 11:10 12:13 13:8 14:12 15:16 16:3 19:2 21:1 22:13 23:10 28:9 29:16 30:11 36:14 37:16 38:15 44:7 45:10 46:16 47:2 51:2 52:16 53:14 54:13 60:14 61:14 62:2 #
0.00025891163206971532168357286174398 3:1 4:8 5:14 6:16 7:12 11:10 12:15 13:13 14:16 15:12 18:1 19:12 20:3 21:9 22:15 23:1 28:8 29:16 30:8 36:8 37:16 38:16 39:4 44:1 45:8 46:16 47:6 52:5 53:15 54:12 55:1 60:13 61:10 62:1 #
0.00025891163206971532168357286174398 3:9 4:12 5:14 6:16 7:16 8:2 11:4 12:12 13:9 14:12 15:16 16:1 21:1 22:14 23:8 29:8 30:14 31:1 36:2 37:16 38:12 45:13 46:16 47:5 52:1 53:13 54:14 55:1 59:10 60:16 61:13 62:1 #
0.00025891163206971532168357286174398 3:6 4:15 5:16 6:16 7:7 11:8 12:13 13:15 14:16 15:7 19:1 20:15 21:14 22:8 27:2 28:16 29:16 30:13 31:2 36:3 37:11 38:16 39:5 45:7 46:16 47:4 51:1 52:10 53:15 54:11 59:6 60:16 61:9 #
-0.00025891163206971532168357286174398 4:5 5:15 6:16 7:6 10:1 11:15 12:15 13:10 14:15 15:14 19:1 22:8 23:12 28:2 29:5 30:15 31:9 36:8 37:16 38:16 39:6 45:8 46:13 53:12 54:8 60:2 61:13 62:2 #
-0.00025891163206971532168357286174398 3:11 4:15 5:10 10:2 11:13 13:9 14:3 18:3 19:12 21:10 27:11 28:12 29:12 36:11 37:14 38:6 42:1 43:9 44:5 46:10 47:5 50:4 51:10 54:8 55:4 58:1 59:14 60:11 61:14 62:10 #
-7.9187454451898787056302042586253e-05 3:1 4:12 5:16 6:16 7:12 12:7 13:4 14:11 15:13 22:8 23:11 28:1 29:4 30:12 31:8 36:12 37:16 38:16 39:8 44:3 45:12 46:6 52:6 53:14 60:15 61:5 #
0.00025891163206971532168357286174398 2:2 3:12 4:15 5:16 6:10 7:1 10:3 11:16 12:5 13:10 14:16 15:3 20:5 21:15 22:7 28:14 29:8 36:15 37:4 44:4 45:14 46:2 50:1 51:2 52:2 53:15 54:6 58:2 59:12 60:15 61:12 62:1 #
0.00025891163206971532168357286174398 2:1 3:9 4:12 5:15 6:14 7:4 10:6 11:14 12:4 13:4 14:14 15:8 18:3 19:8 21:7 22:15 23:2 28:6 29:14 30:2 36:8 37:11 44:1 45:15 46:2 51:5 53:12 54:9 59:11 60:16 61:14 62:3 #
-0.00025891163206971532168357286174398 3:6 4:14 5:14 6:4 11:14 12:15 13:6 14:13 15:2 19:7 20:16 21:16 22:15 23:1 28:10 29:10 37:14 38:1 45:4 46:11 50:3 51:10 52:4 54:13 59:9 60:12 61:16 62:12 #
-0.00025891163206971532168357286174398 3:8 4:14 5:14 6:9 10:1 11:16 12:9 13:14 14:15 15:9 18:2 19:16 20:6 21:9 22:15 23:6 27:8 28:16 29:16 30:4 35:10 36:12 37:13 38:12 42:1 43:15 44:2 45:1 46:16 47:6 50:2 51:14 52:4 53:6 54:16 55:4 59:10 60:16 61:16 62:10 63:1 #
2.4910267297120002147510497980676e-05 3:4 4:11 5:14 6:6 10:4 11:14 12:7 13:6 14:15 18:4 19:5 21:5 22:11 28:7 29:15 30:11 36:11 37:10 38:15 39:4 46:10 47:8 51:1 52:4 53:7 54:15 55:1 59:3 60:16 61:11 62:2 #
-0.00025891163206971532168357286174398 3:7 4:16 5:12 6:5 11:13 12:10 13:7 14:15 19:10 20:15 21:12 22:13 28:13 29:16 30:5 35:8 36:15 37:10 38:8 43:13 44:5 46:13 47:1 51:14 52:2 53:4 54:15 55:1 59:6 60:16 61:16 62:6 #
0.00025891163206971532168357286174398 3:3 4:10 5:14 6:14 7:3 11:15 12:6 13:9 14:16 15:4 19:1 20:5 21:14 22:6 27:7 28:16 29:9 30:1 35:2 36:9 37:13 38:15 39:1 45:4 46:16 47:2 52:7 53:15 54:6 60:14 61:7 #
0.00025891163206971532168357286174398 3:4 4:10 5:16 6:12 7:1 10:3 11:15 12:14 13:8 14:16 15:5 18:4 19:7 21:5 22:15 23:2 29:13 30:8 36:3 37:16 38:10 45:10 46:16 47:4 51:4 52:9 53:11 54:15 55:2 59:5 60:13 61:11 62:1 #
-0.00025891163206971532168357286174398 3:7 4:12 5:12 10:9 11:14 12:10 13:14 14:7 18:1 21:12 22:12 28:5 29:16 30:5 35:2 36:15 37:10 43:10 44:14 45:1 51:12 52:16 53:8 54:11 55:10 59:8 60:14 61:13 62:7 #
-0.00025891163206971532168357286174398 3:6 4:16 5:16 6:16 7:12 11:6 12:12 13:11 14:15 15:16 16:1 22:15 23:12 27:1 28:11 29:12 30:16 31:3 35:3 36:16 37:16 38:16 39:4 44:9 45:16 46:13 47:3 51:1 52:16 53:9 59:7 60:15 61:4 #
0.00025891163206971532168357286174398 2:2 3:15 4:16 5:15 6:3 10:4 11:16 12:7 13:13 14:13 19:7 20:12 21:16 22:8 27:7 28:16 29:15 30:6 36:4 37:11 38:16 39:4 42:1 46:14 47:11 50:9 51:9 53:6 54:14 55:9 58:3 59:14 60:16 61:16 62:13 63:1 #
-0.00025891163206971532168357286174398 3:5 4:10 5:12 6:16 7:16 8:2 11:10 12:16 13:16 14:10 15:6 19:5 20:16 21:5 28:12 29:16 30:2 37:12 38:12 45:13 46:9 51:1 52:12 53:13 54:2 59:7 60:13 61:2 #
-0.00025891163206971532168357286174398 4:3 5:14 6:5 12:6 13:16 14:13 15:1 20:8 21:16 22:13 23:1 28:9 29:16 30:11 34:5 35:14 36:16 37:16 38:12 43:2 44:9 45:16 46:16 47:4 52:5 53:16 54:16 55:8 60:3 61:13 62:14 63:5 #
-0.00025891163206971532168357286174398 3:4 4:13 5:11 6:2 11:2 12:13 13:16 14:7 20:7 21:16 22:15 28:3 29:16 30:15 31:4 36:7 37:16 38:16 39:1 44:10 45:16 46:14 51:1 52:13 53:15 54:4 59:8 60:16 61:14 #
0.00025891163206971532168357286174398 3:13 4:16 5:13 6:1 10:3 11:16 12:13 13:16 14:8 19:9 20:11 21:16 22:7 28:14 29:14 36:11 37:15 38:12 39:1 45:1 46:14 47:10 50:1 51:11 52:6 53:4 54:8 55:16 56:3 59:13 60:16 61:16 62:16 63:16 64:2 #
0.00025891163206971532168357286174398 2:1 3:10 4:16 5:12 6:1 10:7 11:16 12:10 13:13 14:5 18:1 19:6 21:9 22:8 28:7 29:15 30:10 36:6 37:12 38:14 39:7 46:2 47:14 51:7 52:6 53:4 54:9 55:14 59:7 60:15 61:16 62:13 63:7 #
0.00025891163206971532168357286174398 3:5 4:15 5:13 6:2 11:10 12:13 13:12 14:11 19:3 20:2 21:4 22:15 28:9 29:16 30:10 36:3 37:13 38:16 39:6 46:7 47:14 51:5 52:8 53:8 54:10 55:16 56:1 59:4 60:9 61:14 62:13 63:7 #
0.00025891163206971532168357286174398 3:4 4:13 5:11 6:1 10:9 11:15 12:10 13:12 14:8 18:8 19:10 21:6 22:9 28:1 29:16 30:3 36:14 37:16 38:13 39:3 43:6 44:2 45:4 46:8 47:12 50:1 51:15 52:4 53:5 54:12 55:12 59:7 60:13 61:16 62:13 63:1 #
0.00025891163206971532168357286174398 3:8 4:14 5:13 6:3 10:6 11:13 12:3 13:6 14:11 18:1 19:2 21:4 22:13 28:11 29:16 30:11 36:3 37:4 38:11 39:7 46:5 47:9 50:2 51:13 52:1 54:7 55:10 59:9 60:16 61:13 62:12 63:1 #
-0.00025891163206971532168357286174398 3:11 4:16 5:9 10:9 11:12 12:6 13:14 14:10 18:11 19:5 21:13 22:13 26:1 27:11 28:14 29:12 30:15 31:6 38:12 39:8 46:10 47:10 51:1 53:4 54:13 55:6 59:9 60:14 61:16 62:10 #
-0.00025891163206971532168357286174398 3:12 4:10 5:2 10:2 11:16 12:8 13:10 14:2 19:16 21:10 22:10 27:5 28:10 29:12 30:15 36:6 37:8 38:14 39:3 46:5 47:12 52:1 53:4 54:9 55:13 59:10 60:15 61:16 62:15 63:5 #
-0.00025891163206971532168357286174398 3:6 4:12 5:14 6:14 7:2 10:12 11:16 12:11 13:4 14:5 15:2 18:4 19:14 20:5 27:9 28:13 29:1 35:2 36:13 37:15 38:6 44:2 45:11 46:15 47:6 51:8 52:6 53:6 54:15 55:8 59:6 60:16 61:16 62:9 #
-0.00025891163206971532168357286174398 3:7 4:13 5:5 10:4 11:14 12:4 13:14 14:13 19:13 20:8 21:12 22:16 23:4 27:5 28:12 29:11 30:6 31:6 38:5 39:9 46:9 47:7 51:2 52:2 53:8 54:16 55:2 59:10 60:16 61:12 62:3 #
-0.00025891163206971532168357286174398 3:3 4:10 5:11 6:5 10:8 11:16 12:10 13:8 14:5 18:11 19:11 26:8 27:14 28:11 29:8 30:4 35:3 36:7 37:9 38:14 39:9 46:5 47:13 51:1 52:4 53:10 54:16 55:5 59:2 60:13 61:10 62:2 #
0.00025891163206971532168357286174398 4:7 5:12 6:7 11:13 12:13 13:13 14:12 18:3 19:12 21:9 22:9 28:7 29:16 30:9 36:2 37:8 38:16 45:1 46:15 47:3 52:12 53:9 54:15 59:1 60:12 61:15 62:5 #
0.00025891163206971532168357286174398 3:8 4:16 5:16 6:10 10:1 11:16 12:14 13:11 14:16 15:1 19:12 20:8 21:13 22:15 23:1 27:1 28:7 29:16 30:7 36:4 37:16 38:6 45:11 46:14 52:4 53:13 54:16 55:2 59:10 60:16 61:16 62:12 #
-0.00025891163206971532168357286174398 2:3 3:7 4:13 5:16 6:12 7:2 10:10 11:16 12:12 13:6 14:2 18:9 19:16 20:8 21:1 26:4 27:11 28:16 29:15 30:6 36:1 37:8 38:15 39:5 45:1 46:14 47:7 51:11 52:13 53:16 54:15 55:1 59:10 60:12 61:8 62:3 #
0.00025891163206971532168357286174398 3:10 4:15 5:16 6:16 7:9 10:1 11:10 12:2 14:10 15:14 21:7 22:15 23:3 28:13 29:11 30:1 36:13 37:11 44:5 45:15 46:5 51:5 52:4 53:12 54:11 59:9 60:16 61:10 62:2 #
0.00025891163206971532168357286174398 3:3 4:9 5:14 6:8 11:13 12:16 13:14 14:16 19:10 21:12 22:10 28:7 29:16 30:8 36:3 37:13 38:15 39:1 44:1 45:1 46:13 47:4 51:3 52:13 53:11 54:14 55:1 59:3 60:16 61:10 62:1 #
-0.00025891163206971532168357286174398 3:8 4:14 5:16 6:5 10:2 11:16 12:8 13:10 14:8 19:4 20:2 21:13 22:6 28:7 29:12 35:1 36:15 37:7 43:9 44:11 50:4 51:16 52:9 53:8 54:12 55:2 59:10 60:14 61:9 62:2 #
-0.00025891163206971532168357286174398 2:3 3:14 4:16 5:16 6:13 10:8 11:15 12:8 13:13 14:16 19:1 20:2 21:16 22:10 28:12 29:15 30:1 35:9 36:15 37:3 42:2 43:16 44:8 50:6 51:16 52:4 53:4 54:7 55:7 58:3 59:15 60:16 61:16 62:13 63:7 #
-0.00025891163206971532168357286174398 3:8 4:13 5:12 6:2 11:10 12:12 13:13 14:10 19:1 21:8 22:12 29:9 30:12 36:3 37:16 38:5 43:1 44:13 45:12 46:2 47:3 51:12 52:16 53:16 54:16 55:9 59:10 60:12 61:9 62:2 #
-0.00025891163206971532168357286174398 3:7 4:16 5:16 6:7 10:3 11:16 12:16 13:16 14:11 18:1 19:6 20:4 21:16 22:7 28:9 29:15 30:2 35:1 36:14 37:8 43:7 44:16 45:5 46:4 47:1 51:10 52:16 53:16 54:16 55:5 59:7 60:16 61:16 62:7 #
-0.00025891163206971532168357286174398 2:1 3:9 4:15 5:5 10:4 11:16 12:15 13:13 18:1 19:2 20:1 21:15 22:2 29:16 36:5 37:13 43:4 44:15 45:3 47:1 51:12 52:16 53:12 54:14 55:4 59:11 60:16 61:13 62:9 63:2 #
0.00025891163206971532168357286174398 2:1 3:10 4:14 5:5 10:9 11:16 12:14 13:16 18:3 19:5 20:9 21:16 27:5 28:16 29:16 30:14 35:8 36:14 37:13 38:16 39:6 46:16 47:11 51:11 52:5 53:11 54:16 55:7 58:1 59:12 60:16 61:14 62:5 #
0.00025891163206971532168357286174398 2:2 3:9 4:15 5:12 6:1 10:6 11:16 12:10 13:14 14:6 18:1 19:1 20:6 21:16 22:4 26:3 27:13 28:16 29:16 30:8 34:3 35:12 36:7 37:7 38:16 39:4 46:13 47:9 50:3 51:15 52:6 53:12 54:16 55:4 59:10 60:16 61:14 62:7 63:1 #
0.00025891163206971532168357286174398 3:8 4:16 5:9 10:4 11:15 12:10 13:16 18:5 19:5 20:7 21:12 28:16 29:14 30:9 36:8 37:8 38:15 39:7 46:11 47:8 51:15 52:5 53:7 54:15 55:3 59:6 60:13 61:13 62:6 #
0.00025891163206971532168357286174398 3:5 4:15 5:9 10:2 11:13 12:8 13:15 14:5 18:2 19:2 21:8 22:5 27:5 28:9 29:15 30:2 35:11 36:15 37:15 38:11 45:1 46:14 47:1 51:4 52:9 53:4 54:11 55:3 59:5 60:12 61:13 62:9 #
0.00025891163206971532168357286174398 2:1 3:11 4:12 10:7 11:14 12:15 13:6 18:7 19:3 20:12 21:10 28:15 29:14 30:5 36:8 37:10 38:16 39:2 46:12 47:8 51:9 52:8 53:8 54:15 55:10 59:13 60:16 61:14 62:8 63:1 #
-0.00025891163206971532168357286174398 3:7 4:15 5:13 6:1 11:15 12:9 13:13 14:10 19:16 20:5 21:12 22:12 27:4 28:15 29:16 30:12 36:2 37:7 38:15 39:1 46:15 47:4 50:4 51:12 52:7 53:5 54:14 55:4 59:7 60:13 61:13 62:9 63:1 #
-0.00025891163206971532168357286174398 2:2 3:15 4:9 5:10 6:8 7:6 10:10 11:16 12:16 13:16 14:12 15:8 18:8 19:16 20:6 26:1 27:12 28:16 29:12 30:1 35:1 36:6 37:15 38:12 45:5 46:16 47:2 50:10 51:12 52:6 53:10 54:16 55:1 58:1 59:13 60:16 61:14 62:5 #
-0.00025891163206971532168357286174398 3:2 4:15 5:12 6:1 11:7 12:15 13:15 14:9 19:5 20:15 21:7 22:16 23:2 27:1 28:13 29:14 30:16 31:7 36:4 37:13 38:15 39:10 46:14 47:11 52:1 53:8 54:16 55:10 59:2 60:13 61:16 62:15 63:3 #
-0.00025891163206971532168357286174398 2:1 3:14 4:16 5:16 6:12 7:1 11:13 12:8 13:4 14:4 19:12 20:4 27:8 28:16 29:16 30:9 35:4 36:7 37:5 38:14 46:13 51:5 53:3 54:15 58:2 59:14 60:16 61:14 62:7 #
-0.00025891163206971532168357286174398 3:15 4:16 5:16 6:7 10:7 11:16 12:10 13:15 14:16 15:3 18:10 19:16 20:2 21:14 22:14 26:1 27:13 28:16 29:16 30:16 31:3 37:5 38:16 39:4 45:1 46:16 47:10 51:7 52:8 53:8 54:16 55:10 59:9 60:12 61:13 62:9 63:1 #
0.00025891163206971532168357286174398 3:5 4:15 5:13 6:7 10:4 11:15 12:8 13:7 14:16 15:4 18:6 19:12 20:1 21:10 22:14 23:1 28:12 29:12 30:2 36:14 37:11 38:3 44:1 45:10 46:14 53:4 54:14 55:8 59:4 60:16 61:16 62:14 63:4 #
0.00025891163206971532168357286174398 3:2 4:11 5:15 6:13 10:5 11:15 12:15 13:13 14:15 18:9 19:13 20:3 21:16 22:7 26:3 27:3 28:4 29:16 30:4 36:2 37:16 38:11 45:7 46:16 47:6 52:9 53:8 54:15 55:12 60:13 61:16 62:13 63:3 #
0.00025891163206971532168357286174398 3:5 4:14 5:15 6:5 10:2 11:16 12:9 13:9 14:15 15:2 18:2 19:10 21:6 22:16 23:3 27:2 28:14 29:16 30:7 36:11 37:16 38:14 39:1 43:6 44:3 45:6 46:16 47:1 51:13 52:11 53:10 54:15 59:9 60:16 61:16 62:7 #
0.00025891163206971532168357286174398 3:5 4:15 5:16 6:7 11:15 12:15 13:12 14:15 19:8 20:1 21:5 22:16 23:2 29:8 30:16 36:2 37:15 38:16 39:8 45:3 46:12 47:13 51:14 52:12 53:13 54:16 55:8 59:5 60:12 61:13 62:10 63:1 #
-0.00025891163206971532168357286174398 3:11 4:15 5:13 6:1 10:5 11:15 12:9 13:15 14:12 18:8 19:12 21:12 22:16 26:5 27:16 28:9 29:15 30:16 35:4 36:10 37:13 38:16 39:2 45:1 46:16 47:6 51:1 52:5 53:8 54:16 55:7 59:12 60:12 61:10 62:7 63:1 #
-0.00025891163206971532168357286174398 3:3 4:14 5:13 6:2 10:1 11:15 12:16 13:16 14:3 18:2 19:14 20:15 21:5 27:5 28:15 29:6 36:5 37:16 38:7 45:4 46:15 47:7 51:3 52:8 53:12 54:16 55:13 59:3 60:12 61:15 62:14 63:4 #
-0.00025891163206971532168357286174398 2:1 3:12 4:12 5:11 6:5 10:5 11:15 12:8 13:12 14:15 15:2 18:7 19:12 21:9 22:16 23:3 26:3 27:15 28:9 29:10 30:16 31:7 35:5 36:11 37:16 38:16 39:8 45:1 46:14 47:10 51:7 52:8 53:11 54:16 55:2 59:12 60:16 61:13 62:6 #
-0.00025891163206971532168357286174398 3:5 4:11 5:15 6:8 10:4 11:14 12:8 13:10 14:16 18:8 19:13 20:1 21:15 22:12 26:4 27:16 28:15 29:16 30:13 35:4 36:12 37:13 38:16 39:4 43:4 44:1 46:14 47:8 51:13 52:13 53:6 54:14 55:7 59:2 60:14 61:14 62:9 63:2 #
-0.00025891163206971532168357286174398 3:2 4:16 5:14 6:1 11:6 12:16 13:16 14:5 18:2 19:16 20:16 21:16 22:3 27:3 28:9 29:16 30:4 36:2 37:16 38:10 45:15 46:16 51:2 52:9 53:16 54:16 55:3 59:2 60:14 61:16 62:10 63:1 #
0.00025891163206971532168357286174398 2:1 3:9 4:13 5:7 10:7 11:12 12:6 13:15 14:6 19:1 20:4 21:13 22:10 27:4 28:16 29:16 30:13 37:2 38:13 39:6 46:10 47:8 51:9 52:7 53:9 54:15 55:1 59:13 60:15 61:9 62:1 #
0.00025891163206971532168357286174398 3:7 4:15 5:16 6:12 11:9 12:6 13:3 14:15 15:2 20:4 21:13 22:9 27:9 28:16 29:16 30:6 35:5 36:5 37:6 38:15 39:4 43:8 46:4 47:12 50:1 51:13 52:1 53:3 54:12 55:8 59:8 60:16 61:15 62:10 #
0.00025891163206971532168357286174398 2:2 3:12 4:15 5:6 10:6 11:13 12:12 13:16 14:5 19:3 20:9 21:16 22:5 27:7 28:16 29:16 30:12 36:4 37:8 38:16 39:5 46:13 47:8 50:2 51:13 52:8 53:14 54:15 55:3 58:2 59:15 60:15 61:10 62:1 #
0.00025891163206971532168357286174398 3:8 4:14 5:12 6:2 10:10 11:14 12:12 13:14 18:6 19:2 20:11 21:7 28:12 29:5 36:8 37:15 38:2 45:9 46:14 47:3 51:6 52:2 53:7 54:14 55:8 59:14 60:15 61:11 62:4 #
-0.00025891163206971532168357286174398 3:8 4:15 5:15 6:12 7:4 11:15 12:4 13:3 14:10 15:16 19:8 20:14 21:12 22:16 23:12 28:2 29:4 30:9 31:8 38:9 39:7 42:1 43:1 46:12 47:4 50:7 51:11 52:1 53:4 54:12 55:1 59:10 60:16 61:13 62:3 #
-0.00025891163206971532168357286174398 2:1 3:11 4:16 5:15 6:6 10:2 11:16 12:7 13:6 14:13 15:2 19:10 20:13 21:14 22:16 23:3 27:2 28:9 29:9 30:12 31:3 38:12 39:4 46:9 47:7 53:3 54:14 55:3 59:9 60:16 61:16 62:11 63:2 #
-0.00025891163206971532168357286174398 3:7 4:13 5:16 6:5 10:6 11:8 12:8 13:14 14:9 21:15 22:5 28:12 29:11 35:6 36:15 37:1 43:12 44:4 51:11 52:10 53:8 54:8 55:4 59:6 60:15 61:16 62:12 63:4 #
-0.00025891163206971532168357286174398 3:13 4:16 5:5 11:16 12:12 13:15 19:3 20:3 21:12 22:4 29:12 30:6 37:14 38:7 44:2 45:16 46:5 51:5 52:14 53:16 54:9 55:4 59:15 60:16 61:13 62:12 63:16 64:2 #
0.00025891163206971532168357286174398 3:5 4:14 5:16 6:9 10:6 11:16 12:9 13:13 14:12 18:3 19:7 20:1 21:14 22:12 27:1 28:15 29:16 30:15 31:2 35:1 36:11 37:9 38:14 39:11 43:1 44:3 46:13 47:9 51:10 52:13 53:9 54:16 55:6 59:3 60:16 61:16 62:10 #
0.00025891163206971532168357286174398 2:1 3:11 4:16 5:13 6:1 10:9 11:16 12:10 13:15 14:8 18:7 19:13 20:1 21:12 22:11 28:5 29:15 30:9 36:16 37:16 38:16 39:7 44:7 45:3 46:13 47:12 51:7 52:8 53:10 54:16 55:5 59:13 60:16 61:16 62:6 #
0.00025891163206971532168357286174398 3:5 4:14 5:16 6:10 11:15 12:15 13:14 14:13 19:4 20:3 21:15 22:8 27:1 28:16 29:16 30:15 31:2 35:1 36:7 37:6 38:16 39:6 44:1 46:14 47:6 51:2 52:15 53:12 54:14 55:1 59:7 60:16 61:12 62:1 #
0.00025891163206971532168357286174398 3:13 4:16 5:16 6:5 10:1 11:10 12:8 13:16 14:6 20:10 21:14 27:7 28:16 29:6 35:3 36:13 37:16 38:6 45:10 46:15 47:1 51:2 52:5 53:7 54:16 55:7 59:15 60:16 61:16 62:14 63:2 #
-0.00025891163206971532168357286174398 2:1 3:7 4:9 5:12 6:14 7:1 10:11 11:16 12:15 13:10 14:5 15:1 18:2 19:16 20:7 27:9 28:16 29:16 30:9 36:2 37:8 38:13 39:6 46:8 47:11 51:7 52:13 53:14 54:16 55:4 59:10 60:16 61:12 62:3 #
-0.00025891163206971532168357286174398 3:4 4:13 5:16 6:7 11:11 12:9 13:15 14:11 21:12 22:9 28:4 29:16 30:3 35:12 36:16 37:16 38:16 39:5 43:6 44:14 45:16 46:15 47:2 51:1 52:16 53:3 59:6 60:14 61:2 #
-0.00025891163206971532168357286174398 3:4 4:10 5:14 6:14 7:8 10:7 11:16 12:15 13:11 14:8 15:4 18:2 19:15 20:9 21:3 27:12 28:16 29:16 30:7 36:4 37:9 38:16 39:4 46:13 47:8 51:7 52:12 53:11 54:16 55:5 59:4 60:16 61:10 62:5 #
-0.00025891163206971532168357286174398 3:8 4:11 5:15 6:4 11:14 12:14 13:12 14:6 19:11 20:9 27:10 28:16 29:14 30:2 35:4 36:8 37:9 38:14 39:2 46:15 47:2 51:4 52:11 53:13 54:16 55:1 59:4 60:15 61:12 62:9 #
0.00025891163206971532168357286174398 2:2 3:8 4:15 5:15 6:3 10:11 11:16 12:12 13:15 14:12 18:4 19:7 21:10 22:14 29:8 30:16 37:7 38:16 39:2 45:1 46:15 47:8 51:1 52:6 53:11 54:16 55:7 59:8 60:16 61:10 62:5 #
0.00025891163206971532168357286174398 3:2 4:10 5:16 6:12 10:2 11:15 12:13 13:9 14:16 15:2 18:1 19:9 21:8 22:14 23:1 28:4 29:16 30:10 36:1 37:10 38:16 39:3 43:2 46:14 47:7 51:9 52:12 53:11 54:16 55:3 59:1 60:11 61:14 62:6 #
0.00025891163206971532168357286174398 3:6 4:13 5:12 6:4 10:2 11:16 12:9 13:12 14:13 19:9 21:13 22:10 28:6 29:16 30:4 37:8 38:14 39:1 46:14 47:9 51:4 52:9 53:5 54:10 55:13 59:7 60:12 61:13 62:12 63:5 #
0.00025891163206971532168357286174398 3:15 4:15 5:8 6:1 11:4 12:6 13:11 14:15 15:2 22:16 23:4 27:4 28:9 29:15 30:13 31:1 35:4 36:12 37:16 38:13 39:1 43:1 45:2 46:10 47:8 50:4 51:11 52:3 53:5 54:12 55:8 58:1 59:9 60:15 61:15 62:10 #
0.00025891163206971532168357286174398 3:10 4:13 5:7 6:1 10:6 11:16 12:15 13:16 14:5 18:9 19:9 20:8 21:16 22:2 27:2 28:1 29:16 30:8 37:9 38:16 39:1 45:2 46:16 47:10 51:7 52:11 53:14 54:15 55:7 59:11 60:13 61:12 62:3 #
-0.00025891163206971532168357286174398 3:10 4:15 5:9 6:1 10:5 11:16 12:10 13:16 14:9 18:7 19:10 21:14 22:10 26:3 27:15 28:7 29:12 30:15 31:1 35:4 36:11 37:14 38:16 39:4 46:12 47:11 51:11 52:9 53:5 54:12 55:13 59:10 60:12 61:12 62:15 63:11 #
-0.00025891163206971532168357286174398 3:9 4:15 5:7 6:1 10:5 11:16 12:7 13:12 14:14 18:10 19:10 21:8 22:16 26:6 27:12 29:5 30:16 31:4 35:12 36:13 37:15 38:16 39:3 45:1 46:13 47:10 51:2 52:4 53:5 54:13 55:11 59:8 60:16 61:12 62:8 63:1 #
0.00025891163206971532168357286174398 2:2 3:12 4:16 5:15 6:9 10:1 11:4 12:7 13:15 14:14 19:3 20:15 21:14 22:3 27:6 28:14 29:5 35:1 36:11 37:16 38:7 45:6 46:16 47:7 51:3 52:9 53:14 54:15 55:5 58:1 59:14 60:12 61:8 62:1 #
0.00025891163206971532168357286174398 3:6 4:16 5:9 6:1 10:3 11:15 12:8 13:13 14:3 18:8 19:8 21:11 22:4 26:1 28:7 29:16 30:6 35:2 36:16 37:14 38:16 39:5 44:5 46:11 47:8 51:4 52:6 53:9 54:15 55:2 59:4 60:15 61:11 62:3 #
-0.00025891163206971532168357286174398 3:9 4:15 5:15 6:3 11:11 12:9 13:16 14:10 21:14 22:10 27:2 28:5 29:16 30:6 34:1 35:15 36:16 37:16 38:13 39:5 42:1 43:10 44:16 45:16 46:15 47:5 51:5 52:16 53:11 54:2 59:9 60:16 61:5 #
-0.00025891163206971532168357286174398 3:2 4:10 5:13 6:16 7:6 10:9 11:16 12:14 13:12 14:9 15:2 18:5 19:16 20:3 27:10 28:14 29:6 30:1 35:1 36:13 37:16 38:11 45:8 46:16 52:2 53:15 54:12 60:13 61:16 62:2 #
-0.00025891163206971532168357286174398 3:8 4:12 5:16 6:8 10:5 11:16 12:10 13:8 14:8 18:2 19:16 20:4 26:1 27:15 28:12 29:5 35:4 36:13 37:16 38:6 45:10 46:16 47:6 51:7 52:9 53:15 54:15 55:4 59:10 60:13 61:8 62:4 #
-0.00025891163206971532168357286174398 3:6 4:15 5:16 6:14 10:2 11:11 12:5 13:7 14:16 15:2 21:4 22:16 27:8 28:13 29:16 30:6 35:5 36:13 37:16 38:14 39:3 44:14 45:8 46:14 47:4 51:6 52:16 53:2 59:7 60:9 61:1 #
0.00025891163206971532168357286174398 3:4 4:13 5:16 6:15 7:4 10:3 11:16 12:10 13:8 14:16 15:4 18:3 19:10 21:3 22:16 23:4 28:11 29:16 30:15 36:3 37:14 38:16 39:6 45:2 46:16 47:9 51:2 52:12 53:8 54:16 55:8 59:3 60:16 61:16 62:13 63:1 #
0.00025891163206971532168357286174398 3:11 4:16 5:13 6:2 10:7 11:16 12:11 13:12 14:14 18:9 19:13 21:11 22:14 28:11 29:16 30:14 31:2 36:10 37:9 38:15 39:10 46:9 47:12 51:14 52:8 53:9 54:16 55:6 59:11 60:16 61:16 62:10 #
0.00025891163206971532168357286174398 3:7 4:11 5:15 6:10 10:4 11:16 12:15 13:13 14:12 15:4 19:7 20:1 21:5 22:16 23:4 28:6 29:15 30:14 36:15 37:16 38:16 39:4 42:1 43:2 44:3 45:5 46:16 47:8 50:3 51:14 52:5 53:7 54:16 55:6 59:8 60:15 61:16 62:12 63:1 #
0.00025891163206971532168357286174398 2:1 3:11 4:14 5:14 6:3 10:9 11:14 12:10 13:11 14:14 18:8 19:8 21:9 22:12 26:3 27:3 28:8 29:16 30:6 36:8 37:14 38:16 39:2 46:10 47:12 51:5 52:6 53:4 54:12 55:13 59:11 60:12 61:15 62:14 63:6 #
-0.00025891163206971532168357286174398 3:5 4:16 5:13 6:1 11:12 12:14 13:15 14:5 19:12 20:10 21:16 22:7 27:3 28:15 29:16 30:12 37:2 38:15 39:2 46:8 47:9 50:2 51:12 52:8 53:8 54:13 55:12 58:1 59:6 60:10 61:12 62:12 63:2 #
-0.00025891163206971532168357286174398 2:1 3:10 4:16 5:9 10:9 11:15 12:13 13:16 18:4 19:2 21:14 22:2 29:12 30:4 36:1 37:14 38:1 44:9 45:7 51:14 52:16 53:16 54:16 55:11 59:8 60:10 61:12 62:14 63:10 #
-0.00025891163206971532168357286174398 2:1 3:11 4:16 5:16 6:13 7:2 10:6 11:16 12:16 13:8 14:13 15:8 19:10 20:16 21:14 22:15 23:8 28:7 29:12 30:14 31:5 38:8 39:4 46:11 47:4 51:8 52:8 53:9 54:15 55:4 58:2 59:13 60:16 61:16 62:9 63:1 #
-0.00025891163206971532168357286174398 3:10 4:16 5:10 6:2 10:5 11:15 12:5 13:16 14:15 18:6 19:14 20:2 21:10 22:16 23:2 27:12 28:16 29:16 30:16 31:4 36:3 37:8 38:14 39:7 46:11 47:9 50:2 51:14 52:9 53:8 54:13 55:12 58:1 59:9 60:14 61:14 62:12 63:3 #
0.00025891163206971532168357286174398 2:1 3:8 4:13 5:16 6:8 10:11 11:13 12:6 13:8 14:15 15:1 18:2 19:1 20:9 21:14 22:5 27:14 28:16 29:14 30:3 35:8 36:4 37:10 38:15 39:1 46:13 47:7 50:2 51:15 52:8 53:9 54:15 55:1 58:1 59:10 60:13 61:13 62:4 #
0.00025891163206971532168357286174398 3:10 4:16 5:16 6:6 10:3 11:13 12:6 13:16 14:4 20:10 21:12 27:6 28:16 29:5 35:1 36:12 37:15 38:5 45:10 46:15 47:3 52:2 53:7 54:16 55:5 58:1 59:13 60:16 61:14 62:10 #
-0.00025891163206971532168357286174398 2:3 3:15 4:16 5:7 10:8 11:15 12:14 13:12 18:1 19:3 20:3 21:14 28:5 29:15 36:11 37:10 43:5 44:16 45:6 47:1 50:5 51:16 52:16 53:13 54:16 55:15 58:4 59:16 60:16 61:14 62:12 63:9 #
-0.00025891163206971532168357286174398 2:6 3:16 4:15 5:4 10:8 11:15 12:14 13:14 14:1 19:2 20:2 21:16 22:6 28:1 29:16 30:7 36:6 37:15 38:1 43:1 44:15 45:8 50:1 51:12 52:16 53:9 54:12 55:8 58:10 59:16 60:16 61:15 62:12 63:7 #
-0.00025891163206971532168357286174398 3:9 4:15 5:2 10:3 11:16 12:14 13:13 14:1 19:6 21:14 22:2 28:1 29:15 36:5 37:14 43:1 44:12 45:9 51:12 52:16 53:16 54:16 55:16 56:2 59:8 60:13 61:11 62:8 63:7 #
0.00025891163206971532168357286174398 3:4 4:12 5:10 6:1 10:1 11:15 12:9 13:14 14:4 19:7 20:3 21:13 22:4 28:16 29:16 30:6 36:2 37:5 38:14 39:4 43:3 46:8 47:12 51:15 52:8 53:5 54:15 55:9 59:3 60:13 61:16 62:10 #
0.00025891163206971532168357286174398 3:10 4:15 5:10 10:10 11:15 12:10 13:16 14:6 18:2 19:2 20:13 21:15 22:1 27:4 28:16 29:16 30:5 36:3 37:7 38:15 39:5 46:9 47:13 51:13 52:7 53:5 54:11 55:14 59:7 60:16 61:16 62:14 63:3 #
0.00025891163206971532168357286174398 2:1 3:9 4:14 5:14 6:3 10:2 11:12 12:10 13:12 14:11 20:3 21:14 22:11 27:11 28:16 29:16 30:7 35:10 36:7 37:11 38:16 39:5 46:5 47:12 51:8 52:5 53:6 54:12 55:12 59:12 60:16 61:15 62:10 63:3 #
-0.00025891163206971532168357286174398 3:16 4:14 5:12 6:7 11:16 12:8 13:12 14:10 18:4 19:16 20:4 26:6 27:16 28:16 29:13 30:3 35:1 36:5 37:10 38:16 39:3 46:14 47:5 50:2 51:14 52:8 53:8 54:16 55:3 58:1 59:10 60:16 61:15 62:8 #
0.00025891163206971532168357286174398 2:1 3:8 4:16 5:15 6:1 10:8 11:12 12:14 13:16 19:1 20:16 21:11 27:4 28:16 29:12 30:2 35:1 36:9 37:15 38:16 39:2 43:2 46:15 47:8 50:1 51:16 52:14 53:5 54:15 55:7 59:7 60:13 61:14 62:10 63:1 #
0.00025891163206971532168357286174398 3:7 4:15 5:4 11:14 12:16 13:12 19:12 20:6 21:16 28:10 29:16 30:2 36:8 37:14 38:15 39:3 46:9 47:11 51:5 52:9 53:9 54:15 55:11 59:9 60:14 61:12 62:9 63:1 #
0.00025891163206971532168357286174398 2:3 3:16 4:14 5:10 6:5 10:1 11:8 12:8 13:11 14:16 15:2 19:2 20:6 21:12 22:11 23:1 27:12 28:16 29:16 30:6 36:3 37:11 38:16 39:2 46:14 47:7 50:1 51:8 52:9 53:14 54:13 58:3 59:16 60:12 61:9 62:1 #
0.00025891163206971532168357286174398 2:1 3:8 4:16 5:14 10:4 11:15 12:9 13:16 14:3 18:1 19:4 20:7 21:16 28:11 29:16 30:9 37:5 38:15 39:5 46:15 47:5 51:15 52:9 53:9 54:15 55:2 59:6 60:13 61:10 62:4 #
-0.00025091919236127019701698692699665 3:2 4:16 5:9 11:8 12:16 13:15 18:6 19:16 20:16 21:15 22:1 28:5 29:16 30:8 37:14 38:14 45:2 46:16 47:6 51:1 52:4 53:7 54:16 55:13 60:11 61:16 62:16 63:15 64:1 #
0.00025891163206971532168357286174398 3:7 4:16 5:15 6:7 11:16 12:10 13:8 14:15 19:5 20:2 21:9 22:15 27:5 28:16 29:16 30:8 35:2 36:5 37:11 38:14 39:3 46:8 47:12 51:10 52:10 53:7 54:13 55:12 59:6 60:12 61:16 62:11 63:4 #
-0.00025891163206971532168357286174398 4:1 5:12 6:12 12:2 13:16 14:16 15:2 20:4 21:16 22:16 26:6 27:16 28:16 29:16 30:13 34:1 35:12 36:14 37:16 38:12 45:16 46:15 53:15 54:16 55:2 61:8 62:13 63:5 #
-0.00025891163206971532168357286174398 4:11 5:16 6:10 11:6 12:11 13:2 14:12 19:5 20:15 21:3 22:11 27:1 28:13 29:16 30:1 35:1 36:12 37:16 38:7 42:7 43:13 44:3 45:7 46:14 50:10 51:13 52:8 53:5 54:10 60:14 61:15 62:3 #
-0.00015813581071655053583713268494648 3:10 4:12 5:6 11:16 12:14 13:15 14:4 18:1 19:16 20:8 21:16 22:14 27:7 28:15 29:16 30:16 31:5 36:3 37:4 38:15 39:9 46:12 47:11 51:5 52:7 53:9 54:16 55:9 59:7 60:16 61:13 62:9 63:2 #
0.00025891163206971532168357286174398 3:4 4:16 5:14 6:2 11:16 12:11 13:11 14:10 18:1 19:4 20:1 21:11 22:10 27:1 28:11 29:16 30:6 35:6 36:16 37:14 38:13 39:2 43:1 44:2 45:1 46:10 47:11 51:7 52:11 53:6 54:13 55:14 59:3 60:12 61:16 62:15 63:7 #
0.00025891163206971532168357286174398 3:8 4:12 5:14 6:10 7:1 10:3 11:16 12:12 13:9 14:15 15:8 18:1 19:6 21:8 22:14 23:4 28:4 29:16 30:7 36:2 37:15 38:7 45:6 46:16 47:1 51:8 52:7 53:8 54:16 55:3 59:6 60:14 61:11 62:6 #
-4.3390469653127941573877990322217e-05 3:2 4:7 5:12 6:16 7:11 11:10 12:15 13:16 14:16 15:16 20:10 21:16 22:16 23:12 28:4 29:16 30:16 31:4 36:5 37:16 38:15 39:4 44:10 45:16 46:12 51:2 52:15 53:16 54:3 59:1 60:13 61:14 62:1 #
-0.00017213155141397964466298819985468 3:7 4:12 5:9 11:13 12:13 13:14 14:9 19:11 20:12 21:14 22:14 27:1 28:10 29:12 30:15 31:4 38:11 39:9 46:9 47:9 53:1 54:14 55:6 59:5 60:12 61:14 62:11 63:1 #
-0.00016791432954812112419984426736619 2:1 3:9 4:15 5:12 6:2 10:8 11:10 13:7 14:14 18:8 19:4 22:16 23:4 26:2 27:12 28:9 29:9 30:16 31:7 35:1 36:5 37:5 38:9 39:8 46:4 47:11 51:6 52:1 54:10 55:8 59:9 60:13 61:14 62:11 63:2 #
-0.00025891163206971532168357286174398 2:1 3:13 4:16 5:16 6:12 7:1 10:2 11:16 12:16 13:16 14:15 15:2 19:5 20:12 21:16 22:14 29:10 30:15 37:12 38:12 44:3 45:16 46:9 50:1 51:8 52:13 53:15 54:2 58:2 59:13 60:16 61:6 #
-0.00025891163206971532168357286174398 3:2 4:11 5:11 6:2 11:11 12:16 13:16 14:5 19:10 20:16 21:16 22:5 27:2 28:11 29:14 30:9 37:8 38:12 45:8 46:16 52:8 53:15 54:10 59:1 60:14 61:14 62:3 #
-0.00025891163206971532168357286174398 2:2 5:9 6:7 10:15 11:16 12:16 13:16 14:9 18:1 19:5 20:4 21:16 22:7 26:1 27:4 28:4 29:16 30:7 34:5 35:16 36:16 37:16 38:15 39:2 43:3 44:1 45:14 46:6 53:13 54:7 61:10 62:11 #
0.00025891163206971532168357286174398 3:8 4:14 5:12 6:2 10:3 11:16 12:12 13:15 14:6 18:3 19:7 20:7 21:13 22:9 27:5 28:15 29:16 30:3 36:7 37:14 38:14 39:1 45:3 46:16 47:5 51:7 52:5 53:10 54:16 55:5 59:13 60:10 61:8 62:3 #
0.00025891163206971532168357286174398 3:6 4:12 5:14 6:2 10:1 11:16 12:14 13:13 14:11 19:5 20:3 21:9 22:13 27:3 28:9 29:16 30:8 35:4 36:12 37:12 38:15 39:7 46:9 47:14 51:4 52:8 53:6 54:12 55:14 56:1 59:6 60:16 61:16 62:15 63:4 #
0.00025891163206971532168357286174398 3:8 4:14 5:10 6:2 11:15 12:14 13:11 14:13 21:5 22:16 23:1 29:11 30:14 37:3 38:15 39:3 46:9 47:13 51:3 52:9 53:8 54:15 55:11 59:6 60:16 61:14 62:7 63:1 #
0.00025891163206971532168357286174398 2:2 3:11 4:14 5:7 6:1 10:10 11:15 12:13 13:16 14:4 18:11 19:12 20:5 21:16 22:3 26:1 27:2 28:15 29:14 35:5 36:12 37:15 38:11 39:1 45:2 46:14 47:10 51:8 52:12 53:12 54:16 55:11 59:9 60:15 61:11 62:8 63:1 #
0.00025891163206971532168357286174398 2:3 3:8 4:12 5:13 6:3 10:5 11:11 12:8 13:12 14:10 21:13 22:7 27:5 28:14 29:16 30:13 35:7 36:13 37:7 38:14 39:8 45:2 46:16 47:7 50:1 51:6 52:11 53:16 54:7 58:3 59:13 60:11 61:3 #
-0.00025891163206971532168357286174398 2:1 3:9 4:15 5:5 10:6 11:16 12:13 13:15 14:3 18:12 19:11 21:12 22:14 26:5 27:15 28:11 29:15 30:16 31:3 35:4 36:8 37:10 38:16 39:5 46:12 47:12 51:6 52:4 53:7 54:14 55:13 59:7 60:14 61:14 62:12 63:5 #
0.00025891163206971532168357286174398 3:5 4:9 5:13 6:12 10:10 11:16 12:15 13:12 14:16 15:2 18:8 19:7 21:11 22:14 28:2 29:16 30:14 31:1 36:1 37:11 38:16 39:7 46:8 47:12 51:14 52:10 53:10 54:16 55:8 59:6 60:15 61:16 62:10 63:1 #
0.00025891163206971532168357286174398 3:4 4:13 5:16 6:16 7:9 10:2 11:12 12:6 13:1 14:12 15:12 18:1 19:3 20:2 21:15 22:10 28:11 29:9 36:4 37:14 38:2 45:13 46:10 53:10 54:11 58:6 59:9 60:13 61:12 62:1 #
-7.9979068503267065556872061904414e-05 2:2 3:10 4:13 5:3 10:10 11:15 12:10 13:14 14:8 18:11 19:14 20:4 21:13 22:14 26:2 27:9 28:12 29:12 30:16 31:4 38:16 39:7 46:12 47:12 50:2 51:12 52:4 53:5 54:15 55:11 59:9 60:13 61:12 62:11 63:1 #
-0.00025891163206971532168357286174398 2:3 3:16 4:15 5:2 10:4 11:14 12:10 13:11 18:2 19:8 20:4 21:16 29:16 30:2 36:4 37:15 44:9 45:13 51:7 52:16 53:14 54:12 55:11 58:3 59:16 60:16 61:12 62:9 63:7 #
-0.00025891163206971532168357286174398 3:6 4:16 5:16 6:13 11:13 12:12 13:13 14:16 15:3 21:8 22:14 27:1 28:7 29:14 30:10 35:9 36:16 37:16 38:16 39:7 43:1 44:15 45:12 46:9 47:3 51:6 52:16 53:4 59:9 60:13 61:1 #
-0.00012502411483780723330458406472587 2:1 3:5 4:11 5:13 6:5 10:10 11:16 12:16 13:15 14:3 18:10 19:13 26:10 27:14 28:8 29:8 30:3 34:2 35:12 36:13 37:13 38:16 39:5 46:11 47:14 51:2 52:11 53:8 54:14 55:15 59:2 60:11 61:16 62:14 63:6 #
-0.00025891163206971532168357286174398 2:1 3:10 4:16 5:13 6:4 10:7 11:16 12:6 13:12 14:12 15:1 18:10 19:13 21:9 22:16 23:4 26:4 27:16 28:9 29:14 30:16 31:5 35:5 36:8 37:11 38:16 39:4 46:16 47:9 51:9 52:8 53:1 54:14 55:9 59:12 60:16 61:16 62:15 63:7 #
0.00021190333013027483604479028755918 2:2 3:9 4:12 5:13 6:4 10:14 11:16 12:13 13:16 14:11 18:5 19:4 20:7 21:16 22:4 28:10 29:16 30:2 36:6 37:16 38:6 45:14 46:16 47:1 51:7 52:11 53:16 54:13 55:1 59:8 60:12 61:7 62:2 #
0.00025891163206971532168357286174398 2:1 3:9 4:13 5:15 6:3 10:8 11:14 12:8 13:12 14:16 18:1 19:1 21:10 22:14 28:6 29:15 30:7 35:10 36:16 37:16 38:10 39:2 43:5 44:8 45:8 46:14 47:8 50:1 51:6 52:4 53:7 54:15 55:6 58:1 59:11 60:15 61:12 62:4 #
-2.2577555152326585826555449543207e-05 3:5 4:16 5:14 6:3 11:9 12:15 13:10 14:11 20:4 21:8 22:13 29:14 30:10 36:4 37:16 38:5 44:13 45:16 46:5 51:4 52:16 53:16 54:16 55:14 56:8 59:4 60:16 61:12 62:8 63:9 64:13 #
-8.3008911311112268220646637217897e-05 3:1 4:9 5:14 6:5 11:8 12:15 13:9 14:14 15:1 19:3 20:14 22:16 23:4 28:8 29:14 30:16 31:4 37:3 38:13 39:5 43:3 46:8 47:7 50:3 51:15 52:6 53:2 54:14 55:6 59:1 60:10 61:14 62:14 63:1 #
-0.00021965072057158118931652346361716 2:1 3:12 4:16 5:16 6:8 10:4 11:10 12:8 13:8 14:4 18:9 19:11 20:6 21:7 26:4 27:16 28:16 29:16 30:11 37:1 38:16 39:4 46:16 47:6 51:5 52:8 53:11 54:14 55:2 59:15 60:13 61:10 62:1 #
-1.4870770026463760171697714440597e-05 3:8 4:16 5:16 6:7 10:2 11:15 12:3 13:10 14:16 18:2 19:15 20:12 21:14 22:11 27:8 28:9 29:8 30:12 37:1 38:15 46:14 47:2 51:1 52:1 53:5 54:16 55:4 59:9 60:13 61:16 62:11 #
-0.00010531562049543864408376880881235 3:4 4:14 5:16 6:11 11:12 12:12 13:16 14:15 20:1 21:16 22:11 27:2 28:9 29:16 30:9 35:13 36:16 37:16 38:16 39:9 43:2 44:15 45:12 46:8 47:1 51:4 52:16 53:9 59:5 60:15 61:7 #
-0.00016427273435158103826944642200658 3:6 4:12 5:14 6:6 10:12 11:14 12:6 13:4 14:15 18:11 19:1 21:5 22:12 26:6 27:11 28:5 29:15 30:3 35:7 36:15 37:12 38:2 43:5 44:13 45:8 46:13 47:1 51:11 52:5 53:6 54:14 55:7 59:5 60:16 61:12 62:7 63:1 #
-4.4606803805690613609624683988386e-05 2:2 3:15 4:16 5:13 6:2 10:3 11:15 12:10 13:14 14:9 21:14 22:10 28:10 29:16 30:2 35:2 36:16 37:10 43:12 44:13 45:1 50:2 51:16 52:12 53:8 54:10 55:13 56:2 58:2 59:13 60:16 61:16 62:16 63:16 64:3 #
-2.6019378212196705209974245676108e-05 2:1 3:13 4:16 5:10 10:2 11:15 12:13 13:16 14:2 19:5 20:1 21:14 22:5 29:14 30:7 36:4 37:16 38:3 44:13 45:13 46:1 50:1 51:14 52:16 53:13 54:12 55:11 56:1 58:1 59:15 60:16 61:14 62:10 63:8 64:1 #
2.7045197076360286136953448021814e-05 3:9 4:14 5:15 6:4 10:7 11:16 12:16 13:16 14:10 18:5 19:10 20:4 21:16 22:4 28:16 29:16 30:7 36:3 37:9 38:16 39:3 43:2 45:1 46:15 47:7 51:15 52:13 53:13 54:16 55:4 59:9 60:15 61:15 62:8 #
