SVM-light Version V6.02
2 # kernel type
3 # kernel parameter -d 
0.005 # kernel parameter -g 
1 # kernel parameter -s 
1 # kernel parameter -r 
empty# kernel parameter -u 
64 # highest feature index 
2823 # number of training documents 
2065 # number of support vectors plus 1 
0.84103487 # threshold b, each following line is a SV (starting with alpha*y)
-0.058332837549764621210002246698423 3:2 4:10 5:12 6:13 7:6 11:15 12:14 13:8 14:7 18:4 19:16 26:7 27:16 28:16 29:15 30:2 34:3 35:14 36:8 37:15 38:6 45:12 46:7 52:6 53:14 54:4 60:13 61:12 #
-0.028614003432754407663107798498459 2:4 3:15 4:16 5:12 10:12 11:15 12:7 13:16 14:5 18:3 19:3 21:15 22:4 29:13 30:7 36:5 37:15 38:2 43:1 44:14 45:11 50:1 51:13 52:16 53:9 54:8 55:3 58:3 59:16 60:16 61:16 62:16 63:16 64:1 #
-0.029333897589766424335300243342317 3:7 4:15 5:13 6:3 11:11 12:6 13:8 14:14 20:3 21:8 22:12 28:16 29:14 30:2 36:10 37:15 38:7 45:2 46:11 47:10 50:1 51:15 52:3 53:1 54:11 55:10 59:4 60:15 61:16 62:13 63:2 #
-0.029626590178980210382730930973594 3:10 4:16 5:12 10:1 11:14 12:13 13:16 14:4 19:2 20:3 21:16 22:5 28:4 29:16 30:2 36:11 37:14 43:2 44:16 45:8 47:3 50:1 51:13 52:16 53:14 54:16 55:16 56:3 59:12 60:16 61:16 62:13 63:7 #
-0.033104767115653924158813481426478 3:5 4:16 5:16 6:15 7:1 11:10 12:9 13:10 14:16 15:2 20:1 21:12 22:10 28:9 29:16 30:8 36:2 37:14 38:16 39:5 44:4 46:16 47:5 51:3 52:14 53:8 54:13 59:4 60:16 61:13 62:3 #
0.50000003576649798553432901826454 4:6 5:15 6:2 7:2 11:3 12:15 13:10 14:4 15:15 18:2 19:14 20:9 22:12 23:11 26:9 27:16 28:4 29:3 30:16 31:14 34:11 35:16 36:16 37:16 38:15 39:7 42:1 43:10 44:11 45:16 46:8 52:3 53:16 54:1 60:8 61:11 #
0.50000003576649798553432901826454 4:9 5:14 11:5 12:16 13:4 14:4 15:9 18:4 19:16 20:3 22:13 23:9 26:6 27:16 28:15 29:12 30:16 31:13 35:8 36:11 37:15 38:14 39:3 45:16 46:5 52:6 53:13 60:9 61:10 #
0.4496451211291235261491294750158 4:2 5:15 6:7 12:11 13:12 14:1 19:6 20:15 21:1 22:14 23:2 26:5 27:15 28:5 29:3 30:16 31:1 34:7 35:16 36:14 37:13 38:16 39:8 42:1 43:6 44:12 45:15 46:14 47:3 52:1 53:13 54:7 60:3 61:16 62:1 #
0.50000003576649798553432901826454 4:2 5:14 6:5 7:1 11:1 12:12 13:13 14:1 15:15 16:4 19:9 20:15 21:2 22:6 23:16 24:2 26:7 27:16 28:13 29:8 30:14 31:12 34:9 35:16 36:16 37:16 38:16 39:10 44:3 45:11 46:15 47:1 53:14 54:10 60:2 61:16 62:4 #
0.48139394975091848172255026838684 4:11 5:12 11:6 12:16 13:6 18:3 19:16 20:6 22:5 23:3 26:10 27:16 29:2 30:15 31:10 34:6 35:16 36:14 37:14 38:14 39:1 43:2 44:4 45:16 46:10 52:8 53:16 54:4 60:10 61:14 #
-0.31172713054265105414586400911503 4:5 5:12 6:11 7:1 11:3 12:14 13:6 14:7 15:11 18:5 19:16 20:2 21:1 22:9 23:9 26:8 27:14 28:8 29:14 30:16 31:1 34:1 35:7 36:8 37:13 38:10 44:1 45:14 46:4 52:5 53:13 60:11 61:7 #
-0.29899942131900375530406677171413 4:7 5:16 6:16 7:5 11:8 12:15 13:6 14:13 15:11 18:2 19:15 20:5 22:13 23:10 26:10 27:16 28:10 29:13 30:16 31:11 34:2 35:11 36:16 37:16 38:16 39:6 44:1 45:16 46:8 52:7 53:16 54:1 60:10 61:12 #
-0.30358735261554758988467028757441 4:8 5:16 6:13 7:1 11:4 12:16 13:11 14:13 15:9 18:6 19:15 20:10 22:11 23:11 26:8 27:16 28:13 29:14 30:16 31:9 34:1 35:9 36:8 37:11 38:16 39:4 45:12 46:12 52:6 53:16 54:2 60:11 61:10 #
0.50000003576649798553432901826454 2:1 3:15 4:10 10:7 11:16 12:5 13:1 14:13 15:6 18:9 19:16 20:3 21:9 22:16 23:4 26:3 27:15 28:16 29:16 30:11 35:2 36:14 37:15 38:3 43:3 44:16 45:8 51:12 52:15 58:1 59:16 60:5 #
0.50000003576649798553432901826454 3:14 4:5 11:13 12:8 19:16 20:7 27:15 28:8 34:2 35:16 36:5 37:15 38:3 42:2 43:16 44:9 45:14 46:11 47:1 50:6 51:16 52:16 53:16 54:16 55:15 58:1 59:8 60:5 61:7 62:16 63:8 #
0.50000003576649798553432901826454 3:15 4:7 6:2 7:11 8:1 10:3 11:16 12:6 13:1 14:12 15:13 16:2 18:4 19:16 20:5 21:8 22:15 23:3 26:2 27:16 28:16 29:16 30:13 35:4 36:14 37:15 38:3 43:7 44:16 45:3 50:1 51:13 52:10 58:1 59:16 60:3 #
-0.17553857617865561979719757346174 3:7 4:13 5:16 6:11 7:4 10:1 11:16 12:5 13:2 14:13 15:12 18:4 19:14 21:4 22:15 23:4 26:2 27:15 28:13 29:16 30:8 35:1 36:8 37:15 38:1 43:1 44:13 45:5 51:9 52:10 59:12 60:6 #
-0.035276788953579642227342816340752 3:7 4:10 11:12 12:13 18:2 19:16 20:8 27:16 28:5 34:4 35:16 36:10 37:6 42:4 43:16 44:16 45:16 46:14 47:5 50:3 51:16 52:10 53:11 54:16 55:11 59:7 60:14 61:12 62:9 63:2 #
-0.50000003576649798553432901826454 4:1 5:12 6:4 11:1 12:14 13:16 14:11 19:9 20:13 21:5 22:15 23:4 26:2 27:16 28:2 30:16 31:3 34:1 35:16 36:7 37:7 38:16 39:4 43:13 44:16 45:16 46:16 47:1 51:1 52:13 53:16 54:13 60:3 61:12 62:5 #
0.50000003576649798553432901826454 4:1 5:13 6:12 7:3 11:6 12:13 13:11 14:12 15:10 18:6 19:16 20:11 21:4 22:13 23:7 26:8 27:16 28:16 29:16 30:16 31:10 35:4 36:4 37:7 38:16 39:5 45:12 46:8 53:13 54:7 61:15 62:4 #
0.50000003576649798553432901826454 4:1 5:13 6:13 11:5 12:15 13:15 14:16 18:3 19:15 20:8 21:7 22:14 26:11 27:15 28:9 29:15 30:16 31:9 34:8 35:16 36:14 37:15 38:15 39:5 45:12 46:8 53:12 54:6 61:12 62:4 #
0.50000003576649798553432901826454 4:6 5:10 6:1 7:15 8:6 11:5 12:16 13:4 14:8 15:15 16:1 18:1 19:15 20:8 21:2 22:15 23:8 26:4 27:16 28:14 29:13 30:15 34:1 35:15 36:16 37:16 38:13 43:3 44:10 45:15 52:11 53:14 54:1 60:10 61:15 #
-0.16107352738067043373959563723474 4:1 5:9 6:13 7:5 11:3 12:13 13:10 14:12 15:9 19:11 20:8 22:13 23:3 26:1 27:15 28:14 29:11 30:16 31:2 35:1 36:8 37:10 38:14 45:7 46:13 53:10 54:9 61:13 62:5 #
-0.091338534527944006957689282444335 4:5 5:12 6:16 7:8 10:1 11:10 12:16 13:15 14:16 15:5 18:10 19:16 20:13 21:13 22:16 23:2 26:3 27:12 28:13 29:14 30:16 31:2 37:8 38:15 45:12 46:15 52:1 53:16 54:8 60:6 61:16 62:7 #
-0.15747801542170333788384084527934 4:1 5:8 6:15 7:10 11:3 12:15 13:15 14:16 15:12 19:16 20:9 21:6 22:16 23:2 26:4 27:16 28:9 29:13 30:16 31:1 35:10 36:12 37:15 38:16 45:10 46:12 53:10 54:11 61:6 62:6 #
0.50000003576649798553432901826454 4:4 5:13 6:2 12:14 13:8 19:5 20:14 22:9 23:7 26:2 27:16 28:3 29:5 30:16 31:5 34:7 35:14 37:12 38:13 42:7 43:16 44:13 45:15 46:11 51:5 52:13 53:16 54:16 55:2 60:3 61:14 62:2 #
0.50000003576649798553432901826454 5:7 6:7 12:4 13:15 14:1 20:13 21:6 22:9 23:1 27:8 28:12 30:14 31:3 34:3 35:16 36:3 37:2 38:16 42:5 43:16 44:16 45:13 46:16 47:4 51:1 52:7 53:12 54:14 55:2 61:9 62:10 #
0.16722116181586685335069830671273 5:10 6:9 12:5 13:15 14:3 19:3 20:16 21:6 22:2 23:1 27:13 28:9 30:11 31:6 34:6 35:16 36:1 37:1 38:16 39:4 42:8 43:16 44:14 45:14 46:16 47:4 50:1 51:6 52:7 53:15 54:13 61:10 62:9 #
-0.10872877174761994001350728922262 2:2 3:14 4:14 5:1 10:4 11:16 12:11 13:4 14:6 18:4 19:16 20:4 21:12 22:16 23:2 27:13 28:16 29:16 30:6 35:13 36:16 37:10 43:15 44:16 45:4 50:4 51:16 52:16 53:7 58:2 59:13 60:15 61:1 #
-0.12068812723068807202242425091754 3:8 4:16 5:2 6:3 11:15 12:11 13:5 14:16 15:1 19:16 20:4 21:9 22:16 23:1 27:8 28:13 29:15 30:12 35:8 36:16 37:13 43:13 44:16 45:7 50:1 51:16 52:16 53:7 59:8 60:13 61:1 #
-0.10211759380412385733727376191382 5:11 6:15 7:2 12:9 13:16 14:16 15:3 18:1 19:10 20:16 21:16 22:12 26:9 27:16 28:16 29:16 30:13 34:11 35:14 36:8 37:16 38:9 45:16 46:12 53:15 54:13 61:12 62:10 #
0.50000003576649798553432901826454 3:1 4:14 5:6 6:9 7:5 11:11 12:12 13:3 14:16 15:7 18:5 19:16 20:2 21:12 22:11 23:3 26:10 27:16 28:8 29:16 30:16 31:14 34:7 35:16 36:16 37:14 38:11 39:3 43:3 44:13 45:8 52:15 53:5 59:2 60:16 61:2 #
0.50000003576649798553432901826454 3:3 4:16 11:10 12:10 13:3 14:5 19:16 20:5 21:12 22:10 26:4 27:15 28:2 29:15 30:4 34:10 35:13 36:9 37:15 38:10 39:11 42:3 43:14 44:16 45:14 46:8 47:2 52:15 53:6 59:3 60:15 #
0.50000003576649798553432901826454 3:10 4:16 5:2 11:11 12:15 18:3 19:16 20:7 26:10 27:16 28:5 29:7 30:12 31:5 34:5 35:16 36:16 37:16 38:15 39:3 43:4 44:16 45:15 46:3 51:7 52:16 53:3 59:8 60:15 61:2 #
-0.4405118814266745230767696739349 3:2 4:14 5:15 6:2 11:13 12:15 13:14 14:8 19:16 20:6 21:11 22:10 26:1 27:9 28:8 29:15 30:9 34:10 35:16 36:16 37:16 38:16 39:9 42:1 43:4 44:8 45:16 46:5 47:5 52:14 53:13 59:2 60:16 61:6 #
-0.16435288659714436532155446002434 3:1 4:6 5:12 6:14 7:4 11:4 12:13 13:8 14:3 19:13 20:4 26:3 27:15 28:5 29:2 34:8 35:16 36:16 37:16 38:12 42:2 43:4 44:3 45:7 46:15 47:3 52:2 53:7 54:14 55:1 60:8 61:12 62:4 #
-0.11036529235324399333961764568812 3:5 4:13 5:16 6:3 10:1 11:15 12:15 13:16 14:8 18:5 19:8 20:5 21:16 22:11 26:2 27:12 28:16 29:16 30:16 31:10 34:2 35:14 36:16 37:15 38:10 39:5 43:1 44:16 45:11 51:5 52:16 53:8 59:8 60:14 61:2 #
0.50000003576649798553432901826454 3:14 4:9 11:8 12:16 19:8 20:12 22:2 23:1 27:12 28:8 30:13 31:9 34:1 35:16 36:4 38:16 39:8 42:5 43:16 46:15 47:6 50:8 51:16 52:16 53:16 54:16 55:12 58:1 59:8 60:8 61:8 62:13 63:7 #
0.50000003576649798553432901826454 5:11 6:12 12:8 13:16 14:4 19:2 20:16 21:12 22:1 26:4 27:15 28:16 29:13 30:14 31:11 34:13 35:16 36:16 37:16 38:16 39:10 45:10 46:16 47:6 53:11 54:16 55:2 61:14 62:13 #
0.50000003576649798553432901826454 4:12 5:8 11:6 12:15 13:1 18:2 19:15 20:6 23:6 26:8 27:14 28:1 30:7 31:15 32:1 34:13 35:10 37:6 38:16 39:6 42:15 43:14 44:14 45:16 46:12 50:7 51:12 52:12 53:16 54:2 60:14 61:6 #
-0.14084250744292584056616135512741 4:5 5:8 6:12 7:10 11:11 12:14 13:4 14:15 15:8 18:4 19:16 20:14 21:11 22:16 23:7 26:7 27:16 28:16 29:16 30:14 31:7 34:1 35:8 36:6 38:7 39:8 46:5 47:8 53:3 54:13 55:6 60:4 61:16 62:8 #
-0.19470356119625842339360133337323 4:1 5:10 6:16 7:6 11:3 12:14 13:8 14:6 15:16 16:6 19:11 20:4 22:6 23:16 24:2 26:4 27:12 28:2 29:5 30:16 31:11 34:6 35:16 36:15 37:8 38:15 39:4 45:4 46:9 53:10 54:4 60:1 61:13 62:1 #
-0.15032470662218161416845418898447 3:2 4:10 5:7 10:3 11:16 12:11 13:8 14:6 18:4 19:13 22:8 26:4 27:16 28:9 29:11 30:11 35:10 36:16 37:16 38:15 39:2 43:4 44:16 45:4 46:3 47:8 51:8 52:9 54:2 55:9 59:3 60:11 61:8 62:8 63:4 #
0.50000003576649798553432901826454 4:10 5:13 11:5 12:16 13:8 14:3 19:11 20:13 21:7 22:16 26:7 27:16 28:10 29:14 30:15 31:8 34:11 35:16 36:16 37:16 38:16 39:9 42:1 43:4 44:10 45:16 46:3 52:12 53:15 60:13 61:8 #
0.35133103656788466917504365483182 4:10 5:10 11:3 12:15 13:5 14:5 19:11 20:10 21:8 22:12 26:5 27:16 28:5 29:13 30:10 31:2 34:11 35:16 36:16 37:16 38:15 39:8 43:4 44:9 45:14 46:1 52:9 53:9 60:13 61:4 #
0.50000003576649798553432901826454 4:13 5:4 11:4 12:16 13:9 14:9 19:12 20:8 21:10 22:9 26:7 27:15 28:4 29:15 30:8 31:1 34:11 35:16 36:16 37:16 38:16 39:10 42:1 43:4 44:10 45:12 52:12 53:8 60:12 61:5 #
-0.12783194601824812708379397463432 3:2 4:15 5:16 6:14 7:5 11:5 12:15 13:8 14:13 15:11 18:2 19:11 20:12 21:7 22:15 23:8 26:7 27:16 28:16 29:16 30:8 31:1 34:2 35:15 36:16 37:8 43:7 44:16 45:12 51:4 52:16 53:16 59:2 60:14 61:14 #
-0.1127844209569699718276325484112 4:11 5:10 6:5 7:8 8:5 11:5 12:14 13:13 14:16 15:13 16:3 19:12 20:5 21:1 22:15 23:3 27:7 28:1 29:9 30:9 35:9 36:16 37:16 38:16 39:6 44:6 45:12 46:4 47:1 52:13 53:5 59:2 60:13 61:1 #
-0.22603342421281902296925636619562 4:7 5:8 6:2 11:2 12:15 13:16 14:8 19:4 20:16 21:16 22:8 27:8 28:16 29:16 30:9 34:3 35:16 36:16 37:16 38:16 42:1 43:6 44:9 45:16 46:16 52:7 53:16 54:16 55:2 60:7 61:11 62:3 #
0.50000003576649798553432901826454 3:12 4:8 5:2 11:16 12:6 13:14 14:6 18:2 19:16 20:10 21:16 26:10 27:13 28:14 29:10 30:4 31:1 34:8 35:16 36:16 37:16 38:16 39:10 43:13 44:15 45:4 46:4 47:1 51:12 52:12 58:1 59:14 60:5 #
0.50000003576649798553432901826454 4:4 5:16 6:2 12:8 13:16 20:14 21:11 27:7 28:15 29:1 35:15 36:11 37:9 38:3 42:9 43:16 44:11 45:16 46:9 50:13 51:16 52:16 53:16 54:16 55:6 58:1 60:8 61:16 62:5 #
0.50000003576649798553432901826454 5:10 6:7 13:15 14:5 20:4 21:16 22:3 28:7 29:15 30:3 34:3 35:7 36:14 37:12 38:16 39:1 41:1 42:14 43:16 44:16 45:16 46:15 50:9 51:10 52:14 53:16 54:16 61:12 62:9 #
-0.16507085644524513434738821615611 4:6 5:16 6:10 11:3 12:15 13:15 14:4 19:5 20:16 21:8 27:10 28:16 29:4 35:10 36:16 37:8 38:1 42:1 43:15 44:16 45:16 46:15 47:2 50:1 51:13 52:16 53:15 54:16 55:7 60:5 61:15 62:15 63:5 #
-0.10670821302429765731201172229703 3:9 4:16 5:6 11:15 12:10 13:15 14:2 19:5 20:2 21:16 22:2 27:2 28:7 29:16 30:3 34:7 35:16 36:16 37:16 38:16 39:8 42:1 43:5 44:14 45:6 47:1 51:9 52:12 59:10 60:8 #
-0.14641973827169066368902861086099 4:1 5:11 6:10 12:5 13:16 14:16 15:2 20:6 21:16 22:16 23:2 28:12 29:16 30:16 35:7 36:16 37:16 38:8 42:6 43:16 44:16 45:16 46:9 50:2 51:12 52:12 53:16 54:11 61:12 62:11 #
0.50000003576649798553432901826454 4:5 5:15 11:1 12:15 13:11 19:3 20:16 21:16 22:7 27:10 28:15 29:13 30:12 34:1 35:15 36:14 37:15 38:16 39:9 42:8 43:16 44:16 45:16 46:14 47:6 50:2 51:10 52:10 53:16 54:7 60:6 61:15 62:2 #
0.50000003576649798553432901826454 3:7 4:13 7:3 8:8 11:15 12:7 14:3 15:15 16:7 19:16 20:12 21:6 22:14 23:9 27:6 28:12 29:16 30:12 36:2 37:14 38:2 44:9 45:9 51:2 52:13 53:1 59:8 60:5 #
0.50000003576649798553432901826454 3:6 4:14 7:12 8:6 11:15 12:13 14:6 15:16 16:6 18:2 19:16 20:12 21:4 22:16 23:12 26:1 27:14 28:16 29:16 30:16 31:7 35:1 36:8 37:16 38:7 44:12 45:16 46:2 51:3 52:16 53:6 59:7 60:15 #
-0.07226912433020397930061307079086 3:3 4:15 5:9 6:1 11:11 12:14 13:16 14:14 15:1 18:4 19:14 20:1 21:3 22:11 23:8 26:8 27:9 30:8 31:8 34:8 35:8 37:1 38:15 39:4 42:7 43:9 45:7 46:13 50:3 51:14 52:10 53:15 54:3 59:5 60:13 61:4 #
-0.020940649635578317822037774931232 3:9 4:15 5:16 6:16 7:10 11:15 12:11 13:11 14:16 15:4 21:12 22:11 27:2 28:8 29:16 30:16 31:12 35:14 36:16 37:13 38:8 39:2 43:5 44:16 45:6 51:8 52:14 59:13 60:9 #
-0.007428647269510590955832185500185 3:8 4:16 5:11 10:1 11:15 12:15 13:14 14:9 18:1 19:15 20:12 22:12 23:6 27:16 28:7 30:10 31:4 35:16 36:6 38:10 39:8 42:3 43:16 44:3 46:15 47:3 50:1 51:14 52:14 53:12 54:16 59:7 60:13 61:16 62:8 #
0.50000003576649798553432901826454 4:9 5:15 11:5 12:16 13:12 19:13 20:15 21:2 26:5 27:16 28:8 34:11 35:16 36:2 37:2 38:8 39:3 42:13 43:16 44:14 45:15 46:16 47:6 50:3 51:15 52:16 53:16 54:12 59:2 60:12 61:16 62:5 #
0.50000003576649798553432901826454 2:1 3:14 4:7 10:8 11:16 12:2 14:3 15:5 18:10 19:12 21:1 22:14 23:11 26:9 27:15 28:1 29:9 30:16 31:3 34:1 35:15 36:16 37:16 38:8 43:5 44:16 45:13 46:5 51:12 52:13 58:2 59:16 60:6 #
0.50000003576649798553432901826454 3:7 4:16 5:2 7:4 11:15 12:12 14:4 15:16 16:3 18:6 19:16 20:2 21:2 22:15 23:10 26:10 27:14 29:12 30:12 31:1 34:9 35:16 36:16 37:16 38:10 42:1 43:8 44:16 45:9 46:1 51:7 52:14 53:1 59:10 60:8 #
-0.12122708097529324988705923260568 4:10 5:15 6:4 11:5 12:16 13:14 14:3 19:12 20:15 21:1 26:1 27:15 28:8 34:4 35:16 36:12 37:2 42:3 43:16 44:16 45:15 46:4 51:12 52:14 53:16 54:10 59:1 60:9 61:15 62:10 #
-0.10621290645657206763718960473852 3:1 4:11 5:11 6:1 11:9 12:16 13:15 14:3 18:1 19:15 20:6 26:5 27:14 34:7 35:11 37:1 38:2 42:4 43:14 44:5 45:15 46:16 47:7 50:1 51:12 52:16 53:16 54:12 55:15 59:2 60:11 61:16 62:14 63:9 #
-0.1050216440167775072689337889642 4:10 5:16 6:10 11:9 12:16 13:12 14:8 18:1 19:15 20:13 21:1 26:2 27:16 28:5 34:2 35:16 36:8 42:2 43:16 44:16 45:9 50:1 51:12 52:16 53:16 54:3 60:12 61:16 62:7 #
0.50000003576649798553432901826454 5:11 6:12 12:2 13:15 14:8 20:9 21:15 22:3 27:5 28:15 29:4 30:15 31:5 35:13 36:10 38:16 39:4 42:10 43:15 44:4 45:10 46:16 47:3 50:15 51:16 52:16 53:16 54:15 55:3 59:1 61:11 62:12 #
0.50000003576649798553432901826454 4:5 5:8 11:4 12:16 13:2 15:14 19:9 20:8 22:8 23:8 26:2 27:15 29:1 30:15 34:10 35:9 36:4 37:9 38:15 39:1 42:11 43:16 44:16 45:16 46:11 47:1 50:3 51:4 52:7 53:9 60:8 61:5 #
0.50000003576649798553432901826454 4:4 5:15 6:7 12:6 13:15 14:1 20:12 21:8 22:4 23:15 27:4 28:14 29:1 30:12 31:12 34:8 35:15 36:13 37:8 38:16 39:6 41:6 42:16 43:16 44:16 45:16 46:14 49:3 50:7 51:6 52:9 53:16 54:9 60:5 61:13 62:2 #
-0.16010039924746316541970259095251 2:1 3:13 4:5 10:4 11:14 18:4 19:8 21:1 22:6 23:1 26:5 27:8 28:1 29:11 30:16 31:5 34:4 35:10 36:7 37:16 38:16 39:7 42:4 43:14 44:10 45:16 46:16 47:3 50:1 51:16 52:16 53:16 54:10 59:10 60:14 61:9 62:2 #
-0.15144002190244565397847509302665 2:5 3:16 4:16 5:16 6:3 10:8 11:7 12:5 13:16 14:2 18:3 19:5 20:10 21:14 26:7 27:16 28:16 29:15 30:12 31:6 35:9 36:14 37:11 38:14 39:6 43:16 44:6 50:3 51:15 52:2 58:7 59:12 #
-0.18192810662492442386195534709259 3:6 4:9 5:4 6:1 11:6 12:16 13:16 14:9 15:1 19:4 20:16 21:1 22:13 23:7 28:14 29:5 30:12 31:8 34:1 35:10 36:15 37:16 38:10 42:6 43:15 44:9 45:16 46:1 50:7 51:13 52:8 53:14 54:4 59:6 60:10 61:13 62:1 #
0.50000003576649798553432901826454 4:8 5:15 11:3 12:16 13:10 18:1 19:14 20:15 26:4 27:16 28:10 34:2 35:14 36:16 37:16 38:16 39:6 43:3 44:12 45:16 46:15 47:2 52:3 53:16 54:10 60:4 61:13 62:3 #
0.50000003576649798553432901826454 5:6 6:11 12:3 13:15 14:12 19:5 20:14 21:10 22:12 26:2 27:15 28:6 29:5 30:9 34:6 35:15 36:12 37:15 38:16 39:8 42:1 43:8 44:8 45:12 46:12 47:2 53:8 54:8 61:5 62:11 #
0.50000003576649798553432901826454 3:5 4:16 5:1 11:11 12:11 15:6 16:5 19:14 20:7 22:2 23:15 24:6 26:3 27:16 28:10 29:1 30:12 31:12 35:14 36:16 37:16 38:16 39:4 43:1 44:11 45:16 46:7 52:13 53:10 59:7 60:15 61:1 #
-0.014535192953395647749714747476446 5:6 6:14 7:2 13:10 14:16 15:4 20:6 21:16 22:16 23:2 27:8 28:15 29:16 30:15 34:4 35:16 36:11 37:12 38:16 42:1 43:4 44:1 45:8 46:15 53:8 54:12 61:6 62:16 63:2 #
-0.12627892716753807977880796897807 2:1 3:15 4:6 10:7 11:16 12:16 18:11 19:14 20:16 26:2 27:8 28:15 35:14 36:10 42:5 43:16 44:3 50:10 51:16 52:16 53:16 54:12 55:5 58:3 59:15 60:16 61:12 62:14 63:14 #
-0.15784820172923219594451893499354 2:2 5:9 6:7 10:15 11:16 12:16 13:16 14:9 18:1 19:5 20:4 21:16 22:7 26:1 27:4 28:4 29:16 30:7 34:5 35:16 36:16 37:16 38:15 39:2 43:3 44:1 45:14 46:6 53:13 54:7 61:10 62:11 #
0.50000003576649798553432901826454 3:1 4:13 5:10 11:9 12:16 13:4 18:1 19:16 20:8 22:4 26:4 27:16 28:16 29:16 30:16 31:6 35:8 36:8 37:12 38:16 39:5 44:1 45:16 46:13 52:13 53:16 54:3 59:2 60:15 61:5 #
0.50000003576649798553432901826454 3:11 4:15 5:2 10:1 11:16 12:16 13:1 18:6 19:16 20:13 21:6 22:8 23:2 26:10 27:16 28:16 29:16 30:16 31:8 34:1 35:5 36:10 37:16 38:15 44:8 45:15 46:3 51:2 52:16 53:9 59:10 60:16 61:3 #
0.50000003576649798553432901826454 3:10 4:7 10:1 11:14 12:8 18:5 19:16 20:3 21:2 22:8 23:4 26:7 27:16 28:14 29:16 30:15 31:5 35:4 36:8 37:16 38:12 44:6 45:16 46:2 51:5 52:16 53:7 59:11 60:9 #
-0.060954440571883018729071324059987 3:5 4:15 5:12 6:3 11:9 12:12 13:10 14:3 19:14 20:6 27:15 28:16 29:16 30:3 35:7 36:8 37:10 38:10 45:5 46:13 51:4 52:12 53:16 54:11 59:6 60:16 61:11 62:2 #
-0.051289597229847522230627987482876 3:7 4:12 5:14 6:6 10:7 11:16 12:14 13:14 14:6 18:5 19:16 20:10 21:3 26:6 27:16 28:16 29:16 30:6 34:3 35:7 36:4 37:10 38:14 45:10 46:15 47:1 51:2 52:15 53:16 54:8 59:5 60:16 61:9 #
-0.067118971233614960203439636643452 3:9 4:16 5:15 6:4 11:12 12:14 13:12 14:16 15:1 20:10 21:16 22:14 27:2 28:16 29:16 30:10 31:1 36:4 37:8 38:13 39:13 46:4 47:16 48:2 51:9 52:6 53:9 54:15 55:15 59:10 60:16 61:16 62:14 63:3 #
0.50000003576649798553432901826454 4:5 5:4 6:1 12:14 13:8 14:12 19:4 20:13 21:4 22:12 27:12 28:5 29:7 30:9 34:2 35:16 36:4 37:13 38:16 39:7 42:10 43:16 44:16 45:16 46:11 47:1 50:5 51:6 52:7 53:15 60:7 61:7 #
0.50000003576649798553432901826454 4:4 5:8 12:11 13:8 20:13 21:6 27:2 28:15 29:2 30:3 35:11 36:10 37:4 38:16 39:2 42:11 43:14 45:9 46:16 47:2 50:9 51:15 52:12 53:15 54:16 59:2 60:6 61:15 62:6 #
0.50000003576649798553432901826454 5:13 6:7 13:14 14:7 20:3 21:15 22:2 27:1 28:13 29:7 30:11 31:2 34:5 35:14 36:16 37:10 38:16 39:2 42:15 43:16 44:16 45:16 46:15 47:1 53:10 54:12 61:15 62:7 #
-0.12936216675326150937763713955064 3:6 4:16 5:13 6:11 7:5 11:1 12:8 13:10 14:16 15:15 21:1 22:14 23:13 29:7 30:16 31:5 34:3 35:4 36:1 37:12 38:16 42:12 43:16 44:16 45:16 46:13 47:2 51:3 52:14 53:15 59:6 60:16 61:7 #
-0.14365081370624480094910779826023 4:1 5:12 6:4 12:9 13:14 19:2 20:16 21:5 27:5 28:16 29:9 30:2 34:2 35:16 36:16 37:13 38:16 39:8 43:9 44:15 46:2 47:15 52:15 53:8 54:8 55:16 56:3 60:3 61:11 62:13 63:10 #
-0.12297704491277898497525455923096 3:8 4:16 5:16 6:16 7:12 8:3 11:2 12:2 14:5 15:16 16:8 22:5 23:15 24:1 29:1 30:13 31:8 34:1 35:8 36:8 37:10 38:16 39:1 42:3 43:12 44:15 45:16 46:11 47:3 51:2 52:15 53:7 59:11 60:11 #
0.50000003576649798553432901826454 5:13 6:5 12:9 13:13 14:1 19:8 20:14 21:1 22:5 23:7 26:4 27:16 28:14 29:13 30:16 31:8 34:2 35:8 36:8 37:12 38:16 39:2 45:10 46:13 53:14 54:9 61:13 62:3 #
0.50000003576649798553432901826454 4:4 5:12 8:10 11:3 12:15 13:5 15:11 16:13 19:11 20:12 22:4 23:16 24:4 26:2 27:16 28:12 29:3 30:14 31:10 34:4 35:16 36:16 37:16 38:15 39:1 43:10 44:10 45:16 46:8 52:3 53:15 54:2 60:7 61:11 #
0.50000003576649798553432901826454 3:2 4:13 5:13 10:1 11:14 12:13 13:2 18:6 19:16 20:3 26:7 27:16 28:6 30:10 31:7 34:1 35:14 36:16 37:14 38:16 39:10 43:5 44:15 45:16 46:11 52:11 53:16 59:3 60:16 61:8 #
-0.053093446114202615115917893717778 3:1 4:10 5:9 11:7 12:16 13:14 18:4 19:14 20:16 21:15 26:12 27:14 28:16 29:16 36:15 37:16 38:2 44:14 45:16 46:2 52:12 53:15 60:6 61:16 62:2 #
-0.14816879157855694648660005441343 3:15 4:2 10:5 11:16 12:15 13:11 14:5 18:7 19:16 20:15 21:12 22:13 23:4 26:1 27:15 28:7 35:5 36:16 37:5 44:10 45:14 51:1 52:12 53:15 59:11 60:16 61:6 #
-0.12493100592904440859776116212743 2:4 3:15 4:9 5:8 6:8 7:1 10:4 11:16 12:16 13:16 14:16 15:8 18:9 19:15 20:2 21:15 22:14 23:1 26:5 27:5 28:5 29:16 30:4 36:12 37:12 43:7 44:15 45:2 50:3 51:16 52:7 58:6 59:16 60:4 #
0.50000003576649798553432901826454 4:6 5:13 11:3 12:15 13:5 19:12 20:9 23:4 24:5 26:5 27:16 28:2 30:3 31:16 32:2 34:9 35:14 36:2 37:9 38:15 39:8 42:7 43:16 44:15 45:13 46:11 47:1 51:2 52:1 53:14 54:2 60:6 61:9 #
0.50000003576649798553432901826454 4:4 5:15 6:7 12:15 13:15 14:1 19:8 20:16 21:2 26:4 27:16 28:7 29:6 30:9 34:10 35:16 36:13 37:16 38:16 41:2 42:16 43:16 44:12 45:15 46:11 49:4 50:9 51:4 52:3 53:16 54:7 60:5 61:16 62:5 #
0.50000003576649798553432901826454 3:5 4:9 5:13 6:8 11:4 12:16 13:15 14:3 19:13 20:14 21:2 22:6 23:3 26:5 27:16 28:5 29:11 30:16 31:8 34:7 35:16 36:16 37:16 38:14 39:1 42:3 43:8 44:16 45:16 46:4 51:5 52:16 53:10 59:10 60:12 61:3 #
-0.15858294457382504649700649679289 5:11 6:8 12:2 13:16 14:8 20:6 21:16 22:2 28:7 29:15 36:10 37:14 43:13 44:16 45:16 46:11 51:7 52:7 53:16 54:16 55:10 61:8 62:16 63:15 #
-0.068954011251520438974260684972251 3:8 4:15 5:16 6:11 10:13 11:16 12:12 13:6 14:4 17:1 18:16 19:7 26:12 27:14 28:1 34:1 35:14 36:10 43:4 44:16 45:4 51:2 52:14 53:8 59:11 60:15 61:3 #
-0.056948683814313880158231029326998 3:8 4:15 5:14 6:1 11:15 12:15 13:7 19:14 20:15 21:9 22:2 27:10 28:15 29:14 30:14 31:3 35:1 36:1 38:11 39:12 46:3 47:16 48:1 50:2 51:14 52:6 53:4 54:7 55:16 56:3 59:9 60:16 61:16 62:16 63:13 64:1 #
0.50000003576649798553432901826454 4:7 5:5 7:1 11:5 12:13 13:1 15:14 16:4 18:1 19:16 20:3 22:9 23:7 26:3 27:16 28:7 29:4 30:16 31:3 34:2 35:15 36:16 37:16 38:14 39:4 45:14 46:6 52:3 53:16 54:1 60:8 61:7 #
0.50000003576649798553432901826454 5:15 6:7 12:2 13:16 14:8 20:10 21:16 22:3 26:7 27:16 28:16 29:4 30:12 31:12 34:1 35:13 36:16 37:16 38:16 39:9 43:1 44:7 45:14 46:16 53:13 54:15 61:16 62:11 #
0.50000003576649798553432901826454 4:1 5:14 6:10 12:9 13:15 14:2 19:1 20:14 21:5 23:2 27:11 28:9 30:8 31:14 34:7 35:14 38:14 39:10 41:4 42:16 43:15 44:11 45:9 46:16 47:4 49:1 50:12 51:14 52:16 53:16 54:12 61:14 62:6 #
-0.098583014607006191898364022563328 3:12 4:7 11:9 12:15 19:11 20:16 21:5 27:10 28:16 29:7 36:11 37:14 44:6 45:16 46:2 51:14 52:16 53:16 54:13 55:12 56:3 59:8 60:15 61:15 62:14 63:16 64:11 #
-0.13939566604919051417965647488018 3:8 4:15 5:15 6:12 7:4 11:15 12:4 13:3 14:10 15:16 19:8 20:14 21:12 22:16 23:12 28:2 29:4 30:9 31:8 38:9 39:7 42:1 43:1 46:12 47:4 50:7 51:11 52:1 53:4 54:12 55:1 59:10 60:16 61:13 62:3 #
-0.12282620630402883710186046073431 3:2 4:15 5:12 11:3 12:16 13:14 14:10 20:5 21:13 22:16 23:2 30:12 31:8 38:7 39:11 46:7 47:13 51:2 53:2 54:11 55:11 59:3 60:13 61:15 62:16 63:6 #
0.50000003576649798553432901826454 4:14 5:6 11:6 12:16 13:5 14:5 19:14 20:10 21:10 22:10 26:4 27:16 28:3 29:13 30:10 34:11 35:16 36:9 37:16 38:15 39:7 42:16 43:16 44:16 45:16 46:15 47:4 50:4 51:4 52:13 53:16 54:2 59:1 60:15 61:11 #
0.50000003576649798553432901826454 4:11 5:7 6:5 7:8 11:5 12:16 13:1 14:15 15:8 18:1 19:14 20:9 21:5 22:16 23:2 26:6 27:14 28:1 29:12 30:11 31:2 34:12 35:14 36:8 37:16 38:16 39:10 42:9 43:16 44:16 45:15 46:5 51:1 52:10 53:12 60:11 61:9 #
0.50000003576649798553432901826454 4:11 5:8 12:13 13:7 19:3 20:16 21:6 22:15 27:9 28:11 29:7 30:14 34:1 35:15 36:6 37:12 38:13 39:1 42:7 43:16 44:16 45:16 46:16 47:11 50:5 51:12 52:13 53:16 54:8 55:3 60:12 61:12 #
-0.1664837239678767233375111800342 4:12 5:13 11:4 12:16 13:16 14:9 19:2 20:16 21:6 22:14 26:4 27:3 28:13 29:7 30:9 31:5 34:8 35:12 36:3 37:16 38:12 39:8 43:14 44:5 45:1 46:12 47:8 51:10 52:14 53:13 54:16 55:2 60:13 61:16 62:6 #
-0.50000003576649798553432901826454 4:9 5:16 6:10 11:3 12:15 13:12 14:15 15:4 18:1 19:12 20:14 21:1 22:15 23:11 26:8 27:16 28:12 29:14 30:16 31:7 34:7 35:16 36:16 37:16 38:12 43:7 44:8 45:16 46:5 52:8 53:13 60:9 61:11 #
-0.10876385785611909773340499896221 3:4 4:16 5:12 6:1 11:10 12:15 13:13 14:11 19:5 20:12 21:5 22:16 29:8 30:15 36:1 37:15 38:12 44:11 45:16 46:10 51:5 52:16 53:16 54:16 55:16 56:6 59:6 60:16 61:5 62:5 63:10 64:13 #
0.50000003576649798553432901826454 4:1 5:13 6:10 12:10 13:15 14:3 19:7 20:16 21:6 22:1 23:14 24:1 26:3 27:16 28:8 30:9 31:15 34:14 35:16 36:16 37:12 38:16 39:10 42:6 43:13 44:16 45:16 46:16 47:6 53:14 54:12 60:2 61:15 62:3 #
0.50000003576649798553432901826454 4:1 5:15 6:10 12:9 13:16 14:4 19:1 20:15 21:12 27:9 28:16 29:3 34:1 35:15 36:10 38:15 39:11 42:8 43:16 44:16 45:16 46:16 47:8 51:4 52:8 53:16 54:12 60:4 61:16 62:7 #
0.50000003576649798553432901826454 4:2 5:12 6:6 7:14 11:1 12:15 13:13 14:8 15:10 18:2 19:15 20:7 22:15 23:4 26:9 27:15 28:7 29:7 30:16 31:5 34:8 35:16 36:16 37:16 38:16 39:10 42:1 43:4 44:4 45:13 46:8 52:3 53:15 54:1 60:3 61:14 #
-0.12746540064634925837339096688083 3:12 4:16 5:15 6:1 10:2 11:16 12:6 13:16 14:2 18:1 19:16 20:13 21:13 27:10 28:16 29:5 34:2 35:15 36:16 37:12 38:1 42:10 43:12 44:2 45:11 46:12 50:8 51:13 52:4 54:13 55:9 59:7 60:15 61:16 62:16 63:6 #
-0.13220722368311965677634134408436 3:9 4:14 5:12 6:8 10:8 11:13 13:2 14:16 15:2 18:11 19:14 20:14 21:14 22:6 26:1 27:14 28:16 29:13 30:1 34:3 35:15 36:4 37:6 38:12 42:1 43:15 46:8 47:9 50:3 51:16 52:1 53:3 54:13 55:6 59:8 60:16 61:13 62:6 #
-0.094512469297259926737098112425883 2:4 3:15 4:16 5:16 6:12 7:1 10:15 11:13 12:5 13:5 14:16 15:8 18:7 19:3 21:10 22:16 23:4 27:1 28:11 29:16 30:10 35:7 36:16 37:10 43:1 44:7 45:16 46:6 50:3 51:8 52:6 53:16 54:10 58:5 59:16 60:16 61:12 62:1 #
0.50000003576649798553432901826454 4:11 5:13 6:1 7:3 12:15 13:8 14:13 15:13 19:9 20:15 21:4 22:16 23:7 26:5 27:16 28:13 29:12 30:16 31:8 34:8 35:16 36:16 37:16 38:15 39:7 44:6 45:16 46:4 52:7 53:13 60:11 61:7 #
0.50000003576649798553432901826454 4:6 5:8 11:2 12:14 13:3 19:9 20:8 26:4 27:15 28:1 30:10 31:5 34:7 35:13 37:2 38:16 39:3 42:11 43:14 44:8 45:15 46:9 50:12 51:16 52:14 53:15 58:1 59:4 60:9 61:8 #
0.50000003576649798553432901826454 4:6 5:13 12:13 13:12 19:1 20:13 21:4 27:9 28:9 29:1 30:9 31:1 34:4 35:13 37:4 38:14 41:2 42:16 43:16 44:16 45:16 46:13 49:3 50:8 51:7 52:9 53:14 54:2 60:10 61:5 #
-0.11395546063972743222603156709738 3:2 4:16 5:9 11:8 12:16 13:15 18:6 19:16 20:16 21:15 22:1 28:5 29:16 30:8 37:14 38:14 45:2 46:16 47:6 51:1 52:4 53:7 54:16 55:13 60:11 61:16 62:16 63:15 64:1 #
-0.059848951232402421152034577289669 3:13 4:15 10:4 11:16 12:4 18:7 19:16 26:10 27:14 29:3 30:1 34:9 35:12 36:10 37:16 38:14 39:3 42:8 43:16 44:13 45:5 46:7 47:15 50:2 51:16 52:9 54:7 55:16 59:13 60:16 61:16 62:16 63:7 #
-0.085624026695454769075865897320909 2:4 3:16 4:16 5:16 6:14 7:3 10:1 11:8 12:8 13:8 14:15 15:10 21:5 22:16 23:6 29:13 30:12 34:8 35:16 36:16 37:16 38:15 39:8 42:3 43:11 44:16 45:9 46:8 47:3 51:14 52:12 58:5 59:16 60:2 #
0.50000003576649798553432901826454 4:7 5:15 12:9 13:15 19:2 20:15 21:7 27:9 28:16 29:11 30:5 34:9 35:16 36:16 37:16 38:15 39:7 42:5 43:12 44:14 45:16 46:16 47:8 52:8 53:16 60:8 61:15 62:1 #
0.50000003576649798553432901826454 3:5 4:14 5:1 11:10 12:14 18:1 19:16 20:6 21:1 22:9 23:3 26:8 27:16 29:11 30:15 31:1 34:10 35:16 36:8 37:16 38:6 43:6 44:14 45:16 46:4 52:13 53:16 54:2 59:2 60:16 61:9 62:1 #
0.50000003576649798553432901826454 4:9 5:14 12:13 13:11 15:4 19:2 20:16 21:6 22:6 23:15 27:9 28:14 30:14 31:10 34:12 35:16 36:14 37:13 38:15 39:1 42:11 43:14 44:14 45:16 46:12 52:7 53:16 54:5 60:14 61:13 #
-0.10795852970258593139796232662775 3:4 4:13 5:13 6:8 11:16 12:1 13:1 14:11 15:2 18:4 19:13 22:6 23:7 26:3 27:14 29:9 30:14 31:2 35:9 36:15 37:14 38:1 43:5 44:16 45:9 51:8 52:12 53:15 54:2 59:4 60:15 61:13 62:2 #
-0.11801472058569890954959902273913 2:3 3:9 4:12 5:12 6:16 7:10 10:7 11:16 12:16 13:16 14:14 15:6 18:7 19:16 20:11 21:2 26:10 27:16 28:10 29:2 34:1 35:11 36:16 37:16 38:4 43:1 44:12 45:16 46:5 51:13 52:16 53:6 58:2 59:15 60:9 #
-0.15057378726847597816274060278374 5:1 6:14 7:4 13:2 14:16 15:8 21:8 22:16 23:6 29:15 30:16 31:5 36:8 37:16 38:16 39:3 43:6 44:16 45:9 46:16 50:2 51:16 52:8 53:4 54:16 58:2 59:4 61:2 62:15 63:3 #
0.50000003576649798553432901826454 3:1 4:11 5:7 7:2 8:1 11:10 12:13 14:1 15:13 16:6 18:4 19:16 20:3 22:10 23:12 26:3 27:16 28:11 29:9 30:16 31:3 35:9 36:16 37:16 38:8 44:9 45:11 52:14 53:3 60:14 61:4 #
0.50000003576649798553432901826454 3:3 4:14 5:3 7:1 8:8 11:9 12:15 14:1 15:13 16:11 19:14 20:14 22:9 23:14 24:2 27:14 28:16 29:16 30:16 31:7 35:3 36:13 37:16 38:11 39:1 44:7 45:15 46:1 52:14 53:10 59:2 60:15 61:4 #
0.50000003576649798553432901826454 3:10 4:16 7:12 8:6 10:2 11:15 12:9 14:8 15:16 16:5 18:6 19:16 20:6 21:1 22:14 23:13 26:7 27:16 28:11 29:11 30:16 31:13 34:1 35:11 36:14 37:16 38:12 39:2 44:11 45:14 46:1 51:2 52:16 53:5 59:13 60:10 #
-0.22630784838551609716716939146863 3:2 4:15 5:16 6:12 7:2 11:13 12:12 13:4 14:12 15:12 18:6 19:16 20:1 21:3 22:13 23:12 26:11 27:16 28:15 29:16 30:16 31:9 34:1 35:7 36:9 37:16 38:11 44:9 45:15 46:1 52:14 53:10 59:4 60:16 61:3 #
-0.13298242851247737972286699914548 3:3 4:11 5:16 6:16 7:14 8:1 11:12 12:10 13:4 14:7 15:15 19:7 20:14 21:15 22:16 23:4 29:7 30:12 36:1 37:14 38:4 44:5 45:13 52:12 53:7 59:2 60:14 #
-0.083055226888382419070389062198956 3:3 4:12 5:16 6:16 7:16 8:12 11:9 12:12 13:8 14:8 15:16 16:11 19:1 21:1 22:8 23:16 24:6 27:1 28:12 29:16 30:16 31:14 32:1 36:12 37:15 38:14 39:3 44:4 45:16 46:6 52:15 53:13 59:5 60:16 61:3 #
0.50000003576649798553432901826454 4:1 5:15 6:10 12:6 13:16 14:7 20:11 21:16 27:2 28:16 29:12 30:15 31:11 34:1 35:15 36:14 37:6 38:16 39:8 42:8 43:16 44:15 45:16 46:16 47:6 50:5 51:12 52:12 53:16 54:13 55:3 60:2 61:14 62:3 #
0.50000003576649798553432901826454 4:9 5:10 11:2 12:15 13:9 19:6 20:16 21:6 27:13 28:13 29:5 30:1 34:3 35:16 36:7 37:16 38:8 41:1 42:13 43:16 44:10 45:16 46:12 50:13 51:16 52:16 53:16 54:16 55:3 58:2 59:4 60:10 61:16 62:2 #
0.50000003576649798553432901826454 4:4 5:13 6:13 11:3 12:16 13:14 14:3 18:1 19:15 20:11 21:1 22:1 26:10 27:15 30:11 31:9 34:7 35:15 36:9 37:9 38:16 39:6 43:4 44:8 45:16 46:15 47:1 52:2 53:16 54:7 60:3 61:16 62:1 #
-0.061828215333276315135435652337037 4:12 5:7 11:7 12:16 13:3 18:2 19:15 20:6 26:4 27:16 28:10 29:7 34:5 35:16 36:16 37:16 38:12 42:6 43:16 44:9 45:5 46:16 47:3 50:1 51:14 52:15 53:11 54:16 55:3 59:1 60:10 61:16 62:7 #
-0.067311350376987086341351584906079 2:1 3:10 4:16 5:15 6:4 10:9 11:16 12:7 13:7 14:15 15:2 18:12 19:13 22:12 23:8 26:12 27:12 30:6 31:11 34:10 35:12 38:4 39:12 42:7 43:14 46:6 47:11 50:2 51:16 52:5 53:3 54:14 55:4 59:10 60:16 61:16 62:12 #
-0.13160583303643214048150866801734 3:6 4:13 5:16 6:16 7:13 10:6 11:16 12:10 13:7 14:15 15:14 18:1 19:4 21:10 22:16 23:6 28:10 29:16 30:4 35:3 36:16 37:9 43:15 44:11 51:16 52:10 59:9 60:16 61:16 62:12 63:1 #
0.50000003576649798553432901826454 3:4 4:16 5:3 11:8 12:16 13:2 15:1 19:11 20:13 21:3 22:15 23:5 26:2 27:16 28:6 29:11 30:15 34:11 35:16 36:12 37:16 38:13 39:4 41:1 42:12 43:12 44:15 45:15 46:11 47:2 51:1 52:16 53:5 59:6 60:16 #
0.50000003576649798553432901826454 4:1 5:12 6:8 12:4 13:16 14:4 20:9 21:16 22:1 27:5 28:16 29:8 30:1 35:10 36:16 37:11 38:15 42:5 43:16 44:11 45:15 46:15 47:3 50:12 51:16 52:16 53:16 54:16 55:5 61:15 62:14 #
0.50000003576649798553432901826454 4:1 5:14 6:1 7:14 12:12 13:11 14:6 15:13 19:8 20:13 21:2 22:10 23:9 26:6 27:14 28:2 29:1 30:14 31:11 34:11 35:15 36:12 37:16 38:16 39:9 42:7 43:14 44:12 45:14 46:12 53:12 54:8 61:14 62:3 #
-0.10290904515978338551462911709677 3:6 4:16 5:5 10:6 11:16 12:16 13:16 14:7 18:11 19:15 20:2 21:16 22:14 26:9 27:16 28:10 29:16 30:16 31:7 34:2 35:13 36:16 37:16 38:16 39:8 46:13 47:12 51:3 52:8 53:12 54:16 55:7 59:5 60:16 61:12 62:5 #
-0.13058325633026510170786593789671 4:12 5:16 6:10 11:10 12:15 13:15 14:13 19:9 20:6 21:16 22:7 28:8 29:15 30:3 35:5 36:16 37:6 42:8 43:15 44:16 45:3 49:5 50:16 51:16 52:16 53:16 54:6 57:1 58:4 59:4 60:9 61:16 62:11 #
-0.15141989051426346657436283749121 3:2 4:6 5:12 6:16 7:16 8:2 10:2 11:15 12:16 13:9 14:5 15:16 16:5 19:5 20:1 22:2 23:16 24:2 30:8 31:10 37:4 38:16 39:7 43:10 44:13 45:16 46:13 47:1 51:9 52:13 53:16 54:1 60:7 61:12 #
0.50000003576649798553432901826454 4:3 5:15 6:6 11:1 12:13 13:13 14:1 19:10 20:16 21:9 22:8 23:1 26:3 27:16 28:10 29:12 30:16 31:1 34:9 35:16 36:5 37:16 38:13 39:3 42:7 43:16 44:16 45:16 46:16 47:11 52:7 53:16 54:7 60:3 61:16 62:8 #
0.50000003576649798553432901826454 4:8 5:15 11:3 12:16 13:10 15:6 18:1 19:13 20:14 21:2 22:10 23:15 26:7 27:16 28:16 29:13 30:15 31:13 34:3 35:10 36:14 37:16 38:16 39:10 45:13 46:15 52:3 53:16 54:8 60:9 61:15 62:1 #
0.50000003576649798553432901826454 4:10 5:14 7:3 8:1 11:5 12:16 13:6 14:1 15:14 16:5 18:2 19:15 20:8 21:3 22:10 23:13 26:8 27:16 28:14 29:16 30:16 31:8 34:5 35:11 36:6 37:15 38:13 39:3 44:1 45:15 52:7 53:10 60:13 61:3 #
-0.11506095285799308736152113397111 3:2 4:12 5:10 6:2 7:5 11:10 12:16 13:11 14:13 15:15 18:2 19:14 20:15 21:14 22:16 23:14 27:13 28:16 29:14 30:16 31:10 37:4 38:15 39:4 44:2 45:15 46:11 52:14 53:16 54:3 59:2 60:13 61:4 #
-0.1264640761347544106740770075703 3:4 4:14 5:15 6:5 10:7 11:14 12:7 13:6 14:16 18:10 19:6 22:11 23:3 26:4 27:2 29:1 30:14 37:10 38:7 44:5 45:13 46:1 51:6 52:16 53:8 59:5 60:9 61:12 62:12 63:16 64:2 #
-0.13392122360851721474261921684956 3:11 4:16 5:13 6:2 11:10 12:15 13:11 14:13 19:3 20:15 21:7 22:15 23:5 28:1 29:1 30:13 31:6 38:16 39:5 45:9 46:16 47:2 51:15 52:16 53:16 54:11 59:9 60:15 61:13 62:16 63:16 64:5 #
0.50000003576649798553432901826454 4:5 5:15 6:5 11:3 12:15 13:11 14:1 18:1 19:13 20:14 21:1 22:2 23:6 26:6 27:16 28:6 30:12 31:15 34:13 35:15 37:4 38:16 39:6 42:13 43:16 44:16 45:16 46:16 47:1 51:8 52:11 53:16 54:8 60:7 61:16 62:3 #
0.50000003576649798553432901826454 4:9 5:13 11:8 12:15 13:1 18:2 19:14 20:10 22:2 23:15 24:3 26:6 27:16 28:4 29:1 30:13 31:13 34:2 35:16 36:15 37:13 38:14 39:3 43:5 44:11 45:16 46:8 52:10 53:14 54:1 60:13 61:12 #
0.50000003576649798553432901826454 4:15 5:5 11:8 12:16 13:1 18:1 19:16 20:11 22:2 23:1 26:9 27:16 28:2 29:2 30:15 31:11 34:11 35:14 36:9 37:15 38:15 39:3 42:3 43:12 44:13 45:16 46:6 52:7 53:16 54:1 60:13 61:13 #
-0.11397015585238043366977933601447 3:11 4:12 5:12 6:13 7:16 8:8 11:9 12:12 13:12 14:13 15:16 16:4 21:2 22:16 23:11 29:13 30:14 31:1 37:14 38:14 45:6 46:16 47:6 51:1 52:4 53:9 54:16 55:4 59:14 60:16 61:15 62:6 #
-0.11301827390887611568537352013664 3:2 4:10 5:12 6:14 7:16 8:12 11:8 12:16 13:16 14:16 15:14 16:4 19:2 20:16 21:12 22:4 27:1 28:16 29:15 30:2 36:8 37:16 38:11 45:13 46:16 52:7 53:16 54:11 59:1 60:16 61:11 62:1 #
-0.11308203847485082116364196735958 2:3 3:16 4:16 5:16 6:16 7:14 10:9 11:15 12:9 13:7 14:3 15:2 18:10 19:12 26:10 27:16 28:15 29:9 34:1 35:8 36:9 37:16 38:7 45:10 46:12 50:5 51:7 53:8 54:14 58:4 59:16 60:16 61:16 62:8 #
0.50000003576649798553432901826454 3:8 4:11 7:13 8:9 10:3 11:15 12:6 14:12 15:13 16:1 18:3 19:16 20:5 21:7 22:16 23:5 27:12 28:16 29:16 30:16 31:8 35:1 36:11 37:13 38:4 43:1 44:15 45:4 51:7 52:13 59:11 60:5 #
0.50000003576649798553432901826454 4:13 5:6 6:2 11:2 12:16 13:8 14:16 15:3 18:1 19:14 20:13 21:12 22:16 26:9 27:16 28:16 29:16 30:16 31:10 34:3 35:12 36:14 37:16 38:13 39:6 44:8 45:16 46:1 52:11 53:10 60:13 61:7 #
0.50000003576649798553432901826454 3:6 4:11 11:13 12:7 14:5 15:16 16:2 18:1 19:16 20:7 21:11 22:16 23:9 27:6 28:12 29:16 30:11 36:7 37:14 38:2 44:14 45:8 51:6 52:16 53:2 59:9 60:13 #
-0.13561112888695828204710380759934 2:1 3:6 4:11 5:16 6:6 11:5 12:13 13:11 14:16 15:6 19:4 20:16 21:8 27:5 28:15 34:1 35:13 36:10 37:4 42:6 43:10 44:4 45:8 50:8 51:7 52:12 53:7 58:2 59:13 60:14 #
-0.078603895258516909283486029380583 3:1 4:8 5:6 11:14 12:16 13:16 14:16 19:16 20:16 21:16 22:16 27:16 28:16 29:16 30:16 35:16 36:16 37:16 38:15 43:16 44:16 45:16 46:13 51:9 52:16 53:16 54:9 59:6 60:8 61:6 62:1 #
-0.10395471626393890107742379314004 3:7 4:15 5:10 11:12 12:10 13:15 14:3 21:12 22:11 29:14 30:9 34:1 35:5 36:8 37:16 38:12 39:2 42:10 43:16 44:16 45:15 46:10 47:3 51:2 52:16 53:4 59:8 60:12 #
0.50000003576649798553432901826454 5:9 6:13 12:7 13:16 14:3 19:5 20:16 21:4 22:3 23:5 26:3 27:13 28:7 30:10 31:14 34:10 35:16 36:16 37:16 38:16 39:11 42:5 43:8 44:10 45:13 46:16 47:7 53:7 54:16 55:4 61:10 62:11 #
0.50000003576649798553432901826454 4:4 5:16 6:1 12:6 13:14 20:11 21:10 22:9 23:2 27:4 28:16 29:8 30:16 31:4 34:5 35:14 36:11 37:11 38:16 39:2 41:3 42:15 43:16 44:16 45:16 46:14 49:3 50:12 51:11 52:14 53:16 54:13 60:7 61:16 62:7 #
0.50000003576649798553432901826454 2:1 3:12 4:10 10:4 11:16 12:3 14:9 15:9 18:8 19:14 21:3 22:16 23:6 26:9 27:15 28:8 29:13 30:14 31:5 34:1 35:12 36:16 37:16 38:15 39:5 43:1 44:14 45:6 51:8 52:13 58:2 59:12 60:3 #
-0.1429910323232075619603875793473 3:1 4:12 5:15 6:6 11:5 12:13 13:1 14:12 19:2 20:11 21:1 22:15 28:10 29:11 30:9 36:6 37:16 38:6 43:10 44:15 45:4 46:13 47:3 51:12 52:2 54:1 55:14 59:1 60:10 61:10 62:8 63:15 64:1 #
-0.076581597676299212329453780512267 3:7 4:13 5:16 6:8 11:16 12:14 13:10 14:16 15:2 19:9 20:14 21:4 22:16 23:1 27:1 28:16 29:16 30:14 35:8 36:16 37:16 38:3 42:2 43:16 44:13 45:14 46:15 47:1 50:4 51:16 52:7 53:5 54:16 55:6 59:10 60:15 61:16 62:15 63:2 #
-0.058520615453402938244131803458004 2:1 3:16 4:16 5:15 6:5 10:1 11:16 12:13 13:9 14:15 15:3 18:3 19:16 21:5 22:16 23:5 27:12 28:16 29:16 30:16 31:6 35:1 36:4 37:4 38:12 39:5 46:12 47:9 51:1 53:2 54:14 55:7 59:12 60:16 61:16 62:15 63:3 #
0.50000003576649798553432901826454 4:12 5:8 12:16 13:8 19:10 20:16 21:3 26:7 27:16 28:12 29:12 30:4 34:8 35:16 36:16 37:16 38:16 39:9 42:1 43:9 44:15 45:16 46:10 47:6 52:12 53:13 60:14 61:12 #
0.50000003576649798553432901826454 4:12 5:16 6:1 11:2 12:16 13:8 14:2 19:8 20:16 21:5 22:15 27:15 28:7 29:8 30:9 34:7 35:16 36:12 37:15 38:16 39:11 42:9 43:15 44:10 45:15 46:7 47:5 52:10 53:7 60:16 61:4 #
0.50000003576649798553432901826454 5:6 6:13 7:1 12:3 13:16 14:7 20:15 21:13 22:1 27:12 28:15 29:1 34:5 35:16 36:7 37:7 38:14 39:5 42:6 43:16 44:16 45:16 46:15 47:3 52:1 53:14 54:12 61:9 62:11 #
-0.13474400012222673139739015368832 2:2 4:13 5:12 6:3 9:5 10:14 11:1 12:13 13:16 14:5 18:8 19:16 20:14 21:16 22:4 27:8 28:16 29:16 30:2 36:16 37:16 38:9 43:3 44:16 45:16 46:16 47:4 51:11 52:16 53:16 54:16 55:6 59:1 60:15 61:16 62:10 #
-0.11138075261836546947513681971031 3:3 4:11 5:14 6:16 7:4 10:9 11:16 12:16 13:16 14:9 15:3 18:15 19:14 20:6 21:2 26:10 27:16 28:5 34:3 35:13 36:15 37:5 43:1 44:10 45:15 46:6 52:7 53:15 54:15 59:2 60:15 61:16 62:15 #
-0.12678225311661092677972817455156 3:2 4:15 5:11 6:10 7:16 8:2 11:10 12:16 13:16 14:16 15:9 18:2 19:16 20:11 21:5 22:2 26:12 27:15 28:4 29:2 34:5 35:16 36:16 37:15 38:5 43:2 44:7 45:16 46:11 52:3 53:16 54:10 59:4 60:15 61:12 62:2 #
0.50000003576649798553432901826454 5:12 6:3 12:2 13:15 20:9 21:9 27:3 28:15 30:3 31:10 34:1 35:14 36:3 38:14 39:6 42:10 43:16 44:15 45:13 46:16 47:1 50:9 51:10 52:8 53:14 54:11 61:12 62:2 #
0.50000003576649798553432901826454 4:5 5:13 11:1 12:14 13:5 15:10 16:3 19:8 20:15 22:8 23:16 24:1 26:2 27:16 28:6 30:13 31:11 33:1 34:13 35:16 36:10 37:12 38:16 39:4 41:6 42:15 43:14 44:12 45:15 46:12 52:1 53:15 54:5 60:8 61:12 #
0.50000003576649798553432901826454 4:4 5:15 12:11 13:13 19:1 20:15 21:7 27:11 28:11 34:2 35:16 36:2 37:11 38:8 41:2 42:13 43:14 44:10 45:16 46:8 49:2 50:6 51:12 52:15 53:16 54:4 60:5 61:14 62:1 #
-0.10196247021980041347344325686208 2:1 3:13 4:16 5:8 6:1 10:8 11:14 12:10 13:16 14:8 18:11 19:14 20:15 21:16 22:9 27:8 28:7 29:6 30:16 31:4 38:16 39:4 43:1 46:14 47:8 50:3 51:16 52:2 53:10 54:15 55:1 58:2 59:13 60:16 61:12 62:1 #
0.50000003576649798553432901826454 4:10 5:9 11:1 12:15 13:7 19:11 20:13 26:1 27:16 28:7 34:7 35:16 36:6 37:7 38:15 39:3 42:6 43:16 44:16 45:16 46:15 47:2 52:8 53:16 54:4 60:9 61:12 #
-0.12246310093188282619447448951178 3:1 4:14 5:13 11:6 12:16 13:8 19:12 20:9 27:14 28:10 29:16 30:12 31:1 34:1 35:16 36:10 37:14 38:8 39:13 43:13 44:9 45:10 47:12 48:4 51:8 52:10 54:5 55:16 56:5 59:1 60:11 61:16 62:16 63:11 #
-0.124070790268015054835792909671 4:5 5:12 6:15 7:7 11:3 12:14 13:4 14:13 15:6 19:4 20:13 22:14 23:7 28:13 29:14 30:16 31:8 37:3 38:8 39:8 42:1 43:3 46:10 47:8 50:5 51:16 52:7 54:12 55:4 59:2 60:6 61:13 62:15 63:1 #
0.50000003576649798553432901826454 3:6 4:15 5:1 10:2 11:16 12:7 18:8 19:15 22:7 23:3 26:11 27:13 28:4 29:8 30:16 31:5 34:5 35:16 36:16 37:16 38:10 43:1 44:14 45:15 51:4 52:16 53:6 59:10 60:13 #
0.50000003576649798553432901826454 4:6 5:8 12:15 13:3 19:2 20:14 21:2 22:11 27:9 28:8 29:5 30:10 35:14 36:2 37:8 38:7 39:2 42:4 43:16 44:9 45:14 46:16 47:8 50:2 51:8 52:12 53:16 54:5 55:2 60:6 61:13 62:2 #
-0.058765342570082007567222603938717 4:5 5:12 11:5 12:16 13:14 14:2 19:15 20:15 21:1 26:2 27:16 28:9 35:16 36:10 37:13 38:15 39:4 43:13 44:16 45:16 46:16 47:15 48:1 51:5 52:16 53:16 54:13 55:16 56:4 60:5 61:14 62:16 63:12 #
-0.14172942801367041654181377907662 4:5 5:9 6:13 7:14 8:6 11:4 12:16 13:8 14:4 15:10 16:9 19:6 20:16 21:16 22:16 23:15 24:4 27:1 28:11 29:12 30:16 31:6 37:2 38:16 39:2 45:10 46:6 52:2 53:15 60:5 61:14 #
-0.12781854659818603359155986254336 2:8 3:12 4:16 5:13 10:2 11:10 12:10 13:16 14:8 21:10 22:16 23:4 29:10 30:16 31:4 36:4 37:16 38:14 45:12 46:16 47:8 51:4 52:8 53:15 54:16 55:8 58:10 59:16 60:16 61:11 62:3 #
0.50000003576649798553432901826454 4:2 5:16 6:2 12:9 13:13 15:2 19:4 20:16 21:5 22:11 23:11 27:12 28:13 29:3 30:14 31:10 34:5 35:16 36:14 37:13 38:16 39:5 42:15 43:16 44:16 45:16 46:16 47:8 50:3 51:4 52:2 53:12 54:13 55:1 60:1 61:16 62:7 #
0.50000003576649798553432901826454 4:3 5:14 11:1 12:14 13:12 14:8 15:2 19:9 20:15 21:6 22:16 23:4 26:3 27:16 28:14 29:12 30:16 31:5 34:3 35:13 36:16 37:16 38:16 39:8 45:16 46:11 47:1 52:2 53:16 54:4 60:3 61:12 62:4 #
0.50000003576649798553432901826454 3:3 4:15 5:10 11:9 12:16 13:6 18:2 19:16 20:13 21:3 22:8 23:1 26:11 27:16 28:16 29:16 30:16 31:10 34:3 35:12 36:11 37:16 38:15 39:2 44:4 45:16 46:9 52:11 53:16 54:3 59:2 60:15 61:16 #
-0.12195835938479752946772549648813 3:4 4:13 5:6 10:4 11:16 12:13 13:4 14:3 18:12 19:10 20:1 21:12 22:16 23:3 26:7 27:14 28:9 29:16 30:5 35:12 36:16 37:13 38:1 43:5 44:15 45:15 46:15 47:3 51:7 52:14 53:12 54:16 55:10 59:3 60:16 61:11 62:8 63:2 #
-0.090101002404206417817356111754634 4:1 5:16 6:9 12:6 13:16 14:11 20:11 21:16 22:6 26:1 27:7 28:15 29:14 30:1 34:6 35:14 36:16 37:15 43:1 44:13 45:15 52:14 53:16 54:4 61:12 62:15 63:6 #
-0.088114105653693722275399125010154 3:2 4:15 5:11 11:8 12:16 13:11 18:1 19:13 20:16 21:7 26:8 27:16 28:16 29:7 34:11 35:9 36:16 37:12 44:7 45:16 46:6 52:5 53:16 54:15 55:3 59:3 60:16 61:16 62:16 63:15 64:1 #
0.50000003576649798553432901826454 4:4 5:15 6:3 12:12 13:8 15:10 16:1 19:8 20:11 22:6 23:14 26:5 27:15 28:13 29:14 30:16 31:15 34:7 35:15 36:12 37:10 38:16 39:3 45:9 46:9 53:15 54:1 60:6 61:12 #
0.50000003576649798553432901826454 2:1 3:15 4:8 6:1 7:2 10:8 11:16 12:8 14:12 15:15 18:7 19:16 20:11 21:10 22:16 23:7 26:2 27:15 28:16 29:16 30:16 31:2 35:2 36:12 37:16 38:9 43:1 44:16 45:12 51:10 52:15 53:1 59:12 60:11 #
0.50000003576649798553432901826454 3:13 4:3 10:4 11:16 12:4 14:6 15:12 18:9 19:15 21:6 22:16 23:7 26:6 27:16 28:11 29:16 30:9 35:9 36:16 37:14 38:3 43:6 44:15 45:3 51:13 52:9 59:15 60:7 #
-0.11096198078891128524503528751666 2:1 3:10 4:16 5:16 6:15 7:2 10:9 11:16 12:11 13:4 14:16 15:11 18:6 19:16 20:15 21:12 22:16 23:7 27:4 28:9 29:16 30:14 31:1 36:1 37:15 38:8 44:13 45:15 46:2 51:9 52:16 53:5 58:3 59:16 60:7 #
-0.14271307886607900727859998823988 4:8 5:15 6:4 12:13 13:16 14:13 18:1 19:1 20:10 21:3 22:13 23:6 26:5 27:8 30:6 31:8 34:7 35:11 38:4 39:8 42:3 43:15 44:7 46:4 47:9 51:7 52:16 53:13 54:11 55:12 60:6 61:15 62:16 63:4 #
-0.07741612653395454901605887698679 3:10 4:16 5:16 6:16 7:16 8:5 11:5 12:9 13:8 14:15 15:12 16:1 21:7 22:13 23:1 27:6 28:8 29:16 30:16 31:13 35:14 36:16 37:12 38:8 39:1 43:2 44:16 45:3 51:7 52:13 59:13 60:6 #
0.50000003576649798553432901826454 3:1 4:14 5:11 11:12 12:13 13:1 18:5 19:16 20:3 22:7 23:15 24:1 26:6 27:16 28:11 29:12 30:16 31:10 35:11 36:14 37:16 38:11 44:7 45:15 46:2 52:15 53:12 59:1 60:15 61:7 #
0.50000003576649798553432901826454 3:2 4:15 5:12 11:10 12:15 13:3 18:8 19:16 20:4 22:13 23:7 26:10 27:16 28:1 29:2 30:16 31:10 34:9 35:16 36:12 37:14 38:14 39:1 43:6 44:12 45:16 46:7 52:14 53:13 59:2 60:16 61:8 #
0.50000003576649798553432901826454 4:10 5:15 11:8 12:15 13:5 14:7 15:11 18:2 19:16 20:6 22:13 23:11 26:10 27:16 28:3 29:6 30:16 31:3 34:4 35:16 36:16 37:16 38:16 39:8 43:4 44:12 45:16 46:3 52:10 53:15 60:12 61:10 #
-0.35825264305971821210405892088602 4:10 5:13 6:5 11:11 12:12 13:8 14:15 15:2 18:6 19:16 20:1 21:1 22:14 23:4 26:6 27:16 28:8 29:13 30:16 31:5 34:2 35:13 36:12 37:16 38:12 45:14 46:6 52:4 53:14 54:1 60:11 61:5 #
-0.10894929115516385764728113372257 3:5 4:13 5:12 6:1 10:2 11:15 12:5 13:6 14:7 18:6 19:9 22:16 23:4 26:6 27:10 30:14 31:6 35:9 36:13 37:14 38:12 39:9 47:12 51:3 54:3 55:14 59:5 60:12 61:13 62:14 63:5 #
-0.093854494445825539794547864858032 2:2 3:12 4:16 5:16 6:8 10:8 11:10 12:9 13:16 14:6 19:1 20:13 21:13 27:8 28:16 29:5 35:2 36:14 37:15 38:3 45:9 46:15 47:3 52:3 53:4 54:14 55:11 58:3 59:15 60:16 61:16 62:16 63:9 #
0.50000003576649798553432901826454 4:5 5:16 6:4 12:13 13:15 14:1 19:10 20:16 21:3 22:2 26:5 27:16 28:9 30:13 31:10 34:12 35:16 36:6 37:6 38:16 39:6 42:1 43:15 44:16 45:16 46:16 47:1 52:4 53:16 54:11 60:4 61:16 62:11 #
0.50000003576649798553432901826454 4:1 5:15 6:6 12:6 13:15 14:2 19:1 20:16 21:9 26:1 27:11 28:14 29:2 30:9 31:7 34:12 35:16 36:14 37:15 38:16 39:9 42:9 43:12 44:12 45:14 46:14 47:2 53:14 54:15 61:16 62:14 #
0.50000003576649798553432901826454 4:9 5:16 6:6 11:8 12:16 13:11 14:1 18:3 19:16 20:8 26:11 27:15 30:9 31:9 34:8 35:16 36:16 37:16 38:16 39:8 43:6 44:8 45:15 46:14 47:1 52:5 53:16 54:5 60:12 61:15 62:1 #
-0.13202769297844246798590006619634 3:4 4:15 5:6 11:13 12:13 13:16 18:4 19:15 20:1 21:16 22:2 28:2 29:16 36:8 37:12 42:1 43:12 44:16 45:6 46:4 50:7 51:16 52:16 53:16 54:16 55:6 59:2 61:4 62:8 63:3 #
-0.086580369947519886242304210099974 2:1 3:14 4:16 5:8 10:7 11:12 12:9 13:16 18:4 19:2 21:16 27:1 28:10 29:9 35:7 36:13 37:1 43:16 44:1 50:3 51:13 52:4 53:7 54:8 55:5 58:1 59:13 60:16 61:15 62:12 63:10 #
-0.10679986152561452006359843380778 4:5 5:14 6:16 7:16 8:1 11:8 12:14 13:8 14:13 15:16 16:1 19:1 22:11 23:12 28:2 29:4 30:14 31:8 34:2 35:11 36:16 37:16 38:16 39:8 42:7 43:10 44:5 45:11 46:10 52:1 53:15 54:3 60:8 61:12 #
0.50000003576649798553432901826454 4:13 5:7 11:5 12:13 13:3 14:13 15:2 19:14 20:6 21:4 22:16 26:5 27:16 28:9 29:14 30:16 31:10 34:5 35:16 36:15 37:16 38:7 39:2 44:10 45:11 52:13 53:6 60:16 61:1 #
0.50000003576649798553432901826454 4:11 5:16 6:2 7:7 11:7 12:16 13:7 14:10 15:13 18:2 19:16 20:7 21:4 22:16 23:9 26:6 27:16 28:13 29:12 30:16 31:15 34:1 35:11 36:16 37:16 38:12 39:3 44:2 45:16 46:2 52:7 53:12 60:11 61:9 #
0.50000003576649798553432901826454 3:3 4:16 5:3 11:11 12:13 13:1 14:1 18:6 19:14 20:2 21:9 22:12 26:9 27:12 29:14 30:5 31:1 34:7 35:16 36:12 37:16 38:16 39:11 43:6 44:11 45:15 46:5 47:1 52:11 53:10 59:3 60:16 61:4 #
-0.1250831273033180257581165051306 3:3 4:14 5:8 6:8 7:8 11:2 12:11 13:12 14:15 15:10 22:13 23:4 26:1 27:16 28:16 29:16 30:15 31:3 34:2 35:8 36:8 37:16 38:16 39:6 44:8 45:13 46:3 47:1 51:1 52:16 53:7 59:5 60:11 61:1 #
-0.13350897693402644095250764166849 5:3 6:16 7:6 12:5 13:15 14:16 15:9 18:1 19:10 20:16 21:15 22:16 23:8 26:10 27:16 28:12 29:2 30:16 31:5 34:1 35:6 37:4 38:16 39:4 45:5 46:16 47:1 53:6 54:16 55:3 61:3 62:16 63:9 #
-0.11429499315175845053360603742476 3:9 4:15 5:8 10:6 11:14 12:2 13:7 14:10 18:9 19:10 21:2 22:16 23:3 26:5 27:16 28:16 29:16 30:14 31:2 34:6 35:16 36:16 37:16 38:14 39:1 42:5 43:16 46:9 47:11 50:1 51:16 52:9 53:7 54:14 55:6 59:9 60:12 61:13 62:8 #
0.50000003576649798553432901826454 4:8 5:10 11:4 12:15 13:2 19:11 20:9 22:12 23:3 26:2 27:15 29:3 30:15 34:6 35:16 36:6 37:10 38:14 42:2 43:16 44:16 45:16 46:14 52:6 53:15 54:1 60:10 61:9 #
0.50000003576649798553432901826454 4:8 5:4 12:12 13:4 14:1 19:4 20:13 21:2 22:16 23:1 27:14 28:7 29:7 30:14 31:4 34:5 35:16 36:16 37:16 38:16 39:6 42:3 43:10 44:7 45:15 46:6 52:5 53:10 60:7 61:10 #
0.50000003576649798553432901826454 5:13 6:12 12:4 13:16 14:6 19:1 20:13 21:10 22:1 23:8 27:7 28:15 29:2 30:9 31:15 34:6 35:16 36:4 37:4 38:14 39:9 41:2 42:15 43:16 44:16 45:16 46:16 47:6 49:2 50:8 51:8 52:4 53:13 54:13 61:15 62:8 #
-0.14634333804808510870465454445366 4:8 5:15 6:16 7:7 10:1 11:14 12:9 13:1 15:8 18:6 19:12 22:10 23:8 26:4 27:14 28:12 29:13 30:14 31:8 37:1 38:4 39:8 46:4 47:8 54:7 55:8 60:8 61:12 62:15 63:6 #
-0.10270731005749035580354444618933 2:2 3:15 4:16 5:16 6:15 7:1 10:2 11:13 12:13 13:11 14:16 15:1 19:2 20:16 21:15 22:7 28:14 29:14 35:9 36:14 37:16 42:1 43:14 44:8 45:12 46:5 50:3 51:16 52:6 53:15 54:3 58:2 59:16 60:16 61:10 #
-0.10935881697045968241610580662382 3:9 4:15 5:16 6:12 7:1 11:9 12:10 13:14 14:16 15:9 21:2 22:16 23:10 29:8 30:15 31:2 36:10 37:15 38:4 43:6 44:16 45:6 51:15 52:16 53:12 54:12 59:14 60:16 61:13 62:5 #
0.50000003576649798553432901826454 3:2 4:13 5:6 7:4 11:13 12:11 14:2 15:15 16:3 18:4 19:16 20:2 22:13 23:8 26:3 27:16 28:16 29:12 30:16 31:7 35:2 36:7 37:15 38:10 39:1 44:4 45:13 52:13 53:5 59:2 60:12 #
0.50000003576649798553432901826454 4:8 5:16 6:1 12:14 13:16 14:2 19:3 20:15 21:13 27:9 28:16 29:3 30:3 31:1 34:1 35:14 36:11 37:4 38:16 39:7 41:1 42:12 43:16 44:14 45:14 46:16 47:2 49:1 50:11 51:12 52:14 53:16 54:11 60:9 61:16 62:5 #
0.50000003576649798553432901826454 5:13 6:8 12:2 13:16 14:6 20:7 21:16 22:7 23:3 27:1 28:13 29:12 30:15 31:7 34:3 35:12 36:14 37:5 38:16 39:3 41:2 42:15 43:16 44:16 45:16 46:16 47:1 49:5 50:12 51:13 52:16 53:16 54:15 61:15 62:6 #
-0.15130670936800280634848547833826 4:8 5:14 6:3 11:1 12:16 13:15 14:7 19:7 20:15 21:5 26:3 27:14 28:14 29:5 34:3 35:16 36:10 37:12 38:10 43:11 44:5 46:14 47:2 51:3 52:11 53:6 54:14 55:1 60:7 61:15 62:6 #
-0.14493189051061958205757207451825 3:9 10:2 11:16 12:6 13:8 14:5 18:4 19:16 20:16 21:16 22:15 23:3 26:6 27:16 28:10 29:12 30:15 31:8 34:4 35:11 38:7 39:8 42:4 43:16 44:9 45:10 46:15 47:8 50:2 51:15 52:16 53:16 54:16 55:3 59:8 60:16 61:15 62:7 #
-0.092944685556127018544181339620991 3:15 4:15 5:2 10:4 11:16 12:11 13:13 14:1 18:3 19:15 20:5 21:15 22:6 27:3 28:1 29:8 30:12 37:6 38:15 45:9 46:12 51:5 52:9 53:16 54:10 55:1 59:13 60:16 61:16 62:16 63:16 64:6 #
0.50000003576649798553432901826454 4:6 5:9 12:12 13:12 14:8 20:16 21:7 22:12 27:6 28:11 29:7 30:10 34:1 35:14 36:4 37:13 38:13 39:5 42:5 43:16 44:16 45:16 46:13 47:5 51:4 52:6 53:16 54:9 60:8 61:16 62:7 #
0.50000003576649798553432901826454 4:7 5:15 12:14 13:11 14:3 15:11 19:6 20:16 21:2 22:14 23:9 26:2 27:14 28:7 29:6 30:16 31:2 33:1 34:14 35:15 36:11 37:15 38:16 39:4 41:2 42:13 43:12 44:11 45:16 46:7 52:5 53:16 54:1 60:11 61:12 #
0.50000003576649798553432901826454 4:3 5:10 12:10 13:8 19:5 20:14 22:7 26:1 27:14 28:5 29:1 30:15 34:8 35:10 37:6 38:10 42:14 43:14 44:12 45:14 46:15 47:1 50:6 51:12 52:9 53:16 54:6 60:4 61:14 #
-0.13179443092729423159248369756824 4:15 5:10 11:4 12:16 13:16 14:7 19:3 20:16 21:16 22:10 27:3 28:16 29:16 30:14 35:4 36:16 37:16 38:16 39:2 43:10 44:16 45:16 46:16 47:5 51:9 52:16 53:16 54:16 55:9 59:1 60:8 61:3 62:7 63:16 64:2 #
-0.11560602634470329430627089095651 2:1 3:8 4:14 5:13 6:2 10:4 11:16 12:6 13:12 14:8 18:3 19:16 20:4 21:3 22:4 27:9 28:15 29:4 30:11 31:6 35:5 36:16 37:16 38:13 39:6 42:4 43:15 44:12 45:16 46:7 50:7 51:14 52:2 53:12 54:11 58:1 59:10 60:16 61:14 62:5 #
-0.14971917284092103872517043328116 4:3 5:15 6:16 7:3 12:12 13:10 14:15 15:3 20:2 21:6 22:14 28:1 29:15 30:5 35:1 36:13 37:9 42:1 43:12 44:12 45:1 50:9 51:16 52:16 53:16 54:13 55:5 58:2 59:4 60:5 61:10 62:13 63:12 #
0.50000003576649798553432901826454 4:4 5:14 12:13 13:9 19:2 20:16 21:2 26:1 27:12 28:11 29:1 30:6 31:2 34:9 35:16 36:16 37:16 38:16 39:2 43:7 44:9 45:16 46:8 52:6 53:16 54:5 60:7 61:13 62:1 #
0.50000003576649798553432901826454 5:14 6:9 12:8 13:15 14:3 15:7 16:1 19:6 20:15 21:4 22:5 23:16 24:6 26:5 27:16 28:5 30:13 31:14 34:11 35:16 36:12 37:12 38:16 39:8 42:6 43:9 44:8 45:12 46:15 47:2 53:10 54:14 61:15 62:7 #
0.50000003576649798553432901826454 4:2 5:16 6:4 11:1 12:15 13:14 14:1 15:3 19:11 20:16 21:3 22:4 23:16 26:9 27:16 28:8 29:4 30:13 31:12 34:3 35:15 36:16 37:16 38:16 39:11 43:1 44:8 45:14 46:14 47:4 53:16 54:8 60:2 61:16 62:6 #
-0.13997135042282757289022754321195 2:2 3:16 4:10 5:9 6:8 11:10 12:16 13:16 14:12 18:1 19:5 20:10 21:16 22:10 23:6 26:11 27:16 28:16 29:16 30:15 31:7 34:3 35:5 36:14 37:9 38:2 43:6 44:16 51:10 52:10 58:3 59:16 60:1 #
-0.13943554784491010711811043165653 3:5 4:14 5:12 6:8 7:2 11:1 12:10 13:16 14:16 15:12 19:5 20:14 21:16 22:16 23:2 27:10 28:16 29:16 30:12 34:6 35:16 36:16 37:14 38:4 42:9 43:16 44:16 45:11 50:10 51:16 52:16 53:6 58:1 59:10 60:14 61:12 62:4 #
-0.12732233591294106478386538583436 2:1 3:5 4:11 5:13 6:5 10:10 11:16 12:16 13:15 14:3 18:10 19:13 26:10 27:14 28:8 29:8 30:3 34:2 35:12 36:13 37:13 38:16 39:5 46:11 47:14 51:2 52:11 53:8 54:14 55:15 59:2 60:11 61:16 62:14 63:6 #
0.50000003576649798553432901826454 3:8 4:16 5:6 10:3 11:15 12:13 13:1 18:8 19:16 20:4 22:2 23:1 26:9 27:16 28:8 29:10 30:16 31:11 34:1 35:13 36:16 37:16 38:15 39:5 43:4 44:16 45:16 46:3 51:8 52:16 53:10 59:7 60:16 61:10 #
0.50000003576649798553432901826454 4:13 5:7 11:9 12:16 13:4 18:1 19:14 20:11 26:7 27:16 28:7 29:6 30:16 31:5 35:10 36:14 37:16 38:14 39:1 44:8 45:16 46:6 52:15 53:6 60:16 61:9 #
0.50000003576649798553432901826454 3:12 4:12 7:5 8:1 10:2 11:16 12:9 14:4 15:16 16:5 18:1 19:16 20:13 21:5 22:13 23:12 27:7 28:16 29:16 30:16 31:6 36:3 37:16 38:9 43:1 44:12 45:12 51:7 52:16 53:1 59:12 60:7 #
-0.14259602583801714303923802162899 4:7 5:14 6:7 11:3 12:13 13:4 14:12 15:1 19:13 20:3 22:12 23:4 26:1 27:13 29:6 30:16 31:6 35:15 36:15 37:9 38:12 39:3 43:1 44:1 46:9 47:2 51:2 52:9 53:2 54:12 59:1 60:9 61:15 62:7 #
-0.072579256238607101070492433336767 4:14 5:2 11:2 12:16 13:2 19:7 20:13 27:8 28:12 35:9 36:11 37:4 38:2 43:11 44:16 45:16 46:15 47:8 51:13 52:15 53:2 54:2 55:16 56:3 60:11 61:13 62:12 63:10 #
-0.13970697389109371089332967130758 3:5 4:11 5:12 11:16 12:16 13:16 14:13 15:7 19:12 20:16 21:16 22:15 23:4 27:4 28:15 29:14 30:8 35:12 36:4 37:1 38:4 42:1 43:14 45:3 46:7 50:1 51:16 52:12 53:16 54:4 59:3 60:9 61:5 #
0.50000003576649798553432901826454 4:7 5:12 12:11 13:11 19:2 20:16 21:3 27:9 28:12 29:9 30:3 34:1 35:15 36:7 37:16 38:7 42:9 43:16 44:14 45:16 46:16 47:8 50:8 51:12 52:14 53:16 54:12 55:5 60:7 61:15 #
0.50000003576649798553432901826454 4:2 5:13 6:8 7:4 12:11 13:13 14:8 15:16 16:2 19:7 20:16 21:3 22:14 23:10 26:6 27:16 28:8 29:7 30:16 31:6 34:11 35:16 36:16 37:16 38:16 39:7 42:2 43:8 44:9 45:16 46:9 52:2 53:16 54:6 60:1 61:16 62:2 #
0.50000003576649798553432901826454 4:5 5:14 6:1 11:1 12:14 13:7 15:3 19:9 20:14 21:1 22:6 23:15 26:3 27:16 28:12 29:4 30:12 31:8 35:7 36:10 37:14 38:16 39:4 45:10 46:13 52:1 53:16 54:3 60:6 61:12 #
-0.13038776709977828449638082020101 3:2 4:10 5:16 6:3 11:15 12:16 13:16 14:4 18:3 19:12 20:1 21:16 22:15 23:9 28:7 29:16 30:16 31:13 36:16 37:15 38:2 44:8 45:12 52:13 53:9 60:14 61:3 #
-0.090171393432450577809511571558687 3:3 4:9 5:8 11:15 12:9 13:1 18:4 19:16 20:8 21:2 26:5 27:16 28:12 29:12 30:11 31:1 34:4 35:12 38:5 39:10 42:1 43:14 44:3 46:1 47:14 48:1 51:10 52:6 53:5 54:14 55:13 59:4 60:13 61:14 62:8 #
-0.15834173686583544182759908380831 4:13 5:9 6:1 11:9 12:16 13:16 14:11 19:8 20:14 21:5 22:16 23:3 26:1 27:7 28:10 30:12 31:6 34:6 35:14 36:14 37:2 38:10 39:9 42:4 43:16 44:16 45:12 46:16 47:10 51:11 52:16 53:16 54:15 55:4 59:2 60:13 61:16 62:7 #
0.50000003576649798553432901826454 3:12 4:11 10:8 11:16 12:4 14:5 15:3 18:11 19:16 21:4 22:16 23:9 26:11 27:16 28:8 29:13 30:14 31:1 34:2 35:13 36:16 37:16 38:8 43:1 44:15 45:10 51:5 52:16 53:3 59:12 60:12 #
0.50000003576649798553432901826454 4:1 5:12 6:1 12:4 13:15 20:6 21:11 22:8 23:2 27:1 28:13 29:4 30:16 31:1 34:4 35:12 36:10 37:9 38:14 42:15 43:16 44:16 45:16 46:12 49:1 50:8 51:7 52:7 53:15 54:9 61:16 62:5 #
0.50000003576649798553432901826454 4:1 5:12 6:1 12:14 13:10 19:10 20:14 21:2 26:2 27:16 28:7 30:5 31:6 34:12 35:15 37:9 38:15 39:1 42:12 43:16 44:14 45:16 46:8 50:7 51:12 52:10 53:15 54:1 60:4 61:9 #
-0.10822163996333514224268412817764 3:15 4:8 10:2 11:16 12:15 13:2 19:16 20:8 21:10 27:12 28:8 29:12 36:8 37:8 44:12 45:8 51:12 52:16 53:15 54:15 55:5 59:15 60:11 61:6 62:2 #
-0.069727857200850909547007461242174 2:5 3:16 4:12 10:11 11:16 12:16 13:5 19:2 20:16 21:8 27:2 28:16 29:8 35:7 36:16 37:4 42:2 43:15 44:11 50:10 51:16 52:16 53:16 54:16 55:9 58:8 59:16 60:14 61:9 62:8 63:3 #
-0.13462088782558870314609578144882 2:2 3:4 4:7 5:13 6:15 7:2 10:14 11:16 12:16 13:15 14:16 15:5 18:1 19:4 21:14 22:14 29:16 30:12 36:3 37:16 38:7 44:5 45:16 46:7 52:5 53:16 54:6 60:7 61:16 62:9 #
0.50000003576649798553432901826454 4:11 5:2 11:4 12:16 19:11 20:7 22:2 26:3 27:15 28:2 29:7 30:15 31:9 34:9 35:16 36:16 37:16 38:15 39:3 42:6 43:8 44:6 45:16 46:8 52:8 53:10 60:15 61:5 #
0.50000003576649798553432901826454 4:14 5:4 6:5 7:1 11:6 12:13 13:1 14:15 15:5 19:12 20:7 21:2 22:16 23:2 26:7 27:15 28:6 29:10 30:16 31:6 34:12 35:16 36:16 37:16 38:13 39:6 42:2 43:7 44:8 45:15 46:3 52:8 53:10 60:16 61:4 #
0.50000003576649798553432901826454 5:8 6:11 12:2 13:14 14:6 20:11 21:9 22:2 23:3 27:9 28:12 29:1 30:11 31:9 34:4 35:16 36:6 38:13 39:5 42:8 43:16 44:16 45:16 46:16 52:3 53:8 54:15 61:6 62:12 #
-0.13140245662022048689365760765213 4:13 5:7 10:5 11:14 12:16 13:16 14:8 18:12 19:10 21:6 22:16 26:2 27:14 28:12 29:5 30:16 31:3 36:11 37:16 38:11 43:2 44:15 45:9 46:16 47:5 51:10 52:14 53:4 54:13 55:12 59:1 60:9 61:14 62:16 63:11 #
-0.081430997066071750256632810760493 3:5 4:16 5:16 6:16 7:4 11:12 12:15 13:9 14:5 15:1 18:12 19:16 20:14 21:7 26:9 27:16 28:16 29:16 30:15 37:2 38:16 39:4 43:6 44:5 46:14 47:7 51:12 52:10 53:9 54:16 55:2 59:5 60:16 61:16 62:7 #
-0.10398941134035551148162568324551 4:4 5:12 6:11 7:1 11:12 12:15 13:10 14:13 15:4 18:8 19:10 21:3 22:15 23:1 26:3 27:14 28:5 29:15 30:6 35:13 36:16 37:11 42:3 43:15 44:6 45:11 46:12 47:3 50:1 51:14 52:10 53:2 54:10 55:10 59:1 60:6 61:11 62:16 63:6 #
0.50000003576649798553432901826454 4:10 5:11 12:15 13:11 14:9 19:5 20:15 21:10 22:16 23:2 27:13 28:9 29:12 30:13 34:3 35:16 36:7 37:13 38:14 39:5 42:12 43:16 44:16 45:16 46:16 47:8 50:5 51:8 52:13 53:16 54:4 60:11 61:15 #
0.50000003576649798553432901826454 4:11 5:4 12:14 13:5 14:1 19:4 20:13 21:8 22:8 27:10 28:5 29:10 30:6 34:3 35:16 36:5 37:14 38:12 39:3 42:8 43:16 44:16 45:15 46:14 47:6 51:4 52:8 53:8 60:8 61:9 #
0.50000003576649798553432901826454 4:7 5:15 11:7 12:16 13:10 18:1 19:16 20:9 22:12 23:8 26:9 27:14 28:1 29:5 30:16 31:7 34:8 35:15 36:8 37:12 38:16 39:9 42:3 43:15 44:16 45:16 46:11 47:1 52:7 53:16 54:1 60:7 61:13 #
-0.14238509491848300170246943707753 3:3 4:15 5:16 6:6 11:6 12:11 13:11 14:16 15:5 21:7 22:16 23:7 29:13 30:16 31:2 34:9 35:13 36:13 37:16 38:12 39:2 42:2 43:12 44:14 45:16 46:16 47:15 52:15 53:13 59:3 60:16 61:8 #
-0.12204483278609880303466894702069 2:1 3:6 4:9 5:15 6:16 7:14 10:4 11:16 12:16 13:10 14:7 15:2 18:8 19:16 20:13 21:3 26:10 27:14 28:14 29:14 34:1 35:1 36:1 37:16 44:1 45:16 51:3 52:10 53:14 59:15 60:14 61:3 #
-0.03885117508414211162648399522368 3:9 4:16 5:14 6:2 11:10 12:16 13:16 14:4 18:4 19:16 20:16 21:16 27:14 28:16 29:16 30:2 34:1 35:16 36:16 37:16 38:3 42:1 43:16 44:16 45:16 50:3 51:16 52:16 53:16 54:7 58:1 59:9 60:15 61:16 62:8 #
0.50000003576649798553432901826454 4:11 5:11 12:14 13:11 18:1 19:12 20:15 21:2 26:8 27:16 28:8 29:11 30:6 31:2 34:5 35:15 36:16 37:16 38:16 39:11 43:1 44:9 45:16 46:7 47:1 52:8 53:16 54:3 60:9 61:16 62:1 #
0.50000003576649798553432901826454 4:9 5:16 6:1 11:3 12:16 13:13 19:10 20:16 21:7 22:10 23:6 26:6 27:16 28:16 29:13 30:16 31:8 34:4 35:15 36:16 37:16 38:16 39:6 44:7 45:16 46:12 52:11 53:16 54:2 60:14 61:10 #
0.50000003576649798553432901826454 3:5 4:14 11:9 12:11 13:1 14:3 18:2 19:14 20:4 21:10 22:11 26:8 27:16 28:12 29:15 30:14 31:6 34:9 35:16 36:13 37:16 38:10 39:5 44:9 45:11 52:15 53:5 59:3 60:16 61:3 #
-0.074959891488593971553555661557766 3:8 4:15 5:14 6:6 10:4 11:16 12:5 13:6 14:16 15:3 18:7 19:16 20:2 21:3 22:16 23:8 26:2 27:14 28:16 29:16 30:16 31:8 36:2 38:9 39:8 45:5 46:16 47:2 52:8 53:14 54:5 59:9 60:8 61:1 #
-0.085553518168824754797086029611819 3:10 4:1 11:16 18:3 19:13 26:5 27:12 28:1 29:4 30:2 34:8 35:14 36:15 37:16 38:15 39:4 42:8 43:15 44:5 45:5 46:14 47:8 50:8 51:14 52:4 53:10 54:16 55:4 58:1 59:12 60:15 61:10 62:2 #
-0.078438790893276197357941725840647 2:1 3:11 4:12 10:7 11:14 12:15 13:6 18:7 19:3 20:12 21:10 28:15 29:14 30:5 36:8 37:10 38:16 39:2 46:12 47:8 51:9 52:8 53:8 54:15 55:10 59:13 60:16 61:14 62:8 63:1 #
0.50000003576649798553432901826454 4:6 5:15 6:1 11:4 12:16 13:3 19:12 20:8 26:7 27:15 28:1 30:5 31:9 34:9 35:16 37:6 38:15 39:10 42:10 43:16 44:16 45:16 46:14 50:2 51:5 52:7 53:16 54:7 60:6 61:15 62:1 #
0.50000003576649798553432901826454 4:1 5:14 6:10 12:2 13:16 14:9 19:1 20:11 21:14 22:3 26:1 27:10 28:16 29:6 30:9 31:6 34:10 35:16 36:15 37:13 38:16 39:9 42:5 43:11 44:12 45:16 46:15 47:1 53:16 54:12 61:16 62:11 #
0.50000003576649798553432901826454 5:9 6:7 12:9 13:12 19:3 20:15 21:2 22:2 23:1 26:2 27:15 28:4 30:14 31:4 34:7 35:14 37:4 38:16 42:8 43:16 44:16 45:16 46:16 47:4 52:3 53:16 54:5 61:13 62:6 #
-0.1393710507183212043980091721096 4:2 5:16 6:12 12:6 13:16 14:15 20:11 21:16 22:11 26:1 27:8 28:16 29:16 30:11 34:9 35:16 36:16 37:16 38:10 42:1 43:8 44:8 45:16 46:8 52:4 53:16 54:9 60:1 61:16 62:10 #
-0.099998680595598993248174224390823 3:4 4:13 5:16 6:16 7:9 10:2 11:12 12:6 13:1 14:12 15:12 18:1 19:3 20:2 21:15 22:10 28:11 29:9 36:4 37:14 38:2 45:13 46:10 53:10 54:11 58:6 59:9 60:13 61:12 62:1 #
-0.071057403607236460651996878823411 2:1 3:16 4:16 5:15 6:3 11:7 12:6 13:16 14:10 20:1 21:16 22:8 27:6 28:15 29:15 30:2 35:7 36:16 37:16 38:11 39:3 43:5 44:16 45:14 46:16 47:7 51:10 52:12 53:1 54:4 55:1 59:16 60:6 #
0.50000003576649798553432901826454 4:6 5:15 6:2 7:11 8:2 11:2 12:16 13:10 14:5 15:16 16:3 18:1 19:15 20:10 22:9 23:13 26:9 27:16 28:9 29:9 30:16 31:12 34:7 35:16 36:16 37:15 38:15 39:7 43:3 44:2 45:14 46:8 52:6 53:14 54:1 60:11 61:9 #
0.50000003576649798553432901826454 4:7 5:12 7:12 8:5 11:8 12:14 13:1 14:7 15:14 18:1 19:16 20:5 22:14 23:6 26:5 27:16 28:12 29:13 30:16 31:10 34:3 35:15 36:15 37:16 38:13 39:5 44:4 45:15 46:1 52:9 53:10 60:11 61:4 #
0.50000003576649798553432901826454 4:2 5:15 6:2 12:10 13:8 15:8 16:3 19:6 20:12 22:3 23:15 26:2 27:14 28:1 30:12 31:8 34:9 35:15 36:12 37:16 38:16 39:5 42:3 43:8 44:5 45:11 46:10 52:1 53:15 54:4 60:3 61:9 #
-0.11186646100821454052898218378687 4:9 5:16 6:12 7:2 11:3 12:15 13:10 14:16 15:4 18:1 19:14 20:8 22:13 23:7 26:7 27:15 28:1 30:14 31:6 34:4 35:15 38:15 39:5 42:1 43:12 44:4 45:9 46:15 51:5 52:16 53:16 54:9 60:9 61:14 62:2 #
-0.084602207658989292404783100209897 3:3 4:12 5:15 6:2 10:2 11:15 12:6 18:4 19:14 20:2 21:9 22:14 23:8 26:1 27:13 28:16 29:14 30:4 35:8 36:16 37:6 43:11 44:11 45:15 51:11 52:5 53:12 54:2 59:3 60:12 61:15 62:3 #
-0.13573477634302616445793887578475 4:5 5:14 6:16 7:16 8:5 11:10 12:16 13:15 14:16 15:16 16:7 18:4 19:15 20:6 21:1 22:16 23:12 27:2 29:5 30:16 31:7 37:4 38:16 39:2 45:6 46:16 47:1 52:2 53:15 54:14 60:3 61:15 62:7 #
0.50000003576649798553432901826454 4:4 5:14 12:12 13:12 19:1 20:16 21:9 27:10 28:16 29:7 30:13 34:3 35:16 36:9 37:9 38:16 42:14 43:16 44:13 45:15 46:16 47:5 50:5 51:13 52:14 53:16 54:15 55:3 60:3 61:16 62:10 #
0.45302234387174578067458696750691 4:7 5:16 12:16 13:11 19:6 20:16 21:6 27:14 28:13 30:11 31:7 34:11 35:16 36:2 37:8 38:16 39:1 41:5 42:16 43:16 44:16 45:16 46:14 50:4 51:9 52:14 53:16 54:7 60:9 61:15 62:1 #
0.50000003576649798553432901826454 4:2 5:15 6:6 12:13 13:15 14:1 19:9 20:16 21:4 22:2 23:1 26:4 27:16 28:9 29:2 30:14 31:11 34:10 35:15 36:5 37:13 38:16 39:4 42:15 43:16 44:16 45:16 46:14 50:9 51:12 52:8 53:16 54:8 60:2 61:15 62:3 #
-0.080863356054252877314070246939082 2:1 3:11 4:16 5:16 6:15 7:1 10:3 11:15 12:7 13:10 14:16 15:3 20:4 21:16 22:8 28:5 29:15 30:10 37:3 38:16 39:8 46:11 47:13 50:4 51:11 52:1 53:1 54:11 55:14 58:1 59:13 60:16 61:16 62:15 63:6 #
-0.13207702361616516228970397150988 2:3 3:16 4:15 5:7 10:5 11:16 12:16 13:16 14:13 15:2 19:7 20:8 21:10 22:16 23:6 29:2 30:16 31:4 37:4 38:16 39:1 45:12 46:9 51:4 52:11 53:15 54:3 58:2 59:15 60:12 61:3 #
-0.12903978170372124023579374352266 4:11 5:16 6:10 11:6 12:11 13:2 14:12 19:5 20:15 21:3 22:11 27:1 28:13 29:16 30:1 35:1 36:12 37:16 38:7 42:7 43:13 44:3 45:7 46:14 50:10 51:13 52:8 53:5 54:10 60:14 61:15 62:3 #
0.50000003576649798553432901826454 3:1 4:12 5:6 11:5 12:15 13:2 14:3 15:8 18:1 19:13 20:11 21:1 22:14 23:9 26:6 27:15 28:3 29:6 30:15 34:12 35:15 36:12 37:15 38:15 39:6 42:6 43:12 44:14 45:16 46:16 47:5 52:10 53:14 60:14 61:6 #
0.50000003576649798553432901826454 3:3 4:14 5:1 11:10 12:14 13:1 14:7 19:15 20:9 21:7 22:16 26:5 27:16 28:4 29:13 30:13 34:12 35:16 36:16 37:16 38:16 39:9 42:3 43:8 44:15 45:16 46:12 47:2 51:1 52:16 53:11 59:3 60:16 61:5 #
0.50000003576649798553432901826454 3:12 4:8 10:1 11:16 12:8 14:1 15:5 18:7 19:16 20:2 22:12 23:13 26:8 27:16 28:8 29:10 30:16 31:6 34:3 35:15 36:16 37:16 38:13 39:3 44:11 45:14 46:1 51:5 52:16 53:3 59:14 60:8 #
-0.092846648805274586968572236855834 3:9 4:12 5:14 6:14 7:12 8:1 11:15 12:15 13:12 14:14 15:16 16:6 19:3 22:10 23:15 24:3 29:4 30:16 31:6 36:3 37:15 38:9 43:2 44:13 45:12 51:10 52:14 53:1 59:13 60:9 #
-0.10459971723046092295650311143618 2:2 3:10 4:16 5:16 6:16 7:7 10:14 11:16 12:15 13:11 14:13 15:5 18:12 19:15 20:1 26:4 27:16 28:7 35:16 36:8 43:15 44:9 51:12 52:14 59:15 60:7 #
-0.19012495919684446743502803656156 4:8 5:12 6:11 7:3 11:6 12:15 13:6 14:8 15:12 18:2 19:15 20:10 22:3 23:11 26:4 27:16 28:14 29:12 30:14 31:4 35:8 36:16 37:16 38:14 45:5 46:16 47:2 52:4 53:11 54:15 60:13 61:12 62:6 #
0.50000003576649798553432901826454 3:3 4:12 11:7 12:16 13:2 19:13 20:11 21:1 22:7 23:1 26:6 27:16 28:16 29:16 30:16 31:8 34:2 35:11 36:14 37:16 38:13 44:13 45:15 46:3 51:4 52:16 53:12 59:5 60:12 61:6 #
0.50000003576649798553432901826454 5:13 6:5 12:8 13:15 14:2 15:2 19:9 20:15 21:5 22:13 23:7 26:5 27:16 28:6 29:2 30:16 31:4 34:11 35:16 36:15 37:11 38:16 39:3 42:3 43:12 44:13 45:15 46:15 47:8 53:12 54:9 61:10 62:9 #
0.50000003576649798553432901826454 4:12 5:16 11:3 12:16 13:13 18:1 19:11 20:15 21:1 22:2 23:6 26:6 27:16 28:6 29:1 30:13 31:13 34:5 35:16 36:14 37:12 38:16 39:5 43:7 44:14 45:16 46:7 52:11 53:13 60:15 61:8 #
-0.041260403192836830887912924481498 3:2 4:16 5:11 6:1 12:16 13:16 14:2 19:1 20:16 21:16 22:6 28:15 29:16 30:3 35:1 36:15 37:16 38:2 43:2 44:16 45:15 46:1 51:1 52:16 53:14 59:2 60:16 61:8 #
-0.087739601759037944006536235974636 3:1 4:8 5:14 6:13 7:2 10:2 11:13 12:12 13:8 14:15 15:2 18:6 19:15 20:2 21:11 22:6 27:5 28:14 29:15 30:1 36:12 37:13 44:15 45:15 46:5 52:16 53:9 54:15 60:9 61:16 62:10 #
-0.050137556195132604308639656665036 3:1 4:15 5:12 11:6 12:16 13:15 19:5 20:16 21:9 27:5 28:16 29:6 35:3 36:16 37:8 43:2 44:16 45:8 51:1 52:16 53:9 59:1 60:13 61:6 #
0.50000003576649798553432901826454 4:1 5:12 6:6 12:6 13:16 14:2 19:1 20:16 21:5 27:11 28:12 30:2 34:6 35:15 36:2 37:2 38:16 39:3 42:11 43:14 44:9 45:15 46:15 50:3 51:11 52:14 53:16 54:8 60:1 61:13 62:2 #
0.50000003576649798553432901826454 4:3 5:13 12:12 13:8 19:5 20:14 21:2 26:1 27:15 28:4 30:3 31:8 34:13 35:15 36:12 37:9 38:13 39:10 42:5 43:8 44:8 45:15 46:14 47:2 52:2 53:14 54:5 60:6 61:12 #
0.50000003576649798553432901826454 4:4 5:16 6:2 12:9 13:13 19:2 20:16 21:5 27:9 28:13 29:4 34:3 35:16 36:6 37:15 38:5 42:10 43:15 44:9 45:16 46:10 47:1 49:1 50:16 51:16 52:16 53:16 54:16 55:5 58:3 59:4 60:9 61:16 62:4 #
-0.12147810695417676773999460237974 5:12 6:15 7:1 10:3 11:8 12:8 13:14 14:16 18:11 19:16 20:16 21:16 22:16 26:1 27:4 28:4 29:15 30:16 37:12 38:16 39:4 45:12 46:16 47:3 53:12 54:16 55:10 61:9 62:16 63:11 #
-0.13072386136887270691175899628433 2:1 3:10 4:5 10:2 11:16 12:16 13:12 14:1 19:10 20:5 21:11 22:6 28:1 29:12 30:7 35:6 36:16 37:16 38:6 43:3 44:8 45:10 46:15 47:8 51:3 52:4 53:7 54:14 55:15 59:6 60:15 61:15 62:11 63:4 #
-0.12550555904859012068541801454558 3:2 4:12 5:13 6:4 10:5 11:16 12:6 13:1 14:14 18:13 19:11 20:5 21:12 22:15 26:9 27:16 28:16 29:16 30:12 34:1 35:12 36:14 37:3 38:7 39:7 43:8 44:7 47:13 51:8 52:9 53:1 54:12 55:13 60:14 61:14 62:12 63:3 #
0.50000003576649798553432901826454 4:5 5:15 12:11 13:10 14:3 15:8 19:6 20:15 21:1 22:13 23:9 26:3 27:16 28:8 29:9 30:16 31:5 34:12 35:16 36:15 37:15 38:13 39:8 42:3 43:4 45:16 46:2 52:4 53:11 60:6 61:11 #
0.50000003576649798553432901826454 4:8 5:14 11:9 12:16 13:5 18:2 19:14 20:12 21:4 22:7 23:8 26:5 27:16 28:16 29:16 30:16 31:13 34:1 35:7 36:10 37:12 38:16 39:6 44:2 45:15 46:10 52:10 53:16 54:2 60:10 61:15 62:3 #
0.50000003576649798553432901826454 4:2 5:11 6:1 12:7 13:13 14:1 19:6 20:15 21:2 22:4 23:7 26:1 27:14 28:11 30:14 31:8 34:7 35:16 36:16 37:16 38:16 39:3 44:3 45:13 46:14 53:15 54:9 60:3 61:15 62:5 #
-0.12123196289892979038427256455179 3:8 4:13 5:6 10:2 11:16 12:12 13:11 14:10 19:16 20:16 21:14 22:8 23:1 27:13 28:11 34:2 35:15 36:4 43:16 44:13 50:2 51:15 52:16 53:2 59:11 60:16 61:4 #
-0.11307726799078993140668103478674 3:3 4:10 5:14 6:14 10:10 11:16 12:14 13:10 14:15 19:8 26:6 27:16 28:8 29:1 34:2 35:11 36:15 37:15 38:5 45:15 46:15 52:12 53:13 54:1 60:11 61:4 #
-0.10315498783848461861190060062654 4:10 5:16 6:15 7:3 11:6 12:13 13:10 14:16 15:2 19:3 20:1 21:2 22:14 29:8 30:8 35:1 36:8 37:14 38:15 39:8 42:1 43:15 44:16 45:13 46:3 51:2 52:9 53:7 60:14 61:1 #
0.50000003576649798553432901826454 4:13 5:9 7:5 8:1 11:11 12:13 13:1 14:4 15:15 16:2 18:4 19:16 20:1 22:13 23:10 26:11 27:14 28:8 29:10 30:16 31:4 34:5 35:15 36:16 37:16 38:13 39:2 44:7 45:14 52:11 53:8 60:14 61:2 #
0.50000003576649798553432901826454 4:9 5:9 11:4 12:16 13:2 19:12 20:9 22:1 23:12 24:4 26:8 27:15 28:1 30:11 31:12 32:1 34:10 35:14 36:6 37:13 38:16 39:5 42:8 43:16 44:11 45:16 46:10 52:5 53:15 54:2 60:12 61:7 #
0.50000003576649798553432901826454 4:1 5:16 6:8 12:3 13:16 14:6 20:7 21:15 22:9 23:3 27:3 28:14 29:8 30:16 31:4 34:7 35:15 36:14 37:12 38:16 39:3 41:3 42:15 43:16 44:16 45:16 46:16 47:1 49:1 50:4 51:4 52:4 53:14 54:13 60:1 61:16 62:7 #
-0.087351759995301564432068630594586 3:6 4:11 5:2 10:1 11:16 12:12 13:14 14:3 19:13 20:3 21:11 22:15 27:6 28:16 29:15 30:16 31:5 36:4 37:8 38:10 39:10 46:1 47:15 51:1 52:1 53:2 54:7 55:15 56:5 59:4 60:12 61:16 62:16 63:13 64:2 #
-0.12934464898280270683805781573028 3:2 4:12 5:14 6:5 10:2 11:15 12:6 13:8 14:14 15:6 18:5 19:9 21:5 22:16 23:4 26:5 27:9 28:4 29:15 30:12 35:14 36:13 37:16 38:5 44:4 45:12 52:11 53:5 59:2 60:15 61:4 #
-0.11598053913844728890492064010687 3:9 4:12 5:2 10:3 11:16 12:16 13:16 14:16 15:3 18:4 19:15 20:13 21:14 22:16 23:6 26:2 27:15 28:11 29:16 30:11 31:1 34:1 35:14 36:16 37:11 42:5 43:14 44:6 45:16 46:5 50:7 51:15 52:8 53:13 54:16 58:1 59:7 60:11 61:16 62:13 #
0.50000003576649798553432901826454 4:4 5:16 6:10 12:7 13:16 14:6 20:15 21:11 22:1 27:9 28:15 29:2 30:1 34:11 35:16 36:9 37:5 38:15 39:7 42:8 43:16 44:16 45:16 46:16 47:1 51:2 52:8 53:16 54:11 60:6 61:16 62:6 #
0.50000003576649798553432901826454 2:3 3:16 4:5 6:3 7:5 10:7 11:16 12:5 14:12 15:14 18:10 19:16 20:2 21:9 22:16 23:5 26:7 27:16 28:14 29:16 30:13 35:7 36:16 37:15 38:5 43:5 44:16 45:6 51:14 52:11 58:3 59:16 60:9 #
0.50000003576649798553432901826454 4:4 5:14 6:14 11:3 12:15 13:13 14:3 19:15 20:15 21:1 26:7 27:16 28:5 30:9 31:6 34:11 35:16 36:8 37:12 38:16 39:9 42:3 43:11 44:12 45:16 46:14 52:6 53:16 54:9 60:7 61:16 62:4 #
-0.084296167477584046934246941873425 3:1 4:10 5:13 6:1 11:14 12:12 13:8 14:2 18:5 19:14 20:1 26:6 27:11 34:8 35:14 36:14 37:12 38:11 42:1 43:16 44:10 46:2 47:10 51:13 52:11 53:1 55:13 59:1 60:8 61:15 62:16 63:9 #
-0.12684790885704577689807592832949 3:6 4:9 5:12 6:16 7:10 11:11 12:13 13:5 14:4 15:4 19:12 20:4 26:3 27:15 28:3 29:4 30:2 34:2 35:16 36:14 37:12 38:14 39:7 43:1 46:10 47:4 50:12 51:13 53:1 54:13 55:2 59:6 60:16 61:16 62:7 #
-0.10792341760002487072167554060798 3:2 4:10 5:16 6:16 7:2 10:1 11:16 12:15 13:5 14:1 18:8 19:13 26:12 27:11 34:5 35:16 36:7 43:3 44:13 45:12 52:4 53:16 60:14 61:12 #
0.50000003576649798553432901826454 4:6 5:16 6:3 11:2 12:15 13:10 14:11 15:5 19:13 20:9 21:4 22:16 23:3 26:4 27:15 28:4 29:9 30:16 31:3 34:11 35:15 36:12 37:16 38:16 39:10 42:5 43:15 44:14 45:16 46:9 52:7 53:13 54:1 60:9 61:9 #
0.50000003576649798553432901826454 4:9 5:4 12:16 13:3 19:8 20:12 22:1 26:4 27:15 28:2 29:1 30:15 31:3 34:8 35:13 37:8 38:16 39:3 42:8 43:16 44:16 45:16 46:13 47:4 51:4 52:10 53:13 60:7 61:12 #
0.50000003576649798553432901826454 4:7 5:10 11:7 12:16 13:5 19:14 20:11 26:4 27:16 28:5 29:4 30:8 34:3 35:16 36:16 37:16 38:14 42:1 43:6 44:8 45:16 46:7 52:3 53:16 54:5 60:9 61:13 62:2 #
-0.18158068012112466016461098661239 3:2 4:7 5:12 6:8 11:11 12:16 13:16 14:6 19:6 20:12 27:13 28:8 29:4 35:14 36:16 37:16 38:14 39:1 43:3 44:8 45:9 46:16 47:2 52:9 53:10 54:14 60:13 61:13 62:4 #
-0.12831728820704593752033417786151 3:2 4:7 5:12 6:16 7:11 11:10 12:15 13:16 14:16 15:16 20:10 21:16 22:16 23:12 28:4 29:16 30:16 31:4 36:5 37:16 38:15 39:4 44:10 45:16 46:12 51:2 52:15 53:16 54:3 59:1 60:13 61:14 62:1 #
-0.1353369290942127156629481987693 4:6 5:15 6:6 12:12 13:10 14:13 20:11 21:15 22:14 27:9 28:11 29:14 34:4 35:11 37:10 38:6 42:3 43:9 45:1 46:14 47:1 51:11 52:8 53:2 54:9 55:7 60:6 61:12 62:13 63:7 #
0.50000003576649798553432901826454 4:2 5:9 12:5 13:10 20:12 21:4 22:8 27:4 28:12 29:6 30:13 35:10 36:8 37:8 38:10 42:7 43:16 44:13 45:16 46:15 47:2 50:6 51:10 52:11 53:16 54:8 60:4 61:13 #
0.50000003576649798553432901826454 4:7 5:11 12:11 13:5 14:2 19:3 20:14 21:3 22:14 27:8 28:6 29:7 30:7 34:1 35:15 36:4 37:12 38:9 39:4 42:5 43:16 44:16 45:16 46:15 47:8 50:1 51:1 52:6 53:10 60:10 61:9 #
0.50000003576649798553432901826454 4:6 5:16 12:9 13:15 19:2 20:15 21:8 22:14 27:12 28:14 29:8 30:16 34:9 35:16 36:12 37:14 38:14 39:3 42:8 43:16 44:16 45:16 46:15 47:8 50:1 51:4 52:10 53:16 54:5 60:5 61:16 62:4 #
-0.11902313310860038186866916021245 4:3 5:11 6:15 7:1 11:6 12:16 13:16 14:16 15:9 18:2 19:16 20:16 21:16 22:13 23:14 27:11 28:8 29:1 30:9 31:9 37:1 38:15 45:6 46:10 53:12 54:3 61:13 #
-0.12153031161469661503016226333784 2:1 4:6 5:16 6:8 10:11 11:7 12:13 13:3 14:13 15:2 18:11 19:14 20:4 22:8 23:4 26:9 27:7 30:5 31:7 34:6 35:9 38:5 39:8 43:13 44:4 46:11 47:9 51:6 52:14 53:11 54:16 55:7 60:5 61:16 62:10 #
-0.11790970610382545125105480110506 3:12 4:16 5:16 6:10 11:13 12:13 13:8 14:16 15:5 22:16 23:8 27:1 28:8 29:13 30:15 31:2 35:7 36:16 37:16 38:15 39:3 44:3 45:4 46:11 47:15 50:1 51:11 53:2 54:13 55:15 58:1 59:13 60:16 61:16 62:14 63:6 #
0.50000003576649798553432901826454 5:12 6:10 12:5 13:16 14:2 19:2 20:15 21:8 22:3 23:10 26:1 27:12 28:11 29:1 30:6 31:14 34:11 35:16 36:16 37:16 38:15 39:10 42:5 43:8 44:8 45:10 46:16 47:3 53:11 54:11 61:13 62:6 #
0.50000003576649798553432901826454 5:14 6:4 12:5 13:15 14:1 20:14 21:8 23:2 27:8 28:14 29:2 30:7 31:13 34:3 35:15 36:5 38:13 39:7 42:12 43:15 44:8 45:10 46:16 47:2 49:1 50:9 51:12 52:12 53:15 54:15 55:1 61:15 62:4 #
0.50000003576649798553432901826454 4:5 5:16 6:3 11:1 12:16 13:10 14:1 15:14 16:4 19:11 20:12 21:1 22:9 23:14 24:2 26:6 27:15 28:3 29:4 30:16 31:5 34:13 35:15 36:14 37:16 38:16 39:8 42:12 43:13 44:14 45:16 46:9 52:5 53:16 54:2 60:7 61:11 #
-0.078730956049650552275309678407211 3:3 4:9 5:14 6:4 10:1 11:16 12:15 13:13 14:10 15:2 18:1 19:15 20:5 21:1 22:13 23:12 27:15 28:12 29:11 30:16 31:3 35:4 36:16 37:16 38:9 43:11 44:16 45:16 46:7 51:15 52:16 53:16 54:8 59:3 60:13 61:15 62:4 #
-0.12550225151254740252326769223146 3:5 4:15 5:15 6:11 11:16 12:5 14:11 15:5 19:15 20:3 22:12 23:10 27:5 28:13 30:12 31:6 36:10 37:16 38:9 44:10 45:16 46:4 51:6 52:12 53:8 54:9 59:6 60:16 61:12 62:4 #
-0.15227476371698078771999007585691 2:5 3:16 4:5 10:9 11:16 12:14 18:12 19:14 20:14 26:7 27:13 28:12 35:11 36:8 38:3 39:1 43:16 44:8 45:7 46:14 47:11 50:8 51:16 52:16 53:16 54:16 55:11 58:6 59:16 60:16 61:11 62:6 63:1 #
0.50000003576649798553432901826454 4:1 5:15 6:3 11:1 12:11 13:11 14:1 19:10 20:13 22:10 26:6 27:16 28:6 29:6 30:15 31:3 34:8 35:16 36:16 37:16 38:16 39:9 43:2 44:4 45:15 46:4 52:1 53:16 54:1 60:2 61:15 #
0.50000003576649798553432901826454 3:1 4:11 5:12 11:8 12:16 13:3 14:3 15:1 18:1 19:16 20:11 22:15 23:8 26:11 27:15 28:5 29:10 30:16 31:1 34:6 35:16 36:16 37:16 38:16 39:8 43:3 44:12 45:15 46:12 47:4 52:13 53:11 60:14 61:5 #
0.43247273080331738448478517966578 4:3 5:9 12:9 13:11 20:15 21:5 23:2 27:11 28:12 30:14 31:8 34:3 35:16 36:12 37:11 38:16 39:8 42:7 43:12 44:12 45:15 46:16 47:4 53:12 54:7 60:5 61:13 62:2 #
-0.12865679098507598610012792050838 3:10 4:16 5:16 6:12 11:6 12:16 13:9 14:7 19:7 20:16 21:4 27:11 28:16 29:16 30:10 31:1 35:3 36:8 37:6 38:13 39:11 46:7 47:16 53:3 54:15 55:15 59:10 60:16 61:16 62:13 63:2 #
-0.059812195845958787687735025428992 2:4 3:16 4:16 5:15 6:5 10:7 11:15 12:13 13:13 14:14 15:5 18:2 19:15 20:8 23:1 27:6 28:15 29:4 36:15 37:7 44:11 45:12 51:2 52:15 53:9 58:1 59:16 60:15 61:3 #
-0.1212917222632340086274638224495 3:14 4:16 5:14 6:5 11:3 13:2 14:16 15:3 20:4 21:10 22:15 23:1 26:6 27:16 28:16 29:14 30:2 34:1 35:4 36:6 37:12 38:12 46:12 47:9 51:10 53:4 54:14 55:5 59:13 60:16 61:13 62:4 #
0.50000003576649798553432901826454 4:10 5:14 11:4 12:16 13:7 19:8 20:16 21:6 22:8 27:14 28:9 29:8 30:15 34:4 35:16 36:3 37:11 38:15 39:6 42:10 43:16 44:16 45:16 46:16 47:9 50:6 51:12 52:13 53:16 54:7 60:12 61:16 62:2 #
0.50000003576649798553432901826454 4:8 5:11 11:1 12:15 13:4 19:12 20:9 23:3 26:2 27:16 28:2 30:9 31:14 34:11 35:13 37:7 38:15 39:3 42:13 43:16 44:12 45:16 46:8 50:6 51:12 52:12 53:14 54:1 60:7 61:12 #
0.50000003576649798553432901826454 4:6 5:16 6:1 11:3 12:16 13:8 14:4 15:15 18:1 19:14 20:11 22:10 23:14 26:9 27:16 28:13 29:12 30:16 31:12 34:3 35:12 36:11 37:12 38:16 39:6 45:12 46:12 47:1 52:2 53:16 54:6 60:7 61:13 62:1 #
-0.11908869803786621688335145563542 2:3 3:13 4:16 5:4 10:7 11:14 12:16 13:8 19:1 20:16 21:7 27:9 28:15 29:1 34:1 35:16 36:8 42:7 43:16 44:1 50:9 51:16 52:4 53:4 54:4 55:4 58:4 59:16 60:16 61:16 62:16 63:8 #
-0.089867485096788976561832384959416 3:4 4:15 5:5 11:12 12:16 13:14 14:1 18:1 19:15 20:12 21:13 22:14 26:4 27:13 30:9 31:4 34:3 35:10 38:3 39:9 42:4 43:12 46:2 47:12 51:13 52:10 53:10 54:16 55:14 59:4 60:13 61:16 62:14 63:3 #
-0.14151509923437996518735815243417 3:2 4:11 5:16 6:16 7:16 8:12 11:7 12:15 13:9 14:8 15:12 16:13 22:1 23:14 24:5 30:11 31:9 37:6 38:13 44:1 45:14 46:3 52:10 53:9 59:1 60:16 61:5 #
0.50000003576649798553432901826454 4:12 5:12 11:2 12:16 13:10 19:9 20:16 21:6 26:3 27:16 28:11 29:3 30:12 31:2 34:12 35:16 36:16 37:16 38:16 39:7 42:3 43:8 44:13 45:16 46:13 47:1 52:9 53:16 54:9 60:11 61:16 62:5 #
0.50000003576649798553432901826454 4:6 5:15 6:1 11:2 12:15 13:11 19:8 20:15 21:1 26:7 27:16 28:3 30:6 31:6 34:9 35:16 36:16 37:13 38:15 39:12 42:1 43:6 44:10 45:16 46:16 47:8 52:1 53:16 54:10 55:1 60:6 61:16 62:2 #
0.50000003576649798553432901826454 4:14 5:7 6:1 7:6 11:6 12:15 13:2 14:11 15:15 18:2 19:14 20:10 21:2 22:16 23:8 26:7 27:16 28:10 29:13 30:16 31:14 34:6 35:16 36:16 37:16 38:11 39:5 44:7 45:15 46:1 52:10 53:10 59:1 60:15 61:4 #
-0.10165576991761361702604204992895 2:1 3:14 4:16 5:5 10:2 11:13 12:13 13:16 14:4 19:4 20:13 21:16 22:3 27:9 28:16 29:16 30:13 35:4 36:8 37:8 38:16 39:8 44:1 45:5 46:14 47:11 50:1 51:13 52:16 53:16 54:15 55:3 59:15 60:11 61:5 62:1 #
0.44813309037596510409073857772455 4:2 5:16 6:1 11:1 12:13 13:7 15:4 16:5 19:8 20:12 22:1 23:15 24:5 26:4 27:16 28:2 30:11 31:10 34:12 35:15 36:12 37:12 38:16 39:1 42:9 43:12 44:12 45:14 46:13 52:1 53:14 54:5 60:4 61:12 #
-0.15621741228236105114568488261284 3:1 4:7 5:11 6:13 7:11 8:5 11:7 12:16 13:16 14:13 15:16 16:4 19:14 20:8 26:4 27:16 28:9 29:8 30:5 34:8 35:16 36:16 37:16 38:16 39:2 42:2 43:4 44:4 45:12 46:15 52:7 53:16 54:5 60:12 61:5 #
-0.11975783248517142542954871942129 3:10 4:16 5:15 6:6 12:4 13:16 14:15 21:14 22:13 29:14 30:16 31:3 37:3 38:15 39:12 45:1 46:15 47:15 52:2 53:12 54:16 55:8 59:7 60:15 61:15 62:7 #
0.50000003576649798553432901826454 4:8 5:15 12:16 13:10 19:4 20:16 21:4 27:12 28:12 34:9 35:16 36:5 37:7 38:14 41:3 42:16 43:16 44:13 45:16 46:13 49:1 50:7 51:9 52:15 53:16 54:7 60:12 61:14 62:2 #
0.50000003576649798553432901826454 4:7 5:14 6:1 12:9 13:11 20:12 21:7 22:4 23:8 27:5 28:15 29:2 30:16 31:5 34:3 35:16 36:7 37:6 38:16 42:11 43:16 44:15 45:15 46:16 47:2 51:2 52:8 53:16 54:9 60:5 61:16 62:2 #
-0.089205950057549374121457219644071 3:6 4:13 5:15 6:5 10:7 11:16 12:11 13:11 14:16 18:10 19:12 21:3 22:16 23:2 26:4 27:3 29:5 30:13 37:14 38:6 44:6 45:14 46:1 51:2 52:16 53:14 54:16 55:13 59:8 60:16 61:12 62:8 #
-0.11641940907634067137177424910988 3:2 4:12 5:13 10:3 11:15 12:13 13:16 18:10 19:13 20:1 21:16 27:1 28:4 29:16 36:6 37:13 44:9 45:10 46:7 47:8 52:14 53:15 54:15 55:3 60:15 61:12 62:3 #
-0.10302765567882787856035520235309 3:12 4:16 5:14 6:2 10:7 11:11 12:2 13:7 14:12 18:11 19:15 20:12 21:14 22:11 26:2 27:8 28:8 29:13 30:12 37:7 38:14 45:1 46:14 47:5 51:12 52:12 53:5 54:10 55:12 59:8 60:8 61:12 62:16 63:6 #
0.50000003576649798553432901826454 5:6 6:9 12:7 13:15 14:4 19:3 20:14 21:7 27:9 28:9 30:13 31:3 34:2 35:16 36:2 37:2 38:16 42:8 43:16 44:14 45:16 46:16 47:6 50:2 51:4 52:4 53:12 54:8 61:9 62:11 #
0.50000003576649798553432901826454 4:5 5:15 12:12 13:12 20:16 21:8 27:9 28:14 29:4 30:1 35:16 36:7 37:16 38:8 42:11 43:16 44:15 45:16 46:16 47:3 50:13 51:16 52:16 53:16 54:16 55:7 60:5 61:16 62:2 #
-0.10556916779508082604444041407987 4:3 5:13 6:2 12:9 13:16 14:2 19:2 20:15 21:16 22:4 26:2 27:13 28:16 29:16 30:2 34:4 35:12 36:8 37:16 38:7 44:4 45:16 46:9 52:5 53:16 54:16 60:2 61:15 62:9 #
-0.086156227669571164295980736369529 3:3 4:13 5:1 11:13 12:12 18:3 19:16 20:1 26:2 27:14 28:1 29:1 30:4 34:5 35:14 36:6 37:14 38:16 39:7 42:1 43:16 44:16 45:11 46:5 47:15 51:10 52:16 53:14 54:16 55:11 59:2 60:12 61:16 62:13 #
-0.12021238049800628266972069013718 3:10 4:15 5:16 6:6 10:1 11:13 12:5 13:7 14:15 15:2 21:7 22:12 23:2 28:6 29:15 30:3 35:7 36:12 37:1 42:5 43:14 44:2 50:9 51:14 52:10 53:11 54:7 55:1 58:1 59:7 60:8 61:8 62:11 63:4 #
0.50000003576649798553432901826454 4:1 5:13 6:9 12:7 13:16 14:5 19:1 20:14 21:12 26:4 27:14 28:13 29:2 30:13 31:6 34:6 35:16 36:16 37:16 38:16 39:9 43:6 44:8 45:13 46:16 53:15 54:11 60:2 61:16 62:9 #
0.50000003576649798553432901826454 4:2 5:15 6:8 12:10 13:16 14:3 19:6 20:15 21:4 26:3 27:15 28:10 29:4 30:10 31:8 34:12 35:16 36:16 37:16 38:16 39:10 42:13 43:12 44:12 45:15 46:16 47:6 53:14 54:15 55:1 60:2 61:16 62:9 #
0.50000003576649798553432901826454 4:13 5:7 11:3 12:16 13:9 19:11 20:15 21:2 22:6 23:4 26:4 27:16 28:14 29:13 30:16 31:12 34:11 35:16 36:16 37:16 38:16 39:3 42:3 43:8 44:10 45:16 46:9 52:11 53:16 54:2 59:1 60:13 61:13 #
-0.11194697096016725801348457025597 3:12 4:16 5:6 10:7 11:12 12:4 13:14 18:11 19:14 21:6 22:4 26:6 27:8 29:7 30:4 37:10 38:3 44:5 45:13 51:3 52:14 53:10 59:14 60:13 61:12 62:15 63:13 64:1 #
-0.046197726958015827847248147008941 3:9 4:13 5:10 6:5 11:4 12:15 13:16 14:13 19:1 20:14 21:16 22:15 27:8 28:16 29:16 30:14 31:1 35:6 36:16 37:16 38:14 43:12 44:16 45:16 46:14 51:6 52:16 53:16 54:6 59:4 60:14 61:15 62:3 #
-0.11986766187696661078998516813954 2:2 3:14 4:16 5:13 6:7 10:3 11:12 12:8 13:13 14:16 20:5 21:14 22:11 26:2 27:12 28:16 29:10 30:1 34:3 35:16 36:15 37:9 38:1 43:3 44:11 45:15 46:15 47:1 50:3 51:6 52:4 53:5 54:16 55:8 58:3 59:13 60:16 61:14 62:12 63:2 #
0.50000003576649798553432901826454 3:5 4:16 5:4 11:13 12:16 13:1 18:2 19:16 20:11 26:8 27:16 28:12 29:10 30:16 31:6 34:2 35:13 36:16 37:16 38:16 39:6 43:1 44:14 45:16 46:6 51:5 52:16 53:11 59:5 60:16 61:7 #
0.35808335875291136263243174653326 4:5 5:14 12:13 13:7 14:2 15:8 19:5 20:13 21:1 22:11 23:10 26:2 27:14 28:4 29:1 30:16 31:4 34:12 35:14 36:8 37:13 38:16 39:10 42:15 43:16 44:16 45:16 46:12 47:2 50:3 51:3 52:5 53:15 60:6 61:13 #
0.50000003576649798553432901826454 4:3 5:15 6:5 12:6 13:16 14:2 20:6 21:16 22:3 27:2 28:13 29:5 30:12 31:2 34:5 35:13 36:13 37:9 38:16 39:1 41:4 42:16 43:16 44:16 45:16 46:15 49:2 50:9 51:7 52:4 53:13 54:9 60:5 61:16 62:5 #
-0.08418860101135747231460015882476 3:4 4:16 5:13 6:16 7:13 11:12 12:11 13:5 14:4 15:2 18:1 19:16 20:1 21:9 22:8 23:2 26:8 27:16 28:14 29:10 30:13 31:6 34:1 35:4 38:9 39:6 45:5 46:11 47:1 51:1 52:6 53:14 54:4 59:6 60:15 61:5 #
-0.11269118153439036666974004674557 3:11 4:13 5:1 6:1 10:3 11:16 12:10 13:16 14:16 15:2 18:8 19:14 20:14 21:12 22:2 26:1 27:15 28:16 29:11 35:9 36:15 37:16 38:9 43:12 44:7 45:1 46:14 47:7 51:12 52:11 53:9 54:15 55:3 59:4 60:12 61:10 62:1 #
-0.10665660416590971859562841927982 3:15 4:16 5:16 6:11 7:3 11:11 12:7 13:7 14:13 15:13 21:5 22:15 23:6 27:2 28:11 29:16 30:7 35:3 36:16 37:16 38:13 39:1 45:8 46:16 47:2 51:14 52:12 53:15 54:11 59:11 60:9 61:6 #
0.50000003576649798553432901826454 4:12 5:8 7:6 8:3 11:4 12:16 13:3 14:3 15:15 16:3 19:12 20:10 22:12 23:8 26:8 27:15 28:5 29:8 30:16 31:4 34:10 35:16 36:16 37:16 38:16 39:10 43:4 44:5 45:15 46:1 52:8 53:11 60:12 61:6 #
0.47942659819021887779300072907063 4:10 5:10 11:2 12:15 13:7 15:7 16:1 18:1 19:13 20:13 22:5 23:16 24:3 26:6 27:16 28:12 29:8 30:14 31:14 34:4 35:15 36:16 37:16 38:16 39:9 44:3 45:15 46:13 52:6 53:16 54:4 60:12 61:8 #
0.50000003576649798553432901826454 4:11 5:7 12:16 13:8 14:2 19:6 20:16 21:9 22:15 27:11 28:10 29:11 30:15 34:4 35:16 36:12 37:16 38:16 39:9 42:11 43:16 44:16 45:16 46:13 47:6 50:1 51:4 52:11 53:16 60:11 61:13 #
-0.10459315367074242808520523340121 3:7 4:13 5:6 10:3 11:16 12:8 13:13 18:2 19:14 20:8 27:6 28:16 29:16 30:14 31:6 34:1 35:14 36:14 37:13 39:1 42:4 43:16 44:2 45:13 46:6 50:1 51:15 52:4 53:4 54:13 59:5 60:14 61:16 62:10 #
-0.11778148734298705957446173897551 2:1 3:12 4:16 5:12 10:11 11:13 12:5 13:16 14:3 15:8 18:10 19:13 20:4 21:16 22:15 23:3 26:2 27:16 28:12 29:15 30:6 35:14 36:14 37:2 42:2 43:16 44:16 45:3 50:4 51:15 52:12 53:11 59:14 60:16 61:13 #
-0.061283278729197275536133560080998 4:4 5:14 11:2 12:15 13:7 19:10 20:11 26:3 27:15 28:2 34:6 35:12 36:7 37:10 38:4 42:5 43:15 44:16 45:13 46:15 47:4 51:8 52:16 53:8 54:13 55:12 60:8 61:14 62:13 63:6 #
0.50000003576649798553432901826454 4:4 5:15 11:1 12:13 13:11 19:7 20:16 21:7 22:12 26:2 27:16 28:11 29:10 30:16 31:2 34:6 35:16 36:16 37:16 38:16 39:3 43:4 44:4 45:15 46:13 47:1 52:1 53:16 54:7 60:4 61:11 62:1 #
0.39196195496914154610124114697101 4:9 5:12 11:2 12:16 13:6 19:13 20:14 23:7 24:1 26:2 27:16 28:9 30:9 31:16 32:1 34:6 35:16 36:11 37:11 38:16 39:6 42:9 43:16 44:16 45:16 46:12 50:1 51:4 52:9 53:16 54:4 60:10 61:11 #
0.40565326103813204028369909792673 4:10 5:12 11:6 12:16 13:3 19:14 20:10 23:3 24:1 26:6 27:16 28:2 30:6 31:16 32:2 34:14 35:16 36:5 37:9 38:15 39:6 42:10 43:16 44:14 45:16 46:12 52:4 53:16 54:2 60:10 61:11 #
-0.11891097051193759426279683566463 4:2 5:11 6:13 7:2 11:2 12:13 13:16 14:16 15:2 18:3 19:15 20:14 21:13 22:16 27:6 29:15 30:9 37:16 38:6 44:4 45:16 52:5 53:16 54:3 60:3 61:16 62:6 #
-0.14224280834785876792558667602862 3:13 4:13 10:6 11:16 12:7 18:10 19:13 26:8 27:16 28:13 29:16 30:10 34:8 35:16 36:14 37:9 38:15 39:6 42:5 43:16 44:6 46:2 47:15 50:7 51:16 52:12 54:3 55:15 58:1 59:6 60:13 61:16 62:16 63:8 #
-0.10442664985248291398267639351616 2:1 3:13 4:16 5:16 6:11 10:6 11:16 12:7 13:8 14:6 18:4 19:16 20:3 21:4 22:3 26:5 27:16 28:16 29:16 30:16 31:3 34:8 35:13 36:5 38:11 39:12 46:10 47:11 50:2 51:11 52:4 53:6 54:16 55:4 58:1 59:15 60:16 61:16 62:8 #
0.39493720641142876504048331298691 4:2 5:13 6:7 12:9 13:15 14:3 19:2 20:14 21:10 27:13 28:13 29:2 30:6 34:8 35:15 36:2 37:14 38:14 41:4 42:15 43:16 44:16 45:16 46:12 49:1 50:4 51:8 52:10 53:16 54:7 60:5 61:16 62:6 #
0.48539569406871019285887314254069 4:3 5:15 6:5 11:3 12:14 13:13 14:1 18:1 19:14 20:13 21:1 22:1 23:2 26:8 27:16 28:3 30:12 31:12 34:12 35:14 36:8 37:8 38:16 39:7 42:5 43:15 44:16 45:16 46:16 47:1 53:15 54:11 60:2 61:16 62:7 #
0.37357980085454578489390087270294 4:9 5:8 11:1 12:15 13:5 19:9 20:11 21:1 22:2 26:1 27:16 28:3 29:9 30:11 34:10 35:14 36:4 37:14 38:13 39:3 42:15 43:16 44:16 45:16 46:16 47:5 50:2 51:4 52:10 53:13 54:2 60:11 61:12 #
-0.098049184608263117990389901024173 3:4 4:11 5:14 6:12 10:4 11:16 12:9 13:5 14:16 15:1 18:11 19:8 21:6 22:13 26:5 27:6 28:1 29:13 30:5 36:11 37:9 43:4 44:16 45:1 51:10 52:9 55:1 59:3 60:16 61:16 62:14 63:6 #
-0.10393889917444512627220376543846 3:6 4:14 5:13 6:2 10:10 11:16 12:9 13:16 14:12 18:5 19:16 20:16 21:16 22:16 23:3 27:5 28:9 29:5 30:8 31:8 38:8 39:8 45:1 46:12 47:8 51:5 52:16 53:16 54:15 55:3 59:4 60:15 61:9 62:2 #
-0.044360124174166196131530170987389 2:2 3:15 4:11 5:1 10:13 11:15 12:15 13:8 18:16 19:9 20:8 21:11 26:7 27:1 28:10 29:9 36:13 37:7 43:2 44:16 45:5 50:1 51:14 52:15 53:16 54:16 55:12 56:2 58:2 59:13 60:16 61:14 62:11 63:6 #
0.50000003576649798553432901826454 4:13 5:14 11:8 12:15 13:3 14:5 15:3 18:2 19:16 20:8 21:1 22:16 23:10 26:11 27:16 28:8 29:10 30:16 31:6 34:5 35:16 36:16 37:16 38:16 39:6 44:9 45:15 52:12 53:10 60:16 61:2 #
0.46840176560625845780805320828222 4:4 5:16 6:4 12:9 13:16 14:3 19:4 20:16 21:8 22:4 23:11 26:1 27:12 28:14 29:2 30:13 31:14 34:11 35:16 36:13 37:13 38:16 39:7 42:9 43:16 44:16 45:16 46:13 47:3 52:6 53:16 54:6 60:6 61:16 62:4 #
0.46355533715635582892033994539815 4:8 5:12 12:15 13:5 14:11 15:7 19:8 20:12 21:1 22:16 23:3 26:3 27:15 28:5 29:6 30:14 34:12 35:15 36:10 37:15 38:16 39:7 42:12 43:16 44:16 45:16 46:10 47:3 51:2 52:7 53:13 60:11 61:10 #
-0.13936524461506608063565693100827 3:3 4:13 5:15 6:6 10:2 11:11 12:15 13:7 14:16 15:3 18:16 19:16 20:9 21:8 22:16 23:6 26:9 27:16 28:16 29:16 30:16 31:5 35:4 36:8 37:16 38:11 44:9 45:16 46:1 52:14 53:11 59:1 60:16 61:7 #
-0.11595482868631459827390983718942 3:2 4:10 5:13 6:4 11:11 12:16 13:15 14:5 18:5 19:16 20:11 21:2 26:10 27:15 28:2 34:3 35:13 36:15 37:5 44:8 45:16 46:6 51:2 52:10 53:16 54:7 59:3 60:15 61:10 #
-0.079502455974340455191473608920205 2:4 3:16 4:16 5:16 6:8 11:4 12:2 13:11 14:12 20:3 21:15 22:6 26:2 27:4 28:11 29:15 30:1 34:10 35:16 36:16 37:16 38:16 39:9 42:1 43:12 44:12 45:4 46:4 47:2 50:2 51:16 52:2 58:7 59:14 #
0.50000003576649798553432901826454 4:8 5:14 12:12 13:12 19:1 20:15 21:9 22:5 27:11 28:15 29:15 30:12 34:3 35:16 36:11 37:16 38:10 39:2 42:13 43:16 44:16 45:16 46:16 47:8 50:5 51:8 52:12 53:16 54:7 60:8 61:16 62:2 #
0.337664503569757024070696616036 4:2 5:16 6:6 12:6 13:16 14:2 20:13 21:13 27:6 28:16 29:4 30:9 31:4 34:3 35:15 36:10 37:4 38:16 39:6 41:2 42:15 43:16 44:16 45:14 46:16 47:5 49:1 50:8 51:13 52:16 53:16 54:15 60:2 61:16 62:9 #
0.40501390028947054089414336885966 3:1 4:11 5:13 11:5 12:16 13:3 18:1 19:15 20:9 26:6 27:15 28:1 30:4 31:6 34:9 35:16 36:11 37:9 38:16 39:8 42:1 43:9 44:12 45:16 46:12 47:1 52:4 53:16 54:4 60:14 61:11 #
-0.13578903903051603441198835753312 3:4 4:10 11:2 12:15 13:2 19:2 20:16 21:4 27:7 28:16 29:9 35:14 36:14 37:14 43:3 44:3 45:16 46:3 51:1 52:7 53:14 54:11 55:4 59:4 60:14 61:16 62:13 63:14 64:8 #
-0.13457733482458575369200559634919 3:10 4:16 5:9 10:2 11:16 12:16 13:16 14:2 19:8 20:1 21:15 22:8 29:14 30:9 36:1 37:16 38:10 44:9 45:16 46:16 47:7 51:8 52:16 53:15 54:12 55:15 56:5 59:13 60:15 61:1 63:5 64:6 #
-0.086994970895812262501323175456491 2:8 3:16 4:16 5:16 6:16 7:9 10:5 11:12 12:12 13:14 14:16 15:9 20:2 21:15 22:13 28:9 29:16 30:5 35:2 36:16 37:13 43:11 44:16 45:4 50:7 51:16 52:15 58:6 59:16 60:11 #
0.36881363211563905624146286754694 3:1 4:10 5:11 11:7 12:15 13:3 15:9 16:1 18:2 19:16 20:7 22:6 23:15 24:2 26:8 27:16 28:7 29:4 30:13 31:11 34:8 35:16 36:16 37:16 38:16 39:2 42:1 43:4 44:7 45:16 46:12 52:4 53:16 54:4 60:14 61:9 #
0.25383144870248158797565452005074 3:1 4:12 5:11 11:9 12:15 13:3 18:2 19:16 20:9 23:4 26:7 27:16 28:10 29:4 30:11 31:15 34:4 35:16 36:16 37:16 38:16 39:9 43:5 44:9 45:15 46:13 52:8 53:16 54:3 60:11 61:13 #
0.3579802295950408330682535051892 4:2 5:16 6:4 12:9 13:13 19:2 20:15 21:5 22:9 23:7 27:12 28:10 29:1 30:16 31:5 34:7 35:15 36:8 37:10 38:16 39:2 41:3 42:16 43:16 44:16 45:16 46:13 49:1 50:8 51:7 52:5 53:16 54:14 60:1 61:15 62:6 #
-0.11863153116345663551367550780924 3:6 4:14 5:14 6:4 11:14 12:15 13:6 14:13 15:2 19:7 20:16 21:16 22:15 23:1 28:10 29:10 37:14 38:1 45:4 46:11 50:3 51:10 52:4 54:13 59:9 60:12 61:16 62:12 #
-0.10715323828443568121571161100292 2:2 3:15 4:9 5:10 6:8 7:6 10:10 11:16 12:16 13:16 14:12 15:8 18:8 19:16 20:6 26:1 27:12 28:16 29:12 30:1 35:1 36:6 37:15 38:12 45:5 46:16 47:2 50:10 51:12 52:6 53:10 54:16 55:1 58:1 59:13 60:16 61:14 62:5 #
-0.094942045362111288087092475507234 4:13 5:13 6:1 11:11 12:14 13:15 14:8 18:6 19:16 20:3 21:10 22:7 26:8 27:16 28:4 29:12 30:8 34:1 35:3 36:4 37:15 38:1 43:2 44:13 45:12 51:11 52:16 53:16 54:12 55:7 59:3 60:9 61:8 62:11 63:13 #
0.28893247135673705283664958187728 4:7 5:3 12:15 13:5 19:6 20:14 21:2 22:8 27:12 28:8 29:5 30:14 34:6 35:16 36:12 37:14 38:15 39:4 42:2 43:10 44:15 45:16 46:14 47:5 52:12 53:11 60:11 61:9 #
0.32863021921528234869924744998571 4:5 5:16 6:2 12:12 13:14 19:4 20:16 21:5 26:1 27:12 28:12 30:4 31:6 34:8 35:16 36:3 37:2 38:16 39:10 41:2 42:16 43:16 44:16 45:15 46:16 47:2 49:1 50:4 51:7 52:11 53:16 54:11 60:7 61:16 62:4 #
0.30559308152325331819909592923068 4:2 5:11 12:11 13:8 19:1 20:16 21:3 22:9 27:11 28:11 29:2 30:16 34:4 35:16 36:10 37:12 38:15 39:5 42:3 43:11 44:12 45:15 46:13 47:3 53:14 54:4 60:2 61:16 62:2 #
-0.1714966555592754293702029144697 4:4 5:13 6:12 7:1 11:3 12:16 13:9 14:15 15:14 16:2 19:14 20:8 21:2 22:10 23:14 26:3 27:16 28:12 29:13 30:16 31:7 35:8 36:3 37:2 38:16 39:2 45:8 46:12 53:14 54:6 60:3 61:14 62:2 #
-0.14943279050862051660075735526334 3:1 4:11 5:3 11:13 12:15 13:13 18:3 19:16 20:2 21:8 22:5 26:6 27:16 28:14 29:15 30:14 31:2 34:2 35:14 36:16 37:16 38:16 39:5 43:1 44:4 45:3 46:9 47:6 51:4 52:6 53:10 54:16 55:5 59:1 60:11 61:10 62:4 #
-0.071803553486413054796067001461779 4:7 5:15 6:14 7:2 10:4 11:13 12:9 13:8 14:16 15:4 18:7 19:16 20:6 21:3 22:16 23:3 27:7 28:16 29:16 30:8 35:1 36:16 37:14 38:14 43:7 44:11 46:15 47:8 51:6 52:15 53:5 54:15 55:5 60:9 61:14 62:7 #
0.34162482716586300979244583686523 4:2 5:15 6:3 12:9 13:13 15:2 19:7 20:15 21:1 22:5 23:12 26:2 27:16 28:10 29:4 30:12 31:7 34:6 35:13 36:14 37:16 38:16 39:5 45:8 46:13 53:15 54:5 60:3 61:12 #
0.47444626010971630014623201532231 4:6 5:16 12:14 13:11 19:4 20:16 21:3 27:12 28:11 29:3 34:4 35:16 36:5 37:16 38:7 41:1 42:15 43:16 44:13 45:16 46:14 47:4 50:9 51:15 52:15 53:16 54:15 55:1 60:6 61:15 #
0.11918652003944121831047198156739 4:3 5:14 6:8 12:13 13:12 14:1 15:2 18:1 19:11 20:13 21:1 22:7 23:14 26:5 27:15 28:3 30:13 31:8 34:13 35:14 36:8 37:11 38:16 39:7 42:10 43:16 44:16 45:16 46:12 47:3 52:3 53:16 54:5 60:3 61:15 #
-0.097490575739177978698002391411137 3:6 4:15 5:12 6:1 10:8 11:13 12:4 13:10 14:8 18:2 21:15 22:6 28:6 29:16 30:5 36:16 37:16 38:16 39:5 43:4 44:5 45:1 46:16 47:7 50:2 51:16 52:10 53:14 54:15 59:6 60:13 61:9 62:1 #
-0.09588464857277309572047840902087 2:1 3:13 4:16 5:15 6:1 10:10 11:15 12:7 13:16 14:4 18:11 19:15 20:7 21:16 22:4 26:1 27:11 28:12 29:15 35:1 36:16 37:11 43:7 44:16 45:4 51:14 52:16 53:5 54:3 59:13 60:16 61:16 62:16 63:10 #
-0.090604310748691227472839671008842 3:11 4:15 5:10 10:2 11:13 13:9 14:3 18:3 19:12 21:10 27:11 28:12 29:12 36:11 37:14 38:6 42:1 43:9 44:5 46:10 47:5 50:4 51:10 54:8 55:4 58:1 59:14 60:11 61:14 62:10 #
0.33084000076730241124423059773108 4:1 5:15 6:11 12:6 13:16 14:6 20:13 21:14 22:1 27:8 28:15 29:5 30:9 31:4 34:7 35:16 36:8 37:6 38:16 39:7 42:13 43:16 44:16 45:16 46:16 47:5 52:7 53:15 54:15 60:1 61:16 62:10 #
0.29022753784864224746442573632521 4:5 5:13 12:14 13:6 19:9 20:13 22:2 26:1 27:16 28:4 29:5 30:14 34:9 35:14 37:7 38:10 42:10 43:16 44:12 45:14 46:14 50:2 51:8 52:12 53:15 54:1 60:4 61:11 #
0.36715167272861282121709791681496 4:1 5:16 6:5 12:4 13:16 14:6 20:7 21:15 22:3 23:2 27:1 28:14 29:8 30:16 31:7 34:3 35:12 36:15 37:9 38:16 39:2 41:2 42:15 43:16 44:16 45:16 46:15 50:3 51:7 52:8 53:15 54:12 60:1 61:16 62:9 #
-0.13343074232246129873225015671778 5:7 6:16 7:11 12:1 13:16 14:16 15:7 19:4 20:15 21:16 22:5 26:4 27:16 28:16 29:15 34:1 35:8 36:16 37:16 38:3 44:10 45:16 46:9 52:4 53:16 54:12 61:7 62:12 #
-0.087032069778223322686905305545224 2:1 3:10 4:16 5:12 6:1 10:8 11:15 12:5 13:12 14:11 18:11 19:12 20:3 21:13 22:16 23:3 26:4 27:14 28:16 29:13 30:14 31:9 36:4 38:8 39:13 43:1 46:3 47:16 48:1 50:2 51:15 52:1 54:8 55:15 56:1 59:9 60:16 61:16 62:16 63:6 #
-0.13527017572644609022525230557221 3:5 4:16 5:5 11:2 12:16 13:13 19:11 20:16 21:16 22:2 27:3 28:12 29:16 30:9 37:14 38:14 45:9 46:16 47:3 51:9 52:12 53:14 54:16 55:8 56:5 59:4 60:12 61:13 62:16 63:16 64:15 #
0.23337969080769979668410485373897 4:4 5:16 6:2 12:14 13:11 14:8 15:5 19:10 20:13 21:1 22:12 23:8 26:6 27:16 28:1 30:14 31:6 34:10 35:14 36:8 37:13 38:16 39:11 42:3 43:11 44:12 45:13 46:14 47:2 52:1 53:14 54:6 60:8 61:13 62:1 #
0.19811873293649706617713945888681 4:3 5:10 6:1 11:3 12:15 13:9 15:4 19:12 20:12 22:4 23:11 26:2 27:14 28:3 30:13 31:6 34:7 35:14 36:8 37:9 38:16 39:2 42:5 43:12 44:12 45:14 46:15 47:1 53:11 54:6 61:13 62:3 #
0.18326198218223019309469634663401 4:8 5:15 6:1 11:1 12:15 13:11 19:12 20:14 21:1 22:8 23:15 24:1 26:7 27:16 28:6 29:4 30:16 31:10 34:9 35:16 36:16 37:16 38:16 39:1 42:1 43:5 44:12 45:16 46:11 47:1 52:10 53:15 54:1 60:10 61:10 #
-0.13170958837883511849398132653732 3:2 4:16 5:15 6:7 11:3 12:12 13:13 14:13 20:6 21:16 22:10 28:6 29:16 30:3 35:3 36:15 37:10 38:12 42:1 43:13 44:5 46:13 47:6 51:16 52:5 54:7 55:15 59:3 60:11 61:16 62:16 63:12 64:2 #
-0.098160709114006788889028598532605 2:2 3:13 4:16 5:16 6:13 7:1 10:14 11:15 12:8 13:10 14:16 15:4 18:5 19:2 21:6 22:16 23:4 27:8 28:16 29:16 30:16 31:9 35:5 36:14 37:16 38:9 39:2 43:2 44:16 45:11 51:8 52:16 53:3 58:2 59:16 60:9 #
-0.12935744930997464252619977287395 3:9 4:14 5:16 6:16 7:5 11:6 12:16 13:7 14:11 15:10 20:15 21:7 22:9 23:9 28:12 29:15 30:15 31:3 35:7 36:16 37:16 38:6 42:3 43:14 44:2 45:16 46:2 50:5 51:15 52:5 53:16 54:4 58:1 59:11 60:16 61:12 #
0.26508667452031647870924757626199 4:1 5:15 6:5 12:11 13:12 19:8 20:15 21:1 26:3 27:15 28:6 29:2 30:13 31:3 34:11 35:12 37:5 38:16 39:4 42:15 43:14 44:14 45:16 46:15 47:5 50:3 51:8 52:9 53:16 54:6 60:1 61:16 62:5 #
0.33179818622603257649572583432018 3:1 4:13 5:11 11:11 12:16 13:3 18:2 19:16 20:11 22:1 23:2 26:8 27:16 28:13 29:8 30:14 31:10 34:3 35:15 36:16 37:16 38:16 39:3 43:3 44:9 45:16 46:11 52:12 53:16 54:6 60:15 61:13 62:3 #
0.22936258946971965766437051570392 4:10 5:5 12:15 13:5 19:10 20:12 21:1 22:14 23:1 26:5 27:16 28:4 29:8 30:15 34:7 35:16 36:16 37:16 38:16 39:5 43:3 44:5 45:15 46:8 47:1 52:9 53:12 60:12 61:8 #
-0.14020742547219533502556032544817 3:7 4:16 5:14 6:2 11:13 12:13 13:9 14:13 19:11 20:10 22:14 23:5 27:5 28:14 30:12 31:9 38:12 39:8 45:4 46:16 47:5 51:2 52:8 53:14 54:15 59:8 60:16 61:16 62:16 63:16 64:4 #
-0.11701232763576355222490121832379 3:2 4:13 5:16 6:14 7:2 11:12 12:13 13:8 14:15 15:8 18:8 19:14 22:11 23:12 26:7 27:16 28:13 29:11 30:16 31:13 35:6 36:8 37:8 38:14 39:10 46:15 47:8 51:3 52:12 53:5 54:15 55:5 59:1 60:12 61:16 62:14 63:2 #
-0.12109789233771801886252461599724 3:6 4:14 5:16 6:13 10:6 11:14 12:3 14:13 15:4 18:5 19:12 21:4 22:16 23:3 27:14 28:14 29:15 30:5 34:1 35:14 36:12 37:1 42:5 43:16 44:13 45:2 50:2 51:16 52:16 53:13 59:2 60:12 61:12 #
-0.12006515669098864751429545094652 3:10 4:13 5:16 6:10 11:15 12:9 13:2 14:2 18:4 19:16 20:16 21:14 22:4 27:3 28:1 29:4 30:16 31:3 38:12 39:7 46:12 47:7 50:5 51:8 53:4 54:15 55:1 58:1 59:11 60:14 61:15 62:2 #
-0.1265586952619969784983311456017 3:5 4:13 5:6 6:1 11:8 12:16 13:16 14:15 15:2 19:3 20:13 21:1 22:13 23:8 27:2 28:14 29:15 30:14 31:2 34:2 35:14 36:15 37:15 38:3 42:7 43:11 45:6 46:10 50:5 51:11 52:1 53:1 54:16 59:8 60:13 61:16 62:13 63:1 #
-0.11346315682442603689494831087359 4:4 5:11 6:12 7:5 11:1 12:16 13:16 14:16 15:1 19:8 20:16 21:16 22:13 26:1 27:14 28:16 29:16 30:4 34:4 35:16 36:16 37:16 38:4 42:7 43:16 44:16 45:16 46:1 50:1 51:12 52:16 53:16 54:3 60:7 61:12 62:8 #
-0.12372961568365152540405205172647 2:4 3:15 4:15 5:8 6:1 10:4 11:16 12:11 13:16 14:15 18:1 19:5 21:11 22:16 23:4 28:6 29:16 30:13 31:1 36:12 37:16 38:1 44:6 45:16 46:5 52:4 53:16 54:8 58:4 59:16 60:16 61:16 62:6 #
-0.11408944989580914464166738753192 3:9 4:13 5:15 6:10 7:1 11:7 12:4 13:4 14:12 15:13 22:7 23:11 27:2 28:12 29:13 30:12 31:2 36:10 37:15 38:1 44:1 45:11 46:9 51:12 52:3 53:3 54:15 59:8 60:16 61:16 62:3 #
