SVM-light Version V6.02
0 # kernel type
3 # kernel parameter -d 
1 # kernel parameter -g 
1 # kernel parameter -s 
1 # kernel parameter -r 
empty# kernel parameter -u 
64 # highest feature index 
2823 # number of training documents 
213 # number of support vectors plus 1 
0.11340851 # threshold b, each following line is a SV (starting with alpha*y)
0.00025891163206971532168357286174398 4:10 5:11 12:15 13:11 14:9 19:5 20:15 21:10 22:16 23:2 27:13 28:9 29:12 30:13 34:3 35:16 36:7 37:13 38:14 39:5 42:12 43:16 44:16 45:16 46:16 47:8 50:5 51:8 52:13 53:16 54:4 60:11 61:15 #
0.00025891163206971532168357286174398 4:4 5:8 12:11 13:8 20:13 21:6 27:2 28:15 29:2 30:3 35:11 36:10 37:4 38:16 39:2 42:11 43:14 45:9 46:16 47:2 50:9 51:15 52:12 53:15 54:16 59:2 60:6 61:15 62:6 #
-0.00025891163206971532168357286174398 4:5 5:12 6:11 7:1 11:3 12:14 13:6 14:7 15:11 18:5 19:16 20:2 21:1 22:9 23:9 26:8 27:14 28:8 29:14 30:16 31:1 34:1 35:7 36:8 37:13 38:10 44:1 45:14 46:4 52:5 53:13 60:11 61:7 #
0.00025891163206971532168357286174398 4:6 5:9 12:12 13:12 14:8 20:16 21:7 22:12 27:6 28:11 29:7 30:10 34:1 35:14 36:4 37:13 38:13 39:5 42:5 43:16 44:16 45:16 46:13 47:5 51:4 52:6 53:16 54:9 60:8 61:16 62:7 #
3.5903645912797963607454576617783e-05 4:9 5:14 11:5 12:16 13:4 14:4 15:9 18:4 19:16 20:3 22:13 23:9 26:6 27:16 28:15 29:12 30:16 31:13 35:8 36:11 37:15 38:14 39:3 45:16 46:5 52:6 53:13 60:9 61:10 #
-0.00025891163206971532168357286174398 3:3 4:8 5:6 6:1 10:2 11:15 12:16 13:16 14:12 19:13 20:16 21:16 22:13 27:10 28:16 29:16 30:16 35:12 36:16 37:16 38:16 43:14 44:16 45:16 46:16 47:2 51:12 52:16 53:16 54:15 55:2 59:1 60:6 61:6 #
0.00025891163206971532168357286174398 4:10 5:14 7:3 8:1 11:5 12:16 13:6 14:1 15:14 16:5 18:2 19:15 20:8 21:3 22:10 23:13 26:8 27:16 28:14 29:16 30:16 31:8 34:5 35:11 36:6 37:15 38:13 39:3 44:1 45:15 52:7 53:10 60:13 61:3 #
0.00025891163206971532168357286174398 4:11 5:8 12:13 13:7 19:3 20:16 21:6 22:15 27:9 28:11 29:7 30:14 34:1 35:15 36:6 37:12 38:13 39:1 42:7 43:16 44:16 45:16 46:16 47:11 50:5 51:12 52:13 53:16 54:8 55:3 60:12 61:12 #
-0.00025891163206971532168357286174398 4:1 5:10 6:16 7:6 11:3 12:14 13:8 14:6 15:16 16:6 19:11 20:4 22:6 23:16 24:2 26:4 27:12 28:2 29:5 30:16 31:11 34:6 35:16 36:15 37:8 38:15 39:4 45:4 46:9 53:10 54:4 60:1 61:13 62:1 #
-0.00025891163206971532168357286174398 4:9 5:16 6:10 11:3 12:15 13:12 14:15 15:4 18:1 19:12 20:14 21:1 22:15 23:11 26:8 27:16 28:12 29:14 30:16 31:7 34:7 35:16 36:16 37:16 38:12 43:7 44:8 45:16 46:5 52:8 53:13 60:9 61:11 #
-0.00025891163206971532168357286174398 4:1 5:12 6:4 11:1 12:14 13:16 14:11 19:9 20:13 21:5 22:15 23:4 26:2 27:16 28:2 30:16 31:3 34:1 35:16 36:7 37:7 38:16 39:4 43:13 44:16 45:16 46:16 47:1 51:1 52:13 53:16 54:13 60:3 61:12 62:5 #
-0.00025891163206971532168357286174398 4:7 5:16 6:16 7:5 11:8 12:15 13:6 14:13 15:11 18:2 19:15 20:5 22:13 23:10 26:10 27:16 28:10 29:13 30:16 31:11 34:2 35:11 36:16 37:16 38:16 39:6 44:1 45:16 46:8 52:7 53:16 54:1 60:10 61:12 #
-0.00025891163206971532168357286174398 5:8 6:16 7:11 12:13 13:9 14:8 15:14 16:1 19:10 20:8 22:5 23:16 24:4 26:2 27:15 28:8 29:14 30:14 31:12 34:2 35:12 36:9 37:2 38:10 39:6 45:2 46:14 53:9 54:7 61:13 62:1 #
0.00025891163206971532168357286174398 2:1 3:15 4:10 10:7 11:16 12:5 13:1 14:13 15:6 18:9 19:16 20:3 21:9 22:16 23:4 26:3 27:15 28:16 29:16 30:11 35:2 36:14 37:15 38:3 43:3 44:16 45:8 51:12 52:15 58:1 59:16 60:5 #
0.00025891163206971532168357286174398 3:6 4:11 11:13 12:7 14:5 15:16 16:2 18:1 19:16 20:7 21:11 22:16 23:9 27:6 28:12 29:16 30:11 36:7 37:14 38:2 44:14 45:8 51:6 52:16 53:2 59:9 60:13 #
0.00025891163206971532168357286174398 3:15 4:7 6:2 7:11 8:1 10:3 11:16 12:6 13:1 14:12 15:13 16:2 18:4 19:16 20:5 21:8 22:15 23:3 26:2 27:16 28:16 29:16 30:13 35:4 36:14 37:15 38:3 43:7 44:16 45:3 50:1 51:13 52:10 58:1 59:16 60:3 #
0.00025891163206971532168357286174398 2:3 3:16 4:5 6:3 7:5 10:7 11:16 12:5 14:12 15:14 18:10 19:16 20:2 21:9 22:16 23:5 26:7 27:16 28:14 29:16 30:13 35:7 36:16 37:15 38:5 43:5 44:16 45:6 51:14 52:11 58:3 59:16 60:9 #
0.00025891163206971532168357286174398 3:8 4:11 7:13 8:9 10:3 11:15 12:6 14:12 15:13 16:1 18:3 19:16 20:5 21:7 22:16 23:5 27:12 28:16 29:16 30:16 31:8 35:1 36:11 37:13 38:4 43:1 44:15 45:4 51:7 52:13 59:11 60:5 #
-0.00025891163206971532168357286174398 5:7 6:13 7:1 13:9 14:16 15:2 19:1 20:9 21:16 22:16 26:4 27:12 28:16 29:16 30:16 34:5 35:10 36:3 37:12 38:15 45:10 46:15 53:12 54:15 61:9 62:12 #
-9.2858262928418536935604166160374e-05 5:11 6:15 7:2 12:9 13:16 14:16 15:3 18:1 19:10 20:16 21:16 22:12 26:9 27:16 28:16 29:16 30:13 34:11 35:14 36:8 37:16 38:9 45:16 46:12 53:15 54:13 61:12 62:10 #
-0.00025891163206971532168357286174398 3:2 4:14 5:6 11:11 12:16 13:7 19:16 20:16 26:3 27:16 28:12 34:5 35:16 36:16 37:16 38:11 39:1 42:4 43:16 44:16 45:14 46:16 47:6 51:12 52:16 53:11 54:16 55:10 59:1 60:11 61:15 62:11 63:2 #
-0.00025891163206971532168357286174398 4:5 5:9 6:13 7:14 8:6 11:4 12:16 13:8 14:4 15:10 16:9 19:6 20:16 21:16 22:16 23:15 24:4 27:1 28:11 29:12 30:16 31:6 37:2 38:16 39:2 45:10 46:6 52:2 53:15 60:5 61:14 #
0.00025891163206971532168357286174398 3:10 4:16 5:2 11:11 12:15 18:3 19:16 20:7 26:10 27:16 28:5 29:7 30:12 31:5 34:5 35:16 36:16 37:16 38:15 39:3 43:4 44:16 45:15 46:3 51:7 52:16 53:3 59:8 60:15 61:2 #
0.00025891163206971532168357286174398 4:1 5:15 6:11 12:6 13:16 14:6 20:13 21:14 22:1 27:8 28:15 29:5 30:9 31:4 34:7 35:16 36:8 37:6 38:16 39:7 42:13 43:16 44:16 45:16 46:16 47:5 52:7 53:15 54:15 60:1 61:16 62:10 #
0.00025891163206971532168357286174398 5:11 6:12 12:8 13:16 14:4 19:2 20:16 21:12 22:1 26:4 27:15 28:16 29:13 30:14 31:11 34:13 35:16 36:16 37:16 38:16 39:10 45:10 46:16 47:6 53:11 54:16 55:2 61:14 62:13 #
0.00025891163206971532168357286174398 4:1 5:15 6:10 12:9 13:16 14:4 19:1 20:15 21:12 27:9 28:16 29:3 34:1 35:15 36:10 38:15 39:11 42:8 43:16 44:16 45:16 46:16 47:8 51:4 52:8 53:16 54:12 60:4 61:16 62:7 #
0.00025891163206971532168357286174398 4:4 5:16 6:10 12:7 13:16 14:6 20:15 21:11 22:1 27:9 28:15 29:2 30:1 34:11 35:16 36:9 37:5 38:15 39:7 42:8 43:16 44:16 45:16 46:16 47:1 51:2 52:8 53:16 54:11 60:6 61:16 62:6 #
0.00025891163206971532168357286174398 5:11 6:12 12:2 13:15 14:8 20:9 21:15 22:3 27:5 28:15 29:4 30:15 31:5 35:13 36:10 38:16 39:4 42:10 43:15 44:4 45:10 46:16 47:3 50:15 51:16 52:16 53:16 54:15 55:3 59:1 61:11 62:12 #
-0.00025891163206971532168357286174398 5:5 6:14 7:3 13:11 14:16 15:8 20:6 21:16 22:16 23:2 27:7 28:16 29:16 30:16 34:3 35:16 36:14 37:14 38:16 42:4 43:12 44:4 45:13 46:15 53:14 54:16 61:6 62:16 63:1 #
-0.00025891163206971532168357286174398 4:3 5:13 6:2 12:9 13:16 14:2 19:2 20:15 21:16 22:4 26:2 27:13 28:16 29:16 30:2 34:4 35:12 36:8 37:16 38:7 44:4 45:16 46:9 52:5 53:16 54:16 60:2 61:15 62:9 #
-0.00025891163206971532168357286174398 3:4 4:10 5:12 6:12 7:13 8:4 11:6 12:8 13:4 14:6 15:15 16:2 22:12 23:6 29:7 30:12 34:5 35:16 36:16 37:16 38:13 39:1 42:2 43:4 44:13 45:10 51:3 52:16 53:2 59:7 60:14 #
-0.00025891163206971532168357286174398 5:15 6:5 12:5 13:16 14:9 19:1 20:15 21:16 22:5 26:6 27:13 28:16 29:16 30:7 34:7 35:16 36:10 37:16 38:6 44:2 45:16 46:6 52:2 53:16 54:6 60:1 61:15 62:12 #
0.00025891163206971532168357286174398 3:1 4:14 5:6 6:9 7:5 11:11 12:12 13:3 14:16 15:7 18:5 19:16 20:2 21:12 22:11 23:3 26:10 27:16 28:8 29:16 30:16 31:14 34:7 35:16 36:16 37:14 38:11 39:3 43:3 44:13 45:8 52:15 53:5 59:2 60:16 61:2 #
0.00025891163206971532168357286174398 3:7 4:16 5:2 7:4 11:15 12:12 14:4 15:16 16:3 18:6 19:16 20:2 21:2 22:15 23:10 26:10 27:14 29:12 30:12 31:1 34:9 35:16 36:16 37:16 38:10 42:1 43:8 44:16 45:9 46:1 51:7 52:14 53:1 59:10 60:8 #
0.00025891163206971532168357286174398 3:12 4:11 10:8 11:16 12:4 14:5 15:3 18:11 19:16 21:4 22:16 23:9 26:11 27:16 28:8 29:13 30:14 31:1 34:2 35:13 36:16 37:16 38:8 43:1 44:15 45:10 51:5 52:16 53:3 59:12 60:12 #
0.00025891163206971532168357286174398 3:13 4:3 10:4 11:16 12:4 14:6 15:12 18:9 19:15 21:6 22:16 23:7 26:6 27:16 28:11 29:16 30:9 35:9 36:16 37:14 38:3 43:6 44:15 45:3 51:13 52:9 59:15 60:7 #
-0.00025891163206971532168357286174398 3:2 4:11 5:16 6:15 7:1 11:4 12:8 13:10 14:16 15:4 21:3 22:16 23:4 28:3 29:8 30:16 31:3 34:5 35:12 36:16 37:16 38:16 39:7 42:8 43:8 44:8 45:16 46:3 52:14 53:9 59:3 60:16 61:2 #
-0.00025891163206971532168357286174398 3:11 4:3 10:2 11:16 12:4 18:4 19:15 26:4 27:14 28:6 29:12 30:11 31:1 34:7 35:16 36:16 37:15 38:14 39:8 42:4 43:16 44:15 45:3 46:9 47:11 50:1 51:16 52:16 53:16 54:16 55:6 59:7 60:14 61:13 62:5 #
-0.00018632900430864496408439601182749 4:12 5:7 11:7 12:16 13:3 18:2 19:15 20:6 26:4 27:16 28:10 29:7 34:5 35:16 36:16 37:16 38:12 42:6 43:16 44:9 45:5 46:16 47:3 50:1 51:14 52:15 53:11 54:16 55:3 59:1 60:10 61:16 62:7 #
-0.00025891163206971532168357286174398 3:10 4:7 11:15 12:9 18:2 19:16 20:2 26:7 27:16 28:1 29:5 30:3 34:8 35:16 36:13 37:16 38:15 39:2 42:8 43:16 44:16 45:12 46:16 47:8 50:3 51:16 52:15 53:12 54:16 55:4 59:9 60:16 61:15 62:8 #
0.00025891163206971532168357286174398 4:10 5:10 11:3 12:15 13:5 14:5 19:11 20:10 21:8 22:12 26:5 27:16 28:5 29:13 30:10 31:2 34:11 35:16 36:16 37:16 38:15 39:8 43:4 44:9 45:14 46:1 52:9 53:9 60:13 61:4 #
0.00025891163206971532168357286174398 4:1 5:12 6:8 12:4 13:16 14:4 20:9 21:16 22:1 27:5 28:16 29:8 30:1 35:10 36:16 37:11 38:15 42:5 43:16 44:11 45:15 46:15 47:3 50:12 51:16 52:16 53:16 54:16 55:5 61:15 62:14 #
0.00025891163206971532168357286174398 5:15 6:7 12:2 13:16 14:8 20:10 21:16 22:3 26:7 27:16 28:16 29:4 30:12 31:12 34:1 35:13 36:16 37:16 38:16 39:9 43:1 44:7 45:14 46:16 53:13 54:15 61:16 62:11 #
0.00025891163206971532168357286174398 4:1 5:14 6:10 12:2 13:16 14:9 19:1 20:11 21:14 22:3 26:1 27:10 28:16 29:6 30:9 31:6 34:10 35:16 36:15 37:13 38:16 39:9 42:5 43:11 44:12 45:16 46:15 47:1 53:16 54:12 61:16 62:11 #
0.00025891163206971532168357286174398 4:1 5:13 6:13 11:5 12:15 13:15 14:16 18:3 19:15 20:8 21:7 22:14 26:11 27:15 28:9 29:15 30:16 31:9 34:8 35:16 36:14 37:15 38:15 39:5 45:12 46:8 53:12 54:6 61:12 62:4 #
0.00025891163206971532168357286174398 5:10 6:7 13:15 14:5 20:4 21:16 22:3 28:7 29:15 30:3 34:3 35:7 36:14 37:12 38:16 39:1 41:1 42:14 43:16 44:16 45:16 46:15 50:9 51:10 52:14 53:16 54:16 61:12 62:9 #
-0.00025891163206971532168357286174398 5:6 6:11 12:4 13:16 14:12 19:1 20:12 21:16 22:11 26:1 27:12 28:13 29:16 30:7 34:9 35:16 36:13 37:16 38:3 42:2 43:3 44:6 45:16 46:3 52:6 53:16 54:3 61:9 62:8 #
-0.00025891163206971532168357286174398 3:1 4:15 5:11 11:9 12:16 13:16 14:1 18:8 19:16 20:16 21:15 25:1 26:16 27:16 28:16 29:14 34:4 35:6 36:15 37:15 43:2 44:16 45:12 51:1 52:16 53:13 60:14 61:12 #
1.7194932254246562616795124256441e-05 4:11 5:13 6:1 7:3 12:15 13:8 14:13 15:13 19:9 20:15 21:4 22:16 23:7 26:5 27:16 28:13 29:12 30:16 31:8 34:8 35:16 36:16 37:16 38:15 39:7 44:6 45:16 46:4 52:7 53:13 60:11 61:7 #
-0.00025891163206971532168357286174398 4:7 5:12 6:5 11:5 12:16 13:16 14:12 19:12 20:16 21:16 22:15 27:8 28:16 29:16 30:15 35:10 36:16 37:16 38:10 43:6 44:16 45:16 46:10 52:13 53:16 54:6 60:8 61:6 #
-0.00025891163206971532168357286174398 4:2 5:12 6:11 12:13 13:16 14:10 19:9 20:16 21:16 22:9 26:4 27:16 28:14 29:16 30:6 34:1 35:6 36:7 37:16 38:6 44:5 45:16 46:6 52:3 53:16 54:4 61:12 62:4 #
0.00025891163206971532168357286174398 3:14 4:5 11:13 12:8 19:16 20:7 27:15 28:8 34:2 35:16 36:5 37:15 38:3 42:2 43:16 44:9 45:14 46:11 47:1 50:6 51:16 52:16 53:16 54:16 55:15 58:1 59:8 60:5 61:7 62:16 63:8 #
0.00025891163206971532168357286174398 3:14 4:9 11:8 12:16 19:8 20:12 22:2 23:1 27:12 28:8 30:13 31:9 34:1 35:16 36:4 38:16 39:8 42:5 43:16 46:15 47:6 50:8 51:16 52:16 53:16 54:16 55:12 58:1 59:8 60:8 61:8 62:13 63:7 #
0.00025891163206971532168357286174398 4:9 5:15 11:5 12:16 13:12 19:13 20:15 21:2 26:5 27:16 28:8 34:11 35:16 36:2 37:2 38:8 39:3 42:13 43:16 44:14 45:15 46:16 47:6 50:3 51:15 52:16 53:16 54:12 59:2 60:12 61:16 62:5 #
0.00025891163206971532168357286174398 3:5 4:14 5:1 11:10 12:14 18:1 19:16 20:6 21:1 22:9 23:3 26:8 27:16 29:11 30:15 31:1 34:10 35:16 36:8 37:16 38:6 43:6 44:14 45:16 46:4 52:13 53:16 54:2 59:2 60:16 61:9 62:1 #
0.00025891163206971532168357286174398 4:9 5:10 11:2 12:15 13:9 19:6 20:16 21:6 27:13 28:13 29:5 30:1 34:3 35:16 36:7 37:16 38:8 41:1 42:13 43:16 44:10 45:16 46:12 50:13 51:16 52:16 53:16 54:16 55:3 58:2 59:4 60:10 61:16 62:2 #
-0.00025891163206971532168357286174398 3:5 4:14 5:4 11:12 12:12 19:16 20:9 26:8 27:16 34:8 35:16 36:13 37:16 38:9 39:1 42:11 43:16 44:14 45:10 46:16 47:2 50:7 51:16 52:14 53:12 54:15 55:1 58:1 59:9 60:13 61:10 62:3 #
-0.00025891163206971532168357286174398 3:10 4:8 11:13 12:11 18:1 19:16 20:7 26:4 27:16 28:3 34:4 35:16 36:9 37:11 38:10 39:1 42:8 43:16 44:16 45:16 46:16 47:7 50:4 51:16 52:16 53:16 54:16 55:5 59:8 60:15 61:16 62:12 #
-0.00018739163065671177134038916101133 3:6 4:8 11:10 12:15 19:10 20:15 27:12 28:14 34:2 35:16 36:16 37:16 38:15 39:4 43:13 44:13 45:9 46:16 47:12 51:13 52:12 53:12 54:16 55:7 59:8 60:16 61:15 62:8 #
-0.00025891163206971532168357286174398 3:2 4:15 11:8 12:14 19:12 20:8 26:2 27:16 28:5 34:6 35:16 36:8 37:8 38:1 42:8 43:16 44:16 45:16 46:14 50:3 51:15 52:10 53:6 54:16 55:6 59:4 60:11 61:16 62:14 63:1 #
-0.00025891163206971532168357286174398 2:1 3:13 4:5 10:4 11:14 18:4 19:8 21:1 22:6 23:1 26:5 27:8 28:1 29:11 30:16 31:5 34:4 35:10 36:7 37:16 38:16 39:7 42:4 43:14 44:10 45:16 46:16 47:3 50:1 51:16 52:16 53:16 54:10 59:10 60:14 61:9 62:2 #
0.00025891163206971532168357286174398 4:1 5:13 6:12 7:3 11:6 12:13 13:11 14:12 15:10 18:6 19:16 20:11 21:4 22:13 23:7 26:8 27:16 28:16 29:16 30:16 31:10 35:4 36:4 37:7 38:16 39:5 45:12 46:8 53:13 54:7 61:15 62:4 #
0.00025891163206971532168357286174398 4:13 5:6 6:2 11:2 12:16 13:8 14:16 15:3 18:1 19:14 20:13 21:12 22:16 26:9 27:16 28:16 29:16 30:16 31:10 34:3 35:12 36:14 37:16 38:13 39:6 44:8 45:16 46:1 52:11 53:10 60:13 61:7 #
0.00025891163206971532168357286174398 5:6 6:11 12:3 13:15 14:12 19:5 20:14 21:10 22:12 26:2 27:15 28:6 29:5 30:9 34:6 35:15 36:12 37:15 38:16 39:8 42:1 43:8 44:8 45:12 46:12 47:2 53:8 54:8 61:5 62:11 #
0.00019068525526843150934286352793379 4:3 5:14 11:1 12:14 13:12 14:8 15:2 19:9 20:15 21:6 22:16 23:4 26:3 27:16 28:14 29:12 30:16 31:5 34:3 35:13 36:16 37:16 38:16 39:8 45:16 46:11 47:1 52:2 53:16 54:4 60:3 61:12 62:4 #
-0.00025891163206971532168357286174398 3:4 4:15 5:3 11:8 12:16 13:1 19:14 20:13 26:3 27:16 28:10 29:4 30:3 34:8 35:16 36:16 37:16 38:16 39:5 42:8 43:16 44:6 45:4 46:14 47:8 50:5 51:16 52:11 53:8 54:16 55:5 59:6 60:15 61:16 62:11 #
0.00025891163206971532168357286174398 4:1 5:16 6:5 12:4 13:16 14:6 20:7 21:15 22:3 23:2 27:1 28:14 29:8 30:16 31:7 34:3 35:12 36:15 37:9 38:16 39:2 41:2 42:15 43:16 44:16 45:16 46:15 50:3 51:7 52:8 53:15 54:12 60:1 61:16 62:9 #
-0.00025891163206971532168357286174398 4:13 5:16 6:16 7:16 8:8 12:7 13:4 14:6 15:15 16:9 22:6 23:15 28:2 29:4 30:14 31:6 35:3 36:16 37:16 38:16 39:6 44:1 45:15 46:4 52:8 53:12 59:1 60:15 61:4 #
-0.00025891163206971532168357286174398 4:5 5:12 6:16 7:7 11:9 12:15 13:4 14:13 15:12 18:2 19:16 20:16 21:15 22:16 23:13 26:3 27:16 28:16 29:14 30:16 31:7 35:6 36:7 37:1 38:15 39:3 45:9 46:11 53:13 54:5 60:6 61:13 #
0.00025891163206971532168357286174398 3:3 4:16 11:10 12:10 13:3 14:5 19:16 20:5 21:12 22:10 26:4 27:15 28:2 29:15 30:4 34:10 35:13 36:9 37:15 38:10 39:11 42:3 43:14 44:16 45:14 46:8 47:2 52:15 53:6 59:3 60:15 #
0.00025891163206971532168357286174398 4:4 5:16 6:2 12:9 13:13 19:2 20:16 21:5 27:9 28:13 29:4 34:3 35:16 36:6 37:15 38:5 42:10 43:15 44:9 45:16 46:10 47:1 49:1 50:16 51:16 52:16 53:16 54:16 55:5 58:3 59:4 60:9 61:16 62:4 #
0.00025891163206971532168357286174398 4:7 5:12 12:11 13:11 19:2 20:16 21:3 27:9 28:12 29:9 30:3 34:1 35:15 36:7 37:16 38:7 42:9 43:16 44:14 45:16 46:16 47:8 50:8 51:12 52:14 53:16 54:12 55:5 60:7 61:15 #
0.00025891163206971532168357286174398 4:4 5:16 6:2 12:8 13:16 20:14 21:11 27:7 28:15 29:1 35:15 36:11 37:9 38:3 42:9 43:16 44:11 45:16 46:9 50:13 51:16 52:16 53:16 54:16 55:6 58:1 60:8 61:16 62:5 #
0.00025891163206971532168357286174398 3:3 4:16 5:3 11:11 12:13 13:1 14:1 18:6 19:14 20:2 21:9 22:12 26:9 27:12 29:14 30:5 31:1 34:7 35:16 36:12 37:16 38:16 39:11 43:6 44:11 45:15 46:5 47:1 52:11 53:10 59:3 60:16 61:4 #
-0.00025891163206971532168357286174398 2:2 3:15 4:16 5:6 10:3 11:14 12:14 13:16 14:2 20:6 21:16 22:2 28:11 29:16 30:1 34:8 35:14 36:16 37:16 38:16 39:5 42:10 43:16 44:15 45:11 46:12 47:5 50:5 51:16 52:7 58:5 59:14 60:1 #
-0.00025891163206971532168357286174398 3:9 4:16 5:7 11:16 12:16 13:14 19:3 20:13 21:16 27:7 28:16 29:16 30:12 31:8 35:8 36:16 37:16 38:16 39:9 44:14 45:11 51:4 52:16 53:5 59:7 60:12 #
-0.00025891163206971532168357286174398 4:7 5:12 6:1 11:3 12:16 13:12 19:8 20:13 27:14 28:9 29:1 35:14 36:16 37:16 38:16 39:5 43:12 44:16 45:11 46:6 47:16 48:1 51:6 52:15 53:2 54:7 55:15 56:2 60:8 61:13 62:12 63:6 #
-0.00025891163206971532168357286174398 3:5 4:12 11:11 12:12 19:14 20:10 27:14 28:14 29:7 30:1 34:3 35:16 36:16 37:16 38:14 39:1 42:5 43:16 44:16 45:10 46:15 47:5 51:13 52:16 53:11 54:15 55:11 59:4 60:12 61:14 62:14 63:3 #
-0.00025891163206971532168357286174398 3:4 4:13 5:11 11:1 12:13 13:16 14:7 21:14 22:9 27:1 28:6 29:16 30:14 31:5 34:1 35:13 36:16 37:16 38:10 39:3 42:2 43:8 44:13 45:10 51:1 52:16 53:2 59:4 60:13 61:1 #
0.00025891163206971532168357286174398 3:7 4:13 7:3 8:8 11:15 12:7 14:3 15:15 16:7 19:16 20:12 21:6 22:14 23:9 27:6 28:12 29:16 30:12 36:2 37:14 38:2 44:9 45:9 51:2 52:13 53:1 59:8 60:5 #
0.00025891163206971532168357286174398 3:6 4:14 7:12 8:6 11:15 12:13 14:6 15:16 16:6 18:2 19:16 20:12 21:4 22:16 23:12 26:1 27:14 28:16 29:16 30:16 31:7 35:1 36:8 37:16 38:7 44:12 45:16 46:2 51:3 52:16 53:6 59:7 60:15 #
0.00025891163206971532168357286174398 2:1 3:15 4:8 6:1 7:2 10:8 11:16 12:8 14:12 15:15 18:7 19:16 20:11 21:10 22:16 23:7 26:2 27:15 28:16 29:16 30:16 31:2 35:2 36:12 37:16 38:9 43:1 44:16 45:12 51:10 52:15 53:1 59:12 60:11 #
0.00025891163206971532168357286174398 3:12 4:12 7:5 8:1 10:2 11:16 12:9 14:4 15:16 16:5 18:1 19:16 20:13 21:5 22:13 23:12 27:7 28:16 29:16 30:16 31:6 36:3 37:16 38:9 43:1 44:12 45:12 51:7 52:16 53:1 59:12 60:7 #
0.00025891163206971532168357286174398 4:11 5:16 6:2 7:7 11:7 12:16 13:7 14:10 15:13 18:2 19:16 20:7 21:4 22:16 23:9 26:6 27:16 28:13 29:12 30:16 31:15 34:1 35:11 36:16 37:16 38:12 39:3 44:2 45:16 46:2 52:7 53:12 60:11 61:9 #
-0.00025891163206971532168357286174398 3:3 4:13 5:15 6:6 10:2 11:11 12:15 13:7 14:16 15:3 18:16 19:16 20:9 21:8 22:16 23:6 26:9 27:16 28:16 29:16 30:16 31:5 35:4 36:8 37:16 38:11 44:9 45:16 46:1 52:14 53:11 59:1 60:16 61:7 #
-0.00025891163206971532168357286174398 3:2 4:12 5:10 6:2 7:5 11:10 12:16 13:11 14:13 15:15 18:2 19:14 20:15 21:14 22:16 23:14 27:13 28:16 29:14 30:16 31:10 37:4 38:15 39:4 44:2 45:15 46:11 52:14 53:16 54:3 59:2 60:13 61:4 #
-0.00025891163206971532168357286174398 3:5 4:8 5:13 6:13 7:10 8:1 11:7 12:8 13:5 14:12 15:14 16:1 22:14 23:8 27:11 28:16 29:16 30:16 31:9 35:2 36:6 37:16 38:11 39:5 44:10 45:8 51:3 52:16 53:1 59:8 60:10 #
-0.00025891163206971532168357286174398 3:3 4:15 5:14 6:12 7:12 8:5 12:9 13:12 14:14 15:16 16:7 21:1 22:13 23:14 26:4 27:9 28:10 29:11 30:16 31:13 34:3 35:12 36:14 37:16 38:14 39:5 44:8 45:16 46:4 51:1 52:15 53:8 59:4 60:15 #
0.00025891163206971532168357286174398 5:6 6:13 7:1 12:3 13:16 14:7 20:15 21:13 22:1 27:12 28:15 29:1 34:5 35:16 36:7 37:7 38:14 39:5 42:6 43:16 44:16 45:16 46:15 47:3 52:1 53:14 54:12 61:9 62:11 #
0.00025891163206971532168357286174398 5:13 6:7 13:14 14:7 20:3 21:15 22:2 27:1 28:13 29:7 30:11 31:2 34:5 35:14 36:16 37:10 38:16 39:2 42:15 43:16 44:16 45:16 46:15 47:1 53:10 54:12 61:15 62:7 #
0.00025891163206971532168357286174398 4:1 5:13 6:9 12:7 13:16 14:5 19:1 20:14 21:12 26:4 27:14 28:13 29:2 30:13 31:6 34:6 35:16 36:16 37:16 38:16 39:9 43:6 44:8 45:13 46:16 53:15 54:11 60:2 61:16 62:9 #
0.00025891163206971532168357286174398 4:1 5:15 6:10 12:6 13:16 14:7 20:11 21:16 27:2 28:16 29:12 30:15 31:11 34:1 35:15 36:14 37:6 38:16 39:8 42:8 43:16 44:15 45:16 46:16 47:6 50:5 51:12 52:12 53:16 54:13 55:3 60:2 61:14 62:3 #
0.00025891163206971532168357286174398 3:1 4:13 5:11 11:11 12:16 13:3 18:2 19:16 20:11 22:1 23:2 26:8 27:16 28:13 29:8 30:14 31:10 34:3 35:15 36:16 37:16 38:16 39:3 43:3 44:9 45:16 46:11 52:12 53:16 54:6 60:15 61:13 62:3 #
-0.00025891163206971532168357286174398 3:4 4:8 11:13 12:10 18:3 19:16 20:5 26:2 27:16 28:3 34:5 35:16 36:10 37:12 38:7 39:1 43:16 44:16 45:16 46:16 47:8 51:12 52:16 53:13 54:16 55:9 59:3 60:9 61:13 62:10 #
-0.00025891163206971532168357286174398 4:4 5:14 11:2 12:15 13:7 19:10 20:11 26:3 27:15 28:2 34:6 35:12 36:7 37:10 38:4 42:5 43:15 44:16 45:13 46:15 47:4 51:8 52:16 53:8 54:13 55:12 60:8 61:14 62:13 63:6 #
-0.00025891163206971532168357286174398 3:3 4:12 5:2 11:9 12:16 13:3 19:16 20:10 26:1 27:16 28:6 34:5 35:16 36:10 37:8 38:3 42:6 43:16 44:16 45:16 46:16 47:5 51:13 52:16 53:8 54:16 55:4 59:1 60:11 61:15 62:14 #
0.00025891163206971532168357286174398 3:2 4:13 5:6 7:4 11:13 12:11 14:2 15:15 16:3 18:4 19:16 20:2 22:13 23:8 26:3 27:16 28:16 29:12 30:16 31:7 35:2 36:7 37:15 38:10 39:1 44:4 45:13 52:13 53:5 59:2 60:12 #
0.00025891163206971532168357286174398 4:13 5:7 11:5 12:13 13:3 14:13 15:2 19:14 20:6 21:4 22:16 26:5 27:16 28:9 29:14 30:16 31:10 34:5 35:16 36:15 37:16 38:7 39:2 44:10 45:11 52:13 53:6 60:16 61:1 #
0.00025891163206971532168357286174398 3:1 4:14 5:11 11:12 12:13 13:1 18:5 19:16 20:3 22:7 23:15 24:1 26:6 27:16 28:11 29:12 30:16 31:10 35:11 36:14 37:16 38:11 44:7 45:15 46:2 52:15 53:12 59:1 60:15 61:7 #
-0.00025891163206971532168357286174398 3:6 4:9 5:4 6:1 11:6 12:16 13:16 14:9 15:1 19:4 20:16 21:1 22:13 23:7 28:14 29:5 30:12 31:8 34:1 35:10 36:15 37:16 38:10 42:6 43:15 44:9 45:16 46:1 50:7 51:13 52:8 53:14 54:4 59:6 60:10 61:13 62:1 #
-0.00025891163206971532168357286174398 3:5 4:15 5:14 6:12 7:9 11:2 12:4 13:4 14:9 15:15 21:1 22:13 23:6 27:3 28:11 29:12 30:16 31:1 35:5 36:13 37:16 38:16 39:4 44:10 45:12 46:2 51:4 52:15 53:4 59:8 60:9 #
-0.00025891163206971532168357286174398 2:5 3:16 4:16 5:16 6:3 10:8 11:7 12:5 13:16 14:2 18:3 19:5 20:10 21:14 26:7 27:16 28:16 29:15 30:12 31:6 35:9 36:14 37:11 38:14 39:6 43:16 44:6 50:3 51:15 52:2 58:7 59:12 #
-0.00025891163206971532168357286174398 4:7 5:8 6:2 11:2 12:15 13:16 14:8 19:4 20:16 21:16 22:8 27:8 28:16 29:16 30:9 34:3 35:16 36:16 37:16 38:16 42:1 43:6 44:9 45:16 46:16 52:7 53:16 54:16 55:2 60:7 61:11 62:3 #
-0.00025891163206971532168357286174398 3:1 4:10 5:9 11:7 12:16 13:14 18:4 19:14 20:16 21:15 26:12 27:14 28:16 29:16 36:15 37:16 38:2 44:14 45:16 46:2 52:12 53:15 60:6 61:16 62:2 #
-0.00025891163206971532168357286174398 3:1 4:8 5:6 11:14 12:16 13:16 14:16 19:16 20:16 21:16 22:16 27:16 28:16 29:16 30:16 35:16 36:16 37:16 38:15 43:16 44:16 45:16 46:13 51:9 52:16 53:16 54:9 59:6 60:8 61:6 62:1 #
-0.00024204812292874359775513015691217 4:1 5:9 6:13 7:5 11:3 12:13 13:10 14:12 15:9 19:11 20:8 22:13 23:3 26:1 27:15 28:14 29:11 30:16 31:2 35:1 36:8 37:10 38:14 45:7 46:13 53:10 54:9 61:13 62:5 #
-0.00025891163206971532168357286174398 3:10 4:1 11:16 18:3 19:13 26:5 27:12 28:1 29:4 30:2 34:8 35:14 36:15 37:16 38:15 39:4 42:8 43:15 44:5 45:5 46:14 47:8 50:8 51:14 52:4 53:10 54:16 55:4 58:1 59:12 60:15 61:10 62:2 #
0.00025891163206971532168357286174398 4:9 5:16 6:6 11:8 12:16 13:11 14:1 18:3 19:16 20:8 26:11 27:15 30:9 31:9 34:8 35:16 36:16 37:16 38:16 39:8 43:6 44:8 45:15 46:14 47:1 52:5 53:16 54:5 60:12 61:15 62:1 #
0.00025891163206971532168357286174398 4:4 5:13 6:13 11:3 12:16 13:14 14:3 18:1 19:15 20:11 21:1 22:1 26:10 27:15 30:11 31:9 34:7 35:15 36:9 37:9 38:16 39:6 43:4 44:8 45:16 46:15 47:1 52:2 53:16 54:7 60:3 61:16 62:1 #
0.00025891163206971532168357286174398 3:12 4:8 5:2 11:16 12:6 13:14 14:6 18:2 19:16 20:10 21:16 26:10 27:13 28:14 29:10 30:4 31:1 34:8 35:16 36:16 37:16 38:16 39:10 43:13 44:15 45:4 46:4 47:1 51:12 52:12 58:1 59:14 60:5 #
0.00025891163206971532168357286174398 3:5 4:9 5:13 6:8 11:4 12:16 13:15 14:3 19:13 20:14 21:2 22:6 23:3 26:5 27:16 28:5 29:11 30:16 31:8 34:7 35:16 36:16 37:16 38:14 39:1 42:3 43:8 44:16 45:16 46:4 51:5 52:16 53:10 59:10 60:12 61:3 #
-0.00025891163206971532168357286174398 3:8 4:16 5:16 6:16 7:12 8:3 11:2 12:2 14:5 15:16 16:8 22:5 23:15 24:1 29:1 30:13 31:8 34:1 35:8 36:8 37:10 38:16 39:1 42:3 43:12 44:15 45:16 46:11 47:3 51:2 52:15 53:7 59:11 60:11 #
-0.00025891163206971532168357286174398 3:2 4:10 5:16 6:13 7:1 10:8 11:16 12:15 13:5 14:12 15:6 18:10 19:16 20:10 22:7 23:10 26:12 27:16 28:12 29:10 30:16 31:8 34:3 35:12 36:16 37:16 38:12 44:5 45:16 46:4 52:7 53:15 60:11 61:11 #
-0.00025891163206971532168357286174398 3:5 4:12 5:15 6:14 7:10 8:3 11:4 12:7 13:4 14:5 15:14 16:3 22:9 23:11 29:4 30:16 31:4 34:2 35:8 36:9 37:16 38:10 42:3 43:12 44:16 45:9 51:5 52:14 59:6 60:9 #
0.00025891163206971532168357286174398 4:13 5:4 11:4 12:16 13:9 14:9 19:12 20:8 21:10 22:9 26:7 27:15 28:4 29:15 30:8 31:1 34:11 35:16 36:16 37:16 38:16 39:10 42:1 43:4 44:10 45:12 52:12 53:8 60:12 61:5 #
-0.00025891163206971532168357286174398 3:7 4:10 11:12 12:13 13:11 14:6 18:3 19:16 20:16 21:16 22:16 23:6 26:8 27:13 28:4 29:5 30:15 31:6 34:8 35:12 38:10 39:8 42:6 43:14 44:1 45:5 46:15 47:4 50:4 51:16 52:16 53:16 54:13 58:1 59:12 60:14 61:9 62:1 #
-0.00025891163206971532168357286174398 3:6 4:12 5:4 11:12 12:16 13:15 14:1 18:2 19:16 20:6 21:5 22:14 26:9 27:16 28:4 30:14 31:3 34:7 35:16 36:6 38:14 39:6 42:4 43:16 44:15 45:2 46:16 47:6 51:12 52:16 53:16 54:11 59:5 60:14 61:14 62:5 #
-0.00025891163206971532168357286174398 4:10 5:13 6:3 12:16 13:16 14:8 19:4 20:16 21:16 22:7 26:2 27:15 28:16 29:16 30:10 34:6 35:16 36:16 37:16 38:13 44:8 45:16 46:14 52:11 53:16 54:16 55:1 60:12 61:12 62:7 #
0.00025891163206971532168357286174398 4:13 5:7 11:9 12:16 13:4 18:1 19:14 20:11 26:7 27:16 28:7 29:6 30:16 31:5 35:10 36:14 37:16 38:14 39:1 44:8 45:16 46:6 52:15 53:6 60:16 61:9 #
0.00025891163206971532168357286174398 3:10 4:16 7:12 8:6 10:2 11:15 12:9 14:8 15:16 16:5 18:6 19:16 20:6 21:1 22:14 23:13 26:7 27:16 28:11 29:11 30:16 31:13 34:1 35:11 36:14 37:16 38:12 39:2 44:11 45:14 46:1 51:2 52:16 53:5 59:13 60:10 #
0.00025891163206971532168357286174398 3:1 4:11 5:7 7:2 8:1 11:10 12:13 14:1 15:13 16:6 18:4 19:16 20:3 22:10 23:12 26:3 27:16 28:11 29:9 30:16 31:3 35:9 36:16 37:16 38:8 44:9 45:11 52:14 53:3 60:14 61:4 #
0.00025891163206971532168357286174398 2:1 3:14 4:7 10:8 11:16 12:2 14:3 15:5 18:10 19:12 21:1 22:14 23:11 26:9 27:15 28:1 29:9 30:16 31:3 34:1 35:15 36:16 37:16 38:8 43:5 44:16 45:13 46:5 51:12 52:13 58:2 59:16 60:6 #
0.00025891163206971532168357286174398 3:3 4:14 5:3 7:1 8:8 11:9 12:15 14:1 15:13 16:11 19:14 20:14 22:9 23:14 24:2 27:14 28:16 29:16 30:16 31:7 35:3 36:13 37:16 38:11 39:1 44:7 45:15 46:1 52:14 53:10 59:2 60:15 61:4 #
0.00025891163206971532168357286174398 4:13 5:9 7:5 8:1 11:11 12:13 13:1 14:4 15:15 16:2 18:4 19:16 20:1 22:13 23:10 26:11 27:14 28:8 29:10 30:16 31:4 34:5 35:15 36:16 37:16 38:13 39:2 44:7 45:14 52:11 53:8 60:14 61:2 #
-0.00025891163206971532168357286174398 3:3 4:14 5:8 6:8 7:8 11:2 12:11 13:12 14:15 15:10 22:13 23:4 26:1 27:16 28:16 29:16 30:15 31:3 34:2 35:8 36:8 37:16 38:16 39:6 44:8 45:13 46:3 47:1 51:1 52:16 53:7 59:5 60:11 61:1 #
-0.00025891163206971532168357286174398 4:9 5:9 11:7 12:15 13:3 19:11 20:8 27:14 28:4 29:2 30:3 35:12 36:12 37:16 38:12 39:10 43:9 44:14 45:8 47:8 48:4 51:4 52:9 53:1 54:2 55:14 56:5 60:6 61:11 62:14 63:8 #
-0.00025891163206971532168357286174398 3:9 4:16 5:9 10:3 11:16 12:16 13:16 14:1 19:6 20:12 21:16 22:14 23:4 27:4 28:14 29:16 30:16 31:13 35:8 36:16 37:16 38:7 44:13 45:14 51:5 52:16 53:8 59:9 60:13 61:1 #
-0.00025891163206971532168357286174398 5:13 6:15 7:3 12:9 13:16 14:16 15:7 18:1 19:7 20:16 21:16 22:16 23:1 26:6 27:16 28:15 29:14 30:16 31:2 34:5 35:11 36:2 37:16 38:15 45:14 46:14 53:16 54:12 61:11 62:13 #
0.00025891163206971532168357286174398 4:1 5:16 6:8 12:9 13:16 14:2 19:2 20:15 21:8 27:10 28:14 34:6 35:16 36:5 37:2 38:13 39:6 42:14 43:16 44:15 45:13 46:16 47:3 50:4 51:8 52:8 53:15 54:11 60:2 61:16 62:7 #
0.00025891163206971532168357286174398 4:8 5:16 6:1 12:14 13:16 14:2 19:3 20:15 21:13 27:9 28:16 29:3 30:3 31:1 34:1 35:14 36:11 37:4 38:16 39:7 41:1 42:12 43:16 44:14 45:14 46:16 47:2 49:1 50:11 51:12 52:14 53:16 54:11 60:9 61:16 62:5 #
0.00025891163206971532168357286174398 4:2 5:13 6:10 12:6 13:16 14:4 20:14 21:12 27:11 28:15 29:1 30:6 31:1 34:6 35:16 36:5 37:6 38:16 39:6 41:4 42:15 43:16 44:12 45:14 46:16 47:2 49:1 50:8 51:12 52:13 53:16 54:10 60:4 61:15 62:4 #
-0.00025891163206971532168357286174398 4:4 5:16 6:9 12:11 13:16 14:9 19:6 20:16 21:16 22:3 26:7 27:15 28:16 29:16 30:2 34:9 35:16 36:13 37:15 44:10 45:13 52:10 53:15 60:6 61:16 62:6 #
-0.00025891163206971532168357286174398 4:1 5:12 6:4 12:9 13:14 19:2 20:16 21:5 27:5 28:16 29:9 30:2 34:2 35:16 36:16 37:13 38:16 39:8 43:9 44:15 46:2 47:15 52:15 53:8 54:8 55:16 56:3 60:3 61:11 62:13 63:10 #
0.00025891163206971532168357286174398 3:11 4:15 5:2 10:1 11:16 12:16 13:1 18:6 19:16 20:13 21:6 22:8 23:2 26:10 27:16 28:16 29:16 30:16 31:8 34:1 35:5 36:10 37:16 38:15 44:8 45:15 46:3 51:2 52:16 53:9 59:10 60:16 61:3 #
0.00025891163206971532168357286174398 2:1 3:12 4:10 10:4 11:16 12:3 14:9 15:9 18:8 19:14 21:3 22:16 23:6 26:9 27:15 28:8 29:13 30:14 31:5 34:1 35:12 36:16 37:16 38:15 39:5 43:1 44:14 45:6 51:8 52:13 58:2 59:12 60:3 #
0.00025891163206971532168357286174398 4:14 5:4 6:5 7:1 11:6 12:13 13:1 14:15 15:5 19:12 20:7 21:2 22:16 23:2 26:7 27:15 28:6 29:10 30:16 31:6 34:12 35:16 36:16 37:16 38:13 39:6 42:2 43:7 44:8 45:15 46:3 52:8 53:10 60:16 61:4 #
-0.00025492725246456168775033290785359 3:14 4:3 10:6 11:16 12:2 18:8 19:16 26:8 27:16 28:4 29:3 34:8 35:16 36:16 37:16 38:14 39:1 42:8 43:16 44:5 45:5 46:16 47:8 50:4 51:16 52:2 53:7 54:16 55:2 59:12 60:16 61:15 62:7 #
-0.00025891163206971532168357286174398 3:5 4:11 11:13 12:6 18:2 19:16 20:4 26:8 27:13 34:8 35:16 36:15 37:12 38:6 42:8 43:16 44:14 45:12 46:16 47:2 50:2 51:16 52:12 53:5 54:16 55:4 59:5 60:14 61:15 62:10 #
-0.00025891163206971532168357286174398 3:7 4:11 11:12 12:10 18:1 19:14 20:6 26:4 27:16 28:7 29:5 30:2 34:5 35:16 36:16 37:16 38:15 39:2 42:2 43:16 44:15 45:13 46:16 47:7 50:1 51:16 52:14 53:8 54:16 55:3 59:7 60:15 61:16 62:7 #
-0.00025891163206971532168357286174398 3:12 4:4 11:15 12:4 18:2 19:15 20:2 26:2 27:15 28:6 29:12 30:8 34:7 35:16 36:14 37:9 38:10 39:6 42:4 43:16 44:14 45:3 46:1 47:10 50:3 51:16 52:13 53:15 54:16 55:5 59:10 60:15 61:10 62:3 #
-0.00025891163206971532168357286174398 3:6 4:10 11:10 12:11 18:1 19:15 20:4 26:4 27:16 28:5 29:4 34:6 35:16 36:16 37:16 38:14 39:3 42:7 43:16 44:4 45:6 46:14 47:8 50:2 51:15 52:8 53:9 54:14 55:3 59:5 60:14 61:13 62:3 #
0.00025891163206971532168357286174398 4:5 5:15 12:12 13:12 20:16 21:8 27:9 28:14 29:4 30:1 35:16 36:7 37:16 38:8 42:11 43:16 44:15 45:16 46:16 47:3 50:13 51:16 52:16 53:16 54:16 55:7 60:5 61:16 62:2 #
0.00025891163206971532168357286174398 4:3 5:15 6:6 11:1 12:13 13:13 14:1 19:10 20:16 21:9 22:8 23:1 26:3 27:16 28:10 29:12 30:16 31:1 34:9 35:16 36:5 37:16 38:13 39:3 42:7 43:16 44:16 45:16 46:16 47:11 52:7 53:16 54:7 60:3 61:16 62:8 #
0.00025891163206971532168357286174398 5:9 6:13 12:7 13:16 14:3 19:5 20:16 21:4 22:3 23:5 26:3 27:13 28:7 30:10 31:14 34:10 35:16 36:16 37:16 38:16 39:11 42:5 43:8 44:10 45:13 46:16 47:7 53:7 54:16 55:4 61:10 62:11 #
0.00025891163206971532168357286174398 4:6 5:8 12:15 13:3 19:2 20:14 21:2 22:11 27:9 28:8 29:5 30:10 35:14 36:2 37:8 38:7 39:2 42:4 43:16 44:9 45:14 46:16 47:8 50:2 51:8 52:12 53:16 54:5 55:2 60:6 61:13 62:2 #
0.00025891163206971532168357286174398 4:4 5:14 6:14 11:3 12:15 13:13 14:3 19:15 20:15 21:1 26:7 27:16 28:5 30:9 31:6 34:11 35:16 36:8 37:12 38:16 39:9 42:3 43:11 44:12 45:16 46:14 52:6 53:16 54:9 60:7 61:16 62:4 #
-0.00025891163206971532168357286174398 4:7 5:12 6:14 7:5 11:11 12:10 13:4 14:10 15:16 18:1 19:16 20:12 21:11 22:16 23:14 26:1 27:10 28:12 29:12 30:16 31:10 37:1 38:15 39:3 45:11 46:9 52:6 53:13 60:11 61:9 #
-0.00025891163206971532168357286174398 4:9 5:16 6:10 7:1 11:9 12:13 13:4 14:14 15:8 18:4 19:15 20:6 21:10 22:16 23:7 26:5 27:16 28:14 29:11 30:16 31:4 37:5 38:15 39:1 44:1 45:14 46:7 52:7 53:12 60:11 61:8 #
-0.00025891163206971532168357286174398 3:3 4:12 5:16 6:14 7:3 11:7 12:10 13:11 14:16 15:10 22:16 23:12 28:2 29:7 30:16 31:11 34:3 35:10 36:16 37:16 38:16 39:6 42:10 43:12 44:10 45:16 46:10 51:1 52:15 53:15 59:5 60:15 61:5 #
0.00025891163206971532168357286174398 3:6 4:15 5:1 10:2 11:16 12:7 18:8 19:15 22:7 23:3 26:11 27:13 28:4 29:8 30:16 31:5 34:5 35:16 36:16 37:16 38:10 43:1 44:14 45:15 51:4 52:16 53:6 59:10 60:13 #
-0.00025891163206971532168357286174398 3:5 4:13 5:16 6:3 10:1 11:15 12:15 13:16 14:8 18:5 19:8 20:5 21:16 22:11 26:2 27:12 28:16 29:16 30:16 31:10 34:2 35:14 36:16 37:15 38:10 39:5 43:1 44:16 45:11 51:5 52:16 53:8 59:8 60:14 61:2 #
-0.00025891163206971532168357286174398 4:6 5:13 6:6 12:12 13:16 14:13 19:10 20:16 21:16 22:10 26:5 27:16 28:16 29:16 30:7 34:2 35:5 36:13 37:16 38:4 44:9 45:16 46:4 52:12 53:16 54:1 60:8 61:14 62:2 #
-0.00025891163206971532168357286174398 3:2 4:15 5:16 6:12 7:2 11:13 12:12 13:4 14:12 15:12 18:6 19:16 20:1 21:3 22:13 23:12 26:11 27:16 28:15 29:16 30:16 31:9 34:1 35:7 36:9 37:16 38:11 44:9 45:15 46:1 52:14 53:10 59:4 60:16 61:3 #
-0.0002393395540837139488961338162909 2:2 3:8 4:9 5:6 11:6 12:16 13:16 14:14 15:1 19:4 20:16 21:16 22:16 23:4 27:4 28:16 29:16 30:16 31:4 35:4 36:16 37:16 38:16 39:3 43:7 44:16 45:16 46:12 50:1 51:14 52:16 53:16 54:11 58:2 59:10 60:9 61:5 62:1 #
-0.00020929650120391548456799668542772 2:1 3:8 4:14 5:13 6:2 10:4 11:16 12:6 13:12 14:8 18:3 19:16 20:4 21:3 22:4 27:9 28:15 29:4 30:11 31:6 35:5 36:16 37:16 38:13 39:6 42:4 43:15 44:12 45:16 46:7 50:7 51:14 52:2 53:12 54:11 58:1 59:10 60:16 61:14 62:5 #
0.00025891163206971532168357286174398 4:6 5:10 6:1 7:15 8:6 11:5 12:16 13:4 14:8 15:15 16:1 18:1 19:15 20:8 21:2 22:15 23:8 26:4 27:16 28:14 29:13 30:15 34:1 35:15 36:16 37:16 38:13 43:3 44:10 45:15 52:11 53:14 54:1 60:10 61:15 #
0.00025891163206971532168357286174398 4:11 5:7 6:5 7:8 11:5 12:16 13:1 14:15 15:8 18:1 19:14 20:9 21:5 22:16 23:2 26:6 27:14 28:1 29:12 30:11 31:2 34:12 35:14 36:8 37:16 38:16 39:10 42:9 43:16 44:16 45:15 46:5 51:1 52:10 53:12 60:11 61:9 #
0.00011850569588066047280183745726845 4:4 5:15 12:11 13:13 19:1 20:15 21:7 27:11 28:11 34:2 35:16 36:2 37:11 38:8 41:2 42:13 43:14 44:10 45:16 46:8 49:2 50:6 51:12 52:15 53:16 54:4 60:5 61:14 62:1 #
0.00025891163206971532168357286174398 3:1 4:13 5:10 11:9 12:16 13:4 18:1 19:16 20:8 22:4 26:4 27:16 28:16 29:16 30:16 31:6 35:8 36:8 37:12 38:16 39:5 44:1 45:16 46:13 52:13 53:16 54:3 59:2 60:15 61:5 #
0.00025891163206971532168357286174398 5:13 6:8 12:2 13:16 14:6 20:7 21:16 22:7 23:3 27:1 28:13 29:12 30:15 31:7 34:3 35:12 36:14 37:5 38:16 39:3 41:2 42:15 43:16 44:16 45:16 46:16 47:1 49:5 50:12 51:13 52:16 53:16 54:15 61:15 62:6 #
-0.00011584334245342973101697281457234 4:9 5:15 6:13 7:2 11:10 12:12 13:4 14:11 15:8 18:3 19:15 20:3 21:6 22:15 23:6 26:5 27:16 28:14 29:12 30:15 31:7 38:14 39:5 45:9 46:12 52:8 53:12 60:12 61:5 #
-0.00025891163206971532168357286174398 4:1 5:15 6:9 12:9 13:16 14:11 18:4 19:8 20:16 21:16 22:6 26:15 27:16 28:16 29:16 30:4 34:5 35:9 36:4 37:16 38:4 44:5 45:16 46:2 52:4 53:16 54:5 60:2 61:14 62:9 #
-0.00025891163206971532168357286174398 4:8 5:16 6:13 7:1 11:4 12:16 13:11 14:13 15:9 18:6 19:15 20:10 22:11 23:11 26:8 27:16 28:13 29:14 30:16 31:9 34:1 35:9 36:8 37:11 38:16 39:4 45:12 46:12 52:6 53:16 54:2 60:11 61:10 #
-0.00025891163206971532168357286174398 3:5 4:14 11:12 12:14 19:15 20:12 26:1 27:16 28:9 29:5 30:2 34:5 35:16 36:16 37:16 38:15 39:2 42:7 43:16 44:15 45:10 46:16 47:9 50:1 51:15 52:13 53:13 54:16 55:5 59:5 60:13 61:13 62:9 #
-0.00025891163206971532168357286174398 5:2 6:14 7:4 12:1 13:11 14:16 15:5 19:6 20:14 21:16 22:16 23:1 26:5 27:16 28:12 29:16 30:13 34:3 35:10 37:14 38:13 45:15 46:14 53:8 54:16 55:1 61:4 62:15 #
0.00025891163206971532168357286174398 3:5 4:14 11:9 12:11 13:1 14:3 18:2 19:14 20:4 21:10 22:11 26:8 27:16 28:12 29:15 30:14 31:6 34:9 35:16 36:13 37:16 38:10 39:5 44:9 45:11 52:15 53:5 59:3 60:16 61:3 #
0.00025891163206971532168357286174398 3:10 4:7 10:1 11:14 12:8 18:5 19:16 20:3 21:2 22:8 23:4 26:7 27:16 28:14 29:16 30:15 31:5 35:4 36:8 37:16 38:12 44:6 45:16 46:2 51:5 52:16 53:7 59:11 60:9 #
0.00025891163206971532168357286174398 3:8 4:16 5:6 10:3 11:15 12:13 13:1 18:8 19:16 20:4 22:2 23:1 26:9 27:16 28:8 29:10 30:16 31:11 34:1 35:13 36:16 37:16 38:15 39:5 43:4 44:16 45:16 46:3 51:8 52:16 53:10 59:7 60:16 61:10 #
-0.00025891163206971532168357286174398 4:10 5:13 6:5 11:11 12:12 13:8 14:15 15:2 18:6 19:16 20:1 21:1 22:14 23:4 26:6 27:16 28:8 29:13 30:16 31:5 34:2 35:13 36:12 37:16 38:12 45:14 46:6 52:4 53:14 54:1 60:11 61:5 #
0.00012128312203105639979078267387536 4:1 5:12 6:6 12:6 13:16 14:2 19:1 20:16 21:5 27:11 28:12 30:2 34:6 35:15 36:2 37:2 38:16 39:3 42:11 43:14 44:9 45:15 46:15 50:3 51:11 52:14 53:16 54:8 60:1 61:13 62:2 #
-0.00025891163206971532168357286174398 3:2 4:13 5:1 11:5 12:15 19:13 20:6 26:5 27:14 34:8 35:12 36:3 37:7 38:6 39:1 42:7 43:16 44:14 45:8 46:14 47:7 50:2 51:15 52:9 53:5 54:12 55:7 59:4 60:9 61:13 62:13 63:1 #
0.00025891163206971532168357286174398 3:3 4:15 5:10 11:9 12:16 13:6 18:2 19:16 20:13 21:3 22:8 23:1 26:11 27:16 28:16 29:16 30:16 31:10 34:3 35:12 36:11 37:16 38:15 39:2 44:4 45:16 46:9 52:11 53:16 54:3 59:2 60:15 61:16 #
-0.00025891163206971532168357286174398 3:9 10:2 11:16 12:6 13:8 14:5 18:4 19:16 20:16 21:16 22:15 23:3 26:6 27:16 28:10 29:12 30:15 31:8 34:4 35:11 38:7 39:8 42:4 43:16 44:9 45:10 46:15 47:8 50:2 51:15 52:16 53:16 54:16 55:3 59:8 60:16 61:15 62:7 #
-0.00025891163206971532168357286174398 3:1 4:16 5:13 11:6 12:16 13:15 18:7 19:16 20:16 21:12 25:1 26:12 27:16 28:16 29:12 35:2 36:10 37:14 44:8 45:16 46:1 52:10 53:16 60:12 61:16 #
0.00025891163206971532168357286174398 4:14 5:7 6:1 7:6 11:6 12:15 13:2 14:11 15:15 18:2 19:14 20:10 21:2 22:16 23:8 26:7 27:16 28:10 29:13 30:16 31:14 34:6 35:16 36:16 37:16 38:11 39:5 44:7 45:15 46:1 52:10 53:10 59:1 60:15 61:4 #
0.00025891163206971532168357286174398 4:2 5:12 6:6 7:14 11:1 12:15 13:13 14:8 15:10 18:2 19:15 20:7 22:15 23:4 26:9 27:15 28:7 29:7 30:16 31:5 34:8 35:16 36:16 37:16 38:16 39:10 42:1 43:4 44:4 45:13 46:8 52:3 53:15 54:1 60:3 61:14 #
-0.00025891163206971532168357286174398 2:1 3:14 4:16 5:9 10:1 11:11 12:15 13:15 14:2 19:1 20:13 21:16 22:2 27:10 28:16 29:16 30:15 31:9 35:9 36:16 37:13 38:10 39:3 43:5 44:16 45:1 51:15 52:13 58:1 59:16 60:4 #
-0.00025891163206971532168357286174398 2:1 3:8 4:10 5:3 10:2 11:15 12:16 13:16 14:12 18:1 19:14 20:16 21:16 22:12 26:4 27:16 28:16 29:16 30:8 34:4 35:16 36:16 37:16 38:6 42:4 43:16 44:16 45:15 46:3 50:4 51:16 52:16 53:13 54:2 58:1 59:7 60:10 61:8 62:2 #
0.00025891163206971532168357286174398 4:6 5:16 12:14 13:11 19:4 20:16 21:3 27:12 28:11 29:3 34:4 35:16 36:5 37:16 38:7 41:1 42:15 43:16 44:13 45:16 46:14 47:4 50:9 51:15 52:15 53:16 54:15 55:1 60:6 61:15 #
0.00025891163206971532168357286174398 4:2 5:16 6:6 12:6 13:16 14:2 20:13 21:13 27:6 28:16 29:4 30:9 31:4 34:3 35:15 36:10 37:4 38:16 39:6 41:2 42:15 43:16 44:16 45:14 46:16 47:5 49:1 50:8 51:13 52:16 53:16 54:15 60:2 61:16 62:9 #
0.00025891163206971532168357286174398 4:8 5:15 11:3 12:16 13:10 18:1 19:14 20:15 26:4 27:16 28:10 34:2 35:14 36:16 37:16 38:16 39:6 43:3 44:12 45:16 46:15 47:2 52:3 53:16 54:10 60:4 61:13 62:3 #
0.00015268461889356076620870295013077 5:6 6:9 12:7 13:15 14:4 19:3 20:14 21:7 27:9 28:9 30:13 31:3 34:2 35:16 36:2 37:2 38:16 42:8 43:16 44:14 45:16 46:16 47:6 50:2 51:4 52:4 53:12 54:8 61:9 62:11 #
-0.00025891163206971532168357286174398 5:14 6:15 7:2 12:6 13:16 14:16 15:4 19:3 20:13 21:16 22:16 26:1 27:13 28:16 29:16 30:16 31:3 34:9 35:16 36:6 37:14 38:16 42:2 43:4 45:14 46:15 53:16 54:12 61:14 62:13 #
-0.00025891163206971532168357286174398 4:2 5:12 6:13 7:8 8:1 11:3 12:12 13:5 14:14 15:16 16:2 19:11 20:1 22:12 23:14 26:2 27:11 28:3 29:7 30:14 31:3 34:3 35:15 36:11 37:5 38:10 45:9 46:6 52:1 53:14 54:2 61:14 62:1 #
0.00025891163206971532168357286174398 4:7 5:10 11:7 12:16 13:5 19:14 20:11 26:4 27:16 28:5 29:4 30:8 34:3 35:16 36:16 37:16 38:14 42:1 43:6 44:8 45:16 46:7 52:3 53:16 54:5 60:9 61:13 62:2 #
0.00025891163206971532168357286174398 4:6 5:16 6:1 11:3 12:16 13:8 14:4 15:15 18:1 19:14 20:11 22:10 23:14 26:9 27:16 28:13 29:12 30:16 31:12 34:3 35:12 36:11 37:12 38:16 39:6 45:12 46:12 47:1 52:2 53:16 54:6 60:7 61:13 62:1 #
0.00025891163206971532168357286174398 5:13 6:5 12:9 13:13 14:1 19:8 20:14 21:1 22:5 23:7 26:4 27:16 28:14 29:13 30:16 31:8 34:2 35:8 36:8 37:12 38:16 39:2 45:10 46:13 53:14 54:9 61:13 62:3 #
-0.00023259252686540790805783118777583 4:7 5:13 11:6 12:16 13:5 19:15 20:7 26:2 27:16 28:1 34:4 35:15 36:4 37:4 42:6 43:16 44:14 45:14 46:14 47:3 51:8 52:15 53:8 54:14 55:12 60:6 61:12 62:13 63:3 #
-0.00018693178695646910916425276205644 4:5 5:12 11:5 12:16 13:14 14:2 19:15 20:15 21:1 26:2 27:16 28:9 35:16 36:10 37:13 38:15 39:4 43:13 44:16 45:16 46:16 47:15 48:1 51:5 52:16 53:16 54:13 55:16 56:4 60:5 61:14 62:16 63:12 #
0.00021554254539098019818887941312369 4:1 5:16 6:8 12:3 13:16 14:6 20:7 21:15 22:9 23:3 27:3 28:14 29:8 30:16 31:4 34:7 35:15 36:14 37:12 38:16 39:3 41:3 42:15 43:16 44:16 45:16 46:16 47:1 49:1 50:4 51:4 52:4 53:14 54:13 60:1 61:16 62:7 #
0.00025891163206971532168357286174398 4:8 5:14 11:9 12:16 13:5 18:2 19:14 20:12 21:4 22:7 23:8 26:5 27:16 28:16 29:16 30:16 31:13 34:1 35:7 36:10 37:12 38:16 39:6 44:2 45:15 46:10 52:10 53:16 54:2 60:10 61:15 62:3 #
-5.297861814594554254274211269049e-05 3:7 4:15 5:10 11:12 12:10 13:15 14:3 21:12 22:11 29:14 30:9 34:1 35:5 36:8 37:16 38:12 39:2 42:10 43:16 44:16 45:15 46:10 47:3 51:2 52:16 53:4 59:8 60:12 #
-5.1220451738322246397483450408572e-05 2:1 3:8 4:12 5:3 10:1 11:16 12:16 13:14 14:2 18:2 19:16 20:16 21:16 22:16 23:1 27:12 28:16 29:16 30:4 35:12 36:16 37:16 38:7 42:2 43:16 44:16 45:16 46:14 50:4 51:16 52:16 53:15 54:4 58:1 59:12 60:10 61:5 #
-0.00025891163206971532168357286174398 3:8 4:16 5:13 10:1 11:13 12:9 13:16 14:4 21:14 22:7 23:5 27:3 28:8 29:15 30:16 31:12 34:11 35:16 36:16 37:14 38:7 39:1 42:7 43:2 44:15 45:4 51:5 52:15 53:2 59:12 60:11 #
-0.00025891163206971532168357286174398 3:3 4:15 5:15 6:1 11:9 12:16 13:12 14:2 18:4 19:16 20:9 21:6 22:9 23:2 26:8 27:16 28:16 29:16 30:10 31:3 34:2 35:16 36:16 37:14 38:1 42:4 43:16 44:16 45:16 46:4 50:1 51:14 52:16 53:16 54:12 59:3 60:14 61:12 62:5 #
-0.00025891163206971532168357286174398 3:3 4:15 11:11 12:14 19:13 20:8 27:16 28:8 29:4 34:1 35:16 36:16 37:16 38:15 39:2 42:6 43:16 44:14 45:11 46:15 47:7 51:15 52:15 53:9 54:15 55:4 59:4 60:14 61:16 62:9 #
-0.00025891163206971532168357286174398 3:1 4:15 5:13 11:3 12:16 13:16 14:2 18:1 19:12 20:16 21:12 26:8 27:16 28:16 29:8 34:2 35:12 36:16 37:6 43:7 44:16 45:7 51:4 52:16 53:8 59:1 60:14 61:9 #
0.00025891163206971532168357286174398 3:3 4:14 5:1 11:10 12:14 13:1 14:7 19:15 20:9 21:7 22:16 26:5 27:16 28:4 29:13 30:13 34:12 35:16 36:16 37:16 38:16 39:9 42:3 43:8 44:15 45:16 46:12 47:2 51:1 52:16 53:11 59:3 60:16 61:5 #
-0.00025891163206971532168357286174398 4:4 5:13 6:12 7:1 11:3 12:16 13:9 14:15 15:14 16:2 19:14 20:8 21:2 22:10 23:14 26:3 27:16 28:12 29:13 30:16 31:7 35:8 36:3 37:2 38:16 39:2 45:8 46:12 53:14 54:6 60:3 61:14 62:2 #
-0.00025891163206971532168357286174398 3:4 4:13 5:14 6:1 10:1 11:16 12:9 13:16 14:3 18:2 19:5 21:12 22:6 27:3 28:6 29:16 30:4 34:6 35:16 36:16 37:16 38:16 39:6 42:4 43:6 44:13 45:12 46:4 47:2 52:14 53:4 59:5 60:11 #
-5.0687290188038797936892487783211e-05 3:4 4:15 5:16 6:16 7:16 8:15 11:2 12:8 13:8 14:5 15:13 16:9 22:5 23:15 24:2 29:3 30:14 31:8 35:2 36:15 37:16 38:16 39:8 43:3 44:9 45:16 46:4 52:11 53:13 59:5 60:15 61:3 #
-0.00014273786884999063728773904813352 3:13 4:16 5:16 6:8 11:7 12:5 13:10 14:8 21:14 22:4 27:7 28:10 29:16 30:13 31:7 35:15 36:16 37:13 38:15 39:10 44:16 45:1 51:8 52:12 59:16 60:3 #
0.00013460867037590608201458319825861 4:5 5:14 6:1 11:1 12:14 13:7 15:3 19:9 20:14 21:1 22:6 23:15 26:3 27:16 28:12 29:4 30:12 31:8 35:7 36:10 37:14 38:16 39:4 45:10 46:13 52:1 53:16 54:3 60:6 61:12 #
0.00025891163206971532168357286174398 4:4 5:14 12:12 13:12 19:1 20:16 21:9 27:10 28:16 29:7 30:13 34:3 35:16 36:9 37:9 38:16 42:14 43:16 44:13 45:15 46:16 47:5 50:5 51:13 52:14 53:16 54:15 55:3 60:3 61:16 62:10 #
-0.00025891163206971532168357286174398 3:2 4:14 5:15 6:2 11:13 12:15 13:14 14:8 19:16 20:6 21:11 22:10 26:1 27:9 28:8 29:15 30:9 34:10 35:16 36:16 37:16 38:16 39:9 42:1 43:4 44:8 45:16 46:5 47:5 52:14 53:13 59:2 60:16 61:6 #
-0.0001430437087862445732361349470807 3:2 4:13 5:9 11:8 12:16 13:16 18:14 19:16 20:16 21:8 26:6 27:12 28:16 29:6 35:8 36:16 37:6 43:6 44:16 45:7 51:4 52:16 53:11 59:1 60:14 61:14 #
-0.00025891163206971532168357286174398 3:1 4:10 5:10 6:1 11:7 12:16 13:16 14:5 19:13 20:16 21:16 22:3 27:14 28:16 29:16 30:8 35:14 36:16 37:7 38:2 43:10 44:16 45:16 46:6 51:7 52:16 53:16 54:5 59:2 60:10 61:12 62:5 #
-5.9525549842796561354762996387535e-05 4:5 5:14 6:16 7:16 8:1 11:8 12:14 13:8 14:13 15:16 16:1 19:1 22:11 23:12 28:2 29:4 30:14 31:8 34:2 35:11 36:16 37:16 38:16 39:8 42:7 43:10 44:5 45:11 46:10 52:1 53:15 54:3 60:8 61:12 #
-4.988104582248886189818626313297e-05 4:9 5:16 6:12 7:2 11:3 12:15 13:10 14:16 15:4 18:1 19:14 20:8 22:13 23:7 26:7 27:15 28:1 30:14 31:6 34:4 35:15 38:15 39:5 42:1 43:12 44:4 45:9 46:15 51:5 52:16 53:16 54:9 60:9 61:14 62:2 #
-4.2409767445209439534412054761958e-06 3:6 4:13 5:13 6:3 10:2 11:16 12:16 13:16 14:11 18:3 19:16 20:15 21:6 22:16 23:4 26:3 27:16 28:9 30:16 31:8 34:8 35:16 36:3 37:1 38:16 39:6 42:7 43:16 44:2 45:8 46:16 47:3 50:1 51:14 52:16 53:16 54:13 59:4 60:13 61:12 62:2 #
-2.0948132352830806188898060682391e-06 3:1 4:8 5:15 6:16 7:9 10:1 11:12 12:15 13:9 14:13 15:14 18:5 19:13 20:2 22:13 23:11 26:3 27:5 29:1 30:15 31:7 36:2 37:10 38:16 39:9 44:14 45:16 46:11 47:1 52:13 53:14 60:12 61:5 #
-3.5909970222284333558893099080933e-05 3:10 4:13 5:2 11:14 12:16 13:4 18:2 19:16 20:14 26:6 27:16 28:14 29:2 34:7 35:16 36:16 37:16 38:13 39:1 42:2 43:16 44:16 45:16 46:16 47:7 50:2 51:16 52:16 53:16 54:16 55:4 59:8 60:15 61:16 62:13 #
