SVM-light Version V6.02
2 # kernel type
3 # kernel parameter -d 
0.005 # kernel parameter -g 
1 # kernel parameter -s 
1 # kernel parameter -r 
empty# kernel parameter -u 
64 # highest feature index 
2823 # number of training documents 
2087 # number of support vectors plus 1 
0.85059439 # threshold b, each following line is a SV (starting with alpha*y)
-0.043672319452246061155520351348969 4:6 5:15 6:2 7:2 11:3 12:15 13:10 14:4 15:15 18:2 19:14 20:9 22:12 23:11 26:9 27:16 28:4 29:3 30:16 31:14 34:11 35:16 36:16 37:16 38:15 39:7 42:1 43:10 44:11 45:16 46:8 52:3 53:16 54:1 60:8 61:11 #
-0.044092534589108833831261335944873 3:1 4:16 5:12 6:1 12:16 13:16 14:5 19:2 20:16 21:16 22:7 27:4 28:16 29:16 35:9 36:16 37:12 43:13 44:16 45:8 51:10 52:16 53:10 59:2 60:15 61:16 62:5 #
-0.026963315982048343538712842359928 2:4 3:15 4:16 5:12 10:12 11:15 12:7 13:16 14:5 18:3 19:3 21:15 22:4 29:13 30:7 36:5 37:15 38:2 43:1 44:14 45:11 50:1 51:13 52:16 53:9 54:8 55:3 58:3 59:16 60:16 61:16 62:16 63:16 64:1 #
-0.024279745558809778110953558893925 3:7 4:15 5:13 6:3 11:11 12:6 13:8 14:14 20:3 21:8 22:12 28:16 29:14 30:2 36:10 37:15 38:7 45:2 46:11 47:10 50:1 51:15 52:3 53:1 54:11 55:10 59:4 60:15 61:16 62:13 63:2 #
-0.02850948258442845620330707845369 3:10 4:16 5:12 10:1 11:14 12:13 13:16 14:4 19:2 20:3 21:16 22:5 28:4 29:16 30:2 36:11 37:14 43:2 44:16 45:8 47:3 50:1 51:13 52:16 53:14 54:16 55:16 56:3 59:12 60:16 61:16 62:13 63:7 #
0.19067742283026495320186199933232 3:10 4:12 5:13 6:11 7:2 11:14 12:9 13:8 14:8 15:2 19:15 26:6 27:16 28:6 34:3 35:12 36:13 37:15 38:5 45:6 46:13 47:1 51:9 52:5 53:4 54:14 59:8 60:15 61:15 62:7 #
0.50000003576649798553432901826454 3:6 4:12 5:15 6:15 7:9 11:8 12:12 13:4 14:4 15:3 19:12 20:3 26:1 27:15 28:6 29:3 34:8 35:16 36:12 37:16 38:6 42:3 43:4 45:4 46:11 50:4 51:15 52:5 53:13 54:6 59:6 60:16 61:10 #
0.45643184759566435282351903879317 3:10 4:16 5:16 6:15 10:3 11:15 12:9 13:8 14:4 18:9 19:13 20:6 21:2 26:8 27:16 28:16 29:16 30:11 34:1 35:8 36:5 37:10 38:16 39:7 46:12 47:9 51:4 52:9 53:14 54:16 55:4 59:11 60:13 61:11 62:5 #
0.50000003576649798553432901826454 3:6 4:12 5:13 6:12 7:6 11:6 12:8 13:2 14:5 15:7 19:12 20:2 26:7 27:15 28:12 29:7 30:2 34:2 35:8 36:8 37:9 38:15 39:4 46:7 47:7 51:4 52:5 53:4 54:13 55:2 59:4 60:15 61:16 62:6 #
0.50000003576649798553432901826454 3:5 4:8 5:12 6:12 7:13 11:14 12:12 13:8 14:4 15:4 19:14 21:2 26:3 27:16 28:16 29:16 30:10 35:5 36:1 37:2 38:15 39:2 46:16 51:4 52:10 53:8 54:9 59:3 60:16 61:13 62:1 #
-0.1263759442664866561312209114476 3:1 4:13 5:15 6:5 11:10 12:15 13:8 14:6 18:2 19:16 20:6 26:4 27:15 28:1 29:4 34:5 35:13 36:3 37:16 38:11 39:1 43:15 44:1 45:5 46:15 47:5 51:11 52:12 53:8 54:16 55:6 60:10 61:16 62:10 #
-0.22465138092456404805830061377492 3:3 4:11 5:16 6:5 11:12 12:15 13:12 14:7 19:15 20:6 27:16 28:15 29:11 30:1 35:15 36:15 37:14 38:9 43:15 44:6 45:2 46:16 47:2 51:12 52:12 53:12 54:16 55:5 59:3 60:13 61:15 62:9 #
-0.18289321759223164942653738762601 3:1 4:12 5:16 6:5 11:9 12:16 13:9 14:2 18:3 19:16 20:6 26:6 27:16 28:8 29:1 34:10 35:16 36:11 37:13 38:3 42:4 43:16 44:1 45:9 46:13 47:1 51:9 52:11 53:9 54:16 55:1 59:1 60:12 61:16 62:12 #
0.50000003576649798553432901826454 3:5 4:16 5:15 6:6 11:9 12:15 13:13 14:10 19:11 20:15 21:11 22:4 27:2 28:12 29:13 30:16 31:2 38:7 39:10 46:4 47:13 51:13 52:11 53:8 54:14 55:11 59:4 60:11 61:15 62:15 63:4 #
0.50000003576649798553432901826454 3:2 4:11 5:15 6:8 11:14 12:13 13:13 14:8 19:14 20:8 21:8 22:4 27:7 28:16 29:16 30:14 31:2 35:1 36:4 37:1 38:13 39:6 46:7 47:13 51:10 52:7 53:2 54:7 55:12 59:2 60:10 61:14 62:16 63:7 #
0.50000003576649798553432901826454 3:11 4:16 5:16 6:4 11:12 12:16 13:12 14:3 18:2 19:16 20:16 21:15 22:4 27:5 28:8 29:11 30:15 31:3 38:10 39:12 43:3 44:1 46:3 47:16 51:16 52:12 53:8 54:11 55:16 56:1 59:8 60:14 61:16 62:16 63:11 #
-0.46371962031173774576586765761022 3:5 4:16 5:13 6:1 11:12 12:14 13:15 14:5 19:12 20:10 21:16 22:7 27:3 28:15 29:16 30:12 37:2 38:15 39:2 46:8 47:9 50:2 51:12 52:8 53:8 54:13 55:12 58:1 59:6 60:10 61:12 62:12 63:2 #
-0.25098423386207757701527043536771 3:2 4:13 5:13 6:4 11:12 12:13 13:11 14:14 19:9 20:13 21:13 22:14 23:1 28:4 29:8 30:13 31:3 38:7 39:9 46:3 47:13 51:14 52:6 54:6 55:12 59:2 60:12 61:16 62:16 63:7 #
-0.1028695209319757941646145127379 3:2 4:11 5:12 6:4 11:11 12:15 13:14 14:11 19:3 20:9 21:12 22:11 28:10 29:16 30:14 31:2 36:2 37:5 38:13 39:7 43:6 46:9 47:11 51:14 52:13 53:8 54:14 55:9 59:5 60:15 61:14 62:11 63:1 #
0.50000003576649798553432901826454 3:2 4:7 5:12 6:8 11:11 12:16 13:16 14:6 19:6 20:12 27:13 28:8 29:4 35:14 36:16 37:16 38:14 39:1 43:3 44:8 45:9 46:16 47:2 52:9 53:10 54:14 60:13 61:13 62:4 #
0.50000003576649798553432901826454 3:2 4:10 5:13 6:5 11:13 12:15 13:11 14:1 19:14 20:4 26:6 27:14 34:6 35:16 36:16 37:16 38:16 39:2 42:1 43:4 44:4 45:1 46:15 47:2 52:7 53:10 54:16 59:1 60:16 61:15 62:7 #
0.50000003576649798553432901826454 2:3 3:15 4:14 5:5 6:1 10:12 11:16 12:16 13:16 14:16 15:5 18:9 19:16 20:15 21:7 22:8 23:3 26:1 27:13 28:13 35:6 36:16 37:5 43:1 44:15 45:11 51:7 52:16 53:10 58:2 59:16 60:13 61:1 #
-0.18642825020084913267837123385107 3:13 4:16 5:10 10:3 11:16 12:11 13:16 14:5 19:15 20:13 21:15 22:13 27:5 28:12 29:11 30:16 31:2 38:14 39:10 46:5 47:16 51:7 52:8 53:11 54:13 55:16 56:2 59:15 60:16 61:16 62:16 63:11 #
-0.089365862666778997369654291560437 3:4 4:15 5:13 6:1 10:1 11:15 12:11 13:9 14:7 18:3 19:16 20:3 21:5 22:16 23:3 27:8 28:16 29:16 30:16 31:3 36:2 37:4 38:14 39:6 46:9 47:11 54:7 55:15 59:5 60:12 61:12 62:16 63:8 #
-0.13957509328118347657898823399591 4:8 5:15 11:3 12:16 13:10 18:1 19:14 20:15 26:4 27:16 28:10 34:2 35:14 36:16 37:16 38:16 39:6 43:3 44:12 45:16 46:15 47:2 52:3 53:16 54:10 60:4 61:13 62:3 #
0.50000003576649798553432901826454 3:2 4:10 5:12 6:14 7:16 8:12 11:8 12:16 13:16 14:16 15:14 16:4 19:2 20:16 21:12 22:4 27:1 28:16 29:15 30:2 36:8 37:16 38:11 45:13 46:16 52:7 53:16 54:11 59:1 60:16 61:11 62:1 #
0.50000003576649798553432901826454 3:8 4:15 5:16 6:16 7:2 10:7 11:16 12:12 13:8 14:5 18:10 19:10 26:11 27:10 34:2 35:16 36:4 43:6 44:14 51:5 52:14 59:14 60:11 #
0.50000003576649798553432901826454 2:2 3:10 4:16 5:16 6:16 7:7 10:14 11:16 12:15 13:11 14:13 15:5 18:12 19:15 20:1 26:4 27:16 28:7 35:16 36:8 43:15 44:9 51:12 52:14 59:15 60:7 #
-0.33882075493666974352890974842012 3:6 4:16 5:9 10:2 11:15 12:16 13:14 18:2 19:10 20:16 21:6 26:2 27:16 28:16 29:9 30:2 35:3 36:10 37:16 38:14 39:1 45:10 46:16 47:5 51:4 52:8 53:8 54:16 55:7 59:8 60:16 61:16 62:13 #
-0.2801751479971396063817223875958 4:8 5:12 6:11 7:3 11:6 12:15 13:6 14:8 15:12 18:2 19:15 20:10 22:3 23:11 26:4 27:16 28:14 29:12 30:14 31:4 35:8 36:16 37:16 38:14 45:5 46:16 47:2 52:4 53:11 54:15 60:13 61:12 62:6 #
-0.50000003576649798553432901826454 3:1 4:11 5:16 6:9 11:13 12:11 13:6 14:10 18:4 19:14 21:9 22:11 26:7 27:15 28:15 29:16 30:15 31:1 35:7 36:6 38:14 39:8 46:15 47:5 52:3 53:10 54:15 55:2 59:2 60:12 61:10 62:1 #
0.50000003576649798553432901826454 3:10 4:13 5:16 6:10 11:15 12:9 13:2 14:2 18:4 19:16 20:16 21:14 22:4 27:3 28:1 29:4 30:16 31:3 38:12 39:7 46:12 47:7 50:5 51:8 53:4 54:15 55:1 58:1 59:11 60:14 61:15 62:2 #
0.50000003576649798553432901826454 2:1 3:6 4:9 5:15 6:16 7:14 10:4 11:16 12:16 13:10 14:7 15:2 18:8 19:16 20:13 21:3 26:10 27:14 28:14 29:14 34:1 35:1 36:1 37:16 44:1 45:16 51:3 52:10 53:14 59:15 60:14 61:3 #
0.50000003576649798553432901826454 3:10 4:16 5:16 6:16 7:3 11:14 12:16 13:16 14:13 15:5 19:8 20:16 21:4 27:1 28:15 29:9 36:11 37:12 43:3 44:9 45:16 50:4 51:16 52:15 53:16 59:10 60:16 61:10 #
-0.029389948132006536718474620784036 3:9 4:15 5:16 6:7 11:16 12:9 13:7 14:15 19:5 20:14 21:13 22:8 28:14 29:14 35:4 36:16 37:13 43:10 44:8 45:12 51:13 52:8 53:15 54:1 59:11 60:16 61:5 #
-0.068252543547059743578309110034752 3:6 4:14 5:16 6:10 11:13 12:13 13:10 14:15 19:5 20:15 21:11 22:14 28:10 29:16 30:7 36:14 37:16 38:1 43:8 44:15 45:15 46:2 51:12 52:14 53:16 54:1 59:10 60:16 61:11 #
-0.11541768146259019645061272285602 2:1 3:13 4:16 5:13 6:5 7:2 10:2 11:16 12:9 13:13 14:14 19:11 20:13 21:15 22:5 27:3 28:16 29:13 35:3 36:16 37:8 43:10 44:16 45:12 50:1 51:15 52:16 53:12 58:1 59:16 60:10 61:1 #
0.50000003576649798553432901826454 3:3 4:14 5:13 6:2 10:1 11:15 12:16 13:16 14:3 18:2 19:14 20:15 21:5 27:5 28:15 29:6 36:5 37:16 38:7 45:4 46:15 47:7 51:3 52:8 53:12 54:16 55:13 59:3 60:12 61:15 62:14 63:4 #
0.50000003576649798553432901826454 3:4 4:12 5:14 6:12 7:3 11:15 12:14 13:10 14:16 15:3 18:2 19:16 20:8 21:8 22:5 26:7 27:16 28:16 29:16 30:15 31:2 34:3 35:7 36:2 37:2 38:14 39:5 45:2 46:15 47:3 51:3 52:11 53:14 54:13 59:8 60:15 61:11 62:4 #
0.50000003576649798553432901826454 3:1 4:11 5:16 6:11 11:14 12:15 13:8 14:9 15:1 18:3 19:15 20:1 26:7 27:14 28:8 29:8 34:4 35:16 36:16 37:16 38:4 45:8 46:8 51:1 52:6 53:15 54:5 59:1 60:14 61:9 #
-0.07829999227666374628231693577618 2:1 3:12 4:13 5:9 6:5 10:5 11:16 12:11 13:15 14:16 18:4 19:16 20:5 21:8 22:16 23:4 26:2 27:13 28:16 29:16 30:16 31:5 36:3 37:4 38:15 39:6 45:1 46:15 47:6 51:11 52:9 53:12 54:16 55:2 59:11 60:16 61:14 62:8 #
-0.078521765914789543039375985244988 4:13 5:7 11:9 12:16 13:15 18:8 19:16 20:16 21:14 26:7 27:8 28:11 29:16 30:4 36:2 37:16 38:10 45:10 46:16 47:4 51:1 52:7 53:11 54:16 55:12 60:11 61:16 62:14 63:8 #
-0.24433871456138128719359770002484 3:6 4:15 5:16 6:16 7:7 11:8 12:13 13:15 14:16 15:7 19:1 20:15 21:14 22:8 27:2 28:16 29:16 30:13 31:2 36:3 37:11 38:16 39:5 45:7 46:16 47:4 51:1 52:10 53:15 54:11 59:6 60:16 61:9 #
0.50000003576649798553432901826454 4:12 5:16 6:13 11:6 12:16 13:10 14:5 17:1 18:14 19:2 20:6 26:12 27:11 34:3 35:14 36:11 37:1 43:3 44:13 45:11 52:5 53:16 54:6 60:13 61:16 62:6 #
0.50000003576649798553432901826454 3:3 4:11 5:14 6:16 7:4 10:9 11:16 12:16 13:16 14:9 15:3 18:15 19:14 20:6 21:2 26:10 27:16 28:5 34:3 35:13 36:15 37:5 43:1 44:10 45:15 46:6 52:7 53:15 54:15 59:2 60:15 61:16 62:15 #
0.50000003576649798553432901826454 3:1 4:7 5:11 6:13 7:11 8:5 11:7 12:16 13:16 14:13 15:16 16:4 19:14 20:8 26:4 27:16 28:9 29:8 30:5 34:8 35:16 36:16 37:16 38:16 39:2 42:2 43:4 44:4 45:12 46:15 52:7 53:16 54:5 60:12 61:5 #
-0.37898296780016321738671081220673 3:2 4:13 5:16 6:16 7:9 11:12 12:10 13:4 14:7 15:12 18:1 19:15 20:8 21:2 22:6 23:4 27:4 28:10 29:16 30:9 37:2 38:16 45:9 46:11 52:5 53:15 54:4 60:13 61:9 #
-0.19052017954515737541143494127027 2:1 3:8 4:14 5:16 6:12 10:1 11:12 12:9 13:11 14:16 20:9 21:15 22:5 26:2 27:14 28:16 29:7 34:1 35:11 36:13 37:16 38:9 45:2 46:16 47:4 51:11 52:8 53:14 54:13 59:11 60:14 61:11 62:1 #
-0.14165403240842325272019763815479 3:7 4:13 5:16 6:7 10:4 11:16 12:7 13:4 14:14 15:6 18:2 19:15 20:7 21:4 22:13 23:12 27:12 28:16 29:14 30:14 31:8 38:8 39:8 45:1 46:13 47:4 52:4 53:14 54:11 58:1 59:12 60:12 61:6 #
0.50000003576649798553432901826454 3:3 4:13 5:15 6:16 7:16 8:3 11:10 12:16 13:13 14:13 15:11 16:1 19:11 20:16 21:11 22:4 27:4 28:13 29:16 30:15 31:1 36:2 37:13 38:16 39:1 45:6 46:16 52:5 53:15 54:7 59:3 60:16 61:9 #
0.50000003576649798553432901826454 3:11 4:16 5:16 6:8 11:11 12:12 13:8 14:13 19:7 20:10 27:3 28:13 36:14 37:2 44:13 45:6 51:6 52:12 53:10 59:11 60:16 61:9 #
0.50000003576649798553432901826454 3:12 4:13 5:9 6:2 10:3 11:16 12:16 13:16 14:7 18:2 19:16 20:5 27:14 28:16 29:14 30:3 35:1 36:4 37:10 38:15 39:3 46:9 47:12 51:13 52:12 53:12 54:13 55:13 59:6 60:12 61:14 62:14 63:5 #
-0.12742986297186914557144632453856 3:1 4:8 5:14 6:16 7:12 11:10 12:15 13:13 14:16 15:12 18:1 19:12 20:3 21:9 22:15 23:1 28:8 29:16 30:8 36:8 37:16 38:16 39:4 44:1 45:8 46:16 47:6 52:5 53:15 54:12 55:1 60:13 61:10 62:1 #
-0.088007805935009217335185383035423 3:1 4:15 5:12 11:6 12:16 13:15 19:5 20:16 21:9 27:5 28:16 29:6 35:3 36:16 37:8 43:2 44:16 45:8 51:1 52:16 53:9 59:1 60:13 61:6 #
-0.080510395077399501961856742582313 3:7 4:10 5:13 6:10 11:14 12:11 13:4 14:11 15:3 18:2 19:15 20:1 22:5 23:8 26:7 27:9 30:3 31:8 34:5 35:12 38:4 39:8 42:5 43:11 46:8 47:4 51:12 52:2 53:2 54:12 59:6 60:15 61:14 62:2 #
0.50000003576649798553432901826454 3:10 4:13 5:11 6:10 11:12 12:16 13:16 14:16 19:13 20:11 22:2 27:14 28:16 29:13 30:1 35:5 36:10 37:14 38:9 45:10 46:13 51:14 52:16 53:16 54:11 59:10 60:16 61:13 62:1 #
0.50000003576649798553432901826454 3:9 4:16 5:16 6:16 7:7 10:5 11:16 12:13 13:6 14:2 15:1 18:11 19:15 20:14 21:8 26:6 27:15 28:12 29:16 30:8 37:10 38:15 42:1 43:13 44:3 45:5 46:15 50:3 51:16 52:9 53:15 54:9 59:8 60:16 61:14 62:1 #
0.50000003576649798553432901826454 3:1 4:7 5:12 6:7 11:6 12:16 13:10 14:5 19:14 20:16 21:14 22:4 27:3 28:4 29:6 30:13 38:11 39:6 46:7 47:9 51:10 52:5 53:2 54:8 55:11 59:4 60:14 61:16 62:16 63:4 #
-0.10957769065651853934717507854657 3:1 4:9 5:15 6:15 7:2 10:1 11:15 12:9 13:5 14:16 15:2 18:8 19:10 20:1 21:12 22:8 26:7 27:15 28:12 29:11 30:1 35:7 36:16 37:13 38:3 43:6 44:8 45:8 46:15 47:3 51:2 52:15 53:2 54:12 55:8 60:10 61:16 62:13 63:4 #
-0.10362861871325268481314196833409 3:10 4:14 5:15 6:10 7:2 10:2 11:15 12:5 13:4 14:16 15:8 19:13 21:8 22:13 23:1 26:3 27:15 28:12 29:14 30:2 34:1 35:12 36:14 37:13 38:1 42:6 43:11 45:9 46:12 50:7 51:11 53:1 54:16 55:3 58:1 59:10 60:13 61:14 62:12 #
-0.16042041937332146561701051723503 3:6 4:15 5:14 6:4 11:16 12:6 13:4 14:15 18:5 19:16 20:6 21:13 22:11 26:1 27:16 28:16 29:16 30:13 31:1 34:6 35:15 36:7 38:11 39:8 42:4 43:12 46:9 47:11 51:16 52:4 53:9 54:15 55:2 59:8 60:14 61:9 62:2 #
0.50000003576649798553432901826454 3:3 4:15 5:12 6:12 7:6 11:13 12:13 13:13 14:16 15:12 18:5 19:11 23:1 26:5 27:16 28:15 29:7 35:9 36:14 37:16 44:1 45:15 46:2 51:1 52:12 53:11 59:3 60:14 61:1 #
0.50000003576649798553432901826454 3:3 4:10 5:7 6:15 7:13 11:12 12:9 13:16 14:16 15:13 18:1 19:16 20:12 21:14 22:8 23:4 26:1 27:14 28:16 29:16 30:16 31:10 36:1 38:11 39:6 45:4 46:15 47:2 51:2 52:13 53:15 54:3 59:4 60:13 61:3 #
0.50000003576649798553432901826454 2:3 3:9 4:12 5:12 6:16 7:10 10:7 11:16 12:16 13:16 14:14 15:6 18:7 19:16 20:11 21:2 26:10 27:16 28:10 29:2 34:1 35:11 36:16 37:16 38:4 43:1 44:12 45:16 46:5 51:13 52:16 53:6 58:2 59:15 60:9 #
-0.11323570929419113362257576227421 3:1 4:11 5:15 6:16 7:5 11:13 12:15 13:13 14:16 15:9 18:1 19:16 20:14 21:15 22:16 23:8 27:13 28:16 29:13 30:15 31:15 37:1 38:14 39:9 45:9 46:14 47:1 52:9 53:15 54:2 60:15 61:7 #
-0.075393989318336254723540434952156 3:2 4:8 5:12 6:13 7:9 8:1 11:15 12:16 13:14 14:16 15:16 18:4 19:16 20:14 21:13 22:16 23:12 27:13 28:14 29:11 30:16 31:10 37:5 38:16 39:7 45:13 46:15 47:3 52:10 53:15 54:2 59:1 60:16 61:5 #
-0.065908224744864171706915101367485 3:1 4:9 5:15 6:16 7:14 8:1 11:12 12:15 13:11 14:14 15:13 16:1 19:16 20:16 21:16 22:16 23:6 27:4 28:8 29:8 30:14 31:14 37:3 38:14 39:7 44:1 45:12 46:11 52:8 53:14 54:1 60:15 61:7 #
0.50000003576649798553432901826454 2:1 3:11 4:16 5:16 6:12 10:7 11:15 12:10 13:6 14:3 18:10 19:10 20:3 26:11 27:16 28:16 29:7 34:10 35:11 36:6 37:15 38:1 45:12 46:6 52:3 53:15 54:3 59:14 60:16 61:10 #
0.50000003576649798553432901826454 2:1 3:5 4:11 5:13 6:5 10:10 11:16 12:16 13:15 14:3 18:10 19:13 26:10 27:14 28:8 29:8 30:3 34:2 35:12 36:13 37:13 38:16 39:5 46:11 47:14 51:2 52:11 53:8 54:14 55:15 59:2 60:11 61:16 62:14 63:6 #
0.50000003576649798553432901826454 3:10 4:16 5:16 6:12 11:6 12:16 13:9 14:7 19:7 20:16 21:4 27:11 28:16 29:16 30:10 31:1 35:3 36:8 37:6 38:13 39:11 46:7 47:16 53:3 54:15 55:15 59:10 60:16 61:16 62:13 63:2 #
-0.17405005061277339928338392383012 2:1 3:6 4:11 5:16 6:6 11:5 12:13 13:11 14:16 15:6 19:4 20:16 21:8 27:5 28:15 34:1 35:13 36:10 37:4 42:6 43:10 44:4 45:8 50:8 51:7 52:12 53:7 58:2 59:13 60:14 #
-0.0066423360568382550095378746846109 3:3 4:10 5:13 6:16 7:7 11:10 12:10 13:8 14:12 15:13 22:10 23:10 26:5 27:12 28:12 29:12 30:15 31:8 34:5 35:12 36:12 37:15 38:11 39:1 44:5 45:15 46:3 52:11 53:9 59:3 60:16 61:2 #
-0.080688128716409304730383666992566 3:2 4:14 5:16 6:15 7:9 10:1 11:14 12:11 13:5 14:9 15:14 18:4 19:14 21:3 22:12 23:11 26:6 27:13 28:9 29:15 30:15 31:1 34:2 35:13 36:15 37:15 38:11 44:4 45:15 51:1 52:13 53:11 59:3 60:16 61:5 #
0.50000003576649798553432901826454 3:4 4:10 5:16 6:16 7:11 8:1 11:12 12:13 13:11 14:8 15:7 18:3 19:16 20:16 21:16 22:4 26:5 27:16 28:9 29:15 30:6 37:6 38:11 45:11 46:8 51:1 52:8 53:13 54:2 59:4 60:13 61:4 #
0.50000003576649798553432901826454 3:15 4:2 10:5 11:16 12:15 13:11 14:5 18:7 19:16 20:15 21:12 22:13 23:4 26:1 27:15 28:7 35:5 36:16 37:5 44:10 45:14 51:1 52:12 53:15 59:11 60:16 61:6 #
0.50000003576649798553432901826454 2:2 3:6 4:11 5:8 10:9 11:16 12:14 13:5 18:9 19:16 20:12 21:8 22:2 26:8 27:15 28:8 29:11 30:13 31:1 38:8 39:10 46:5 47:14 51:6 52:6 53:4 54:8 55:14 59:5 60:15 61:16 62:15 63:7 #
-0.2010065583731035221415339719897 3:3 4:9 5:8 11:15 12:9 13:1 18:4 19:16 20:8 21:2 26:5 27:16 28:12 29:12 30:11 31:1 34:4 35:12 38:5 39:10 42:1 43:14 44:3 46:1 47:14 48:1 51:10 52:6 53:5 54:14 55:13 59:4 60:13 61:14 62:8 #
-0.12855144710853569356423520275712 2:1 3:14 4:13 5:4 10:6 11:15 12:11 13:15 18:8 19:14 20:9 21:16 22:4 26:2 27:8 28:11 29:15 30:6 37:7 38:13 39:1 46:11 47:10 51:10 52:4 54:3 55:15 59:10 60:14 61:16 62:16 63:15 #
-0.088632572495058251083044353890728 2:1 3:10 4:16 5:16 6:8 10:8 11:13 12:6 13:14 14:8 18:1 19:1 20:10 21:15 22:2 27:3 28:16 29:15 30:8 36:2 37:7 38:15 39:6 46:8 47:12 51:2 52:1 53:2 54:13 55:10 59:11 60:16 61:16 62:11 63:1 #
0.50000003576649798553432901826454 3:2 4:12 5:16 6:16 7:11 11:12 12:15 13:9 14:6 15:8 18:3 19:16 20:5 21:3 22:2 26:10 27:16 28:15 29:16 30:13 34:8 35:16 36:13 37:10 38:16 43:3 45:11 46:13 52:9 53:16 54:5 59:1 60:16 61:11 #
0.50000003576649798553432901826454 3:6 4:8 5:10 6:12 7:11 10:1 11:16 12:16 13:16 14:12 15:3 18:4 19:16 20:8 21:1 26:6 27:14 34:1 35:14 36:12 37:3 43:5 44:15 45:16 46:6 52:4 53:16 54:10 59:6 60:14 61:7 62:1 #
0.50000003576649798553432901826454 2:2 3:15 4:9 5:10 6:8 7:6 10:10 11:16 12:16 13:16 14:12 15:8 18:8 19:16 20:6 26:1 27:12 28:16 29:12 30:1 35:1 36:6 37:15 38:12 45:5 46:16 47:2 50:10 51:12 52:6 53:10 54:16 55:1 58:1 59:13 60:16 61:14 62:5 #
-0.17888500468065088311320209868427 3:1 4:13 5:10 11:9 12:16 13:4 18:1 19:16 20:8 22:4 26:4 27:16 28:16 29:16 30:16 31:6 35:8 36:8 37:12 38:16 39:5 44:1 45:16 46:13 52:13 53:16 54:3 59:2 60:15 61:5 #
-0.13880548805761097619360100452468 3:8 4:15 5:15 6:12 7:4 11:15 12:4 13:3 14:10 15:16 19:8 20:14 21:12 22:16 23:12 28:2 29:4 30:9 31:8 38:9 39:7 42:1 43:1 46:12 47:4 50:7 51:11 52:1 53:4 54:12 55:1 59:10 60:16 61:13 62:3 #
-0.15468241374515806496603431696713 4:10 5:16 6:10 11:9 12:16 13:12 14:8 18:1 19:15 20:13 21:1 26:2 27:16 28:5 34:2 35:16 36:8 42:2 43:16 44:16 45:9 50:1 51:12 52:16 53:16 54:3 60:12 61:16 62:7 #
0.50000003576649798553432901826454 2:4 3:13 4:16 5:16 6:12 10:5 11:14 12:4 13:4 14:3 18:2 19:16 20:8 21:6 22:1 26:2 27:16 28:13 29:14 30:11 35:5 38:15 39:5 46:11 47:9 51:1 54:11 55:12 58:2 59:15 60:16 61:16 62:14 63:3 #
0.50000003576649798553432901826454 3:12 4:16 5:12 6:16 7:3 11:14 12:14 13:8 14:8 15:1 19:7 20:15 21:1 27:1 28:14 29:11 36:6 37:16 38:1 45:12 46:11 50:2 51:7 52:6 53:14 54:13 59:12 60:16 61:16 62:6 #
0.50000003576649798553432901826454 2:2 3:13 4:16 5:15 6:7 10:10 11:16 12:15 13:6 14:14 15:3 18:8 19:16 20:1 26:3 27:14 28:8 35:4 36:15 37:4 44:5 45:16 51:5 52:9 53:16 54:3 58:1 59:15 60:16 61:10 #
-0.16218622133359827941490038938355 3:8 4:14 5:12 6:2 10:10 11:14 12:12 13:14 18:6 19:2 20:11 21:7 28:12 29:5 36:8 37:15 38:2 45:9 46:14 47:3 51:6 52:2 53:7 54:14 55:8 59:14 60:15 61:11 62:4 #
-0.13047459183835977136745043480914 3:4 4:16 5:13 11:14 12:9 13:15 18:5 19:14 20:2 21:16 22:6 26:9 27:12 28:7 29:15 30:10 34:3 35:16 36:15 37:9 38:16 39:1 43:4 45:1 46:14 47:5 52:6 53:6 54:12 55:7 59:2 60:16 61:16 62:13 63:1 #
-0.079314385145015819933433931510081 2:1 3:15 4:16 5:16 6:16 7:9 10:7 11:16 12:13 13:11 14:16 15:9 18:9 19:16 20:4 21:10 22:15 23:1 26:8 27:9 28:3 29:15 30:8 36:10 37:15 43:1 44:16 45:9 51:10 52:16 53:2 59:16 60:13 #
0.50000003576649798553432901826454 3:3 4:10 5:14 6:14 10:10 11:16 12:14 13:10 14:15 19:8 26:6 27:16 28:8 29:1 34:2 35:11 36:15 37:15 38:5 45:15 46:15 52:12 53:13 54:1 60:11 61:4 #
0.50000003576649798553432901826454 3:13 4:16 5:16 6:16 7:2 10:1 11:16 12:16 13:12 14:9 18:8 19:16 20:8 26:10 27:16 28:1 34:7 35:16 36:13 43:9 44:16 45:10 51:11 52:16 53:12 59:15 60:14 61:6 #
0.50000003576649798553432901826454 2:3 3:16 4:16 5:16 6:16 7:14 10:9 11:15 12:9 13:7 14:3 15:2 18:10 19:12 26:10 27:16 28:15 29:9 34:1 35:8 36:9 37:16 38:7 45:10 46:12 50:5 51:7 53:8 54:14 58:4 59:16 60:16 61:16 62:8 #
-0.11798118213207342552806267121923 3:15 4:8 10:2 11:16 12:15 13:2 19:16 20:8 21:10 27:12 28:8 29:12 36:8 37:8 44:12 45:8 51:12 52:16 53:15 54:15 55:5 59:15 60:11 61:6 62:2 #
-0.099444377769222380702984764866414 2:1 3:8 4:15 5:16 6:11 7:1 10:5 11:16 12:13 13:10 14:13 15:7 18:4 19:13 22:9 23:8 26:1 27:13 28:8 29:6 30:15 31:4 35:2 36:15 37:16 38:9 43:8 44:14 45:15 46:8 51:14 52:8 53:9 54:14 59:11 60:16 61:14 62:8 #
-0.10716564200229534986608115332274 3:12 4:5 11:16 12:2 18:3 19:12 26:4 27:12 34:7 35:14 36:16 37:14 38:3 42:3 43:16 44:8 45:9 46:16 47:4 50:2 51:16 52:3 53:4 54:16 55:4 59:11 60:12 61:11 62:4 #
0.50000003576649798553432901826454 4:9 5:14 6:14 7:1 10:2 11:15 12:16 13:16 14:11 15:1 18:6 19:16 20:15 21:5 26:12 27:16 28:9 29:1 34:3 35:13 36:16 37:13 38:2 44:3 45:13 46:15 52:11 53:10 54:16 55:7 60:10 61:16 62:15 63:1 #
0.50000003576649798553432901826454 4:7 5:13 6:14 7:4 11:15 12:13 13:4 15:1 18:1 19:16 20:2 26:5 27:16 28:9 29:14 30:13 31:1 34:7 35:15 36:8 37:1 38:11 39:4 46:13 47:4 52:5 53:7 54:12 60:8 61:14 62:3 #
0.50000003576649798553432901826454 3:3 4:10 5:11 6:5 10:8 11:16 12:10 13:8 14:5 18:11 19:11 26:8 27:14 28:11 29:8 30:4 35:3 36:7 37:9 38:14 39:9 46:5 47:13 51:1 52:4 53:10 54:16 55:5 59:2 60:13 61:10 62:2 #
-0.1545400580852370475692936224732 3:3 4:11 5:13 6:8 10:1 11:14 12:5 13:1 14:12 15:3 18:4 19:12 22:8 23:11 26:1 27:15 28:6 29:4 30:15 31:4 35:2 36:8 37:10 38:14 39:4 46:11 47:4 52:2 53:2 54:11 55:4 59:2 60:14 61:11 62:7 63:1 #
-0.1422611710590272471321782177256 4:7 5:14 6:7 11:3 12:13 13:4 14:12 15:1 19:13 20:3 22:12 23:4 26:1 27:13 29:6 30:16 31:6 35:15 36:15 37:9 38:12 39:3 43:1 44:1 46:9 47:2 51:2 52:9 53:2 54:12 59:1 60:9 61:15 62:7 #
-0.022183683080335078047218289043485 4:2 5:12 6:11 12:13 13:16 14:10 19:9 20:16 21:16 22:9 26:4 27:16 28:14 29:16 30:6 34:1 35:6 36:7 37:16 38:6 44:5 45:16 46:6 52:3 53:16 54:4 61:12 62:4 #
0.50000003576649798553432901826454 3:4 4:9 5:9 10:1 11:16 12:15 13:12 14:10 18:3 19:16 20:5 26:6 27:16 28:16 29:7 34:3 35:16 36:15 37:16 38:1 43:1 45:12 46:5 51:13 52:10 53:16 54:6 59:8 60:16 61:9 #
0.50000003576649798553432901826454 3:1 4:12 5:16 6:16 7:11 11:5 12:15 13:8 14:8 15:5 18:2 19:15 20:15 21:12 22:7 26:11 27:16 28:16 29:16 30:16 31:4 34:3 35:5 36:2 37:1 38:13 39:9 46:11 47:9 51:2 52:10 53:9 54:16 55:4 59:2 60:16 61:16 62:8 #
0.50000003576649798553432901826454 3:5 4:10 5:12 6:16 7:16 8:2 11:10 12:16 13:16 14:10 15:6 19:5 20:16 21:5 28:12 29:16 30:2 37:12 38:12 45:13 46:9 51:1 52:12 53:13 54:2 59:7 60:13 61:2 #
-0.14499108161686385942701349449635 4:5 5:8 6:12 7:10 11:11 12:14 13:4 14:15 15:8 18:4 19:16 20:14 21:11 22:16 23:7 26:7 27:16 28:16 29:16 30:14 31:7 34:1 35:8 36:6 38:7 39:8 46:5 47:8 53:3 54:13 55:6 60:4 61:16 62:8 #
-0.22640350296953026809632092408719 3:3 4:15 5:16 6:14 7:2 10:3 11:15 12:13 13:5 14:14 15:4 18:4 19:15 20:13 21:10 22:16 23:4 27:7 28:15 29:16 30:16 31:4 38:12 39:4 46:11 47:5 50:2 51:13 52:10 53:5 54:12 55:8 59:5 60:13 61:16 62:14 63:5 #
-0.059501790494772791029198799606093 3:2 4:12 5:14 6:1 11:14 12:9 13:11 14:14 15:7 18:5 19:12 21:8 22:11 23:1 26:4 27:14 28:8 29:13 30:1 35:9 36:16 37:4 43:7 44:13 45:13 46:1 51:8 52:7 53:14 54:6 59:4 60:14 61:12 62:4 #
0.50000003576649798553432901826454 3:4 4:16 5:13 6:16 7:13 11:12 12:11 13:5 14:4 15:2 18:1 19:16 20:1 21:9 22:8 23:2 26:8 27:16 28:14 29:10 30:13 31:6 34:1 35:4 38:9 39:6 45:5 46:11 47:1 51:1 52:6 53:14 54:4 59:6 60:15 61:5 #
0.50000003576649798553432901826454 3:2 4:15 5:15 6:11 7:3 10:2 11:15 12:6 13:4 14:4 15:3 18:5 19:16 20:15 21:7 26:1 27:4 28:6 29:13 30:13 38:14 39:4 43:3 44:3 46:11 47:3 51:7 52:7 53:10 54:12 59:3 60:14 61:9 62:1 #
0.50000003576649798553432901826454 2:1 3:11 4:12 5:12 6:13 7:2 10:7 11:16 12:9 13:8 14:8 15:2 18:7 19:14 20:8 21:8 22:1 26:3 27:15 28:11 29:11 30:13 37:4 38:16 45:9 46:13 51:2 52:11 53:14 54:4 59:12 60:9 61:1 #
-0.13900974274337923874966804760334 3:6 4:15 5:15 6:4 10:4 11:15 12:16 13:16 14:14 18:12 19:16 20:13 21:16 22:16 23:1 26:9 27:16 28:15 29:14 30:16 31:2 35:4 36:2 37:7 38:16 39:1 44:2 45:15 46:14 51:1 52:14 53:16 54:6 59:5 60:15 61:6 #
-0.094983196973891015346680433140136 3:6 4:12 5:16 6:14 7:3 10:6 11:14 12:6 13:3 14:15 15:8 18:7 19:14 20:9 21:16 22:16 27:5 28:11 29:10 30:14 37:10 38:8 44:3 45:16 46:3 51:1 52:15 53:9 59:10 60:11 #
-0.11807017151638742047392582890097 3:1 4:7 5:14 6:12 11:13 12:11 13:12 14:14 18:9 19:16 20:12 21:14 22:14 26:2 27:4 28:2 29:5 30:15 37:3 38:15 45:3 46:16 53:14 54:7 59:2 60:11 61:11 62:1 #
0.50000003576649798553432901826454 3:6 4:9 5:13 6:11 7:2 10:7 11:16 12:16 13:16 14:16 15:3 18:8 19:16 20:10 21:6 26:5 27:16 28:16 29:16 30:13 31:1 36:3 37:6 38:16 39:4 42:3 46:12 47:5 50:5 51:16 52:9 53:8 54:14 55:6 59:5 60:10 61:12 62:10 #
0.50000003576649798553432901826454 2:1 3:8 4:15 5:16 6:8 10:14 11:16 12:16 13:11 14:4 18:4 19:15 20:12 27:6 28:16 29:3 36:10 37:12 44:6 45:16 46:1 51:12 52:15 53:16 54:1 59:9 60:16 61:13 62:1 #
0.50000003576649798553432901826454 3:9 4:15 5:16 6:12 7:1 10:11 11:16 12:16 13:13 14:8 15:1 18:3 19:15 20:11 21:1 27:8 28:14 35:3 36:16 37:4 43:1 44:16 45:7 50:3 51:15 52:16 53:4 59:13 60:15 #
-0.10997882235330680433804673157283 3:4 4:15 5:5 11:12 12:16 13:14 14:1 18:1 19:15 20:12 21:13 22:14 26:4 27:13 30:9 31:4 34:3 35:10 38:3 39:9 42:4 43:12 46:2 47:12 51:13 52:10 53:10 54:16 55:14 59:4 60:13 61:16 62:14 63:3 #
-0.12381278432319418880691586082321 3:4 4:11 5:14 6:7 11:15 12:12 13:16 14:3 19:8 20:16 21:10 27:9 28:16 29:7 34:3 35:15 36:4 37:14 38:4 42:2 43:13 45:3 46:15 47:6 51:8 52:9 53:4 54:8 55:14 60:7 61:12 62:12 63:8 #
-0.077619448619544881284859627612605 4:12 5:1 11:4 12:16 13:3 19:7 20:14 27:9 28:10 29:4 30:2 35:12 36:16 37:16 38:15 39:5 43:10 44:9 47:12 48:1 51:7 52:11 53:1 54:5 55:15 56:2 60:11 61:16 62:15 63:8 #
0.50000003576649798553432901826454 3:2 4:15 5:11 6:10 7:16 8:2 11:10 12:16 13:16 14:16 15:9 18:2 19:16 20:11 21:5 22:2 26:12 27:15 28:4 29:2 34:5 35:16 36:16 37:15 38:5 43:2 44:7 45:16 46:11 52:3 53:16 54:10 59:4 60:15 61:12 62:2 #
0.50000003576649798553432901826454 3:2 4:10 5:13 6:16 7:6 10:9 11:16 12:14 13:12 14:9 15:2 18:5 19:16 20:3 27:10 28:14 29:6 30:1 35:1 36:13 37:16 38:11 45:8 46:16 52:2 53:15 54:12 60:13 61:16 62:2 #
0.50000003576649798553432901826454 3:6 4:15 5:15 6:4 11:11 12:10 13:4 14:2 19:13 20:11 21:2 27:12 28:14 29:12 30:5 37:3 38:15 39:3 46:4 47:11 51:15 52:8 53:3 54:2 55:15 59:5 60:12 61:16 62:16 63:12 #
-0.12456544522174145539494816148363 3:2 4:13 5:13 6:2 10:1 11:15 12:13 13:15 14:4 18:5 19:13 20:1 21:14 22:2 27:2 28:12 29:14 36:8 37:14 38:14 39:1 46:13 47:7 51:3 52:8 53:8 54:15 55:2 59:2 60:14 61:11 62:4 #
-0.074540980019948771539972653954464 5:13 6:8 12:2 13:16 14:6 20:7 21:16 22:7 23:3 27:1 28:13 29:12 30:15 31:7 34:3 35:12 36:14 37:5 38:16 39:3 41:2 42:15 43:16 44:16 45:16 46:16 47:1 49:5 50:12 51:13 52:16 53:16 54:15 61:15 62:6 #
-0.079360226477605294581607608961349 5:13 6:12 12:4 13:16 14:6 19:1 20:13 21:10 22:1 23:8 27:7 28:15 29:2 30:9 31:15 34:6 35:16 36:4 37:4 38:14 39:9 41:2 42:15 43:16 44:16 45:16 46:16 47:6 49:2 50:8 51:8 52:4 53:13 54:13 61:15 62:8 #
0.50000003576649798553432901826454 3:2 4:10 5:16 6:16 7:2 10:1 11:16 12:15 13:5 14:1 18:8 19:13 26:12 27:11 34:5 35:16 36:7 43:3 44:13 45:12 52:4 53:16 60:14 61:12 #
0.50000003576649798553432901826454 3:3 4:13 5:16 6:16 7:3 11:8 12:10 13:5 14:5 18:7 19:15 26:10 27:13 28:2 34:3 35:15 36:14 37:1 44:11 45:11 52:7 53:13 59:3 60:16 61:11 #
0.50000003576649798553432901826454 3:7 4:11 5:15 6:6 10:3 11:16 12:15 13:12 14:4 18:5 19:16 20:13 21:14 22:8 26:6 27:15 28:11 29:8 30:15 31:6 38:8 39:8 46:4 47:8 51:13 52:9 53:8 54:13 55:5 59:6 60:11 61:14 62:9 #
-0.30001694479927548675490811547206 3:8 4:16 5:6 10:2 11:14 12:8 13:12 14:2 18:7 19:14 20:9 21:15 22:9 26:1 27:12 28:13 29:7 30:14 38:11 39:4 46:8 47:8 51:2 52:4 53:5 54:13 55:7 59:6 60:15 61:15 62:10 #
-0.18463054678452178736236533040938 2:1 3:13 4:16 5:8 6:1 10:8 11:14 12:10 13:16 14:8 18:11 19:14 20:15 21:16 22:9 27:8 28:7 29:6 30:16 31:4 38:16 39:4 43:1 46:14 47:8 50:3 51:16 52:2 53:10 54:15 55:1 58:2 59:13 60:16 61:12 62:1 #
-0.064728942105976530752009523439483 3:11 4:14 5:4 10:6 11:15 12:14 13:16 14:5 18:11 19:10 20:12 21:16 22:12 26:2 27:12 28:10 29:3 30:14 31:6 38:12 39:8 46:11 47:10 52:1 53:7 54:14 55:4 59:12 60:16 61:12 62:4 #
0.50000003576649798553432901826454 3:5 4:15 5:12 6:3 11:9 12:12 13:10 14:3 19:14 20:6 27:15 28:16 29:16 30:3 35:7 36:8 37:10 38:10 45:5 46:13 51:4 52:12 53:16 54:11 59:6 60:16 61:11 62:2 #
0.50000003576649798553432901826454 2:1 3:14 4:16 5:16 6:12 7:1 11:13 12:8 13:4 14:4 19:12 20:4 27:8 28:16 29:16 30:9 35:4 36:7 37:5 38:14 46:13 51:5 53:3 54:15 58:2 59:14 60:16 61:14 62:7 #
0.50000003576649798553432901826454 3:6 4:9 5:12 6:16 7:10 11:11 12:13 13:5 14:4 15:4 19:12 20:4 26:3 27:15 28:3 29:4 30:2 34:2 35:16 36:14 37:12 38:14 39:7 43:1 46:10 47:4 50:12 51:13 53:1 54:13 55:2 59:6 60:16 61:16 62:7 #
-0.089812974195726938408945727587707 3:2 4:15 5:11 11:8 12:16 13:11 18:1 19:13 20:16 21:7 26:8 27:16 28:16 29:7 34:11 35:9 36:16 37:12 44:7 45:16 46:6 52:5 53:16 54:15 55:3 59:3 60:16 61:16 62:16 63:15 64:1 #
-0.076823121119083542795991093043995 3:3 4:4 5:4 6:2 10:1 11:14 12:16 13:15 14:2 18:4 19:16 20:16 21:14 26:4 27:16 28:16 29:15 34:2 35:15 36:16 37:15 38:1 43:11 44:16 45:16 46:5 51:5 52:16 53:16 54:12 59:6 60:12 61:8 62:5 #
-0.14180088710936269991158553693822 5:1 6:14 7:4 13:2 14:16 15:8 21:8 22:16 23:6 29:15 30:16 31:5 36:8 37:16 38:16 39:3 43:6 44:16 45:9 46:16 50:2 51:16 52:8 53:4 54:16 58:2 59:4 61:2 62:15 63:3 #
0.50000003576649798553432901826454 3:7 4:13 5:11 6:3 10:2 11:15 12:8 13:8 14:2 18:6 19:11 20:3 21:3 26:7 27:16 28:16 29:16 30:13 31:2 34:1 35:8 36:5 37:3 38:11 39:10 46:2 47:14 51:2 52:5 53:4 54:10 55:15 59:8 60:16 61:16 62:14 63:4 #
0.50000003576649798553432901826454 3:6 4:8 5:11 6:15 11:15 12:16 13:16 14:10 19:15 20:12 21:4 27:7 28:15 29:3 36:7 37:12 44:4 45:15 52:11 53:11 59:10 60:16 61:6 #
0.50000003576649798553432901826454 2:1 3:8 4:16 5:16 6:6 10:12 11:16 12:15 13:12 14:6 17:1 18:16 19:13 20:2 26:7 27:16 28:2 35:7 36:15 37:7 44:4 45:14 46:11 51:1 52:8 53:14 54:16 55:2 59:5 60:16 61:16 62:9 #
-0.10571066929800594647037570439352 3:7 4:13 5:9 6:1 10:1 11:13 12:5 13:9 14:8 18:7 19:10 21:5 22:12 26:5 27:15 28:8 29:10 30:16 31:4 35:7 36:9 37:7 38:5 39:8 46:1 47:11 51:3 54:5 55:10 59:9 60:16 61:16 62:14 63:3 #
-0.1002190216248604881510431141578 2:1 3:10 4:15 5:9 10:5 11:16 12:8 13:16 14:7 18:5 19:14 21:12 22:9 26:1 27:12 28:13 29:16 30:16 31:2 35:1 36:9 37:12 38:14 39:7 46:4 47:13 51:14 52:12 53:8 54:11 55:16 59:7 60:16 61:16 62:16 63:9 #
-0.14095663632450777802418429018871 2:5 3:16 4:16 5:16 6:3 10:8 11:7 12:5 13:16 14:2 18:3 19:5 20:10 21:14 26:7 27:16 28:16 29:15 30:12 31:6 35:9 36:14 37:11 38:14 39:6 43:16 44:6 50:3 51:15 52:2 58:7 59:12 #
0.50000003576649798553432901826454 3:5 4:16 5:16 6:10 7:1 10:8 11:14 12:14 13:8 14:9 15:1 18:14 19:16 20:9 21:1 26:12 27:16 28:16 29:15 30:3 34:1 35:10 36:12 37:13 38:13 45:4 46:16 51:1 52:4 53:12 54:14 59:4 60:15 61:16 62:4 #
0.50000003576649798553432901826454 3:7 4:16 5:16 6:12 7:2 11:12 12:16 13:13 14:14 15:7 18:2 19:16 20:11 26:5 27:16 28:16 29:11 34:11 35:16 36:11 37:16 38:3 42:1 43:2 45:13 46:8 51:2 52:4 53:13 54:8 59:8 60:16 61:16 62:4 #
0.50000003576649798553432901826454 2:1 3:12 4:16 5:15 6:11 7:3 10:7 11:16 12:14 13:11 14:9 15:4 18:3 19:16 20:8 21:2 26:5 27:16 28:16 29:15 30:3 34:2 35:14 36:16 37:16 38:14 45:12 46:16 47:1 50:2 51:12 52:12 53:16 54:16 58:1 59:14 60:16 61:10 62:3 #
-0.11908666255859919058668339175711 2:1 3:15 4:6 10:7 11:16 12:16 18:11 19:14 20:16 26:2 27:8 28:15 35:14 36:10 42:5 43:16 44:3 50:10 51:16 52:16 53:16 54:12 55:5 58:3 59:15 60:16 61:12 62:14 63:14 #
-0.1035688755176413233805021718581 2:1 3:14 4:7 10:8 11:16 12:2 14:3 15:5 18:10 19:12 21:1 22:14 23:11 26:9 27:15 28:1 29:9 30:16 31:3 34:1 35:15 36:16 37:16 38:8 43:5 44:16 45:13 46:5 51:12 52:13 58:2 59:16 60:6 #
-0.12609193586471362236167692572053 2:4 3:16 4:13 5:6 10:1 11:9 12:15 13:16 14:8 20:1 21:12 22:16 23:3 28:1 29:15 30:13 31:1 35:11 36:13 37:16 38:14 39:5 42:3 43:16 44:16 45:16 46:14 47:5 50:1 51:14 52:13 53:1 58:3 59:16 60:7 #
0.50000003576649798553432901826454 3:12 4:13 5:9 6:6 7:2 10:4 11:16 12:16 13:16 14:16 15:7 18:7 19:13 20:3 21:5 22:3 26:7 27:14 28:5 34:4 35:16 36:16 37:5 42:1 43:9 44:16 45:12 51:5 52:12 53:12 59:8 60:15 61:5 #
0.50000003576649798553432901826454 3:4 4:12 5:12 6:6 11:3 12:6 13:4 14:8 18:3 19:13 20:6 21:8 22:3 26:4 27:16 28:13 29:12 30:15 31:2 35:3 38:10 39:8 46:8 47:6 51:7 52:6 53:5 54:14 55:2 59:3 60:14 61:15 62:6 #
0.50000003576649798553432901826454 2:5 3:14 4:15 5:12 6:10 7:1 10:13 11:16 12:16 13:16 14:16 15:7 18:12 19:16 20:3 22:1 23:1 26:8 27:16 28:4 35:15 36:13 43:5 44:16 45:2 51:8 52:16 53:5 58:6 59:16 60:13 #
-0.12360015408647004320208395711234 3:8 4:13 5:6 10:2 11:16 12:12 13:11 14:10 19:16 20:16 21:14 22:8 23:1 27:13 28:11 34:2 35:15 36:4 43:16 44:13 50:2 51:15 52:16 53:2 59:11 60:16 61:4 #
-0.124017808529617593049643176073 2:1 3:8 4:10 5:3 10:4 11:16 12:16 13:16 14:11 15:1 18:3 19:16 20:9 21:8 22:11 23:4 27:10 28:7 29:3 30:10 31:2 35:3 36:16 37:13 38:5 43:13 44:15 45:8 50:4 51:15 52:5 53:13 58:1 59:7 60:12 61:11 #
-0.14422537657450759662758343893074 5:11 6:8 12:2 13:16 14:8 20:6 21:16 22:2 28:7 29:15 36:10 37:14 43:13 44:16 45:16 46:11 51:7 52:7 53:16 54:16 55:10 61:8 62:16 63:15 #
0.50000003576649798553432901826454 3:2 4:8 5:9 6:12 7:12 11:10 12:16 13:15 14:10 15:4 19:13 20:14 21:1 26:3 27:16 28:12 29:2 35:3 36:10 37:15 38:12 45:8 46:16 52:8 53:14 54:6 60:13 61:4 #
0.50000003576649798553432901826454 3:10 4:16 5:16 6:16 7:14 10:4 11:16 12:11 13:7 14:3 15:2 18:10 19:11 26:7 27:15 28:9 29:8 30:2 34:1 35:11 36:12 37:15 38:14 39:1 45:1 46:15 47:6 50:2 51:12 52:6 54:15 55:6 59:9 60:14 61:16 62:15 63:2 #
0.50000003576649798553432901826454 2:4 3:15 4:16 5:16 6:16 7:5 10:7 11:16 12:13 13:6 14:4 15:1 18:10 19:16 20:6 21:2 26:9 27:16 28:16 29:16 30:4 36:1 37:14 38:10 45:12 46:12 50:3 51:9 52:11 53:16 54:7 58:3 59:15 60:16 61:6 #
-0.12051140213051768357299664558013 4:8 5:8 6:8 7:13 8:8 11:6 12:15 13:13 14:14 15:15 16:1 19:13 20:6 22:12 23:5 27:14 28:5 29:5 30:10 35:1 36:10 37:16 38:14 39:2 44:12 45:12 46:6 47:1 52:14 53:4 60:12 61:1 #
-0.14146248650849976846721745005198 3:2 4:6 5:12 6:16 7:16 8:2 10:2 11:15 12:16 13:9 14:5 15:16 16:5 19:5 20:1 22:2 23:16 24:2 30:8 31:10 37:4 38:16 39:7 43:10 44:13 45:16 46:13 47:1 51:9 52:13 53:16 54:1 60:7 61:12 #
-0.11305213567613585368132333996982 4:12 5:8 11:6 12:15 13:1 18:2 19:15 20:6 23:6 26:8 27:14 28:1 30:7 31:15 32:1 34:13 35:10 37:6 38:16 39:6 42:15 43:14 44:14 45:16 46:12 50:7 51:12 52:12 53:16 54:2 60:14 61:6 #
0.50000003576649798553432901826454 2:1 3:10 4:8 5:12 6:15 7:1 11:16 12:16 13:16 14:9 15:1 19:13 20:13 21:3 26:1 27:16 28:16 29:13 30:2 35:3 36:1 37:13 38:10 45:8 46:16 51:8 52:1 53:8 54:16 55:1 58:2 59:13 60:16 61:16 62:11 #
0.50000003576649798553432901826454 4:6 5:13 6:9 10:1 11:15 12:16 13:7 14:3 18:7 19:15 20:3 26:7 27:16 28:16 29:8 34:2 35:11 36:5 37:12 38:7 45:2 46:14 52:5 53:11 54:16 55:1 60:4 61:15 62:9 #
0.50000003576649798553432901826454 3:4 4:14 5:16 6:7 10:1 11:16 12:14 13:8 14:5 18:8 19:10 26:3 27:13 35:12 36:6 43:4 44:13 52:16 53:5 59:7 60:16 61:4 #
-0.14446147826999011787307836129912 2:2 5:9 6:7 10:15 11:16 12:16 13:16 14:9 18:1 19:5 20:4 21:16 22:7 26:1 27:4 28:4 29:16 30:7 34:5 35:16 36:16 37:16 38:15 39:2 43:3 44:1 45:14 46:6 53:13 54:7 61:10 62:11 #
-0.089351358596286081792392508305056 5:5 6:16 7:8 13:13 14:16 15:12 20:9 21:16 22:16 23:9 27:10 28:16 29:14 30:16 31:8 34:4 35:15 36:11 37:8 38:16 39:5 43:7 44:1 45:9 46:16 47:3 53:12 54:16 61:8 62:15 63:2 #
-0.13447536862388367873144545683317 3:13 4:13 10:6 11:16 12:7 18:10 19:13 26:8 27:16 28:13 29:16 30:10 34:8 35:16 36:14 37:9 38:15 39:6 42:5 43:16 44:6 46:2 47:15 50:7 51:16 52:12 54:3 55:15 58:1 59:6 60:13 61:16 62:16 63:8 #
0.50000003576649798553432901826454 2:1 3:13 4:16 5:16 6:11 10:6 11:16 12:7 13:8 14:6 18:4 19:16 20:3 21:4 22:3 26:5 27:16 28:16 29:16 30:16 31:3 34:8 35:13 36:5 38:11 39:12 46:10 47:11 50:2 51:11 52:4 53:6 54:16 55:4 58:1 59:15 60:16 61:16 62:8 #
0.50000003576649798553432901826454 4:8 5:14 6:15 7:9 11:8 12:15 13:9 14:8 15:9 19:16 20:1 26:7 27:9 34:5 35:16 36:16 37:16 38:15 39:1 43:4 44:3 45:5 46:16 47:3 52:7 53:9 54:12 60:13 61:12 62:1 #
0.50000003576649798553432901826454 3:8 4:16 5:16 6:15 7:1 11:16 12:14 13:14 14:11 18:4 19:16 20:16 21:13 22:4 26:3 27:14 28:12 29:14 30:15 31:1 38:15 39:6 45:1 46:14 47:7 51:15 52:12 53:14 54:13 59:11 60:16 61:13 62:2 #
-0.2336335860019074506244152189538 3:4 4:11 5:12 6:7 10:1 11:16 12:13 13:14 14:12 18:2 19:16 20:5 21:8 22:14 26:1 27:15 28:16 29:16 30:14 35:6 36:12 37:12 38:16 39:6 43:1 44:3 45:2 46:15 47:5 51:7 52:16 53:16 54:16 55:2 59:1 60:13 61:12 62:5 #
-0.081833625624038203172361249926325 3:8 4:10 5:16 6:13 10:4 11:16 12:16 13:16 14:16 15:1 18:6 19:16 20:12 21:8 22:15 23:5 26:6 27:16 28:1 30:12 31:8 34:5 35:13 37:1 38:14 39:6 42:4 43:14 44:2 45:12 46:16 47:2 50:2 51:16 52:16 53:16 54:8 59:9 60:12 61:7 #
-0.22439659769148689871798296735506 3:8 4:13 5:11 6:5 10:4 11:16 12:14 13:16 14:10 18:1 19:14 20:16 21:7 27:11 28:16 29:14 30:2 34:2 35:16 36:3 37:8 38:15 39:1 42:6 43:15 44:2 45:1 46:16 47:5 50:5 51:16 52:9 53:11 54:16 55:3 59:9 60:15 61:15 62:7 #
0.50000003576649798553432901826454 2:2 3:8 4:12 5:15 6:15 7:2 10:13 11:16 12:16 13:13 14:12 15:3 18:12 19:16 20:9 26:6 27:16 28:16 29:7 35:4 36:10 37:15 43:2 44:4 45:16 46:4 50:4 51:16 52:16 53:13 59:15 60:15 61:5 #
0.50000003576649798553432901826454 3:4 4:15 5:16 6:16 7:10 11:13 12:15 13:12 14:14 15:14 19:14 20:7 27:16 28:16 29:12 30:8 35:2 36:7 37:10 38:16 39:4 45:2 46:16 47:3 51:1 52:9 53:12 54:13 59:2 60:16 61:11 62:3 #
0.50000003576649798553432901826454 3:9 4:16 5:16 6:16 7:3 10:1 11:14 12:15 13:10 14:7 15:1 18:7 19:16 20:2 26:2 27:16 28:8 35:2 36:13 37:14 44:4 45:16 46:7 51:5 52:14 53:13 59:11 60:10 #
-0.14723594942963355580722861759568 4:6 5:14 6:16 7:10 11:12 12:16 13:9 14:14 15:11 18:7 19:15 20:3 21:8 22:13 23:3 26:6 27:16 28:14 29:16 30:8 35:3 36:4 37:11 38:13 45:14 46:10 52:4 53:16 54:5 60:7 61:16 #
-0.086544834505569004368119578884944 4:6 5:11 11:1 12:16 13:14 14:1 19:5 20:16 21:2 27:8 28:14 35:8 36:12 37:2 43:11 44:16 45:16 46:16 47:11 48:2 51:2 52:16 53:4 54:3 55:12 56:10 60:4 61:14 62:16 63:13 64:8 #
-0.10248824912808225662264050015438 3:4 4:16 5:12 6:1 11:10 12:15 13:13 14:11 19:5 20:12 21:5 22:16 29:8 30:15 36:1 37:15 38:12 44:11 45:16 46:10 51:5 52:16 53:16 54:16 55:16 56:6 59:6 60:16 61:5 62:5 63:10 64:13 #
0.50000003576649798553432901826454 3:10 4:14 5:12 10:2 11:16 12:8 13:3 18:5 19:16 20:12 21:11 22:1 26:2 27:12 28:9 29:10 30:13 31:1 38:12 39:6 46:4 47:12 50:2 51:14 52:4 53:4 54:13 55:9 59:10 60:14 61:15 62:11 63:1 #
0.50000003576649798553432901826454 2:1 3:7 4:9 5:12 6:14 7:1 10:11 11:16 12:15 13:10 14:5 15:1 18:2 19:16 20:7 27:9 28:16 29:16 30:9 36:2 37:8 38:13 39:6 46:8 47:11 51:7 52:13 53:14 54:16 55:4 59:10 60:16 61:12 62:3 #
0.50000003576649798553432901826454 3:6 4:15 5:12 6:10 7:8 11:11 12:16 13:16 14:16 15:7 18:1 19:14 20:11 21:12 22:6 26:4 27:16 28:16 29:16 30:13 34:2 35:11 36:8 37:10 38:16 39:2 45:1 46:16 47:1 52:11 53:13 54:15 59:4 60:16 61:12 62:1 #
-0.1327662726997185793642586304486 3:2 4:12 5:16 6:7 12:10 13:16 14:3 20:3 21:15 22:5 29:6 30:15 31:3 38:8 39:14 46:11 47:16 52:3 53:13 54:16 55:9 59:6 60:16 61:12 62:8 63:1 #
0.50000003576649798553432901826454 3:14 4:11 5:7 6:1 10:2 11:16 12:16 13:16 14:14 15:4 19:15 20:11 22:6 23:3 27:7 28:14 35:2 36:16 37:4 43:1 44:12 45:12 50:4 51:12 52:14 53:11 59:14 60:16 61:6 #
-0.17683184162905118963493578121415 3:4 4:12 5:15 6:9 7:1 10:7 11:14 12:8 13:13 14:15 15:2 18:5 19:7 20:12 21:11 22:1 27:4 28:16 29:5 35:10 36:15 37:10 43:9 44:6 45:12 46:4 51:7 52:9 53:10 54:9 59:2 60:12 61:16 62:7 #
-0.095445294579727626982368349217722 3:7 4:12 5:8 6:10 7:15 8:2 11:4 12:8 13:10 14:16 15:8 21:9 22:10 28:5 29:14 30:2 34:6 35:16 36:16 37:16 38:13 39:1 42:3 43:6 44:16 51:7 52:13 59:10 60:10 #
0.50000003576649798553432901826454 3:6 4:12 5:14 6:14 7:2 10:12 11:16 12:11 13:4 14:5 15:2 18:4 19:14 20:5 27:9 28:13 29:1 35:2 36:13 37:15 38:6 44:2 45:11 46:15 47:6 51:8 52:6 53:6 54:15 55:8 59:6 60:16 61:16 62:9 #
0.50000003576649798553432901826454 2:2 3:5 4:7 5:10 6:13 7:4 10:3 11:16 12:13 13:12 14:11 15:3 19:16 20:1 26:6 27:16 28:16 29:15 30:2 34:3 35:8 36:4 37:10 38:9 45:8 46:11 51:1 52:9 53:15 54:3 58:2 59:16 60:12 61:2 #
-0.14656817884999390200206903500657 3:14 4:9 11:8 12:16 19:8 20:12 22:2 23:1 27:12 28:8 30:13 31:9 34:1 35:16 36:4 38:16 39:8 42:5 43:16 46:15 47:6 50:8 51:16 52:16 53:16 54:16 55:12 58:1 59:8 60:8 61:8 62:13 63:7 #
-0.09663091569587507756455835306042 2:1 3:13 4:16 5:16 6:16 7:12 8:1 12:3 13:4 14:12 15:16 16:2 21:4 22:16 23:7 28:2 29:15 30:12 34:1 35:8 36:13 37:16 38:16 39:5 42:3 43:15 44:16 45:12 46:7 51:13 52:10 58:2 59:15 60:7 #
-0.12040600617088972890122988701478 3:6 4:16 5:13 6:11 7:5 11:1 12:8 13:10 14:16 15:15 21:1 22:14 23:13 29:7 30:16 31:5 34:3 35:4 36:1 37:12 38:16 42:12 43:16 44:16 45:16 46:13 47:2 51:3 52:14 53:15 59:6 60:16 61:7 #
0.50000003576649798553432901826454 3:1 4:12 5:16 6:16 7:4 11:10 12:16 13:13 14:8 15:1 19:10 20:13 27:13 28:12 29:4 35:14 36:16 37:16 38:6 43:6 44:9 45:15 46:14 53:9 54:14 59:4 60:12 61:15 62:6 #
0.50000003576649798553432901826454 3:5 4:12 5:16 6:16 7:9 10:3 11:16 12:9 13:3 18:7 19:16 20:11 21:5 26:2 27:11 28:9 29:16 30:1 37:9 38:9 45:9 46:9 51:9 52:6 53:16 54:6 59:5 60:12 61:6 #
0.50000003576649798553432901826454 3:8 4:13 5:15 6:10 7:3 11:13 12:15 13:12 14:12 15:9 18:3 19:14 20:7 26:7 27:8 28:4 29:2 34:2 35:16 36:16 37:15 43:1 44:5 45:13 52:10 53:6 59:6 60:13 61:1 #
-0.15757917775836158269520126395946 4:8 5:14 6:3 11:1 12:16 13:15 14:7 19:7 20:15 21:5 26:3 27:14 28:14 29:5 34:3 35:16 36:10 37:12 38:10 43:11 44:5 46:14 47:2 51:3 52:11 53:6 54:14 55:1 60:7 61:15 62:6 #
-0.10360187281816035653747576361638 3:3 4:16 11:10 12:10 13:3 14:5 19:16 20:5 21:12 22:10 26:4 27:15 28:2 29:15 30:4 34:10 35:13 36:9 37:15 38:10 39:11 42:3 43:14 44:16 45:14 46:8 47:2 52:15 53:6 59:3 60:15 #
-0.076625218666257682853526489452634 3:12 4:12 7:5 8:1 10:2 11:16 12:9 14:4 15:16 16:5 18:1 19:16 20:13 21:5 22:13 23:12 27:7 28:16 29:16 30:16 31:6 36:3 37:16 38:9 43:1 44:12 45:12 51:7 52:16 53:1 59:12 60:7 #
0.50000003576649798553432901826454 3:9 4:16 5:16 6:5 11:13 12:16 13:9 14:6 19:9 20:12 27:3 28:16 29:3 36:12 37:10 44:5 45:15 51:3 52:5 53:16 54:5 59:7 60:16 61:15 62:1 #
0.50000003576649798553432901826454 3:2 4:10 5:13 6:4 11:11 12:16 13:15 14:5 18:5 19:16 20:11 21:2 26:10 27:15 28:2 34:3 35:13 36:15 37:5 44:8 45:16 46:6 51:2 52:10 53:16 54:7 59:3 60:15 61:10 #
0.50000003576649798553432901826454 3:6 4:13 5:16 6:16 7:7 10:9 11:16 12:15 13:10 14:8 15:1 18:13 19:15 20:3 26:4 27:16 28:13 29:1 35:7 36:16 37:12 44:9 45:16 46:7 51:4 52:16 53:16 54:12 59:5 60:16 61:15 62:5 #
-0.12016513970405794109463926133685 4:9 5:16 6:6 11:8 12:16 13:11 14:1 18:3 19:16 20:8 26:11 27:15 30:9 31:9 34:8 35:16 36:16 37:16 38:16 39:8 43:6 44:8 45:15 46:14 47:1 52:5 53:16 54:5 60:12 61:15 62:1 #
-0.10620964006011418545583069317217 3:1 4:16 5:13 11:6 12:16 13:15 18:7 19:16 20:16 21:12 25:1 26:12 27:16 28:16 29:12 35:2 36:10 37:14 44:8 45:16 46:1 52:10 53:16 60:12 61:16 #
-0.11858799646223275314760314813611 3:4 4:14 5:15 6:5 10:7 11:14 12:7 13:6 14:16 18:10 19:6 22:11 23:3 26:4 27:2 29:1 30:14 37:10 38:7 44:5 45:13 46:1 51:6 52:16 53:8 59:5 60:9 61:12 62:12 63:16 64:2 #
0.50000003576649798553432901826454 3:2 4:14 5:16 6:13 11:15 12:9 13:7 14:9 19:14 20:6 21:5 22:4 27:11 28:16 29:16 30:16 31:3 35:1 36:5 37:4 38:11 39:8 43:3 46:7 47:9 50:2 51:16 52:11 53:4 54:8 55:10 59:1 60:10 61:14 62:15 63:3 #
0.50000003576649798553432901826454 3:7 4:13 5:14 6:6 10:2 11:16 12:16 13:16 14:14 18:3 19:16 20:9 21:4 22:2 26:2 27:16 28:16 29:14 30:5 35:6 36:8 37:9 38:15 39:7 46:8 47:12 51:11 52:4 53:5 54:14 55:11 59:8 60:16 61:16 62:13 63:1 #
0.50000003576649798553432901826454 3:15 4:14 5:14 6:15 7:10 11:16 12:8 13:11 14:10 15:6 18:5 19:14 26:8 27:16 28:16 29:16 30:4 34:4 35:14 36:9 37:12 38:12 45:5 46:15 51:11 52:4 53:11 54:9 59:14 60:16 61:14 62:1 #
-0.14349547980584390072245071223733 3:3 4:13 5:16 6:13 7:1 11:12 12:13 13:8 14:16 15:3 18:2 19:15 20:16 21:16 22:8 26:6 27:8 28:11 29:15 30:10 35:4 36:14 37:4 38:16 43:8 44:9 45:1 46:13 47:7 51:7 52:9 54:14 55:6 59:3 60:14 61:14 62:14 63:1 #
-0.1330719676969167042379638132843 3:7 4:13 5:15 6:3 10:3 11:16 12:4 13:8 14:4 18:1 19:16 20:3 21:10 27:8 28:16 29:6 35:6 36:11 37:11 38:10 39:1 42:1 43:13 44:3 46:9 47:6 50:2 51:14 52:1 54:9 55:3 59:4 60:13 61:14 62:9 #
-0.16600281744854614163209305388591 4:8 5:15 6:16 7:7 10:1 11:14 12:9 13:1 15:8 18:6 19:12 22:10 23:8 26:4 27:14 28:12 29:13 30:14 31:8 37:1 38:4 39:8 46:4 47:8 54:7 55:8 60:8 61:12 62:15 63:6 #
0.50000003576649798553432901826454 2:1 3:11 4:12 5:12 6:12 7:4 11:15 12:8 13:8 14:11 15:7 19:12 27:13 28:1 34:3 35:16 36:15 37:11 38:5 43:4 44:4 45:10 46:15 47:2 51:12 52:5 53:5 54:14 55:3 59:11 60:13 61:12 62:8 #
0.50000003576649798553432901826454 2:3 3:15 4:12 5:11 6:12 7:2 10:12 11:16 12:16 13:16 14:16 15:6 18:12 19:13 21:3 22:4 26:3 27:15 28:13 29:2 35:5 36:15 37:11 44:6 45:16 46:3 51:5 52:12 53:16 54:3 58:4 59:16 60:16 61:12 #
0.50000003576649798553432901826454 3:5 4:16 5:16 6:16 7:4 11:12 12:15 13:9 14:5 15:1 18:12 19:16 20:14 21:7 26:9 27:16 28:16 29:16 30:15 37:2 38:16 39:4 43:6 44:5 46:14 47:7 51:12 52:10 53:9 54:16 55:2 59:5 60:16 61:16 62:7 #
-0.12259936245684555089496825530659 2:1 3:9 4:15 5:9 10:4 11:13 12:7 13:15 14:4 20:2 21:15 22:3 27:12 28:16 29:16 30:11 31:1 35:5 36:5 37:5 38:13 39:8 45:1 46:12 47:6 51:9 52:8 53:14 54:12 55:1 59:15 60:12 61:6 #
-0.13973044982226159871352422214841 4:3 5:15 6:16 7:3 12:12 13:10 14:15 15:3 20:2 21:6 22:14 28:1 29:15 30:5 35:1 36:13 37:9 42:1 43:12 44:12 45:1 50:9 51:16 52:16 53:16 54:13 55:5 58:2 59:4 60:5 61:10 62:13 63:12 #
-0.052723919081195454172661385428 2:3 3:12 4:16 5:16 6:16 7:4 10:8 11:11 12:6 13:4 14:12 15:15 18:1 21:6 22:15 23:10 28:7 29:16 30:7 36:10 37:14 38:1 44:1 45:15 46:9 51:6 52:2 53:13 54:12 58:2 59:16 60:16 61:14 62:3 #
0.50000003576649798553432901826454 3:6 4:15 5:16 6:16 7:16 8:11 11:10 12:15 13:16 14:14 15:10 16:2 19:3 20:16 21:8 27:3 28:16 29:13 30:1 36:9 37:16 38:9 45:15 46:15 47:1 52:10 53:15 54:7 59:5 60:15 61:3 #
0.50000003576649798553432901826454 3:8 4:15 5:16 6:11 10:13 11:16 12:12 13:6 14:4 17:1 18:16 19:7 26:12 27:14 28:1 34:1 35:14 36:10 43:4 44:16 45:4 51:2 52:14 53:8 59:11 60:15 61:3 #
0.50000003576649798553432901826454 2:1 3:8 4:12 5:12 6:6 10:9 11:16 12:11 13:8 14:10 15:1 18:6 19:14 26:1 27:12 28:15 29:8 36:7 37:15 38:5 45:4 46:14 53:11 54:11 59:12 60:16 61:12 62:4 #
-0.121295513251242589869427490612 4:15 5:10 11:4 12:16 13:16 14:7 19:3 20:16 21:16 22:10 27:3 28:16 29:16 30:14 35:4 36:16 37:16 38:16 39:2 43:10 44:16 45:16 46:16 47:5 51:9 52:16 53:16 54:16 55:9 59:1 60:8 61:3 62:7 63:16 64:2 #
-0.082884285025140336244930949760601 3:7 4:13 10:2 11:15 12:11 18:9 19:16 20:2 26:7 27:16 34:9 35:16 36:2 37:4 38:4 42:5 43:16 44:16 45:16 46:16 47:12 50:3 51:16 52:16 53:9 54:13 55:16 59:5 60:13 61:16 62:16 63:7 #
-0.057306566202960984579561909413314 4:11 5:8 12:13 13:7 19:3 20:16 21:6 22:15 27:9 28:11 29:7 30:14 34:1 35:15 36:6 37:12 38:13 39:1 42:7 43:16 44:16 45:16 46:16 47:11 50:5 51:12 52:13 53:16 54:8 55:3 60:12 61:12 #
0.50000003576649798553432901826454 3:5 4:15 5:16 6:16 7:10 11:11 12:14 13:8 14:4 15:1 18:4 19:16 20:16 21:15 22:3 26:8 27:15 28:9 29:13 30:13 31:1 35:2 37:3 38:16 39:4 45:3 46:16 47:2 52:3 53:13 54:9 59:5 60:16 61:12 62:1 #
0.50000003576649798553432901826454 4:12 5:16 6:15 7:3 11:4 12:10 13:12 14:11 15:2 18:6 19:14 26:8 27:16 28:15 29:5 34:1 35:8 36:13 37:16 38:2 45:10 46:9 51:5 52:11 53:13 54:11 59:1 60:14 61:12 62:2 #
0.50000003576649798553432901826454 3:6 4:14 5:15 6:1 11:11 12:12 13:4 19:15 20:10 21:4 22:1 27:13 28:13 29:14 30:12 31:1 38:10 39:10 46:4 47:14 52:2 53:1 54:9 55:14 59:6 60:16 61:16 62:16 63:6 #
-0.13437893748012672001657108467043 3:6 4:15 5:14 6:8 10:3 11:13 13:3 14:14 15:3 18:6 19:14 21:2 22:14 23:4 27:13 28:16 29:16 30:16 31:4 36:4 37:4 38:13 39:4 46:12 47:5 51:14 52:6 54:13 55:4 59:6 60:15 61:16 62:9 #
-0.13599421652176885144669427063491 3:9 10:2 11:16 12:6 13:8 14:5 18:4 19:16 20:16 21:16 22:15 23:3 26:6 27:16 28:10 29:12 30:15 31:8 34:4 35:11 38:7 39:8 42:4 43:16 44:9 45:10 46:15 47:8 50:2 51:15 52:16 53:16 54:16 55:3 59:8 60:16 61:15 62:7 #
-0.14229269122990720330967917561793 2:1 3:13 4:5 10:4 11:14 18:4 19:8 21:1 22:6 23:1 26:5 27:8 28:1 29:11 30:16 31:5 34:4 35:10 36:7 37:16 38:16 39:7 42:4 43:14 44:10 45:16 46:16 47:3 50:1 51:16 52:16 53:16 54:10 59:10 60:14 61:9 62:2 #
0.50000003576649798553432901826454 2:3 3:13 4:15 5:16 6:6 10:15 11:16 12:13 13:9 14:16 15:5 18:11 19:16 20:2 22:4 23:3 26:2 27:15 28:9 35:7 36:16 37:1 43:3 44:15 45:5 51:6 52:16 53:5 58:4 59:16 60:10 #
0.50000003576649798553432901826454 3:1 4:6 5:12 6:14 7:4 11:4 12:13 13:8 14:3 19:13 20:4 26:3 27:15 28:5 29:2 34:8 35:16 36:16 37:16 38:12 42:2 43:4 44:3 45:7 46:15 47:3 52:2 53:7 54:14 55:1 60:8 61:12 62:4 #
0.50000003576649798553432901826454 2:2 3:12 4:15 5:16 6:12 7:1 11:8 12:16 13:6 14:14 15:2 19:14 20:11 26:1 27:15 28:6 35:8 36:14 37:4 44:8 45:15 51:2 52:10 53:16 54:2 59:12 60:16 61:6 #
-0.11851404352489385007896061097199 5:11 6:12 12:8 13:16 14:4 19:2 20:16 21:12 22:1 26:4 27:15 28:16 29:13 30:14 31:11 34:13 35:16 36:16 37:16 38:16 39:10 45:10 46:16 47:6 53:11 54:16 55:2 61:14 62:13 #
-0.12356889597934218871788658589139 3:6 4:13 5:16 6:16 7:13 10:6 11:16 12:10 13:7 14:15 15:14 18:1 19:4 21:10 22:16 23:6 28:10 29:16 30:4 35:3 36:16 37:9 43:15 44:11 51:16 52:10 59:9 60:16 61:16 62:12 63:1 #
-0.1133351227499598684600456977023 3:8 4:16 5:13 10:1 11:13 12:9 13:16 14:4 21:14 22:7 23:5 27:3 28:8 29:15 30:16 31:12 34:11 35:16 36:16 37:14 38:7 39:1 42:7 43:2 44:15 45:4 51:5 52:15 53:2 59:12 60:11 #
0.50000003576649798553432901826454 3:5 4:13 5:8 6:3 7:5 10:2 11:16 12:11 13:3 14:2 15:3 18:7 19:13 20:4 21:4 26:5 27:16 28:12 29:14 30:11 37:2 38:14 39:2 46:13 47:3 51:10 52:4 53:6 54:13 59:6 60:14 61:13 62:3 #
0.50000003576649798553432901826454 3:5 4:9 5:14 6:16 7:11 10:3 11:16 12:16 13:12 14:8 15:3 18:7 19:15 20:1 26:12 27:13 28:7 29:4 34:5 35:16 36:16 37:16 38:6 44:4 45:16 46:7 52:10 53:16 54:2 59:9 60:15 61:6 #
0.50000003576649798553432901826454 3:4 4:11 5:12 6:16 7:10 10:3 11:16 12:16 13:14 14:7 19:16 20:8 27:12 28:10 35:2 36:14 37:10 38:1 44:1 45:14 46:11 52:1 53:13 54:14 55:2 59:7 60:14 61:10 62:2 #
-0.44555427233896682803759858870762 3:5 4:12 5:14 10:2 11:14 12:10 13:15 18:3 19:15 20:11 21:11 26:2 27:12 28:15 29:11 30:2 37:8 38:15 39:1 45:1 46:14 47:4 51:2 52:7 53:4 54:14 55:3 59:3 60:13 61:14 62:10 #
-0.09173745483434372904874010146159 3:12 4:7 11:9 12:15 19:11 20:16 21:5 27:10 28:16 29:7 36:11 37:14 44:6 45:16 46:2 51:14 52:16 53:16 54:13 55:12 56:3 59:8 60:15 61:15 62:14 63:16 64:11 #
-0.12567128211105527135771353641758 3:11 4:16 5:13 6:2 11:10 12:15 13:11 14:13 19:3 20:15 21:7 22:15 23:5 28:1 29:1 30:13 31:6 38:16 39:5 45:9 46:16 47:2 51:15 52:16 53:16 54:11 59:9 60:15 61:13 62:16 63:16 64:5 #
0.50000003576649798553432901826454 3:7 4:12 5:11 6:9 10:7 11:16 12:15 13:11 14:13 19:12 20:7 27:12 28:10 29:6 35:8 36:12 37:13 38:14 46:8 47:8 51:10 52:6 53:4 54:12 55:9 59:10 60:13 61:12 62:10 63:2 #
0.50000003576649798553432901826454 3:3 4:12 5:15 6:3 11:9 12:15 13:15 14:7 19:12 20:14 21:12 22:1 27:8 28:16 29:16 30:14 38:13 39:7 46:7 47:12 50:2 51:16 52:10 53:8 54:13 55:10 59:6 60:11 61:16 62:14 63:3 #
0.50000003576649798553432901826454 2:3 3:16 4:16 5:16 6:16 7:3 10:6 11:16 12:10 13:6 14:2 18:10 19:14 20:2 26:11 27:16 28:16 29:5 34:1 35:2 36:10 37:13 44:1 45:16 46:3 50:1 51:6 52:6 53:16 54:2 58:2 59:13 60:16 61:11 #
-0.13767696595494580136254114677286 3:4 4:14 5:11 6:1 10:4 11:16 12:12 13:10 14:8 18:9 19:14 20:1 21:7 22:7 26:1 27:2 29:15 30:9 37:7 38:15 39:2 46:5 47:11 51:12 52:3 53:4 54:10 55:11 59:6 60:15 61:15 62:11 63:1 #
-0.13275931990981257313499952488201 3:1 4:12 5:15 6:6 11:5 12:13 13:1 14:12 19:2 20:11 21:1 22:15 28:10 29:11 30:9 36:6 37:16 38:6 43:10 44:15 45:4 46:13 47:3 51:12 52:2 54:1 55:14 59:1 60:10 61:10 62:8 63:15 64:1 #
-0.050019267364447943247096617369607 3:4 4:15 5:16 6:16 7:16 8:15 11:2 12:8 13:8 14:5 15:13 16:9 22:5 23:15 24:2 29:3 30:14 31:8 35:2 36:15 37:16 38:16 39:8 43:3 44:9 45:16 46:4 52:11 53:13 59:5 60:15 61:3 #
0.50000003576649798553432901826454 3:9 4:11 5:8 6:5 10:2 11:16 12:14 13:16 14:15 18:6 19:16 20:11 21:2 26:8 27:16 28:16 29:13 30:2 34:1 35:3 37:12 38:9 45:9 46:12 51:5 52:8 53:16 54:6 59:8 60:15 61:10 #
0.50000003576649798553432901826454 3:4 4:6 5:14 6:10 7:2 11:15 12:16 13:12 14:12 15:12 18:4 19:14 20:1 26:5 27:16 28:16 29:12 30:1 35:4 36:8 37:15 38:10 45:5 46:9 52:5 53:14 54:3 59:5 60:14 61:5 #
0.50000003576649798553432901826454 3:8 4:14 5:15 6:11 10:1 11:16 12:14 13:8 14:8 18:2 19:16 20:10 21:2 26:1 27:12 28:16 29:14 30:2 37:11 38:10 45:7 46:13 51:14 52:14 53:16 54:3 59:12 60:10 61:5 #
-0.13510301761337376036387070143974 4:6 5:10 6:14 11:10 12:16 13:16 14:16 15:6 18:1 19:16 20:10 21:4 22:15 23:11 26:1 27:12 28:5 30:9 31:9 35:8 36:9 38:8 39:8 43:9 44:16 45:16 46:16 47:4 51:2 52:16 53:16 54:14 55:2 60:6 61:10 62:3 #
-0.12930767567428858022537951910635 3:5 4:14 5:12 6:8 7:2 11:1 12:10 13:16 14:16 15:12 19:5 20:14 21:16 22:16 23:2 27:10 28:16 29:16 30:12 34:6 35:16 36:16 37:14 38:4 42:9 43:16 44:16 45:11 50:10 51:16 52:16 53:6 58:1 59:10 60:14 61:12 62:4 #
-0.1332083335802697610095179925338 4:8 5:15 6:4 12:13 13:16 14:13 18:1 19:1 20:10 21:3 22:13 23:6 26:5 27:8 30:6 31:8 34:7 35:11 38:4 39:8 42:3 43:15 44:7 46:4 47:9 51:7 52:16 53:13 54:11 55:12 60:6 61:15 62:16 63:4 #
0.50000003576649798553432901826454 3:10 4:14 5:15 6:12 7:5 11:14 12:4 13:2 14:2 18:3 19:14 20:10 21:10 22:5 26:6 27:15 28:10 29:6 30:15 31:2 34:1 38:8 39:8 46:6 47:8 51:11 52:2 53:3 54:12 55:3 59:10 60:16 61:15 62:5 #
0.50000003576649798553432901826454 2:2 3:10 4:15 5:16 6:15 10:4 11:16 12:9 13:4 14:6 18:8 19:15 26:6 27:14 28:5 34:1 35:12 36:16 37:13 38:5 44:2 45:9 46:16 47:9 51:9 52:8 53:10 54:16 55:9 59:7 60:16 61:12 62:8 63:1 #
0.50000003576649798553432901826454 3:5 4:16 5:16 6:5 10:5 11:16 12:11 13:7 14:1 18:11 19:16 20:14 21:5 26:4 27:8 28:11 29:16 30:13 31:1 37:4 38:16 39:7 43:2 46:9 47:11 51:8 52:11 53:8 54:15 55:7 59:3 60:12 61:16 62:9 #
-0.16446885985100775928735572506412 2:2 3:8 4:16 5:11 6:1 10:10 11:15 12:5 13:11 14:5 18:11 19:10 20:13 21:16 22:6 26:9 27:16 28:16 29:12 30:13 31:2 34:1 35:15 36:8 38:6 39:9 43:12 44:5 46:5 47:11 51:9 52:9 53:7 54:16 55:8 59:4 60:14 61:15 62:6 #
-0.12639975312703943810532791758305 2:2 4:13 5:12 6:3 9:5 10:14 11:1 12:13 13:16 14:5 18:8 19:16 20:14 21:16 22:4 27:8 28:16 29:16 30:2 36:16 37:16 38:9 43:3 44:16 45:16 46:16 47:4 51:11 52:16 53:16 54:16 55:6 59:1 60:15 61:16 62:10 #
-0.11472200327596936142438011074773 5:12 6:15 7:1 10:3 11:8 12:8 13:14 14:16 18:11 19:16 20:16 21:16 22:16 26:1 27:4 28:4 29:15 30:16 37:12 38:16 39:4 45:12 46:16 47:3 53:12 54:16 55:10 61:9 62:16 63:11 #
0.50000003576649798553432901826454 2:1 3:10 4:12 5:14 6:16 7:5 11:14 12:10 13:8 14:8 15:1 19:16 20:4 21:3 22:1 26:2 27:16 28:16 29:16 30:15 31:3 35:2 38:11 39:8 45:3 46:14 47:3 51:3 52:11 53:15 54:9 58:1 59:12 60:7 61:3 #
0.50000003576649798553432901826454 3:7 4:16 5:15 6:11 7:5 11:14 12:11 13:8 14:8 15:5 18:1 19:16 20:2 21:8 22:5 26:8 27:15 28:15 29:15 30:15 31:3 34:8 35:15 36:5 38:12 39:4 45:2 46:15 47:1 51:6 52:8 53:13 54:8 59:8 60:15 61:10 #
0.50000003576649798553432901826454 3:4 4:10 5:15 6:4 11:8 12:13 13:6 14:1 18:1 19:15 20:14 21:10 22:1 27:11 28:8 29:10 30:12 31:1 38:10 39:6 46:2 47:14 51:6 52:7 53:3 54:3 55:15 56:2 59:4 60:13 61:16 62:16 63:15 64:1 #
-0.14572477734293864948256214120192 3:9 4:16 5:14 6:12 7:3 10:3 11:13 12:4 13:11 14:8 15:11 18:1 19:15 20:5 22:12 23:4 27:3 28:14 29:13 30:7 36:10 37:13 43:5 44:12 45:15 51:12 52:2 53:12 59:10 60:16 61:6 #
-0.18145731709808143872209029723308 3:3 4:10 5:14 6:14 7:3 11:15 12:6 13:9 14:16 15:4 19:1 20:5 21:14 22:6 27:7 28:16 29:9 30:1 35:2 36:9 37:13 38:15 39:1 45:4 46:16 47:2 52:7 53:15 54:6 60:14 61:7 #
-0.14120624687872182501102713558794 3:12 4:8 5:2 11:16 12:6 13:14 14:6 18:2 19:16 20:10 21:16 26:10 27:13 28:14 29:10 30:4 31:1 34:8 35:16 36:16 37:16 38:16 39:10 43:13 44:15 45:4 46:4 47:1 51:12 52:12 58:1 59:14 60:5 #
0.50000003576649798553432901826454 3:7 4:14 5:16 6:16 7:7 11:12 12:14 13:9 14:8 15:2 19:14 20:4 26:3 27:16 28:16 29:9 34:8 35:16 36:14 37:16 38:3 42:2 43:2 45:12 46:8 51:6 52:15 53:15 54:2 59:11 60:11 61:3 #
0.50000003576649798553432901826454 2:2 3:12 4:15 5:16 6:14 7:2 10:6 11:16 12:15 13:11 14:12 15:5 18:4 19:16 20:2 26:1 27:13 28:5 35:11 36:8 43:5 44:16 50:2 51:12 52:14 58:2 59:16 60:10 #
0.50000003576649798553432901826454 3:5 4:16 5:16 6:8 10:3 11:11 12:11 13:7 14:4 18:11 19:11 26:13 27:15 28:7 34:3 35:8 36:13 37:8 44:2 45:15 46:2 51:8 52:5 53:15 54:6 59:7 60:16 61:15 62:3 #
-0.11914127546476251107154809005806 3:5 4:13 5:6 6:1 11:8 12:16 13:16 14:15 15:2 19:3 20:13 21:1 22:13 23:8 27:2 28:14 29:15 30:14 31:2 34:2 35:14 36:15 37:15 38:3 42:7 43:11 45:6 46:10 50:5 51:11 52:1 53:1 54:16 59:8 60:13 61:16 62:13 63:1 #
-0.11886641673924161488606898728904 3:5 4:16 5:1 11:11 12:11 15:6 16:5 19:14 20:7 22:2 23:15 24:6 26:3 27:16 28:10 29:1 30:12 31:12 35:14 36:16 37:16 38:16 39:4 43:1 44:11 45:16 46:7 52:13 53:10 59:7 60:15 61:1 #
-0.11750092354408502026696936582084 3:12 4:12 5:16 6:16 7:9 11:8 12:6 13:4 14:13 15:8 20:4 21:8 22:16 23:6 26:3 27:16 28:16 29:16 30:11 31:4 35:3 36:9 37:9 43:3 44:14 51:11 52:7 59:14 60:3 #
0.50000003576649798553432901826454 3:8 4:11 5:15 6:4 11:14 12:14 13:12 14:6 19:11 20:9 27:10 28:16 29:14 30:2 35:4 36:8 37:9 38:14 39:2 46:15 47:2 51:4 52:11 53:13 54:16 55:1 59:4 60:15 61:12 62:9 #
0.50000003576649798553432901826454 3:16 4:14 5:12 6:7 11:16 12:8 13:12 14:10 18:4 19:16 20:4 26:6 27:16 28:16 29:13 30:3 35:1 36:5 37:10 38:16 39:3 46:14 47:5 50:2 51:14 52:8 53:8 54:16 55:3 58:1 59:10 60:16 61:15 62:8 #
0.50000003576649798553432901826454 3:6 4:16 5:16 6:16 7:8 10:6 11:16 12:16 13:15 14:11 15:5 18:12 19:13 20:3 26:9 27:15 28:3 34:3 35:15 36:15 37:2 43:5 44:15 45:7 52:14 53:6 59:6 60:15 61:1 #
-0.1192697594218971590684930106363 3:2 4:10 5:16 6:3 11:15 12:16 13:16 14:4 18:3 19:12 20:1 21:16 22:15 23:9 28:7 29:16 30:16 31:13 36:16 37:15 38:2 44:8 45:12 52:13 53:9 60:14 61:3 #
-0.12064449647618219474409784197633 2:8 3:12 4:16 5:13 10:2 11:10 12:10 13:16 14:8 21:10 22:16 23:4 29:10 30:16 31:4 36:4 37:16 38:14 45:12 46:16 47:8 51:4 52:8 53:15 54:16 55:8 58:10 59:16 60:16 61:11 62:3 #
-0.1239811013121427663019602505301 2:3 3:16 4:15 5:7 10:5 11:16 12:16 13:16 14:13 15:2 19:7 20:8 21:10 22:16 23:6 29:2 30:16 31:4 37:4 38:16 39:1 45:12 46:9 51:4 52:11 53:15 54:3 58:2 59:15 60:12 61:3 #
0.50000003576649798553432901826454 2:4 3:16 4:16 5:15 6:5 10:7 11:15 12:13 13:13 14:14 15:5 18:2 19:15 20:8 23:1 27:6 28:15 29:4 36:15 37:7 44:11 45:12 51:2 52:15 53:9 58:1 59:16 60:15 61:3 #
0.50000003576649798553432901826454 3:8 4:14 5:12 6:9 7:1 11:15 12:5 13:8 14:8 15:1 19:14 20:1 27:15 28:4 34:5 35:16 36:16 37:16 38:9 42:1 43:4 45:1 46:15 47:5 51:1 52:4 53:4 54:14 55:3 59:5 60:16 61:15 62:3 #
0.50000003576649798553432901826454 2:2 3:7 4:12 5:16 6:15 7:1 9:1 10:15 11:16 12:13 13:10 14:6 15:1 18:5 19:16 20:6 26:6 27:16 28:16 29:8 34:5 35:15 36:5 37:14 38:7 43:2 45:8 46:14 51:5 52:2 53:12 54:13 59:8 60:16 61:15 62:4 #
-0.11541986136169958554464898270453 3:7 4:14 5:3 10:3 11:16 12:16 13:12 18:10 19:15 20:10 21:16 22:16 23:2 26:8 27:16 28:16 29:16 30:10 31:2 34:4 35:16 36:15 37:2 42:4 43:16 44:16 45:4 50:3 51:16 52:16 53:15 59:9 60:16 61:15 #
-0.1244891123543925559591372120849 3:4 4:15 5:6 11:13 12:13 13:16 18:4 19:15 20:1 21:16 22:2 28:2 29:16 36:8 37:12 42:1 43:12 44:16 45:6 46:4 50:7 51:16 52:16 53:16 54:16 55:6 59:2 61:4 62:8 63:3 #
-0.12285171383927218080600596294971 4:13 5:7 10:5 11:14 12:16 13:16 14:8 18:12 19:10 21:6 22:16 26:2 27:14 28:12 29:5 30:16 31:3 36:11 37:16 38:11 43:2 44:15 45:9 46:16 47:5 51:10 52:14 53:4 54:13 55:12 59:1 60:9 61:14 62:16 63:11 #
0.50000003576649798553432901826454 3:9 4:16 5:16 6:14 10:3 11:15 12:10 13:2 14:5 18:11 19:9 26:8 27:14 28:1 34:1 35:15 36:5 43:11 44:9 51:9 52:12 59:14 60:9 #
0.50000003576649798553432901826454 3:9 4:14 5:8 6:8 10:4 11:16 12:16 13:16 14:16 15:2 18:8 19:16 20:4 21:1 26:1 27:16 28:8 35:7 36:16 37:9 44:3 45:16 46:6 51:4 52:9 53:15 54:13 59:14 60:13 61:12 62:5 #
0.50000003576649798553432901826454 3:8 4:12 5:13 6:3 11:11 12:15 13:7 14:1 19:15 20:16 21:14 22:3 27:4 28:5 29:6 30:13 31:2 38:9 39:7 43:6 46:2 47:12 50:3 51:15 52:8 53:4 54:10 55:11 59:8 60:12 61:13 62:12 63:3 #
-0.29293112310088076366554332707892 3:6 4:16 5:8 10:2 11:16 12:14 13:15 18:2 19:16 20:13 21:16 22:9 27:8 28:15 29:16 30:14 31:1 38:13 39:7 46:3 47:13 51:3 52:4 53:4 54:7 55:15 59:7 60:13 61:16 62:13 63:9 #
-0.1141708017299600669280934539529 5:8 6:16 7:11 12:13 13:9 14:8 15:14 16:1 19:10 20:8 22:5 23:16 24:4 26:2 27:15 28:8 29:14 30:14 31:12 34:2 35:12 36:9 37:2 38:10 39:6 45:2 46:14 53:9 54:7 61:13 62:1 #
-0.12132425033608318365452305442886 2:1 3:14 4:16 5:14 6:4 10:3 11:16 12:8 13:8 14:14 19:15 20:14 21:13 22:9 27:3 28:11 29:16 30:4 37:12 38:12 45:4 46:16 47:3 51:3 52:4 53:3 54:16 55:1 59:12 60:14 61:16 62:14 63:1 #
0.50000003576649798553432901826454 3:10 4:14 5:16 6:16 7:8 11:16 12:12 13:5 14:5 15:11 18:4 19:15 20:11 21:6 26:10 27:16 28:16 29:16 30:11 34:5 35:7 37:5 38:15 45:7 46:14 51:5 52:4 53:14 54:7 59:8 60:16 61:14 62:1 #
0.50000003576649798553432901826454 3:5 4:10 5:13 6:16 7:9 10:2 11:16 12:16 13:11 14:8 15:2 18:1 19:15 20:9 27:9 28:16 29:9 30:1 36:1 37:13 38:11 45:2 46:15 52:4 53:15 54:5 59:7 60:14 61:3 #
0.50000003576649798553432901826454 3:4 4:16 5:16 6:15 7:4 11:10 12:10 13:5 14:3 18:6 19:14 20:1 21:4 22:2 26:8 27:15 28:14 29:15 30:15 31:2 34:5 35:12 36:5 38:9 39:8 46:8 47:8 51:5 52:9 53:7 54:14 55:2 59:3 60:16 61:11 62:4 #
-0.048302348963548361049369361808203 4:4 5:16 6:2 12:9 13:13 19:2 20:16 21:5 27:9 28:13 29:4 34:3 35:16 36:6 37:15 38:5 42:10 43:15 44:9 45:16 46:10 47:1 49:1 50:16 51:16 52:16 53:16 54:16 55:5 58:3 59:4 60:9 61:16 62:4 #
-0.090981843770872275478645008206513 3:7 4:16 5:15 6:3 10:1 11:15 12:10 13:12 14:4 18:7 19:16 20:1 26:8 27:13 29:4 30:3 34:9 35:14 36:13 37:16 38:16 39:5 42:7 43:16 44:13 45:2 46:9 47:12 50:2 51:16 52:10 53:1 54:11 55:12 59:8 60:15 61:16 62:15 63:3 #
-0.11142195685060508891783825902166 2:3 3:13 4:16 5:4 10:7 11:14 12:16 13:8 19:1 20:16 21:7 27:9 28:15 29:1 34:1 35:16 36:8 42:7 43:16 44:1 50:9 51:16 52:4 53:4 54:4 55:4 58:4 59:16 60:16 61:16 62:16 63:8 #
0.50000003576649798553432901826454 3:8 4:15 5:14 6:1 11:15 12:15 13:7 19:14 20:15 21:9 22:2 27:10 28:15 29:14 30:14 31:3 35:1 36:1 38:11 39:12 46:3 47:16 48:1 50:2 51:14 52:6 53:4 54:7 55:16 56:3 59:9 60:16 61:16 62:16 63:13 64:1 #
0.50000003576649798553432901826454 3:8 4:15 5:16 6:8 10:3 11:13 12:13 13:6 14:2 18:13 19:8 26:5 27:16 28:5 35:8 36:14 37:2 44:13 45:11 51:4 52:13 53:16 59:7 60:16 61:8 #
0.50000003576649798553432901826454 2:1 3:4 4:8 5:14 6:16 7:6 10:11 11:16 12:16 13:16 14:13 15:3 18:9 19:16 20:5 21:2 26:3 27:16 28:11 29:3 35:6 36:16 37:16 38:5 44:2 45:16 46:8 52:12 53:16 54:3 60:12 61:11 #
-0.13395423780345311337569569332118 3:2 4:10 5:16 6:13 7:1 10:8 11:16 12:15 13:5 14:12 15:6 18:10 19:16 20:10 22:7 23:10 26:12 27:16 28:12 29:10 30:16 31:8 34:3 35:12 36:16 37:16 38:12 44:5 45:16 46:4 52:7 53:15 60:11 61:11 #
-0.098915205041342005309878970820137 3:4 4:13 5:13 6:8 11:16 12:1 13:1 14:11 15:2 18:4 19:13 22:6 23:7 26:3 27:14 29:9 30:14 31:2 35:9 36:15 37:14 38:1 43:5 44:16 45:9 51:8 52:12 53:15 54:2 59:4 60:15 61:13 62:2 #
-0.14837029776618637644247655771323 3:3 4:11 5:15 6:8 11:9 12:14 13:8 14:9 19:6 20:14 21:5 28:12 29:16 30:7 35:4 36:14 37:11 38:11 43:12 44:8 46:16 47:1 51:14 52:11 53:11 54:15 55:1 59:3 60:13 61:13 62:6 #
0.50000003576649798553432901826454 3:7 4:14 5:14 6:13 7:3 11:14 12:7 13:4 14:9 15:6 18:4 19:13 26:6 27:16 28:14 29:8 30:1 36:3 37:9 38:13 46:13 51:9 53:3 54:14 59:11 60:16 61:14 62:3 #
0.50000003576649798553432901826454 3:9 4:14 5:16 6:13 7:2 10:8 11:16 12:16 13:14 14:9 15:1 18:15 19:16 20:14 21:4 26:4 27:12 28:13 29:16 30:6 37:8 38:15 45:5 46:16 47:3 50:1 51:11 52:10 53:15 54:11 59:9 60:16 61:13 62:3 #
0.50000003576649798553432901826454 3:9 4:16 5:15 6:5 10:4 11:16 12:12 13:12 14:16 15:7 18:5 19:16 20:4 22:1 23:1 26:8 27:16 28:15 29:11 30:3 34:4 35:14 36:12 37:14 38:15 39:2 45:4 46:16 47:4 51:5 52:8 53:15 54:15 55:2 59:11 60:15 61:9 62:2 #
-0.084670546274660529739719549979782 3:9 4:15 5:6 10:1 11:16 12:6 13:14 14:2 19:14 20:1 21:8 22:8 27:7 28:7 29:5 30:9 37:9 38:5 44:1 45:14 46:2 51:5 52:15 53:12 54:11 55:6 59:15 60:14 61:12 62:8 63:8 #
-0.12154625871461750830082593211046 3:9 4:16 5:15 6:1 11:3 12:8 13:16 14:5 21:14 22:7 26:2 27:11 28:9 29:16 30:3 34:11 35:16 36:16 37:16 38:12 39:1 44:13 45:15 46:16 47:5 51:5 52:16 53:2 59:10 60:10 #
-0.10685667515683022754657827135816 3:11 4:12 5:12 6:13 7:16 8:8 11:9 12:12 13:12 14:13 15:16 16:4 21:2 22:16 23:11 29:13 30:14 31:1 37:14 38:14 45:6 46:16 47:6 51:1 52:4 53:9 54:16 55:4 59:14 60:16 61:15 62:6 #
0.50000003576649798553432901826454 3:9 4:4 5:10 6:15 7:7 10:3 11:16 12:16 13:16 14:12 15:3 18:7 19:16 20:9 21:2 26:10 27:16 28:3 34:5 35:15 36:15 37:2 43:2 44:12 45:12 51:5 52:12 53:11 59:9 60:16 61:4 #
0.50000003576649798553432901826454 3:4 4:11 5:14 6:12 7:2 11:11 12:12 13:4 14:8 18:1 19:16 20:6 26:3 27:16 28:8 29:7 30:2 34:5 35:16 36:16 37:16 38:15 39:2 43:3 45:1 46:15 47:6 51:3 52:8 53:9 54:15 55:9 59:7 60:16 61:12 62:10 63:2 #
0.50000003576649798553432901826454 3:2 4:10 5:12 6:13 7:6 11:15 12:14 13:8 14:7 18:4 19:16 26:7 27:16 28:16 29:15 30:2 34:3 35:14 36:8 37:15 38:6 45:12 46:7 52:6 53:14 54:4 60:13 61:12 #
-0.16349169352115050513063465587038 3:1 4:11 5:3 11:13 12:15 13:13 18:3 19:16 20:2 21:8 22:5 26:6 27:16 28:14 29:15 30:14 31:2 34:2 35:14 36:16 37:16 38:16 39:5 43:1 44:4 45:3 46:9 47:6 51:4 52:6 53:10 54:16 55:5 59:1 60:11 61:10 62:4 #
-0.14217473111905076788019641753635 3:8 4:15 5:10 6:1 11:15 12:13 13:15 14:10 19:16 20:2 22:14 23:1 27:14 28:5 29:7 30:16 31:2 35:7 36:12 37:11 38:15 39:3 46:13 47:4 51:6 52:6 53:9 54:16 55:2 59:7 60:13 61:14 62:3 #
-0.069461469952855528497970283297036 3:1 4:8 5:6 11:14 12:16 13:16 14:16 19:16 20:16 21:16 22:16 27:16 28:16 29:16 30:16 35:16 36:16 37:16 38:15 43:16 44:16 45:16 46:13 51:9 52:16 53:16 54:9 59:6 60:8 61:6 62:1 #
0.50000003576649798553432901826454 3:10 4:15 5:9 6:12 7:5 10:8 11:16 12:14 13:16 14:16 15:5 18:12 19:14 20:3 26:3 27:15 28:16 29:9 36:8 37:16 38:3 44:3 45:16 46:5 51:1 52:10 53:15 54:3 59:10 60:16 61:4 #
0.50000003576649798553432901826454 2:1 3:12 4:16 5:16 6:8 10:4 11:10 12:8 13:8 14:4 18:9 19:11 20:6 21:7 26:4 27:16 28:16 29:16 30:11 37:1 38:16 39:4 46:16 47:6 51:5 52:8 53:11 54:14 55:2 59:15 60:13 61:10 62:1 #
0.50000003576649798553432901826454 3:10 4:15 5:10 6:5 11:14 12:16 13:16 14:16 15:3 19:13 20:14 21:1 22:1 27:5 28:14 29:2 36:13 37:8 44:7 45:14 46:1 51:9 52:13 53:16 54:2 59:12 60:16 61:15 62:1 #
-0.089847626667595534288857095361891 5:7 6:15 7:2 13:8 14:16 15:5 20:1 21:13 22:14 26:8 27:16 28:16 29:16 30:12 35:3 37:16 38:12 45:12 46:15 53:9 54:16 55:2 61:6 62:16 63:8 #
-0.087454062649616290392451389834605 3:9 4:12 5:14 6:14 7:12 8:1 11:15 12:15 13:12 14:14 15:16 16:6 19:3 22:10 23:15 24:3 29:4 30:16 31:6 36:3 37:15 38:9 43:2 44:13 45:12 51:10 52:14 53:1 59:13 60:9 #
-0.0066546440127712627038425452496995 2:3 3:15 4:13 10:12 11:14 12:16 13:6 18:14 19:9 20:10 21:9 26:2 27:1 28:12 29:8 36:16 37:2 43:6 44:15 50:1 51:13 52:14 53:12 54:12 55:11 58:4 59:16 60:16 61:16 62:15 63:5 #
0.50000003576649798553432901826454 4:11 5:16 6:14 7:3 11:8 12:16 13:16 14:16 15:6 18:1 19:16 20:6 26:5 27:16 28:8 29:7 30:1 34:3 35:16 36:16 37:16 38:11 43:1 44:5 45:10 46:16 47:2 52:7 53:12 54:14 60:13 61:15 62:3 #
0.50000003576649798553432901826454 3:5 4:14 5:16 6:9 11:8 12:15 13:12 14:14 15:3 18:3 19:15 20:12 26:12 27:16 28:7 34:8 35:14 36:16 37:10 38:1 43:1 44:8 45:16 46:4 51:3 52:11 53:16 54:3 59:5 60:16 61:12 #
0.50000003576649798553432901826454 3:3 4:10 5:14 6:9 10:3 11:15 12:11 13:9 14:8 18:6 19:12 20:8 21:7 22:1 26:4 27:16 28:14 29:16 30:15 31:1 34:2 35:8 36:4 37:3 38:14 39:8 46:8 47:9 52:7 53:8 54:13 55:9 60:14 61:14 62:9 #
-0.07755946723240118856335101327204 4:10 5:13 6:3 11:7 12:16 13:12 14:6 19:12 20:13 21:1 27:16 28:16 29:16 30:10 34:2 35:16 36:15 37:1 38:12 39:8 43:16 44:4 46:6 47:15 51:11 52:14 53:8 54:15 55:14 56:1 59:2 60:11 61:16 62:11 63:2 #
-0.061223102794930560344166536879129 4:5 5:12 11:5 12:16 13:14 14:2 19:15 20:15 21:1 26:2 27:16 28:9 35:16 36:10 37:13 38:15 39:4 43:13 44:16 45:16 46:16 47:15 48:1 51:5 52:16 53:16 54:13 55:16 56:4 60:5 61:14 62:16 63:12 #
-0.11467457881490340787511428288781 3:3 4:12 5:16 6:15 7:4 11:14 12:16 13:14 14:16 15:6 18:1 19:11 20:3 21:13 22:13 23:1 27:1 28:14 29:12 30:1 35:3 36:16 37:14 38:3 43:1 44:6 45:16 46:14 47:1 51:14 52:13 53:14 54:15 59:4 60:16 61:15 62:5 #
0.50000003576649798553432901826454 2:1 3:14 4:16 5:16 6:16 7:5 10:4 11:16 12:7 13:4 14:5 15:3 18:7 19:16 20:5 21:1 26:8 27:16 28:16 29:15 30:1 35:2 36:4 37:15 38:7 45:10 46:13 50:6 51:9 52:1 53:13 54:14 58:1 59:14 60:16 61:15 62:3 #
0.50000003576649798553432901826454 2:2 3:7 4:14 5:16 6:12 10:9 11:16 12:16 13:15 14:13 15:2 18:3 19:16 20:7 21:2 27:13 28:9 35:7 36:15 37:1 43:2 44:15 45:5 50:1 51:16 52:16 53:7 59:9 60:16 61:4 #
0.50000003576649798553432901826454 3:8 4:16 5:14 6:6 10:5 11:16 12:13 13:12 14:14 18:6 19:16 20:12 21:4 26:9 27:16 28:16 29:15 30:3 35:6 36:5 37:14 38:10 45:12 46:14 51:15 52:9 53:16 54:14 59:6 60:15 61:15 62:6 #
-0.14253592807894793770273622612876 3:11 4:13 5:1 6:1 10:3 11:16 12:10 13:16 14:16 15:2 18:8 19:14 20:14 21:12 22:2 26:1 27:15 28:16 29:11 35:9 36:15 37:16 38:9 43:12 44:7 45:1 46:14 47:7 51:12 52:11 53:9 54:15 55:3 59:4 60:12 61:10 62:1 #
-0.19265480946754390267905421296746 2:2 3:7 4:16 5:15 6:8 10:5 11:16 12:11 13:15 14:12 19:11 20:15 21:13 27:3 28:16 29:1 35:9 36:16 37:1 43:13 44:10 45:5 51:14 52:9 53:8 59:6 60:16 61:5 #
-0.1181685493710512985243710204486 4:12 5:15 6:5 11:3 12:13 13:9 14:16 18:12 19:14 20:10 21:1 22:14 23:4 26:3 27:12 28:13 29:11 30:13 35:2 36:10 37:16 38:9 44:5 45:16 46:8 52:13 53:16 54:9 60:12 61:12 62:2 #
0.50000003576649798553432901826454 3:6 4:9 5:12 6:12 7:8 10:2 11:16 12:12 13:8 14:8 15:6 19:15 20:8 21:4 27:14 28:16 29:16 30:13 31:1 35:9 36:7 37:5 38:16 39:7 45:2 46:16 47:5 52:6 53:15 54:9 59:15 60:15 61:7 #
0.50000003576649798553432901826454 3:7 4:14 5:15 6:13 7:10 10:1 11:14 12:8 13:3 15:2 18:4 19:16 20:10 21:15 22:6 26:4 27:16 28:12 29:11 30:16 31:3 34:2 35:7 38:12 39:6 45:1 46:14 47:3 51:9 52:9 53:11 54:12 59:8 60:13 61:8 #
0.50000003576649798553432901826454 2:2 3:11 4:10 5:12 6:13 7:7 10:7 11:16 12:13 13:11 14:12 15:5 18:4 19:16 20:4 21:4 22:1 26:4 27:16 28:16 29:16 30:16 31:5 35:2 36:2 37:1 38:13 39:8 46:14 47:6 51:9 52:5 53:13 54:14 59:15 60:12 61:9 62:2 #
-0.11243569775062894899875232113118 4:4 5:9 6:15 7:2 11:6 12:15 13:11 14:13 15:4 18:3 19:16 20:4 21:4 22:15 27:15 28:16 29:16 30:16 31:1 35:2 36:4 37:3 38:15 39:6 45:1 46:16 47:1 52:3 53:12 54:5 60:7 61:10 #
-0.21282810784355263300504645940237 2:1 3:8 4:13 5:16 6:8 10:11 11:13 12:6 13:8 14:15 15:1 18:2 19:1 20:9 21:14 22:5 27:14 28:16 29:14 30:3 35:8 36:4 37:10 38:15 39:1 46:13 47:7 50:2 51:15 52:8 53:9 54:15 55:1 58:1 59:10 60:13 61:13 62:4 #
-0.12918615880802880591105008534214 3:6 4:10 5:15 6:11 7:1 10:1 11:15 12:9 13:6 14:12 15:4 18:5 19:16 22:5 23:6 26:4 27:14 30:6 31:8 34:6 35:9 38:12 39:2 42:7 43:9 45:6 46:11 50:3 51:15 52:8 53:15 54:4 59:10 60:14 61:5 #
0.50000003576649798553432901826454 2:1 3:8 4:10 5:14 6:15 7:6 10:6 11:16 12:11 13:7 14:5 15:2 18:3 19:16 20:8 26:2 27:16 28:16 29:10 35:1 36:3 37:13 38:2 45:9 46:4 51:11 52:11 53:14 54:1 59:11 60:9 61:2 #
0.50000003576649798553432901826454 3:13 4:12 5:10 6:12 7:8 10:2 11:16 12:16 13:16 14:14 15:5 18:3 19:16 20:5 21:2 26:7 27:16 28:10 29:7 34:5 35:12 36:12 37:16 38:15 39:1 45:7 46:16 47:4 51:4 52:6 53:7 54:15 55:3 59:10 60:16 61:16 62:8 #
0.50000003576649798553432901826454 2:1 3:11 4:13 5:16 6:1 10:3 11:16 12:5 13:4 14:4 15:1 18:5 19:15 20:3 21:4 26:4 27:15 28:12 29:13 30:15 31:2 38:10 39:8 46:10 47:8 50:2 51:8 52:7 53:5 54:15 55:5 59:8 60:12 61:16 62:12 #
-0.16739763099602708584789922952041 3:6 4:15 5:13 6:2 10:5 11:15 12:7 13:9 14:10 18:11 19:9 20:1 21:10 22:12 26:2 27:13 28:16 29:13 30:15 31:4 38:13 39:8 46:8 47:11 51:6 52:8 53:4 54:11 55:11 59:5 60:14 61:16 62:14 63:1 #
-0.13555572808892268898972588431207 3:4 4:12 5:14 6:2 10:4 11:15 12:10 13:10 14:10 18:9 19:16 21:5 22:12 26:5 27:16 28:9 29:14 30:16 31:4 35:7 36:8 37:7 38:15 39:6 46:10 47:12 51:1 52:4 53:4 54:14 55:12 59:3 60:13 61:16 62:11 63:4 #
-0.11407433919829354507236018889671 4:5 5:12 6:15 7:7 11:3 12:14 13:4 14:13 15:6 19:4 20:13 22:14 23:7 28:13 29:14 30:16 31:8 37:3 38:8 39:8 42:1 43:3 46:10 47:8 50:5 51:16 52:7 54:12 55:4 59:2 60:6 61:13 62:15 63:1 #
0.50000003576649798553432901826454 2:6 3:16 4:16 5:13 6:3 10:12 11:16 12:12 13:15 14:16 15:5 18:10 19:14 20:1 22:4 23:1 26:2 27:15 28:8 35:7 36:16 37:2 43:2 44:15 45:9 50:1 51:5 52:15 53:10 58:7 59:16 60:15 61:1 #
0.50000003576649798553432901826454 2:1 3:12 4:15 5:16 6:9 10:2 11:16 12:16 13:12 14:9 18:6 19:14 20:1 26:7 27:15 28:5 29:1 34:7 35:16 36:16 37:12 43:4 44:4 45:15 46:4 51:8 52:5 53:16 54:6 59:13 60:16 61:12 62:1 #
0.50000003576649798553432901826454 2:2 3:7 4:12 5:15 6:13 9:2 10:15 11:16 12:15 13:12 14:5 17:2 18:16 19:9 20:1 26:10 27:13 28:1 34:2 35:15 36:7 43:7 44:14 45:1 51:9 52:16 53:3 59:11 60:13 61:1 #
-0.10035061137171334688655832678705 3:9 4:13 5:16 6:5 10:7 11:16 12:12 13:9 14:12 18:6 19:14 20:1 21:1 22:7 23:1 26:1 27:13 28:16 29:16 30:12 31:3 35:9 36:16 37:12 42:1 43:16 44:8 45:16 46:2 50:4 51:14 52:2 53:16 54:4 59:13 60:16 61:10 #
-0.057234567110639789078163630620111 5:9 6:7 12:9 13:12 19:3 20:15 21:2 22:2 23:1 26:2 27:15 28:4 30:14 31:4 34:7 35:14 37:4 38:16 42:8 43:16 44:16 45:16 46:16 47:4 52:3 53:16 54:5 61:13 62:6 #
-0.12526863018100642399588195985416 3:11 4:16 5:8 10:5 11:16 12:12 13:15 18:10 19:12 20:9 21:11 26:7 27:15 28:15 29:6 35:14 36:16 37:11 38:1 42:1 43:14 44:11 45:12 46:15 47:3 50:7 51:16 52:2 54:11 55:12 58:1 59:10 60:15 61:16 62:16 63:6 #
0.50000003576649798553432901826454 3:6 4:9 5:15 6:14 7:2 10:8 11:13 12:12 13:6 14:4 15:1 18:10 19:13 20:8 21:3 26:2 27:11 28:15 29:16 30:5 37:7 38:12 45:1 46:13 52:1 53:9 54:12 59:8 60:12 61:10 62:1 #
0.50000003576649798553432901826454 2:2 3:8 4:9 5:13 6:16 7:7 10:4 11:16 12:10 13:5 14:5 15:2 18:4 19:16 26:4 27:16 28:16 29:11 30:3 34:1 35:6 36:8 37:13 38:13 45:7 46:16 50:3 51:11 52:12 53:16 54:6 58:3 59:15 60:14 61:4 #
0.50000003576649798553432901826454 3:10 4:14 5:11 6:9 11:9 12:12 13:8 14:9 19:11 20:9 21:1 27:15 28:16 29:14 30:2 35:12 36:2 37:10 38:6 46:13 51:7 52:5 53:8 54:12 59:10 60:16 61:15 62:4 #
-0.12412244584349538256695666404994 3:3 4:15 5:16 6:6 11:6 12:11 13:11 14:16 15:5 21:7 22:16 23:7 29:13 30:16 31:2 34:9 35:13 36:13 37:16 38:12 39:2 42:2 43:12 44:14 45:16 46:16 47:15 52:15 53:13 59:3 60:16 61:8 #
-0.091603690645059757113877196843532 4:10 5:16 6:15 7:3 11:6 12:13 13:10 14:16 15:2 19:3 20:1 21:2 22:14 29:8 30:8 35:1 36:8 37:14 38:15 39:8 42:1 43:15 44:16 45:13 46:3 51:2 52:9 53:7 60:14 61:1 #
-0.095068034242203419692529564599681 4:5 5:14 6:16 7:16 8:1 11:8 12:14 13:8 14:13 15:16 16:1 19:1 22:11 23:12 28:2 29:4 30:14 31:8 34:2 35:11 36:16 37:16 38:16 39:8 42:7 43:10 44:5 45:11 46:10 52:1 53:15 54:3 60:8 61:12 #
0.50000003576649798553432901826454 2:1 3:12 4:13 5:16 6:15 7:1 10:3 11:16 12:16 13:10 14:5 19:12 20:12 27:8 28:14 29:1 35:3 36:15 37:5 44:13 45:8 51:11 52:16 53:9 58:1 59:13 60:16 61:3 #
0.50000003576649798553432901826454 3:8 4:16 5:16 6:12 10:5 11:16 12:15 13:10 14:3 18:3 19:16 20:7 27:7 28:16 29:2 36:15 37:8 44:11 45:13 50:2 51:12 52:15 53:10 59:11 60:15 61:3 #
0.50000003576649798553432901826454 3:8 4:12 5:12 11:8 12:11 13:2 19:15 20:13 21:11 22:3 26:1 27:13 28:8 29:10 30:15 31:1 38:9 39:7 42:1 43:1 46:8 47:8 50:6 51:13 52:4 53:4 54:11 55:8 58:1 59:7 60:14 61:16 62:13 63:2 #
-0.075160653798095528044242996656976 2:4 3:16 4:16 5:16 6:8 11:4 12:2 13:11 14:12 20:3 21:15 22:6 26:2 27:4 28:11 29:15 30:1 34:10 35:16 36:16 37:16 38:16 39:9 42:1 43:12 44:12 45:4 46:4 47:2 50:2 51:16 52:2 58:7 59:14 #
-0.091227245225903128011957221588091 4:9 5:15 6:10 11:2 12:16 13:16 14:16 20:15 21:16 22:16 27:2 28:16 29:16 30:12 35:14 36:16 37:16 38:12 42:4 43:16 44:16 45:16 46:11 52:12 53:16 54:16 55:4 60:14 61:15 62:10 63:2 #
-0.11295334005671198163156532245921 3:5 4:9 5:13 6:8 11:4 12:16 13:15 14:3 19:13 20:14 21:2 22:6 23:3 26:5 27:16 28:5 29:11 30:16 31:8 34:7 35:16 36:16 37:16 38:14 39:1 42:3 43:8 44:16 45:16 46:4 51:5 52:16 53:10 59:10 60:12 61:3 #
0.50000003576649798553432901826454 3:12 4:14 5:12 6:12 7:3 11:15 12:12 13:10 14:9 15:1 18:2 19:16 20:6 21:7 22:2 26:4 27:16 28:16 29:16 30:15 31:1 35:4 36:4 37:4 38:16 39:8 43:1 46:10 47:7 50:4 51:12 53:3 54:14 55:4 58:1 59:13 60:16 61:16 62:6 #
0.50000003576649798553432901826454 3:4 4:16 5:13 6:12 7:11 11:7 12:13 13:4 14:7 15:11 19:12 20:1 26:5 27:15 28:12 29:8 30:1 34:2 35:8 36:8 37:12 38:12 45:1 46:13 51:7 52:7 53:7 54:11 59:4 60:15 61:14 62:2 #
0.50000003576649798553432901826454 3:15 4:12 5:7 6:15 7:6 10:8 11:16 12:16 13:16 14:14 15:5 18:10 19:16 20:5 21:1 26:8 27:16 28:9 29:1 35:5 36:15 37:13 44:5 45:16 46:4 52:10 53:15 59:15 60:16 61:6 #
-0.12628889166232953877866407310648 2:1 3:10 4:5 10:2 11:16 12:16 13:12 14:1 19:10 20:5 21:11 22:6 28:1 29:12 30:7 35:6 36:16 37:16 38:6 43:3 44:8 45:10 46:15 47:8 51:3 52:4 53:7 54:14 55:15 59:6 60:15 61:15 62:11 63:4 #
-0.1332305442734067479904069841723 3:14 4:5 11:13 12:8 19:16 20:7 27:15 28:8 34:2 35:16 36:5 37:15 38:3 42:2 43:16 44:9 45:14 46:11 47:1 50:6 51:16 52:16 53:16 54:16 55:15 58:1 59:8 60:5 61:7 62:16 63:8 #
-0.13427262285022759091823729704629 4:5 5:9 6:13 7:14 8:6 11:4 12:16 13:8 14:4 15:10 16:9 19:6 20:16 21:16 22:16 23:15 24:4 27:1 28:11 29:12 30:16 31:6 37:2 38:16 39:2 45:10 46:6 52:2 53:15 60:5 61:14 #
0.50000003576649798553432901826454 3:15 4:16 5:15 6:7 10:2 11:16 12:12 13:11 14:9 19:12 20:12 27:3 28:15 29:5 36:8 37:14 44:2 45:16 46:2 51:7 52:8 53:16 54:4 59:12 60:16 61:14 62:1 #
0.46902612042398245106866738751705 3:7 4:14 5:16 6:16 7:7 11:14 12:13 13:8 14:5 15:1 18:3 19:16 20:10 21:3 26:10 27:16 28:16 29:16 30:2 34:3 35:4 37:11 38:8 45:10 46:8 51:14 52:5 53:16 54:4 59:9 60:16 61:14 #
0.50000003576649798553432901826454 3:6 4:10 5:11 6:15 7:4 11:10 12:15 13:12 14:12 15:3 19:14 20:6 26:5 27:16 28:9 29:9 30:7 34:2 35:12 36:12 37:12 38:16 39:7 45:1 46:13 47:7 52:7 53:13 54:13 59:9 60:12 61:10 62:1 #
-0.14661673965816066078637902592163 2:2 3:12 4:15 5:16 6:10 7:1 10:3 11:16 12:5 13:10 14:16 15:3 20:5 21:15 22:7 28:14 29:8 36:15 37:4 44:4 45:14 46:2 50:1 51:2 52:2 53:15 54:6 58:2 59:12 60:15 61:12 62:1 #
0.50000003576649798553432901826454 3:1 4:15 5:16 6:15 7:5 11:8 12:13 13:4 14:3 15:1 18:2 19:14 20:9 21:7 22:1 26:5 27:16 28:16 29:15 30:10 37:1 38:14 39:3 45:1 46:14 47:2 51:1 52:4 53:13 54:10 59:1 60:14 61:9 62:1 #
-0.1116688124463660197749348412799 3:12 4:16 5:16 6:10 11:13 12:13 13:8 14:16 15:5 22:16 23:8 27:1 28:8 29:13 30:15 31:2 35:7 36:16 37:16 38:15 39:3 44:3 45:4 46:11 47:15 50:1 51:11 53:2 54:13 55:15 58:1 59:13 60:16 61:16 62:14 63:6 #
-0.10490887806736051701683720693836 2:3 3:14 4:16 5:16 6:13 10:8 11:15 12:8 13:13 14:16 19:1 20:2 21:16 22:10 28:12 29:15 30:1 35:9 36:15 37:3 42:2 43:16 44:8 50:6 51:16 52:4 53:4 54:7 55:7 58:3 59:15 60:16 61:16 62:13 63:7 #
0.50000003576649798553432901826454 2:4 3:14 4:16 5:16 6:12 7:2 10:10 11:16 12:10 13:8 14:14 15:7 18:10 19:12 26:2 27:16 28:7 35:15 36:11 43:9 44:15 45:3 50:1 51:12 52:16 53:4 58:5 59:16 60:15 61:1 #
0.43449549703330819783175797965669 3:7 4:14 5:16 6:8 10:1 11:16 12:16 13:8 14:6 18:8 19:16 20:10 26:14 27:16 28:16 29:10 30:1 34:7 35:12 36:8 37:15 38:6 45:14 46:9 51:3 52:9 53:16 54:6 59:12 60:16 61:10 62:1 #
-0.074772741224510649860057753812725 3:6 4:12 5:4 11:12 12:16 13:15 14:1 18:2 19:16 20:6 21:5 22:14 26:9 27:16 28:4 30:14 31:3 34:7 35:16 36:6 38:14 39:6 42:4 43:16 44:15 45:2 46:16 47:6 51:12 52:16 53:16 54:11 59:5 60:14 61:14 62:5 #
-0.11525371238733372880602701116004 3:6 4:14 5:16 6:13 10:6 11:14 12:3 14:13 15:4 18:5 19:12 21:4 22:16 23:3 27:14 28:14 29:15 30:5 34:1 35:14 36:12 37:1 42:5 43:16 44:13 45:2 50:2 51:16 52:16 53:13 59:2 60:12 61:12 #
-0.06116524077140517157147314719623 3:13 4:16 5:15 6:2 10:5 11:16 12:7 13:11 14:13 18:8 19:16 20:2 21:1 22:14 23:6 26:8 27:15 30:8 31:11 34:10 35:12 38:4 39:12 42:11 43:12 46:7 47:12 50:7 51:15 52:4 53:5 54:15 55:8 59:13 60:16 61:16 62:10 #
0.50000003576649798553432901826454 2:1 3:11 4:16 5:14 6:8 10:1 11:16 12:15 13:12 14:15 15:3 18:2 19:16 20:10 22:2 26:5 27:16 28:8 29:2 34:3 35:15 36:16 37:15 38:3 43:2 44:4 45:13 46:11 51:6 52:8 53:15 54:11 59:13 60:16 61:16 62:5 #
0.48954819748101313647836718701001 3:5 4:14 5:16 6:14 10:7 11:16 12:15 13:8 14:8 18:14 19:13 26:13 27:16 28:13 29:3 35:5 36:11 37:15 38:1 45:16 46:9 51:5 52:11 53:16 54:8 59:11 60:16 61:10 62:1 #
0.50000003576649798553432901826454 3:3 4:10 5:14 6:15 7:3 11:15 12:16 13:14 14:11 15:1 18:3 19:16 20:11 21:8 22:2 26:3 27:16 28:16 29:16 30:13 38:15 39:7 43:1 46:10 47:7 51:14 52:13 53:9 54:16 55:4 59:4 60:13 61:15 62:7 #
-0.17461709274777617584284428176034 4:8 5:14 6:15 7:2 11:9 12:12 13:4 14:13 15:7 19:14 20:13 21:8 22:14 23:3 27:3 28:16 29:16 30:16 31:2 38:15 43:3 45:1 46:16 47:1 51:14 52:13 53:9 54:14 59:2 60:10 61:12 62:4 #
-0.13372523371924147084222056491853 4:1 5:12 6:4 12:9 13:14 19:2 20:16 21:5 27:5 28:16 29:9 30:2 34:2 35:16 36:16 37:13 38:16 39:8 43:9 44:15 46:2 47:15 52:15 53:8 54:8 55:16 56:3 60:3 61:11 62:13 63:10 #
-0.085300866995139834614292340120301 4:1 5:16 6:9 12:6 13:16 14:11 20:11 21:16 22:6 26:1 27:7 28:15 29:14 30:1 34:6 35:14 36:16 37:15 43:1 44:13 45:15 52:14 53:16 54:4 61:12 62:15 63:6 #
0.50000003576649798553432901826454 2:3 3:7 4:13 5:16 6:12 7:2 10:10 11:16 12:12 13:6 14:2 18:9 19:16 20:8 21:1 26:4 27:11 28:16 29:15 30:6 36:1 37:8 38:15 39:5 45:1 46:14 47:7 51:11 52:13 53:16 54:15 55:1 59:10 60:12 61:8 62:3 #
0.50000003576649798553432901826454 3:9 4:16 5:13 6:15 7:5 10:4 11:16 12:11 13:10 14:13 15:5 18:12 19:11 26:8 27:14 28:3 35:10 36:15 44:15 45:5 51:2 52:16 53:7 59:14 60:13 61:1 #
0.50000003576649798553432901826454 3:6 4:16 5:15 6:10 7:1 10:1 11:14 12:8 13:8 14:11 15:2 18:5 19:12 20:11 21:12 22:6 26:7 27:16 28:14 29:12 30:15 31:3 34:1 35:2 38:10 39:8 43:1 46:9 47:6 51:14 52:4 53:5 54:14 55:1 59:8 60:16 61:13 62:3 #
-0.1249953264107959149953330779681 3:6 4:11 5:16 6:11 7:1 10:4 11:14 12:4 13:9 14:16 19:15 20:2 21:11 22:15 23:2 27:8 28:15 29:9 30:12 31:5 38:8 39:8 46:8 47:5 50:5 51:13 52:2 54:14 55:2 59:8 60:16 61:16 62:8 #
-0.12502056343197021082147557535791 5:3 6:16 7:6 12:5 13:15 14:16 15:9 18:1 19:10 20:16 21:15 22:16 23:8 26:10 27:16 28:12 29:2 30:16 31:5 34:1 35:6 37:4 38:16 39:4 45:5 46:16 47:1 53:6 54:16 55:3 61:3 62:16 63:9 #
-0.12666314735748085418265418411465 2:2 3:4 4:7 5:13 6:15 7:2 10:14 11:16 12:16 13:15 14:16 15:5 18:1 19:4 21:14 22:14 29:16 30:12 36:3 37:16 38:7 44:5 45:16 46:7 52:5 53:16 54:6 60:7 61:16 62:9 #
0.50000003576649798553432901826454 3:8 4:16 5:16 6:14 10:1 11:16 12:12 13:8 14:5 18:3 19:16 20:6 26:10 27:16 28:8 29:2 34:3 35:12 36:14 37:15 38:7 45:8 46:16 47:3 51:11 52:5 53:6 54:16 55:5 59:10 60:16 61:16 62:12 #
0.50000003576649798553432901826454 3:7 4:8 5:12 6:16 7:12 10:1 11:16 12:16 13:16 14:15 15:6 18:10 19:16 20:7 21:1 26:8 27:16 28:9 29:1 35:9 36:16 37:12 44:8 45:16 46:4 51:5 52:14 53:14 54:1 59:9 60:15 61:3 #
0.50000003576649798553432901826454 3:5 4:11 5:13 6:10 7:3 10:1 11:13 12:11 13:5 14:6 15:3 18:6 19:15 26:7 27:13 28:4 29:1 34:1 35:14 36:16 37:15 38:4 45:8 46:13 51:8 52:5 53:5 54:15 59:4 60:12 61:16 62:9 #
-0.11167502255443538528023594835759 3:5 4:12 5:12 10:3 11:16 12:12 13:15 14:4 18:4 19:14 21:14 22:6 26:1 27:12 28:11 29:12 35:7 36:16 37:8 38:1 43:1 44:5 45:12 46:13 47:1 51:8 52:4 54:16 55:4 59:8 60:15 61:15 62:11 63:1 #
-0.11178203025136225490232533275048 3:8 4:4 11:15 12:3 18:2 19:13 26:4 27:14 28:11 29:9 30:1 34:4 35:9 36:13 37:16 38:14 39:1 42:2 43:12 46:9 47:11 51:16 52:8 53:5 54:13 55:11 59:4 60:15 61:16 62:12 63:1 #
-0.089446611720781735166418968674407 4:9 5:14 12:13 13:11 15:4 19:2 20:16 21:6 22:6 23:15 27:9 28:14 30:14 31:10 34:12 35:16 36:14 37:13 38:15 39:1 42:11 43:14 44:14 45:16 46:12 52:7 53:16 54:5 60:14 61:13 #
0.50000003576649798553432901826454 2:3 3:14 4:15 5:16 6:15 7:8 10:4 11:16 12:12 13:8 14:7 15:2 18:6 19:16 20:15 21:8 26:8 27:16 28:13 29:16 30:4 34:1 35:1 37:10 38:10 45:8 46:12 50:5 51:8 52:6 53:15 54:10 58:3 59:16 60:16 61:13 62:1 #
0.50000003576649798553432901826454 3:4 4:10 5:12 6:8 11:9 12:16 13:12 14:11 19:12 20:9 21:3 27:13 28:16 29:16 30:6 35:9 36:6 37:8 38:13 39:1 45:4 46:16 47:3 51:13 52:12 53:14 54:13 55:1 59:7 60:14 61:10 #
0.50000003576649798553432901826454 3:7 4:12 5:14 6:6 10:7 11:16 12:14 13:14 14:6 18:5 19:16 20:10 21:3 26:6 27:16 28:16 29:16 30:6 34:3 35:7 36:4 37:10 38:14 45:10 46:15 47:1 51:2 52:15 53:16 54:8 59:5 60:16 61:9 #
-0.2435586031566895348632328932581 3:1 4:12 5:15 6:1 11:10 12:16 13:16 18:3 19:16 20:15 21:10 26:6 27:16 28:15 29:15 30:2 35:4 36:2 37:14 38:15 39:1 45:3 46:15 47:5 51:2 52:14 53:14 54:16 55:5 60:15 61:16 62:13 63:1 #
-0.13359476926301239174676993570756 3:2 4:11 5:11 6:2 11:11 12:16 13:16 14:5 19:10 20:16 21:16 22:5 27:2 28:11 29:14 30:9 37:8 38:12 45:8 46:16 52:8 53:15 54:10 59:1 60:14 61:14 62:3 #
-0.11230673899884223432277252641143 3:9 4:16 5:16 6:10 7:1 10:10 11:16 12:9 13:4 14:16 15:4 18:13 19:12 21:8 22:14 23:5 26:7 27:16 28:15 29:16 30:12 35:1 36:4 37:15 38:13 44:10 45:16 46:6 51:5 52:16 53:10 59:9 60:16 61:1 #
0.50000003576649798553432901826454 3:9 4:12 5:14 6:14 7:4 11:15 12:7 13:4 14:4 15:2 19:14 26:3 27:15 28:14 29:14 30:6 34:4 35:7 36:2 37:2 38:15 46:12 47:2 51:9 52:2 53:2 54:14 59:11 60:16 61:16 62:5 #
0.50000003576649798553432901826454 2:1 3:12 4:16 5:11 6:4 10:4 11:16 12:10 13:11 14:12 19:16 20:6 26:2 27:16 28:16 29:7 35:3 36:9 37:15 38:6 45:8 46:13 51:2 52:4 53:9 54:15 59:11 60:16 61:15 62:6 #
0.50000003576649798553432901826454 2:2 3:12 4:14 5:16 6:12 7:1 10:1 11:16 12:16 13:14 14:11 15:1 19:12 20:13 27:7 28:15 29:3 36:15 37:9 44:9 45:15 51:3 52:8 53:16 54:3 58:1 59:15 60:16 61:16 62:3 #
-0.12039772137047552447164378008893 3:8 4:14 5:5 10:8 11:13 12:5 13:14 14:5 18:8 19:13 20:2 21:5 22:14 23:3 26:4 27:16 28:14 29:15 30:16 31:8 35:2 36:5 37:7 38:10 39:7 45:3 46:15 47:3 52:4 53:14 54:10 59:10 60:13 61:6 #
-0.12208975385444935379819497711651 4:12 5:16 6:10 11:10 12:15 13:15 14:13 19:9 20:6 21:16 22:7 28:8 29:15 30:3 35:5 36:16 37:6 42:8 43:15 44:16 45:3 49:5 50:16 51:16 52:16 53:16 54:6 57:1 58:4 59:4 60:9 61:16 62:11 #
-0.14083793849705067424693538669089 2:3 3:12 4:12 5:3 10:8 11:10 12:11 13:9 19:2 20:14 21:4 27:12 28:13 29:1 35:3 36:13 37:15 38:3 45:7 46:14 47:1 50:2 51:4 52:4 53:3 54:11 55:7 58:5 59:12 60:12 61:14 62:16 63:8 #
0.50000003576649798553432901826454 2:4 3:12 4:13 5:16 6:16 7:4 10:12 11:16 12:16 13:11 14:8 15:5 18:16 19:13 20:5 26:8 27:14 34:1 35:15 36:6 43:7 44:15 51:8 52:16 58:3 59:16 60:12 #
0.29912382959162725493129642018175 2:5 3:12 4:14 5:16 6:14 7:4 10:7 11:16 12:11 13:7 14:4 15:2 18:7 19:16 26:8 27:16 28:16 29:13 30:1 34:5 35:12 36:12 37:16 38:8 45:9 46:15 50:2 51:8 52:8 53:15 54:11 58:3 59:14 60:11 61:6 #
0.41465767386704582841971955531335 3:8 4:11 5:16 6:14 7:3 11:16 12:14 13:8 14:8 15:3 18:4 19:16 20:8 26:4 27:16 28:14 29:4 36:9 37:16 38:7 45:14 46:12 50:3 51:15 52:5 53:15 54:7 59:11 60:16 61:11 62:1 #
-0.11606831378978545166180680325851 2:1 4:6 5:16 6:8 10:11 11:7 12:13 13:3 14:13 15:2 18:11 19:14 20:4 22:8 23:4 26:9 27:7 30:5 31:7 34:6 35:9 38:5 39:8 43:13 44:4 46:11 47:9 51:6 52:14 53:11 54:16 55:7 60:5 61:16 62:10 #
-0.12815411628251827114155503295478 4:5 5:14 6:16 7:16 8:5 11:10 12:16 13:15 14:16 15:16 16:7 18:4 19:15 20:6 21:1 22:16 23:12 27:2 29:5 30:16 31:7 37:4 38:16 39:2 45:6 46:16 47:1 52:2 53:15 54:14 60:3 61:15 62:7 #
-0.12431863568671516762087492224964 3:4 4:6 5:14 6:6 10:8 11:16 12:15 13:13 14:10 18:3 19:12 20:3 21:2 22:13 27:11 28:11 29:13 30:11 35:6 36:16 37:16 38:3 43:16 44:9 45:6 46:13 47:2 51:9 52:8 54:3 55:14 60:6 61:15 62:16 63:16 64:4 #
0.50000003576649798553432901826454 3:8 4:15 5:16 6:12 10:12 11:16 12:14 13:12 14:6 18:10 19:16 20:5 26:6 27:16 28:5 35:8 36:16 37:8 44:6 45:16 46:10 51:6 52:8 53:15 54:12 59:7 60:14 61:8 #
0.50000003576649798553432901826454 3:12 4:16 5:15 6:5 10:3 11:15 12:8 13:7 14:5 18:9 19:13 20:8 21:8 22:2 26:4 27:15 28:12 29:15 30:16 31:3 37:1 38:14 39:8 43:1 46:11 47:10 50:2 51:16 52:9 53:9 54:15 55:3 59:8 60:11 61:13 62:4 #
-0.10468738182869766206728456836572 3:9 4:16 5:7 11:16 12:16 13:14 19:3 20:13 21:16 27:7 28:16 29:16 30:12 31:8 35:8 36:16 37:16 38:16 39:9 44:14 45:11 51:4 52:16 53:5 59:7 60:12 #
-0.13140053677587273939231238273351 3:5 4:11 5:12 11:16 12:16 13:16 14:13 15:7 19:12 20:16 21:16 22:15 23:4 27:4 28:15 29:14 30:8 35:12 36:4 37:1 38:4 42:1 43:14 45:3 46:7 50:1 51:16 52:12 53:16 54:4 59:3 60:9 61:5 #
-0.12826867377055367613891689870798 2:2 3:16 4:10 5:9 6:8 11:10 12:16 13:16 14:12 18:1 19:5 20:10 21:16 22:10 23:6 26:11 27:16 28:16 29:16 30:15 31:7 34:3 35:5 36:14 37:9 38:2 43:6 44:16 51:10 52:10 58:3 59:16 60:1 #
0.50000003576649798553432901826454 3:8 4:16 5:16 6:12 7:4 11:12 12:10 13:8 14:8 15:4 18:4 19:16 20:13 21:3 26:6 27:16 28:16 29:15 30:1 37:12 38:6 45:9 46:6 51:4 52:7 53:16 54:3 59:4 60:16 61:6 #
0.50000003576649798553432901826454 3:8 4:11 5:14 6:10 11:14 12:15 13:7 14:8 18:1 19:14 20:4 26:8 27:16 28:9 29:8 30:3 34:4 35:12 36:12 37:14 38:16 39:4 46:13 47:8 51:4 52:8 53:12 54:15 55:4 59:15 60:14 61:12 62:3 #
-0.096045165450874395163260999197519 4:13 5:13 6:1 11:11 12:14 13:15 14:8 18:6 19:16 20:3 21:10 22:7 26:8 27:16 28:4 29:12 30:8 34:1 35:3 36:4 37:15 38:1 43:2 44:13 45:12 51:11 52:16 53:16 54:12 55:7 59:3 60:9 61:8 62:11 63:13 #
-0.14263335261875095816286318495258 2:5 3:16 4:5 10:9 11:16 12:14 18:12 19:14 20:14 26:7 27:13 28:12 35:11 36:8 38:3 39:1 43:16 44:8 45:7 46:14 47:11 50:8 51:16 52:16 53:16 54:16 55:11 58:6 59:16 60:16 61:11 62:6 63:1 #
-0.093306303524619091382952262847539 3:10 4:13 5:2 11:14 12:16 13:4 18:2 19:16 20:14 26:6 27:16 28:14 29:2 34:7 35:16 36:16 37:16 38:13 39:1 42:2 43:16 44:16 45:16 46:16 47:7 50:2 51:16 52:16 53:16 54:16 55:4 59:8 60:15 61:16 62:13 #
0.50000003576649798553432901826454 2:3 3:13 4:12 5:9 6:12 7:1 10:4 11:16 12:16 13:16 14:14 15:1 18:4 19:16 20:7 21:3 26:5 27:16 28:10 35:10 36:16 37:4 44:12 45:12 51:6 52:16 53:7 58:1 59:15 60:12 61:1 #
0.50000003576649798553432901826454 3:5 4:8 5:14 6:14 7:8 10:4 11:16 12:13 13:12 14:9 15:4 18:4 19:16 26:5 27:16 28:8 29:2 35:6 36:14 37:16 38:8 45:6 46:16 47:2 51:11 52:8 53:10 54:15 55:1 59:8 60:13 61:10 62:1 #
0.50000003576649798553432901826454 3:8 4:14 5:12 6:8 7:6 11:12 12:11 13:6 14:8 15:8 19:14 20:5 21:4 22:1 26:4 27:16 28:14 29:12 30:14 31:1 34:5 35:7 38:9 39:7 46:10 47:4 51:5 52:2 53:4 54:13 55:1 59:8 60:16 61:14 62:1 #
-0.12424746496203779855260762587932 3:9 4:14 5:16 6:16 7:5 11:6 12:16 13:7 14:11 15:10 20:15 21:7 22:9 23:9 28:12 29:15 30:15 31:3 35:7 36:16 37:16 38:6 42:3 43:14 44:2 45:16 46:2 50:5 51:15 52:5 53:16 54:4 58:1 59:11 60:16 61:12 #
-0.10392204975762529828298141865162 2:5 3:14 4:12 5:15 6:15 7:3 11:2 12:4 13:11 14:16 15:5 20:1 21:15 22:9 28:7 29:16 30:1 36:3 37:16 38:11 45:15 46:16 50:1 51:7 52:10 53:16 54:7 58:2 59:12 60:13 61:4 #
-0.11768590036434189993741483704071 3:2 4:15 5:16 6:14 7:5 11:5 12:15 13:8 14:13 15:11 18:2 19:11 20:12 21:7 22:15 23:8 26:7 27:16 28:16 29:16 30:8 31:1 34:2 35:15 36:16 37:8 43:7 44:16 45:12 51:4 52:16 53:16 59:2 60:14 61:14 #
0.44193757760622665031746691965964 3:6 4:15 5:16 6:16 7:5 10:3 11:16 12:14 13:8 14:4 15:1 18:10 19:16 20:11 21:3 26:11 27:16 28:16 29:15 30:3 34:1 35:2 36:1 37:14 38:12 45:7 46:16 47:1 51:5 52:13 53:11 54:15 59:7 60:16 61:15 62:3 #
0.50000003576649798553432901826454 3:7 4:13 5:14 6:1 11:16 12:10 13:5 18:1 19:16 20:13 21:8 22:3 27:12 28:10 29:11 30:15 31:3 38:9 39:8 46:3 47:11 50:1 51:7 52:4 53:4 54:11 55:11 58:1 59:11 60:14 61:15 62:12 63:2 #
0.48309901429724455557135343042319 3:13 4:16 5:16 6:16 7:6 10:6 11:16 12:8 13:5 14:5 15:5 18:11 19:16 26:5 27:16 28:14 29:9 30:1 35:1 36:6 37:14 38:10 45:5 46:16 51:4 52:2 53:13 54:12 58:1 59:13 60:16 61:14 62:1 #
-0.14912453256849739213762973122357 3:9 4:16 5:16 6:10 10:2 11:16 12:11 13:6 14:6 18:3 19:16 20:2 21:9 22:15 23:1 27:12 28:13 29:15 30:16 31:2 36:8 37:9 38:16 39:4 46:16 47:4 53:6 54:16 55:3 59:8 60:16 61:16 62:13 63:1 #
-0.075476203691598978129384533986013 3:15 4:7 6:2 7:11 8:1 10:3 11:16 12:6 13:1 14:12 15:13 16:2 18:4 19:16 20:5 21:8 22:15 23:3 26:2 27:16 28:16 29:16 30:13 35:4 36:14 37:15 38:3 43:7 44:16 45:3 50:1 51:13 52:10 58:1 59:16 60:3 #
-0.12103941296331406640707228916654 2:4 3:8 4:8 5:12 6:16 7:5 10:8 11:16 12:16 13:16 14:15 15:3 18:2 19:3 20:7 21:16 22:7 28:12 29:14 30:1 35:9 36:16 37:7 43:14 44:16 50:6 51:16 52:12 58:6 59:14 60:7 #
0.3876616922338801396463736637088 3:12 4:16 5:16 6:10 7:1 10:4 11:16 12:9 13:8 14:9 15:1 18:9 19:14 20:1 26:9 27:16 28:11 29:1 35:7 36:12 37:11 44:2 45:16 46:1 50:1 51:12 52:12 53:15 59:13 60:16 61:6 #
0.3155906602786604508992240880616 2:2 3:13 4:12 5:13 6:16 7:4 10:4 11:15 12:9 13:8 14:8 18:4 19:12 26:6 27:15 28:12 29:5 34:2 35:11 36:10 37:16 38:2 45:12 46:6 51:2 52:9 53:15 54:3 58:1 59:13 60:10 61:2 #
0.50000003576649798553432901826454 3:3 4:11 5:16 6:16 7:13 11:15 12:16 13:13 14:11 15:5 18:3 19:16 20:8 21:1 26:5 27:16 28:11 29:4 34:1 35:8 36:15 37:16 38:3 44:5 45:16 46:5 51:1 52:10 53:16 54:2 59:5 60:11 61:7 #
-0.076609597389415889923114377779712 2:1 3:9 4:13 5:13 6:5 10:10 11:14 12:6 13:9 14:16 15:3 18:7 19:10 22:16 23:6 29:10 30:14 31:1 36:9 37:15 38:3 43:7 44:16 45:2 51:14 52:9 54:3 55:1 59:14 60:16 61:15 62:12 63:2 #
-0.10916650411379466567574070268165 4:5 5:8 11:4 12:16 13:2 15:14 19:9 20:8 22:8 23:8 26:2 27:15 29:1 30:15 34:10 35:9 36:4 37:9 38:15 39:1 42:11 43:16 44:16 45:16 46:11 47:1 50:3 51:4 52:7 53:9 60:8 61:5 #
-0.12637120546161945133789572537353 3:5 4:16 5:5 11:2 12:16 13:13 19:11 20:16 21:16 22:2 27:3 28:12 29:16 30:9 37:14 38:14 45:9 46:16 47:3 51:9 52:12 53:14 54:16 55:8 56:5 59:4 60:12 61:13 62:16 63:16 64:15 #
0.3603779113333243633299218799948 2:1 3:9 4:13 5:12 6:6 10:5 11:16 12:13 13:8 14:10 15:2 18:4 19:14 20:1 26:2 27:16 28:14 29:4 34:5 35:16 36:15 37:16 38:4 44:1 45:11 46:16 47:3 51:6 52:6 53:15 54:15 55:1 59:7 60:13 61:10 62:3 #
0.36289739237210177913439679286967 3:11 4:16 5:13 6:12 7:3 10:3 11:16 12:11 13:8 14:8 15:1 18:5 19:16 20:9 21:9 22:1 26:8 27:16 28:16 29:16 30:6 34:6 35:11 36:3 37:9 38:11 45:4 46:12 51:10 52:14 53:11 54:16 59:9 60:12 61:12 62:6 #
0.38969836417504261083522010267188 3:4 4:10 5:14 6:14 7:8 10:7 11:16 12:15 13:11 14:8 15:4 18:2 19:15 20:9 21:3 27:12 28:16 29:16 30:7 36:4 37:9 38:16 39:4 46:13 47:8 51:7 52:12 53:11 54:16 55:5 59:4 60:16 61:10 62:5 #
-0.10825353560225864368860015929386 3:9 4:12 5:2 10:3 11:16 12:16 13:16 14:16 15:3 18:4 19:15 20:13 21:14 22:16 23:6 26:2 27:15 28:11 29:16 30:11 31:1 34:1 35:14 36:16 37:11 42:5 43:14 44:6 45:16 46:5 50:7 51:15 52:8 53:13 54:16 58:1 59:7 60:11 61:16 62:13 #
-0.10011153243073449281563824797558 3:7 4:13 5:6 10:3 11:16 12:8 13:13 18:2 19:14 20:8 27:6 28:16 29:16 30:14 31:6 34:1 35:14 36:14 37:13 39:1 42:4 43:16 44:2 45:13 46:6 50:1 51:15 52:4 53:4 54:13 59:5 60:14 61:16 62:10 #
-0.099812981750234328059967481294734 5:12 6:13 7:1 12:2 13:16 14:16 15:3 20:5 21:16 22:16 23:4 28:12 29:16 30:16 31:5 35:5 36:16 37:16 38:16 39:4 42:3 43:15 44:14 45:15 46:16 47:3 50:3 51:8 52:2 53:13 54:16 61:12 62:11 63:1 #
0.46644738658579676382487377850339 2:3 3:13 4:16 5:16 6:12 10:13 11:16 12:15 13:8 14:10 15:3 18:12 19:16 20:2 26:3 27:15 28:9 35:7 36:16 37:2 43:1 44:16 45:8 51:10 52:16 53:5 58:3 59:16 60:13 #
0.41416567444232849082297320819634 3:13 4:12 5:12 6:12 7:5 10:3 11:16 12:7 13:4 14:4 15:2 18:5 19:16 20:8 21:5 26:5 27:14 28:11 29:16 30:6 37:6 38:14 46:16 50:2 51:4 52:1 53:9 54:16 58:1 59:13 60:16 61:13 62:2 #
0.34683764376882081359454446101154 3:11 4:16 5:16 6:13 7:4 10:2 11:16 12:14 13:9 14:8 15:8 18:7 19:16 20:4 26:12 27:16 28:16 29:12 30:1 34:2 35:8 36:10 37:16 38:9 43:1 45:12 46:12 51:15 52:12 53:16 54:6 59:13 60:16 61:9 #
-0.12368654275822894839098609054417 2:1 3:9 4:14 5:5 10:7 11:9 12:7 13:11 14:8 15:4 18:4 19:9 20:5 21:14 22:7 23:2 27:11 28:14 29:4 35:10 36:15 37:5 42:2 43:14 44:2 45:15 46:1 50:4 51:13 52:2 53:15 54:2 59:12 60:16 61:7 #
-0.11375480359547077147119864548586 2:5 3:14 4:10 5:4 10:3 11:12 12:16 13:16 14:6 19:1 20:13 21:16 22:5 27:8 28:16 29:13 30:2 35:5 36:16 37:13 38:2 44:6 45:16 46:15 47:4 50:1 51:8 52:9 53:15 54:16 55:5 58:4 59:15 60:14 61:8 62:4 #
-0.11588894597607801717487063797307 3:1 4:14 5:13 11:6 12:16 13:8 19:12 20:9 27:14 28:10 29:16 30:12 31:1 34:1 35:16 36:10 37:14 38:8 39:13 43:13 44:9 45:10 47:12 48:4 51:8 52:10 54:5 55:16 56:5 59:1 60:11 61:16 62:16 63:11 #
0.39763507725634744671694420503627 2:3 3:10 4:16 5:14 6:14 7:3 10:8 11:16 12:9 13:12 14:12 15:3 18:7 19:15 20:8 21:7 22:1 26:5 27:16 28:16 29:16 30:11 35:1 37:4 38:15 39:3 43:2 45:4 46:16 47:4 50:2 51:15 52:10 53:14 54:16 55:2 58:1 59:11 60:12 61:12 62:4 #
0.3186455930132018332656684833637 3:3 4:8 5:10 6:12 7:6 11:13 12:15 13:11 14:8 15:2 19:12 20:11 21:2 27:13 28:16 29:16 30:9 31:1 36:4 37:6 38:13 39:6 46:13 47:4 51:5 52:5 53:13 54:11 59:13 60:14 61:7 #
0.28347666148236227989798408088973 3:14 4:14 5:16 6:15 10:4 11:16 12:13 13:12 14:8 18:6 19:13 26:5 27:16 28:12 29:4 34:3 35:14 36:16 37:14 45:12 46:12 51:10 52:8 53:15 54:10 59:15 60:16 61:11 62:1 #
-0.10173312305118137333082017903507 3:9 4:14 5:15 6:4 10:7 11:16 12:16 13:16 14:10 18:5 19:10 20:4 21:16 22:4 28:16 29:16 30:7 36:3 37:9 38:16 39:3 43:2 45:1 46:15 47:7 51:15 52:13 53:13 54:16 55:4 59:9 60:15 61:15 62:8 #
-0.12906711461039971355901911920228 3:2 4:13 5:16 6:14 7:2 11:12 12:13 13:8 14:15 15:8 18:8 19:14 22:11 23:12 26:7 27:16 28:13 29:11 30:16 31:13 35:6 36:8 37:8 38:14 39:10 46:15 47:8 51:3 52:12 53:5 54:15 55:5 59:1 60:12 61:16 62:14 63:2 #
-0.11393471953367959037528578392084 4:1 5:13 6:13 11:5 12:15 13:15 14:16 18:3 19:15 20:8 21:7 22:14 26:11 27:15 28:9 29:15 30:16 31:9 34:8 35:16 36:14 37:15 38:15 39:5 45:12 46:8 53:12 54:6 61:12 62:4 #
0.23579125507219689250604233166086 2:1 3:10 4:16 5:16 6:14 10:10 11:16 12:10 13:6 14:4 18:7 19:14 20:3 26:9 27:16 28:16 29:11 30:1 34:5 35:11 36:4 37:13 38:5 45:9 46:8 51:1 52:3 53:15 54:4 59:14 60:14 61:10 #
0.30464689380469450741273362837092 3:4 4:16 5:13 6:13 7:5 11:9 12:15 13:7 14:4 15:2 18:3 19:14 20:9 26:5 27:16 28:16 29:13 30:5 36:2 37:10 38:15 39:1 45:5 46:15 47:1 51:1 52:4 53:14 54:6 59:2 60:16 61:10 #
0.25877097175941293771828100034327 2:1 3:7 4:6 5:12 6:14 7:7 10:4 11:16 12:13 13:7 14:4 15:1 18:5 19:14 20:4 21:2 26:5 27:16 28:16 29:15 30:3 34:1 35:7 36:3 37:14 38:8 45:12 46:6 50:1 51:3 52:5 53:15 54:2 58:1 59:13 60:13 61:5 #
-0.11631503735626651241386042556769 3:2 4:8 5:12 6:13 7:2 10:2 11:16 12:15 13:6 14:8 15:8 18:7 19:11 20:5 21:2 22:13 23:7 26:6 27:15 28:13 29:15 30:15 31:1 35:3 36:2 37:9 38:6 44:1 45:14 46:1 52:7 53:10 60:13 61:3 #
-0.070290292595514142215407105140912 3:1 4:10 5:2 11:3 12:16 13:5 19:8 20:15 27:12 28:8 35:13 36:9 37:3 42:2 43:16 44:16 45:16 46:16 47:7 51:14 52:8 53:2 54:8 55:16 56:2 59:2 60:15 61:16 62:16 63:13 64:1 #
-0.12423889912468201457418359723306 3:14 4:16 5:14 6:5 11:3 13:2 14:16 15:3 20:4 21:10 22:15 23:1 26:6 27:16 28:16 29:14 30:2 34:1 35:4 36:6 37:12 38:12 46:12 47:9 51:10 53:4 54:14 55:5 59:13 60:16 61:13 62:4 #
0.26396649421894752274297957228555 3:12 4:16 5:16 6:9 7:1 10:8 11:16 12:14 13:11 14:14 15:3 18:8 19:16 20:4 26:3 27:15 28:16 29:6 36:6 37:14 38:1 44:1 45:16 46:4 51:9 52:11 53:16 54:1 58:1 59:13 60:16 61:10 #
0.24331647863695632372227350970206 2:1 3:11 4:16 5:14 6:7 10:6 11:16 12:10 13:8 14:4 19:16 20:1 26:1 27:16 28:9 29:5 35:12 36:12 37:15 38:2 45:9 46:8 51:9 52:8 53:14 54:9 59:9 60:15 61:9 62:1 #
0.28595092358149748479334562034637 3:5 4:10 5:12 6:15 7:5 10:1 11:13 12:16 13:15 14:8 15:2 18:7 19:16 20:5 26:1 27:13 28:12 29:3 35:1 36:9 37:16 38:5 45:11 46:12 52:8 53:15 54:6 59:6 60:12 61:3 #
