SVM-light Version V6.02
1 # kernel type
5 # kernel parameter -d 
1 # kernel parameter -g 
1 # kernel parameter -s 
1 # kernel parameter -r 
empty# kernel parameter -u 
64 # highest feature index 
2823 # number of training documents 
112 # number of support vectors plus 1 
0.53895896 # threshold b, each following line is a SV (starting with alpha*y)
-1.2510525354146272002919310281594e-18 4:6 5:15 6:2 7:2 11:3 12:15 13:10 14:4 15:15 18:2 19:14 20:9 22:12 23:11 26:9 27:16 28:4 29:3 30:16 31:14 34:11 35:16 36:16 37:16 38:15 39:7 42:1 43:10 44:11 45:16 46:8 52:3 53:16 54:1 60:8 61:11 #
-9.8766273787868345337053271385179e-19 2:4 3:15 4:16 5:12 10:12 11:15 12:7 13:16 14:5 18:3 19:3 21:15 22:4 29:13 30:7 36:5 37:15 38:2 43:1 44:14 45:11 50:1 51:13 52:16 53:9 54:8 55:3 58:3 59:16 60:16 61:16 62:16 63:16 64:1 #
-4.4911586908082150044204798752e-18 3:7 4:15 5:13 6:3 11:11 12:6 13:8 14:14 20:3 21:8 22:12 28:16 29:14 30:2 36:10 37:15 38:7 45:2 46:11 47:10 50:1 51:15 52:3 53:1 54:11 55:10 59:4 60:15 61:16 62:13 63:2 #
-2.1053928024067008690210077987942e-20 3:10 4:16 5:12 10:1 11:14 12:13 13:16 14:4 19:2 20:3 21:16 22:5 28:4 29:16 30:2 36:11 37:14 43:2 44:16 45:8 47:3 50:1 51:13 52:16 53:14 54:16 55:16 56:3 59:12 60:16 61:16 62:13 63:7 #
1.0949165251597414331447618418928e-18 2:2 3:16 4:10 5:9 6:8 11:10 12:16 13:16 14:12 18:1 19:5 20:10 21:16 22:10 23:6 26:11 27:16 28:16 29:16 30:15 31:7 34:3 35:5 36:14 37:9 38:2 43:6 44:16 51:10 52:10 58:3 59:16 60:1 #
7.1571748308792883271279775687868e-19 4:13 5:16 6:16 7:16 8:1 12:7 13:8 14:13 15:11 22:14 23:10 24:1 26:6 27:12 28:13 29:16 30:14 31:9 34:6 35:14 36:10 37:16 38:6 44:7 45:13 46:1 52:13 53:10 60:15 61:3 #
3.1657446452380870976106652469023e-18 3:1 4:12 5:14 6:16 7:10 11:3 12:10 13:8 14:16 15:6 21:3 22:15 23:1 27:1 28:7 29:14 30:14 31:3 35:4 36:13 37:16 38:12 39:5 44:7 45:13 52:13 53:7 59:2 60:14 61:2 #
1.1450746259186397337780043978495e-18 3:8 4:16 5:15 6:5 11:7 12:8 13:15 14:10 21:14 22:10 27:5 28:12 29:16 30:14 31:2 35:16 36:16 37:15 38:10 39:6 43:1 44:14 45:7 51:4 52:16 59:4 60:12 #
8.0697551248940689907932621249454e-19 2:1 3:16 4:16 5:15 6:3 11:7 12:6 13:16 14:10 20:1 21:16 22:8 27:6 28:15 29:15 30:2 35:7 36:16 37:16 38:11 39:3 43:5 44:16 45:14 46:16 47:7 51:10 52:12 53:1 54:4 55:1 59:16 60:6 #
-1.0668873569322490314714506000321e-18 3:6 4:15 5:16 6:16 7:11 10:2 11:16 12:11 13:7 14:15 15:16 16:3 18:2 19:15 20:16 21:16 22:16 23:13 27:5 28:11 29:16 30:12 31:1 36:8 37:16 38:4 44:12 45:11 51:5 52:16 53:4 59:10 60:14 #
2.482451754225480036169807144723e-18 3:3 4:9 5:15 6:8 10:1 11:15 12:16 13:16 14:7 19:5 20:16 21:16 22:10 23:4 27:3 28:16 29:16 30:16 31:9 36:15 37:14 38:4 44:13 45:5 51:1 52:15 53:3 59:4 60:13 #
2.0128894030781945584316825797198e-18 2:2 5:9 6:7 10:15 11:16 12:16 13:16 14:9 18:1 19:5 20:4 21:16 22:7 26:1 27:4 28:4 29:16 30:7 34:5 35:16 36:16 37:16 38:15 39:2 43:3 44:1 45:14 46:6 53:13 54:7 61:10 62:11 #
1.3590784413979637487437749114817e-18 3:2 4:6 5:12 6:16 7:16 8:2 10:2 11:15 12:16 13:9 14:5 15:16 16:5 19:5 20:1 22:2 23:16 24:2 30:8 31:10 37:4 38:16 39:7 43:10 44:13 45:16 46:13 47:1 51:9 52:13 53:16 54:1 60:7 61:12 #
5.1575657186346226735159562934607e-18 2:2 3:4 4:7 5:13 6:15 7:2 10:14 11:16 12:16 13:15 14:16 15:5 18:1 19:4 21:14 22:14 29:16 30:12 36:3 37:16 38:7 44:5 45:16 46:7 52:5 53:16 54:6 60:7 61:16 62:9 #
-3.3113864501466331680452731106377e-18 3:2 4:7 5:12 6:16 7:11 11:10 12:15 13:16 14:16 15:16 20:10 21:16 22:16 23:12 28:4 29:16 30:16 31:4 36:5 37:16 38:15 39:4 44:10 45:16 46:12 51:2 52:15 53:16 54:3 59:1 60:13 61:14 62:1 #
-9.9493583268346804297179999655472e-19 4:5 5:14 6:16 7:16 8:5 11:10 12:16 13:15 14:16 15:16 16:7 18:4 19:15 20:6 21:1 22:16 23:12 27:2 29:5 30:16 31:7 37:4 38:16 39:2 45:6 46:16 47:1 52:2 53:15 54:14 60:3 61:15 62:7 #
-1.49762694187974137095284671532e-18 3:9 4:12 5:14 6:16 7:16 8:2 11:4 12:12 13:9 14:12 15:16 16:1 21:1 22:14 23:8 29:8 30:14 31:1 36:2 37:16 38:12 45:13 46:16 47:5 52:1 53:13 54:14 55:1 59:10 60:16 61:13 62:1 #
1.4980636179626542816241301601842e-18 2:1 3:15 4:16 5:16 6:16 7:9 10:7 11:16 12:13 13:11 14:16 15:9 18:9 19:16 20:4 21:10 22:15 23:1 26:8 27:9 28:3 29:15 30:8 36:10 37:15 43:1 44:16 45:9 51:10 52:16 53:2 59:16 60:13 #
1.4897680590814025606509367116856e-18 3:6 4:13 5:16 6:3 10:1 11:15 12:16 13:16 14:9 19:3 20:4 21:16 22:7 28:5 29:16 30:6 35:9 36:16 37:16 38:4 39:1 43:14 44:16 45:16 46:16 47:6 51:9 52:16 53:9 54:5 59:9 60:13 61:2 #
6.3879738878797779004858515617718e-18 3:2 4:14 5:15 6:2 11:13 12:15 13:14 14:8 19:16 20:6 21:11 22:10 26:1 27:9 28:8 29:15 30:9 34:10 35:16 36:16 37:16 38:16 39:9 42:1 43:4 44:8 45:16 46:5 47:5 52:14 53:13 59:2 60:16 61:6 #
-6.667296044756740460557079070016e-19 3:9 4:13 5:16 6:12 7:1 10:5 11:16 12:14 13:16 14:16 15:4 18:4 19:16 21:13 22:13 23:1 26:2 27:14 28:14 29:15 30:3 35:8 36:16 37:4 43:15 44:16 45:5 50:1 51:16 52:16 53:7 59:12 60:16 61:6 #
-1.5259341208901379176172210759148e-18 3:1 4:14 5:6 6:9 7:5 11:11 12:12 13:3 14:16 15:7 18:5 19:16 20:2 21:12 22:11 23:3 26:10 27:16 28:8 29:16 30:16 31:14 34:7 35:16 36:16 37:14 38:11 39:3 43:3 44:13 45:8 52:15 53:5 59:2 60:16 61:2 #
-7.4336553909657616336421037078291e-19 2:3 3:9 4:12 5:12 6:16 7:10 10:7 11:16 12:16 13:16 14:14 15:6 18:7 19:16 20:11 21:2 26:10 27:16 28:10 29:2 34:1 35:11 36:16 37:16 38:4 43:1 44:12 45:16 46:5 51:13 52:16 53:6 58:2 59:15 60:9 #
3.6870317283311468869062793316812e-19 3:6 4:12 5:16 6:16 7:15 8:3 11:14 12:16 13:12 14:14 15:16 16:8 22:14 23:16 24:3 29:3 30:16 31:11 37:12 38:16 39:2 44:6 45:16 46:11 51:2 52:15 53:14 54:1 59:6 60:16 61:9 #
4.1646004795998658599266544643934e-18 4:5 5:15 6:16 7:6 10:1 11:15 12:15 13:10 14:15 15:14 19:1 22:8 23:12 28:2 29:5 30:15 31:9 36:8 37:16 38:16 39:6 45:8 46:13 53:12 54:8 60:2 61:13 62:2 #
1.3287672312435604915186020193231e-19 3:1 4:10 5:13 6:16 7:14 11:9 12:15 13:12 14:15 15:16 16:1 19:1 20:2 22:10 23:14 28:2 29:4 30:16 31:12 35:5 36:16 37:16 38:16 39:5 43:7 44:12 45:16 46:8 52:6 53:16 54:3 60:13 61:11 62:1 #
-9.7638084485900161685275077865973e-19 5:11 6:12 13:11 14:16 15:2 21:15 22:13 27:6 28:16 29:16 30:12 34:7 35:16 36:16 37:16 38:8 42:1 43:4 44:7 45:16 46:11 52:2 53:15 54:13 61:8 62:16 63:4 #
-1.0816284420885575308850419915084e-18 5:13 6:7 13:14 14:7 20:3 21:15 22:2 27:1 28:13 29:7 30:11 31:2 34:5 35:14 36:16 37:10 38:16 39:2 42:15 43:16 44:16 45:16 46:15 47:1 53:10 54:12 61:15 62:7 #
1.4624413919551457854022011518563e-18 3:6 4:12 5:16 6:16 7:13 11:13 12:12 13:8 14:14 15:16 16:2 19:1 20:5 21:7 22:15 23:11 27:13 28:16 29:16 30:16 31:11 35:3 36:9 37:16 38:3 44:11 45:13 51:5 52:16 53:7 59:9 60:15 61:2 #
1.7074007018689123902299317676155e-17 3:3 4:11 5:16 6:15 7:5 11:10 12:6 13:4 14:12 15:10 22:12 23:8 26:4 27:12 28:10 29:12 30:16 31:3 34:2 35:8 36:5 37:16 38:9 44:6 45:11 52:13 53:6 60:15 61:1 #
-7.2694123586945108036018870164558e-19 3:9 4:16 5:16 6:10 7:1 10:10 11:16 12:9 13:4 14:16 15:4 18:13 19:12 21:8 22:14 23:5 26:7 27:16 28:15 29:16 30:12 35:1 36:4 37:15 38:13 44:10 45:16 46:6 51:5 52:16 53:10 59:9 60:16 61:1 #
-1.8971750326994034181152188741323e-19 3:15 4:16 5:16 6:12 7:1 10:5 11:16 12:13 13:11 14:16 15:4 18:1 19:16 20:2 21:3 22:15 23:4 27:11 28:11 29:15 30:11 35:4 36:16 37:14 38:1 43:13 44:16 45:8 50:2 51:16 52:14 53:11 59:12 60:16 61:7 #
-1.0562595520741956022907104882908e-18 3:2 4:14 5:16 6:15 7:9 10:1 11:14 12:11 13:5 14:9 15:14 18:4 19:14 21:3 22:12 23:11 26:6 27:13 28:9 29:15 30:15 31:1 34:2 35:13 36:15 37:15 38:11 44:4 45:15 51:1 52:13 53:11 59:3 60:16 61:5 #
3.8607474752296242040997415883757e-19 3:6 4:16 5:13 6:11 7:5 11:1 12:8 13:10 14:16 15:15 21:1 22:14 23:13 29:7 30:16 31:5 34:3 35:4 36:1 37:12 38:16 42:12 43:16 44:16 45:16 46:13 47:2 51:3 52:14 53:15 59:6 60:16 61:7 #
5.6769170010463935502059655521427e-18 4:8 5:8 6:8 7:13 8:8 11:6 12:15 13:13 14:14 15:15 16:1 19:13 20:6 22:12 23:5 27:14 28:5 29:5 30:10 35:1 36:10 37:16 38:14 39:2 44:12 45:12 46:6 47:1 52:14 53:4 60:12 61:1 #
5.5333179540223346530286186567421e-18 4:6 5:11 6:14 7:3 11:9 12:13 13:8 14:15 15:12 22:10 23:11 30:13 31:9 35:4 36:11 37:13 38:16 39:4 43:3 44:8 45:14 46:12 52:3 53:16 54:3 60:9 61:14 #
-3.9961096541692073936333593575757e-18 3:1 4:14 5:10 11:3 12:16 13:16 14:1 19:3 20:16 21:13 27:5 28:16 29:9 35:6 36:16 37:10 43:4 44:16 45:9 51:3 52:16 53:6 59:1 60:12 61:6 #
-3.5768774792610282415063496933704e-19 3:1 4:15 5:12 11:6 12:16 13:15 19:5 20:16 21:9 27:5 28:16 29:6 35:3 36:16 37:8 43:2 44:16 45:8 51:1 52:16 53:9 59:1 60:13 61:6 #
1.8731132946317872603159887279213e-19 3:8 4:16 5:16 6:15 10:3 11:16 12:9 13:8 14:16 15:4 18:9 19:8 21:6 22:16 23:2 26:1 27:8 28:13 29:16 30:16 31:5 35:15 36:12 37:16 38:13 39:8 44:9 45:15 46:1 51:2 52:16 53:4 59:11 60:11 #
8.7763240445571899587321908269718e-19 3:5 4:13 5:16 6:3 10:1 11:15 12:15 13:16 14:8 18:5 19:8 20:5 21:16 22:11 26:2 27:12 28:16 29:16 30:16 31:10 34:2 35:14 36:16 37:15 38:10 39:5 43:1 44:16 45:11 51:5 52:16 53:8 59:8 60:14 61:2 #
2.5508922952717454821384362668678e-19 3:12 4:16 5:16 6:16 7:3 11:6 12:9 13:12 14:16 15:7 21:8 22:15 23:3 26:3 27:15 28:16 29:16 30:7 34:1 35:8 36:16 37:16 38:15 39:2 43:3 44:16 45:10 46:14 47:6 51:11 52:16 59:12 60:11 #
-1.1673032835556412158204986236384e-18 2:1 3:13 4:16 5:16 6:12 7:1 10:2 11:16 12:16 13:16 14:15 15:2 19:5 20:12 21:16 22:14 29:10 30:15 37:12 38:12 44:3 45:16 46:9 50:1 51:8 52:13 53:15 54:2 58:2 59:13 60:16 61:6 #
-1.0085887465208969900032789655807e-18 2:1 3:9 4:16 5:16 6:14 7:2 10:11 11:16 12:7 13:5 14:16 15:6 18:16 19:14 20:10 21:16 22:16 23:4 26:4 27:8 28:10 29:16 30:13 35:1 36:13 37:13 38:1 43:6 44:16 45:6 51:12 52:10 59:11 60:11 #
2.2253269530506515702371123706132e-18 2:5 3:16 4:16 5:16 6:3 10:8 11:7 12:5 13:16 14:2 18:3 19:5 20:10 21:14 26:7 27:16 28:16 29:15 30:12 31:6 35:9 36:14 37:11 38:14 39:6 43:16 44:6 50:3 51:15 52:2 58:7 59:12 #
2.9861130875302261500381130054218e-18 3:2 4:11 5:16 6:16 7:16 8:12 11:7 12:15 13:9 14:8 15:12 16:13 22:1 23:14 24:5 30:11 31:9 37:6 38:13 44:1 45:14 46:3 52:10 53:9 59:1 60:16 61:5 #
-1.6510059716528167333631362607069e-18 3:12 4:8 5:2 11:16 12:6 13:14 14:6 18:2 19:16 20:10 21:16 26:10 27:13 28:14 29:10 30:4 31:1 34:8 35:16 36:16 37:16 38:16 39:10 43:13 44:15 45:4 46:4 47:1 51:12 52:12 58:1 59:14 60:5 #
-3.8032408982146223985557951186045e-18 4:13 5:4 11:4 12:16 13:9 14:9 19:12 20:8 21:10 22:9 26:7 27:15 28:4 29:15 30:8 31:1 34:11 35:16 36:16 37:16 38:16 39:10 42:1 43:4 44:10 45:12 52:12 53:8 60:12 61:5 #
-1.2075744623084333314999362421668e-18 4:12 5:16 6:1 11:2 12:16 13:8 14:2 19:8 20:16 21:5 22:15 27:15 28:7 29:8 30:9 34:7 35:16 36:12 37:15 38:16 39:11 42:9 43:15 44:10 45:15 46:7 47:5 52:10 53:7 60:16 61:4 #
1.1434344525568910881710861579698e-18 2:4 3:8 4:8 5:12 6:16 7:5 10:8 11:16 12:16 13:16 14:15 15:3 18:2 19:3 20:7 21:16 22:7 28:12 29:14 30:1 35:9 36:16 37:7 43:14 44:16 50:6 51:16 52:12 58:6 59:14 60:7 #
2.0953893395604508190226440194279e-18 2:1 3:11 4:9 5:14 6:11 7:1 10:8 11:16 12:14 13:14 14:16 15:2 18:7 19:16 21:11 22:12 26:1 27:1 28:1 29:15 30:5 36:10 37:14 43:2 44:15 45:5 51:12 52:16 53:4 59:15 60:11 61:1 #
2.4439010972698453081751919348412e-18 3:3 4:12 5:15 6:11 11:14 12:15 13:15 14:16 15:1 19:3 20:2 21:14 22:16 23:12 24:1 28:13 29:16 30:14 31:9 36:2 37:14 38:8 44:2 45:16 46:5 52:13 53:13 59:3 60:16 61:3 #
-2.3175775033539793652425184225694e-18 3:5 4:14 5:16 6:16 7:12 10:5 11:16 12:13 13:8 14:13 15:16 18:3 19:7 21:3 22:14 23:10 28:1 29:13 30:14 36:9 37:15 38:3 43:4 44:16 45:7 51:12 52:13 59:6 60:16 61:16 62:10 #
-5.793871078286281733853191468726e-19 3:9 4:15 5:16 6:12 7:1 11:9 12:10 13:14 14:16 15:9 21:2 22:16 23:10 29:8 30:15 31:2 36:10 37:15 38:4 43:6 44:16 45:6 51:15 52:16 53:12 54:12 59:14 60:16 61:13 62:5 #
-2.0498496899228052094348517795734e-18 2:1 3:10 4:15 5:15 6:6 10:8 11:16 12:15 13:14 14:15 15:3 18:3 19:6 20:3 21:15 22:15 28:12 29:16 30:5 36:8 37:16 38:2 44:4 45:16 46:8 51:4 52:15 53:16 54:4 59:14 60:16 61:7 #
5.4737414089450221998583494838186e-18 3:3 4:13 5:10 6:8 7:9 8:2 11:10 12:11 13:8 14:11 15:15 19:13 20:3 21:1 22:12 23:6 27:5 28:3 29:7 30:14 35:9 36:16 37:16 38:16 39:5 44:7 45:11 46:1 52:14 53:6 59:4 60:15 61:2 #
1.3333098817388421241637217949089e-19 3:9 4:16 5:7 11:16 12:16 13:14 19:3 20:13 21:16 27:7 28:16 29:16 30:12 31:8 35:8 36:16 37:16 38:16 39:9 44:14 45:11 51:4 52:16 53:5 59:7 60:12 #
1.5476031152937710357586461675334e-19 2:2 3:15 4:16 5:6 10:3 11:14 12:14 13:16 14:2 20:6 21:16 22:2 28:11 29:16 30:1 34:8 35:14 36:16 37:16 38:16 39:5 42:10 43:16 44:15 45:11 46:12 47:5 50:5 51:16 52:7 58:5 59:14 60:1 #
-5.7060609484518993491432989272169e-18 3:4 4:14 5:16 6:7 10:1 11:16 12:14 13:8 14:5 18:8 19:10 26:3 27:13 35:12 36:6 43:4 44:13 52:16 53:5 59:7 60:16 61:4 #
-7.2692908414546359549010132646795e-19 2:2 3:12 4:15 5:16 6:14 7:2 10:6 11:16 12:15 13:11 14:12 15:5 18:4 19:16 20:2 26:1 27:13 28:5 35:11 36:8 43:5 44:16 50:2 51:12 52:14 58:2 59:16 60:10 #
8.8108079062785486257048087059678e-19 3:8 4:16 5:16 6:16 7:9 10:5 11:15 12:9 13:5 14:14 15:16 16:2 21:3 22:16 23:9 29:14 30:11 31:1 36:7 37:16 38:5 43:3 44:16 45:8 51:9 52:16 53:3 59:12 60:16 61:1 #
1.58527769390234461251751391481e-18 3:8 4:14 5:13 6:13 7:10 10:4 11:16 12:13 13:13 14:16 15:9 18:4 19:16 20:2 21:6 22:16 23:1 28:1 29:14 30:5 36:6 37:15 43:1 44:15 45:6 51:11 52:16 53:3 59:11 60:11 61:1 #
-1.3952323309536172904979540860688e-18 3:1 4:9 5:16 6:16 7:12 8:1 11:10 12:13 13:8 14:12 15:16 16:3 19:2 21:1 22:13 23:10 28:9 29:16 30:11 36:14 37:16 38:15 44:7 45:10 46:16 47:2 51:2 52:16 53:14 54:13 60:14 61:14 62:2 #
-2.3720472630886459203138352577802e-18 3:11 4:16 5:12 6:5 10:4 11:16 12:11 13:16 14:16 15:3 18:4 19:16 20:11 21:16 22:14 27:10 28:16 29:16 30:6 36:15 37:14 43:7 44:16 45:5 51:15 52:13 59:12 60:11 #
3.6286801439347421849437873095822e-18 3:12 4:12 5:16 6:16 7:9 11:8 12:6 13:4 14:13 15:8 20:4 21:8 22:16 23:6 26:3 27:16 28:16 29:16 30:11 31:4 35:3 36:9 37:9 43:3 44:14 51:11 52:7 59:14 60:3 #
4.8032994054080685942713600523013e-19 3:11 4:16 5:15 6:3 11:2 12:4 13:16 14:7 20:4 21:16 22:3 26:2 27:4 28:10 29:14 30:4 31:2 34:9 35:16 36:16 37:16 38:16 39:8 43:7 44:15 45:2 51:10 52:9 59:12 60:7 #
-7.580431404274578333212420339522e-19 3:8 4:15 5:16 6:16 7:2 10:7 11:16 12:12 13:8 14:5 18:10 19:10 26:11 27:10 34:2 35:16 36:4 43:6 44:14 51:5 52:14 59:14 60:11 #
-1.1942972347906886263313041541121e-17 3:2 4:12 5:14 6:5 10:2 11:15 12:6 13:8 14:14 15:6 18:5 19:9 21:5 22:16 23:4 26:5 27:9 28:4 29:15 30:12 35:14 36:13 37:16 38:5 44:4 45:12 52:11 53:5 59:2 60:15 61:4 #
-9.8519624863407473277135507286424e-18 3:3 4:14 5:16 6:13 7:6 11:13 12:7 13:1 14:13 15:16 16:1 19:12 20:5 22:10 23:12 27:8 28:14 29:12 30:14 31:2 36:4 37:14 38:6 44:5 45:13 52:13 53:6 59:2 60:11 #
-8.7493295336697420458380845769246e-19 3:8 4:11 7:13 8:9 10:3 11:15 12:6 14:12 15:13 16:1 18:3 19:16 20:5 21:7 22:16 23:5 27:12 28:16 29:16 30:16 31:8 35:1 36:11 37:13 38:4 43:1 44:15 45:4 51:7 52:13 59:11 60:5 #
-1.5032237197632201372890466554678e-18 3:5 4:9 5:13 6:8 11:4 12:16 13:15 14:3 19:13 20:14 21:2 22:6 23:3 26:5 27:16 28:5 29:11 30:16 31:8 34:7 35:16 36:16 37:16 38:14 39:1 42:3 43:8 44:16 45:16 46:4 51:5 52:16 53:10 59:10 60:12 61:3 #
-8.531814886393116292282913932548e-19 4:7 5:12 6:5 11:5 12:16 13:16 14:12 19:12 20:16 21:16 22:15 27:8 28:16 29:16 30:15 35:10 36:16 37:16 38:10 43:6 44:16 45:16 46:10 52:13 53:16 54:6 60:8 61:6 #
-2.5471176636269233704076235862671e-18 2:3 3:8 4:12 5:13 6:3 10:5 11:11 12:8 13:12 14:10 21:13 22:7 27:5 28:14 29:16 30:13 35:7 36:13 37:7 38:14 39:8 45:2 46:16 47:7 50:1 51:6 52:11 53:16 54:7 58:3 59:13 60:11 61:3 #
-2.7843885955950964717569534959154e-18 3:3 4:11 5:16 6:16 7:14 8:1 11:12 12:10 13:4 14:7 15:15 19:7 20:14 21:15 22:16 23:4 29:7 30:12 36:1 37:14 38:4 44:5 45:13 52:12 53:7 59:2 60:14 #
-1.2140646979076184893925175058844e-18 3:5 4:10 5:12 6:16 7:16 8:2 11:10 12:16 13:16 14:10 15:6 19:5 20:16 21:5 28:12 29:16 30:2 37:12 38:12 45:13 46:9 51:1 52:12 53:13 54:2 59:7 60:13 61:2 #
1.7118494062815777552056684897033e-18 2:4 3:15 4:9 5:8 6:8 7:1 10:4 11:16 12:16 13:16 14:16 15:8 18:9 19:15 20:2 21:15 22:14 23:1 26:5 27:5 28:5 29:16 30:4 36:12 37:12 43:7 44:15 45:2 50:3 51:16 52:7 58:6 59:16 60:4 #
-1.1203226436287727556040685654846e-18 3:1 4:7 5:11 6:13 7:11 8:5 11:7 12:16 13:16 14:13 15:16 16:4 19:14 20:8 26:4 27:16 28:9 29:8 30:5 34:8 35:16 36:16 37:16 38:16 39:2 42:2 43:4 44:4 45:12 46:15 52:7 53:16 54:5 60:12 61:5 #
-4.0747515877389882994780577402978e-19 4:7 5:16 6:16 7:5 11:8 12:15 13:6 14:13 15:11 18:2 19:15 20:5 22:13 23:10 26:10 27:16 28:10 29:13 30:16 31:11 34:2 35:11 36:16 37:16 38:16 39:6 44:1 45:16 46:8 52:7 53:16 54:1 60:10 61:12 #
2.6294634253583095714262683142708e-18 3:3 4:10 5:13 6:1 10:2 11:15 12:10 13:16 14:3 18:2 19:4 20:1 21:16 22:4 28:7 29:16 35:7 36:14 37:16 38:12 39:3 42:2 43:13 44:15 45:13 46:9 47:2 52:13 53:8 59:1 60:15 61:3 #
-1.524109759038173813126273163786e-18 3:4 4:15 5:6 11:13 12:13 13:16 18:4 19:15 20:1 21:16 22:2 28:2 29:16 36:8 37:12 42:1 43:12 44:16 45:6 46:4 50:7 51:16 52:16 53:16 54:16 55:6 59:2 61:4 62:8 63:3 #
-1.7847094859055387349036004318827e-18 4:1 5:10 6:16 7:6 11:3 12:14 13:8 14:6 15:16 16:6 19:11 20:4 22:6 23:16 24:2 26:4 27:12 28:2 29:5 30:16 31:11 34:6 35:16 36:15 37:8 38:15 39:4 45:4 46:9 53:10 54:4 60:1 61:13 62:1 #
6.7374866186556134709908887453404e-18 3:10 4:8 5:10 6:12 7:6 10:2 11:16 12:14 13:12 14:15 15:11 18:3 19:9 20:2 21:4 22:14 23:2 28:1 29:14 30:4 36:5 37:14 43:1 44:13 45:6 50:1 51:12 52:16 53:1 59:14 60:10 #
7.8384868500683865688771920122328e-19 3:2 4:10 5:16 6:3 11:15 12:16 13:16 14:4 18:3 19:12 20:1 21:16 22:15 23:9 28:7 29:16 30:16 31:13 36:16 37:15 38:2 44:8 45:12 52:13 53:9 60:14 61:3 #
-1.3118023170975546863938388224938e-18 2:1 3:10 4:12 5:14 6:9 10:11 11:11 12:5 13:5 14:16 15:4 18:4 19:3 21:2 22:16 23:2 29:12 30:9 35:1 36:13 37:10 43:9 44:13 50:2 51:16 52:4 58:1 59:13 60:15 61:12 62:2 #
-2.8547347138354486208222307202342e-18 3:5 4:9 5:16 6:13 7:4 10:1 11:15 12:8 13:5 14:14 15:12 19:4 21:4 22:14 23:8 28:2 29:14 30:10 36:12 37:14 43:7 44:14 45:3 51:15 52:10 59:4 60:12 61:12 62:6 #
-6.6211930481175606589388646546737e-19 3:2 4:12 5:16 6:10 11:11 12:12 13:11 14:16 15:4 19:1 20:1 21:1 22:16 23:4 29:8 30:14 31:2 36:4 37:15 38:5 43:8 44:16 45:5 50:5 51:16 52:16 53:14 54:9 55:1 59:3 60:8 61:10 62:15 63:3 #
-4.9212762700457332909966747544769e-19 3:4 4:13 5:11 6:2 11:2 12:13 13:16 14:7 20:7 21:16 22:15 28:3 29:16 30:15 31:4 36:7 37:16 38:16 39:1 44:10 45:16 46:14 51:1 52:13 53:15 54:4 59:8 60:16 61:14 #
-6.7694631336334630052491102418963e-19 3:5 4:10 5:14 6:8 10:8 11:16 12:13 13:16 14:15 20:1 21:16 22:8 28:6 29:16 30:2 36:5 37:16 38:14 39:2 45:6 46:16 47:8 51:1 52:10 53:14 54:15 55:1 59:2 60:13 61:10 62:2 #
-1.6576181763047768717845273134836e-18 3:3 4:10 5:14 6:14 10:10 11:16 12:14 13:10 14:15 19:8 26:6 27:16 28:8 29:1 34:2 35:11 36:15 37:15 38:5 45:15 46:15 52:12 53:13 54:1 60:11 61:4 #
7.543606627508430635427804129661e-19 3:14 4:15 5:12 6:12 7:6 10:1 11:16 12:12 13:12 14:16 15:7 19:6 20:1 21:12 22:12 28:8 29:15 30:2 36:13 37:7 43:6 44:15 45:1 51:15 52:10 59:15 60:6 #
1.4324877900137711949689227784528e-18 3:9 4:14 5:16 6:12 7:1 10:3 11:14 12:5 13:4 14:12 15:8 18:1 19:2 22:13 23:6 27:4 28:8 29:10 30:16 31:4 34:5 35:14 36:11 37:16 38:8 39:1 42:3 43:2 44:9 45:11 51:3 52:15 53:2 59:9 60:8 #
-1.707701226264531734698886887076e-18 3:7 4:13 5:16 6:11 7:4 10:1 11:16 12:5 13:2 14:13 15:12 18:4 19:14 21:4 22:15 23:4 26:2 27:15 28:13 29:16 30:8 35:1 36:8 37:15 38:1 43:1 44:13 45:5 51:9 52:10 59:12 60:6 #
-4.6875340925264701530742516362571e-19 5:1 6:14 7:4 13:2 14:16 15:8 21:8 22:16 23:6 29:15 30:16 31:5 36:8 37:16 38:16 39:3 43:6 44:16 45:9 46:16 50:2 51:16 52:8 53:4 54:16 58:2 59:4 61:2 62:15 63:3 #
-2.2911653302796943972102951883314e-18 3:3 4:11 5:15 6:15 7:4 10:2 11:14 12:8 13:4 14:15 15:5 18:7 19:11 20:1 21:13 22:15 23:1 26:1 27:11 28:12 29:13 30:16 31:5 37:8 38:12 44:3 45:15 46:2 52:11 53:7 60:13 61:4 #
2.3358562905509744103187754129981e-18 3:2 4:14 5:11 6:8 7:12 8:1 11:8 12:10 13:9 14:14 15:14 19:10 20:1 22:12 23:4 27:1 28:2 29:7 30:13 31:1 35:1 36:15 37:16 38:16 39:5 44:3 45:13 46:2 52:9 53:7 60:15 61:4 #
-6.0342311121992567868425084131896e-19 2:3 3:16 4:15 5:7 10:5 11:16 12:16 13:16 14:13 15:2 19:7 20:8 21:10 22:16 23:6 29:2 30:16 31:4 37:4 38:16 39:1 45:12 46:9 51:4 52:11 53:15 54:3 58:2 59:15 60:12 61:3 #
-1.2869593392628233253775355937037e-18 3:1 4:8 5:13 6:12 7:1 10:1 11:15 12:8 13:4 14:14 15:6 18:6 19:10 21:1 22:10 23:8 26:7 27:12 28:5 29:11 30:16 31:7 34:2 35:11 36:12 37:10 38:16 39:2 45:9 46:10 52:4 53:16 54:1 60:12 61:7 #
1.0693161219366762936255792126385e-18 3:5 4:12 5:15 6:14 7:10 8:3 11:4 12:7 13:4 14:5 15:14 16:3 22:9 23:11 29:4 30:16 31:4 34:2 35:8 36:9 37:16 38:10 42:3 43:12 44:16 45:9 51:5 52:14 59:6 60:9 #
-9.9748468256553767186937264476706e-19 4:9 5:9 11:7 12:15 13:3 19:11 20:8 27:14 28:4 29:2 30:3 35:12 36:12 37:16 38:12 39:10 43:9 44:14 45:8 47:8 48:4 51:4 52:9 53:1 54:2 55:14 56:5 60:6 61:11 62:14 63:8 #
-5.2442085471123967040384726087393e-19 5:12 6:3 12:2 13:15 20:9 21:9 27:3 28:15 30:3 31:10 34:1 35:14 36:3 38:14 39:6 42:10 43:16 44:15 45:13 46:16 47:1 50:9 51:10 52:8 53:14 54:11 61:12 62:2 #
-4.7754980342482725033921682365694e-19 3:1 4:9 5:16 6:13 7:1 11:13 12:9 13:5 14:14 15:8 18:3 19:14 22:13 23:12 26:2 27:15 28:12 29:16 30:16 31:3 35:3 36:8 37:11 38:12 44:3 45:14 46:2 52:12 53:9 59:1 60:15 61:3 #
-7.9984212623204580889325666720587e-19 3:6 4:15 5:16 6:12 7:1 10:3 11:16 12:9 13:8 14:15 15:7 18:3 19:3 22:15 23:6 29:6 30:15 31:2 36:1 37:15 38:6 43:1 44:12 45:10 51:8 52:16 53:13 54:13 55:6 59:6 60:14 61:12 62:4 #
-1.7359065268796899610700812392508e-19 2:3 3:15 4:15 5:8 6:9 10:7 11:14 12:11 13:16 14:16 15:6 18:2 19:16 20:2 21:7 22:15 23:3 27:8 28:14 29:16 30:5 35:7 36:16 37:6 42:1 43:15 44:14 45:8 50:6 51:14 52:14 53:7 58:3 59:16 60:15 61:2 #
1.4190995298104633839143885650765e-19 3:9 4:16 5:6 11:15 12:10 13:15 14:2 19:5 20:2 21:16 22:2 27:2 28:7 29:16 30:3 34:7 35:16 36:16 37:16 38:16 39:8 42:1 43:5 44:14 45:6 47:1 51:9 52:12 59:10 60:8 #
-8.5459640330989745526354031512071e-20 3:3 4:16 5:3 11:11 12:13 13:1 14:1 18:6 19:14 20:2 21:9 22:12 26:9 27:12 29:14 30:5 31:1 34:7 35:16 36:12 37:16 38:16 39:11 43:6 44:11 45:15 46:5 47:1 52:11 53:10 59:3 60:16 61:4 #
-1.6045323926113878879379142281143e-19 3:2 4:15 5:12 11:3 12:16 13:14 14:10 20:5 21:13 22:16 23:2 30:12 31:8 38:7 39:11 46:7 47:13 51:2 53:2 54:11 55:11 59:3 60:13 61:15 62:16 63:6 #
-2.7820433375404527687954802435764e-19 4:2 5:12 6:13 7:8 8:1 11:3 12:12 13:5 14:14 15:16 16:2 19:11 20:1 22:12 23:14 26:2 27:11 28:3 29:7 30:14 31:3 34:3 35:15 36:11 37:5 38:10 45:9 46:6 52:1 53:14 54:2 61:14 62:1 #
-2.8878949437509836221672459583119e-19 4:7 5:11 12:11 13:5 14:2 19:3 20:14 21:3 22:14 27:8 28:6 29:7 30:7 34:1 35:15 36:4 37:12 38:9 39:4 42:5 43:16 44:16 45:16 46:15 47:8 50:1 51:1 52:6 53:10 60:10 61:9 #
-2.2000947751087864570023457805754e-19 3:8 4:13 5:15 6:10 7:3 11:13 12:15 13:12 14:12 15:9 18:3 19:14 20:7 26:7 27:8 28:4 29:2 34:2 35:16 36:16 37:15 43:1 44:5 45:13 52:10 53:6 59:6 60:13 61:1 #
-5.7923580039410878200509368277809e-20 3:2 4:16 5:10 11:6 12:16 13:16 14:4 19:2 20:15 21:16 22:7 28:11 29:16 30:4 36:15 37:16 38:3 44:13 45:15 51:1 52:16 53:13 59:2 60:15 61:11 #
-6.2643535967861740892693707961736e-20 2:1 3:6 4:11 5:16 6:6 11:5 12:13 13:11 14:16 15:6 19:4 20:16 21:8 27:5 28:15 34:1 35:13 36:10 37:4 42:6 43:10 44:4 45:8 50:8 51:7 52:12 53:7 58:2 59:13 60:14 #
-2.9593848588282197970668967367648e-20 4:5 5:8 11:4 12:16 13:2 15:14 19:9 20:8 22:8 23:8 26:2 27:15 29:1 30:15 34:10 35:9 36:4 37:9 38:15 39:1 42:11 43:16 44:16 45:16 46:11 47:1 50:3 51:4 52:7 53:9 60:8 61:5 #
