SVM-light Version V6.02
0 # kernel type
3 # kernel parameter -d 
1 # kernel parameter -g 
1 # kernel parameter -s 
1 # kernel parameter -r 
empty# kernel parameter -u 
64 # highest feature index 
2823 # number of training documents 
379 # number of support vectors plus 1 
3.1641328 # threshold b, each following line is a SV (starting with alpha*y)
-0.00025891163206971532168357286174398 3:7 4:13 5:16 6:8 10:9 11:16 12:12 13:8 14:16 15:2 18:4 19:7 21:6 22:15 23:1 27:4 28:13 29:16 30:8 35:6 36:13 37:15 38:16 39:3 45:2 46:11 47:12 51:7 52:8 53:4 54:14 55:12 59:10 60:16 61:16 62:14 63:4 #
-0.00025891163206971532168357286174398 4:13 5:7 10:5 11:14 12:16 13:16 14:8 18:12 19:10 21:6 22:16 26:2 27:14 28:12 29:5 30:16 31:3 36:11 37:16 38:11 43:2 44:15 45:9 46:16 47:5 51:10 52:14 53:4 54:13 55:12 59:1 60:9 61:14 62:16 63:11 #
-0.00025891163206971532168357286174398 4:7 5:12 7:12 8:5 11:8 12:14 13:1 14:7 15:14 18:1 19:16 20:5 22:14 23:6 26:5 27:16 28:12 29:13 30:16 31:10 34:3 35:15 36:15 37:16 38:13 39:5 44:4 45:15 46:1 52:9 53:10 60:11 61:4 #
0.00025891163206971532168357286174398 3:3 4:11 5:13 6:8 10:1 11:14 12:5 13:1 14:12 15:3 18:4 19:12 22:8 23:11 26:1 27:15 28:6 29:4 30:15 31:4 35:2 36:8 37:10 38:14 39:4 46:11 47:4 52:2 53:2 54:11 55:4 59:2 60:14 61:11 62:7 63:1 #
-0.00025891163206971532168357286174398 3:2 4:11 5:9 11:12 12:7 13:8 14:8 18:6 19:16 20:3 21:9 22:11 26:1 27:13 28:16 29:16 30:14 31:2 35:4 36:16 37:8 38:10 39:5 43:8 44:11 46:4 47:6 51:10 52:9 54:8 55:5 59:3 60:11 61:12 62:6 #
0.00025891163206971532168357286174398 3:2 4:14 5:15 6:8 11:8 12:10 13:3 14:15 15:1 19:5 20:11 21:1 22:15 23:4 28:12 29:15 30:16 31:5 37:2 38:8 39:6 42:1 43:3 46:7 47:5 50:1 51:12 52:4 54:10 55:7 59:4 60:14 61:14 62:13 63:1 #
7.8934853383770347233505670914155e-05 3:8 4:14 5:5 10:8 11:13 12:5 13:14 14:5 18:8 19:13 20:2 21:5 22:14 23:3 26:4 27:16 28:14 29:15 30:16 31:8 35:2 36:5 37:7 38:10 39:7 45:3 46:15 47:3 52:4 53:14 54:10 59:10 60:13 61:6 #
-0.00025891163206971532168357286174398 3:5 4:14 5:16 6:10 11:15 12:15 13:14 14:13 19:4 20:3 21:15 22:8 27:1 28:16 29:16 30:15 31:2 35:1 36:7 37:6 38:16 39:6 44:1 46:14 47:6 51:2 52:15 53:12 54:14 55:1 59:7 60:16 61:12 62:1 #
0.00025891163206971532168357286174398 3:2 4:13 5:13 6:4 11:12 12:13 13:11 14:14 19:9 20:13 21:13 22:14 23:1 28:4 29:8 30:13 31:3 38:7 39:9 46:3 47:13 51:14 52:6 54:6 55:12 59:2 60:12 61:16 62:16 63:7 #
0.00025891163206971532168357286174398 4:5 5:12 6:15 7:7 11:3 12:14 13:4 14:13 15:6 19:4 20:13 22:14 23:7 28:13 29:14 30:16 31:8 37:3 38:8 39:8 42:1 43:3 46:10 47:8 50:5 51:16 52:7 54:12 55:4 59:2 60:6 61:13 62:15 63:1 #
-0.00025891163206971532168357286174398 5:3 6:16 7:6 12:5 13:15 14:16 15:9 18:1 19:10 20:16 21:15 22:16 23:8 26:10 27:16 28:12 29:2 30:16 31:5 34:1 35:6 37:4 38:16 39:4 45:5 46:16 47:1 53:6 54:16 55:3 61:3 62:16 63:9 #
-0.00025891163206971532168357286174398 5:7 6:15 13:10 14:16 15:1 19:2 20:11 21:16 22:16 26:7 27:16 28:14 29:11 30:16 31:3 34:1 35:2 37:8 38:16 39:3 45:4 46:16 47:4 53:4 54:16 55:3 61:6 62:15 63:2 #
-0.00025891163206971532168357286174398 3:1 4:12 5:16 6:16 7:11 11:5 12:15 13:8 14:8 15:5 18:2 19:15 20:15 21:12 22:7 26:11 27:16 28:16 29:16 30:16 31:4 34:3 35:5 36:2 37:1 38:13 39:9 46:11 47:9 51:2 52:10 53:9 54:16 55:4 59:2 60:16 61:16 62:8 #
-0.00025891163206971532168357286174398 3:2 4:11 5:15 6:8 11:14 12:13 13:13 14:8 19:14 20:8 21:8 22:4 27:7 28:16 29:16 30:14 31:2 35:1 36:4 37:1 38:13 39:6 46:7 47:13 51:10 52:7 53:2 54:7 55:12 59:2 60:10 61:14 62:16 63:7 #
-0.00025891163206971532168357286174398 3:3 4:10 5:14 6:15 7:3 11:15 12:16 13:14 14:11 15:1 18:3 19:16 20:11 21:8 22:2 26:3 27:16 28:16 29:16 30:13 38:15 39:7 43:1 46:10 47:7 51:14 52:13 53:9 54:16 55:4 59:4 60:13 61:15 62:7 #
0.00025891163206971532168357286174398 2:1 3:10 4:16 5:16 6:14 7:6 10:11 11:16 12:7 13:4 14:16 15:10 18:9 19:16 20:10 21:10 22:16 23:4 27:5 28:12 29:16 30:3 36:7 37:16 44:13 45:15 51:6 52:16 53:7 58:2 59:15 60:10 #
0.00025891163206971532168357286174398 3:11 4:16 5:12 6:5 10:4 11:16 12:11 13:16 14:16 15:3 18:4 19:16 20:11 21:16 22:14 27:10 28:16 29:16 30:6 36:15 37:14 43:7 44:16 45:5 51:15 52:13 59:12 60:11 #
0.00025891163206971532168357286174398 3:2 4:12 5:14 6:5 10:2 11:15 12:6 13:8 14:14 15:6 18:5 19:9 21:5 22:16 23:4 26:5 27:9 28:4 29:15 30:12 35:14 36:13 37:16 38:5 44:4 45:12 52:11 53:5 59:2 60:15 61:4 #
0.00025891163206971532168357286174398 3:2 4:14 5:16 6:15 7:9 10:1 11:14 12:11 13:5 14:9 15:14 18:4 19:14 21:3 22:12 23:11 26:6 27:13 28:9 29:15 30:15 31:1 34:2 35:13 36:15 37:15 38:11 44:4 45:15 51:1 52:13 53:11 59:3 60:16 61:5 #
0.00025891163206971532168357286174398 3:9 4:16 5:16 6:10 7:1 10:10 11:16 12:9 13:4 14:16 15:4 18:13 19:12 21:8 22:14 23:5 26:7 27:16 28:15 29:16 30:12 35:1 36:4 37:15 38:13 44:10 45:16 46:6 51:5 52:16 53:10 59:9 60:16 61:1 #
0.00025891163206971532168357286174398 3:8 4:15 5:7 10:2 11:16 12:6 13:9 14:3 18:4 19:14 20:1 21:12 22:10 27:8 28:16 29:16 30:15 38:14 46:8 47:7 50:1 51:8 52:4 53:1 54:4 55:13 59:5 60:13 61:16 62:16 63:13 #
-0.00025891163206971532168357286174398 3:9 4:13 5:13 6:9 7:1 11:16 12:9 13:4 14:14 15:6 19:2 21:8 22:13 28:10 29:16 30:7 36:2 37:6 38:15 39:4 46:8 47:8 50:6 51:4 53:2 54:15 55:4 58:2 59:10 60:15 61:15 62:7 #
-0.00025891163206971532168357286174398 3:6 4:9 5:13 6:11 7:2 10:7 11:16 12:16 13:16 14:16 15:3 18:8 19:16 20:10 21:6 26:5 27:16 28:16 29:16 30:13 31:1 36:3 37:6 38:16 39:4 42:3 46:12 47:5 50:5 51:16 52:9 53:8 54:14 55:6 59:5 60:10 61:12 62:10 #
-0.00025891163206971532168357286174398 3:8 4:16 5:16 6:15 10:3 11:16 12:9 13:8 14:16 15:4 18:9 19:8 21:6 22:16 23:2 26:1 27:8 28:13 29:16 30:16 31:5 35:15 36:12 37:16 38:13 39:8 44:9 45:15 46:1 51:2 52:16 53:4 59:11 60:11 #
-0.00025891163206971532168357286174398 3:6 4:13 5:12 6:4 10:2 11:16 12:9 13:12 14:13 19:9 21:13 22:10 28:6 29:16 30:4 37:8 38:14 39:1 46:14 47:9 51:4 52:9 53:5 54:10 55:13 59:7 60:12 61:13 62:12 63:5 #
0.00025891163206971532168357286174398 3:11 4:11 5:2 11:12 12:14 13:15 14:2 19:10 20:8 21:6 22:16 27:7 28:13 29:7 30:16 31:2 36:11 37:12 38:14 39:5 46:8 47:10 51:7 52:10 53:10 54:14 55:15 59:7 60:12 61:16 62:16 63:12 64:1 #
0.00025891163206971532168357286174398 3:4 4:16 5:13 11:14 12:9 13:15 18:5 19:14 20:2 21:16 22:6 26:9 27:12 28:7 29:15 30:10 34:3 35:16 36:15 37:9 38:16 39:1 43:4 45:1 46:14 47:5 52:6 53:6 54:12 55:7 59:2 60:16 61:16 62:13 63:1 #
0.00025891163206971532168357286174398 3:2 4:15 5:12 6:1 11:7 12:15 13:15 14:9 19:5 20:15 21:7 22:16 23:2 27:1 28:13 29:14 30:16 31:7 36:4 37:13 38:15 39:10 46:14 47:11 52:1 53:8 54:16 55:10 59:2 60:13 61:16 62:15 63:3 #
0.00025891163206971532168357286174398 2:1 3:14 4:13 5:4 10:6 11:15 12:11 13:15 18:8 19:14 20:9 21:16 22:4 26:2 27:8 28:11 29:15 30:6 37:7 38:13 39:1 46:11 47:10 51:10 52:4 54:3 55:15 59:10 60:14 61:16 62:16 63:15 #
0.00025891163206971532168357286174398 3:1 4:11 5:3 11:13 12:15 13:13 18:3 19:16 20:2 21:8 22:5 26:6 27:16 28:14 29:15 30:14 31:2 34:2 35:14 36:16 37:16 38:16 39:5 43:1 44:4 45:3 46:9 47:6 51:4 52:6 53:10 54:16 55:5 59:1 60:11 61:10 62:4 #
-0.00025891163206971532168357286174398 3:6 4:14 5:15 6:1 11:11 12:12 13:4 19:15 20:10 21:4 22:1 27:13 28:13 29:14 30:12 31:1 38:10 39:10 46:4 47:14 52:2 53:1 54:9 55:14 59:6 60:16 61:16 62:16 63:6 #
-0.00025891163206971532168357286174398 3:8 4:15 5:14 6:1 11:15 12:15 13:7 19:14 20:15 21:9 22:2 27:10 28:15 29:14 30:14 31:3 35:1 36:1 38:11 39:12 46:3 47:16 48:1 50:2 51:14 52:6 53:4 54:7 55:16 56:3 59:9 60:16 61:16 62:16 63:13 64:1 #
-0.00025891163206971532168357286174398 2:2 3:6 4:11 5:8 10:9 11:16 12:14 13:5 18:9 19:16 20:12 21:8 22:2 26:8 27:15 28:8 29:11 30:13 31:1 38:8 39:10 46:5 47:14 51:6 52:6 53:4 54:8 55:14 59:5 60:15 61:16 62:15 63:7 #
-0.00025891163206971532168357286174398 3:6 4:16 5:13 6:2 10:1 11:11 12:16 13:15 14:3 18:11 19:16 20:16 21:16 22:2 26:6 27:11 28:11 29:16 30:12 31:1 36:1 37:14 38:16 39:7 45:6 46:16 47:13 53:7 54:16 55:16 56:3 59:2 60:12 61:16 62:15 63:8 64:1 #
0.00025891163206971532168357286174398 4:8 5:12 6:15 7:6 11:8 12:16 13:6 14:5 15:14 19:14 20:15 21:12 22:16 23:13 27:3 28:6 29:7 30:15 31:8 37:1 38:15 39:2 45:10 46:9 52:4 53:13 54:1 60:11 61:2 #
0.00025891163206971532168357286174398 2:1 3:10 4:16 5:16 6:15 7:2 10:9 11:16 12:11 13:4 14:16 15:11 18:6 19:16 20:15 21:12 22:16 23:7 27:4 28:9 29:16 30:14 31:1 36:1 37:15 38:8 44:13 45:15 46:2 51:9 52:16 53:5 58:3 59:16 60:7 #
0.00025891163206971532168357286174398 3:6 4:15 5:16 6:16 7:11 10:2 11:16 12:11 13:7 14:15 15:16 16:3 18:2 19:15 20:16 21:16 22:16 23:13 27:5 28:11 29:16 30:12 31:1 36:8 37:16 38:4 44:12 45:11 51:5 52:16 53:4 59:10 60:14 #
0.00025891163206971532168357286174398 3:3 4:11 5:16 6:16 7:14 8:1 11:12 12:10 13:4 14:7 15:15 19:7 20:14 21:15 22:16 23:4 29:7 30:12 36:1 37:14 38:4 44:5 45:13 52:12 53:7 59:2 60:14 #
0.00025891163206971532168357286174398 2:1 3:9 4:16 5:16 6:14 7:2 10:11 11:16 12:7 13:5 14:16 15:6 18:16 19:14 20:10 21:16 22:16 23:4 26:4 27:8 28:10 29:16 30:13 35:1 36:13 37:13 38:1 43:6 44:16 45:6 51:12 52:10 59:11 60:11 #
0.00025891163206971532168357286174398 3:7 4:13 5:16 6:11 7:4 10:1 11:16 12:5 13:2 14:13 15:12 18:4 19:14 21:4 22:15 23:4 26:2 27:15 28:13 29:16 30:8 35:1 36:8 37:15 38:1 43:1 44:13 45:5 51:9 52:10 59:12 60:6 #
-0.00025891163206971532168357286174398 3:6 4:14 7:12 8:6 11:15 12:13 14:6 15:16 16:6 18:2 19:16 20:12 21:4 22:16 23:12 26:1 27:14 28:16 29:16 30:16 31:7 35:1 36:8 37:16 38:7 44:12 45:16 46:2 51:3 52:16 53:6 59:7 60:15 #
-0.00025891163206971532168357286174398 2:1 3:15 4:8 6:1 7:2 10:8 11:16 12:8 14:12 15:15 18:7 19:16 20:11 21:10 22:16 23:7 26:2 27:15 28:16 29:16 30:16 31:2 35:2 36:12 37:16 38:9 43:1 44:16 45:12 51:10 52:15 53:1 59:12 60:11 #
-0.00025891163206971532168357286174398 3:6 4:11 11:13 12:7 14:5 15:16 16:2 18:1 19:16 20:7 21:11 22:16 23:9 27:6 28:12 29:16 30:11 36:7 37:14 38:2 44:14 45:8 51:6 52:16 53:2 59:9 60:13 #
-0.00025891163206971532168357286174398 3:7 4:13 7:3 8:8 11:15 12:7 14:3 15:15 16:7 19:16 20:12 21:6 22:14 23:9 27:6 28:12 29:16 30:12 36:2 37:14 38:2 44:9 45:9 51:2 52:13 53:1 59:8 60:5 #
-0.00025891163206971532168357286174398 3:8 4:11 7:13 8:9 10:3 11:15 12:6 14:12 15:13 16:1 18:3 19:16 20:5 21:7 22:16 23:5 27:12 28:16 29:16 30:16 31:8 35:1 36:11 37:13 38:4 43:1 44:15 45:4 51:7 52:13 59:11 60:5 #
0.00025891163206971532168357286174398 3:13 4:16 5:10 10:3 11:16 12:11 13:16 14:5 19:15 20:13 21:15 22:13 27:5 28:12 29:11 30:16 31:2 38:14 39:10 46:5 47:16 51:7 52:8 53:11 54:13 55:16 56:2 59:15 60:16 61:16 62:16 63:11 #
0.00025891163206971532168357286174398 3:4 4:14 5:5 11:12 12:15 13:14 19:12 20:8 21:15 22:9 27:5 28:16 29:15 30:16 31:4 37:6 38:12 39:10 46:5 47:15 51:3 52:8 53:4 54:9 55:16 56:4 59:5 60:12 61:15 62:12 63:11 #
0.00025891163206971532168357286174398 3:2 4:15 5:12 11:3 12:16 13:14 14:10 20:5 21:13 22:16 23:2 30:12 31:8 38:7 39:11 46:7 47:13 51:2 53:2 54:11 55:11 59:3 60:13 61:15 62:16 63:6 #
0.00025891163206971532168357286174398 2:1 3:10 4:15 5:9 10:5 11:16 12:8 13:16 14:7 18:5 19:14 21:12 22:9 26:1 27:12 28:13 29:16 30:16 31:2 35:1 36:9 37:12 38:14 39:7 46:4 47:13 51:14 52:12 53:8 54:11 55:16 59:7 60:16 61:16 62:16 63:9 #
0.00025891163206971532168357286174398 3:10 4:15 5:9 6:1 10:5 11:16 12:10 13:16 14:9 18:7 19:10 21:14 22:10 26:3 27:15 28:7 29:12 30:15 31:1 35:4 36:11 37:14 38:16 39:4 46:12 47:11 51:11 52:9 53:5 54:12 55:13 59:10 60:12 61:12 62:15 63:11 #
-0.00025891163206971532168357286174398 3:9 4:16 5:15 6:4 11:12 12:14 13:12 14:16 15:1 20:10 21:16 22:14 27:2 28:16 29:16 30:10 31:1 36:4 37:8 38:13 39:13 46:4 47:16 48:2 51:9 52:6 53:9 54:15 55:15 59:10 60:16 61:16 62:14 63:3 #
-0.00025891163206971532168357286174398 3:9 4:16 5:15 6:5 11:4 12:7 13:12 14:15 20:1 21:9 22:16 23:3 28:10 29:16 30:13 36:3 37:8 38:15 39:9 46:7 47:14 51:10 52:7 53:4 54:10 55:16 56:1 59:7 60:16 61:16 62:16 63:10 #
-0.00025891163206971532168357286174398 3:10 4:16 5:15 6:6 12:4 13:16 14:15 21:14 22:13 29:14 30:16 31:3 37:3 38:15 39:12 45:1 46:15 47:15 52:2 53:12 54:16 55:8 59:7 60:15 61:15 62:7 #
-0.00025891163206971532168357286174398 3:9 4:16 5:16 6:7 11:8 12:9 13:11 14:16 15:1 20:2 21:13 22:16 23:1 28:13 29:16 30:6 36:3 37:13 38:13 39:2 45:1 46:13 47:9 51:4 52:2 53:1 54:12 55:13 59:11 60:16 61:16 62:16 63:11 #
8.8105318079760661792443343642844e-05 2:1 3:10 4:15 5:8 10:4 11:16 12:10 13:13 14:14 15:1 18:8 19:16 21:10 22:16 23:4 26:1 27:16 28:12 29:15 30:16 31:4 35:2 36:11 37:10 38:16 39:6 46:16 47:6 51:12 52:11 53:11 54:16 55:4 59:7 60:12 61:12 62:7 #
0.00025891163206971532168357286174398 3:3 4:14 5:16 6:13 7:6 11:13 12:7 13:1 14:13 15:16 16:1 19:12 20:5 22:10 23:12 27:8 28:14 29:12 30:14 31:2 36:4 37:14 38:6 44:5 45:13 52:13 53:6 59:2 60:11 #
0.00025891163206971532168357286174398 5:8 6:16 7:11 12:13 13:9 14:8 15:14 16:1 19:10 20:8 22:5 23:16 24:4 26:2 27:15 28:8 29:14 30:14 31:12 34:2 35:12 36:9 37:2 38:10 39:6 45:2 46:14 53:9 54:7 61:13 62:1 #
0.00025891163206971532168357286174398 3:2 4:15 5:16 6:12 7:2 11:13 12:12 13:4 14:12 15:12 18:6 19:16 20:1 21:3 22:13 23:12 26:11 27:16 28:15 29:16 30:16 31:9 34:1 35:7 36:9 37:16 38:11 44:9 45:15 46:1 52:14 53:10 59:4 60:16 61:3 #
0.00025891163206971532168357286174398 4:1 5:10 6:16 7:6 11:3 12:14 13:8 14:6 15:16 16:6 19:11 20:4 22:6 23:16 24:2 26:4 27:12 28:2 29:5 30:16 31:11 34:6 35:16 36:15 37:8 38:15 39:4 45:4 46:9 53:10 54:4 60:1 61:13 62:1 #
0.00025891163206971532168357286174398 4:5 5:12 6:11 7:1 11:3 12:14 13:6 14:7 15:11 18:5 19:16 20:2 21:1 22:9 23:9 26:8 27:14 28:8 29:14 30:16 31:1 34:1 35:7 36:8 37:13 38:10 44:1 45:14 46:4 52:5 53:13 60:11 61:7 #
-0.00025891163206971532168357286174398 4:11 5:16 6:2 7:7 11:7 12:16 13:7 14:10 15:13 18:2 19:16 20:7 21:4 22:16 23:9 26:6 27:16 28:13 29:12 30:16 31:15 34:1 35:11 36:16 37:16 38:12 39:3 44:2 45:16 46:2 52:7 53:12 60:11 61:9 #
-0.00025891163206971532168357286174398 2:1 3:8 4:16 5:16 6:15 7:3 10:4 11:15 12:9 13:6 14:4 18:7 19:15 20:12 21:8 22:1 26:8 27:15 28:12 29:14 30:15 31:1 34:1 35:2 37:1 38:14 39:8 46:12 47:8 51:12 52:6 53:7 54:15 55:3 59:10 60:16 61:11 62:3 #
-0.00025891163206971532168357286174398 4:6 5:15 6:1 11:6 12:16 13:8 14:3 15:7 18:1 19:16 20:12 22:12 23:11 26:5 27:16 28:16 29:13 30:16 31:12 34:3 35:12 36:15 37:16 38:16 39:7 45:14 46:10 52:3 53:16 54:3 60:8 61:14 62:1 #
-0.00025891163206971532168357286174398 4:9 5:14 11:5 12:16 13:4 14:4 15:9 18:4 19:16 20:3 22:13 23:9 26:6 27:16 28:15 29:12 30:16 31:13 35:8 36:11 37:15 38:14 39:3 45:16 46:5 52:6 53:13 60:9 61:10 #
-0.00025891163206971532168357286174398 4:6 5:16 6:1 11:3 12:16 13:8 14:4 15:15 18:1 19:14 20:11 22:10 23:14 26:9 27:16 28:13 29:12 30:16 31:12 34:3 35:12 36:11 37:12 38:16 39:6 45:12 46:12 47:1 52:2 53:16 54:6 60:7 61:13 62:1 #
0.00025891163206971532168357286174398 2:3 3:12 4:15 5:9 6:1 10:3 11:16 12:8 13:13 14:10 19:11 20:12 21:12 22:12 27:3 28:15 29:16 30:12 37:6 38:14 39:1 46:15 47:6 50:7 51:14 52:7 53:4 54:15 55:7 58:3 59:9 60:12 61:15 62:9 #
0.00025891163206971532168357286174398 2:1 3:14 4:16 5:14 6:4 10:3 11:16 12:8 13:8 14:14 19:15 20:14 21:13 22:9 27:3 28:11 29:16 30:4 37:12 38:12 45:4 46:16 47:3 51:3 52:4 53:3 54:16 55:1 59:12 60:14 61:16 62:14 63:1 #
0.00025891163206971532168357286174398 3:9 4:16 5:12 6:1 10:3 11:16 12:10 13:15 14:9 18:3 19:16 20:4 21:11 22:16 23:1 27:12 28:16 29:16 30:15 31:7 36:3 37:2 38:6 39:14 43:6 46:3 47:16 48:1 50:1 51:16 52:7 53:4 54:9 55:16 59:8 60:16 61:16 62:16 63:8 #
0.00025891163206971532168357286174398 3:5 4:16 5:13 6:1 11:12 12:14 13:15 14:5 19:12 20:10 21:16 22:7 27:3 28:15 29:16 30:12 37:2 38:15 39:2 46:8 47:9 50:2 51:12 52:8 53:8 54:13 55:12 58:1 59:6 60:10 61:12 62:12 63:2 #
0.00025891163206971532168357286174398 2:1 3:10 4:10 5:6 10:4 11:15 12:11 13:15 14:7 18:2 19:14 20:1 21:11 22:14 27:11 28:16 29:16 30:16 38:16 39:3 46:11 47:8 50:2 51:8 52:8 53:8 54:12 55:12 58:2 59:12 60:12 61:16 62:13 63:5 #
-0.00025891163206971532168357286174398 3:1 4:8 5:14 6:16 7:12 11:10 12:15 13:13 14:16 15:12 18:1 19:12 20:3 21:9 22:15 23:1 28:8 29:16 30:8 36:8 37:16 38:16 39:4 44:1 45:8 46:16 47:6 52:5 53:15 54:12 55:1 60:13 61:10 62:1 #
-0.00025891163206971532168357286174398 2:2 3:8 4:15 5:15 6:3 10:11 11:16 12:12 13:15 14:12 18:4 19:7 21:10 22:14 29:8 30:16 37:7 38:16 39:2 45:1 46:15 47:8 51:1 52:6 53:11 54:16 55:7 59:8 60:16 61:10 62:5 #
-0.00025891163206971532168357286174398 3:4 4:14 5:11 6:1 10:4 11:16 12:12 13:10 14:8 18:9 19:14 20:1 21:7 22:7 26:1 27:2 29:15 30:9 37:7 38:15 39:2 46:5 47:11 51:12 52:3 53:4 54:10 55:11 59:6 60:15 61:15 62:11 63:1 #
-0.00025891163206971532168357286174398 3:8 4:16 5:16 6:15 7:1 11:16 12:14 13:14 14:11 18:4 19:16 20:16 21:13 22:4 26:3 27:14 28:12 29:14 30:15 31:1 38:15 39:6 45:1 46:14 47:7 51:15 52:12 53:14 54:13 59:11 60:16 61:13 62:2 #
0.00025891163206971532168357286174398 4:9 5:16 6:10 11:3 12:15 13:12 14:15 15:4 18:1 19:12 20:14 21:1 22:15 23:11 26:8 27:16 28:12 29:14 30:16 31:7 34:7 35:16 36:16 37:16 38:12 43:7 44:8 45:16 46:5 52:8 53:13 60:9 61:11 #
0.00025891163206971532168357286174398 4:7 5:16 6:16 7:5 11:8 12:15 13:6 14:13 15:11 18:2 19:15 20:5 22:13 23:10 26:10 27:16 28:10 29:13 30:16 31:11 34:2 35:11 36:16 37:16 38:16 39:6 44:1 45:16 46:8 52:7 53:16 54:1 60:10 61:12 #
0.00025891163206971532168357286174398 4:2 5:12 6:13 7:8 8:1 11:3 12:12 13:5 14:14 15:16 16:2 19:11 20:1 22:12 23:14 26:2 27:11 28:3 29:7 30:14 31:3 34:3 35:15 36:11 37:5 38:10 45:9 46:6 52:1 53:14 54:2 61:14 62:1 #
0.00025891163206971532168357286174398 3:2 4:10 5:16 6:13 7:1 10:8 11:16 12:15 13:5 14:12 15:6 18:10 19:16 20:10 22:7 23:10 26:12 27:16 28:12 29:10 30:16 31:8 34:3 35:12 36:16 37:16 38:12 44:5 45:16 46:4 52:7 53:15 60:11 61:11 #
-0.00025891163206971532168357286174398 4:1 5:13 6:13 11:5 12:15 13:15 14:16 18:3 19:15 20:8 21:7 22:14 26:11 27:15 28:9 29:15 30:16 31:9 34:8 35:16 36:14 37:15 38:15 39:5 45:12 46:8 53:12 54:6 61:12 62:4 #
-0.00025891163206971532168357286174398 4:1 5:13 6:12 7:3 11:6 12:13 13:11 14:12 15:10 18:6 19:16 20:11 21:4 22:13 23:7 26:8 27:16 28:16 29:16 30:16 31:10 35:4 36:4 37:7 38:16 39:5 45:12 46:8 53:13 54:7 61:15 62:4 #
-0.00025891163206971532168357286174398 4:5 5:14 6:16 7:16 8:5 11:10 12:16 13:15 14:16 15:16 16:7 18:4 19:15 20:6 21:1 22:16 23:12 27:2 29:5 30:16 31:7 37:4 38:16 39:2 45:6 46:16 47:1 52:2 53:15 54:14 60:3 61:15 62:7 #
-0.00025891163206971532168357286174398 4:1 5:7 6:15 7:5 11:5 12:13 13:16 14:16 15:8 18:4 19:15 20:11 21:5 22:16 23:7 26:1 27:4 29:3 30:16 31:4 37:4 38:16 45:8 46:16 53:12 54:16 61:12 62:12 #
0.00025891163206971532168357286174398 3:11 4:16 5:10 6:1 11:16 12:8 13:11 14:13 15:1 19:13 20:7 21:7 22:16 23:1 27:4 28:13 29:14 30:16 31:1 38:15 39:4 46:8 47:11 50:1 51:7 52:4 53:5 54:14 55:12 59:8 60:15 61:14 62:11 63:3 #
0.00025891163206971532168357286174398 3:5 4:12 5:13 6:1 11:7 12:16 13:16 14:10 19:1 20:13 21:16 22:13 29:10 30:15 37:9 38:15 43:2 44:5 45:15 46:12 51:11 52:16 53:16 54:7 59:4 60:13 61:9 #
0.00025891163206971532168357286174398 3:2 4:15 5:11 6:1 11:6 12:16 13:16 14:14 19:3 20:15 21:16 22:16 23:5 28:5 29:7 30:11 31:9 38:13 39:13 45:1 46:16 47:8 52:2 53:13 54:16 55:5 59:5 60:15 61:16 62:6 #
0.00025891163206971532168357286174398 2:1 3:13 4:16 5:8 6:1 10:8 11:14 12:10 13:16 14:8 18:11 19:14 20:15 21:16 22:9 27:8 28:7 29:6 30:16 31:4 38:16 39:4 43:1 46:14 47:8 50:3 51:16 52:2 53:10 54:15 55:1 58:2 59:13 60:16 61:12 62:1 #
0.00025891163206971532168357286174398 4:9 5:12 6:5 12:16 13:9 14:15 15:2 20:16 21:6 22:16 23:4 28:4 29:16 30:16 31:8 37:2 38:15 39:4 46:10 47:7 51:16 52:11 53:3 54:13 55:4 59:3 60:6 61:13 62:15 63:2 #
-0.00025891163206971532168357286174398 3:10 4:14 5:12 10:2 11:16 12:8 13:3 18:5 19:16 20:12 21:11 22:1 26:2 27:12 28:9 29:10 30:13 31:1 38:12 39:6 46:4 47:12 50:2 51:14 52:4 53:4 54:13 55:9 59:10 60:14 61:15 62:11 63:1 #
-0.00025891163206971532168357286174398 3:2 4:14 5:14 6:4 11:15 12:16 13:16 14:15 15:1 18:6 19:14 20:16 21:5 22:12 23:6 26:2 27:11 28:12 30:6 31:8 35:12 36:4 38:9 39:6 43:11 44:5 46:12 47:3 51:8 52:12 53:11 54:15 55:2 59:1 60:12 61:10 62:2 #
-0.00025891163206971532168357286174398 3:5 4:15 5:2 11:15 12:16 13:16 14:13 15:2 18:4 19:16 20:16 21:14 22:16 23:8 26:7 27:12 30:8 31:8 34:4 35:12 38:8 39:8 42:4 43:15 46:9 47:7 50:1 51:15 52:5 53:7 54:15 55:4 59:5 60:13 61:12 62:7 #
-0.00025891163206971532168357286174398 3:9 4:14 5:10 6:4 10:1 11:15 12:12 13:14 14:16 15:2 19:1 22:15 23:4 28:14 29:16 30:8 36:6 37:13 38:14 39:1 45:1 46:16 47:5 51:5 52:4 53:6 54:15 55:4 59:12 60:15 61:12 62:6 #
-0.00025891163206971532168357286174398 3:5 4:14 5:16 6:9 10:6 11:16 12:9 13:13 14:12 18:3 19:7 20:1 21:14 22:12 27:1 28:15 29:16 30:15 31:2 35:1 36:11 37:9 38:14 39:11 43:1 44:3 46:13 47:9 51:10 52:13 53:9 54:16 55:6 59:3 60:16 61:16 62:10 #
0.00025891163206971532168357286174398 4:8 5:12 6:11 7:3 11:6 12:15 13:6 14:8 15:12 18:2 19:15 20:10 22:3 23:11 26:4 27:16 28:14 29:12 30:14 31:4 35:8 36:16 37:16 38:14 45:5 46:16 47:2 52:4 53:11 54:15 60:13 61:12 62:6 #
0.00025891163206971532168357286174398 4:1 5:8 6:15 7:10 11:3 12:15 13:15 14:16 15:12 19:16 20:9 21:6 22:16 23:2 26:4 27:16 28:9 29:13 30:16 31:1 35:10 36:12 37:15 38:16 45:10 46:12 53:10 54:11 61:6 62:6 #
0.00025891163206971532168357286174398 3:2 4:6 5:15 6:16 7:8 11:15 12:16 13:10 14:8 15:16 18:4 19:16 20:5 22:7 23:12 26:9 27:16 28:10 29:10 30:16 31:8 34:1 35:9 36:16 37:15 38:16 39:4 45:9 46:13 52:3 53:16 54:4 60:7 61:13 #
0.00025891163206971532168357286174398 4:1 5:9 6:13 7:5 11:3 12:13 13:10 14:12 15:9 19:11 20:8 22:13 23:3 26:1 27:15 28:14 29:11 30:16 31:2 35:1 36:8 37:10 38:14 45:7 46:13 53:10 54:9 61:13 62:5 #
0.00025891163206971532168357286174398 4:6 5:14 6:16 7:10 11:12 12:16 13:9 14:14 15:11 18:7 19:15 20:3 21:8 22:13 23:3 26:6 27:16 28:14 29:16 30:8 35:3 36:4 37:11 38:13 45:14 46:10 52:4 53:16 54:5 60:7 61:16 #
-5.9832828650813879578507226142392e-05 3:9 4:16 5:4 11:14 12:14 13:13 14:7 18:4 19:15 20:12 21:16 22:16 23:5 26:4 27:12 28:7 29:8 30:14 31:8 34:7 35:12 38:12 39:8 42:5 43:13 46:13 47:8 50:2 51:16 52:12 53:15 54:16 55:5 59:9 60:14 61:12 62:8 #
-0.00025891163206971532168357286174398 5:13 6:15 7:3 12:9 13:16 14:16 15:7 18:1 19:7 20:16 21:16 22:16 23:1 26:6 27:16 28:15 29:14 30:16 31:2 34:5 35:11 36:2 37:16 38:15 45:14 46:14 53:16 54:12 61:11 62:13 #
-0.00025891163206971532168357286174398 5:12 6:15 7:1 10:3 11:8 12:8 13:14 14:16 18:11 19:16 20:16 21:16 22:16 26:1 27:4 28:4 29:15 30:16 37:12 38:16 39:4 45:12 46:16 47:3 53:12 54:16 55:10 61:9 62:16 63:11 #
-0.00025465738575331485493702388112069 4:5 5:15 6:16 7:6 10:1 11:15 12:15 13:10 14:15 15:14 19:1 22:8 23:12 28:2 29:5 30:15 31:9 36:8 37:16 38:16 39:6 45:8 46:13 53:12 54:8 60:2 61:13 62:2 #
0.00025891163206971532168357286174398 3:2 4:13 5:15 6:7 10:3 11:15 12:9 13:10 14:15 15:3 18:8 19:12 21:1 22:15 23:6 26:6 27:15 28:9 29:12 30:16 31:7 34:1 35:8 36:8 37:10 38:16 45:12 46:12 52:8 53:16 54:5 60:14 61:13 #
0.00025891163206971532168357286174398 3:9 4:14 5:6 11:16 12:14 13:16 14:6 19:13 20:12 21:13 22:16 23:1 27:6 28:13 29:10 30:16 31:2 38:12 39:7 43:5 44:1 46:12 47:8 50:1 51:16 52:10 53:8 54:15 55:7 59:8 60:15 61:16 62:11 63:1 #
0.00025891163206971532168357286174398 2:3 3:16 4:15 5:7 10:5 11:16 12:16 13:16 14:13 15:2 19:7 20:8 21:10 22:16 23:6 29:2 30:16 31:4 37:4 38:16 39:1 45:12 46:9 51:4 52:11 53:15 54:3 58:2 59:15 60:12 61:3 #
0.00025891163206971532168357286174398 3:7 4:13 5:5 10:4 11:14 12:4 13:14 14:13 19:13 20:8 21:12 22:16 23:4 27:5 28:12 29:11 30:6 31:6 38:5 39:9 46:9 47:7 51:2 52:2 53:8 54:16 55:2 59:10 60:16 61:12 62:3 #
0.00025891163206971532168357286174398 3:6 4:14 5:13 6:2 10:10 11:16 12:9 13:16 14:12 18:5 19:16 20:16 21:16 22:16 23:3 27:5 28:9 29:5 30:8 31:8 38:8 39:8 45:1 46:12 47:8 51:5 52:16 53:16 54:15 55:3 59:4 60:15 61:9 62:2 #
-0.00025891163206971532168357286174398 3:11 4:16 5:13 6:2 10:7 11:16 12:11 13:12 14:14 18:9 19:13 21:11 22:14 28:11 29:16 30:14 31:2 36:10 37:9 38:15 39:10 46:9 47:12 51:14 52:8 53:9 54:16 55:6 59:11 60:16 61:16 62:10 #
-0.00025891163206971532168357286174398 3:4 4:15 5:16 6:5 10:4 11:16 12:10 13:10 14:15 18:10 19:16 20:7 21:4 22:15 26:1 27:4 28:3 29:13 30:9 36:9 37:16 38:16 39:4 44:1 46:11 47:11 51:2 52:12 53:4 54:13 55:9 59:4 60:16 61:16 62:12 63:1 #
-0.00025891163206971532168357286174398 3:10 4:13 5:16 6:10 11:15 12:9 13:2 14:2 18:4 19:16 20:16 21:14 22:4 27:3 28:1 29:4 30:16 31:3 38:12 39:7 46:12 47:7 50:5 51:8 53:4 54:15 55:1 58:1 59:11 60:14 61:15 62:2 #
-0.00025891163206971532168357286174398 3:7 4:13 5:14 6:1 11:16 12:10 13:5 18:1 19:16 20:13 21:8 22:3 27:12 28:10 29:11 30:15 31:3 38:9 39:8 46:3 47:11 50:1 51:7 52:4 53:4 54:11 55:11 58:1 59:11 60:14 61:15 62:12 63:2 #
-0.00025891163206971532168357286174398 3:7 4:16 5:14 6:2 11:13 12:13 13:9 14:13 19:11 20:10 22:14 23:5 27:5 28:14 30:12 31:9 38:12 39:8 45:4 46:16 47:5 51:2 52:8 53:14 54:15 59:8 60:16 61:16 62:16 63:16 64:4 #
0.00025891163206971532168357286174398 3:8 4:15 5:12 6:2 10:4 11:16 12:13 13:11 14:12 15:1 18:9 19:14 20:1 21:13 22:15 23:2 26:9 27:15 29:14 30:15 34:2 35:15 36:16 37:16 38:16 43:1 44:4 45:4 46:16 47:4 51:4 52:8 53:4 54:16 55:5 59:5 60:14 61:16 62:15 63:5 #
0.00025891163206971532168357286174398 4:4 5:13 6:12 7:1 11:3 12:16 13:9 14:15 15:14 16:2 19:14 20:8 21:2 22:10 23:14 26:3 27:16 28:12 29:13 30:16 31:7 35:8 36:3 37:2 38:16 39:2 45:8 46:12 53:14 54:6 60:3 61:14 62:2 #
0.00025891163206971532168357286174398 4:5 5:9 6:13 7:14 8:6 11:4 12:16 13:8 14:4 15:10 16:9 19:6 20:16 21:16 22:16 23:15 24:4 27:1 28:11 29:12 30:16 31:6 37:2 38:16 39:2 45:10 46:6 52:2 53:15 60:5 61:14 #
-0.00025891163206971532168357286174398 3:2 4:13 5:6 7:4 11:13 12:11 14:2 15:15 16:3 18:4 19:16 20:2 22:13 23:8 26:3 27:16 28:16 29:12 30:16 31:7 35:2 36:7 37:15 38:10 39:1 44:4 45:13 52:13 53:5 59:2 60:12 #
-0.00025891163206971532168357286174398 4:10 5:14 7:3 8:1 11:5 12:16 13:6 14:1 15:14 16:5 18:2 19:15 20:8 21:3 22:10 23:13 26:8 27:16 28:14 29:16 30:16 31:8 34:5 35:11 36:6 37:15 38:13 39:3 44:1 45:15 52:7 53:10 60:13 61:3 #
-0.00025891163206971532168357286174398 3:1 4:11 5:7 7:2 8:1 11:10 12:13 14:1 15:13 16:6 18:4 19:16 20:3 22:10 23:12 26:3 27:16 28:11 29:9 30:16 31:3 35:9 36:16 37:16 38:8 44:9 45:11 52:14 53:3 60:14 61:4 #
-0.00025891163206971532168357286174398 3:1 4:14 5:11 11:12 12:13 13:1 18:5 19:16 20:3 22:7 23:15 24:1 26:6 27:16 28:11 29:12 30:16 31:10 35:11 36:14 37:16 38:11 44:7 45:15 46:2 52:15 53:12 59:1 60:15 61:7 #
-0.00025891163206971532168357286174398 3:3 4:14 5:3 7:1 8:8 11:9 12:15 14:1 15:13 16:11 19:14 20:14 22:9 23:14 24:2 27:14 28:16 29:16 30:16 31:7 35:3 36:13 37:16 38:11 39:1 44:7 45:15 46:1 52:14 53:10 59:2 60:15 61:4 #
0.00025891163206971532168357286174398 3:6 4:14 5:14 6:4 11:14 12:15 13:6 14:13 15:2 19:7 20:16 21:16 22:15 23:1 28:10 29:10 37:14 38:1 45:4 46:11 50:3 51:10 52:4 54:13 59:9 60:12 61:16 62:12 #
0.00025891163206971532168357286174398 3:12 4:16 5:14 6:2 10:7 11:11 12:2 13:7 14:12 18:11 19:15 20:12 21:14 22:11 26:2 27:8 28:8 29:13 30:12 37:7 38:14 45:1 46:14 47:5 51:12 52:12 53:5 54:10 55:12 59:8 60:8 61:12 62:16 63:6 #
0.00025891163206971532168357286174398 3:1 4:9 5:14 6:5 11:8 12:15 13:9 14:14 15:1 19:3 20:14 22:16 23:4 28:8 29:14 30:16 31:4 37:3 38:13 39:5 43:3 46:8 47:7 50:3 51:15 52:6 53:2 54:14 55:6 59:1 60:10 61:14 62:14 63:1 #
0.00025891163206971532168357286174398 3:2 4:16 5:14 6:2 11:7 12:15 13:15 14:11 19:5 20:16 21:15 22:16 23:2 28:6 29:15 30:16 31:8 37:2 38:12 39:11 46:9 47:14 53:7 54:15 55:13 59:1 60:12 61:16 62:14 63:7 #
0.00025891163206971532168357286174398 3:3 4:15 5:15 6:5 11:13 12:13 13:10 14:15 19:12 20:14 21:13 22:16 23:5 27:1 28:8 29:8 30:14 31:6 38:8 39:12 43:1 46:3 47:16 48:1 50:1 51:14 52:2 54:3 55:16 56:2 59:3 60:15 61:16 62:16 63:13 64:1 #
-0.00025891163206971532168357286174398 3:13 4:16 5:16 6:10 10:1 11:11 12:6 13:9 14:16 15:6 20:5 21:10 22:16 23:5 27:2 28:15 29:16 30:15 37:5 38:15 39:7 46:13 47:8 50:1 51:13 52:10 53:6 54:14 55:7 58:1 59:11 60:16 61:16 62:12 #
-0.00025891163206971532168357286174398 3:2 4:9 5:15 6:12 10:1 11:13 12:13 13:10 14:16 15:1 19:10 20:2 21:8 22:16 28:4 29:16 30:14 31:1 37:4 38:15 39:4 46:15 47:5 52:12 53:15 54:16 55:1 60:9 61:13 62:7 #
-0.00025891163206971532168357286174398 3:12 4:16 5:16 6:10 7:1 11:13 12:7 13:4 14:16 15:7 20:5 21:12 22:15 23:2 28:7 29:16 30:12 37:7 38:16 39:5 42:1 43:3 46:9 47:15 50:6 51:12 52:4 53:2 54:11 55:16 58:1 59:10 60:16 61:16 62:16 63:7 #
-0.00025891163206971532168357286174398 4:7 5:13 6:3 11:1 12:15 13:16 14:15 18:9 19:16 20:16 21:16 22:16 23:2 26:4 27:8 28:12 29:16 30:10 36:11 37:16 38:13 44:7 45:16 46:15 52:6 53:16 54:16 55:2 60:6 61:16 62:16 63:7 #
-0.00025891163206971532168357286174398 3:8 4:14 5:10 6:2 11:15 12:14 13:11 14:13 21:5 22:16 23:1 29:11 30:14 37:3 38:15 39:3 46:9 47:13 51:3 52:9 53:8 54:15 55:11 59:6 60:16 61:14 62:7 63:1 #
0.00025891163206971532168357286174398 3:3 4:14 5:16 6:13 10:1 11:14 12:11 13:5 14:14 15:7 18:9 19:16 20:3 22:13 23:10 26:11 27:16 28:8 29:14 30:16 31:7 34:1 35:11 36:12 37:15 38:14 39:1 44:3 45:16 46:7 52:12 53:15 54:1 59:5 60:16 61:4 #
0.00025891163206971532168357286174398 3:3 4:13 5:15 6:6 10:2 11:11 12:15 13:7 14:16 15:3 18:16 19:16 20:9 21:8 22:16 23:6 26:9 27:16 28:16 29:16 30:16 31:5 35:4 36:8 37:16 38:11 44:9 45:16 46:1 52:14 53:11 59:1 60:16 61:7 #
0.00025891163206971532168357286174398 3:3 4:12 5:16 6:10 10:3 11:14 12:5 14:12 18:9 19:8 20:1 21:9 22:16 23:4 26:5 27:15 28:15 29:15 30:14 31:2 37:15 38:3 44:8 45:10 52:11 53:6 59:3 60:15 61:2 #
0.00025891163206971532168357286174398 4:10 5:13 6:5 11:11 12:12 13:8 14:15 15:2 18:6 19:16 20:1 21:1 22:14 23:4 26:6 27:16 28:8 29:13 30:16 31:5 34:2 35:13 36:12 37:16 38:12 45:14 46:6 52:4 53:14 54:1 60:11 61:5 #
0.00025891163206971532168357286174398 3:1 4:9 5:16 6:13 7:1 11:13 12:9 13:5 14:14 15:8 18:3 19:14 22:13 23:12 26:2 27:15 28:12 29:16 30:16 31:3 35:3 36:8 37:11 38:12 44:3 45:14 46:2 52:12 53:9 59:1 60:15 61:3 #
-0.00025891163206971532168357286174398 4:12 5:15 6:5 11:3 12:13 13:9 14:16 18:12 19:14 20:10 21:1 22:14 23:4 26:3 27:12 28:13 29:11 30:13 35:2 36:10 37:16 38:9 44:5 45:16 46:8 52:13 53:16 54:9 60:12 61:12 62:2 #
-0.00025891163206971532168357286174398 4:13 5:6 6:2 11:2 12:16 13:8 14:16 15:3 18:1 19:14 20:13 21:12 22:16 26:9 27:16 28:16 29:16 30:16 31:10 34:3 35:12 36:14 37:16 38:13 39:6 44:8 45:16 46:1 52:11 53:10 60:13 61:7 #
-0.00025891163206971532168357286174398 4:13 5:14 11:8 12:15 13:3 14:5 15:3 18:2 19:16 20:8 21:1 22:16 23:10 26:11 27:16 28:8 29:10 30:16 31:6 34:5 35:16 36:16 37:16 38:16 39:6 44:9 45:15 52:12 53:10 60:16 61:2 #
-0.00025891163206971532168357286174398 3:2 4:10 5:16 6:3 11:15 12:16 13:16 14:4 18:3 19:12 20:1 21:16 22:15 23:9 28:7 29:16 30:16 31:13 36:16 37:15 38:2 44:8 45:12 52:13 53:9 60:14 61:3 #
0.00025891163206971532168357286174398 3:10 4:16 5:10 6:3 10:1 11:16 12:9 13:13 14:12 18:1 19:13 20:2 21:7 22:16 23:3 27:12 28:16 29:16 30:16 31:8 35:1 36:4 37:2 38:8 39:8 46:7 47:9 50:1 51:14 52:9 53:8 54:14 55:6 59:8 60:13 61:13 62:7 #
0.00025891163206971532168357286174398 3:12 4:10 5:2 10:2 11:16 12:8 13:10 14:2 19:16 21:10 22:10 27:5 28:10 29:12 30:15 36:6 37:8 38:14 39:3 46:5 47:12 52:1 53:4 54:9 55:13 59:10 60:15 61:16 62:15 63:5 #
0.00025891163206971532168357286174398 3:5 4:12 5:6 11:11 12:16 13:15 14:6 19:10 20:11 21:11 22:15 23:2 27:4 28:15 29:15 30:16 31:6 36:4 37:8 38:13 39:9 46:8 47:13 51:9 52:8 53:8 54:12 55:13 59:5 60:10 61:13 62:12 63:5 #
0.00013868807880575720553953389391211 3:6 4:11 5:2 10:1 11:16 12:12 13:14 14:3 19:13 20:3 21:11 22:15 27:6 28:16 29:15 30:16 31:5 36:4 37:8 38:10 39:10 46:1 47:15 51:1 52:1 53:2 54:7 55:15 56:5 59:4 60:12 61:16 62:16 63:13 64:2 #
0.00025891163206971532168357286174398 3:10 4:12 5:6 11:16 12:14 13:15 14:4 18:1 19:16 20:8 21:16 22:14 27:7 28:15 29:16 30:16 31:5 36:3 37:4 38:15 39:9 46:12 47:11 51:5 52:7 53:9 54:16 55:9 59:7 60:16 61:13 62:9 63:2 #
0.00025891163206971532168357286174398 3:4 4:16 5:16 6:4 11:10 12:16 13:16 14:13 19:3 20:13 21:11 22:16 23:2 30:13 31:8 38:11 39:9 46:13 47:9 53:8 54:16 55:5 59:3 60:16 61:16 62:11 #
-0.00025891163206971532168357286174398 3:7 4:11 5:15 6:6 10:3 11:16 12:15 13:12 14:4 18:5 19:16 20:13 21:14 22:8 26:6 27:15 28:11 29:8 30:15 31:6 38:8 39:8 46:4 47:8 51:13 52:9 53:8 54:13 55:5 59:6 60:11 61:14 62:9 #
-0.00025891163206971532168357286174398 3:1 4:7 5:12 6:7 11:6 12:16 13:10 14:5 19:14 20:16 21:14 22:4 27:3 28:4 29:6 30:13 38:11 39:6 46:7 47:9 51:10 52:5 53:2 54:8 55:11 59:4 60:14 61:16 62:16 63:4 #
-0.00025891163206971532168357286174398 2:4 3:13 4:16 5:16 6:12 10:5 11:14 12:4 13:4 14:3 18:2 19:16 20:8 21:6 22:1 26:2 27:16 28:13 29:14 30:11 35:5 38:15 39:5 46:11 47:9 51:1 54:11 55:12 58:2 59:15 60:16 61:16 62:14 63:3 #
-0.00025891163206971532168357286174398 3:4 4:10 5:15 6:4 11:8 12:13 13:6 14:1 18:1 19:15 20:14 21:10 22:1 27:11 28:8 29:10 30:12 31:1 38:10 39:6 46:2 47:14 51:6 52:7 53:3 54:3 55:15 56:2 59:4 60:13 61:16 62:16 63:15 64:1 #
0.00025891163206971532168357286174398 2:1 3:13 4:16 5:16 6:12 7:1 10:2 11:16 12:16 13:16 14:15 15:2 19:5 20:12 21:16 22:14 29:10 30:15 37:12 38:12 44:3 45:16 46:9 50:1 51:8 52:13 53:15 54:2 58:2 59:13 60:16 61:6 #
0.00025891163206971532168357286174398 4:6 5:14 6:16 7:7 11:10 12:15 13:6 14:15 15:7 18:4 19:16 20:3 21:2 22:12 26:3 27:15 28:11 29:7 30:16 31:3 35:2 36:9 37:15 38:13 44:4 45:15 46:5 52:8 53:16 60:5 61:16 #
0.00025891163206971532168357286174398 3:1 4:8 5:13 6:12 7:1 10:1 11:15 12:8 13:4 14:14 15:6 18:6 19:10 21:1 22:10 23:8 26:7 27:12 28:5 29:11 30:16 31:7 34:2 35:11 36:12 37:10 38:16 39:2 45:9 46:10 52:4 53:16 54:1 60:12 61:7 #
0.00025891163206971532168357286174398 4:7 5:14 6:7 11:3 12:13 13:4 14:12 15:1 19:13 20:3 22:12 23:4 26:1 27:13 29:6 30:16 31:6 35:15 36:15 37:9 38:12 39:3 43:1 44:1 46:9 47:2 51:2 52:9 53:2 54:12 59:1 60:9 61:15 62:7 #
-0.00025891163206971532168357286174398 3:2 4:7 5:14 6:12 7:1 10:2 11:14 12:15 13:10 14:16 15:7 18:4 19:9 21:5 22:16 23:3 28:2 29:16 30:13 36:2 37:15 38:11 45:6 46:16 47:4 52:5 53:16 54:13 60:9 61:11 62:2 #
-0.00025891163206971532168357286174398 3:3 4:12 5:15 6:11 11:14 12:15 13:15 14:16 15:1 19:3 20:2 21:14 22:16 23:12 24:1 28:13 29:16 30:14 31:9 36:2 37:14 38:8 44:2 45:16 46:5 52:13 53:13 59:3 60:16 61:3 #
-0.00025891163206971532168357286174398 3:1 4:9 5:15 6:7 7:1 10:4 11:13 12:15 13:13 14:16 15:4 18:11 19:13 20:1 21:11 22:14 29:16 30:12 37:14 38:12 45:9 46:14 47:1 52:3 53:13 54:15 60:12 61:13 62:3 #
-1.4580726628002165477793194980904e-05 3:7 4:13 5:14 6:6 10:2 11:16 12:16 13:16 14:14 18:3 19:16 20:9 21:4 22:2 26:2 27:16 28:16 29:14 30:5 35:6 36:8 37:9 38:15 39:7 46:8 47:12 51:11 52:4 53:5 54:14 55:11 59:8 60:16 61:16 62:13 63:1 #
-0.00025891163206971532168357286174398 3:3 4:10 5:7 6:15 7:13 11:12 12:9 13:16 14:16 15:13 18:1 19:16 20:12 21:14 22:8 23:4 26:1 27:14 28:16 29:16 30:16 31:10 36:1 38:11 39:6 45:4 46:15 47:2 51:2 52:13 53:15 54:3 59:4 60:13 61:3 #
0.00025891163206971532168357286174398 3:11 4:12 5:7 10:3 11:16 12:14 13:16 14:3 18:6 19:16 20:6 21:16 22:6 26:2 27:15 28:16 29:16 30:14 35:4 36:9 37:8 38:15 39:6 46:11 47:11 51:2 52:4 53:9 54:16 55:7 59:10 60:16 61:13 62:8 63:1 #
0.00025891163206971532168357286174398 3:6 4:16 5:8 10:2 11:16 12:14 13:15 18:2 19:16 20:13 21:16 22:9 27:8 28:15 29:16 30:14 31:1 38:13 39:7 46:3 47:13 51:3 52:4 53:4 54:7 55:15 59:7 60:13 61:16 62:13 63:9 #
0.00025891163206971532168357286174398 3:2 4:11 5:11 6:2 11:11 12:16 13:16 14:5 19:10 20:16 21:16 22:5 27:2 28:11 29:14 30:9 37:8 38:12 45:8 46:16 52:8 53:15 54:10 59:1 60:14 61:14 62:3 #
0.00025891163206971532168357286174398 3:4 4:13 5:13 6:2 10:2 11:15 12:7 13:4 14:7 18:6 19:12 21:5 22:9 26:3 27:11 28:3 29:7 30:14 31:1 35:6 36:15 37:16 38:14 39:4 46:4 47:11 54:4 55:15 59:3 60:13 61:16 62:16 63:8 #
0.00025891163206971532168357286174398 3:5 4:11 5:15 6:8 10:4 11:14 12:8 13:10 14:16 18:8 19:13 20:1 21:15 22:12 26:4 27:16 28:15 29:16 30:13 35:4 36:12 37:13 38:16 39:4 43:4 44:1 46:14 47:8 51:13 52:13 53:6 54:14 55:7 59:2 60:14 61:14 62:9 63:2 #
-0.00025891163206971532168357286174398 3:5 4:12 5:12 6:1 10:11 11:16 12:12 13:14 14:9 18:14 19:7 21:10 22:11 27:3 28:15 29:16 30:8 35:2 36:12 37:12 38:14 39:3 46:10 47:14 51:9 52:10 53:8 54:13 55:16 59:6 60:12 61:16 62:12 63:4 #
-0.00025891163206971532168357286174398 3:4 4:12 5:15 6:5 10:2 11:15 12:13 13:11 14:11 18:2 19:10 20:2 21:5 22:16 28:4 29:14 30:14 36:5 37:12 38:14 39:7 46:3 47:14 51:9 52:10 53:3 54:8 55:15 56:2 59:2 60:9 61:16 62:16 63:7 #
-0.00025891163206971532168357286174398 3:2 4:12 5:13 6:4 10:5 11:16 12:6 13:1 14:14 18:13 19:11 20:5 21:12 22:15 26:9 27:16 28:16 29:16 30:12 34:1 35:12 36:14 37:3 38:7 39:7 43:8 44:7 47:13 51:8 52:9 53:1 54:12 55:13 60:14 61:14 62:12 63:3 #
-0.00025891163206971532168357286174398 2:3 3:13 4:16 5:14 6:2 10:14 11:11 12:3 13:16 14:8 18:7 19:3 20:7 21:16 22:8 27:5 28:16 29:16 30:16 31:5 35:2 36:10 37:6 38:11 39:12 46:11 47:13 50:1 51:10 52:1 53:4 54:15 55:9 58:2 59:15 60:16 61:16 62:11 #
0.00025891163206971532168357286174398 3:6 4:12 5:16 6:14 7:3 10:6 11:14 12:6 13:3 14:15 15:8 18:7 19:14 20:9 21:16 22:16 27:5 28:11 29:10 30:14 37:10 38:8 44:3 45:16 46:3 51:1 52:15 53:9 59:10 60:11 #
0.00025891163206971532168357286174398 4:9 5:14 6:16 7:12 11:10 12:14 13:6 14:11 15:15 16:1 19:11 20:15 21:16 22:16 23:8 29:1 30:15 31:9 37:5 38:15 44:1 45:14 46:5 52:6 53:12 60:12 61:5 #
0.00025891163206971532168357286174398 3:2 4:13 5:16 6:16 7:9 11:12 12:10 13:4 14:7 15:12 18:1 19:15 20:8 21:2 22:6 23:4 27:4 28:10 29:16 30:9 37:2 38:16 45:9 46:11 52:5 53:15 54:4 60:13 61:9 #
8.935609869783252973141074448904e-05 3:2 4:11 5:13 6:16 7:11 11:9 12:16 13:13 14:16 15:10 19:14 20:16 21:16 22:16 23:16 24:4 27:6 28:11 29:9 30:14 31:14 37:6 38:16 39:4 44:2 45:15 46:7 52:13 53:13 59:3 60:15 61:4 #
0.00025891163206971532168357286174398 3:6 4:15 5:13 6:3 10:5 11:15 12:6 13:13 14:15 15:3 18:10 19:11 21:13 22:16 23:5 26:4 27:15 28:14 29:16 30:15 31:1 36:1 37:12 38:9 44:8 45:15 46:1 51:1 52:14 53:8 59:6 60:15 #
-0.00025891163206971532168357286174398 3:4 4:16 5:13 6:16 7:13 11:12 12:11 13:5 14:4 15:2 18:1 19:16 20:1 21:9 22:8 23:2 26:8 27:16 28:14 29:10 30:13 31:6 34:1 35:4 38:9 39:6 45:5 46:11 47:1 51:1 52:6 53:14 54:4 59:6 60:15 61:5 #
-0.00025891163206971532168357286174398 3:5 4:15 5:16 6:16 7:10 11:11 12:14 13:8 14:4 15:1 18:4 19:16 20:16 21:15 22:3 26:8 27:15 28:9 29:13 30:13 31:1 35:2 37:3 38:16 39:4 45:3 46:16 47:2 52:3 53:13 54:9 59:5 60:16 61:12 62:1 #
-0.00025891163206971532168357286174398 3:4 4:10 5:16 6:16 7:11 8:1 11:12 12:13 13:11 14:8 15:7 18:3 19:16 20:16 21:16 22:4 26:5 27:16 28:9 29:15 30:6 37:6 38:11 45:11 46:8 51:1 52:8 53:13 54:2 59:4 60:13 61:4 #
-7.9267796127836532551688697445513e-05 2:1 3:10 4:12 5:14 6:16 7:5 11:14 12:10 13:8 14:8 15:1 19:16 20:4 21:3 22:1 26:2 27:16 28:16 29:16 30:15 31:3 35:2 38:11 39:8 45:3 46:14 47:3 51:3 52:11 53:15 54:9 58:1 59:12 60:7 61:3 #
-0.00025891163206971532168357286174398 5:8 6:16 7:7 12:6 13:16 14:16 15:12 19:8 20:16 21:16 22:16 23:12 26:5 27:12 28:8 29:12 30:16 31:8 37:12 38:16 39:5 45:15 46:16 47:1 53:16 54:16 61:11 62:16 63:2 #
0.00025891163206971532168357286174398 3:9 4:13 5:7 10:2 11:16 12:12 13:15 14:12 15:2 18:8 19:11 21:4 22:16 23:4 26:8 27:13 28:1 29:8 30:16 31:7 34:1 35:15 36:16 37:13 38:15 39:8 44:2 46:9 47:12 51:6 52:9 53:9 54:15 55:9 59:6 60:16 61:14 62:8 63:1 #
0.00025891163206971532168357286174398 3:8 4:12 5:13 6:2 10:7 11:16 12:10 13:10 14:15 15:2 18:10 19:11 21:1 22:16 23:4 26:6 27:15 28:12 29:16 30:16 31:7 35:5 36:8 37:4 38:12 39:8 46:12 47:12 51:11 52:10 53:12 54:16 55:8 59:9 60:12 61:15 62:9 63:1 #
0.00025891163206971532168357286174398 3:5 4:13 5:12 6:2 11:14 12:12 13:12 14:13 19:11 20:4 21:2 22:15 27:8 28:8 29:4 30:16 31:1 35:2 36:14 37:16 38:16 39:6 46:7 47:10 51:8 52:9 53:8 54:15 55:10 59:4 60:16 61:16 62:13 63:2 #
0.00025891163206971532168357286174398 2:1 3:9 4:15 5:12 6:2 10:8 11:10 13:7 14:14 18:8 19:4 22:16 23:4 26:2 27:12 28:9 29:9 30:16 31:7 35:1 36:5 37:5 38:9 39:8 46:4 47:11 51:6 52:1 54:10 55:8 59:9 60:13 61:14 62:11 63:2 #
0.00025891163206971532168357286174398 4:8 5:13 6:6 11:5 12:14 13:6 14:14 15:2 19:8 20:8 21:1 22:14 23:4 27:2 28:13 29:11 30:16 31:5 36:3 37:7 38:9 39:4 42:1 43:2 46:8 47:8 50:1 51:13 52:3 54:14 55:5 60:11 61:16 62:13 63:1 #
-0.00025891163206971532168357286174398 3:9 4:16 5:13 6:2 10:3 11:16 12:9 13:12 14:12 18:4 19:16 22:16 26:1 27:8 29:2 30:16 37:5 38:13 44:1 45:11 46:9 51:4 52:11 53:16 54:10 55:7 59:9 60:12 61:8 62:9 63:13 #
-0.00025891163206971532168357286174398 3:5 4:16 5:11 10:1 11:16 12:5 13:12 14:11 15:3 18:3 19:13 21:5 22:16 23:2 26:4 27:12 30:16 31:4 34:5 35:11 37:1 38:16 39:3 42:5 43:13 46:12 47:1 51:14 52:7 53:6 54:12 59:4 60:14 61:12 62:2 #
-0.00025891163206971532168357286174398 3:4 4:14 5:15 6:3 11:12 12:10 13:5 14:13 15:1 18:3 19:13 22:16 23:4 26:4 27:11 30:13 31:6 34:5 35:10 38:12 39:4 42:2 43:13 46:9 47:6 51:14 52:3 53:4 54:12 59:3 60:14 61:14 62:6 #
-0.00025891163206971532168357286174398 3:7 4:12 11:15 12:15 13:10 14:13 18:5 19:14 20:3 21:3 22:14 23:2 26:4 27:10 30:10 31:5 34:3 35:9 38:15 39:3 42:2 43:9 45:3 46:16 47:1 51:14 52:4 53:13 54:8 59:5 60:16 61:12 62:1 #
0.00025891163206971532168357286174398 3:1 4:9 5:15 6:16 7:14 8:1 11:12 12:15 13:11 14:14 15:13 16:1 19:16 20:16 21:16 22:16 23:6 27:4 28:8 29:8 30:14 31:14 37:3 38:14 39:7 44:1 45:12 46:11 52:8 53:14 54:1 60:15 61:7 #
0.00025891163206971532168357286174398 4:8 5:14 6:15 7:2 11:9 12:12 13:4 14:13 15:7 19:14 20:13 21:8 22:14 23:3 27:3 28:16 29:16 30:16 31:2 38:15 43:3 45:1 46:16 47:1 51:14 52:13 53:9 54:14 59:2 60:10 61:12 62:4 #
0.00025891163206971532168357286174398 3:7 4:11 5:16 6:13 7:4 10:4 11:16 12:16 13:16 14:16 15:11 18:4 19:16 20:16 21:16 22:16 23:8 27:4 28:11 29:14 30:13 31:1 37:8 38:12 45:9 46:11 51:4 52:10 53:16 54:5 59:9 60:12 61:7 #
-0.00025891163206971532168357286174398 3:6 4:13 5:16 6:15 7:2 11:14 12:14 13:12 14:16 15:9 19:3 20:1 21:7 22:16 23:10 27:1 28:15 29:16 30:16 31:13 35:1 36:7 37:15 38:14 39:1 44:4 45:16 46:10 52:12 53:13 54:1 59:7 60:16 61:3 #
-0.00025891163206971532168357286174398 3:4 4:13 5:16 6:15 7:4 10:3 11:16 12:10 13:8 14:16 15:4 18:3 19:10 21:3 22:16 23:4 28:11 29:16 30:15 36:3 37:14 38:16 39:6 45:2 46:16 47:9 51:2 52:12 53:8 54:16 55:8 59:3 60:16 61:16 62:13 63:1 #
-0.00025891163206971532168357286174398 3:4 4:11 5:12 6:15 7:13 11:10 12:11 13:11 14:14 15:14 19:1 20:4 21:5 22:16 23:8 27:13 28:16 29:16 30:16 31:6 36:7 37:16 38:7 39:1 44:9 45:12 51:2 52:15 53:7 59:3 60:14 61:2 #
-0.00025891163206971532168357286174398 4:2 5:11 6:16 7:8 10:1 11:9 12:15 13:16 14:16 15:12 18:3 19:15 20:16 21:13 22:16 23:10 28:3 29:16 30:16 31:6 37:16 38:16 39:4 44:4 45:16 46:16 47:3 52:4 53:16 54:16 55:1 60:1 61:13 62:16 63:1 #
0.00025891163206971532168357286174398 3:9 4:13 5:10 6:1 10:7 11:14 12:4 13:15 14:8 18:10 19:8 21:10 22:14 26:4 27:14 28:12 29:14 30:15 31:4 35:2 36:4 37:2 38:12 39:6 45:1 46:15 47:5 52:4 53:10 54:15 55:1 59:9 60:12 61:9 62:2 #
0.00025891163206971532168357286174398 3:4 4:11 5:12 6:7 10:1 11:16 12:13 13:14 14:12 18:2 19:16 20:5 21:8 22:14 26:1 27:15 28:16 29:16 30:14 35:6 36:12 37:12 38:16 39:6 43:1 44:3 45:2 46:15 47:5 51:7 52:16 53:16 54:16 55:2 59:1 60:13 61:12 62:5 #
0.00025891163206971532168357286174398 3:6 4:16 5:5 10:6 11:16 12:16 13:16 14:7 18:11 19:15 20:2 21:16 22:14 26:9 27:16 28:10 29:16 30:16 31:7 34:2 35:13 36:16 37:16 38:16 39:8 46:13 47:12 51:3 52:8 53:12 54:16 55:7 59:5 60:16 61:12 62:5 #
0.00025891163206971532168357286174398 2:1 3:9 4:15 5:5 10:6 11:16 12:13 13:15 14:3 18:12 19:11 21:12 22:14 26:5 27:15 28:11 29:15 30:16 31:3 35:4 36:8 37:10 38:16 39:5 46:12 47:12 51:6 52:4 53:7 54:14 55:13 59:7 60:14 61:14 62:12 63:5 #
0.00025891163206971532168357286174398 2:1 3:11 4:14 5:12 6:6 10:8 11:15 12:7 13:11 14:15 18:11 19:9 21:8 22:16 23:4 26:8 27:14 28:13 29:16 30:16 31:7 35:6 36:9 37:4 38:15 39:8 46:11 47:10 51:9 52:8 53:11 54:16 55:3 59:14 60:14 61:11 62:5 #
-0.00025891163206971532168357286174398 3:3 4:11 5:12 6:4 10:6 11:15 12:6 13:5 14:13 18:7 19:13 21:2 22:16 23:1 26:3 27:16 28:16 29:16 30:14 35:15 36:13 37:8 38:13 39:6 43:12 44:1 46:3 47:9 51:9 52:12 53:8 54:14 55:11 59:5 60:13 61:12 62:9 63:1 #
-0.00025891163206971532168357286174398 3:6 4:14 5:12 6:6 10:3 11:16 12:11 13:10 14:15 15:5 18:6 19:16 20:4 21:3 22:16 23:4 27:9 28:16 29:16 30:12 35:2 36:15 37:7 38:15 39:6 43:8 44:6 46:14 47:8 51:13 52:10 53:13 54:13 55:1 59:5 60:12 61:9 62:1 #
-0.00025891163206971532168357286174398 3:6 4:16 5:15 6:10 7:1 10:1 11:14 12:8 13:8 14:11 15:2 18:5 19:12 20:11 21:12 22:6 26:7 27:16 28:14 29:12 30:15 31:3 34:1 35:2 38:10 39:8 43:1 46:9 47:6 51:14 52:4 53:5 54:14 55:1 59:8 60:16 61:13 62:3 #
-0.00025891163206971532168357286174398 3:12 4:14 5:12 6:12 7:3 11:15 12:12 13:10 14:9 15:1 18:2 19:16 20:6 21:7 22:2 26:4 27:16 28:16 29:16 30:15 31:1 35:4 36:4 37:4 38:16 39:8 43:1 46:10 47:7 50:4 51:12 53:3 54:14 55:4 58:1 59:13 60:16 61:16 62:6 #
-0.00025891163206971532168357286174398 2:5 3:16 4:16 5:15 6:2 10:11 11:13 12:8 13:11 14:15 18:1 19:1 21:7 22:16 28:11 29:16 30:14 31:1 36:12 37:12 38:15 39:11 46:8 47:12 50:5 51:11 52:4 53:3 54:12 55:11 58:4 59:14 60:16 61:16 62:16 63:4 #
0.00025891163206971532168357286174398 3:3 4:10 5:13 6:16 7:12 10:3 11:15 12:13 13:8 14:10 15:12 18:1 19:12 20:13 21:16 22:16 23:10 29:4 30:16 31:5 37:10 38:16 44:1 45:15 46:12 52:9 53:15 60:14 61:9 #
0.00025891163206971532168357286174398 3:1 4:12 5:12 6:13 7:8 11:12 12:10 13:4 14:7 15:13 19:15 20:10 21:4 22:9 23:14 27:5 28:12 29:12 30:16 31:9 37:2 38:15 45:11 46:7 52:4 53:14 60:15 61:2 #
0.00025891163206971532168357286174398 4:7 5:16 6:11 11:9 12:16 13:16 14:16 15:16 16:7 19:10 20:16 21:16 22:12 23:16 24:4 27:3 28:8 29:4 30:13 31:9 37:7 38:14 45:15 46:4 52:5 53:13 60:8 61:16 62:1 #
0.00025891163206971532168357286174398 3:8 4:15 5:15 6:12 7:4 11:15 12:4 13:3 14:10 15:16 19:8 20:14 21:12 22:16 23:12 28:2 29:4 30:9 31:8 38:9 39:7 42:1 43:1 46:12 47:4 50:7 51:11 52:1 53:4 54:12 55:1 59:10 60:16 61:13 62:3 #
0.00025891163206971532168357286174398 3:2 4:8 5:12 6:13 7:2 10:2 11:16 12:15 13:6 14:8 15:8 18:7 19:11 20:5 21:2 22:13 23:7 26:6 27:15 28:13 29:15 30:15 31:1 35:3 36:2 37:9 38:6 44:1 45:14 46:1 52:7 53:10 60:13 61:3 #
-0.00025891163206971532168357286174398 4:14 5:7 6:1 7:6 11:6 12:15 13:2 14:11 15:15 18:2 19:14 20:10 21:2 22:16 23:8 26:7 27:16 28:10 29:13 30:16 31:14 34:6 35:16 36:16 37:16 38:11 39:5 44:7 45:15 46:1 52:10 53:10 59:1 60:15 61:4 #
0.00025891163206971532168357286174398 3:1 4:10 5:13 6:8 10:1 11:14 12:10 13:7 14:15 18:1 19:16 20:7 21:7 22:16 23:3 27:7 28:16 29:13 30:10 31:8 38:6 39:8 46:12 47:4 51:1 52:10 53:5 54:13 55:3 59:1 60:11 61:16 62:7 #
-8.7948145572148701386988589590032e-05 2:1 3:13 4:16 5:16 6:11 10:6 11:16 12:7 13:8 14:6 18:4 19:16 20:3 21:4 22:3 26:5 27:16 28:16 29:16 30:16 31:3 34:8 35:13 36:5 38:11 39:12 46:10 47:11 50:2 51:11 52:4 53:6 54:16 55:4 58:1 59:15 60:16 61:16 62:8 #
0.00025891163206971532168357286174398 3:6 4:15 5:11 6:1 11:15 12:7 13:13 14:15 15:2 18:5 19:14 21:2 22:16 23:4 26:3 27:15 28:8 29:10 30:16 31:4 35:6 36:12 37:10 38:14 39:8 42:2 43:3 46:12 47:7 50:9 51:15 52:8 53:8 54:16 55:3 59:7 60:15 61:15 62:4 #
0.00025891163206971532168357286174398 3:9 4:14 5:9 10:6 11:15 12:5 13:16 14:6 18:5 19:14 20:1 21:6 22:13 27:10 28:14 29:13 30:16 36:5 37:5 38:12 39:2 46:9 47:5 51:16 52:9 53:7 54:10 55:8 59:6 60:10 61:14 62:16 63:5 #
0.00025891163206971532168357286174398 2:1 3:12 4:12 5:11 6:5 10:5 11:15 12:8 13:12 14:15 15:2 18:7 19:12 21:9 22:16 23:3 26:3 27:15 28:9 29:10 30:16 31:7 35:5 36:11 37:16 38:16 39:8 45:1 46:14 47:10 51:7 52:8 53:11 54:16 55:2 59:12 60:16 61:13 62:6 #
0.00025891163206971532168357286174398 2:2 3:11 4:15 5:8 6:6 10:10 11:14 12:8 13:15 14:16 18:9 19:14 21:10 22:16 23:2 26:2 27:16 28:10 29:16 30:16 31:3 35:4 36:8 37:8 38:16 39:4 46:15 47:7 50:2 51:11 52:12 53:15 54:16 55:8 58:2 59:12 60:9 61:8 62:4 #
-0.00025891163206971532168357286174398 3:5 4:9 5:13 6:12 10:10 11:16 12:15 13:12 14:16 15:2 18:8 19:7 21:11 22:14 28:2 29:16 30:14 31:1 36:1 37:11 38:16 39:7 46:8 47:12 51:14 52:10 53:10 54:16 55:8 59:6 60:15 61:16 62:10 63:1 #
-0.00025891163206971532168357286174398 3:8 4:12 5:14 6:3 10:10 11:16 12:14 13:15 14:13 18:7 19:5 21:9 22:15 29:12 30:11 37:9 38:16 39:2 46:14 47:9 51:11 52:12 53:14 54:16 55:5 59:8 60:14 61:9 62:4 #
-0.00025891163206971532168357286174398 3:13 4:16 5:16 6:6 10:6 11:16 12:6 13:10 14:16 18:1 19:7 20:5 21:14 22:8 27:1 28:15 29:16 30:13 31:1 36:3 37:4 38:13 39:10 46:9 47:11 50:2 51:14 52:5 53:6 54:16 55:4 58:1 59:15 60:16 61:16 62:10 #
-0.00025891163206971532168357286174398 2:3 3:15 4:16 5:13 6:5 10:7 11:16 12:12 13:14 14:15 15:1 18:1 19:6 21:11 22:15 23:1 28:16 29:16 30:5 36:6 37:15 38:15 39:2 45:2 46:16 47:7 50:3 51:8 52:2 53:6 54:16 55:4 58:2 59:12 60:16 61:16 62:9 #
-0.00025891163206971532168357286174398 3:8 4:15 5:8 10:4 11:16 12:16 13:16 14:5 18:8 19:16 20:2 21:6 22:15 26:3 27:15 28:4 29:4 30:16 35:1 37:7 38:15 44:3 45:15 46:7 50:2 51:11 52:16 53:15 54:7 55:4 58:1 59:13 60:16 61:15 62:12 63:4 #
0.00025891163206971532168357286174398 4:8 5:16 6:13 7:1 11:4 12:16 13:11 14:13 15:9 18:6 19:15 20:10 22:11 23:11 26:8 27:16 28:13 29:14 30:16 31:9 34:1 35:9 36:8 37:11 38:16 39:4 45:12 46:12 52:6 53:16 54:2 60:11 61:10 #
0.00025891163206971532168357286174398 3:1 4:11 5:16 6:16 7:6 11:13 12:14 13:7 14:10 15:15 18:6 19:16 20:4 21:2 22:11 23:14 26:7 27:16 28:16 29:16 30:16 31:10 35:5 36:8 37:9 38:16 39:2 44:2 45:14 46:8 52:11 53:13 60:16 61:7 #
0.00025891163206971532168357286174398 3:1 4:11 5:16 6:15 7:3 10:1 11:13 12:13 13:5 14:13 15:8 18:6 19:16 20:8 21:2 22:15 23:8 26:10 27:16 28:16 29:16 30:16 31:7 34:1 35:1 36:6 37:15 38:14 39:1 44:3 45:16 46:5 52:9 53:14 59:1 60:15 61:7 #
0.00025891163206971532168357286174398 3:2 4:11 5:13 6:11 7:3 11:12 12:11 13:6 14:14 15:13 18:3 19:16 21:10 22:16 23:4 26:2 27:16 28:16 29:16 30:13 35:2 36:4 37:9 38:8 44:3 45:15 52:11 53:7 59:1 60:14 #
0.00025891163206971532168357286174398 3:4 4:8 5:13 6:6 10:5 11:16 12:11 13:9 14:12 15:1 18:7 19:13 21:12 22:16 23:4 26:6 27:14 28:9 29:15 30:12 31:3 35:8 36:11 37:10 38:14 45:16 46:6 52:8 53:12 59:6 60:10 #
-0.00025891163206971532168357286174398 3:2 4:9 5:15 6:11 10:3 11:15 12:16 13:16 14:16 18:3 19:13 20:3 21:9 22:16 23:2 28:6 29:14 30:16 31:13 35:5 36:16 37:16 38:13 39:2 43:5 44:11 45:16 46:4 52:11 53:15 60:16 61:7 #
-0.00019680976128417767070932775652636 4:2 5:11 6:13 7:2 11:2 12:13 13:16 14:16 15:2 18:3 19:15 20:14 21:13 22:16 27:6 29:15 30:9 37:16 38:6 44:4 45:16 52:5 53:16 54:3 60:3 61:16 62:6 #
-0.00025891163206971532168357286174398 2:1 3:11 4:12 5:12 6:13 7:2 10:7 11:16 12:9 13:8 14:8 15:2 18:7 19:14 20:8 21:8 22:1 26:3 27:15 28:11 29:11 30:13 37:4 38:16 45:9 46:13 51:2 52:11 53:14 54:4 59:12 60:9 61:1 #
-0.00025891163206971532168357286174398 5:5 6:13 7:3 12:1 13:11 14:16 15:4 18:2 19:8 20:14 21:16 22:16 23:5 26:2 27:7 28:4 29:12 30:16 31:3 37:8 38:16 39:4 45:8 46:16 47:5 53:8 54:16 55:8 61:8 62:16 63:6 #
-0.00025891163206971532168357286174398 3:4 4:12 5:14 6:12 7:3 11:15 12:14 13:10 14:16 15:3 18:2 19:16 20:8 21:8 22:5 26:7 27:16 28:16 29:16 30:15 31:2 34:3 35:7 36:2 37:2 38:14 39:5 45:2 46:15 47:3 51:3 52:11 53:14 54:13 59:8 60:15 61:11 62:4 #
0.00025891163206971532168357286174398 3:3 4:15 5:11 6:4 11:11 12:7 13:6 14:13 19:12 20:2 22:15 23:1 27:11 28:1 29:4 30:16 31:5 35:3 36:15 37:13 38:12 39:6 46:8 47:8 51:6 52:2 53:3 54:13 55:5 59:4 60:13 61:16 62:11 #
0.00025891163206971532168357286174398 3:4 4:14 5:10 6:2 11:12 12:13 13:14 14:13 19:11 20:5 21:3 22:13 27:7 28:12 29:11 30:16 31:1 35:1 36:10 37:9 38:14 39:3 46:13 47:5 51:4 52:8 53:8 54:16 55:5 59:7 60:16 61:16 62:11 #
0.00025891163206971532168357286174398 3:5 4:13 5:12 6:1 10:2 11:15 12:5 13:6 14:7 18:6 19:9 22:16 23:4 26:6 27:10 30:14 31:6 35:9 36:13 37:14 38:12 39:9 47:12 51:3 54:3 55:14 59:5 60:12 61:13 62:14 63:5 #
0.00025891163206971532168357286174398 3:3 4:13 5:13 6:4 10:1 11:14 12:13 13:10 14:16 15:1 18:6 19:12 20:1 21:3 22:16 23:6 26:7 27:15 28:4 29:10 30:16 31:8 34:2 35:11 36:15 37:12 38:16 39:8 46:15 47:8 51:5 52:10 53:4 54:16 55:8 59:2 60:12 61:16 62:11 63:1 #
0.00025891163206971532168357286174398 3:8 4:15 5:10 6:1 11:15 12:13 13:15 14:10 19:16 20:2 22:14 23:1 27:14 28:5 29:7 30:16 31:2 35:7 36:12 37:11 38:15 39:3 46:13 47:4 51:6 52:6 53:9 54:16 55:2 59:7 60:13 61:14 62:3 #
0.00025891163206971532168357286174398 3:7 4:16 5:10 10:1 11:16 12:14 13:16 14:9 19:11 20:16 21:16 22:15 28:7 29:13 30:14 37:11 38:14 45:13 46:12 51:1 52:11 53:15 54:3 59:6 60:16 61:6 #
-0.00025891163206971532168357286174398 3:6 4:16 5:7 11:16 12:11 13:14 14:6 18:2 19:15 21:3 22:16 23:1 26:7 27:8 30:13 31:2 34:5 35:8 38:11 39:4 42:7 43:7 46:12 47:4 50:5 51:16 52:7 53:7 54:16 59:7 60:16 61:12 62:4 #
-0.00025891163206971532168357286174398 3:3 4:14 5:16 6:14 7:3 10:3 11:15 12:10 13:14 14:16 15:6 18:7 19:13 21:10 22:16 23:7 26:8 27:12 29:1 30:16 31:4 34:7 35:12 38:13 39:4 42:3 43:14 44:1 46:13 47:4 51:11 52:11 53:9 54:15 55:2 59:2 60:11 61:12 62:4 #
-0.00025891163206971532168357286174398 3:3 4:15 5:10 6:1 10:2 11:14 12:9 13:13 14:11 18:7 19:15 21:2 22:16 23:2 26:4 27:16 28:2 30:6 31:8 34:6 35:9 38:6 39:8 42:5 43:11 46:10 47:8 51:15 52:6 53:7 54:16 55:3 59:3 60:12 61:16 62:5 #
-0.00025891163206971532168357286174398 3:10 4:14 5:15 6:12 7:5 11:14 12:4 13:2 14:2 18:3 19:14 20:10 21:10 22:5 26:6 27:15 28:10 29:6 30:15 31:2 34:1 38:8 39:8 46:6 47:8 51:11 52:2 53:3 54:12 55:3 59:10 60:16 61:15 62:5 #
0.00025891163206971532168357286174398 3:4 4:15 5:12 6:3 10:3 11:16 12:16 13:16 14:13 18:5 19:16 20:16 21:16 22:13 27:2 28:2 29:7 30:16 31:1 37:7 38:16 39:3 44:1 45:15 46:13 51:2 52:13 53:16 54:8 59:6 60:15 61:5 #
0.00025891163206971532168357286174398 4:2 5:9 6:15 7:9 11:8 12:14 13:7 14:9 15:12 18:3 19:16 20:5 21:4 22:13 23:6 26:2 27:10 28:12 29:15 30:14 37:1 38:13 39:3 45:2 46:16 53:7 54:12 61:12 62:6 #
0.00025891163206971532168357286174398 3:7 4:15 5:13 6:1 11:15 12:9 13:13 14:10 19:16 20:5 21:12 22:12 27:4 28:15 29:16 30:12 36:2 37:7 38:15 39:1 46:15 47:4 50:4 51:12 52:7 53:5 54:14 55:4 59:7 60:13 61:13 62:9 63:1 #
0.00025891163206971532168357286174398 3:2 4:9 5:15 6:16 7:7 11:13 12:12 13:4 14:10 15:12 18:1 19:16 20:6 21:5 22:14 23:6 27:8 28:16 29:16 30:11 36:2 37:4 38:16 39:2 45:8 46:13 47:1 52:2 53:16 54:4 60:10 61:7 #
-0.00025891163206971532168357286174398 3:5 4:15 5:13 6:7 10:4 11:15 12:8 13:7 14:16 15:4 18:6 19:12 20:1 21:10 22:14 23:1 28:12 29:12 30:2 36:14 37:11 38:3 44:1 45:10 46:14 53:4 54:14 55:8 59:4 60:16 61:16 62:14 63:4 #
-0.00025891163206971532168357286174398 3:1 4:8 5:12 6:12 7:2 11:13 12:12 13:12 14:15 15:9 22:14 23:10 28:2 29:8 30:16 31:8 35:2 36:16 37:16 38:15 39:5 44:1 45:16 46:8 52:8 53:16 54:4 60:9 61:12 #
-0.00025891163206971532168357286174398 4:8 5:14 11:9 12:16 13:5 18:2 19:14 20:12 21:4 22:7 23:8 26:5 27:16 28:16 29:16 30:16 31:13 34:1 35:7 36:10 37:12 38:16 39:6 44:2 45:15 46:10 52:10 53:16 54:2 60:10 61:15 62:3 #
-0.00025891163206971532168357286174398 3:5 4:14 5:16 6:16 7:14 11:14 12:14 13:12 14:15 15:13 19:9 20:2 21:5 22:16 23:5 27:1 28:9 29:15 30:16 31:7 35:3 36:16 37:16 38:16 39:9 44:10 45:14 46:4 52:15 53:7 59:5 60:15 61:2 #
-0.00025891163206971532168357286174398 4:8 5:15 11:3 12:16 13:10 15:6 18:1 19:13 20:14 21:2 22:10 23:15 26:7 27:16 28:16 29:13 30:15 31:13 34:3 35:10 36:14 37:16 38:16 39:10 45:13 46:15 52:3 53:16 54:8 60:9 61:15 62:1 #
0.00025891163206971532168357286174398 3:7 4:13 5:9 6:1 10:1 11:13 12:5 13:9 14:8 18:7 19:10 21:5 22:12 26:5 27:15 28:8 29:10 30:16 31:4 35:7 36:9 37:7 38:5 39:8 46:1 47:11 51:3 54:5 55:10 59:9 60:16 61:16 62:14 63:3 #
0.00025891163206971532168357286174398 3:6 4:13 5:15 6:9 10:4 11:15 12:8 13:4 14:16 15:4 18:8 19:9 22:15 23:8 26:7 27:15 28:9 29:10 30:16 31:8 35:5 36:8 37:5 38:12 39:8 46:12 47:8 51:11 52:9 53:3 54:14 55:3 59:4 60:15 61:16 62:7 #
0.00025891163206971532168357286174398 2:1 3:11 4:16 5:16 6:13 7:2 10:6 11:16 12:16 13:8 14:13 15:8 19:10 20:16 21:14 22:15 23:8 28:7 29:12 30:14 31:5 38:8 39:4 46:11 47:4 51:8 52:8 53:9 54:15 55:4 58:2 59:13 60:16 61:16 62:9 63:1 #
0.00025891163206971532168357286174398 3:7 4:13 5:12 6:9 7:1 10:3 11:15 12:5 13:5 14:16 15:4 18:3 19:15 20:2 21:7 22:16 23:1 27:5 28:15 29:16 30:15 31:4 38:11 39:7 42:1 43:4 46:9 47:7 50:3 51:13 52:1 54:10 55:8 59:9 60:15 61:16 62:16 63:1 #
-0.00025891163206971532168357286174398 2:2 3:12 4:16 5:16 6:9 10:2 11:15 12:10 13:7 14:16 15:4 21:5 22:16 23:6 28:6 29:16 30:13 36:5 37:13 38:16 39:6 46:9 47:16 51:6 52:4 53:5 54:12 55:16 56:2 58:2 59:13 60:16 61:16 62:16 63:10 #
-0.00025891163206971532168357286174398 3:8 4:14 5:13 6:3 10:6 11:13 12:3 13:6 14:11 18:1 19:2 21:4 22:13 28:11 29:16 30:11 36:3 37:4 38:11 39:7 46:5 47:9 50:2 51:13 52:1 54:7 55:10 59:9 60:16 61:13 62:12 63:1 #
-0.00025891163206971532168357286174398 2:2 3:15 4:16 5:15 6:3 10:4 11:16 12:7 13:13 14:13 19:7 20:12 21:16 22:8 27:7 28:16 29:15 30:6 36:4 37:11 38:16 39:4 42:1 46:14 47:11 50:9 51:9 53:6 54:14 55:9 58:3 59:14 60:16 61:16 62:13 63:1 #
-0.00025891163206971532168357286174398 3:7 4:16 5:15 6:7 11:16 12:10 13:8 14:15 19:5 20:2 21:9 22:15 27:5 28:16 29:16 30:8 35:2 36:5 37:11 38:14 39:3 46:8 47:12 51:10 52:10 53:7 54:13 55:12 59:6 60:12 61:16 62:11 63:4 #
0.00025891163206971532168357286174398 3:8 4:15 5:13 6:8 10:1 11:16 12:15 13:16 14:15 18:5 19:16 20:1 21:5 22:16 23:2 26:2 27:16 28:6 29:15 30:16 31:2 35:9 36:16 37:14 38:16 39:5 45:4 46:16 47:3 51:9 52:12 53:15 54:14 59:7 60:14 61:12 62:3 #
0.00025891163206971532168357286174398 3:3 4:11 5:15 6:15 7:4 10:2 11:14 12:8 13:4 14:15 15:5 18:7 19:11 20:1 21:13 22:15 23:1 26:1 27:11 28:12 29:13 30:16 31:5 37:8 38:12 44:3 45:15 46:2 52:11 53:7 60:13 61:4 #
0.00025891163206971532168357286174398 3:9 4:16 5:8 6:1 10:5 11:16 12:9 13:14 14:11 15:1 18:10 19:10 21:8 22:16 23:4 26:4 27:16 28:15 29:15 30:16 31:8 35:4 36:8 37:7 38:13 39:8 46:9 47:11 51:11 52:6 53:9 54:16 55:7 59:11 60:13 61:12 62:6 #
-0.00025891163206971532168357286174398 3:10 4:16 7:12 8:6 10:2 11:15 12:9 14:8 15:16 16:5 18:6 19:16 20:6 21:1 22:14 23:13 26:7 27:16 28:11 29:11 30:16 31:13 34:1 35:11 36:14 37:16 38:12 39:2 44:11 45:14 46:1 51:2 52:16 53:5 59:13 60:10 #
-0.00025891163206971532168357286174398 3:6 4:15 5:12 6:10 7:8 11:11 12:16 13:16 14:16 15:7 18:1 19:14 20:11 21:12 22:6 26:4 27:16 28:16 29:16 30:13 34:2 35:11 36:8 37:10 38:16 39:2 45:1 46:16 47:1 52:11 53:13 54:15 59:4 60:16 61:12 62:1 #
-0.00025891163206971532168357286174398 4:13 5:9 7:5 8:1 11:11 12:13 13:1 14:4 15:15 16:2 18:4 19:16 20:1 22:13 23:10 26:11 27:14 28:8 29:10 30:16 31:4 34:5 35:15 36:16 37:16 38:13 39:2 44:7 45:14 52:11 53:8 60:14 61:2 #
0.00025891163206971532168357286174398 3:8 4:13 5:10 10:1 11:16 12:7 13:14 14:10 15:1 18:5 19:12 21:2 22:16 23:4 26:3 27:16 28:10 29:9 30:16 31:4 35:3 36:8 37:8 38:14 39:6 46:12 47:8 50:3 51:12 52:3 53:3 54:14 55:6 58:1 59:9 60:15 61:16 62:9 #
-0.00025891163206971532168357286174398 3:7 4:14 5:15 6:13 7:10 10:1 11:14 12:8 13:3 15:2 18:4 19:16 20:10 21:15 22:6 26:4 27:16 28:12 29:11 30:16 31:3 34:2 35:7 38:12 39:6 45:1 46:14 47:3 51:9 52:9 53:11 54:12 59:8 60:13 61:8 #
0.00025891163206971532168357286174398 3:7 4:16 5:15 6:3 11:14 12:13 13:13 14:13 15:1 19:12 20:11 21:8 22:16 23:6 27:2 28:14 29:16 30:16 31:8 36:2 37:4 38:13 39:9 46:12 47:10 50:1 51:13 52:4 53:4 54:14 55:10 59:5 60:15 61:16 62:16 63:8 #
0.00025891163206971532168357286174398 3:8 4:16 5:16 6:9 11:15 12:9 13:6 14:14 15:2 19:16 20:5 21:1 22:16 23:8 27:9 28:16 29:16 30:16 31:11 36:6 37:7 38:10 39:12 42:1 43:3 46:8 47:14 50:4 51:13 52:5 54:11 55:12 59:9 60:16 61:16 62:16 63:6 #
0.00025891163206971532168357286174398 3:7 4:16 5:13 6:4 10:1 11:11 13:6 14:15 15:3 18:6 19:9 22:13 23:4 26:2 27:14 28:5 29:8 30:16 31:5 35:4 36:12 37:10 38:6 39:8 46:4 47:8 51:2 52:4 54:8 55:7 59:10 60:16 61:16 62:10 63:1 #
0.00025891163206971532168357286174398 2:1 3:13 4:12 5:4 10:1 11:16 12:12 13:16 14:6 19:16 20:7 21:14 22:10 27:9 28:14 29:16 30:13 36:7 37:9 38:15 39:1 46:10 47:8 51:4 52:5 53:4 54:10 55:15 59:6 60:13 61:16 62:14 63:6 #
-0.00025891163206971532168357286174398 3:5 4:12 5:11 6:2 10:1 11:14 12:15 13:13 14:14 18:2 19:15 20:4 21:6 22:16 28:2 29:13 30:12 36:11 37:16 38:13 39:2 44:1 45:5 46:12 47:12 51:8 52:11 53:8 54:14 55:12 59:7 60:16 61:12 62:12 63:3 #
-0.00025891163206971532168357286174398 3:7 4:16 5:15 6:2 10:7 11:15 12:7 13:12 14:10 18:8 19:6 21:10 22:12 28:6 29:16 30:12 31:1 36:5 37:12 38:15 39:10 46:8 47:12 51:6 52:9 53:4 54:13 55:10 59:5 60:16 61:16 62:13 63:1 #
-0.00025891163206971532168357286174398 3:2 4:14 5:16 6:13 11:15 12:9 13:7 14:9 19:14 20:6 21:5 22:4 27:11 28:16 29:16 30:16 31:3 35:1 36:5 37:4 38:11 39:8 43:3 46:7 47:9 50:2 51:16 52:11 53:4 54:8 55:10 59:1 60:10 61:14 62:15 63:3 #
0.00025891163206971532168357286174398 3:4 4:14 5:10 6:6 11:12 12:16 13:16 14:16 15:4 18:7 19:16 20:4 21:15 22:16 23:4 26:7 27:16 28:16 29:16 30:16 31:4 35:5 36:8 37:14 38:16 39:5 45:12 46:16 47:2 51:6 52:16 53:16 54:9 59:5 60:16 61:11 #
-0.00025891163206971532168357286174398 3:1 4:14 5:13 6:1 11:12 12:16 13:16 14:12 18:1 19:11 20:14 21:11 22:16 23:5 26:3 27:8 28:16 29:2 30:8 31:10 35:5 36:14 38:8 39:7 43:7 44:12 46:15 47:3 51:7 52:14 53:11 54:11 59:2 60:16 61:13 62:2 #
-0.00025891163206971532168357286174398 4:4 5:16 6:9 7:2 11:1 12:14 13:16 14:16 15:7 18:5 19:14 20:16 21:16 22:16 23:6 26:5 27:12 28:13 29:16 30:16 31:5 36:4 37:16 38:16 39:1 44:7 45:16 46:16 47:1 52:8 53:16 54:16 55:3 60:5 61:14 62:16 63:6 #
-0.00025891163206971532168357286174398 3:3 4:10 5:14 6:9 10:3 11:15 12:11 13:9 14:8 18:6 19:12 20:8 21:7 22:1 26:4 27:16 28:14 29:16 30:15 31:1 34:2 35:8 36:4 37:3 38:14 39:8 46:8 47:9 52:7 53:8 54:13 55:9 60:14 61:14 62:9 #
0.00025891163206971532168357286174398 3:9 4:15 5:7 6:1 10:5 11:16 12:7 13:12 14:14 18:10 19:10 21:8 22:16 26:6 27:12 29:5 30:16 31:4 35:12 36:13 37:15 38:16 39:3 45:1 46:13 47:10 51:2 52:4 53:5 54:13 55:11 59:8 60:16 61:12 62:8 63:1 #
0.00025891163206971532168357286174398 3:9 4:14 5:9 6:2 10:2 11:16 12:10 13:14 14:8 18:2 19:16 20:2 21:6 22:16 23:1 27:14 28:9 29:11 30:16 31:5 35:2 36:11 37:11 38:14 39:9 46:13 47:11 51:5 52:9 53:11 54:16 55:6 59:7 60:13 61:12 62:8 #
0.00025891163206971532168357286174398 3:11 4:16 5:7 10:4 11:15 12:8 13:16 14:9 18:8 19:10 21:9 22:12 26:4 27:15 28:11 29:13 30:13 36:7 37:6 38:16 46:13 47:2 51:7 52:7 53:2 54:12 55:4 59:6 60:13 61:16 62:16 63:6 #
0.00025891163206971532168357286174398 3:9 4:15 5:15 6:4 10:4 11:15 12:7 13:14 14:12 18:7 19:12 20:2 21:14 22:13 26:2 27:14 28:16 29:14 30:16 31:1 35:1 36:3 37:3 38:16 39:4 43:1 46:14 47:4 51:14 52:11 53:6 54:14 55:5 59:8 60:12 61:14 62:11 63:2 #
-0.00025891163206971532168357286174398 3:13 4:16 5:5 11:16 12:7 13:15 14:5 19:15 20:3 21:11 22:9 27:7 28:6 29:9 30:11 37:9 38:11 45:12 46:7 51:7 52:9 53:16 54:3 59:11 60:16 61:16 62:16 63:16 64:8 #
-0.00025891163206971532168357286174398 3:5 4:16 5:14 6:8 10:5 11:15 12:6 13:11 14:16 15:1 18:8 19:14 21:5 22:16 23:1 26:1 27:12 28:14 29:16 30:8 35:6 36:14 37:15 38:10 43:12 44:4 45:1 46:13 47:6 51:12 52:7 53:1 54:13 55:8 59:4 60:15 61:16 62:10 63:1 #
-0.00014870943007825628131776674045739 3:12 4:16 5:7 10:2 11:16 12:14 13:16 14:5 19:14 20:5 21:11 22:13 27:2 28:1 29:8 30:13 37:8 38:15 45:13 46:10 51:10 52:10 53:16 54:6 59:11 60:16 61:16 62:16 63:16 64:8 #
-0.00025891163206971532168357286174398 2:1 3:10 4:13 5:15 6:11 7:1 10:4 11:16 12:12 13:8 14:7 18:5 19:16 20:4 21:5 22:1 26:3 27:16 28:16 29:15 30:15 31:2 36:1 37:5 38:14 39:5 46:15 47:5 50:7 51:11 52:6 53:6 54:16 55:4 58:2 59:10 60:14 61:14 62:8 #
0.00025891163206971532168357286174398 3:2 4:13 5:16 6:14 7:2 11:12 12:13 13:8 14:15 15:8 18:8 19:14 22:11 23:12 26:7 27:16 28:13 29:11 30:16 31:13 35:6 36:8 37:8 38:14 39:10 46:15 47:8 51:3 52:12 53:5 54:15 55:5 59:1 60:12 61:16 62:14 63:2 #
0.00025891163206971532168357286174398 3:2 4:7 5:14 6:14 7:2 10:2 11:15 12:9 13:5 14:15 15:3 18:2 19:16 20:8 21:8 22:15 27:4 28:7 29:11 30:15 31:2 38:16 39:6 45:10 46:13 47:1 52:6 53:14 54:2 60:10 61:4 #
0.00025891163206971532168357286174398 3:2 4:9 5:12 6:13 7:3 10:1 11:14 12:10 13:4 14:14 15:5 18:6 19:12 20:4 21:8 22:16 23:2 26:1 27:11 28:12 29:12 30:16 31:3 37:8 38:11 44:1 45:14 46:4 52:5 53:14 60:7 61:10 #
0.00025891163206971532168357286174398 3:4 4:12 5:16 6:7 11:15 12:5 13:4 14:14 19:15 21:3 22:15 23:4 26:5 27:16 28:4 29:5 30:16 31:4 35:10 36:12 37:11 38:11 39:8 46:11 47:5 51:2 52:8 54:15 55:1 59:2 60:13 61:15 62:5 #
-0.00025891163206971532168357286174398 3:7 4:15 5:16 6:16 7:13 10:2 11:16 12:9 13:8 14:14 15:16 18:1 19:2 21:4 22:16 23:8 29:10 30:15 31:2 37:7 38:16 39:8 45:3 46:16 47:8 52:5 53:15 54:13 55:1 59:9 60:16 61:11 62:2 #
-8.0018867042733784859798173982881e-05 3:1 4:14 5:6 6:9 7:5 11:11 12:12 13:3 14:16 15:7 18:5 19:16 20:2 21:12 22:11 23:3 26:10 27:16 28:8 29:16 30:16 31:14 34:7 35:16 36:16 37:14 38:11 39:3 43:3 44:13 45:8 52:15 53:5 59:2 60:16 61:2 #
-0.00025891163206971532168357286174398 3:7 4:16 5:15 6:11 7:5 11:14 12:11 13:8 14:8 15:5 18:1 19:16 20:2 21:8 22:5 26:8 27:15 28:15 29:15 30:15 31:3 34:8 35:15 36:5 38:12 39:4 45:2 46:15 47:1 51:6 52:8 53:13 54:8 59:8 60:15 61:10 #
0.00025891163206971532168357286174398 3:11 4:15 5:13 6:1 10:5 11:15 12:9 13:15 14:12 18:8 19:12 21:12 22:16 26:5 27:16 28:9 29:15 30:16 35:4 36:10 37:13 38:16 39:2 45:1 46:16 47:6 51:1 52:5 53:8 54:16 55:7 59:12 60:12 61:10 62:7 63:1 #
0.00011908072632094341726516351087639 3:8 4:12 5:3 10:5 11:16 12:16 13:14 14:4 18:10 19:15 20:2 21:14 22:16 23:2 26:3 27:16 28:10 29:13 30:16 31:7 35:5 36:8 37:10 38:16 39:8 46:12 47:12 51:10 52:7 53:4 54:14 55:12 59:10 60:16 61:16 62:14 63:7 #
0.00025891163206971532168357286174398 3:11 4:10 5:7 6:4 10:2 11:15 12:8 13:16 14:16 15:2 18:9 19:11 21:8 22:16 23:1 26:5 27:16 28:9 29:15 30:16 31:6 35:5 36:10 37:4 38:12 39:8 46:10 47:9 51:6 52:7 53:10 54:15 55:5 58:1 59:12 60:15 61:12 62:3 #
-0.00025891163206971532168357286174398 2:1 3:11 4:14 5:14 6:3 10:9 11:14 12:10 13:11 14:14 18:8 19:8 21:9 22:12 26:3 27:3 28:8 29:16 30:6 36:8 37:14 38:16 39:2 46:10 47:12 51:5 52:6 53:4 54:12 55:13 59:11 60:12 61:15 62:14 63:6 #
-0.00023188471516881321268961635428951 3:6 4:13 5:6 11:10 12:16 13:14 14:6 19:14 20:9 21:3 22:16 23:1 27:15 28:2 30:15 31:5 35:14 36:2 38:15 39:1 43:12 44:4 45:5 46:15 51:10 52:9 53:15 54:8 59:5 60:14 61:10 #
-0.00025891163206971532168357286174398 3:15 4:2 10:5 11:16 12:15 13:11 14:5 18:7 19:16 20:15 21:12 22:13 23:4 26:1 27:15 28:7 35:5 36:16 37:5 44:10 45:14 51:1 52:12 53:15 59:11 60:16 61:6 #
-0.00025891163206971532168357286174398 3:8 4:12 5:16 6:9 7:1 11:14 12:11 13:7 14:16 15:4 21:4 22:16 23:2 28:4 29:14 30:16 31:3 36:8 37:14 38:15 39:8 46:9 47:11 50:3 51:12 52:4 53:6 54:14 55:7 58:1 59:9 60:16 61:16 62:11 #
-0.00025567113416328921459905187951733 2:1 3:12 4:10 10:4 11:16 12:3 14:9 15:9 18:8 19:14 21:3 22:16 23:6 26:9 27:15 28:8 29:13 30:14 31:5 34:1 35:12 36:16 37:16 38:15 39:5 43:1 44:14 45:6 51:8 52:13 58:2 59:12 60:3 #
-0.00025891163206971532168357286174398 3:12 4:12 7:5 8:1 10:2 11:16 12:9 14:4 15:16 16:5 18:1 19:16 20:13 21:5 22:13 23:12 27:7 28:16 29:16 30:16 31:6 36:3 37:16 38:9 43:1 44:12 45:12 51:7 52:16 53:1 59:12 60:7 #
0.00025891163206971532168357286174398 3:3 4:16 5:16 6:9 11:13 12:14 13:9 14:16 15:3 19:15 20:6 21:5 22:16 23:3 27:8 28:16 29:16 30:16 31:3 36:6 37:7 38:16 39:2 43:1 45:3 46:16 47:3 50:1 51:14 52:3 53:6 54:15 55:1 59:3 60:15 61:16 62:13 #
0.00025891163206971532168357286174398 3:1 4:11 5:16 6:9 11:13 12:11 13:6 14:10 18:4 19:14 21:9 22:11 26:7 27:15 28:15 29:16 30:15 31:1 35:7 36:6 38:14 39:8 46:15 47:5 52:3 53:10 54:15 55:2 59:2 60:12 61:10 62:1 #
0.00025891163206971532168357286174398 3:13 4:14 5:4 10:4 11:16 12:13 13:14 14:2 19:16 20:4 21:16 22:14 23:2 27:11 28:14 29:16 30:14 36:8 37:11 38:15 45:4 46:16 47:2 51:6 52:6 53:7 54:16 55:2 59:12 60:16 61:16 62:10 #
0.00025891163206971532168357286174398 3:1 4:8 5:15 6:16 7:7 10:1 11:13 12:14 13:9 14:16 15:8 18:8 19:16 20:5 21:11 22:15 23:2 26:5 27:16 28:16 29:16 30:10 31:1 35:1 36:4 37:10 38:16 39:9 45:3 46:16 47:7 52:3 53:14 54:14 55:1 60:11 61:15 62:3 #
-0.00025891163206971532168357286174398 3:8 4:15 5:16 6:14 7:2 10:1 11:16 12:14 13:12 14:16 15:7 19:8 20:1 21:3 22:16 23:5 28:8 29:16 30:11 36:6 37:14 38:13 45:3 46:16 47:6 51:10 52:8 53:12 54:16 55:2 59:9 60:16 61:15 62:5 #
-0.00025891163206971532168357286174398 3:8 4:16 5:16 6:10 10:1 11:16 12:14 13:11 14:16 15:1 19:12 20:8 21:13 22:15 23:1 27:1 28:7 29:16 30:7 36:4 37:16 38:6 45:11 46:14 52:4 53:13 54:16 55:2 59:10 60:16 61:16 62:12 #
-0.00025891163206971532168357286174398 4:7 5:12 6:7 11:13 12:13 13:13 14:12 18:3 19:12 21:9 22:9 28:7 29:16 30:9 36:2 37:8 38:16 45:1 46:15 47:3 52:12 53:9 54:15 59:1 60:12 61:15 62:5 #
0.00025891163206971532168357286174398 3:10 4:14 5:8 10:7 11:15 12:5 13:15 14:9 18:8 19:11 21:5 22:15 23:2 26:4 27:16 28:6 29:5 30:16 31:4 35:8 36:12 37:11 38:14 39:7 46:11 47:9 51:4 52:2 54:11 55:11 59:11 60:16 61:16 62:15 63:4 #
0.00025891163206971532168357286174398 3:10 4:13 5:9 10:5 11:11 12:1 13:11 14:5 18:6 19:7 21:6 22:14 26:2 27:14 28:8 29:9 30:16 31:1 35:2 36:8 37:5 38:13 39:4 46:7 47:9 51:3 52:2 54:5 55:11 59:8 60:15 61:13 62:14 63:3 #
0.00025891163206971532168357286174398 3:4 4:14 5:16 6:11 7:1 11:15 12:10 13:4 14:13 15:11 18:3 19:16 20:3 21:4 22:12 23:10 26:1 27:13 28:16 29:16 30:16 31:7 37:5 38:16 39:1 44:1 45:13 46:9 51:2 52:13 53:14 59:5 60:16 61:7 #
0.00025891163206971532168357286174398 3:8 4:16 5:8 10:6 11:14 12:5 13:13 14:6 18:7 19:12 20:2 21:7 22:16 23:2 27:12 28:16 29:16 30:16 31:6 36:3 37:3 38:9 39:8 45:5 46:16 47:3 51:3 52:9 53:16 54:8 59:10 60:11 61:4 #
0.00025891163206971532168357286174398 3:12 4:16 5:9 6:5 11:16 12:9 13:13 14:15 15:2 18:4 19:16 21:4 22:16 23:4 27:14 28:13 29:15 30:16 31:8 35:5 36:11 37:8 38:16 39:8 46:14 47:7 51:12 52:10 53:12 54:16 55:2 59:10 60:13 61:12 62:4 #
-0.00025891163206971532168357286174398 3:8 4:14 5:12 6:8 7:6 11:12 12:11 13:6 14:8 15:8 19:14 20:5 21:4 22:1 26:4 27:16 28:14 29:12 30:14 31:1 34:5 35:7 38:9 39:7 46:10 47:4 51:5 52:2 53:4 54:13 55:1 59:8 60:16 61:14 62:1 #
-0.00025891163206971532168357286174398 3:4 4:14 5:5 11:13 12:7 13:11 14:4 15:2 18:2 19:13 21:6 22:14 23:4 26:3 27:9 29:3 30:14 31:7 34:5 35:8 37:4 38:11 39:8 42:4 43:8 46:1 47:12 50:1 51:14 52:2 54:10 55:7 59:3 60:15 61:16 62:13 63:2 #
-0.00025891163206971532168357286174398 3:5 4:15 5:8 11:13 12:8 13:12 14:5 18:1 19:16 20:1 21:6 22:15 23:2 26:1 27:16 28:1 29:2 30:16 31:6 34:3 35:14 38:11 39:9 42:3 43:16 44:1 46:7 47:10 51:15 52:4 53:2 54:15 55:6 59:5 60:14 61:15 62:10 63:1 #
-0.00025891163206971532168357286174398 3:4 4:12 5:15 6:2 11:12 12:14 13:14 14:15 15:2 18:2 19:15 20:1 21:11 22:16 23:4 26:5 27:11 30:11 31:7 34:5 35:11 38:13 39:3 43:15 45:1 46:15 51:14 52:7 53:13 54:11 59:2 60:15 61:12 62:3 #
-0.00025891163206971532168357286174398 3:1 4:15 5:16 6:15 7:5 11:8 12:13 13:4 14:3 15:1 18:2 19:14 20:9 21:7 22:1 26:5 27:16 28:16 29:15 30:10 37:1 38:14 39:3 45:1 46:14 47:2 51:1 52:4 53:13 54:10 59:1 60:14 61:9 62:1 #
-0.00025891163206971532168357286174398 4:3 5:14 11:1 12:14 13:12 14:8 15:2 19:9 20:15 21:6 22:16 23:4 26:3 27:16 28:14 29:12 30:16 31:5 34:3 35:13 36:16 37:16 38:16 39:8 45:16 46:11 47:1 52:2 53:16 54:4 60:3 61:12 62:4 #
0.00025891163206971532168357286174398 3:3 4:10 5:13 6:4 11:9 12:13 13:14 14:10 19:9 20:11 21:16 22:15 27:1 28:11 29:12 30:16 38:15 39:3 45:1 46:16 47:3 53:6 54:16 55:1 59:4 60:16 61:16 62:10 #
0.00025891163206971532168357286174398 3:5 4:12 5:11 6:4 10:3 11:16 12:16 13:16 14:16 15:1 18:9 19:13 20:1 21:14 22:16 23:1 26:4 27:16 28:4 29:13 30:16 31:3 35:12 36:16 37:16 38:16 39:4 45:1 46:13 47:7 51:3 52:8 53:6 54:14 55:8 59:5 60:16 61:16 62:14 63:3 #
0.00025891163206971532168357286174398 3:6 4:12 5:12 6:12 7:4 10:3 11:16 12:8 13:6 14:16 15:7 18:4 19:13 21:5 22:16 23:4 26:1 27:13 28:13 29:15 30:16 31:4 35:1 36:8 37:4 38:12 39:4 43:2 46:12 47:7 50:6 51:15 52:4 54:13 55:4 59:8 60:15 61:16 62:16 63:2 #
-0.00025891163206971532168357286174398 5:7 6:13 7:2 13:8 14:16 15:4 18:3 19:8 20:9 21:15 22:15 23:1 26:4 27:12 28:11 29:14 30:12 37:12 38:12 45:11 46:13 53:8 54:16 55:5 61:6 62:16 63:5 #
-0.00025891163206971532168357286174398 2:1 3:10 4:15 5:14 6:2 10:7 11:10 12:3 13:11 14:10 18:1 19:1 21:8 22:14 27:3 28:9 29:15 30:9 35:4 36:8 37:9 38:15 39:2 46:14 47:6 51:6 52:1 54:13 55:8 59:9 60:16 61:16 62:12 63:3 #
-0.00025891163206971532168357286174398 3:4 4:11 5:14 6:6 10:4 11:14 12:7 13:6 14:15 18:4 19:5 21:5 22:11 28:7 29:15 30:11 36:11 37:10 38:15 39:4 46:10 47:8 51:1 52:4 53:7 54:15 55:1 59:3 60:16 61:11 62:2 #
0.00025891163206971532168357286174398 3:9 4:16 5:11 10:5 11:16 12:16 13:16 14:7 18:3 19:16 20:16 21:16 22:15 27:2 28:6 29:3 30:11 31:5 38:11 39:7 46:13 47:11 51:4 52:5 53:11 54:16 55:5 59:5 60:12 61:12 62:6 #
0.00025891163206971532168357286174398 4:8 5:15 6:16 7:7 10:1 11:14 12:9 13:1 15:8 18:6 19:12 22:10 23:8 26:4 27:14 28:12 29:13 30:14 31:8 37:1 38:4 39:8 46:4 47:8 54:7 55:8 60:8 61:12 62:15 63:6 #
-0.00025891163206971532168357286174398 2:2 3:11 4:10 5:12 6:13 7:7 10:7 11:16 12:13 13:11 14:12 15:5 18:4 19:16 20:4 21:4 22:1 26:4 27:16 28:16 29:16 30:16 31:5 35:2 36:2 37:1 38:13 39:8 46:14 47:6 51:9 52:5 53:13 54:14 59:15 60:12 61:9 62:2 #
-0.00025891163206971532168357286174398 2:2 3:9 4:12 5:16 6:14 7:1 10:5 11:14 12:6 13:6 14:7 18:4 19:14 20:6 21:8 22:3 26:4 27:16 28:16 29:15 30:16 31:2 34:1 35:6 36:2 38:13 39:8 46:12 47:7 50:1 51:8 52:8 53:9 54:15 55:2 58:2 59:12 60:13 61:9 62:3 #
-0.00025891163206971532168357286174398 3:4 4:12 5:14 6:6 10:5 11:16 12:11 13:9 14:16 15:2 18:12 19:16 20:2 21:4 22:16 23:3 26:6 27:16 28:14 29:14 30:14 35:1 36:11 37:16 38:1 43:1 44:14 45:16 46:9 51:5 52:16 53:9 54:15 55:1 59:2 60:12 61:13 62:8 #
-0.00025891163206971532168357286174398 3:4 4:15 5:14 6:7 10:2 11:14 12:10 13:8 14:15 15:2 18:8 19:16 20:2 21:1 22:16 23:5 26:1 27:14 28:14 29:14 30:12 35:1 36:15 37:16 38:7 43:7 44:14 45:8 46:15 47:2 51:8 52:9 53:3 54:14 55:7 59:5 60:16 61:16 62:11 63:1 #
0.00025891163206971532168357286174398 3:6 4:15 5:12 6:1 11:16 12:9 13:15 14:14 15:2 18:6 19:14 21:2 22:16 23:6 26:5 27:15 28:5 29:6 30:16 31:4 35:6 36:12 37:12 38:15 39:8 46:13 47:7 50:2 51:14 52:4 53:7 54:16 55:2 59:7 60:15 61:15 62:5 #
0.00025891163206971532168357286174398 3:6 4:15 5:14 6:8 10:3 11:13 13:3 14:14 15:3 18:6 19:14 21:2 22:14 23:4 27:13 28:16 29:16 30:16 31:4 36:4 37:4 38:13 39:4 46:12 47:5 51:14 52:6 54:13 55:4 59:6 60:15 61:16 62:9 #
-0.00025891163206971532168357286174398 3:6 4:12 5:14 6:2 10:1 11:16 12:14 13:13 14:11 19:5 20:3 21:9 22:13 27:3 28:9 29:16 30:8 35:4 36:12 37:12 38:15 39:7 46:9 47:14 51:4 52:8 53:6 54:12 55:14 56:1 59:6 60:16 61:16 62:15 63:4 #
-0.00013169561480109006137984017925646 3:1 4:8 5:15 6:16 7:9 10:1 11:12 12:15 13:9 14:13 15:14 18:5 19:13 20:2 22:13 23:11 26:3 27:5 29:1 30:15 31:7 36:2 37:10 38:16 39:9 44:14 45:16 46:11 47:1 52:13 53:14 60:12 61:5 #
0.00025891163206971532168357286174398 3:7 4:15 5:15 6:8 7:3 10:3 11:14 12:3 14:13 15:8 18:6 19:10 20:1 21:6 22:14 23:8 27:8 28:12 29:6 30:8 31:8 38:8 39:6 46:12 47:3 53:7 54:13 59:7 60:15 61:14 62:2 #
0.00025891163206971532168357286174398 3:6 4:15 5:13 6:2 10:5 11:15 12:7 13:9 14:10 18:11 19:9 20:1 21:10 22:12 26:2 27:13 28:16 29:13 30:15 31:4 38:13 39:8 46:8 47:11 51:6 52:8 53:4 54:11 55:11 59:5 60:14 61:16 62:14 63:1 #
0.00025891163206971532168357286174398 2:1 3:10 4:13 5:10 6:1 10:6 11:14 12:4 13:10 14:15 15:2 18:8 19:12 21:2 22:16 23:3 26:2 27:14 28:8 29:10 30:16 31:4 35:2 36:4 37:4 38:13 39:6 46:12 47:8 50:6 51:12 52:2 53:6 54:16 55:4 58:1 59:10 60:16 61:13 62:5 #
-0.00025891163206971532168357286174398 3:8 4:14 5:7 10:3 11:16 12:13 13:16 14:10 18:7 19:14 20:1 21:7 22:14 23:1 26:7 27:11 30:13 31:4 34:4 35:8 38:8 39:8 42:4 43:12 46:9 47:8 50:3 51:15 52:5 53:6 54:15 55:6 59:8 60:16 61:16 62:9 #
-0.00025891163206971532168357286174398 2:1 3:6 4:8 5:13 6:8 10:5 11:16 12:10 13:5 14:15 18:8 19:15 20:6 21:13 22:13 26:5 27:16 28:16 29:14 30:15 31:1 35:14 36:9 38:6 39:6 43:16 44:1 46:6 47:8 51:16 52:5 53:9 54:15 55:2 59:11 60:16 61:10 62:2 #
-0.00025891163206971532168357286174398 3:7 4:16 5:11 6:1 10:2 11:15 12:12 13:15 14:12 18:6 19:16 20:6 21:6 22:16 23:3 26:8 27:16 28:4 29:1 30:16 31:7 34:4 35:16 36:4 38:13 39:8 42:4 43:16 44:4 45:2 46:16 47:5 50:2 51:15 52:11 53:14 54:11 59:6 60:15 61:11 62:1 #
-0.00025891163206971532168357286174398 2:1 3:10 4:16 5:10 6:1 10:8 11:14 12:5 13:10 14:13 15:2 18:1 19:4 21:11 22:15 23:2 29:16 30:7 37:14 38:11 46:14 47:11 51:10 52:5 53:4 54:10 55:13 59:10 60:14 61:16 62:14 63:9 #
-0.00025891163206971532168357286174398 3:8 4:13 5:11 6:2 10:7 11:15 12:9 13:13 14:11 18:12 19:15 22:15 23:4 26:4 27:16 30:13 31:6 34:5 35:13 38:11 39:7 42:4 43:16 46:14 47:7 50:1 51:15 52:8 53:10 54:16 55:4 59:6 60:15 61:16 62:10 #
0.00025891163206971532168357286174398 3:4 4:12 5:14 6:2 10:4 11:15 12:10 13:10 14:10 18:9 19:16 21:5 22:12 26:5 27:16 28:9 29:14 30:16 31:4 35:7 36:8 37:7 38:15 39:6 46:10 47:12 51:1 52:4 53:4 54:14 55:12 59:3 60:13 61:16 62:11 63:4 #
-0.00025891163206971532168357286174398 3:10 4:16 5:16 6:9 10:2 11:15 12:12 13:14 14:16 15:1 18:1 19:4 20:4 21:13 22:16 23:5 27:10 28:16 29:16 30:16 31:13 35:5 36:15 37:16 38:6 39:1 44:16 45:11 51:9 52:16 53:3 59:11 60:12 #
0.00025891163206971532168357286174398 3:8 4:16 5:14 6:4 10:5 11:16 12:11 13:12 14:13 15:1 18:8 19:16 21:8 22:16 26:6 27:16 28:7 29:8 30:16 31:5 35:8 36:12 37:12 38:16 39:8 46:12 47:9 51:5 52:10 53:1 54:15 55:5 59:10 60:16 61:14 62:12 63:2 #
6.2740000471972652562602235093436e-05 3:6 4:15 5:15 6:4 10:4 11:15 12:16 13:16 14:14 18:12 19:16 20:13 21:16 22:16 23:1 26:9 27:16 28:15 29:14 30:16 31:2 35:4 36:2 37:7 38:16 39:1 44:2 45:15 46:14 51:1 52:14 53:16 54:6 59:5 60:15 61:6 #
0.00025891163206971532168357286174398 3:9 4:16 5:9 6:1 10:2 11:16 12:13 13:16 14:11 18:9 19:13 21:10 22:16 23:4 26:4 27:15 28:12 29:13 30:16 31:6 35:5 36:12 37:13 38:16 39:7 46:15 47:8 51:9 52:6 53:11 54:16 55:2 59:9 60:13 61:11 62:3 #
-0.00025891163206971532168357286174398 2:1 3:11 4:13 5:16 6:1 10:3 11:16 12:5 13:4 14:4 15:1 18:5 19:15 20:3 21:4 26:4 27:15 28:12 29:13 30:15 31:2 38:10 39:8 46:10 47:8 50:2 51:8 52:7 53:5 54:15 55:5 59:8 60:12 61:16 62:12 #
-0.00025891163206971532168357286174398 3:4 4:12 5:12 6:6 11:3 12:6 13:4 14:8 18:3 19:13 20:6 21:8 22:3 26:4 27:16 28:13 29:12 30:15 31:2 35:3 38:10 39:8 46:8 47:6 51:7 52:6 53:5 54:14 55:2 59:3 60:14 61:15 62:6 #
-0.00025891163206971532168357286174398 3:4 4:15 5:15 6:8 7:1 10:2 11:12 12:3 13:10 14:14 15:11 18:3 19:14 20:5 21:3 22:11 23:11 27:7 28:15 29:16 30:14 31:2 35:5 36:16 37:11 38:15 39:2 43:13 44:1 45:2 46:16 47:1 51:10 52:11 53:8 54:15 59:3 60:13 61:14 62:3 #
-0.00025891163206971532168357286174398 3:12 4:16 5:15 6:5 10:3 11:15 12:8 13:7 14:5 18:9 19:13 20:8 21:8 22:2 26:4 27:15 28:12 29:15 30:16 31:3 37:1 38:14 39:8 43:1 46:11 47:10 50:2 51:16 52:9 53:9 54:15 55:3 59:8 60:11 61:13 62:4 #
0.00025891163206971532168357286174398 3:7 4:16 5:15 6:3 11:14 12:16 13:16 14:13 19:9 20:16 21:16 22:16 23:3 28:6 29:9 30:16 31:9 38:16 39:11 45:6 46:16 47:8 52:4 53:14 54:16 55:2 59:8 60:16 61:15 62:7 #
0.00025891163206971532168357286174398 3:7 4:12 5:9 11:13 12:13 13:14 14:9 19:11 20:12 21:14 22:14 27:1 28:10 29:12 30:15 31:4 38:11 39:9 46:9 47:9 53:1 54:14 55:6 59:5 60:12 61:14 62:11 63:1 #
0.00025891163206971532168357286174398 4:1 5:14 6:12 10:4 11:6 12:15 13:14 14:12 18:5 19:16 20:16 21:13 22:13 23:1 27:11 28:16 29:16 30:16 31:4 36:3 37:2 38:9 39:8 46:9 47:8 53:11 54:16 55:4 61:11 62:5 63:1 #
0.00025891163206971532168357286174398 3:6 4:11 5:16 6:11 7:1 10:4 11:14 12:4 13:9 14:16 19:15 20:2 21:11 22:15 23:2 27:8 28:15 29:9 30:12 31:5 38:8 39:8 46:8 47:5 50:5 51:13 52:2 54:14 55:2 59:8 60:16 61:16 62:8 #
-0.00025891163206971532168357286174398 3:4 4:16 5:9 11:15 12:16 13:16 14:9 18:3 19:16 20:15 21:5 22:13 23:3 26:5 27:8 28:4 30:5 31:7 34:5 35:6 38:7 39:7 42:2 43:11 46:11 47:6 51:13 52:1 53:6 54:15 59:5 60:15 61:13 62:3 #
0.00025891163206971532168357286174398 3:3 4:14 5:8 6:4 11:15 12:14 13:14 14:16 18:4 19:16 20:13 21:16 22:16 26:3 27:11 28:11 29:10 30:16 31:3 37:3 38:15 39:5 43:1 44:5 45:1 46:13 47:6 51:6 52:15 53:16 54:11 59:2 60:14 61:9 62:1 #
-0.00025891163206971532168357286174398 5:8 6:15 7:1 13:14 14:16 15:5 19:2 20:10 21:16 22:16 23:4 26:9 27:16 28:16 29:16 30:16 31:5 34:5 35:7 36:4 37:12 38:16 39:4 45:8 46:16 47:5 53:9 54:16 55:4 61:7 62:16 63:5 #
-0.00025891163206971532168357286174398 3:5 4:15 5:16 6:7 11:8 12:12 13:16 14:16 15:1 19:2 20:7 21:13 22:15 27:10 28:16 29:16 30:15 31:8 35:2 36:15 37:16 38:16 39:9 44:8 45:16 46:2 52:15 53:9 59:4 60:16 61:1 #
-0.00025891163206971532168357286174398 3:3 4:9 5:15 6:8 10:1 11:15 12:16 13:16 14:7 19:5 20:16 21:16 22:10 23:4 27:3 28:16 29:16 30:16 31:9 36:15 37:14 38:4 44:13 45:5 51:1 52:15 53:3 59:4 60:13 #
-0.00025891163206971532168357286174398 2:4 3:15 4:15 5:8 6:1 10:4 11:16 12:11 13:16 14:15 18:1 19:5 21:11 22:16 23:4 28:6 29:16 30:13 31:1 36:12 37:16 38:1 44:6 45:16 46:5 52:4 53:16 54:8 58:4 59:16 60:16 61:16 62:6 #
0.00025891163206971532168357286174398 3:8 4:16 5:6 10:2 11:14 12:8 13:12 14:2 18:7 19:14 20:9 21:15 22:9 26:1 27:12 28:13 29:7 30:14 38:11 39:4 46:8 47:8 51:2 52:4 53:5 54:13 55:7 59:6 60:15 61:15 62:10 #
0.00025891163206971532168357286174398 3:4 4:12 5:15 6:6 10:4 11:16 12:8 13:8 14:15 18:10 19:9 21:3 22:15 23:2 26:6 27:15 28:7 29:10 30:16 31:4 35:7 36:8 37:8 38:13 39:8 46:7 47:9 51:2 52:4 53:4 54:10 55:11 59:8 60:16 61:15 62:10 63:2 #
0.00025891163206971532168357286174398 3:8 4:16 5:16 6:7 10:2 11:15 12:3 13:10 14:16 18:2 19:15 20:12 21:14 22:11 27:8 28:9 29:8 30:12 37:1 38:15 46:14 47:2 51:1 52:1 53:5 54:16 55:4 59:9 60:13 61:16 62:11 #
0.00025891163206971532168357286174398 3:3 4:15 5:16 6:14 7:2 10:3 11:15 12:13 13:5 14:14 15:4 18:4 19:15 20:13 21:10 22:16 23:4 27:7 28:15 29:16 30:16 31:4 38:12 39:4 46:11 47:5 50:2 51:13 52:10 53:5 54:12 55:8 59:5 60:13 61:16 62:14 63:5 #
-0.00025891163206971532168357286174398 5:6 6:16 7:4 13:9 14:16 15:8 19:1 20:5 21:16 22:16 23:8 26:8 27:16 28:16 29:16 30:16 31:6 34:5 35:12 36:12 37:12 38:16 39:4 45:9 46:16 47:5 53:8 54:16 55:4 61:5 62:16 63:2 #
-2.7118173801343481996509177101018e-05 3:7 4:16 5:6 6:5 11:16 12:12 13:9 14:14 15:1 18:4 19:15 22:16 23:2 26:4 27:14 30:15 31:3 34:5 35:12 37:3 38:14 42:3 43:16 45:6 46:10 50:1 51:15 52:6 53:16 54:3 59:8 60:15 61:8 #
-0.00025891163206971532168357286174398 3:2 4:12 5:12 6:2 10:3 11:14 12:13 13:11 14:11 18:5 19:16 20:2 21:2 22:14 23:4 26:7 27:14 28:2 30:12 31:7 34:4 35:12 38:12 39:5 42:2 43:14 44:1 45:2 46:15 47:2 51:11 52:10 53:13 54:8 59:3 60:13 61:12 62:2 #
-0.0001173845969970292854242521762842 3:3 4:14 5:13 6:2 11:16 12:14 13:14 14:11 18:7 19:15 20:2 21:1 22:16 23:1 26:5 27:12 30:12 31:8 34:8 35:10 38:11 39:8 42:1 43:15 46:8 47:11 51:11 52:10 53:7 54:15 55:6 59:3 60:12 61:16 62:11 63:1 #
0.00025891163206971532168357286174398 3:8 4:16 5:14 6:2 10:1 11:14 12:6 13:11 14:8 18:8 19:16 21:4 22:16 26:2 27:11 28:15 29:15 30:16 31:6 36:6 37:7 38:12 39:6 46:8 47:8 51:12 52:6 53:4 54:13 55:10 59:6 60:14 61:16 62:10 63:2 #
-0.00025891163206971532168357286174398 3:14 4:16 5:16 6:8 11:6 12:5 13:8 14:16 15:3 21:7 22:16 23:2 28:7 29:16 30:13 36:8 37:12 38:16 39:7 46:8 47:14 48:1 51:10 52:4 53:4 54:10 55:16 56:1 59:12 60:16 61:16 62:16 63:9 #
-0.00016416637256524177317096313544198 2:1 3:13 4:16 5:16 6:6 10:10 11:16 12:11 13:11 14:13 18:5 19:12 21:4 22:16 23:2 29:6 30:16 31:1 37:9 38:14 44:4 45:16 46:5 51:6 52:16 53:15 54:9 55:8 56:3 59:12 60:16 61:16 62:14 63:13 64:6 #
-0.00025891163206971532168357286174398 3:7 4:13 5:11 6:3 10:2 11:15 12:8 13:8 14:2 18:6 19:11 20:3 21:3 26:7 27:16 28:16 29:16 30:13 31:2 34:1 35:8 36:5 37:3 38:11 39:10 46:2 47:14 51:2 52:5 53:4 54:10 55:15 59:8 60:16 61:16 62:14 63:4 #
0.00025891163206971532168357286174398 2:1 3:11 4:16 5:15 6:6 10:2 11:16 12:7 13:6 14:13 15:2 19:10 20:13 21:14 22:16 23:3 27:2 28:9 29:9 30:12 31:3 38:12 39:4 46:9 47:7 53:3 54:14 55:3 59:9 60:16 61:16 62:11 63:2 #
-0.00025891163206971532168357286174398 2:1 3:15 4:10 10:7 11:16 12:5 13:1 14:13 15:6 18:9 19:16 20:3 21:9 22:16 23:4 26:3 27:15 28:16 29:16 30:11 35:2 36:14 37:15 38:3 43:3 44:16 45:8 51:12 52:15 58:1 59:16 60:5 #
-0.00025891163206971532168357286174398 3:7 4:15 5:15 6:9 7:1 10:7 11:15 12:5 13:4 14:14 15:4 18:2 19:2 21:7 22:13 23:1 27:2 28:12 29:15 30:5 35:1 36:5 37:10 38:13 46:10 47:7 51:11 52:1 53:1 54:12 55:7 59:8 60:14 61:13 62:8 #
-1.2363396017288816558336861373135e-05 3:9 4:16 5:16 6:9 10:1 11:16 12:12 13:16 14:16 19:2 20:7 21:16 22:9 27:7 28:16 29:15 30:8 31:1 35:5 36:9 37:9 38:15 39:8 46:13 47:12 51:6 52:8 53:12 54:16 55:10 59:9 60:15 61:12 62:4 #
-1.3827397992359014358698665603242e-05 4:13 5:7 11:5 12:13 13:3 14:13 15:2 19:14 20:6 21:4 22:16 26:5 27:16 28:9 29:14 30:16 31:10 34:5 35:16 36:15 37:16 38:7 39:2 44:10 45:11 52:13 53:6 60:16 61:1 #
4.4731065351262706830670623503465e-06 2:2 3:10 4:14 5:13 6:6 10:4 11:16 12:8 13:13 14:15 15:3 18:2 19:16 20:4 21:9 22:16 23:4 27:12 28:10 29:12 30:16 31:4 35:2 36:9 37:12 38:16 45:4 46:16 47:1 51:2 52:4 53:11 54:16 55:4 58:3 59:16 60:13 61:11 62:4 #
